idx,weight
0,0.2142811418
1,0.04621097818
2,-0.4480270147
3,-0.334310323
4,-0.4856198132
5,-0.1497014165
6,-0.406607151
7,0.3783988357
8,-0.05817122757
9,-0.06401657313
10,-0.331363678
11,0.02333524637
12,-0.2812677622
13,-0.1930751503
14,-0.485720098
15,0.1134413257
16,0.3867221177
17,-0.6097147465
18,0.05497391149
19,0.05209290981
20,0.3668115735
21,-0.2264868021
22,-0.06468106806
23,-0.4684772789
24,-0.1068056896
25,0.03813976422
26,0.06455741823
27,0.3155711591
28,0.4177206755
29,0.3375940323
30,0.2904751599
31,0.1409377605
32,-0.1658809632
33,0.1746515781
34,-0.1474673748
35,-0.1534670293
36,-0.09452628344
37,0.01712706685
38,0.2898946702
39,0.1443553865
40,0.2440663427
41,-0.2398396134
42,-0.3594354987
43,0.2752710283
44,0.01705038548
45,-0.2652914226
46,-0.2529025972
47,0.3158336878
48,-0.1434855461
49,-0.05798608437
50,0.04598500207
51,0.2215811908
52,0.1111268103
53,0.6559786201
54,0.0754044801
55,-0.0574375689
56,-0.5626745224
57,-0.2258179039
58,-0.00869668182
59,-0.06807294488
60,-0.3292595446
61,-0.1049400568
62,0.1179437712
63,0.5369349122
64,0.03369094431
65,-2.171455383
66,-0.6203241944
67,0.001985088922
68,-0.6848500967
69,0.2923918962
70,-0.3369550407
71,0.1480428874
72,0.4908913374
73,0.2240287811
74,0.2754114568
75,-0.03078375943
76,-0.04018094018
77,-0.02537011169
78,-0.2205790281
79,0.403942287
80,-0.07860770077
81,0.09850109369
82,0.03926813975
83,0.2477398962
84,-0.3294894993
85,-0.1116875559
86,-0.3483496606
87,-0.3528501093
88,-0.2293824255
89,-0.230028674
90,0.5078940392
91,0.4349398911
92,0.02215500176
93,0.4231095612
94,-0.1962859631
95,0.2191461772
96,-0.3116001189
97,-0.1470872015
98,0.1263693124
99,-0.4958949685
100,0.01678312011
101,-0.4214094877
102,0.3492943048
103,-0.5818397999
104,-0.08841215074
105,-0.5749515891
106,-0.4187701344
107,-0.1593686938
108,-0.6360853314
109,-0.3338962197
110,0.3679977655
111,-0.06326203793
112,0.3471665978
113,0.3039423525
114,-0.4944655299
115,0.5363686681
116,-0.7861800194
117,0.3170200884
118,0.05386902019
119,0.4769413769
120,-0.5865542293
121,0.7113856673
122,0.2278220057
123,-0.2786556482
124,-0.1592280567
125,0.3658650219
126,0.3784365952
127,-0.5800374746
128,0.0490526557
129,0.07617776841
130,-0.4187920392
131,0.648914814
132,0.01075003576
133,-0.3391583562
134,0.385525614
135,-0.1056230888
136,-0.2399355024
137,0.2270110548
138,0.3268049657
139,0.3244596124
140,0.3856995404
141,0.3686621785
142,-0.4506321549
143,0.1912330091
144,0.242853269
145,0.06219120696
146,-0.3723849654
147,0.3112855256
148,0.6318270564
149,-0.3502931297
150,-0.2241352946
151,-0.2884619534
152,-0.1603196412
153,0.0008378755301
154,-0.005631601904
155,-0.1305071414
156,-0.2582349479
157,0.3494152427
158,0.2510885
159,-0.09641595185
160,-0.3208681643
161,-0.1725248843
162,0.1616309881
163,-0.09109678119
164,-0.2992880642
165,-0.1881481409
166,-0.2882292569
167,0.2189137787
168,0.2837668657
169,-0.2362677157
170,-0.275985688
171,0.3467504382
172,-0.1965984106
173,0.1697207391
174,-0.2243717909
175,0.099687621
176,-0.2159388661
177,0.05751818046
178,-0.2187127173
179,-0.1235814244
180,-0.3798653185
181,-0.0447226353
182,-0.4101425409
183,0.2527934909
184,0.2223391831
185,-0.3859801888
186,0.1045315415
187,0.1332973391
188,-0.03864664212
189,0.03464906663
190,-0.08299104869
191,-0.2914637923
192,-0.4553091526
193,0.2601776719
194,0.2582505941
195,-0.1595790237
196,0.2526353002
197,-0.308480233
198,0.3460923135
199,0.4172184765
200,0.1749405563
201,0.5944202542
202,-0.04120693356
203,-0.2518721223
204,0.04704019427
205,0.1845629662
206,-0.3839075267
207,-1.092417836
208,0.1570449769
209,0.3461353779
210,-0.1783700287
211,-0.3377665877
212,0.07986037433
213,0.1057095677
214,-0.1252761185
215,-0.2263619602
216,-0.03046560287
217,0.1280714571
218,0.3595691621
219,0.2673292756
220,-0.2995787263
221,-0.07206481695
222,-0.08475446701
223,0.7108902335
224,-0.3183148205
225,0.1759421229
226,-0.6179116368
227,0.4946962893
228,0.342148006
229,0.2193499953
230,0.1286230534
231,0.1784525514
232,-0.2608897388
233,0.03808241338
234,0.795369029
235,-0.5858326554
236,-0.1083154082
237,-0.0775725916
238,-0.2448380589
239,-0.09150845557
240,-0.2346381545
241,-0.0704857111
242,0.03420479596
243,-0.3036682606
244,0.2958272398
245,0.1001215577
246,0.2077055722
247,-0.3340110481
248,0.0902550593
249,0.09261817485
250,0.212429896
251,-0.1272847354
252,0.3759405017
253,-0.08325138688
254,-0.2505155504
255,-0.3622006476
256,0.1013624519
257,-0.1424320489
258,0.2004601508
259,-0.03482796997
260,0.3733331263
261,-0.2829245925
262,0.1487916857
263,0.1587818116
264,-0.583407104
265,-0.3068191707
266,0.0436588861
267,-0.7548450828
268,-0.9572877288
269,-0.7018988729
270,0.05818032846
271,-0.4573123455
272,-0.3191584647
273,-0.3424869776
274,-0.1267384738
275,-0.1300540715
276,0.1717227548
277,-0.3488974571
278,-0.3640939891
279,0.118321225
280,-0.2729363143
281,0.2332570553
282,0.3902939558
283,0.3701684773
284,-0.4058629274
285,0.1742146313
286,0.6890443563
287,0.05238346383
288,0.4562475085
289,-0.01906402037
290,-0.8798410296
291,-0.04968128353
292,0.1496437043
293,-0.0006758045638
294,-0.03837668151
295,0.2689597607
296,0.3357175291
297,0.02175391652
298,0.6355731487
299,-0.604508996
300,0.4432973266
301,0.194662109
302,0.1563937366
303,0.2577070594
304,0.2350647599
305,-0.22472471
306,-0.8730309606
307,-0.01073618978
308,0.4877143502
309,-0.5427777767
310,0.3280989528
311,0.06170009822
312,-0.2798329592
313,0.02321700379
314,0.1352212727
315,-0.1419647038
316,0.1493406594
317,-0.3639885783
318,-0.2969432473
319,-0.2659329474
320,-0.7762842178
321,0.5318841338
322,0.1011918038
323,-0.1884734184
324,0.1632908881
325,0.06815570593
326,0.2010589242
327,-0.1966447085
328,0.07831376791
329,-0.514383018
330,-0.2177508324
331,0.5398857594
332,0.04517947137
333,-0.2945796847
334,0.06677174568
335,-0.5127530694
336,-0.2919353247
337,-0.1741431952
338,-0.1384904981
339,0.3916218579
340,-0.05334801972
341,-0.2690321505
342,-0.0463398546
343,0.2202961892
344,0.3970184028
345,0.05454073474
346,-0.3932569623
347,-0.2552672327
348,0.2409274429
349,-0.02325874753
350,0.288526088
351,0.2921485007
352,0.0829629153
353,-0.08576785773
354,0.2083747387
355,0.005505280569
356,-0.01819569059
357,-0.04880471155
358,-0.3947099745
359,-0.5082303882
360,0.09935360402
361,-0.008697852492
362,0.1534104198
363,-0.4473047853
364,0.5432795882
365,0.00565502001
366,0.1016390473
367,-0.2895324528
368,-0.1773891449
369,-0.1592313498
370,-0.3773145974
371,-0.08048876375
372,-0.2843859792
373,-0.3080572188
374,-0.1600055546
375,0.5322672129
376,-0.2090477645
377,-0.2142311037
378,0.03543446958
379,-0.788985312
380,-0.3081017733
381,-0.3004740477
382,-0.6298891902
383,0.3962164819
384,0.3577734828
385,0.2962471545
386,-0.3079104125
387,0.1926994324
388,0.2758751512
389,0.01729180291
390,0.2807358205
391,0.08213315159
392,0.1272585392
393,0.1638333648
394,0.1630045325
395,0.6126698852
396,-0.1121945605
397,0.06545266509
398,0.1369852424
399,-0.3706957698
400,-0.1990279853
401,0.3441453576
402,-0.08357921243
403,0.001139096101
404,0.2169933319
405,0.3671933115
406,-0.1087239981
407,-0.5032214522
408,-0.1215447858
409,-0.2641239166
410,-0.2507849038
411,0.2852519155
412,0.1531553715
413,-0.09675150365
414,0.1671325266
415,0.09972482175
416,0.0367628932
417,-0.4137887061
418,-0.06421222538
419,0.2344679087
420,-0.1837322712
421,-0.2514065802
422,-0.2232690603
423,0.3144456446
424,0.3026984036
425,-0.3843238652
426,0.2262167782
427,0.1109496653
428,0.05720094964
429,0.1391327232
430,0.3568563163
431,0.3670951724
432,0.02426391467
433,-0.2288622409
434,-0.3479817212
435,0.2421911657
436,0.2177337557
437,-0.02691806853
438,-0.0871566236
439,0.3112322986
440,0.1134266481
441,-0.1394951046
442,-0.424593389
443,0.08464363217
444,0.059893094
445,0.07335858047
446,-0.07619804144
447,0.3976317942
448,-0.4685599804
449,-0.1398580074
450,0.1755967885
451,-0.4439985454
452,-0.05035380647
453,0.1371392608
454,-0.2877650857
455,-0.2862690091
456,0.3603820205
457,0.3628087342
458,-0.3974017203
459,-0.08578315377
460,-0.1122567654
461,-0.7252702117
462,0.3522143662
463,0.01118884329
464,0.4137851894
465,0.2443357706
466,-0.5601567626
467,-0.1298397928
468,0.2415796071
469,0.1143147945
470,0.2316803932
471,0.1444233358
472,0.4333862364
473,0.08592167497
474,0.3380796313
475,-0.09279735386
476,-0.2231581956
477,0.2089521438
478,0.2505081296
479,0.02978481911
480,-0.1324428916
481,0.04204272479
482,-0.8009209037
483,0.3882927001
484,0.4089768529
485,-0.4198850691
486,-0.3150175512
487,0.1309076846
488,-0.33547315
489,-0.4110250473
490,0.2433962226
491,0.1097735167
492,0.1284911036
493,-0.04516223818
494,0.06866195798
495,0.1951584369
496,-0.02857721038
497,-0.03317474946
498,0.2766523957
499,-0.08762051165
500,0.7978109121
501,-0.06287843734
502,-0.3284386396
503,0.01958734728
504,0.6111682057
505,0.5587376952
506,-0.1857840568
507,-0.3000814021
508,-0.4751411974
509,-0.3151195645
510,0.05195233598
511,0.3670446873
512,0.3468565643
513,-0.2397724837
514,-0.6436263919
515,0.05757718906
516,-0.04265123978
517,-0.2746182084
518,0.3119646609
519,-0.1872817874
520,0.2627136111
521,-0.04719931632
522,-0.2127299309
523,0.3979083598
524,0.135656029
525,-0.06413885951
526,0.3212257028
527,0.3909245133
528,0.3448621631
529,-0.3535540402
530,-0.2504160702
531,0.371494174
532,0.08704964817
533,-0.07264693826
534,-0.3831607699
535,0.09375241399
536,0.3931414783
537,-0.2410707623
538,0.05284827948
539,-0.1937589496
540,-0.3944398761
541,-0.2845338285
542,-0.3761556149
543,0.1775933355
544,0.0654643178
545,-0.434735328
546,-0.1531585008
547,0.2108114958
548,0.07867676765
549,0.03378726915
550,0.2816789448
551,0.2817868292
552,0.3212184906
553,0.2220711261
554,0.04135411605
555,0.389549315
556,-0.4464564025
557,0.3486127257
558,0.2236579359
559,-0.3259375691
560,-0.2614859641
561,0.08252814412
562,0.244635731
563,0.01059690677
564,-0.3628929555
565,-0.2415264994
566,0.05808061361
567,-0.1196205914
568,-0.2819475532
569,-0.1990881413
570,-0.09610148519
571,-0.6089702845
572,0.2823355198
573,0.3005708456
574,-0.2997674942
575,-0.1474427879
576,0.6663275957
577,0.002398105571
578,0.2451787442
579,1.027111411
580,0.06777499616
581,-0.04754821584
582,-0.2719379961
583,0.229117021
584,0.687970221
585,0.2562551796
586,-0.03538360819
587,-0.5894328356
588,-0.0386134088
589,0.1459221691
590,0.1053549722
591,-0.1133814305
592,0.5725594163
593,1.204160333
594,0.166431278
595,0.05448270962
596,-0.2764779627
597,-0.2516773939
598,0.2629929781
599,0.3576748967
600,-0.648628056
601,-0.1849014461
602,0.5053839684
603,-0.4873663187
604,-0.8854554296
605,-0.2428898811
606,-0.6781647801
607,0.1909756213
608,-0.3076479733
609,0.1515012383
610,0.4436445832
611,-0.1003990322
612,-0.1655038893
613,0.5089045763
614,0.1757256389
615,0.2529022098
616,0.1388421506
617,-0.1421091855
618,0.02297362313
619,0.1637760997
620,0.1851601303
621,-0.06576112658
622,-0.08607135713
623,0.009296933189
624,-0.0112037668
625,0.05451796949
626,0.06373617053
627,-0.2008961439
628,0.1090809852
629,-0.5791673064
630,0.5942600965
631,0.5015493035
632,-0.554956913
633,0.3117094338
634,0.1072451547
635,-0.09648266435
636,-0.1833422482
637,-0.2067340314
638,-0.01329719927
639,-0.7221362591
640,0.4851060212
641,0.6362760663
642,-0.4447555244
643,0.7855700254
644,-0.02051720582
645,0.2465178818
646,0.2895182967
647,0.154800579
648,0.6199398637
649,0.4120922387
650,-0.3090403676
651,-0.574657321
652,0.1727511734
653,0.2760034502
654,0.001548609696
655,0.00939827878
656,0.291246295
657,0.09848999977
658,-0.4193376899
659,0.1512341499
660,-0.05878426507
661,-0.2149309516
662,-0.1611700803
663,0.9554145336
664,-0.093225725
665,0.160070613
666,0.2263861895
667,-0.01782207191
668,-0.3720714748
669,0.9411348701
670,-0.4816048741
671,0.2553980052
672,-0.575681746
673,0.3551032543
674,0.5550094247
675,-0.1239027306
676,-0.4992046952
677,0.1819759756
678,0.3905702829
679,0.0003815296222
680,0.4822797179
681,0.04405032843
682,-0.3917192817
683,-0.3520614207
684,0.7078696489
685,0.1531731337
686,0.2724474669
687,0.3733512759
688,-0.06799315661
689,0.02051598206
690,0.0626803264
691,-0.3256875277
692,-0.01052331924
693,-0.1809525639
694,-0.3043560386
695,0.8227479458
696,-0.4388190806
697,0.5780517459
698,-0.2729336917
699,-0.5581805706
700,-0.4878536463
701,0.2127465904
702,-0.9268753529
703,-0.5497378111
704,-0.04137759283
705,0.03874170408
706,-0.3543410599
707,0.1989145577
708,-0.1921137124
709,0.1408230215
710,0.2677742541
711,0.02607459761
712,-0.2644287646
713,0.03449064121
714,0.00401886506
715,-0.3422794044
716,0.4292350113
717,-0.2401558757
718,0.1703221202
719,-0.01372841932
720,0.4721136987
721,-0.3690836132
722,0.3154763877
723,0.08331476152
724,-0.0617900528
725,0.3291798234
726,-0.1704775691
727,-0.2469620258
728,0.4466408789
729,-0.8691076636
730,0.07523790747
731,0.1598294079
732,0.2276402861
733,0.403945148
734,0.2001301646
735,-0.3045052588
736,0.1089752465
737,-0.6717790961
738,-0.5021742582
739,0.2747573555
740,0.5836626887
741,-0.1432660669
742,0.1527047753
743,0.1397448331
744,0.1162948459
745,-0.1800891757
746,0.3617293239
747,-0.4685901701
748,-0.01989450492
749,0.1096560434
750,0.2257303149
751,-0.3308549821
752,-0.3369125724
753,-0.1891300827
754,-0.06492585689
755,-0.02082603797
756,-0.2579395175
757,0.298157841
758,0.3479018211
759,-0.3100369275
760,0.2847937644
761,0.08121359348
762,-0.08598329872
763,-0.5693471432
764,0.2045874
765,-0.01565698907
766,-0.4194052517
767,0.3913271725
768,0.1659982055
769,0.1316476315
770,-0.4192924201
771,0.03537854925
772,-0.08994010836
773,0.3735390902
774,-0.3650344312
775,0.0763496235
776,-0.12947613
777,-0.7226740718
778,0.2526019514
779,-0.3128862381
780,-0.6191937923
781,-0.6613827348
782,-0.2811179459
783,-0.1498887241
784,0.3663756847
785,0.3255994618
786,-0.06398216635
787,0.02875461057
788,-0.1128463522
789,-0.1245863959
790,-0.08645048738
791,-0.1859025508
792,0.5212396383
793,-0.5577270985
794,-0.1936715394
795,-0.1646703631
796,-0.2588647902
797,0.2556551397
798,0.3300334513
799,-0.195529744
800,0.01772112213
801,0.3489084244
802,0.3108703196
803,-0.2315632701
804,-0.00628407253
805,-0.1553458124
806,-0.5435874462
807,-0.2203791887
808,-0.393871069
809,0.2013320625
810,-0.1612486988
811,0.2647481263
812,0.1955255866
813,-0.02480616793
814,0.07030604035
815,0.07494427264
816,0.3028740287
817,-0.1335255355
818,-0.3129553497
819,0.03788663447
820,-0.4203494787
821,0.1831216514
822,0.331944406
823,0.3224618733
824,-0.3978533149
825,-0.5296647549
826,0.2831569314
827,0.2897447348
828,0.1236004084
829,0.3562379479
830,-0.7531011701
831,-0.1924356818
832,0.3112730682
833,-0.5379858613
834,-0.05491293967
835,0.1631802171
836,-0.2207145989
837,-0.2240693122
838,-0.02703032456
839,0.2953989804
840,-0.2843900919
841,-0.7042297125
842,0.1572904736
843,-1.032470345
844,-0.4237523675
845,-0.6138586998
846,0.2407416999
847,0.5378706455
848,0.1882539392
849,0.4259711206
850,-0.01469163131
851,0.3891412616
852,-0.2694998085
853,0.1566607505
854,0.04612093791
855,0.4168953896
856,0.1497836709
857,0.1821894497
858,0.4998260438
859,0.02989450283
860,-0.44534266
861,-0.1955348849
862,0.09692370147
863,0.376426518
864,0.417871654
865,-0.247405678
866,-0.5615466833
867,-0.1227104366
868,-0.3771439791
869,0.2142206132
870,-0.3669159114
871,-0.2390494794
872,-0.2377331555
873,-0.08430718631
874,0.590246141
875,0.1762622893
876,-0.03997471929
877,0.03560264409
878,-0.1773401499
879,-0.1760721058
880,-0.3062309623
881,0.3398580551
882,-0.8716428876
883,0.5952724218
884,-0.2180070281
885,0.03994483501
886,-0.07405121624
887,-0.2812831998
888,-0.06761368364
889,0.07091454417
890,0.4849559665
891,0.2180133462
892,-0.5481926203
893,0.1269329786
894,-0.0959706679
895,0.3558526933
896,0.5298863649
897,0.1618789583
898,-0.1521802992
899,0.3237144053
900,-0.3031534851
901,-0.2183213532
902,0.3580971956
903,-0.2742207944
904,0.1895798445
905,-0.2108528167
906,0.02100571617
907,0.5628803968
908,0.5227999091
909,0.118878454
910,-0.1350968629
911,0.05675904453
912,0.1037126333
913,-0.2030797154
914,-0.3084348142
915,0.3391315341
916,0.2967679799
917,0.08835196495
918,0.1722045988
919,0.04603193328
920,0.754237473
921,-1.094444275
922,-0.4027527273
923,-0.09282565117
924,-0.2931881547
925,-0.09720734507
926,-0.1025030762
927,-0.01939591765
928,-0.4441407025
929,-0.4049348831
930,-0.1917478591
931,-0.3648847044
932,0.2739937603
933,-0.2031609416
934,-0.6028434634
935,-0.3214181364
936,-0.3211527169
937,-0.3632738888
938,0.4189664721
939,0.004302604124
940,0.08288469911
941,0.1042565554
942,0.3540200889
943,-0.06636679918
944,-0.5653214455
945,0.2348791808
946,0.08306721598
947,0.3888564706
948,-0.1241383851
949,-0.342864126
950,0.5978147388
951,0.140973404
952,0.09694121033
953,-0.5578502417
954,0.1675872952
955,0.0672756508
956,0.09066779166
957,0.1444495469
958,0.2187033743
959,0.1523597836
960,-0.123809576
961,0.2141503394
962,-0.1546679288
963,0.2209771574
964,0.3087634742
965,-0.2427412868
966,-0.3967812359
967,-0.1788389236
968,0.1187198088
969,-1.542199016
970,-0.2803395689
971,-0.1250110865
972,0.1073883325
973,-0.1238799766
974,-0.4829588532
975,0.2847152948
976,0.3509054184
977,-0.5205541849
978,0.003186426824
979,0.09096066654
980,0.07659172267
981,0.09413738549
982,-0.348641634
983,0.02506305464
984,0.3407421112
985,0.3154268563
986,0.1918355823
987,-0.2942455709
988,0.432593137
989,0.1342716217
990,-0.2810884714
991,0.08551205695
992,-0.2371093333
993,0.4541411698
994,-0.3318796754
995,0.03510750085
996,0.285740912
997,0.04765019193
998,0.3416359425
999,0.2241169214
1000,0.2731511295
1001,-0.03699106351
1002,-0.05320888013
1003,0.2135780007
1004,-0.2434885055
1005,-0.2893747985
1006,-0.6224259138
1007,-0.2129881531
1008,0.03586888686
1009,-0.3828290105
1010,0.07845768332
1011,0.08471842855
1012,0.2422512323
1013,-0.01665004157
1014,0.3832780421
1015,0.008866850287
1016,-0.1153930724
1017,0.3503509164
1018,-0.133660242
1019,0.2395310551
1020,-0.008400459774
1021,0.2378394604
1022,-0.08649002761
1023,0.1468726248
1024,0.08642128855
1025,0.02869412489
1026,0.2194374502
1027,0.2082842886
1028,0.0268200431
1029,-0.306986481
1030,0.2324745357
1031,-0.4101804495
1032,0.1848921031
1033,0.1513549089
1034,0.08784063905
1035,-0.3940318227
1036,-0.3912247419
1037,-0.1357150376
1038,-0.2958566248
1039,-0.02990936302
1040,0.002795250854
1041,0.07857871056
1042,0.04618734121
1043,0.4270937741
1044,0.1460595578
1045,-0.08532853425
1046,-0.3467344344
1047,-0.05243224651
1048,0.09801442921
1049,0.2912319303
1050,-0.2270095646
1051,0.1343992203
1052,-0.4689779282
1053,0.04443105683
1054,-0.2813507617
1055,-0.06401507556
1056,0.22967875
1057,-0.1586055905
1058,0.3678436577
1059,-0.08856337517
1060,0.2618450224
1061,0.1234107539
1062,0.2568879128
1063,0.005376929417
1064,0.3372371197
1065,-0.2491016835
1066,-0.7514182329
1067,-0.2244178951
1068,-0.1556075513
1069,-0.1345810145
1070,0.06452444196
1071,0.004609610885
1072,-0.04249339178
1073,-0.3094039857
1074,0.3046305776
1075,-0.1179642454
1076,-0.05630578473
1077,0.04371103644
1078,0.2039439529
1079,-0.1890516281
1080,0.2071466595
1081,0.2160778791
1082,-0.3286215961
1083,-0.289008528
1084,-0.1031729504
1085,-0.1254627705
1086,0.1394617558
1087,-0.0264635738
1088,0.3825048208
1089,0.05489687994
1090,0.1485230476
1091,0.2941024005
1092,-0.0653546378
1093,-0.2694711089
1094,-0.1232850775
1095,0.06611402333
1096,-0.087706469
1097,0.2301613688
1098,-0.296005249
1099,0.07286117226
1100,-1.319835663
1101,-0.5515301824
1102,0.227818504
1103,-0.2024274319
1104,-0.2273878157
1105,-0.1582172811
1106,0.2371415794
1107,0.304561168
1108,0.2155535966
1109,-0.2410092801
1110,-0.3763279915
1111,0.4992088974
1112,0.1573351771
1113,0.04432622343
1114,-0.2034942955
1115,0.4237134755
1116,-0.02820594423
1117,-0.0589422062
1118,0.2683025897
1119,-0.3157052696
1120,-0.1689178795
1121,0.5409933925
1122,0.07580681145
1123,-0.09460525215
1124,0.3625661731
1125,-0.05583264679
1126,-0.04867369682
1127,-0.02619694732
1128,0.1820597947
1129,0.2657957971
1130,0.1358439475
1131,-0.2787299752
1132,0.1434455216
1133,-0.2487525344
1134,-0.2215600908
1135,0.06103347242
1136,-0.143350184
1137,-0.1504722834
1138,0.08782173693
1139,0.2086814195
1140,0.01609392464
1141,-0.6810728908
1142,0.04192142561
1143,-0.1982105672
1144,-0.3224419951
1145,0.2995599806
1146,-0.5779378414
1147,-0.2945957482
1148,0.6472735405
1149,0.1089557484
1150,0.07260704041
1151,0.0798316896
1152,0.02765256539
1153,0.2060810924
1154,0.1555310637
1155,-0.3431040347
1156,-0.1253860742
1157,-0.2699439228
1158,-0.2094070762
1159,-0.2512395382
1160,-0.1711680144
1161,-0.3887647092
1162,0.2132456452
1163,0.9679970741
1164,-0.196306929
1165,-0.2052612156
1166,0.7767942548
1167,0.5640109181
1168,0.8640895486
1169,0.4471740127
1170,-0.1418284327
1171,-0.2866504192
1172,0.1716289222
1173,-0.1287809759
1174,-0.2912669182
1175,0.03881929442
1176,-0.270332545
1177,0.02659199946
1178,-0.2240521759
1179,-0.7239285707
1180,0.8984077573
1181,-0.7297665477
1182,0.583558917
1183,-0.3110513687
1184,-0.0613780506
1185,-0.06112577766
1186,-0.5751081109
1187,-0.2714984417
1188,0.2076336592
1189,0.746494472
1190,0.3414764404
1191,-0.7525537014
1192,0.3843301237
1193,-1.0000422
1194,0.1709136665
1195,0.5069899559
1196,-0.8086207509
1197,0.1226124689
1198,0.02194658294
1199,-0.3283549547
1200,-0.6636557579
1201,-0.1618825048
1202,-0.407687068
1203,1.003059506
1204,0.8059467673
1205,0.4294094145
1206,0.2934697568
1207,0.6621940136
1208,0.5805636644
1209,0.4323970377
1210,0.3004030883
1211,0.2027614415
1212,-0.5979874134
1213,0.07317280769
1214,-0.06236158684
1215,0.4736228585
1216,0.3230146766
1217,0.7593060732
1218,0.982894063
1219,-0.1048994586
1220,-0.0782750845
1221,0.1205588207
1222,-0.1286151707
1223,-0.1891472489
1224,-0.4603480101
1225,-0.4110961556
1226,0.2648541629
1227,0.07015605271
1228,0.6238975525
1229,0.1500504166
1230,-0.0200475771
1231,-0.2852737904
1232,-0.2805664241
1233,0.4316675067
1234,0.2156675905
1235,-0.4759869277
1236,-0.6853544116
1237,-0.3765441775
1238,0.2374692857
1239,-0.08336438239
1240,-0.1024603546
1241,0.482349515
1242,0.07702106982
1243,-0.07996155322
1244,-0.1632927507
1245,0.497571677
1246,-0.4443050325
1247,-1.009387851
1248,-0.09641427547
1249,0.3776247501
1250,-0.9011849761
1251,-0.08179684728
1252,-0.220460102
1253,0.06168462336
1254,0.2866958678
1255,0.4190152586
1256,0.4952107072
1257,0.7256304622
1258,-0.1348132491
1259,0.5623755455
1260,0.08322051167
1261,-0.2960398197
1262,0.2864260375
1263,0.03175383061
1264,-0.4391947091
1265,-0.149352625
1266,0.1938415766
1267,-0.02318426035
1268,1.169380188
1269,-0.281930685
1270,-0.1452998221
1271,-0.4633929431
1272,0.009211366996
1273,0.764827311
1274,0.498247087
1275,0.2912849188
1276,0.02216633037
1277,-0.3045285046
1278,0.4705596566
1279,-0.03984021768
1280,1.454910278
1281,0.2758584917
1282,0.01708709262
1283,0.9113306403
1284,0.05975387245
1285,0.1759457439
1286,-0.2346685231
1287,0.05094404146
1288,0.4675424993
1289,-1.030377626
1290,0.123789452
1291,-1.036888003
1292,-0.2380840182
1293,0.2188196927
1294,0.1810253412
1295,0.6977030039
1296,0.7237221599
1297,0.1487226337
1298,-0.05852404237
1299,-0.3863807321
1300,0.2871484458
1301,0.2977046072
1302,-0.047700461
1303,-0.6440771818
1304,0.4625484943
1305,-0.6353314519
1306,0.0284081623
1307,-0.3384126425
1308,1.234486103
1309,0.3607842028
1310,0.7559853196
1311,-0.3216215968
1312,-0.383836478
1313,-0.04554918036
1314,1.335594893
1315,-0.2857567966
1316,0.238225013
1317,0.2074248195
1318,-0.4058292806
1319,-0.2027752399
1320,-0.08653556556
1321,0.8109537959
1322,0.6735482216
1323,1.054632664
1324,-0.8045783639
1325,0.2919369936
1326,-0.2120355219
1327,-0.186112836
1328,0.2660768926
1329,-0.3560532629
1330,-0.5140481591
1331,0.8083302975
1332,0.368524462
1333,0.8281769156
1334,0.2842303514
1335,-0.1079474613
1336,0.6196597815
1337,-0.4942868054
1338,0.03082417883
1339,0.5012481213
1340,-0.4146307111
1341,0.3286535442
1342,0.6439530253
1343,0.04324971139
1344,0.9955850244
1345,-0.2882931828
1346,0.3847460151
1347,0.4546867013
1348,0.06501187384
1349,-0.3331451416
1350,-0.03357830644
1351,0.125582099
1352,0.6442433
1353,-0.3240130246
1354,0.3991574049
1355,-0.3827734292
1356,0.728540957
1357,-0.339481622
1358,-0.1277771294
1359,0.05567957461
1360,0.499175638
1361,0.5659118295
1362,-0.2849295735
1363,-0.2772101462
1364,0.1992895901
1365,-0.2252271771
1366,-0.2233585268
1367,-0.1517056972
1368,0.1417868435
1369,-0.4662262499
1370,-0.1950010061
1371,-0.0745280683
1372,0.3731577396
1373,-0.2904097736
1374,0.5421216488
1375,-0.2382329851
1376,-0.6721064448
1377,0.05026330426
1378,0.4289146662
1379,-0.2771951556
1380,-0.1648029834
1381,-0.09309414774
1382,-0.8164569736
1383,0.08251456171
1384,0.5203487277
1385,0.2967877686
1386,0.08884272724
1387,0.3779236078
1388,-0.1126023903
1389,-0.2096076757
1390,0.4511152804
1391,0.04809579626
1392,0.1261026561
1393,-0.3059880137
1394,0.02533824369
1395,0.2671238482
1396,0.4802647531
1397,0.4696285129
1398,0.02288548835
1399,-0.5462619066
1400,0.9442636371
1401,0.6613614559
1402,0.1511031985
1403,0.04017209634
1404,-0.8760653734
1405,0.06906215101
1406,0.2726735175
1407,-0.2490018606
1408,0.0448698476
1409,-0.09104234725
1410,0.1803026944
1411,0.2756738365
1412,0.07595430315
1413,0.0315499641
1414,0.01712459326
1415,0.07312419266
1416,0.2492758036
1417,-0.08391390741
1418,-0.3043493927
1419,0.2322470695
1420,0.1425478607
1421,-0.6559633017
1422,-0.2068033218
1423,0.008441418409
1424,-0.04426248744
1425,-0.8310780525
1426,-0.1635732651
1427,-0.3088828623
1428,-0.1756665409
1429,-0.1307959557
1430,-0.310813725
1431,-0.2770572603
1432,-0.2650622725
1433,0.279314518
1434,0.1214945614
1435,0.3835795522
1436,0.091352202
1437,0.5362363458
1438,0.3248339295
1439,0.2794649303
1440,-0.2265093029
1441,-0.3958405256
1442,0.2252510488
1443,0.1038715988
1444,0.06014556438
1445,-0.1426544636
1446,0.1703373045
1447,0.09441141784
1448,0.3809224963
1449,0.3329463005
1450,0.06181493774
1451,0.3163238168
1452,0.2776038945
1453,-0.1332235485
1454,-0.01221487112
1455,0.2394383401
1456,-0.04463207349
1457,-0.02344465256
1458,-0.2750014365
1459,0.05023177341
1460,0.2599796951
1461,0.01965382695
1462,-0.3620775044
1463,0.2862918675
1464,0.1192361042
1465,-0.0252462402
1466,-0.01689679921
1467,-0.4905118644
1468,-0.4758812189
1469,-0.2333666682
1470,0.1631893367
1471,-0.3206799328
1472,-0.08384218812
1473,-0.2027312517
1474,0.1661964059
1475,-0.09402899444
1476,-0.217790693
1477,0.03279250488
1478,-0.1345582157
1479,0.5267189145
1480,-0.1272712797
1481,-0.05474056304
1482,-0.2391835451
1483,0.003790456802
1484,-0.3307770491
1485,0.1157966778
1486,0.1982641965
1487,0.1603600681
1488,-0.09571783245
1489,-0.4870696068
1490,-0.8038524389
1491,0.3899976015
1492,0.403671205
1493,-0.2742057145
1494,0.2006244212
1495,-0.05492503941
1496,-0.07767514884
1497,-0.106958814
1498,0.08066975325
1499,-0.6286841631
1500,0.2090404928
1501,0.5842778087
1502,0.02543990314
1503,0.2376599461
1504,-0.119851239
1505,-0.3396849632
1506,0.2879713178
1507,0.1037028879
1508,-0.0151890032
1509,0.1398242712
1510,0.5909387469
1511,-0.3111863136
1512,0.2265823185
1513,-0.4338315129
1514,-0.2798602879
1515,0.06300641596
1516,-0.2339713871
1517,-0.3861683607
1518,-0.140424788
1519,-0.1523964852
1520,0.06047572196
1521,0.1880870312
1522,0.2572397292
1523,-0.002742108423
1524,-0.966488421
1525,0.1599676311
1526,-0.03144183755
1527,0.4382370412
1528,-0.7197176218
1529,-0.1315350831
1530,-0.1307870597
1531,0.4707340598
1532,-1.34568429
1533,0.03315843269
1534,-0.453574121
1535,0.5124710202
1536,0.1846320182
1537,0.6732148528
1538,0.1116297543
1539,-0.2294730246
1540,-0.0697593987
1541,0.08693323284
1542,0.104359217
1543,0.1466045231
1544,0.2713823915
1545,-0.1719011366
1546,0.1304154396
1547,0.5403106809
1548,-0.2778622508
1549,0.06146176904
1550,-0.1925724298
1551,-0.1082761511
1552,-0.1264305264
1553,-0.4808418453
1554,0.06883876771
1555,0.0875916779
1556,-0.1267073452
1557,0.3820486367
1558,-0.07524688542
1559,0.2994966209
1560,-0.06070618704
1561,-0.414254874
1562,-1.0408324
1563,0.1196082979
1564,-0.08613119274
1565,0.04050472006
1566,-0.3590776622
1567,0.03610331938
1568,-0.4770182669
1569,0.07789679617
1570,0.08685459197
1571,-0.08419649303
1572,-1.035789132
1573,-0.06743277609
1574,0.211867094
1575,-0.01274767052
1576,-0.1693931818
1577,-0.09908667207
1578,-0.3360386193
1579,-0.1791572124
1580,0.1598908007
1581,0.3362951875
1582,0.5876565576
1583,0.03424713761
1584,0.5791720152
1585,0.1251147091
1586,0.006641995162
1587,-0.3107229471
1588,0.07549901307
1589,0.6994425058
1590,0.03238685057
1591,0.1923867315
1592,0.1385629028
1593,0.1194106266
1594,0.211373955
1595,0.00605649827
1596,-0.05789342895
1597,-0.2421761751
1598,-0.1929904222
1599,-0.1714400053
1600,0.687247932
1601,-0.09479613602
1602,0.2290132344
1603,-0.1968470067
1604,0.1336280406
1605,0.03404785693
1606,0.3750232458
1607,0.6408584118
1608,0.4267834127
1609,-0.4207106829
1610,-0.1831868887
1611,0.4322692454
1612,0.2018839568
1613,0.16529046
1614,0.01731862687
1615,0.5791935325
1616,-0.0820364058
1617,-0.2412587702
1618,-0.3777375817
1619,-0.2039001733
1620,0.3997398019
1621,-0.1185287386
1622,-0.04472372308
1623,0.2416546345
1624,0.2854590416
1625,-0.1152555421
1626,-0.5017813444
1627,0.0154096894
1628,-0.07271461934
1629,0.1733973175
1630,-0.08618298918
1631,0.03356144577
1632,0.3632025719
1633,0.1247841343
1634,0.5459682941
1635,0.2023761272
1636,0.01047778036
1637,-0.2231382281
1638,-0.3097266257
1639,-0.0169417616
1640,-0.1870492399
1641,0.05459029973
1642,0.02461048588
1643,0.02994150482
1644,0.01717231236
1645,-0.09330607951
1646,0.2064011395
1647,0.1913879514
1648,-0.284103334
1649,0.1157413274
1650,0.1485725045
1651,0.08737782389
1652,-0.3422429264
1653,-0.7519494295
1654,-0.3691179752
1655,0.2459117472
1656,-0.262498796
1657,-0.6331844926
1658,0.1245301962
1659,0.2529406548
1660,-0.2351786643
1661,-0.0288529098
1662,-0.6361860037
1663,-0.5280821323
1664,0.2298877239
1665,-0.1274538338
1666,0.07462067902
1667,-0.7134180665
1668,-0.2503393292
1669,-0.1714259237
1670,0.2645047009
1671,-0.8102179766
1672,0.4763902128
1673,-0.6966984272
1674,-1.086510301
1675,0.5258020163
1676,0.5567505956
1677,0.5063205361
1678,-0.2063940912
1679,-0.2434060127
1680,-0.3935324848
1681,-0.4359207451
1682,0.1286128461
1683,0.6701072454
1684,0.2229040712
1685,-0.1193229929
1686,0.2645125091
1687,0.2202628702
1688,0.2047165483
1689,-0.6533164382
1690,-0.8332867622
1691,-0.2853634059
1692,-0.002010272816
1693,0.1818449199
1694,0.1185475215
1695,-0.04881796986
1696,-0.06919468939
1697,0.2901494205
1698,0.3843081594
1699,0.2231560051
1700,0.2003245056
1701,0.09293073416
1702,0.6119753122
1703,-0.2359125912
1704,0.582049787
1705,-0.1855785251
1706,0.07663621008
1707,-0.4956929088
1708,0.04903616756
1709,0.2410190254
1710,0.4665531814
1711,-0.1542690247
1712,0.3509935439
1713,0.2212464064
1714,0.08069711924
1715,-0.07375901937
1716,0.1993240565
1717,0.3303468227
1718,-0.859406054
1719,-0.5029573441
1720,-0.3892310262
1721,0.2777498662
1722,0.2823950648
1723,-0.2692884803
1724,-0.1217969581
1725,0.03243981302
1726,-0.7232445478
1727,-0.1809770763
1728,0.4135319591
1729,0.5021600127
1730,-0.2157359272
1731,-0.1181547642
1732,-0.2967146337
1733,-0.3137577772
1734,-0.1570543647
1735,-0.2125134915
1736,0.006352192257
1737,0.04535920173
1738,-0.209664613
1739,0.07271498442
1740,0.3130071461
1741,-0.9539399743
1742,-0.3518517613
1743,0.5921853185
1744,0.4813147187
1745,-0.8104809523
1746,0.2803807855
1747,-0.4126899242
1748,-0.07773318887
1749,-0.2416845411
1750,-0.3802139759
1751,0.143936947
1752,-0.3104431629
1753,0.4571841061
1754,-0.01229154877
1755,-0.3055243492
1756,0.7228990793
1757,-0.1604762077
1758,0.810020268
1759,-0.1325852722
1760,0.7190569043
1761,-0.3364350498
1762,0.2006851733
1763,-0.3326458037
1764,0.07094076276
1765,0.4268772602
1766,0.477278322
1767,-0.3800012469
1768,0.2451656163
1769,-0.1726573557
1770,-0.05400986969
1771,-0.2380164266
1772,0.2201864421
1773,0.06264502555
1774,-0.8897227645
1775,-0.3322023451
1776,0.1538808495
1777,-0.3291400373
1778,-0.01838462055
1779,0.1812704355
1780,-0.08185461909
1781,0.2019609958
1782,-0.02940405719
1783,-0.4018726051
1784,0.2783993781
1785,0.1090163887
1786,-0.09471839666
1787,0.09944845736
1788,-0.6328385472
1789,0.1799545586
1790,0.5725517869
1791,0.1099229977
1792,-0.3075592518
1793,0.1712886095
1794,0.01072068512
1795,-0.1561544985
1796,0.240467608
1797,-0.2468177676
1798,-0.1301673353
1799,-0.09333254397
1800,-0.239253372
1801,-0.245393157
1802,-0.05021963641
1803,-0.3065273464
1804,-0.1101591513
1805,-0.01385191083
1806,0.324736774
1807,-0.0008719035541
1808,-0.03901362792
1809,0.1608637273
1810,0.09538471699
1811,-0.07229743153
1812,-0.3229720294
1813,-0.370189786
1814,-0.07699352503
1815,0.1768828481
1816,-0.0304673817
1817,0.2254624814
1818,0.3074528277
1819,0.09200464934
1820,0.03978958353
1821,0.09914011508
1822,-0.07838603109
1823,0.1581218094
1824,-0.01960797422
1825,0.1029185653
1826,-0.01022626366
1827,0.0782436803
1828,0.1508690268
1829,-0.3474934995
1830,-0.3462792337
1831,-0.1938740313
1832,-0.1942729652
1833,0.196034044
1834,-0.3361443877
1835,-0.08088473231
1836,0.3786447048
1837,-0.356860131
1838,-0.00329028815
1839,-0.3707016408
1840,0.323584348
1841,-0.04589872062
1842,0.1652123332
1843,0.2375240326
1844,-0.08520396054
1845,-0.4138385057
1846,0.3099728525
1847,0.02839029394
1848,-0.06312686205
1849,0.09381587803
1850,0.1178655326
1851,0.1905403882
1852,0.2268774062
1853,-0.2277593762
1854,0.4088972211
1855,-0.05138579383
1856,-0.03988081962
1857,-0.3007496893
1858,0.1518492252
1859,-0.1494652778
1860,0.3523237407
1861,-0.2446778715
1862,-0.2769108117
1863,0.02137684822
1864,0.1987146139
1865,-0.308346957
1866,-0.2564643919
1867,-0.1362582296
1868,-0.3229456842
1869,0.2242353708
1870,0.4187551141
1871,0.2669937909
1872,-0.2926163673
1873,0.3583490849
1874,0.1077661067
1875,0.04578862712
1876,0.3011919558
1877,-0.1961734295
1878,-0.2025810629
1879,-0.2345337123
1880,0.05409257114
1881,-0.1296771318
1882,-0.1680674404
1883,0.322260499
1884,-0.3004569411
1885,-0.231010586
1886,-0.03708621487
1887,-0.4596044123
1888,-0.3274403811
1889,0.1887789816
1890,0.1311756372
1891,0.05611860752
1892,0.0785581544
1893,0.359680742
1894,-0.2651719749
1895,-0.01253663097
1896,-0.2325054705
1897,0.1066156328
1898,0.02323954925
1899,0.3305544257
1900,0.3451176882
1901,-0.1136315018
1902,0.3595144451
1903,-0.1954043657
1904,0.03220660239
1905,-0.3020042777
1906,0.3913745284
1907,-0.01625256427
1908,-0.1872569621
1909,0.1907384247
1910,0.1900125444
1911,-0.121673435
1912,-0.1121818349
1913,-0.1770267934
1914,0.1480450928
1915,0.2251994759
1916,0.2653715014
1917,-0.2313863486
1918,-0.2161139548
1919,-0.00472498918
1920,0.9601160884
1921,0.3954592347
1922,-0.1279910207
1923,-0.2348431796
1924,0.8153482676
1925,0.262889713
1926,-0.5498303771
1927,-0.4006755054
1928,0.2054227591
1929,0.6061006784
1930,-0.442650795
1931,-0.7475942969
1932,0.1624878198
1933,-0.422758162
1934,0.06424231082
1935,-0.1751775295
1936,-0.7686840296
1937,0.5652729273
1938,0.6897691488
1939,-0.05498198047
1940,-0.1570229977
1941,-0.07767918706
1942,0.2920366228
1943,-0.4945275784
1944,0.2211186439
1945,0.4470534623
1946,0.06376923621
1947,-0.2265107483
1948,0.6001319885
1949,-0.3179633021
1950,0.5950394869
1951,-0.4574505091
1952,-0.6245070696
1953,0.6612896323
1954,0.795748055
1955,-1.388679504
1956,-0.8316649199
1957,-0.5741932988
1958,0.8613086343
1959,1.032764316
1960,0.01758364588
1961,0.3040506542
1962,-0.5191457868
1963,0.974794209
1964,-0.9391227961
1965,-0.3049340248
1966,0.4953177273
1967,0.2907637954
1968,-0.6846584082
1969,-0.3416332901
1970,0.1083583012
1971,0.9876983762
1972,-0.09116360545
1973,-0.5475393534
1974,-0.3755390644
1975,0.3075642288
1976,0.3998457789
1977,0.3924125731
1978,0.6776590347
1979,1.145437002
1980,-0.210215956
1981,0.346193254
1982,0.8284282684
1983,-0.1842417419
1984,0.3787925243
1985,0.6087998152
1986,0.09194304794
1987,-2.448753834
1988,0.1212235615
1989,-0.2475835532
1990,0.1971809864
1991,-0.6105098724
1992,0.1179262921
1993,0.2268306315
1994,0.8283983469
1995,0.2716750503
1996,0.3489679992
1997,-0.6882051229
1998,-0.405321449
1999,0.2530986667
2000,0.2904651165
2001,0.008893381804
2002,0.3110448718
2003,0.05226654932
2004,-0.2788899541
2005,-0.3208886087
2006,-0.3169076741
2007,0.9269475937
2008,-0.1354158521
2009,0.1226162016
2010,-0.3016636968
2011,-0.2345663011
2012,0.07666482776
2013,-0.271951288
2014,0.4545674622
2015,0.2235779166
2016,-2.503187656
2017,0.1070200503
2018,0.6522509456
2019,0.275828898
2020,0.1332635581
2021,0.4876554608
2022,0.435787797
2023,-0.97372967
2024,-0.2436673343
2025,-0.2693842649
2026,-0.6313686371
2027,-0.1943371147
2028,-0.5426645279
2029,-0.1263885349
2030,0.1080189422
2031,0.250841558
2032,-0.07949166
2033,-0.3231996
2034,-0.3173625767
2035,0.7297350168
2036,-1.276516199
2037,0.1679921895
2038,0.5716347694
2039,-0.2449894845
2040,-0.9134703279
2041,0.200267911
2042,0.1410847157
2043,0.0162576139
2044,-0.7398532629
2045,-0.1519801766
2046,-0.1342354268
2047,-0.1490463316
2048,1.321750164
2049,0.1117965654
2050,-0.5005448461
2051,-0.372982204
2052,-0.3193399012
2053,0.08355816454
2054,-0.9699378014
2055,0.108657293
2056,0.002676843898
2057,-0.2859244943
2058,-0.2671947479
2059,-0.6203232408
2060,0.4250588417
2061,0.3119452596
2062,-0.5455418229
2063,0.7721058726
2064,-0.6022573113
2065,0.01851258986
2066,-0.6014791131
2067,0.1329121888
2068,0.504823029
2069,0.3351246119
2070,0.2430212498
2071,0.2807559967
2072,1.082087636
2073,-0.4222927988
2074,-0.7833195925
2075,-0.9840946794
2076,0.206720978
2077,0.8429943323
2078,0.158351019
2079,-0.7965715528
2080,0.1909602284
2081,0.4465084374
2082,0.7651644349
2083,-0.6484304667
2084,-0.6867184043
2085,-0.551130712
2086,0.1509732902
2087,-0.03625482321
2088,-0.4170661569
2089,0.5149607062
2090,0.1745615155
2091,0.3343789577
2092,0.2697336376
2093,0.2479601204
2094,0.7662338018
2095,-0.3850349486
2096,0.5834457874
2097,-0.3432360291
2098,-0.2644459009
2099,-0.03949789703
2100,-0.5646996498
2101,-0.2136891931
2102,-0.02024902031
2103,0.2054143399
2104,-0.506177485
2105,-0.6155020595
2106,-0.001982035348
2107,-0.1104857102
2108,-0.2168416679
2109,0.08006658405
2110,0.2698831558
2111,0.6178831458
2112,-0.07397350669
2113,0.3183146715
2114,0.6444894075
2115,-1.34726584
2116,0.2283448428
2117,-0.3316934705
2118,-0.2372636497
2119,-0.3380066156
2120,-0.2339410037
2121,0.3400495052
2122,0.5631529689
2123,0.7748965025
2124,0.1766592264
2125,-1.056396961
2126,-1.357824922
2127,-0.5420149565
2128,-0.5993279815
2129,-0.01125006936
2130,0.66399014
2131,-0.06389954686
2132,-0.0103528183
2133,0.2946552336
2134,0.0339884758
2135,0.1694149226
2136,-0.5402628779
2137,-0.2417552769
2138,-0.3481985033
2139,-0.3555597365
2140,-0.4590261579
2141,-0.3899032176
2142,0.5181849599
2143,0.7113464475
2144,-0.5390495062
2145,0.6747770309
2146,-0.1615789384
2147,-0.20305565
2148,-0.1076055765
2149,0.3865277171
2150,0.5748394132
2151,0.01022094768
2152,0.563741684
2153,-0.3695977628
2154,0.001728598843
2155,0.01850790903
2156,-0.7377160192
2157,-0.1746073961
2158,0.4009528756
2159,0.3061185181
2160,-0.3861072958
2161,-0.2536281645
2162,-0.1999121159
2163,0.9948092699
2164,-0.4684725106
2165,0.09724614769
2166,-1.057206154
2167,0.7975232005
2168,0.4083088338
2169,0.07042947412
2170,0.6144354939
2171,1.197593808
2172,-0.6072718501
2173,-0.1667427719
2174,0.3570768237
2175,0.01073759329
2176,0.1640826017
2177,0.2116875648
2178,0.6382271051
2179,-0.2620110512
2180,0.7312623262
2181,0.2858020067
2182,-0.2879744172
2183,-0.3169031739
2184,0.005721113645
2185,-0.1354862303
2186,-0.6955243945
2187,-0.4082385898
2188,0.5196236968
2189,-0.4781084061
2190,-0.2462821901
2191,0.251927644
2192,-0.5452625155
2193,0.2754674554
2194,0.655194521
2195,0.1555303782
2196,0.6737876534
2197,-0.3491745293
2198,-0.3433457613
2199,-0.0199280642
2200,0.364046365
2201,0.5923895836
2202,-0.861753583
2203,-0.5490252972
2204,0.08795341104
2205,-0.6130678654
2206,-0.4096148014
2207,-0.08026055992
2208,-0.1149176732
2209,0.9015848637
2210,0.1903882474
2211,-0.4717696607
2212,-0.7386527658
2213,-0.1040172353
2214,0.5492170453
2215,-0.02438061684
2216,-0.6603161097
2217,0.1660145819
2218,-0.2007438093
2219,0.4802310467
2220,-0.2019494027
2221,0.01093668025
2222,0.09447860718
2223,0.3271515369
2224,-0.2194108218
2225,0.01431282144
2226,0.4728483856
2227,0.1902137548
2228,-0.4527719915
2229,-0.3397372961
2230,0.3731025755
2231,-0.6678418517
2232,-0.04655699059
2233,0.00774633605
2234,-0.03601390496
2235,0.5475897789
2236,0.2746490836
2237,-0.3090103865
2238,0.04378256574
2239,0.245093897
2240,-0.2263398618
2241,0.3965680599
2242,0.2170675844
2243,-1.324437022
2244,0.6260843277
2245,-0.239858523
2246,0.2810029089
2247,-0.4242882729
2248,-0.5487348437
2249,0.7467309833
2250,0.3871430755
2251,0.8480245471
2252,0.3756183088
2253,-0.8145021796
2254,-1.521630168
2255,-0.08263293654
2256,-1.028589606
2257,-0.09411203861
2258,0.7960991263
2259,-0.3954876363
2260,-0.3290466964
2261,-0.1972954273
2262,0.1490492374
2263,-0.08633951098
2264,-0.1608083844
2265,-0.04216602817
2266,-0.2100371569
2267,-0.139892593
2268,-0.1227235869
2269,0.00349359354
2270,0.1693984717
2271,0.5136618018
2272,-0.7702015638
2273,0.33950302
2274,-0.03240221366
2275,0.0420637466
2276,-0.3306232989
2277,0.1702055186
2278,0.7474032044
2279,0.1884414107
2280,0.8507552743
2281,-0.4917443693
2282,0.1516080052
2283,0.04400797561
2284,-0.9862806201
2285,0.3070428967
2286,0.02557480522
2287,0.3252723515
2288,-0.2219405919
2289,0.2976844311
2290,-0.796071887
2291,0.7686314583
2292,-0.5285441279
2293,0.0664107576
2294,-0.5994625688
2295,1.070418239
2296,-0.1365523636
2297,0.1870519668
2298,0.8061110377
2299,1.215514779
2300,0.01536900736
2301,-0.001724121161
2302,0.5132007599
2303,0.20677872
2304,-2.662605762
2305,0.09027931094
2306,0.1432492286
2307,-2.966862679
2308,-0.4056060612
2309,0.376714915
2310,0.1264173836
2311,-0.6710605621
2312,0.387381196
2313,0.3730043471
2314,-0.1292237937
2315,2.505949974
2316,2.40663743
2317,-1.008521438
2318,0.0306004025
2319,-1.060416341
2320,-0.5507446527
2321,2.823411703
2322,-0.7084197998
2323,0.1055665091
2324,0.5097501874
2325,-0.02903990075
2326,0.001245485619
2327,-0.3357011378
2328,-0.1037129164
2329,0.2662814856
2330,-0.9542021155
2331,-0.9562503099
2332,-0.2580732703
2333,0.1036066636
2334,-0.3089545667
2335,-1.981544018
2336,-0.4472143054
2337,-1.19845891
2338,-4.148534298
2339,1.138096452
2340,0.3656392097
2341,-0.400902003
2342,-0.892855227
2343,-1.951994061
2344,1.245042443
2345,-0.3657758236
2346,-2.522814035
2347,-0.3894233704
2348,-1.413941503
2349,-0.150734365
2350,-0.4295182526
2351,0.2813741267
2352,-0.1898787767
2353,-0.2762172818
2354,0.2768461704
2355,-1.035008907
2356,-1.948367476
2357,-0.4371194541
2358,0.2293479741
2359,-0.4227305949
2360,1.10307765
2361,0.8749836683
2362,-0.6601393223
2363,0.3018607199
2364,2.436449766
2365,0.1481731385
2366,-0.2239419222
2367,-0.1571851224
2368,-0.6064710617
2369,0.1764383167
2370,0.3390999138
2371,-0.08248192072
2372,-0.1109993979
2373,-0.2367888391
2374,0.3414013386
2375,0.08137536794
2376,0.1645339429
2377,0.3899157345
2378,-0.06889183074
2379,-0.07352463901
2380,-0.3374349773
2381,0.113116391
2382,0.2139717489
2383,-0.4711504281
2384,-0.04334677011
2385,-0.1109346002
2386,0.3748216927
2387,0.1282442063
2388,-0.1833175719
2389,-0.006324401591
2390,-0.3562595546
2391,0.3667378426
2392,0.1592195332
2393,0.1866489947
2394,0.2159217
2395,-0.3572954535
2396,0.3970755339
2397,-0.2497759014
2398,0.1064964309
2399,-0.1068767607
2400,0.4699198604
2401,-0.6618923545
2402,-0.6466509104
2403,-0.138619259
2404,-0.2334724665
2405,0.3915334642
2406,-0.009295063093
2407,0.3842439651
2408,0.2900855541
2409,0.2597544491
2410,-0.04199052975
2411,-0.09717789292
2412,-0.2173448801
2413,-0.3042171001
2414,-0.06716096401
2415,-0.3353114426
2416,0.3447836339
2417,-0.2775485218
2418,0.03736874461
2419,-0.1918232143
2420,0.5773919225
2421,0.2858032882
2422,0.2871775031
2423,-0.3608645499
2424,0.3046455383
2425,-0.2168653309
2426,-0.05481854454
2427,-0.1866497993
2428,-0.02327819914
2429,-0.1112356558
2430,0.3516134918
2431,0.3091123998
2432,-0.2877040505
2433,-0.1374006718
2434,0.4085528851
2435,-0.5414698124
2436,-0.07754036784
2437,0.386544615
2438,0.223021239
2439,-0.02919022366
2440,-0.115683645
2441,0.1048937738
2442,-0.3579061031
2443,-0.6498128176
2444,0.642252028
2445,-0.9084500074
2446,-0.4783120155
2447,0.4163582623
2448,0.003003672231
2449,-0.2734905183
2450,0.1477299929
2451,0.02815157548
2452,-0.3155331612
2453,-0.3169941604
2454,0.1946988106
2455,-0.4024660587
2456,0.4014481306
2457,-0.7198456526
2458,-0.6123779416
2459,-0.2546066642
2460,-0.1002274975
2461,-0.1789803058
2462,0.3355643451
2463,0.1129587889
2464,0.4289809763
2465,-0.002977268538
2466,-0.1045489386
2467,0.1705548465
2468,0.1895568222
2469,0.2732875347
2470,-0.1227891743
2471,-0.526006639
2472,0.1149479225
2473,-0.07470735908
2474,-0.05058962107
2475,-0.268659234
2476,-0.5052286386
2477,-0.3881063163
2478,-0.4427692294
2479,-0.119334586
2480,-0.2646381259
2481,-0.1669985354
2482,-0.3915055096
2483,0.4530260265
2484,-1.049501657
2485,0.297132045
2486,-0.03205471113
2487,0.1326012462
2488,-0.7414250374
2489,0.4260358512
2490,0.5215953588
2491,0.4495049715
2492,-0.9728015065
2493,-0.1761405468
2494,-0.2055640221
2495,-0.1137485132
2496,0.08442585915
2497,0.01419378072
2498,0.0141774537
2499,0.06611757725
2500,0.008297648281
2501,0
2502,0.06539298594
2503,-0.02374471538
2504,-0.1131491885
2505,-0.006147484295
2506,-0.1174359471
2507,0.07448090613
2508,-0.08691203594
2509,0.1791529059
2510,0.1039816439
2511,0.06342788786
2512,-0.004664917476
2513,0.1176696941
2514,0.1127243116
2515,-0.1085814461
2516,0.01455472317
2517,-0.01707464643
2518,0
2519,0.0468711704
2520,0.002943278058
2521,0.1260225177
2522,-0.07926133275
2523,0.02397860773
2524,0.04470311105
2525,-0.1518589705
2526,0.03302212059
2527,-0.1049226746
2528,0.09218585491
2529,0.05103769153
2530,0.08660810441
2531,-0.01866114512
2532,-0.05510938168
2533,0.006986795459
2534,-0.08919147402
2535,-0.009061073884
2536,0.008020457812
2537,0.04545046389
2538,-0.003686096519
2539,0.000495163782
2540,0.006776053924
2541,0
2542,-0.02392153628
2543,0
2544,0.002344343811
2545,0
2546,0.05212334916
2547,-0.01099148765
2548,0.05941586941
2549,-0.08544433117
2550,-0.03014604189
2551,-0.02934409864
2552,0.1187464669
2553,-0.04487765208
2554,-0.06346715987
2555,0.01040935982
2556,0.1013421863
2557,0
2558,0.05282844231
2559,0.07081503421
2560,-0.2340031862
2561,0.1199998558
2562,-0.08073496819
2563,0.419267565
2564,-0.3705700636
2565,-0.2458539158
2566,0.2352134287
2567,0.1964130253
2568,-0.08190959692
2569,0.3614737988
2570,-0.1684990674
2571,0.1979095042
2572,0.002322402783
2573,-0.04642001912
2574,-0.08167034388
2575,0.05886087567
2576,0.5897769928
2577,-0.1578217447
2578,-0.4754464328
2579,0.4875757694
2580,-0.2140647471
2581,-0.1212870255
2582,0.6486681104
2583,0.04129473493
2584,0.2666241825
2585,0.3499866426
2586,-0.1441904306
2587,0.2130672336
2588,0.6142268777
2589,0.6828222871
2590,0.280032903
2591,0.4159527719
2592,-0.7924231291
2593,0.6846818328
2594,-0.6789500117
2595,0.2087664455
2596,0.2337606847
2597,-0.7383654714
2598,-0.4374113381
2599,-0.5920684934
2600,0.2139345109
2601,-0.8714128733
2602,-0.2076012343
2603,-0.1224350929
2604,0.2826217115
2605,-0.03386620432
2606,0.01221753471
2607,0.005351364613
2608,-0.3105770648
2609,0.3566868901
2610,0.0005262605264
2611,0.5276457667
2612,0.1466793716
2613,-0.2256212682
2614,0.2989214063
2615,0.3183883429
2616,-0.1277012825
2617,-0.2684861124
2618,0.2356733233
2619,-0.09945307672
2620,-0.08078631759
2621,0.5855571628
2622,0.02182173915
2623,-0.5309074521
2624,-0.8262521029
2625,-0.04798579961
2626,0.1761174202
2627,0.03020469286
2628,-0.2114314735
2629,0.09764844179
2630,-0.4025650322
2631,-0.08354396373
2632,-0.2733919919
2633,-0.676453054
2634,-0.04989880696
2635,-0.2083500624
2636,-0.1952854693
2637,0.03104754724
2638,-0.5846509337
2639,-0.001112449681
2640,-0.304952085
2641,-0.05511168763
2642,-0.05665872246
2643,-0.1659585088
2644,-0.3660838902
2645,-0.2806393802
2646,-0.04968238994
2647,-0.9407940507
2648,-0.4226246774
2649,0.2020009756
2650,-0.1382844597
2651,0.1277771294
2652,0.0596232079
2653,0.1487585455
2654,0.1428192407
2655,-0.5953975916
2656,-0.4240199327
2657,0.06378329545
2658,-0.4187905788
2659,0.4414394796
2660,-0.270991981
2661,-0.09538725019
2662,-0.2110792547
2663,0.6941923499
2664,-0.120389767
2665,-0.9243869185
2666,0.8478276134
2667,-0.5851517916
2668,0.6257996559
2669,0.01443254668
2670,0.003357256996
2671,0.01112966426
2672,-0.1542060524
2673,0.3708849549
2674,0.2799960971
2675,0.0273051504
2676,0.2617467344
2677,-0.2501057088
2678,0.5120465159
2679,-0.5324313641
2680,0.08079129457
2681,0.09860872477
2682,-0.1627818793
2683,-0.7304195762
2684,-0.1484747529
2685,0.1386479437
2686,-0.428140521
2687,0.2253449112
2688,-0.7008119822
2689,-0.1594614983
2690,0.191387549
2691,0.1859674901
2692,-0.1094880626
2693,-0.28696087
2694,0.1573468894
2695,0.03673300892
2696,0.1740762889
2697,-0.1063055769
2698,0.06161319837
2699,0.4326403737
2700,0.111780934
2701,-0.5312862396
2702,0.129715234
2703,0.602124989
2704,-0.09254712611
2705,-0.3177260756
2706,0.3586567044
2707,-0.04838264734
2708,0.2566750348
2709,-0.1061657742
2710,-0.1096801981
2711,0.05531425402
2712,0.4510276616
2713,0.02116539143
2714,0.2449908108
2715,-0.1834168434
2716,-0.3749289513
2717,0.419935137
2718,0.3895424604
2719,-0.02334207855
2720,-0.2717496753
2721,0.3239038587
2722,0.2701318562
2723,0.2741132081
2724,0.0811657533
2725,-0.5471681356
2726,-0.06009510532
2727,-0.5459163189
2728,0.04525052011
2729,0.381683588
2730,-0.27942276
2731,0.2345067412
2732,0.2511974871
2733,-0.2301212251
2734,0.001144339913
2735,0.09475964308
2736,0.2887431085
2737,0.1840294749
2738,0.09452870488
2739,-0.2791205645
2740,-0.3009080589
2741,0.1659653336
2742,0.1107635126
2743,0.1702557206
2744,-0.1913851202
2745,0.2818301916
2746,-0.2893681526
2747,0.2364508808
2748,-0.303455174
2749,0.3125359416
2750,0.1417738199
2751,-0.009805408306
2752,-0.7205744386
2753,-0.3465544581
2754,-0.2574352026
2755,0.3665577173
2756,-0.6160671711
2757,0.092498146
2758,-0.01387997624
2759,-0.01146023721
2760,0.06078440696
2761,0.3869838715
2762,0.005992975086
2763,0.07116072625
2764,0.08135172725
2765,0.01323078852
2766,-0.7455382347
2767,-0.07617006451
2768,0.7493114471
2769,0.1726529896
2770,-0.3881299496
2771,0.1490207762
2772,-0.005757083651
2773,0.2298776954
2774,1.086651802
2775,0.2895212471
2776,0.3299666941
2777,0.8537958264
2778,-0.05713576823
2779,0.1291884035
2780,0.3736157715
2781,0.4179232419
2782,0.4133363962
2783,0.4316798151
2784,-0.7736691833
2785,0.6300470829
2786,-0.324745357
2787,0.2640639544
2788,-0.1923038363
2789,-0.2609553039
2790,0.0001431571291
2791,-0.5303750038
2792,0.06202153862
2793,-0.2091489136
2794,-0.04274120927
2795,-0.9046324492
2796,-0.1826333404
2797,0.2192249447
2798,0.3954470158
2799,-0.01704942435
2800,-0.09688566625
2801,0.5040442944
2802,-0.2292782962
2803,0.3107203245
2804,-0.2295449972
2805,0.1949160099
2806,0.8613769412
2807,0.2029359639
2808,0.4709937871
2809,-0.09804457426
2810,0.2795528173
2811,0.3724797368
2812,-0.2533087432
2813,0.2966367006
2814,0.4727761745
2815,0.1902975142
2816,-0.215670228
2817,-0.2464504242
2818,-0.1107572168
2819,0.03573838621
2820,0.2691727579
2821,0.00341116311
2822,0.1670748889
2823,-0.3153059185
2824,-0.2917001247
2825,0.04449320585
2826,-0.1794110537
2827,-0.2996618748
2828,0.02487394027
2829,-0.09831860662
2830,0.07909648865
2831,0.2722575963
2832,0.3745828867
2833,-0.477099359
2834,-0.06981179118
2835,-0.05180531368
2836,-0.1007127911
2837,-0.3056307733
2838,-0.3529526591
2839,-0.3784404397
2840,0.3119749427
2841,0.2973855138
2842,-0.156894803
2843,-0.2781687081
2844,-0.09522219747
2845,0.03727060184
2846,-0.1389296204
2847,-0.1144936606
2848,0.3766599596
2849,-0.0681502521
2850,0.06567633897
2851,0.01529819425
2852,0.2958343327
2853,0.2710780799
2854,-0.1154850647
2855,0.01460993383
2856,0.07591174543
2857,-0.2341341674
2858,0.2269447446
2859,0.1314953417
2860,0.21470581
2861,-0.1531810313
2862,-0.3295820355
2863,0.2238763571
2864,0.02022672631
2865,-0.07162082195
2866,-0.1424124092
2867,-0.3005468249
2868,0.2515624166
2869,-0.2865071297
2870,-0.2190662324
2871,-0.3192305565
2872,-0.2303562462
2873,-0.2641242445
2874,0.06695631146
2875,0.03312811255
2876,0.1102934778
2877,0.1625580639
2878,0.4644298255
2879,0.01481071766
2880,0.272115469
2881,0.2920645475
2882,0.02962093242
2883,0.08556123823
2884,-0.05094162002
2885,0.08429194242
2886,-0.1611937135
2887,0.0788243562
2888,-0.04765891284
2889,-0.01615528204
2890,-0.02493114397
2891,-0.2927690446
2892,0.01731462032
2893,0.2603100836
2894,0.2727436125
2895,-0.09649598598
2896,-0.2040003538
2897,0.01950047351
2898,-0.1842527986
2899,-0.07229062915
2900,-0.2568763793
2901,-0.1609171629
2902,0.09477196634
2903,-0.2826711535
2904,0.2834773362
2905,-0.2879618108
2906,-0.09207247943
2907,-0.1735209823
2908,0.2484011203
2909,0.1187709868
2910,0.02378457971
2911,0.04183767363
2912,-0.158154428
2913,-0.2156759948
2914,-0.1578955948
2915,-0.1287440807
2916,-0.1902927756
2917,-0.2460538894
2918,0.2434433401
2919,-0.129528746
2920,-0.2562761605
2921,0.05308857933
2922,0.03324314207
2923,0.00706151966
2924,-0.06961905211
2925,-0.1385806501
2926,0.1084623709
2927,0.1053956226
2928,-0.09934287518
2929,0.2019775957
2930,0.2058283389
2931,-0.1830717325
2932,-0.199406743
2933,-0.1731106341
2934,-0.1955530047
2935,0.07566919923
2936,0.140064612
2937,-0.2189565599
2938,-0.2677728832
2939,0.1047180295
2940,0.189198941
2941,-0.2768756747
2942,-0.2300559133
2943,-0.1339718848
2944,0.2516339123
2945,-0.2976107001
2946,-0.1957980841
2947,-0.03140909597
2948,0.4196673036
2949,-0.173340112
2950,0.3964461684
2951,-0.2465400696
2952,0.1122013703
2953,-0.2697852552
2954,-0.5460609794
2955,0.003752735211
2956,0.1272670031
2957,0.3874525726
2958,-0.1965467781
2959,-1.189621687
2960,-0.04117364436
2961,-0.06078141183
2962,-0.1460589319
2963,0.1282570213
2964,0.2253831178
2965,0.1012816802
2966,-0.3099744916
2967,0.1879962683
2968,0.06822293252
2969,-0.3281234801
2970,0.05058073625
2971,-0.1223947778
2972,-0.1459444463
2973,-0.340544939
2974,0.3933311105
2975,0.0140112387
2976,-0.02398674749
2977,-0.1694340855
2978,-0.2962572277
2979,0.1650542319
2980,-0.6279068589
2981,-0.02023399062
2982,-0.2484871149
2983,-0.08894363046
2984,0.06261225045
2985,0.3243930042
2986,0.14760831
2987,0.2550675571
2988,-0.08474764228
2989,0.2104241252
2990,-0.2212022096
2991,-0.4752553999
2992,-0.703081727
2993,-0.698325634
2994,0.09764653444
2995,0.1473438293
2996,-0.2567306757
2997,-0.1728016585
2998,-0.001776550896
2999,0.02637784928
3000,-0.1939591765
3001,0.3585214615
3002,0.3551847339
3003,-0.03975235298
3004,-0.0026370259
3005,-0.2447538972
3006,0.2215587348
3007,0.1358775049
3008,0.570787847
3009,-0.01820140891
3010,0.321952045
3011,0.1206792891
3012,0.3551982641
3013,-0.326381743
3014,0.1118528843
3015,-0.2689140737
3016,0.1910680234
3017,0.1379017085
3018,0.458247304
3019,0.02875598148
3020,0.2763770819
3021,0.04583361745
3022,0.2832441926
3023,-0.1165677533
3024,-0.383343488
3025,0.04347318038
3026,-0.01691193879
3027,-0.6124173999
3028,-0.1899683625
3029,-0.06284733862
3030,-0.1361497343
3031,0.2537072301
3032,-0.0164738819
3033,-0.1451252699
3034,-0.1899011284
3035,0.04488923773
3036,0.09219010919
3037,0.01242359262
3038,0.1778906584
3039,0.2916051149
3040,-0.02440456301
3041,0.1713175327
3042,-0.09707596153
3043,-0.05247512832
3044,0.003821257036
3045,-0.2229104191
3046,0.2565440834
3047,-0.3911983073
3048,-0.3553594649
3049,-0.143321529
3050,0.1082061082
3051,-0.07973801345
3052,-0.5310379863
3053,-0.1308305562
3054,0.03948926181
3055,0.0005534121883
3056,-0.008635715581
3057,0.2197202146
3058,-0.1470792741
3059,-0.3239619136
3060,-0.1150864139
3061,-0.2753264904
3062,-0.07269406319
3063,-0.07321183383
3064,0.005119027104
3065,-0.223398596
3066,0.05303132161
3067,0.1127614751
3068,0.04677576944
3069,0.2838449478
3070,-0.1074715033
3071,-0.2392619103
3072,-0.1410004795
3073,-0.04424767196
3074,0.1493106484
3075,0.2226078063
3076,-0.4454441667
3077,-0.2587715387
3078,0.05552969128
3079,-0.2063147873
3080,0.1813278198
3081,-0.2490267605
3082,-0.03294469789
3083,0.3948752284
3084,-0.2022976577
3085,-0.2054122686
3086,0.04745384306
3087,-0.05352829024
3088,0.2950454354
3089,-0.03585979715
3090,0.08156845719
3091,0.04633795843
3092,-0.1621627361
3093,-0.1978771091
3094,-0.1293656528
3095,0.1917318702
3096,-0.2477562129
3097,0.03068890795
3098,-0.03193046898
3099,0.189015165
3100,-0.1363399476
3101,-0.1995191872
3102,0.04936845601
3103,0.2556986809
3104,0.1364599913
3105,0.0233936049
3106,0.2892945707
3107,-0.112999022
3108,-0.1103138849
3109,-0.1591163576
3110,0.07476706803
3111,0.2459292561
3112,0.007104456425
3113,0.1400979459
3114,-0.2870383263
3115,0.378031522
3116,-0.220834747
3117,-0.3887290359
3118,0.1707233489
3119,0.2032482028
3120,0.2389043272
3121,-0.1886082143
3122,-0.1715431362
3123,0.1754959673
3124,-0.1890926957
3125,-0.3242525458
3126,0.1490247995
3127,0.2469838709
3128,0.1215936914
3129,0.04432430118
3130,-0.04103271291
3131,0.2517843544
3132,-0.195063889
3133,0.2211619616
3134,-0.4128813744
3135,-0.2676194608
3136,-0.1533709764
3137,-0.4090055823
3138,0.1850189716
3139,0.06434877962
3140,0.03055025078
3141,-0.2842763364
3142,0.05622000992
3143,0.04670511931
3144,0.5724402666
3145,0.01859468035
3146,-0.4548014998
3147,0.33058846
3148,0.02293353342
3149,-0.2149008065
3150,0.3656256795
3151,0.3073189259
3152,0.08155547082
3153,0.2765533924
3154,-0.3772342503
3155,0.1300355196
3156,0.1765141636
3157,0.0343824625
3158,-0.192904219
3159,0.476026684
3160,0.1225792989
3161,0.09939648956
3162,0.1603330374
3163,-0.3402738273
3164,-0.1567055881
3165,-0.1301606297
3166,0.3121806085
3167,-0.3068816662
3168,0.1527732611
3169,-0.009569792077
3170,0.1616614014
3171,0.1517373025
3172,-0.2471519113
3173,0.2365184724
3174,-0.2775589228
3175,0.2204471976
3176,0.2478552759
3177,0.752538383
3178,-0.1232072785
3179,0.2508840859
3180,0.1592749506
3181,-0.1294800788
3182,-0.3106579483
3183,0.2297523916
3184,-0.441126287
3185,0.6489349604
3186,-0.2364411205
3187,0.08376895636
3188,-0.1527571678
3189,-0.2826571465
3190,-0.4334773421
3191,-0.0548947528
3192,-0.6760243773
3193,0.05466511473
3194,0.005582115613
3195,-0.02559878118
3196,0.3470298648
3197,0.4791102707
3198,0.007459889632
3199,-0.168185398
3200,-0.1783730686
3201,-0.1569141597
3202,-0.8000475168
3203,-0.2317074537
3204,-0.4565636218
3205,-0.1132383719
3206,-0.2006516457
3207,-0.05384900793
3208,0.0332640633
3209,0.04982937872
3210,0.0676907599
3211,1.105141163
3212,0.2021781057
3213,-0.04004017636
3214,-0.08534684032
3215,0.8622771502
3216,-0.1376176924
3217,0.1193261668
3218,-0.1168482527
3219,-0.920642674
3220,0.079604581
3221,0.06598678231
3222,-0.2754394114
3223,0.6461498737
3224,0.6252788901
3225,-0.142324239
3226,0.298494637
3227,-0.6664982438
3228,0.2457106262
3229,0.02399628237
3230,-0.2050352991
3231,0.279900521
3232,-0.6827321649
3233,-0.2701556087
3234,-0.01032977551
3235,-0.05465460196
3236,0.9662008882
3237,-0.4752505422
3238,0.6045324206
3239,-0.06994959712
3240,-0.6281253099
3241,0.3404157162
3242,0.952504456
3243,0.01671917923
3244,0.2638641
3245,-0.1031797752
3246,0.08966726065
3247,-0.009423943236
3248,-1.017947316
3249,0.1406742185
3250,0.1526295245
3251,-0.04542401806
3252,-0.1667096615
3253,-0.1944410801
3254,-0.03033286519
3255,0.597902596
3256,-0.8573649526
3257,0.2118010074
3258,-0.4813199043
3259,0.4682476521
3260,0.2209070772
3261,0.6225611567
3262,-0.4796769023
3263,-0.1066193953
3264,0.4367360175
3265,-0.1099573821
3266,0.3285755515
3267,-0.5571975708
3268,1.04722178
3269,-0.2753302753
3270,0.6274507046
3271,-0.2920938432
3272,-0.2041240931
3273,-0.2412684411
3274,-0.2953044176
3275,0.2370087057
3276,-0.03771294281
3277,0.5458711386
3278,0.3627441525
3279,0.1347021908
3280,-0.4261426926
3281,0.5569307208
3282,0.002848363249
3283,-0.1862916499
3284,-0.2957534492
3285,0.07972532511
3286,-1.098832965
3287,-0.3227725923
3288,-0.1419965774
3289,-0.09115255624
3290,-0.197073102
3291,-0.249988243
3292,-0.1717617661
3293,-0.511897862
3294,0.1380265951
3295,-0.3884128332
3296,-0.09037448466
3297,-1.120839238
3298,-0.6185674667
3299,-0.304522872
3300,-1.233496904
3301,0.0744562149
3302,-0.09466107935
3303,0.1703925431
3304,0.02744441852
3305,-1.137730598
3306,-0.3750950396
3307,0.4586096406
3308,-0.3284556866
3309,-0.1871890873
3310,0.03971820697
3311,0.332975179
3312,0.1520171165
3313,0.5874290466
3314,-0.1195209548
3315,-0.3795351088
3316,0.2888076901
3317,-0.1366653591
3318,-0.7337448001
3319,0.02305123582
3320,0.04827450961
3321,-0.3668801486
3322,0.2253610641
3323,0.2049665302
3324,-0.6805771589
3325,-0.5595103502
3326,-0.2869258523
3327,0.5086368322
3328,0.05811460689
3329,0.8856483698
3330,0.1882132888
3331,-0.324616611
3332,-0.2786733806
3333,0.05300382897
3334,0.6696549058
3335,0.2142189443
3336,0.4119692743
3337,0.5208101869
3338,-0.2668397129
3339,0.1421982646
3340,-0.1361503601
3341,-0.2857576013
3342,0.07725678384
3343,-0.1306143403
3344,-0.8544923663
3345,0.3497309089
3346,-0.7540447116
3347,0.2046341598
3348,-0.2151823193
3349,0.1876597553
3350,0.6784139872
3351,-0.2522858679
3352,-0.5018641353
3353,0.1397068352
3354,-0.2252478004
3355,0.8649509549
3356,0.2240669727
3357,-0.1765912324
3358,-0.5963831544
3359,0.516253531
3360,-0.9480150342
3361,-0.44749704
3362,-0.3804379106
3363,-0.1347108781
3364,-0.3136778772
3365,0.1783369482
3366,0.6530942917
3367,-0.5807036757
3368,-0.72485286
3369,-0.4459284544
3370,0.1163790375
3371,-0.05687276274
3372,-0.40937078
3373,-0.189095974
3374,0.2412652373
3375,-0.272649765
3376,0.7590298653
3377,0.04076880217
3378,0.03140177205
3379,-0.4032859206
3380,-0.1592955589
3381,-0.07520317286
3382,0.5226537585
3383,-0.63864851
3384,0.8071647286
3385,-0.0542152822
3386,0.06334961206
3387,0.1892602444
3388,-1.215368748
3389,-0.1955157667
3390,0.1686144918
3391,-0.321347177
3392,0.07019557804
3393,-1.0938586
3394,0.1132689863
3395,0.2003796697
3396,0.01097307447
3397,0.1122644544
3398,0.280434221
3399,0.1492063403
3400,0.1530696601
3401,0.08080157638
3402,0.5975126624
3403,-0.02679344453
3404,0.268465966
3405,0.02307798155
3406,0.2464610636
3407,-0.6836189032
3408,-0.2546599209
3409,0.4546467662
3410,0.0926355496
3411,0.05452116579
3412,-0.007740514819
3413,-0.1381088644
3414,0.1537912786
3415,0.0560221225
3416,-0.1143776253
3417,-0.1201818511
3418,-0.1036718413
3419,0.4623706341
3420,-0.03484842554
3421,-0.6239679456
3422,-0.05567243323
3423,-0.17116265
3424,0.04945128039
3425,0.1343133897
3426,0.001126734423
3427,0.06119132787
3428,-1.238972664
3429,-0.311958909
3430,0.09418314695
3431,-0.2745598257
3432,0.1122743785
3433,0.2216903269
3434,0.1736603379
3435,-0.4582989216
3436,-0.2224420011
3437,0.1918999702
3438,-0.2182168663
3439,-0.1092088819
3440,0.3194252849
3441,0.3799766004
3442,-0.04348636791
3443,0.3471875489
3444,0.2276859283
3445,0.3010979593
3446,0.4187672138
3447,-0.1233244762
3448,0.3659995198
3449,0.2401904166
3450,0.339809835
3451,-0.06655795127
3452,-0.6062089205
3453,-0.2140161991
3454,-0.2134123892
3455,0.07996982336
3456,-0.3950043321
3457,0.2899776995
3458,0.122315079
3459,0.1319701076
3460,0.1542344391
3461,0.06772126257
3462,0.1296223402
3463,-0.04941385612
3464,-0.3250989914
3465,0.2112621665
3466,0.380723089
3467,-0.2822415531
3468,0.09239852428
3469,0.03512939438
3470,-0.1390335113
3471,-0.3403373957
3472,0.7002885938
3473,-0.01609975472
3474,-0.2486001551
3475,0.2993976474
3476,0.2119209319
3477,0.0419292897
3478,-0.05642104894
3479,-0.3012903929
3480,-0.2485916615
3481,-0.08442501724
3482,-0.3370454609
3483,0.3258253336
3484,-0.1158690751
3485,-0.04204736277
3486,0.03353856131
3487,0.04415212572
3488,0.4253480732
3489,-0.02891114354
3490,-0.3457126915
3491,0.1124470979
3492,-0.07177717239
3493,0.1427933127
3494,-0.1265800297
3495,-0.07257659733
3496,0.06197914481
3497,-1.146601558
3498,0.3064304292
3499,-0.08063881099
3500,-0.1992108226
3501,-0.2062440813
3502,-0.194752261
3503,0.3579848409
3504,0.3166953325
3505,-0.4217104912
3506,0.2380437553
3507,-0.0635959059
3508,-0.1115328223
3509,-0.3005198836
3510,0.596506834
3511,-0.1950036734
3512,0.2973291874
3513,0.1454930604
3514,-0.09346389771
3515,-0.1705160737
3516,-0.5689889789
3517,0.03787940368
3518,0.3179165721
3519,0.2716710269
3520,-0.5144475102
3521,0.6586844921
3522,0.1978592575
3523,0.2433484644
3524,0.1158909202
3525,0.04218685254
3526,-0.8362151384
3527,-0.2622081041
3528,0.07389877737
3529,0.06324091554
3530,-0.3169734776
3531,0.1226302609
3532,0.6203655005
3533,-0.221828714
3534,-0.08863130212
3535,-0.1554004103
3536,0.440695256
3537,0.006453705952
3538,-0.3419959843
3539,0.02329310402
3540,-0.2165841758
3541,0.2388911694
3542,0.6032910943
3543,-0.5013795495
3544,-0.1793264747
3545,0.4870370626
3546,-0.3037855029
3547,0.2420371324
3548,0.04098397121
3549,0.2308921218
3550,-0.7315708399
3551,0.1702546775
3552,-0.04788217321
3553,0.2517910004
3554,-0.6341439486
3555,-0.3279460073
3556,-0.05391381308
3557,0.04237119108
3558,0.5144492984
3559,-0.3729764521
3560,-0.8804020286
3561,-0.8663024306
3562,0.153203547
3563,-0.1940345466
3564,-0.004771892447
3565,-0.3096713722
3566,-0.3326163888
3567,-0.03125040606
3568,-0.5382837653
3569,-0.3432148397
3570,0.08181662858
3571,0.344255656
3572,-0.3008681536
3573,0.1458771229
3574,0.3462779224
3575,-0.2391642928
3576,0.2132329345
3577,-0.3289070725
3578,0.02568666823
3579,0.2552514076
3580,-0.09459389746
3581,0.2722686529
3582,-0.1312850267
3583,-0.01845030487
3584,-0.08514263481
3585,0.07982471585
3586,-0.2165150046
3587,0.2586666644
3588,-0.06953202188
3589,-0.1120462939
3590,-0.01619550399
3591,0.001124609029
3592,0.3379590809
3593,0.2457290143
3594,-0.2560135424
3595,0.2530713975
3596,-0.6314940453
3597,-0.1736755371
3598,-0.1953111291
3599,-0.7243510485
3600,-0.1593058109
3601,0.1505511403
3602,-0.2247280329
3603,-0.604523778
3604,0.01842717826
3605,-0.2030011863
3606,-0.07754783332
3607,-0.2294593751
3608,-0.07200416923
3609,0.1239457726
3610,-0.1720107198
3611,0.4658611119
3612,-0.2263804674
3613,0.1605205238
3614,-0.1042149886
3615,0.08236412704
3616,0.3477059007
3617,-0.1150367185
3618,0.1029055864
3619,-0.5873985291
3620,-0.3233878016
3621,-0.3659212291
3622,-0.2759775519
3623,0.2359548211
3624,0.2791645825
3625,0.2533508241
3626,0.2301834077
3627,0.2694669962
3628,0.2408012599
3629,-0.07722567767
3630,0.2637684047
3631,-0.268509984
3632,-0.08261045069
3633,0.09632894397
3634,-0.2811795175
3635,0.2601834536
3636,0.02820800804
3637,0.0952019617
3638,0.1847288609
3639,-0.1191231236
3640,0.449008137
3641,-0.1481541395
3642,0.3751845062
3643,-0.0243884176
3644,0.001247332199
3645,-0.05162870511
3646,-0.6798858643
3647,-0.869410634
3648,0.5142793655
3649,0.2094658911
3650,0.3574985564
3651,0.2173122168
3652,0.3404821157
3653,0.1486826539
3654,-0.6047245264
3655,0.1629362702
3656,0.5130083561
3657,0.3067428768
3658,-0.3783833086
3659,0.01000812836
3660,-0.2494943142
3661,-0.1042222157
3662,-0.3001650274
3663,0.07287012041
3664,-0.722653091
3665,-0.03609248251
3666,0.1984707117
3667,0.1096936688
3668,-0.2374988049
3669,-0.08078856021
3670,-0.6812400222
3671,-0.0006265676348
3672,0.01779682375
3673,0.5468374491
3674,-0.1052433252
3675,0.3834637403
3676,-0.08695351332
3677,0.1940422058
3678,0.1798034608
3679,-0.1207333952
3680,0.8134098053
3681,0.1041477844
3682,0.09419061244
3683,0.3766149879
3684,-0.1259646565
3685,0.1310816109
3686,-0.1211662516
3687,0.6680864096
3688,0.07259754837
3689,-0.07256163657
3690,-0.2242589444
3691,0.2535526454
3692,-0.2895812988
3693,0.2037629634
3694,-0.05722903088
3695,0.08010691404
3696,0.05547214672
3697,-0.04599331319
3698,-0.2914532125
3699,-0.6630952358
3700,-0.1847854257
3701,0.1019555777
3702,-0.2746180296
3703,-0.3219871521
3704,0.08921565861
3705,0.1953967661
3706,0.03061467595
3707,-0.5752379298
3708,0.4997902513
3709,-0.3159819245
3710,0.1663621217
3711,-0.324511081
3712,0.1149343699
3713,0.4385146499
3714,0.01176783815
3715,0.2774310708
3716,-0.4769403636
3717,-0.1154142246
3718,-0.6968834996
3719,0.004387180321
3720,-0.003395804437
3721,0.2393762022
3722,-1.180567026
3723,0.07365839183
3724,-0.1419351697
3725,0.1156865656
3726,0.02487094142
3727,0.4714922309
3728,0.03306327015
3729,-0.2027861476
3730,0.06673741341
3731,0.2289249599
3732,-0.1239042953
3733,-0.3042224944
3734,0.06098585948
3735,-0.2477760166
3736,0.4307374954
3737,-0.09410525113
3738,-0.2938973904
3739,-0.0102591645
3740,0.1428924948
3741,0.3557502329
3742,0.1530954093
3743,0.2689314485
3744,-0.2168089002
3745,0.3373123109
3746,0.2015127689
3747,-0.2110466361
3748,0.04851381853
3749,0.3913880289
3750,-0.1548565179
3751,-0.1537083834
3752,-0.3307470679
3753,0.07435808331
3754,0.3918649554
3755,-0.1017154902
3756,0.2852225602
3757,0.02703910694
3758,-0.04288939759
3759,0.4969572127
3760,0.2922104001
3761,-0.5876902938
3762,0.1742007434
3763,-0.09553985298
3764,0.1114041805
3765,0.1506273448
3766,-0.06387675554
3767,-0.01972679794
3768,-0.2087618262
3769,0.07846299559
3770,-0.3550622761
3771,0.2851806283
3772,0.3895664215
3773,-0.1109097898
3774,0.3418323398
3775,0.01520013437
3776,-0.2294320017
3777,-0.1397487521
3778,0.05922868475
3779,0.2768488228
3780,-0.09953129292
3781,0.105298169
3782,-0.1292622685
3783,-0.3188370168
3784,0.1557437181
3785,-0.2478562891
3786,-0.0993019864
3787,-0.0924898088
3788,0.06451774389
3789,-0.2793269157
3790,-0.07781419903
3791,-0.3597470224
3792,-0.306239754
3793,-0.03584286943
3794,0.08018023521
3795,-0.5245861411
3796,-0.0545004569
3797,-0.1110295579
3798,-0.2368212342
3799,0.02376770228
3800,-0.003458671737
3801,0.2539782226
3802,0.1497879326
3803,0.1480708271
3804,-0.08308087289
3805,-0.144282043
3806,-0.1686022878
3807,-0.0102952579
3808,-0.3094255328
3809,0.2759325504
3810,-0.01533620339
3811,0.08547753841
3812,-0.2542181611
3813,-0.03597245365
3814,0.07837693393
3815,-0.1393583268
3816,-0.2762826979
3817,0.2058650553
3818,0.2338394374
3819,-0.1933140457
3820,-0.2482620031
3821,0.05394527316
3822,0.1952908188
3823,0.1218720749
3824,-0.04851699248
3825,-0.01532504149
3826,-0.2160556316
3827,-0.273676604
3828,0.1306745857
3829,-0.3421768844
3830,-0.03969746083
3831,0.08679410815
3832,-0.1216457188
3833,0.1749478728
3834,-0.1900735348
3835,-0.05574928597
3836,-0.2479385436
3837,-0.05915113539
3838,-0.5327087641
3839,-0.09708087891
3840,0.1130799204
3841,-0.4991661608
3842,-0.02881529741
3843,-0.1526623666
3844,0.5749531984
3845,0.1593011618
3846,0.2132746726
3847,-0.2357576936
3848,0.1170370951
3849,-0.3155220449
3850,0.1761876792
3851,0.3033986092
3852,0.1018072218
3853,0.1707816422
3854,0.4469808638
3855,0.003186087357
3856,0.2058649659
3857,-0.7153084278
3858,0.1731424481
3859,-0.4372181296
3860,-0.1390088201
3861,-0.2480475903
3862,-0.01394261792
3863,-0.1076110825
3864,-0.003731943434
3865,0.2037486136
3866,0.2276720256
3867,-0.1946917176
3868,0.2383281142
3869,0.4229085743
3870,0.02707578614
3871,0.1484506428
3872,0.1613302678
3873,0.3719488084
3874,0.1988366991
3875,-0.2613804638
3876,-0.4731928408
3877,-0.1676988751
3878,-0.1499451399
3879,0.4096280932
3880,0.04260202125
3881,-0.4961274862
3882,0.2356915027
3883,-0.4091763794
3884,0.1649895757
3885,-0.0772485286
3886,-0.06668015569
3887,0.0739229843
3888,-0.2885528505
3889,-0.6556871533
3890,-0.290069133
3891,0.07185776532
3892,-0.1155486703
3893,-0.3058792651
3894,-0.01259030681
3895,0.03456478938
3896,0.2548624873
3897,-0.2593001723
3898,-0.09859228134
3899,0.1580903828
3900,-0.04251589999
3901,0.175239265
3902,-0.1815604717
3903,-0.3103015423
3904,-0.04953701794
3905,0.06755053252
3906,-0.1328956932
3907,-0.2220356762
3908,-0.1594237089
3909,0.1400258094
3910,-0.1213275939
3911,0.1012669653
3912,0.07057204098
3913,0.08480683714
3914,-0.2254828662
3915,-0.01741380617
3916,0.09653902054
3917,-0.1613860577
3918,-0.1459024101
3919,-0.3030487597
3920,0.1660548002
3921,0.2259239703
3922,0.1537123471
3923,0.05667173862
3924,0.2177705169
3925,0.02265653946
3926,-0.0803764388
3927,0.1837972254
3928,0.006641900633
3929,0.2909936011
3930,0.02499525622
3931,0.045152843
3932,0.1042235419
3933,-0.134893924
3934,-0.08272505552
3935,0.2441607118
3936,-0.2299981266
3937,-0.2835824192
3938,0.1117905006
3939,0.03354740888
3940,0.2586648762
3941,-0.1804789901
3942,0.003804258537
3943,-0.07855614275
3944,0.2040113509
3945,0.1750599295
3946,0.03742966056
3947,-0.2324927598
3948,-0.1216562912
3949,0.04689668119
3950,0.300755769
3951,0.1220883429
3952,-0.03482526541
3953,0.1946658641
3954,-0.1798985749
3955,0.2350732982
3956,-0.1019962057
3957,-0.1422608346
3958,-0.03471393511
3959,0.2212941945
3960,0.2738520801
3961,-0.2521617115
3962,-0.04194223136
3963,-0.007857734337
3964,0.2297683358
3965,0.1781246215
3966,-0.01978623122
3967,-0.2695831358
3968,-0.1395546794
3969,0.0267911423
3970,0.01921818033
3971,0.256840378
3972,-0.1483608335
3973,-0.251327306
3974,0.2246170491
3975,-0.2633153796
3976,0.05572608858
3977,0.2727500498
3978,-0.2281208634
3979,0.05537729338
3980,-0.08595287055
3981,0.2347656935
3982,0.2181261033
3983,0.2757495642
3984,-0.2716375291
3985,-0.258928895
3986,0.2426028848
3987,0.02799240127
3988,-0.1205897927
3989,-0.1798778027
3990,-0.3000257313
3991,0.3006666005
3992,0.03734796122
3993,-0.2177222818
3994,0.06647161394
3995,0.3034446239
3996,-0.2734816968
3997,0.2463021129
3998,-0.01603216678
3999,-0.1861681789
4000,0.09654992819
4001,-0.2366887778
4002,0.187080428
4003,0.02585450932
4004,0.101146847
4005,-0.1834512502
4006,0.30308339
4007,-0.1742882282
4008,0.04838892072
4009,0.1125843078
4010,-0.2272088975
4011,-0.1163477153
4012,0.1769262403
4013,-0.08537470549
4014,0.2054802775
4015,-0.29668957
4016,0.1746279597
4017,0.2084668279
4018,-0.1202339903
4019,0.1309690028
4020,-0.1654519439
4021,0.05341076851
4022,-0.2992870212
4023,-0.143433094
4024,0.01534240227
4025,-0.2962418199
4026,0.1870669872
4027,0.008678626269
4028,-0.2775824964
4029,-0.04527727515
4030,0.2884601653
4031,-0.150473386
4032,-0.2290161252
4033,0.4717119634
4034,0.1255477071
4035,-0.06391470879
4036,0.1333217174
4037,0.1864390373
4038,-0.1464199424
4039,-0.2833548188
4040,0.2006272525
4041,-0.02924179286
4042,-0.3795104921
4043,0.02916548587
4044,-0.2937660515
4045,0.08947698027
4046,-0.02546514757
4047,0.8538174033
4048,-0.3741957247
4049,0.4604700506
4050,-0.2569390535
4051,0.2864794433
4052,0.2569245696
4053,-0.02819846384
4054,0.6488124728
4055,0.09087905288
4056,0.1581387669
4057,0.2510135472
4058,-0.07760267705
4059,-0.06798683107
4060,-0.06141677871
4061,-0.5621449351
4062,-0.4917709529
4063,-0.1180449054
4064,-0.7155613899
4065,-0.2454981506
4066,0.124424845
4067,0.1012181267
4068,1.214161158
4069,-0.5923811197
4070,-0.2218735665
4071,0.1433339268
4072,0.2747096419
4073,0.6961203814
4074,0.3914277852
4075,-0.4788502753
4076,-0.153654471
4077,0.05258253962
4078,0.3909750581
4079,0.2532640994
4080,0.2665986121
4081,0.2038230896
4082,-0.102672033
4083,-0.887645781
4084,-0.003207239788
4085,-0.116433695
4086,-0.4150319099
4087,-0.03196841106
4088,0.2191434354
4089,0.2482383698
4090,-0.1693632156
4091,0.2462809682
4092,-0.07436726987
4093,0.03143654764
4094,-0.9924020767
4095,0.3009160161
4096,-0.3710034192
4097,-0.0358151421
4098,-0.124260813
4099,0.08584533632
4100,-0.5764598846
4101,-0.1818113476
4102,-0.05790743604
4103,-0.2271589488
4104,-0.315878123
4105,0.161590308
4106,-0.08841867745
4107,0.2149348408
4108,0.1516077518
4109,-0.3088332713
4110,0.09529707581
4111,0.2723307014
4112,-0.3595480919
4113,0.07829218358
4114,-0.1487874389
4115,0.05019458383
4116,0.1720599234
4117,-0.1131010428
4118,0.1277710944
4119,0.05424766615
4120,0.05963362008
4121,-0.1957828999
4122,0.0450081639
4123,-0.2201506495
4124,0.2256777883
4125,-0.1982107013
4126,-0.3070968688
4127,-0.1247742325
4128,0.2484785169
4129,0.07683639228
4130,-0.1700702459
4131,-0.06965153664
4132,-0.4615512192
4133,0.1422644407
4134,0.1539757401
4135,-0.02939840592
4136,0.05479853973
4137,-0.21879749
4138,0.2243821025
4139,0.125324592
4140,0.05853059515
4141,0.1782427728
4142,0.154719457
4143,-0.0217111893
4144,-0.3274767399
4145,-0.4082612693
4146,-0.1212899312
4147,-0.1511844397
4148,0.1838117987
4149,-0.05513906479
4150,-0.1078145951
4151,0.3194172084
4152,0.3431999683
4153,-0.1060891002
4154,0.1099430844
4155,0.02962885611
4156,-0.03774503246
4157,-0.3435411751
4158,-0.313873589
4159,0.3730805218
4160,0.1993018836
4161,-0.06070133671
4162,0.2293338627
4163,-0.3578765988
4164,-0.1795568168
4165,0.1949129105
4166,0.1867246032
4167,-0.05336824059
4168,0.09120541811
4169,0.008281682618
4170,0.179258287
4171,-0.5724958181
4172,-0.07553976029
4173,-0.1707918346
4174,-0.08232265711
4175,0.1323900521
4176,0.224056527
4177,-0.6082235575
4178,0.3364883959
4179,0.3378750384
4180,-0.6315968633
4181,-0.1081103608
4182,0.01827028021
4183,-0.5734120011
4184,-0.05661489815
4185,-0.05919974297
4186,-0.208317399
4187,-0.01258153562
4188,0.005082532763
4189,0.0854460448
4190,-0.07709337026
4191,-0.2123039812
4192,0.5379214287
4193,-0.01386362035
4194,-0.07112649083
4195,0.449732244
4196,0.2358752638
4197,-0.01647923514
4198,0.394547075
4199,-0.2301564366
4200,0.06558261067
4201,-0.7602754235
4202,-0.1892810315
4203,0.3313224912
4204,-0.05261659622
4205,0.1952596456
4206,0.08293084055
4207,-0.2231967449
4208,0.3678241372
4209,-0.2620014548
4210,-0.2834080458
4211,-0.3405611515
4212,-0.1270995885
4213,-0.07524101436
4214,0.3855421245
4215,-0.6727234125
4216,-0.08523818105
4217,-0.6081049442
4218,-0.1720320284
4219,-0.6501226425
4220,0.3364143968
4221,0.2570855916
4222,0.5303385258
4223,-0.6783155799
4224,0.0776078403
4225,0.1133751199
4226,0.2484274358
4227,0.2076186091
4228,-0.2230902761
4229,0.1022807956
4230,0.1658600271
4231,-0.2809725702
4232,0.04622420296
4233,0.1997045577
4234,-0.04706722498
4235,-0.04536565021
4236,0.2079974413
4237,-0.3362344205
4238,0.0005147383781
4239,-0.2220390439
4240,0.1074857339
4241,0.317617774
4242,-0.08725608885
4243,0.05377764627
4244,0.05330422148
4245,-0.1824868321
4246,-0.2360511124
4247,0.3694729209
4248,-0.2358426899
4249,-0.01797119342
4250,-0.0490864329
4251,0.01790392213
4252,-0.2330608368
4253,0.2410301864
4254,0.1988859922
4255,0.02310362458
4256,0.06419397891
4257,0.1356142759
4258,-0.001216197736
4259,0.2702085972
4260,-0.09506357461
4261,-0.860045135
4262,-0.03744994104
4263,-0.1916673928
4264,0.2807675004
4265,0.3709448874
4266,-0.1492671818
4267,0.1856527328
4268,-0.2220093906
4269,-0.03696177527
4270,-0.3787592947
4271,-0.3390137851
4272,-0.08219175041
4273,-0.04291487485
4274,-0.2561561167
4275,0.06194749847
4276,-0.284349978
4277,0.01540945843
4278,-0.1576303393
4279,0.003414909123
4280,0.03342122585
4281,0.1367645711
4282,0.2225271016
4283,-0.01266898308
4284,0.3884724677
4285,0.2121111155
4286,0.2796653509
4287,-0.6062302589
4288,0.3750187159
4289,0.05866308138
4290,0.1510415971
4291,0.1853939742
4292,-0.06957156211
4293,-0.2353304327
4294,0.2115189582
4295,0.2050610632
4296,-0.2079988271
4297,0.2588273883
4298,-0.3749446273
4299,0.0452394858
4300,-0.2800109982
4301,-0.04366492853
4302,0.107477963
4303,-0.159978196
4304,0.2618352175
4305,-0.245157063
4306,-0.1371774375
4307,-0.1093400568
4308,-0.3753339648
4309,0.2420366555
4310,0.09283800423
4311,0.1333276033
4312,-0.1966298223
4313,0.02218358964
4314,0.03141773865
4315,-0.1845893264
4316,0.2767056823
4317,0.2147894949
4318,0.05420291051
4319,0.2033821195
4320,-0.4317249656
4321,0.01017973013
4322,-0.09668625146
4323,-0.3126664758
4324,0.06519235671
4325,0.06622499228
4326,0.2698947787
4327,0.3051232398
4328,0.4199700654
4329,0.375392884
4330,-0.3255263269
4331,0.1754298806
4332,0.2619862854
4333,0.2630482316
4334,0.1007752195
4335,0.04040384665
4336,0.1468086988
4337,-0.5759826899
4338,-0.2278524488
4339,0.05833368376
4340,-0.2553153932
4341,0.1285064667
4342,-0.05784017965
4343,-0.08382798731
4344,-0.02121919021
4345,-0.2708666921
4346,0.0622301884
4347,-0.01200606301
4348,0.3217332065
4349,0.0451968275
4350,-0.2531119585
4351,-0.2567328811
4352,-0.5554946065
4353,0.4321042001
4354,0.2300753146
4355,0.1469949335
4356,-0.04157808423
4357,-0.1770549566
4358,0.4710577726
4359,0.115766488
4360,0.2066048682
4361,0.3902566731
4362,0.08921445906
4363,-0.1452791393
4364,0.2754799724
4365,-0.06624761969
4366,0.1661486775
4367,-0.341522485
4368,-0.2961382568
4369,0.5150564313
4370,0.2392026037
4371,0.1573071629
4372,-0.287801981
4373,0.2419454306
4374,0.6761106849
4375,-0.5305113196
4376,-0.2388591468
4377,0.281449914
4378,0.1841235459
4379,0.4993033111
4380,-0.4581879079
4381,0.09923520684
4382,0.2804319561
4383,0.3898924887
4384,0.1277921796
4385,0.2335929573
4386,-0.2009267062
4387,-0.2723950148
4388,-0.1969114542
4389,0.1760742366
4390,0.2177162319
4391,-0.1953963637
4392,-0.0738421455
4393,-0.1596907526
4394,0.01197524089
4395,0.4208019674
4396,0.07977458835
4397,0.1309822649
4398,-0.2148730457
4399,0.02542458475
4400,0.2456277162
4401,-0.2532534301
4402,-0.3589934111
4403,-0.488612026
4404,-0.2083542943
4405,-0.107808888
4406,-0.02881922945
4407,-0.3373318911
4408,0.02792682499
4409,-0.7691523433
4410,0.1869745255
4411,-0.15306741
4412,-0.3007676303
4413,-0.1087475196
4414,0.1710114777
4415,-0.3856270015
4416,-0.02758145891
4417,-0.4022268057
4418,0.2716549933
4419,-0.2144752294
4420,0.01603495143
4421,0.005815940443
4422,-0.2012212425
4423,-0.2053076774
4424,-0.1105419248
4425,0.04771499336
4426,0.03958728537
4427,0.1643005461
4428,-0.1981219053
4429,-0.3018192947
4430,-0.1348124593
4431,-0.5325572491
4432,-0.3474351764
4433,0.09388477355
4434,0.06296521425
4435,-0.2597901225
4436,-0.2713826597
4437,-0.1080266684
4438,-0.003356128
4439,0.2157394439
4440,-0.7781797647
4441,-0.0002141810401
4442,-0.2945280075
4443,-0.1118895486
4444,0.0454662405
4445,-0.073777318
4446,0.09947802126
4447,0.2037899047
4448,-0.4522026181
4449,0.1610340625
4450,-0.05442865938
4451,-0.2273310274
4452,-0.1725580692
4453,-0.07078718394
4454,0.3172259331
4455,0.3115364611
4456,-0.3337295055
4457,-0.01374322549
4458,0.0598404184
4459,0.3844916523
4460,-0.1038796306
4461,-0.2496676147
4462,0.08487592638
4463,-0.5418376327
4464,0.2505869567
4465,0.2929267585
4466,-0.2912016809
4467,0.1882537752
4468,-0.03764133155
4469,-0.2123252451
4470,0.08024093509
4471,-0.104131192
4472,0.3021139205
4473,-0.1434994936
4474,0.2275297642
4475,0.02665886097
4476,-0.001768167596
4477,0.2337955981
4478,-0.5303925872
4479,-0.3151695132
4480,0.05119836703
4481,0.1937990338
4482,-0.276706934
4483,-0.4059832692
4484,0.009031469934
4485,-0.3086836338
4486,-0.08739099652
4487,0.2077508718
4488,-0.2423232645
4489,0.3575792909
4490,-1.543773174
4491,0.105469428
4492,0.1481050402
4493,-0.1993023753
4494,-0.02825753391
4495,0.2203704566
4496,-0.3713621199
4497,0.3436278999
4498,0.4000836313
4499,-0.3444008231
4500,-0.03216459975
4501,0.1408852488
4502,0.04039618
4503,-0.07455223054
4504,-0.05413030833
4505,-0.2276857495
4506,-0.1556378007
4507,0.3487996459
4508,0.2835345566
4509,-0.1814725101
4510,0.3183732033
4511,0.155403018
4512,-0.2884985507
4513,-0.543358326
4514,0.3541227877
4515,0.002173781162
4516,0.08178569376
4517,0.3468865454
4518,0.2296008617
4519,0.09634905308
4520,-0.234074086
4521,-0.3098041117
4522,-0.4028851688
4523,0.0175707899
4524,0.06980330497
4525,-0.2547209859
4526,-0.2726949155
4527,-0.2609871626
4528,-0.1759475768
4529,-0.2807458639
4530,0.1617694646
4531,-0.0653437227
4532,-0.06632964313
4533,0.0675246343
4534,-0.1952061802
4535,0.1594775915
4536,-0.2297563851
4537,-0.7475767732
4538,0.003528080182
4539,0.3999803066
4540,-0.0633109957
4541,0.0493100211
4542,0.3194378912
4543,0.01465662941
4544,0.1524020731
4545,-0.4641525447
4546,-0.2201594263
4547,-0.2705316246
4548,0.1636280864
4549,-0.05285676941
4550,0.08808292449
4551,-0.2309486717
4552,0.1966787875
4553,-0.1893508881
4554,0.01736383885
4555,0.4273963571
4556,-0.1982841939
4557,0.1602814049
4558,-0.08531108499
4559,0.2963531315
4560,0.04838151857
4561,0.2330263555
4562,-0.2871293426
4563,-0.06139456108
4564,-0.3254595399
4565,-0.2682900429
4566,-0.3872928619
4567,-0.01588707045
4568,0.1554092765
4569,-0.07422910631
4570,0.2548523545
4571,-0.2864925861
4572,0.5284742117
4573,-0.05875170976
4574,0.224520579
4575,-0.232701093
4576,-0.2629864812
4577,0.03436658904
4578,0.1823654622
4579,-0.363243103
4580,0.2889880836
4581,-0.01790616475
4582,0.3441416323
4583,0.1440689564
4584,0.2714476287
4585,0.2469730526
4586,-0.1899383068
4587,-0.1239244565
4588,0.1458969265
4589,0.00689870771
4590,-0.2085236162
4591,0.274271518
4592,-0.2580111027
4593,0.1719193608
4594,-0.2071852535
4595,-0.1269201189
4596,-0.1831295192
4597,-0.08896695822
4598,-0.1802033484
4599,-0.251693964
4600,-0.08080405742
4601,0.1864947528
4602,-0.2888851464
4603,0.08247877657
4604,0.2223615646
4605,-0.2852826118
4606,-0.2949988544
4607,-0.3499214351
4608,-0.2494000196
4609,0.3051744998
4610,-0.03509028256
4611,0.3385387361
4612,-0.5107317567
4613,-0.05974981934
4614,0.03752296045
4615,-0.1566120237
4616,0.1847953498
4617,-0.2307944149
4618,0.09893292934
4619,-0.1140259653
4620,0.1104504764
4621,-0.354950279
4622,0.128577143
4623,-0.7596487403
4624,-0.7403335571
4625,0.7558668852
4626,-0.06009153649
4627,0.2016916871
4628,0.252399832
4629,0.1640099287
4630,0.634931922
4631,-0.1013252214
4632,-0.4266343415
4633,0.2247461826
4634,-0.2547517717
4635,0.5051246285
4636,0.1277183741
4637,-0.4226367772
4638,-0.6014842987
4639,-0.004337708466
4640,-0.07002402097
4641,-0.02779655159
4642,-0.02830881253
4643,-0.3247099221
4644,-0.2739487886
4645,-0.6636948586
4646,0.46368891
4647,-0.6035856605
4648,-0.2959018946
4649,-0.4707613885
4650,0.2747397125
4651,0.03016579524
4652,-0.400197953
4653,-0.2354680747
4654,0.1425447166
4655,-0.09016501904
4656,-0.4399385154
4657,-0.06509444118
4658,-0.1078994647
4659,-0.3528359234
4660,0.1274421364
4661,0.05240292475
4662,-0.3563671112
4663,0.08487471193
4664,0.4537662566
4665,-0.05463941395
4666,0.1578925699
4667,0.1431493908
4668,0.07038958371
4669,0.01242207922
4670,0.007087048143
4671,-0.2987715602
4672,-0.3273605704
4673,-0.2647684216
4674,-0.2848767936
4675,0.05581751466
4676,-0.8728588223
4677,-0.2026961744
4678,-0.9909180999
4679,-0.08795333654
4680,-0.3381129205
4681,-0.006731248926
4682,0.1090121344
4683,-0.06093832105
4684,-0.6290800571
4685,0.2018025815
4686,-0.9213505983
4687,0.0519214794
4688,1.013011098
4689,-0.2446217537
4690,0.5625280738
4691,0.1930764019
4692,-0.2723562419
4693,-0.004288504831
4694,0.9526048899
4695,-0.4192460477
4696,0.2869688272
4697,0.07661476731
4698,0.1826021224
4699,0.156573236
4700,0.1336317211
4701,0.04694922268
4702,-0.1584395319
4703,0.2605901062
4704,-0.5910931826
4705,0.7639364004
4706,-0.3619525433
4707,-0.04839274287
4708,0.2320747375
4709,-0.587847352
4710,-0.5552554131
4711,-0.5415172577
4712,0.1529382169
4713,-0.9333665371
4714,0.4050816596
4715,-0.1093369424
4716,0.5004278421
4717,-0.161135599
4718,-0.2234027386
4719,-0.1032800674
4720,0.1348055154
4721,-0.1471226215
4722,-0.1345828325
4723,0.4430586696
4724,-0.06818172336
4725,0.1853997707
4726,0.1617405713
4727,0.267108947
4728,0.1052904502
4729,-0.2026196122
4730,0.1678073406
4731,0.3858884573
4732,-0.5975997448
4733,0.6793897152
4734,-0.1195332035
4735,-0.1846243143
4736,0.02936821617
4737,-0.2098862678
4738,0.006666554138
4739,0.4057895839
4740,0.2796369195
4741,-0.1038948745
4742,-0.2920601964
4743,0.2541842461
4744,-0.2354328632
4745,-0.09024979174
4746,-0.5444790721
4747,-0.2777059972
4748,-0.5650191903
4749,0.01849178039
4750,0.1766668707
4751,-0.07826156169
4752,0.8373734951
4753,-0.4255117774
4754,-0.107573092
4755,0.5772294998
4756,-0.03873436898
4757,-0.1075853631
4758,0.1677755266
4759,-0.3880386055
4760,-0.2123162001
4761,0.1973247081
4762,0.2690881491
4763,-0.3902067244
4764,-0.0823449716
4765,0.6390064955
4766,-0.02517650649
4767,-0.02450034022
4768,-0.1927116513
4769,0.2037687451
4770,0.06476057321
4771,0.1328976005
4772,0.2749578655
4773,-0.7375386953
4774,-0.4424392879
4775,0.1506378949
4776,0.3073223829
4777,-0.9740908146
4778,0.06045240164
4779,-0.1873804182
4780,0.1542752236
4781,0.0009186053649
4782,0.4446748495
4783,-0.0438580662
4784,-0.1354891807
4785,0.03008568659
4786,0.0760949403
4787,0.2338446081
4788,-0.1035225391
4789,-0.006483159959
4790,0.4850444794
4791,-0.3910025656
4792,-0.4969494045
4793,-0.4220988452
4794,0.01311009564
4795,-0.5524705052
4796,-0.06768248975
4797,0.3449418843
4798,0.1651684195
4799,-0.9794402122
4800,0.3149038851
4801,-0.1141993925
4802,0.3931476474
4803,-0.2070423812
4804,0.2753247917
4805,-0.1470197737
4806,-0.07522067428
4807,-0.1355319768
4808,-0.1881570667
4809,0.165789783
4810,0.6990483403
4811,0.06606914848
4812,-0.517373383
4813,0.3017504811
4814,0.3666241169
4815,-0.08723068237
4816,-0.2119222432
4817,0.3718448281
4818,0.2756131589
4819,-0.5554255843
4820,0.1043794304
4821,-0.2782945335
4822,-0.08181893826
4823,-0.09671209008
4824,-0.5309234262
4825,-0.09014053643
4826,-0.2028353661
4827,-0.06221460924
4828,-0.4244934618
4829,-0.6042569876
4830,0.2325546741
4831,-0.4231137931
4832,0.3984728754
4833,-0.0165294148
4834,0.1284283251
4835,0.1167369336
4836,-0.05619712919
4837,-1.091373205
4838,-0.2605862617
4839,0.1993279159
4840,0.3688679934
4841,0.003945845645
4842,-0.3114248514
4843,0.038264364
4844,-0.05077103153
4845,-0.04046335816
4846,-0.4430194199
4847,-0.155203104
4848,-0.006242170464
4849,-0.1169552505
4850,0.2666187882
4851,-0.1011917293
4852,0.1244680882
4853,-0.1353281885
4854,-0.2502728403
4855,0.05401797965
4856,-0.04570831358
4857,-0.04378752038
4858,-0.1749558449
4859,-0.5095841289
4860,0.3147255182
4861,-0.01005636901
4862,-0.5911397934
4863,0.3108050525
4864,0.115569815
4865,-0.06862026453
4866,-0.06744164228
4867,-0.00514622964
4868,-0.1743098348
4869,0.01303957868
4870,-0.3000817895
4871,-0.1624258161
4872,0.04856302962
4873,0.2180890292
4874,0.04962889105
4875,0.2677025497
4876,-0.2623117864
4877,-0.03317203
4878,-0.01102217007
4879,-0.2529240549
4880,-0.1955734938
4881,0.1360137612
4882,-0.3082703352
4883,-0.1660458148
4884,-0.1925871074
4885,-0.08519612998
4886,0.1229897961
4887,-0.227482155
4888,-0.5791746378
4889,0.08112752438
4890,-0.2940335274
4891,-0.1293100268
4892,-0.05283606052
4893,-0.2429763973
4894,0.08761197329
4895,-0.2952707112
4896,-0.249622196
4897,-0.5214401484
4898,-0.1133408323
4899,0.2593387365
4900,-0.1612285078
4901,-0.1781045496
4902,-0.3341208696
4903,0.0124076046
4904,0.2092658132
4905,0.3201999664
4906,0.1444081366
4907,0.2958935499
4908,-0.252735287
4909,-0.1926613599
4910,-0.275020659
4911,-0.148245886
4912,-0.1700805277
4913,-0.194224596
4914,-0.3235678077
4915,0.2193403691
4916,0.1170670837
4917,0.1052508578
4918,-0.4111730456
4919,-0.07341172546
4920,0.2016001791
4921,0.1018425897
4922,0.2831252813
4923,-0.1210118756
4924,0.2791389525
4925,-0.02552825212
4926,-0.07469867915
4927,0.3669088781
4928,-0.01224249694
4929,-0.1206320524
4930,-0.2835136652
4931,-0.06185104698
4932,0.05167568102
4933,-0.1986172944
4934,0.2080889791
4935,-0.239505142
4936,0.3034042716
4937,-0.008009508252
4938,-0.1402395964
4939,-0.1571886241
4940,0.03270485625
4941,0.2810464501
4942,-0.1008113995
4943,0.3900144398
4944,-0.403129369
4945,0.06783243269
4946,0.08096730709
4947,-0.06467566639
4948,0.1736433953
4949,0.02814606763
4950,0.291339308
4951,-0.2550889552
4952,-0.063540034
4953,-0.03831724077
4954,0.1709083915
4955,-0.1410105377
4956,-0.4329382777
4957,-0.01641807146
4958,-0.1695118695
4959,0.2809265256
4960,-0.188795954
4961,-0.1881674379
4962,0.4583852291
4963,0.08551634103
4964,0.01625189185
4965,0.05315794051
4966,0.09018372744
4967,-0.01435121894
4968,-0.1716448069
4969,0.07069715112
4970,0.206751436
4971,-0.2381877303
4972,0.2708286047
4973,0.1593721658
4974,0.4115314186
4975,0.3548182547
4976,0.2045980245
4977,-0.003077067202
4978,-0.2865030468
4979,-0.3491431773
4980,-0.06875076145
4981,-0.007497932762
4982,0.04494835436
4983,-0.2976488173
4984,0.06755954772
4985,0.2000374049
4986,-0.3558833897
4987,-0.1842705309
4988,-0.1078513563
4989,0.2168357223
4990,-0.1749887019
4991,-0.01720240898
4992,-0.2450973839
4993,-0.877502501
4994,0.2007633895
4995,0.04780791327
4996,-0.04274198413
4997,0.2413934767
4998,0.6792188883
4999,-0.03843940794
5000,-0.1638744324
5001,-0.05608474836
5002,-0.9609473944
5003,0.1860562712
5004,-0.3306097984
5005,0.107958667
5006,0.2181350589
5007,-0.8967467546
5008,0.1299247444
5009,-0.005600683391
5010,-0.721065402
5011,-0.1866413951
5012,-0.261212945
5013,-0.008862587623
5014,0.1990917623
5015,-0.3292888999
5016,-0.596711576
5017,0.1011977494
5018,-0.04620833695
5019,0.1942487806
5020,-0.03714374825
5021,-0.6962454915
5022,0.2363421023
5023,-0.289352715
5024,-0.7993261814
5025,0.1654531658
5026,0.3153716922
5027,-1.48971808
5028,-0.3572852314
5029,0.3648100197
5030,-0.0611814931
5031,0.2016818672
5032,-0.4607997239
5033,0.4369403124
5034,-0.1486080289
5035,-0.0559556596
5036,-0.521905899
5037,-0.2424331903
5038,-0.02148697712
5039,-0.4583450556
5040,-0.4272188842
5041,0.5450510383
5042,-0.2681438327
5043,0.3232391775
5044,0.07271388918
5045,-0.1240399554
5046,0.574954927
5047,0.401489079
5048,-0.1088869572
5049,0.07668198645
5050,-0.04910186306
5051,-0.2300806791
5052,-0.7574412823
5053,0.1885132641
5054,-0.6696437597
5055,0.1148291528
5056,0.0669683516
5057,-0.07955361158
5058,-0.01322963554
5059,0.06499019265
5060,-0.1647303104
5061,0.2821520865
5062,-0.1832023412
5063,-0.1927256286
5064,-0.3432733119
5065,0.05880287662
5066,-0.144843474
5067,-0.1486596167
5068,0.2038508207
5069,0.1466632038
5070,-0.2702070773
5071,0.3007053435
5072,0.1089067832
5073,-0.125690639
5074,0.2276906967
5075,-0.008202821016
5076,0.1006121933
5077,0.03453769907
5078,-0.3526916206
5079,-0.1890502423
5080,0.2921907306
5081,-0.01608339325
5082,-0.1581209749
5083,-0.3528717756
5084,0.1884598583
5085,-0.2422578782
5086,-0.02508150414
5087,0.09928302467
5088,-0.1402902603
5089,-0.2003280073
5090,-0.04598876089
5091,-0.3422630131
5092,0.1139393076
5093,-0.03047396429
5094,-0.2139409631
5095,-0.0352621153
5096,-0.05384245515
5097,0.008273124695
5098,0.3099845052
5099,0.1455188543
5100,0.3315207362
5101,-0.03349621966
5102,-0.01728551276
5103,0.5457343459
5104,-0.01745315269
5105,0.02135696262
5106,0.08764580637
5107,0.1386215091
5108,-0.1924827248
5109,0.2300128937
5110,0.1856323481
5111,0.2334398925
5112,-0.2247030139
5113,-0.5075115561
5114,0.1262047291
5115,0.2672080994
5116,-0.04661775753
5117,0.0239121709
5118,0.0002982658334
5119,-0.3494751155
5120,0.3097174168
5121,-0.325048089
5122,0.2290249616
5123,-0.2988830209
5124,-0.1458106935
5125,-0.06168046966
5126,0.0617659837
5127,0.2397325039
5128,-0.1727779508
5129,-0.2958842516
5130,-0.7543959022
5131,0.00113038579
5132,0.1071057245
5133,0.1516879648
5134,-0.04644357786
5135,-0.5267477632
5136,-0.2703880966
5137,-0.04742449522
5138,0.2938531339
5139,0.1357486844
5140,0.07535143942
5141,-0.1132655293
5142,0.1626351178
5143,-0.02516226284
5144,-0.4173396528
5145,-0.001998572377
5146,-0.0885650143
5147,-0.01219284628
5148,-0.1638800502
5149,-0.04457177222
5150,-0.2004653662
5151,0.1782705039
5152,-0.3205613196
5153,-0.09559417516
5154,0.1183397174
5155,-0.1133767366
5156,-0.008738715202
5157,0.02343028784
5158,0.2347277552
5159,0.03077079728
5160,-0.2774221599
5161,-0.0003959114838
5162,-0.3662544787
5163,0.1321303397
5164,-0.0006544758799
5165,-0.1532301307
5166,0.1739810407
5167,-0.5986784697
5168,-0.3776619732
5169,-0.582475543
5170,-0.08267805725
5171,0.2367444187
5172,0.0052717668
5173,-0.004049811512
5174,-0.1125511676
5175,0.1479706168
5176,-0.2709051669
5177,-0.4427046776
5178,-0.253054589
5179,-0.120077692
5180,-0.2456401438
5181,-0.1895609796
5182,-0.2472365648
5183,-0.2846441269
5184,0.2494195849
5185,-0.07265494019
5186,0.009932131507
5187,0.1674413681
5188,-0.1863309592
5189,0.09744568169
5190,-0.4458617866
5191,0.270590663
5192,0.1504851878
5193,-0.09064088017
5194,0.02519944683
5195,-0.2192515582
5196,0.08361652493
5197,-0.0008800679352
5198,0.1581911296
5199,-0.130176127
5200,0.277995199
5201,0.1635933965
5202,0.009131435305
5203,0.2446644455
5204,0.0102501791
5205,-0.03153643012
5206,-0.1674054414
5207,0.04746481031
5208,-0.2545694113
5209,0.2021693885
5210,0.1066592261
5211,-0.21676521
5212,0.3027947247
5213,0.02672312036
5214,-0.2605296671
5215,0.0813331604
5216,-0.2013464719
5217,-0.101523377
5218,-0.03619705886
5219,0.3011611998
5220,-0.08230594546
5221,0.1506211907
5222,-0.1740338653
5223,-0.3394785523
5224,-0.3000462055
5225,-0.4406580925
5226,0.3153574169
5227,-0.03019552305
5228,0.3623195887
5229,-0.2686035633
5230,0.02919444628
5231,-0.2074324489
5232,0.2229340822
5233,0.2430543154
5234,-0.005849341396
5235,0.2157134861
5236,-0.2133709341
5237,0.03187673911
5238,0.3115186989
5239,0.1971045434
5240,0.1704861224
5241,0.2486498952
5242,-0.007574680727
5243,0.005899813492
5244,0.3476065993
5245,0.002145163715
5246,0.2282373905
5247,0.02071941458
5248,0.3989175558
5249,-1.225064874
5250,-0.503287375
5251,-0.5571140051
5252,-0.002879506676
5253,-0.2199514657
5254,-0.05166697502
5255,0.3016769588
5256,-0.5985107422
5257,-0.1248707175
5258,-0.2728106976
5259,-0.001968146302
5260,-0.06661187857
5261,-0.2981215417
5262,0.136392653
5263,-0.2712868452
5264,0.2666010261
5265,-0.09554721415
5266,0.09936033189
5267,0.2480327338
5268,-0.07596831024
5269,0.2742530704
5270,-1.087556958
5271,0.3309221566
5272,0.284689188
5273,-0.5806614161
5274,0.2296413481
5275,-0.9746902585
5276,0.6907112002
5277,0.1349035203
5278,0.3720130324
5279,0.1239185855
5280,0.5515790582
5281,0.503785789
5282,-0.3944690228
5283,0.2054133266
5284,-0.007774308324
5285,-0.6155136228
5286,0.5531285405
5287,0.07338967174
5288,0.1656478494
5289,-0.5073478818
5290,0.2479542047
5291,0.08101322502
5292,-0.3207690418
5293,0.01240669563
5294,-0.5469485521
5295,-0.001927117119
5296,-0.3453236222
5297,0.1833620369
5298,0.07079963386
5299,0.7003177404
5300,-0.1758953035
5301,-0.004151787609
5302,-0.08489437401
5303,0.5058906674
5304,0.1875051856
5305,-1.205982566
5306,0.2222591788
5307,0.1389304549
5308,0.007916354574
5309,-0.321233511
5310,0.196051389
5311,-0.2846670449
5312,-0.1627943218
5313,0.1838715971
5314,0.2109754682
5315,0.2107297331
5316,-0.0003495780693
5317,-0.2752421796
5318,-0.1169834435
5319,-0.2397164553
5320,0.03209370002
5321,-0.1003311872
5322,-1.188966513
5323,0.3167511523
5324,-0.1000958458
5325,0.2371139824
5326,0.1811667383
5327,-0.2896867692
5328,0.3106759787
5329,0.1776300669
5330,0.03257131204
5331,0.1360443681
5332,-0.05666243285
5333,0.2835219502
5334,0.3510837257
5335,-0.06388744712
5336,-0.5415331721
5337,0.09265244007
5338,0.08538545668
5339,-0.1998856962
5340,0.1956955194
5341,-0.0641040504
5342,-0.3735946715
5343,-0.2145278603
5344,-0.2468130141
5345,0.1473663449
5346,-0.3186578155
5347,0.08791831881
5348,0.1604662091
5349,0.324188143
5350,-0.1290047616
5351,-0.1688771695
5352,-0.01952885836
5353,-0.4202337563
5354,0.2709939778
5355,0.4289803803
5356,0.2216268331
5357,-0.1175937578
5358,-0.08704711497
5359,-0.1373336166
5360,-0.2301981449
5361,0.1904049963
5362,0.2116635889
5363,0.1188893616
5364,-0.2681558132
5365,0.217644006
5366,0.1902699322
5367,0.0929781124
5368,-0.2614907324
5369,-0.5362436175
5370,-0.0356178917
5371,-0.3019230068
5372,0.08684588969
5373,0.1495284289
5374,0.3237022758
5375,0.2680713832
5376,-0.1091710031
5377,-0.3771411479
5378,0.1206630617
5379,-0.3848707676
5380,-0.1380036771
5381,0.1611445546
5382,-0.08096222579
5383,-0.05515007675
5384,0.03747654706
5385,0.080780074
5386,-0.7593257427
5387,0.4490665793
5388,-0.08917141706
5389,-0.0003312391636
5390,0.06778859347
5391,0.2846754789
5392,0.2611350119
5393,0.1031804606
5394,-0.04045912251
5395,-0.4702749252
5396,-0.4487386048
5397,-0.123783052
5398,-0.4437516928
5399,0.03077242337
5400,0.185178563
5401,-0.0002097978722
5402,-0.134629488
5403,0.007653065491
5404,0.282438457
5405,-0.1456869543
5406,0.2274293154
5407,-0.2363680154
5408,-0.325283587
5409,-0.1748804301
5410,0.1037467569
5411,0.3600603938
5412,-0.326492101
5413,-0.3503997326
5414,0.1717893928
5415,0.08251300454
5416,-0.198918879
5417,-0.5418403149
5418,-0.07166467607
5419,0.1993336678
