idx,weight
0,0.3477548957
1,0.09955582023
2,-0.4129536748
3,-0.1100386679
4,-0.5901388526
5,-0.1497014165
6,-0.5318929553
7,0.6188579202
8,0.006467114203
9,-0.0869641006
10,-0.0816546604
11,-0.1434522271
12,-0.2323963642
13,-0.06461212039
14,-0.3220672607
15,0.2216782421
16,0.3666485846
17,-0.5145139694
18,-0.353441596
19,0.2340794951
20,0.530002296
21,-0.2204670161
22,-0.06468106806
23,-0.4948487878
24,-0.1488314569
25,-0.0555639863
26,-0.0205258131
27,0.2522469163
28,0.715289712
29,0.1886852533
30,0.1686580181
31,0.181676507
32,-0.2736316919
33,0.3163298666
34,0.1084425598
35,-0.2928508222
36,-0.2126051039
37,-0.04339538142
38,0.6032987237
39,0.1555445343
40,0.09833040088
41,-0.2590889037
42,-0.358419776
43,0.2067676634
44,0.05622038618
45,-0.2652914226
46,-0.3652983904
47,0.3203704059
48,-0.06403620541
49,0.03787895665
50,-0.05284581333
51,0.2133044302
52,0.09386698157
53,0.7314839363
54,0.1720424592
55,-0.09675230831
56,-0.9503754377
57,-0.4476066828
58,0.2196656466
59,-0.02427049167
60,-0.4980501533
61,-0.1049400568
62,0.1570406556
63,0.4648958743
64,0.24105905
65,-1.036653996
66,-0.4836981595
67,0.1758859903
68,-0.8512217402
69,0.2923918962
70,-0.1732152402
71,0.1934450716
72,0.5084357858
73,0.2255854309
74,0.2553198338
75,0.3078353405
76,-0.6520906091
77,-0.006308643613
78,-0.2511662543
79,0.4822610021
80,0.338525176
81,0.05503447354
82,0.2295138538
83,0.3596007526
84,-0.4849970937
85,-0.1056677848
86,-0.3483496606
87,-1.448055863
88,-0.332963258
89,-0.09618379176
90,0.501706183
91,0.4386669993
92,0.05722783506
93,0.3210664988
94,-0.3312980235
95,0.2329815179
96,0.174059853
97,-0.292581439
98,0.2892104685
99,-0.6704767942
100,-0.02338014916
101,-0.4167015254
102,0.3728671372
103,-1.249789357
104,-0.3547302783
105,-0.7143559456
106,-1.243840098
107,0.02604986168
108,-0.920617342
109,-0.3338962197
110,0.1930734217
111,-0.1553866267
112,0.3160817027
113,0.3983553648
114,-0.2383678555
115,0.526611805
116,-0.866807282
117,0.2101452947
118,0.06983679533
119,0.4628256261
120,-0.7368043661
121,0.7068524361
122,0.2801035941
123,-0.2504971325
124,-0.1809203774
125,0.3658650219
126,0.4856006205
127,-1.190263867
128,0.3702899218
129,-0.04695314169
130,-0.6799498796
131,0.6732254028
132,0.02822347917
133,-0.3391583562
134,0.248719573
135,-0.4029245377
136,-0.5639801025
137,0.4260672331
138,0.2856814563
139,0.4010312557
140,0.3670574427
141,0.4378026128
142,-0.367832154
143,0.4044334292
144,0.3254902065
145,-0.1844211966
146,-0.4489338398
147,0.4806083441
148,0.4628763199
149,-0.3442734778
150,-0.2241352946
151,-0.2476341277
152,-0.1022562608
153,0.5808114409
154,-0.02679348178
155,-0.4011818171
156,-0.048880402
157,0.54299438
158,0.6659383774
159,-0.4412757158
160,-0.2150758654
161,-0.3167990744
162,0.299127996
163,-0.07936409116
164,-0.7836384773
165,-0.5322389007
166,-0.3066151142
167,0.4652684927
168,0.1884238571
169,-0.2490832955
170,0.1147407889
171,0.6353062391
172,-0.1953192949
173,0.1697207391
174,-0.2442228794
175,0.5982640386
176,-0.4704570174
177,0.2283807844
178,-0.3166064024
179,-0.3448323607
180,-0.534502089
181,-0.1288097948
182,-0.7814193368
183,0.2679979503
184,0.1493048519
185,-0.03184881806
186,-0.1299565583
187,0.06695626676
188,-0.2553541362
189,0.03464906663
190,-0.1832796633
191,-0.371711731
192,0.1643357128
193,0.1980009675
194,0.3624026477
195,-0.1913302392
196,0.003660839982
197,-0.308480233
198,0.3295401037
199,0.286793828
200,0.2029009163
201,0.658822
202,-0.0003048417566
203,-0.4611546993
204,0.1199731827
205,0.1064416245
206,-0.53210783
207,-1.488970041
208,-0.01547539048
209,0.6479511261
210,-0.1296719909
211,-0.3865485191
212,-0.1673808694
213,0.1125732958
214,-0.1252761185
215,0.05444046482
216,0.01995684393
217,0.05885341018
218,0.3282169998
219,0.03966401517
220,-0.5887521505
221,-0.02846570127
222,0.01972293854
223,0.7638562918
224,-0.7408132553
225,0.1703703403
226,-0.7424125075
227,0.2777278125
228,0.3654488623
229,0.1192087904
230,0.09631830454
231,-0.01347770728
232,-0.3202352524
233,0.02301478013
234,0.8265843391
235,-0.7263650894
236,-0.2067802101
237,-0.0775725916
238,-0.3354970217
239,-0.173652038
240,-0.3649089038
241,-0.1342456192
242,0.1235124394
243,-0.4546496272
244,0.2225493938
245,0.08022066951
246,-0.06481173635
247,-0.5042126775
248,0.1412543356
249,0.05873331055
250,0.2481161207
251,-0.2586806118
252,0.2777597606
253,-0.08325138688
254,-0.188994661
255,-0.3072001338
256,0.3500240743
257,0.2596059144
258,0.2030412555
259,-0.1725105196
260,0.6236848235
261,-0.2829245925
262,0.01478156075
263,-0.06876549125
264,-0.3611859083
265,-0.4423651993
266,0.250872612
267,-0.4629101157
268,0.2068315148
269,0.61849159
270,-0.1463664621
271,-0.3461636305
272,-0.5395340323
273,0.02902467549
274,-1.149023414
275,-0.702721417
276,0.6273919344
277,-0.3488974571
278,-0.3640939891
279,-0.03578361124
280,-0.3412171602
281,-0.2635120153
282,-0.1936418414
283,0.484262526
284,-0.4666311145
285,0.01577329636
286,0.9875255227
287,0.2451015711
288,0.7689231038
289,-0.1532451063
290,-1.451164246
291,-0.3842502534
292,-0.3265766203
293,-0.2397715747
294,-0.5525331497
295,0.5588377118
296,0.2198115438
297,-0.3683280945
298,0.06769049913
299,-0.3203258812
300,0.5759805441
301,0.194662109
302,0.5229774117
303,0.08750921488
304,0.3536404073
305,-0.2532617748
306,-0.8661394715
307,0.4296530187
308,0.4495823383
309,-0.1996697485
310,-0.3272468746
311,-0.7618715763
312,-0.367703408
313,-0.09986905009
314,0.4951988459
315,0.5433872342
316,0.08679886907
317,-0.3639885783
318,-0.4618573189
319,-0.10007485
320,-0.4060717225
321,0.2255976498
322,0.08931103349
323,-0.3160451353
324,-0.007935690694
325,0.06815570593
326,-0.3735430539
327,-0.1063230932
328,0.06509427726
329,-0.158752203
330,-0.1292251647
331,0.415271908
332,0.6521930099
333,0.1089700833
334,0.1163805723
335,-0.2495191693
336,-0.5995846987
337,0.1466432363
338,-0.0333054401
339,0.3342548013
340,0.6259826422
341,-0.2690321505
342,-0.0463398546
343,0.423423022
344,0.3608610928
345,0.07945129275
346,-0.3508309424
347,-0.2550864518
348,0.3935471773
349,-0.0697966218
350,0.3352840841
351,0.1942577511
352,0.3668688536
353,-0.6998426914
354,0.0678133741
355,0.03469510004
356,-0.0204008352
357,-0.2779427469
358,-1.203015089
359,-0.1835307032
360,0.2240926772
361,0.0267389752
362,0.4584547877
363,-0.4471771121
364,0.4164937735
365,0.00565502001
366,0.2152376473
367,-1.193275571
368,-0.06575375795
369,-0.6018071771
370,-0.2517546713
371,-0.337111026
372,-0.3999081552
373,-0.4169644713
374,-0.1347653717
375,0.5964515209
376,-0.9872019291
377,-0.6693285108
378,0.06228879839
379,-0.2661509216
380,-0.253146857
381,-0.3004740477
382,-0.3138660491
383,0.4579009116
384,0.2750218213
385,-0.03162732348
386,0.02341719717
387,0.4260231853
388,0.4553104639
389,0.01729180291
390,0.2136252224
391,-0.002689700574
392,0.008712965995
393,0.01640324108
394,-0.01919670589
395,0.4296481311
396,-0.02966130339
397,-0.4221704006
398,0.05974654853
399,-0.5743735433
400,-1.342292666
401,0.1717803925
402,0.008361482993
403,-0.1128982082
404,0.1447160393
405,0.373213172
406,-0.1087239981
407,-0.1529286206
408,-0.2822353542
409,-4.417713165
410,-0.2370765358
411,0.2587873042
412,0.01358514465
413,-0.03612875193
414,0.1172188371
415,0.1547159702
416,0.5291240215
417,-0.5709267855
418,-0.03280605748
419,0.1339945644
420,-0.4253096581
421,-0.2345352471
422,-1.422331095
423,0.5222617388
424,0.4513502419
425,-0.04294866323
426,0.08515572548
427,0.003029316431
428,0.1702418774
429,0.1391327232
430,0.2975152135
431,0.8280895352
432,-0.11948625
433,-0.1751301736
434,-0.6685495377
435,0.4001452625
436,0.3115723729
437,-0.1179382801
438,-0.2864739299
439,-0.07210171223
440,0.4978414774
441,-0.8486834168
442,-0.4784907699
443,-0.2302372307
444,0.1125026271
445,0.07335858047
446,0.161045298
447,0.2314335108
448,-0.5432448983
449,-0.1888854653
450,0.3204549551
451,-0.4208205938
452,-0.6864847541
453,0.1371392608
454,-0.8138614893
455,-0.3017015159
456,0.7888737321
457,0.4531095922
458,0.07973150909
459,0.4570770562
460,-0.124501951
461,-0.9367117286
462,0.4163276553
463,-0.01099993009
464,0.4169226885
465,-0.2675372064
466,-0.2396237105
467,-0.3166685402
468,-0.0610678345
469,0.1143147945
470,0.2316803932
471,0.4341918528
472,0.2547113895
473,0.5571248531
474,0.449860096
475,0.1607440859
476,-0.4189876914
477,-0.3016548753
478,0.2579617798
479,-0.2744420469
480,-0.5860139728
481,0.06432245672
482,-0.9064462185
483,0.2119553387
484,0.6990539432
485,-1.109456182
486,-0.01315954328
487,0.1557783931
488,-0.3567591608
489,-0.3623452187
490,0.1143674627
491,-0.02044196986
492,0.1351947933
493,-0.04516223818
494,0.2472866178
495,0.6574320793
496,-0.1057226881
497,-0.153385669
498,0.2212897986
499,0.1843390316
500,1.119420409
501,0.05916080251
502,-0.4676145315
503,-0.0179207325
504,0.7808110118
505,0.2852832973
506,0.03307054937
507,-0.4436931908
508,-0.8756071329
509,-0.3151195645
510,0.5238066912
511,0.6052722335
512,0.3913918436
513,-0.08816736937
514,-0.4363422096
515,0.1308979392
516,0.00991591718
517,-0.2746182084
518,0.2443873286
519,0.1618654579
520,0.2617284954
521,-0.07142440975
522,-0.1845337451
523,0.3638677299
524,0.2581916451
525,0.02017542534
526,0.451218158
527,0.334826529
528,0.1714489013
529,-0.4983806908
530,-0.3285232484
531,0.37432307
532,0.09705279768
533,-0.06662700325
534,-0.3831607699
535,0.1029211059
536,0.3322322667
537,-0.4686049819
538,0.09502825141
539,-0.113055177
540,-0.3598310053
541,-0.3716571033
542,-0.4855561256
543,0.249648571
544,0.07185548544
545,-0.2191232145
546,-0.09553084522
547,0.08496282995
548,0.08276706934
549,0.07748333365
550,0.3642543256
551,0.325609386
552,0.3193778396
553,0.339119494
554,0.1658454984
555,0.3095651269
556,-0.2042670697
557,0.3486127257
558,0.1973475218
559,-0.209264636
560,-0.2490115911
561,0.1436132789
562,0.2648153007
563,-0.09742297232
564,-0.05602098629
565,-0.2008015066
566,0.09436222911
567,-0.182289511
568,-0.3307092786
569,-0.266353488
570,-0.05322349817
571,-0.4955757856
572,0.4731904268
573,0.3005708456
574,-0.4333868921
575,-0.2407581061
576,0.294736445
577,-0.1362164021
578,0.08594792336
579,0.5457527041
580,1.20242095
581,-0.04754821584
582,-0.3956546187
583,-0.9630311131
584,1.248338342
585,0.7489786148
586,-0.03538360819
587,-0.6024694443
588,-0.4675246179
589,-0.4793834984
590,0.3099059463
591,-1.039857626
592,0.5460370183
593,1.889495254
594,-0.1702077538
595,0.2945692539
596,-0.3120852113
597,-0.2516773939
598,0.2629929781
599,-0.9363043308
600,-0.9266836643
601,-0.1419854611
602,0.3278215528
603,-0.7355798483
604,-1.768110156
605,-0.2238605618
606,-0.7644410133
607,-0.4157966971
608,-0.4374327064
609,0.6558832526
610,0.06838516891
611,-0.08411058784
612,0.5604175329
613,-0.6816640496
614,0.748224318
615,-0.04372397065
616,0.4199202359
617,-0.1220526397
618,0.2328225374
619,0.4909359217
620,0.488692075
621,-0.06576112658
622,-0.3608481884
623,-0.0646398589
624,-0.7056680918
625,0.5468702912
626,-0.2082614452
627,-1.03294611
628,1.152852178
629,0.1225624233
630,0.3529341519
631,0.2303561568
632,0.3711013794
633,0.9483651519
634,-0.2839110494
635,1.127016902
636,-0.4432739615
637,-0.2067340314
638,0.2555001676
639,-0.8173031807
640,0.5288279653
641,0.477168113
642,-1.059763193
643,0.5562919378
644,0.7528092265
645,0.2465178818
646,-0.1194536462
647,-0.7663995624
648,1.182958245
649,0.8091549873
650,-0.3090403676
651,-0.6173897982
652,-0.07160373777
653,0.1302445978
654,0.02779377438
655,-0.7824961543
656,-0.652784884
657,0.6039675474
658,-0.4958123267
659,0.7835187316
660,0.07372329384
661,-0.2149309516
662,-0.1611700803
663,1.110361934
664,0.1436817199
665,0.2683159709
666,0.1296719313
667,-0.2588326335
668,-1.384269476
669,1.267390013
670,0.141749084
671,-0.1133721024
672,-0.9703751206
673,1.073609948
674,0.5230675936
675,-0.3139035702
676,-0.3429498971
677,-0.5595895052
678,1.2544415
679,-0.3684293628
680,0.4848892093
681,0.2109838575
682,-0.1852003485
683,-0.009769832715
684,0.7982327938
685,0.1531731337
686,0.3971885443
687,0.3232796192
688,-0.9560630322
689,0.4539125562
690,-0.2078755647
691,-0.3698160052
692,0.08761031926
693,0.3964799941
694,-0.6629018188
695,0.9122543335
696,-0.6947020292
697,1.425664425
698,-0.2320194393
699,0.92781955
700,-0.5107749104
701,0.2127465904
702,-0.6941046119
703,0.1374448389
704,0.1883138865
705,0.07024986297
706,-0.1343818158
707,0.2616319954
708,-0.1253340542
709,0.1408230215
710,0.1711648703
711,0.2447710782
712,-0.2773719132
713,0.07313986868
714,0.04800917581
715,-0.06891552359
716,0.3166220188
717,0.01017447934
718,0.1469962597
719,0.0008606022457
720,0.3910163343
721,-0.7147176266
722,0.3233846724
723,0.09222046286
724,-0.2320300639
725,0.3351996839
726,-0.1704775691
727,-0.2129823118
728,0.2935436666
729,-3.351490974
730,-0.02614872716
731,0.4610484242
732,0.2961855829
733,0.5041452646
734,0.0847203508
735,-0.328802675
736,0.1151587367
737,-0.7782036662
738,-0.2949947417
739,0.04101956263
740,0.690990448
741,-0.08108341694
742,0.1060849279
743,0.1216709316
744,0.2790963352
745,-0.09097140282
746,0.3957934082
747,-0.4632267356
748,0.1992026865
749,0.1096560434
750,0.3447158337
751,-0.3898130655
752,-0.3395965397
753,-0.4236818254
754,0.115336597
755,0.002967351815
756,0.05556680262
757,0.2999080718
758,0.2607376277
759,-0.4752299786
760,0.3387332261
761,0.08779399097
762,-0.2186235785
763,-0.7472256422
764,0.6037436128
765,-0.01565698907
766,-0.4093566537
767,0.3481401801
768,0.7409499884
769,-0.1683304459
770,-0.4631907344
771,0.08197361231
772,-0.1634853482
773,0.3735390902
774,-0.9618914127
775,0.09524495155
776,-0.1767905354
777,-0.3440761566
778,0.3381127715
779,-0.4016420543
780,-0.4109642506
781,-0.2151736617
782,-0.1297353655
783,0.06644424796
784,-0.0997178629
785,-0.05072424933
786,-0.008046814241
787,-0.1366909146
788,-0.2832231224
789,-0.1245863959
790,-0.08645048738
791,-0.3176074028
792,0.4709908068
793,-0.450368315
794,-0.1205287948
795,-0.05933456123
796,-0.08933266252
797,0.3168171346
798,0.1916236579
799,-0.3040602505
800,0.300934732
801,0.1420511901
802,0.2859075367
803,-0.1223928183
804,-0.005230018869
805,-0.3347077072
806,-1.385864377
807,0.09879041463
808,-0.618486166
809,0.1269901395
810,0.04142035916
811,0.2275337428
812,0.1074175984
813,-0.02480616793
814,0.2189530432
815,-0.7980074883
816,0.2832472622
817,-0.3693875074
818,-0.3180279732
819,-0.4655171931
820,-1.138133407
821,0.4138931632
822,0.2909164429
823,0.2907832265
824,-1.146457314
825,-0.8411449194
826,0.2330725193
827,-0.02502395399
828,0.0005820842925
829,0.3562379479
830,-0.7945509553
831,-0.1005331725
832,0.5160141587
833,-0.1939045191
834,-0.1001245826
835,-0.4254587293
836,0.02252710983
837,-0.2240693122
838,-0.2398322225
839,0.4722239971
840,0.1094245687
841,-0.778249979
842,0.3370712698
843,-0.4523867071
844,0.1431137174
845,0.8144037127
846,-0.05050445721
847,0.6938390732
848,-0.08069293201
849,0.8397831321
850,-1.035383701
851,-0.177175194
852,0.1466082633
853,0.1566607505
854,0.04612093791
855,0.2275880128
856,-0.03503310308
857,-2.443228245
858,0.2471256256
859,-0.05372846127
860,-0.5459567904
861,-0.2338978946
862,0.5471514463
863,0.4422916472
864,0.7338777184
865,-0.478213191
866,-0.9097515345
867,0.2263503373
868,-0.9549293518
869,0.0248394981
870,-1.487334371
871,0.003454539925
872,-0.01722880825
873,0.06176450476
874,0.2173995525
875,0.3523947299
876,0.2457936704
877,0.03560264409
878,0.2443575263
879,-0.3282726109
880,0.3941180706
881,0.2846107483
882,-0.6973519921
883,0.9875224829
884,-0.1618928462
885,-0.1024088264
886,-0.8289080262
887,-0.7923067212
888,-0.171780318
889,0.1645801812
890,0.5187833905
891,0.1825814545
892,-0.4002744555
893,0.1269329786
894,-0.45990628
895,0.5946081877
896,0.3937339485
897,-0.06570649892
898,0.07499201596
899,0.3539587259
900,-0.229634285
901,-0.2183213532
902,0.3576652706
903,-0.4042631686
904,0.2237190008
905,-0.544488132
906,-0.1865977645
907,0.536776185
908,0.1847957522
909,-0.726976335
910,-0.23318699
911,0.1299985945
912,-1.12242043
913,-0.106870003
914,-0.3186167777
915,0.3508647382
916,-0.0037219238
917,0.09437188506
918,0.1722045988
919,0.4111749828
920,0.5657565594
921,-5.89308691
922,-0.2884491384
923,-0.0168649517
924,-0.4528031647
925,0.2026818246
926,-0.1436688006
927,-0.03242607415
928,0.04613837227
929,-0.1134110913
930,0.5168104172
931,-0.1797408015
932,0.07229564339
933,-0.3590150774
934,-2.05166769
935,-0.2238562107
936,-0.1086335331
937,-0.181253314
938,0.2356370687
939,0.08898979425
940,0.1311835349
941,0.1042565554
942,0.325509727
943,-0.2785112262
944,-0.6305059195
945,0.2356922626
946,-0.2428092062
947,0.5336530805
948,-0.08551377803
949,-0.1638610512
950,0.4281723499
951,-0.1473685205
952,0.3735463917
953,-1.087702274
954,-0.05822188407
955,-0.09011620283
956,0.3090752363
957,0.1444495469
958,0.2829960883
959,-0.03069740161
960,-0.5572789311
961,0.01061702985
962,-0.1526465863
963,0.2057019621
964,0.3328194618
965,-0.2427412868
966,-0.6044188738
967,-0.2636044621
968,0.01127933897
969,-3.046159029
970,-0.3198339045
971,-0.1387869716
972,0.08617436886
973,0.00741704274
974,-0.4351046979
975,0.09989481419
976,-0.03756579012
977,0.09062284976
978,0.352037549
979,0.04834328592
980,-0.02076384611
981,0.09413738549
982,-0.348641634
983,-0.7234588861
984,0.497309804
985,-0.110579133
986,-0.07428128272
987,-0.6263800859
988,0.3280896246
989,0.1941712201
990,-0.2768323421
991,0.2467358112
992,0.1184950471
993,-0.06215164065
994,-0.2975639403
995,-0.02565578558
996,0.1616264284
997,0.1256306916
998,0.08363161981
999,0.2734430134
1000,0.03132807091
1001,-0.08532821387
1002,-0.0680693835
1003,0.08252678066
1004,-0.08180274814
1005,-0.2893747985
1006,-0.8859021068
1007,-1.605356097
1008,0.1718911231
1009,-0.8858697414
1010,-0.01407054346
1011,0.3967571855
1012,0.2604600489
1013,-0.03732776269
1014,0.2631383836
1015,0.1157257408
1016,-0.2115725875
1017,0.5897011161
1018,-0.2182060927
1019,-0.7556560636
1020,-0.004915730096
1021,0.2378394604
1022,-0.09626816958
1023,0.1318713427
1024,-0.2312983721
1025,0.06383606791
1026,0.1987195462
1027,0.1673650891
1028,-0.3207015693
1029,-0.306986481
1030,0.2291456759
1031,-1.066815376
1032,0.1183962747
1033,0.1784235388
1034,0.1952301413
1035,-0.7745909691
1036,-0.2974619269
1037,-0.05364542082
1038,0.051997412
1039,-0.03749566153
1040,0.5928140879
1041,0.10120783
1042,-0.1912183315
1043,0.3784942031
1044,0.1924248785
1045,-0.08532853425
1046,-0.3467344344
1047,0.04668419436
1048,0.1194047481
1049,0.377009511
1050,-0.4557028711
1051,0.00423218403
1052,-0.7104664445
1053,0.2231023014
1054,-0.1662627757
1055,0.03249041364
1056,0.1579539627
1057,0.08504272997
1058,0.3933533132
1059,-0.02252700925
1060,0.3557695746
1061,0.2062928379
1062,0.09927326441
1063,0.1721486151
1064,0.3613758087
1065,-0.2736877501
1066,-0.2326229364
1067,-0.4139685035
1068,-0.1500376314
1069,-0.1345810145
1070,0.2573648393
1071,0.004683952779
1072,0.1093539968
1073,-0.1178319827
1074,0.2682915628
1075,0.04748047143
1076,0.1274399459
1077,0.1554775834
1078,0.4808011949
1079,-0.2432314008
1080,0.2117826343
1081,0.2553158998
1082,-0.645301044
1083,-0.004046656191
1084,-0.04885862395
1085,-0.1254627705
1086,-0.147103712
1087,-0.2554032803
1088,-0.1352962703
1089,-0.09333859384
1090,0.1430284232
1091,1.162354469
1092,0.4377050698
1093,-0.2694711089
1094,-0.7868692279
1095,-0.4981428385
1096,0.2083924562
1097,-0.0603733249
1098,-0.6082253456
1099,-0.3062455058
1100,-0.6779970527
1101,-0.6218698025
1102,0.217543602
1103,-0.08703005314
1104,-0.16459921
1105,-1.357157707
1106,0.05167078227
1107,0.5804516077
1108,0.198450774
1109,-0.2410092801
1110,-0.3763279915
1111,0.6884628534
1112,0.5895385742
1113,-0.09707980603
1114,-0.259262234
1115,0.04027303681
1116,0.2510513663
1117,-0.5234829783
1118,0.2929203808
1119,-0.4098001122
1120,-0.2677978873
1121,0.1109126657
1122,-0.06300532818
1123,0.1813600212
1124,0.3264264762
1125,-0.6743292809
1126,0.3724327087
1127,0.1502563506
1128,0.4589728117
1129,-0.2468626797
1130,-1.129612803
1131,-0.8233059049
1132,0.09740050882
1133,-0.2487525344
1134,-0.6946784854
1135,0.04312512651
1136,-0.5944398046
1137,-0.1648650914
1138,-0.2442670614
1139,0.09775758535
1140,0.8039996624
1141,0.04437799007
1142,0.374381721
1143,-0.4465699792
1144,0.4673267007
1145,0.2320623994
1146,-0.5585749149
1147,0.3407078087
1148,1.126442909
1149,0.1089557484
1150,0.6173737049
1151,-0.02490251325
1152,-0.3202571869
1153,-0.1915127784
1154,0.7237821221
1155,-1.029710293
1156,0.5475473404
1157,-0.2699439228
1158,-0.4292406738
1159,0.3609784544
1160,0.3208475113
1161,-0.5315942764
1162,-0.0386788398
1163,0.5644953251
1164,0.5715302229
1165,-0.4360556006
1166,0.797101438
1167,0.5042883754
1168,-0.3753007352
1169,0.450860858
1170,-0.002867066069
1171,-0.2746271193
1172,0.6665433645
1173,-0.1287809759
1174,-0.2912669182
1175,-0.04685086012
1176,-0.06082924455
1177,0.1857477427
1178,-0.5673234463
1179,-0.8805989027
1180,-0.6147147417
1181,-0.1607554257
1182,0.2838864028
1183,-0.5176590085
1184,0.1552601457
1185,-0.1083966717
1186,-0.3103244305
1187,0.480653137
1188,0.6193336844
1189,0.4495513439
1190,-0.6760707498
1191,-0.6922843456
1192,0.3439998925
1193,0.3564862609
1194,0.007159915753
1195,0.8850116134
1196,-1.18955636
1197,0.1226124689
1198,-0.3022616804
1199,-0.2427773476
1200,0.5143257976
1201,-0.1618825048
1202,0.008922660723
1203,0.2134194076
1204,0.7508135438
1205,1.038788557
1206,0.05724946037
1207,0.4041004181
1208,1.089966297
1209,0.2370269746
1210,0.3236947358
1211,0.6360465288
1212,-0.2538010478
1213,0.07317280769
1214,0.7475990653
1215,-0.2820408642
1216,0.1190008894
1217,0.556878686
1218,0.3613465726
1219,-1.075466275
1220,0.1658597738
1221,0.1205588207
1222,0.1758512408
1223,0.7833551764
1224,-0.2895265818
1225,-0.4392264187
1226,0.05612149835
1227,1.0833745
1228,0.7133592963
1229,0.2059124559
1230,-0.6057549715
1231,-0.2079721093
1232,-0.6535100341
1233,0.6912170053
1234,0.1761520207
1235,-0.4699239433
1236,-0.03387642652
1237,-0.3765441775
1238,0.2374692857
1239,0.2971664667
1240,-0.7801742554
1241,0.8189660311
1242,-0.1607925743
1243,0.143690452
1244,-1.643122077
1245,0.3975202143
1246,0.04202198982
1247,0.1511422545
1248,-0.09574398398
1249,0.3303538561
1250,-0.6416599154
1251,0.6681402326
1252,-0.1102643833
1253,-0.05125045031
1254,0.1419892311
1255,-0.7919573784
1256,0.2304299921
1257,0.8471848369
1258,1.406440973
1259,-0.5013389587
1260,-0.4992116094
1261,-0.2960398197
1262,0.7170811892
1263,-0.005233561154
1264,-0.03068711609
1265,-0.1556064636
1266,0.4938675463
1267,0.2144251764
1268,0.1051910743
1269,-0.1784714013
1270,-0.2671589255
1271,-0.1994476467
1272,-1.511695862
1273,0.569455564
1274,0.8813297749
1275,0.7351501584
1276,0.04557161406
1277,-0.3045285046
1278,0.01032586396
1279,-0.2655450702
1280,0.4088055193
1281,0.7092030644
1282,0.08201169223
1283,1.015007377
1284,0.03099539503
1285,0.1759457439
1286,-0.4487018883
1287,0.4125638604
1288,0.7034167647
1289,-1.069226742
1290,-0.08894955367
1291,-0.738338232
1292,-1.090601325
1293,0.9178558588
1294,-0.3952263296
1295,0.1078594029
1296,-0.05569852144
1297,-0.7943038344
1298,0.7370218039
1299,-0.8435533643
1300,0.5798478127
1301,0.2977046072
1302,-0.047700461
1303,-0.819638133
1304,-0.1648714542
1305,-0.7690935135
1306,0.5298964977
1307,-0.7350895405
1308,1.863953948
1309,0.8295713067
1310,0.7604189515
1311,-0.2425444275
1312,-1.699274302
1313,0.3151903749
1314,0.7274386287
1315,-0.4572147131
1316,0.3661244214
1317,0.9851971269
1318,-0.2676656544
1319,0.3967840374
1320,-0.5077072382
1321,1.665094972
1322,0.5948647261
1323,0.7403657436
1324,0.1729374081
1325,0.2919369936
1326,-0.1026311815
1327,-0.5873529315
1328,0.3552184701
1329,-0.05658132955
1330,-0.2490282655
1331,0.434379518
1332,-0.2338687927
1333,0.9247573018
1334,1.253172398
1335,-0.7281935811
1336,0.007130497601
1337,-1.327475309
1338,-0.1055076793
1339,-0.4102609754
1340,-0.2283934802
1341,0.3286535442
1342,0.06898953766
1343,-0.7365187407
1344,0.1233831197
1345,0.2271388173
1346,0.2918163836
1347,1.157279491
1348,0.2940529883
1349,-0.3331451416
1350,0.03181796148
1351,0.2531503439
1352,0.6849521995
1353,0.6332373619
1354,0.6762693524
1355,0.2896445394
1356,0.6960459352
1357,-1.1184479
1358,-0.5793739557
1359,-0.1816461533
1360,0.1015104726
1361,-0.560343802
1362,0.19626984
1363,-0.09829542041
1364,0.4955282211
1365,-0.2252271771
1366,-0.2233585268
1367,-0.3127022982
1368,0.591083169
1369,0.4981027544
1370,0.1882385314
1371,0.1005936116
1372,-0.1123403236
1373,0.6365512013
1374,1.085899591
1375,0.2341012657
1376,-0.7268086076
1377,-0.2818816304
1378,0.1010220721
1379,-0.9376289845
1380,-0.2051994503
1381,-1.006650209
1382,-2.164021492
1383,-1.332121134
1384,0.8060786724
1385,1.059337974
1386,-0.07153940946
1387,-0.4784398079
1388,0.3939353824
1389,-0.2096076757
1390,0.7959278822
1391,-0.06695593148
1392,0.9093819261
1393,-0.5487003922
1394,1.003415704
1395,0.3557446301
1396,-0.6473479271
1397,0.7697457075
1398,-0.8351659179
1399,0.408916086
1400,1.121517777
1401,-0.1443402469
1402,0.4408627152
1403,-0.4295907617
1404,0.04047556594
1405,0.06906215101
1406,-0.1965534836
1407,-1.590255499
1408,0.05948379263
1409,-0.2069480866
1410,0.1929184347
1411,0.3091241717
1412,-0.03131080791
1413,0.0315499641
1414,-0.09275073558
1415,0.2601163983
1416,0.2398123741
1417,-0.1557584405
1418,-0.287948668
1419,0.1956437826
1420,0.3131589293
1421,-0.6284681559
1422,-0.1427551955
1423,-0.06773132086
1424,-0.3061420918
1425,-0.8760194182
1426,-0.4497117698
1427,-0.2399790883
1428,-0.1551284492
1429,-0.1247760057
1430,-0.310813725
1431,-0.2078620344
1432,-0.231667012
1433,0.3045130074
1434,0.01724374481
1435,0.3359001577
1436,0.1938143969
1437,0.4668763876
1438,0.2616946399
1439,0.2349799722
1440,-0.3611021638
1441,-0.2247810513
1442,0.1743314117
1443,0.1579639018
1444,-0.008099879138
1445,-0.1192906946
1446,0.2654876113
1447,0.173488304
1448,0.3890889585
1449,0.2819047272
1450,0.1260131449
1451,0.1990029961
1452,0.2150989324
1453,-0.1332235485
1454,0.01494173333
1455,0.3345799148
1456,-0.07353698462
1457,0.03535678983
1458,-0.3572199345
1459,-0.1294240505
1460,0.3045778871
1461,0.05230528489
1462,-0.3231333196
1463,0.2783544362
1464,-0.02697072551
1465,-0.199093774
1466,0.009092641063
1467,-0.385458678
1468,-0.56705302
1469,-0.2333666682
1470,0.1199082881
1471,-0.2788011134
1472,0.06205458939
1473,0.1609636098
1474,-0.1513200849
1475,-0.2666136026
1476,0.01886906661
1477,0.03279250488
1478,-0.3434877098
1479,0.262421459
1480,-0.2778382301
1481,0.01426022407
1482,0.3029869795
1483,0.1272429377
1484,0.06852175295
1485,0.1081110463
1486,0.02735014446
1487,0.1617648751
1488,0.2722724676
1489,-0.5388672948
1490,-0.6692199111
1491,0.3077647686
1492,0.5096043348
1493,-0.2742057145
1494,0.2006244212
1495,-0.2506845593
1496,0.2487249672
1497,-0.120488897
1498,0.1273531765
1499,-0.7559283972
1500,0.1447735429
1501,0.7872810364
1502,0.1344841719
1503,0.4035928845
1504,-0.6020874381
1505,-0.2479467988
1506,0.34656322
1507,0.1582703888
1508,0.009218151681
1509,-0.004555573221
1510,0.6686299443
1511,-0.7385473251
1512,0.3069831431
1513,-0.5766727328
1514,-0.08280024678
1515,0.1279117763
1516,0.0428339839
1517,-0.3861683607
1518,-0.01429495588
1519,-0.7691207528
1520,-0.005179961678
1521,0.2515891194
1522,0.1883482188
1523,0.08320955932
1524,-1.929256916
1525,0.181121394
1526,-0.1034623384
1527,0.3685582876
1528,-1.083230734
1529,-0.2671397328
1530,-0.1996849924
1531,0.3656947315
1532,-1.786170721
1533,0.03315843269
1534,-0.4046721756
1535,0.5477970243
1536,-1.420757651
1537,1.232149482
1538,0.4044515789
1539,-0.5863859653
1540,0.2728668749
1541,0.08693323284
1542,0.8868730068
1543,1.18620944
1544,-0.6705307364
1545,0.2309336811
1546,0.9599863887
1547,0.2724472582
1548,0.002124165883
1549,0.4303659499
1550,0.3010101914
1551,-0.1922351867
1552,-0.455227077
1553,-0.3420653343
1554,0.6437020898
1555,-0.1842152029
1556,0.07804451138
1557,0.3820486367
1558,-0.07524688542
1559,-0.08731231093
1560,0.376899004
1561,-0.8829723597
1562,-2.416988373
1563,0.6375977993
1564,1.097563982
1565,-0.2654515803
1566,-1.411441803
1567,0.4111550748
1568,-0.1672403216
1569,0.1975088865
1570,-0.7652106285
1571,0.0595552437
1572,-1.227999806
1573,0.02991705947
1574,-0.2824816406
1575,-0.07961215824
1576,0.4040647447
1577,-0.4007106721
1578,-1.56450069
1579,-0.7358515263
1580,0.2415237874
1581,0.3362951875
1582,0.5452702641
1583,-1.00093925
1584,0.3209090829
1585,0.2102671415
1586,-0.3917212784
1587,-0.06540036201
1588,0.7615606189
1589,1.406857371
1590,-0.06061945111
1591,-0.3918878436
1592,-0.4332806468
1593,-1.603243589
1594,0.001069714199
1595,-0.934332788
1596,0.6795021892
1597,-0.2421761751
1598,0.3969836235
1599,0.4412917197
1600,-0.04556038231
1601,-0.007621583063
1602,0.2551589012
1603,0.2110606432
1604,-0.2951049209
1605,0.03404785693
1606,0.8083239794
1607,0.3814300597
1608,0.5100633502
1609,-0.1502328515
1610,0.5579534769
1611,0.5634934306
1612,0.05738461763
1613,0.08295618743
1614,0.5379405022
1615,0.1821440607
1616,-1.017018437
1617,0.1835566163
1618,0.03635960445
1619,-0.8724521399
1620,0.7158405781
1621,-0.1185287386
1622,-0.04472372308
1623,0.4873808324
1624,0.2603249848
1625,-0.7200397253
1626,-0.816280961
1627,0.1250803173
1628,0.4815603793
1629,-0.1242547557
1630,0.3609195054
1631,0.09785479307
1632,0.1965482533
1633,0.06001316383
1634,0.3905930221
1635,0.1591749042
1636,0.08734072
1637,-0.2896233201
1638,-0.3944697082
1639,-0.1008867845
1640,-0.02250697091
1641,0.1738474965
1642,-0.08916618675
1643,0.5658918023
1644,0.2987837493
1645,-0.09330607951
1646,0.5469722152
1647,0.06136371568
1648,-0.1500453204
1649,-0.2648447156
1650,0.471127063
1651,0.2477178872
1652,-1.254373789
1653,-0.4834643304
1654,-0.1774472445
1655,0.4453167021
1656,0.1572728604
1657,-0.5532459617
1658,-0.3654262424
1659,0.3921066225
1660,-0.5307353139
1661,-0.0288529098
1662,-0.5726621747
1663,-0.8505221605
1664,0.4191862047
1665,-0.3692723215
1666,0.05388509482
1667,0.3523494005
1668,0.1759253144
1669,-0.1714259237
1670,0.230533421
1671,-2.591366768
1672,0.4589901865
1673,-0.5153440833
1674,-1.253505349
1675,0.5176404715
1676,0.05108581483
1677,0.4131252766
1678,-0.482395947
1679,-0.1555149555
1680,-1.068629384
1681,-0.1594577581
1682,0.1286527663
1683,0.9729806185
1684,0.2583653331
1685,-0.1193229929
1686,0.2645125091
1687,0.957382381
1688,0.5139865875
1689,-0.7669005394
1690,-0.5891179442
1691,-0.3667545915
1692,-0.003106341697
1693,-0.02607653476
1694,0.1399022639
1695,-0.8516430259
1696,0.2019901276
1697,-0.09893810004
1698,0.07127401978
1699,-0.1041551903
1700,0.03934811428
1701,-0.06478075683
1702,0.434389919
1703,-0.05156908929
1704,0.01234601811
1705,-0.1076753438
1706,-0.3421910703
1707,-0.333912164
1708,0.057144925
1709,0.2410190254
1710,0.52240026
1711,-1.661469817
1712,0.8326265812
1713,0.2167633027
1714,0.7269874811
1715,0.4959878623
1716,0.3602853119
1717,0.2184515893
1718,-0.9332913756
1719,-0.4022737145
1720,-0.9752818346
1721,0.8555128574
1722,0.6331114173
1723,-0.2682572901
1724,-0.4954964817
1725,0.03243981302
1726,-1.340417862
1727,-0.4326388836
1728,0.9106583595
1729,-0.04369327053
1730,-0.5503897667
1731,0.04190639406
1732,0.5622164011
1733,-0.3137577772
1734,-0.009965241887
1735,0.2299525589
1736,0.00868883729
1737,-0.7840707898
1738,-0.217341885
1739,1.386353612
1740,0.2199070752
1741,-1.299878478
1742,-0.3405248523
1743,0.6898991466
1744,-0.4758306742
1745,0.4552404881
1746,1.120842576
1747,-1.081922889
1748,0.2096034884
1749,-0.2416845411
1750,-0.3802139759
1751,0.5194672942
1752,-0.4330042005
1753,0.6100280881
1754,0.3780961633
1755,-0.04688555375
1756,0.1743835658
1757,1.000239968
1758,0.9905509949
1759,0.1146371961
1760,0.7166045308
1761,0.1384460181
1762,0.2370726466
1763,-0.9416843057
1764,-0.7538215518
1765,0.3958822787
1766,-0.4461607337
1767,-1.034512401
1768,0.389046073
1769,-0.815546751
1770,-0.9395875335
1771,0.1860906631
1772,0.1202083156
1773,0.06264502555
1774,0.3239230812
1775,-0.1692614406
1776,-0.6458818316
1777,0.0584741272
1778,0.107340008
1779,0.429256916
1780,0.1187206209
1781,0.324683547
1782,-0.2229217142
1783,0.7525987029
1784,0.1242201328
1785,0.3956801593
1786,0.1849453747
1787,-0.6236892343
1788,-0.4141558707
1789,0.1799545586
1790,-1.268254399
1791,-0.1471968442
1792,-0.3475525677
1793,0.223470211
1794,-0.004072597716
1795,-0.1980924606
1796,0.3517730534
1797,-0.2468177676
1798,-0.2609048784
1799,-0.1485624015
1800,-0.3478496373
1801,-0.2079914808
1802,-0.07378793508
1803,-0.3716008067
1804,0.0887446776
1805,0.02594405785
1806,0.2708159387
1807,-0.06810124964
1808,-0.1102720499
1809,0.1479288191
1810,0.06482232362
1811,-0.1260452569
1812,-0.3590663075
1813,-0.3641699255
1814,-0.07699352503
1815,0.1573217064
1816,-0.08335527778
1817,0.263992399
1818,0.3146068752
1819,0.03271079808
1820,-0.009851833805
1821,0.01216058992
1822,-0.1887184829
1823,0.1603779942
1824,0.04235034063
1825,0.1305208951
1826,-0.05979643017
1827,0.1269461215
1828,0.08459952474
1829,-0.380376637
1830,-0.3564076424
1831,-0.2141368389
1832,-0.1557531655
1833,0.15907453
1834,-0.3121015131
1835,-0.1344192624
1836,0.3896993697
1837,-0.356860131
1838,-0.05423115566
1839,-0.3977016211
1840,0.2740879357
1841,-0.06684914231
1842,0.07559096068
1843,0.1767896861
1844,-0.09988486022
1845,-0.4074426889
1846,0.2511601448
1847,0.06626424938
1848,-0.03674444929
1849,0.0529522635
1850,0.07061069459
1851,0.2397860587
1852,0.2481627911
1853,-0.2277593762
1854,0.4376687109
1855,-0.04314328358
1856,-0.07987248898
1857,-0.2485680282
1858,0.1370550096
1859,-0.19140324
1860,0.4636283815
1861,-0.2446778715
1862,-0.4076496065
1863,-0.03385231271
1864,0.09012005478
1865,-0.2709470093
1866,-0.2800349593
1867,-0.2013293058
1868,-0.1240420192
1869,0.26403144
1870,0.3648340404
1871,0.1997663826
1872,-0.3638763428
1873,0.3454135656
1874,0.0772036612
1875,-0.007959189825
1876,0.2650975585
1877,-0.1901534498
1878,-0.2025810629
1879,-0.2540948987
1880,0.001204380183
1881,-0.09114708006
1882,-0.1609122008
1883,0.2629666626
1884,-0.3500992358
1885,-0.3179908693
1886,-0.1474180967
1887,-0.4573478103
1888,-0.2654844522
1889,0.2163817436
1890,0.08160648495
1891,0.1048209742
1892,0.01228930615
1893,0.3267976046
1894,-0.2753000855
1895,-0.03280051425
1896,-0.1939856708
1897,0.06965687871
1898,0.04728332907
1899,0.2770174742
1900,0.356172353
1901,-0.1136315018
1902,0.3085746467
1903,-0.222404629
1904,-0.0172891207
1905,-0.3229538798
1906,0.3017538786
1907,-0.07698652148
1908,-0.2019395977
1909,0.1971318573
1910,0.1311970055
1911,-0.08379972726
1912,-0.08579920232
1913,-0.2178898901
1914,0.100790441
1915,0.2744461596
1916,0.2866589427
1917,-0.2313863486
1918,-0.1873407811
1919,0.003517979756
1920,0.9417155385
1921,-1.126888156
1922,-0.596383512
1923,1.154605269
1924,1.145090103
1925,0.262889713
1926,-0.3373881876
1927,-1.238495827
1928,0.8618234992
1929,0.2944887578
1930,-0.8097202182
1931,-1.150857687
1932,-0.6668735147
1933,-1.041821003
1934,0.3773111701
1935,0.04832122847
1936,-0.9539486766
1937,0.6476095319
1938,0.9192014337
1939,-0.7105731964
1940,-1.562116981
1941,-0.07166743279
1942,0.2920366228
1943,0.1917538047
1944,0.2866144478
1945,1.194825649
1946,0.1310722083
1947,0.08701346815
1948,0.01570771448
1949,-0.09348086268
1950,0.6417297721
1951,-1.673710465
1952,-3.102166414
1953,3.451041698
1954,1.65654707
1955,-6.162658215
1956,-1.247379065
1957,-1.296494603
1958,0.1725341529
1959,1.533856273
1960,-1.625894427
1961,1.637266994
1962,-0.3970462084
1963,1.472631216
1964,0.3089020252
1965,-0.3049340248
1966,0.811447978
1967,-0.246877864
1968,-1.821063995
1969,0.497456044
1970,1.95282805
1971,1.469357371
1972,0.4604248106
1973,-2.908612013
1974,0.6099244952
1975,-1.266912937
1976,0.4899331331
1977,0.5569921732
1978,0.6487919688
1979,0.8334311843
1980,-0.265853107
1981,0.346193254
1982,1.219268441
1983,0.05752563104
1984,-0.1252239347
1985,-11.35389519
1986,0.4875205159
1987,-0.394148469
1988,0.57831496
1989,-0.2475835532
1990,0.2539257705
1991,-0.1268822253
1992,-0.1407842636
1993,1.084708571
1994,1.486378551
1995,-1.027129769
1996,0.4030857384
1997,-1.913051248
1998,-11.19021606
1999,0.3121966422
2000,0.4306904376
2001,0.7622478008
2002,0.4723551571
2003,-1.963959932
2004,0.4081600606
2005,-0.3208886087
2006,-0.3169076741
2007,1.048413754
2008,-5.675419331
2009,-1.285177827
2010,0.2269213647
2011,-0.1803764999
2012,-2.653242826
2013,-0.01385082118
2014,0.3845587671
2015,1.912377596
2016,-1.836982131
2017,0.6953311563
2018,1.198721886
2019,0.07320718467
2020,0.6855973601
2021,0.8816106915
2022,1.272692919
2023,-0.9902384877
2024,1.336060524
2025,0.2677443027
2026,-3.115263462
2027,0.1318883747
2028,-8.397342682
2029,-0.1263885349
2030,-0.1647403538
2031,0.110041216
2032,-0.2384192646
2033,-0.3866638243
2034,-2.826000452
2035,0.5717377067
2036,-8.272663116
2037,1.043925643
2038,-0.3636030853
2039,-0.1937345564
2040,-1.355337381
2041,0.4067787528
2042,1.1533674
2043,0.5400543213
2044,-0.3611869216
2045,-0.1519801766
2046,-0.005620464683
2047,-0.3838583529
2048,2.053061724
2049,0.3800905049
2050,-0.9213393927
2051,-0.3346093297
2052,-0.2189322412
2053,0.08355816454
2054,-1.129831195
2055,-0.4062334597
2056,-0.2359903455
2057,-1.147619724
2058,-0.6064103842
2059,-1.992378831
2060,-0.4670868516
2061,-0.2982700169
2062,-0.1869472414
2063,1.900384665
2064,-0.6299499869
2065,-0.05146605521
2066,-1.303414702
2067,0.1734957844
2068,0.3172990084
2069,0.3351246119
2070,0.2430212498
2071,0.6196241975
2072,1.321242929
2073,-1.088225245
2074,-1.633202434
2075,-1.909979105
2076,-0.1882862896
2077,0.5404751897
2078,0.6894133687
2079,-0.4842450321
2080,0.3637988865
2081,1.329364777
2082,0.556478858
2083,0.02641638555
2084,-1.599401236
2085,-1.026959777
2086,-0.03628155962
2087,-0.3620153666
2088,-0.3902805448
2089,0.4160539508
2090,1.066494346
2091,1.024433851
2092,0.3097909391
2093,0.2479601204
2094,1.379912376
2095,0.4535326958
2096,1.627273679
2097,0.2331460416
2098,-0.6013706326
2099,-0.3602584898
2100,-1.213184237
2101,-0.6815811992
2102,0.4712452888
2103,-0.3156035244
2104,-1.049360752
2105,-0.7531286478
2106,0.2944904268
2107,-0.814045608
2108,0.4695236683
2109,0.08006658405
2110,0.9668428302
2111,0.5715984702
2112,0.004071540199
2113,-8.271643639
2114,0.4128154814
2115,-1.005513668
2116,-0.2605957985
2117,-0.3316934705
2118,-0.00837964192
2119,0.1067468897
2120,-0.7436725497
2121,0.2842288017
2122,0.5993442535
2123,-0.0523901023
2124,0.6220339537
2125,-2.454570293
2126,-1.950464487
2127,-0.4770486951
2128,-0.5236181021
2129,0.4542028606
2130,0.7351202369
2131,-1.541415095
2132,0.3861232698
2133,0.2946552336
2134,0.0339884758
2135,0.07044158876
2136,-0.8680061698
2137,-1.230956793
2138,-0.3823083043
2139,-0.2789615989
2140,-0.1591285765
2141,0.06634841114
2142,0.9447458386
2143,1.106470466
2144,-1.57766223
2145,0.5458314419
2146,-0.3882286847
2147,-0.1118803695
2148,-0.3624326885
2149,0.2886123061
2150,0.5689080358
2151,-0.4425539076
2152,1.228084803
2153,-0.6842989326
2154,-0.1629717797
2155,-0.2937678099
2156,-2.278639555
2157,-0.1746073961
2158,0.7122935653
2159,0.9132843614
2160,-0.1812373251
2161,-0.3874103725
2162,-0.8181119561
2163,1.127667069
2164,-2.996844292
2165,0.1782210022
2166,-1.618861079
2167,1.253429532
2168,0.2480127215
2169,0.1516401619
2170,0.9645100236
2171,1.26764822
2172,-0.7341753244
2173,-0.1667427719
2174,0.2861461043
2175,0.6019634008
2176,0.2323347926
2177,1.085087895
2178,1.106891155
2179,-0.2582914829
2180,0.9349491596
2181,0.2858020067
2182,0.2007356435
2183,-0.5914803147
2184,-0.5243384242
2185,-0.1410897374
2186,-0.9763970375
2187,-2.069473505
2188,0.1929447055
2189,-1.302600861
2190,0.9588414431
2191,0.2907610536
2192,-0.08885152638
2193,0.4870028794
2194,0.2048536688
2195,-0.0283065103
2196,0.6267442703
2197,-0.3491745293
2198,-0.3433457613
2199,0.2632876635
2200,-0.3002868891
2201,0.4476745129
2202,-1.767012358
2203,-0.8403814435
2204,-0.2189221084
2205,-1.556233048
2206,-0.5165948868
2207,-0.1048113555
2208,0.1661239117
2209,1.16116643
2210,-0.149619922
2211,0.1846672148
2212,-1.289316058
2213,0.3123660684
2214,0.9110178947
2215,-0.6857655048
2216,-0.7950757146
2217,-0.4715213776
2218,0.2947523594
2219,0.6904457808
2220,0.9186659455
2221,0.01093668025
2222,-0.6494163871
2223,1.183036447
2224,0.06464358419
2225,0.2814725935
2226,0.1300860494
2227,-0.5818459392
2228,-1.255618691
2229,-0.09748274833
2230,0.2567198277
2231,-0.6866528988
2232,-0.521579504
2233,-0.1058866084
2234,0.2784848511
2235,0.1849098206
2236,0.4356613755
2237,-0.3090103865
2238,0.8120585084
2239,0.6795367002
2240,-0.148294121
2241,-8.193386078
2242,-0.01460801251
2243,-0.9826821089
2244,0.1371431351
2245,-0.239858523
2246,0.5098921061
2247,0.02046432532
2248,-1.058475137
2249,0.690912962
2250,0.4233395755
2251,0.02073787339
2252,0.8209927082
2253,-2.212672234
2254,-2.114272594
2255,-0.01766419597
2256,-0.9528815746
2257,0.3713389933
2258,0.8672291636
2259,-1.873001456
2260,0.06743124872
2261,-0.1972954273
2262,0.1490492374
2263,-0.1853127927
2264,-0.4885526299
2265,-1.031368852
2266,-0.2441461831
2267,-0.06329168379
2268,0.1771717668
2269,0.4597453773
2270,0.5959593654
2271,0.9087947011
2272,-1.80881691
2273,0.2105582356
2274,-0.2590520084
2275,0.1332388967
2276,-0.5854533315
2277,0.0722900629
2278,0.7414728999
2279,-0.2643334568
2280,1.515099049
2281,-0.8064454198
2282,-0.01309167407
2283,-0.2682679892
2284,-2.527205229
2285,0.3070428967
2286,0.3369196057
2287,0.9324375987
2288,-0.01707008295
2289,0.1639015675
2290,-1.414270282
2291,0.9014886618
2292,-3.05691433
2293,0.1473858207
2294,-1.16112411
2295,1.526322007
2296,-0.2968508899
2297,0.2682636976
2298,1.15618372
2299,1.285568953
2300,-0.1115391776
2301,-0.001724121161
2302,0.4422712922
2303,0.7980023623
2304,-13.59744358
2305,-7.600403786
2306,-0.4513442814
2307,-11.28153992
2308,-7.857829571
2309,0.376714915
2310,-10.52351093
2311,6.857762814
2312,-8.128881454
2313,-12.44539738
2314,0.7668301463
2315,-1.151475787
2316,14.15086555
2317,7.84415102
2318,12.82032394
2319,15.04963779
2320,10.40173435
2321,6.34414053
2322,-10.09678173
2323,-0.4154177606
2324,7.613673687
2325,-0.02901924029
2326,0.001245485619
2327,-0.02084348723
2328,-2.799885035
2329,-0.03640772402
2330,-10.84866428
2331,-9.175255775
2332,14.53758526
2333,-5.772540569
2334,6.051771164
2335,-7.885241032
2336,11.8489933
2337,-13.57221031
2338,-7.646891117
2339,13.40619087
2340,-1.690293312
2341,7.077733517
2342,5.945306778
2343,-15.41298866
2344,8.770111084
2345,-6.788878441
2346,-6.557971954
2347,-7.549993992
2348,-11.35341167
2349,-0.150734365
2350,-6.284085751
2351,6.794695377
2352,10.52872944
2353,-5.490708351
2354,-17.11889267
2355,-6.11885643
2356,-5.730727673
2357,16.90670204
2358,-1.505134344
2359,2.943182468
2360,1.43694675
2361,-8.097587585
2362,5.411626339
2363,-2.764334679
2364,2.419318438
2365,0.1481731385
2366,10.04281425
2367,11.0724678
2368,-0.5635134578
2369,0.2965853512
2370,0.3587270677
2371,-0.1430739909
2372,-0.1409411579
2373,-0.2367888391
2374,0.2544415593
2375,-0.07558242232
2376,0.0578738898
2377,0.4057944119
2378,-0.140573144
2379,0.1365952343
2380,-0.578397274
2381,0.1789281219
2382,0.08939816058
2383,-0.4767603874
2384,0.0393415764
2385,-0.2156766206
2386,0.3822409809
2387,0.06120380014
2388,-0.2230680734
2389,-0.0003044506593
2390,-0.3562595546
2391,0.2021750212
2392,0.09205946326
2393,0.1600648314
2394,0.1036939919
2395,-0.1653210074
2396,0.3951341808
2397,-0.1409696937
2398,0.0270192232
2399,-0.07933545113
2400,0.4444293678
2401,-1.107159734
2402,-0.7862280011
2403,-0.001718086889
2404,-0.1704998761
2405,0.3736024201
2406,-0.02041477524
2407,0.3458356857
2408,0.3389302492
2409,0.1242189929
2410,-0.1460398138
2411,-0.07329779118
2412,-0.3752775192
2413,-0.3042171001
2414,-0.03446552157
2415,-0.5772340298
2416,0.2659799159
2417,-0.3934811354
2418,0.04426650703
2419,-0.2292940915
2420,0.437795639
2421,0.1888767928
2422,0.1484732479
2423,-0.1768523306
2424,0.4090186954
2425,-0.1688701063
2426,-0.2534973323
2427,-0.2220561653
2428,0.01178024709
2429,-0.1112356558
2430,0.2664997876
2431,0.3647494614
2432,0.08559597284
2433,-0.6829760671
2434,0.8581401706
2435,-1.038265586
2436,-0.2967467308
2437,0.386544615
2438,0.418446064
2439,0.3313738108
2440,-0.1103363112
2441,-0.05028484762
2442,-0.5022127032
2443,-0.1558437794
2444,0.2323166877
2445,-0.6885743737
2446,-0.2752439082
2447,0.5009136796
2448,0.292506963
2449,-0.8943123221
2450,0.03546752036
2451,0.08240485191
2452,-0.3900031149
2453,-0.3169941604
2454,0.1946988106
2455,-0.740984261
2456,0.1548481286
2457,-0.6705369949
2458,-0.6197336912
2459,-0.2953163981
2460,0.01105504483
2461,-0.1561651081
2462,0.3100039661
2463,0.05303939432
2464,0.4008082449
2465,-0.2986522019
2466,0.2000877559
2467,0.06367544085
2468,0.02857804857
2469,0.4009199142
2470,0.07404267043
2471,-0.5986237526
2472,-0.1191561669
2473,-0.2420880198
2474,0.1878137141
2475,-0.4172441363
2476,-1.864534616
2477,-0.3881063163
2478,-0.4619441628
2479,0.06164204329
2480,-0.2805974483
2481,-0.2474493235
2482,-0.2630813718
2483,0.2519839704
2484,-1.038927317
2485,0.2078679949
2486,0.04444069788
2487,0.1694289893
2488,-0.4333568215
2489,0.5229920149
2490,0.6354147792
2491,0.4674792588
2492,-0.905343771
2493,-0.1761405468
2494,-0.09347811341
2495,-0.02844607644
2496,0.02023017593
2497,0.06913091987
2498,0.01208551973
2499,0.03897861019
2500,0.1002855524
2501,0
2502,0.01037202124
2503,-0.08928053081
2504,-0.2045730203
2505,0.049451828
2506,-0.1310946941
2507,0.02049847692
2508,0.09696300328
2509,0.2157090753
2510,0.08173125982
2511,-0.030458102
2512,-0.1405368894
2513,0.1354189962
2514,0.1341111213
2515,-0.203386113
2516,-0.009296409786
2517,-0.01105470303
2518,0
2519,0.1775186956
2520,-0.04434107617
2521,0.1442784369
2522,-0.08154180646
2523,-0.02209806442
2524,0.03646744415
2525,-0.2594590783
2526,-0.04423008487
2527,-0.1010121852
2528,0.06722782552
2529,0.08475343138
2530,0.03511032835
2531,0.02616113983
2532,-0.1132194772
2533,-0.03862603754
2534,-0.1060785651
2535,-0.0324126482
2536,0.0514022857
2537,0.02140362002
2538,0.01176884212
2539,-0.02466060407
2540,0.02331604622
2541,0
2542,-0.04659065232
2543,-0.02181200683
2544,-0.03293805942
2545,-0.04346298799
2546,0.0003640419163
2547,-0.04694423452
2548,0.0004550378653
2549,-0.07851776481
2550,-0.06768665463
2551,0.01858879998
2552,0.1891139001
2553,-0.08241910487
2554,-0.1402464658
2555,0.07035078108
2556,0.118306607
2557,0
2558,0.08080416918
2559,0.05829558894
2560,0.004311042372
2561,-0.4537969828
2562,-0.3740976751
2563,-0.0517819114
2564,0.4407570362
2565,-0.2538666129
2566,-0.3720031679
2567,0.1608452797
2568,-0.3500710428
2569,-0.4411671162
2570,-0.1531657577
2571,0.5725139976
2572,-0.8012842536
2573,0.1749835908
2574,-0.5227850676
2575,-0.0869615525
2576,0.05415395275
2577,-0.3874806762
2578,-0.3432191014
2579,0.1328505576
2580,0.05133187026
2581,-0.1424770951
2582,-0.03767473623
2583,0.07711298764
2584,-0.1928522587
2585,-0.2081014663
2586,-0.1701190621
2587,-0.9008553028
2588,0.1310415417
2589,0.009784541093
2590,-0.2588286996
2591,0.121540606
2592,-0.7901819944
2593,0.3950841427
2594,0.1283567846
2595,0.6880917549
2596,-0.3748070598
2597,-0.2119935602
2598,-0.4905029833
2599,-1.343784809
2600,0.3069836795
2601,-0.7751321793
2602,-0.2080137134
2603,0.3450118601
2604,0.2924385965
2605,-0.08963287622
2606,-0.07417862117
2607,-0.2147496939
2608,-0.7968380451
2609,0.6846120358
2610,0.106700778
2611,0.2665290236
2612,0.1466793716
2613,-0.2254947722
2614,-0.05752174556
2615,0.3444510996
2616,-0.8643322587
2617,-0.7441752553
2618,0.4266185462
2619,0.1572172642
2620,0.1388226151
2621,0.5080996156
2622,-0.2895749807
2623,-1.038004041
2624,-0.2037983537
2625,-0.3596816361
2626,0.9424774647
2627,-1.051031351
2628,-0.0414500609
2629,0.186309725
2630,-1.87909627
2631,-0.6435248256
2632,-2.798108578
2633,1.596539021
2634,2.44968462
2635,-0.4645341635
2636,0.9254773259
2637,-0.678581655
2638,-4.166727543
2639,-0.1542588323
2640,3.911258221
2641,0.3168635666
2642,0.3086765409
2643,-0.8512158394
2644,-0.2507061362
2645,-0.9120690227
2646,-1.089678645
2647,-1.419456244
2648,-0.2326176465
2649,-1.583563209
2650,-0.1153054386
2651,0.8693276048
2652,0.7491301298
2653,-1.785246372
2654,-0.3572475612
2655,0.4482565224
2656,1.897790313
2657,1.506726861
2658,-2.165010452
2659,1.646086454
2660,0.9862565994
2661,-0.07589505613
2662,-0.623924315
2663,0.2743413448
2664,2.518197536
2665,-0.2646671534
2666,0.3532393873
2667,-1.725311279
2668,2.206567526
2669,0.1704230011
2670,-0.7880690694
2671,1.433518767
2672,2.117640734
2673,0.06869519502
2674,0.2597119808
2675,-0.03101416677
2676,0.2617467344
2677,-0.2706049085
2678,2.296834469
2679,-0.214147225
2680,0.6666669846
2681,0.1083153486
2682,0.03444582224
2683,0.3537073731
2684,0.03730686381
2685,2.412442923
2686,2.824930429
2687,0.02805757336
2688,-1.106054425
2689,-0.1488782614
2690,0.2362738103
2691,0.1128658205
2692,-0.2556764781
2693,-0.8038759232
2694,0.1922007948
2695,-0.01668557711
2696,0.493937254
2697,-0.1461280882
2698,-0.08126880974
2699,0.01909477077
2700,0.3295647204
2701,-0.4943582416
2702,0.2761691511
2703,0.650665462
2704,-0.1287800819
2705,0.007123365067
2706,0.3093109131
2707,0.02861168049
2708,0.4619309902
2709,-0.3980291784
2710,0.1632211208
2711,-0.1835094541
2712,0.4741801918
2713,-0.1963100582
2714,0.2475938201
2715,0.1136599258
2716,-0.08416330814
2717,0.6017302871
2718,0.2153896242
2719,0.1818487793
2720,-0.4179884791
2721,0.2734321952
2722,0.1975066364
2723,0.1255118996
2724,0.1656008959
2725,-0.2156003565
2726,0.06465961039
2727,-0.0931147486
2728,-0.007879545912
2729,0.4669964612
2730,-0.2184806466
2731,0.2314379662
2732,0.09866172075
2733,-0.3700853884
2734,-0.7616658807
2735,0.08437696844
2736,0.1599565893
2737,-0.1178158075
2738,0.04296901822
2739,0.1501494646
2740,-0.3485956788
2741,0.1420314759
2742,-0.06395747513
2743,0.1104810685
2744,0.03882772475
2745,-0.291954726
2746,-0.6626102924
2747,0.4590460956
2748,-0.7967734933
2749,0.02960716747
2750,-0.02814068273
2751,0.1956361383
2752,-0.4964310825
2753,-0.4794570208
2754,-0.1344001293
2755,0.234976545
2756,-0.5256034136
2757,0.2110698223
2758,-0.2984052002
2759,-0.5150963068
2760,0.7603889108
2761,0.1706966162
2762,0.09075015038
2763,0.0614060685
2764,-1.381260872
2765,-0.6414353251
2766,-0.3716443479
2767,0.5601390004
2768,0.1523056775
2769,0.4605621696
2770,-0.02973137051
2771,-0.06041567028
2772,-0.0009286254644
2773,-0.01482028514
2774,0.4704893231
2775,0.284927547
2776,0.2217614204
2777,0.9535430074
2778,-0.07676383853
2779,0.1146854311
2780,0.1618970186
2781,0.6250055432
2782,0.7399383187
2783,0.06149704009
2784,0.04031392559
2785,0.8843541145
2786,0.3246614933
2787,0.6610218883
2788,-0.05362140387
2789,0.2251963466
2790,-0.007666030899
2791,-0.2218709737
2792,0.1681784838
2793,0.9155174494
2794,-0.1259964556
2795,-0.4471179843
2796,-0.7469709516
2797,0.08209744841
2798,0.2765387297
2799,0.1705000103
2800,-0.3604134619
2801,1.186776638
2802,0.404861629
2803,0.06278894097
2804,-0.2211788744
2805,0.1431039125
2806,0.1996166408
2807,0.3730038404
2808,0.2775018215
2809,-0.4670690596
2810,0.2260115147
2811,-0.1444191188
2812,-0.1564941853
2813,0.08353997767
2814,0.3026490808
2815,0.09206095338
2816,-0.9629831314
2817,0.3247652054
2818,-0.4125520885
2819,0.1436629742
2820,0.04200654104
2821,0.08679781854
2822,0.1743756235
2823,-0.1161191911
2824,-0.2347216308
2825,-0.1840621382
2826,-0.1988183707
2827,-0.3777494729
2828,-0.08771759272
2829,-0.1370294243
2830,0.07020368427
2831,0.3450916708
2832,0.3231424689
2833,-0.5856253505
2834,-0.03283258528
2835,0.1084802672
2836,-1.064667344
2837,-0.5140009522
2838,-0.3156083524
2839,-1.094528079
2840,0.2183189094
2841,0.1324074566
2842,-0.1842184663
2843,-0.9871064425
2844,-0.02902857959
2845,-0.2048374712
2846,0.06858685613
2847,-0.1825810224
2848,0.5045131445
2849,-0.2572975159
2850,0.1125962883
2851,-0.08437025547
2852,0.3502246439
2853,0.1133865938
2854,-0.04480447248
2855,0.0215749424
2856,-0.04008034244
2857,-0.7630688548
2858,0.3546030819
2859,0.02713250928
2860,0.1571493
2861,-0.1851436049
2862,-0.1475121975
2863,0.2161051184
2864,-0.01403198577
2865,-0.5425539613
2866,0.05781560019
2867,-0.3132918179
2868,0.2055445015
2869,-0.3130919635
2870,-0.2549073994
2871,-0.3477174044
2872,-0.1729032844
2873,-0.2705194056
2874,-0.4887835979
2875,0.08776665479
2876,-0.2231773138
2877,0.01961497962
2878,0.4592741728
2879,0.04387288168
2880,0.272115469
2881,0.2920645475
2882,0.02962093242
2883,0.08556123823
2884,-0.05094162002
2885,0.08429194242
2886,-0.1611937135
2887,0.0788243562
2888,-0.04765891284
2889,-0.01615528204
2890,-0.02493114397
2891,-0.2927690446
2892,0.01731462032
2893,0.2603100836
2894,0.2727436125
2895,-0.09649598598
2896,-0.2040003538
2897,0.01950047351
2898,-0.1842527986
2899,-0.07229062915
2900,-0.2568763793
2901,-0.1609171629
2902,0.09477196634
2903,-0.2826711535
2904,0.2834773362
2905,-0.2879618108
2906,-0.09207247943
2907,-0.1735209823
2908,0.2484011203
2909,0.1187709868
2910,0.02378457971
2911,0.04183767363
2912,-0.158154428
2913,-0.2156759948
2914,-0.1578955948
2915,-0.1287440807
2916,-0.1902927756
2917,-0.2460538894
2918,0.2434433401
2919,-0.129528746
2920,-0.2562761605
2921,0.05308857933
2922,0.03324314207
2923,0.00706151966
2924,-0.06961905211
2925,-0.1385806501
2926,0.1084623709
2927,0.1053956226
2928,-0.09934287518
2929,0.2019775957
2930,0.2058283389
2931,-0.1830717325
2932,-0.199406743
2933,-0.1731106341
2934,-0.1955530047
2935,0.07566919923
2936,0.140064612
2937,-0.2189565599
2938,-0.2677728832
2939,0.1047180295
2940,0.189198941
2941,-0.2768756747
2942,-0.2300559133
2943,-0.1339718848
2944,0.493596673
2945,-0.6875788569
2946,-0.5163128376
2947,-0.1116537154
2948,0.2749494016
2949,-0.3603895307
2950,-0.3607728183
2951,-0.4767017961
2952,-0.1729757339
2953,0.2646887302
2954,-0.5153805614
2955,0.3739920259
2956,-0.2356794029
2957,0.5968013406
2958,0.1132311821
2959,-1.687825203
2960,0.04619279504
2961,0.1929622144
2962,-0.4046277404
2963,0.3070454001
2964,0.4088072777
2965,0.02720690332
2966,-0.2389300615
2967,-0.2201825082
2968,-0.4056758583
2969,0.05742014945
2970,0.02067439444
2971,0.05960768089
2972,-0.2699106932
2973,-0.8823433518
2974,0.1586159319
2975,0.3236879706
2976,-0.4549253285
2977,-0.6619664431
2978,-0.2918241024
2979,0.09587004036
2980,-0.668163538
2981,-0.3210006058
2982,-0.3093637526
2983,-0.3413730264
2984,0.2644420862
2985,0.2245846987
2986,-0.09093873203
2987,0.3323617876
2988,0.1865087897
2989,0.4631707966
2990,-0.1815303713
2991,-0.4864907265
2992,-0.9565044641
2993,0.3725579977
2994,-0.1150580049
2995,-0.09012034535
2996,-0.2672812939
2997,-0.2024980634
2998,-0.1695894152
2999,-0.2982975841
3000,-0.5256621242
3001,-0.1977533698
3002,0.3382960558
3003,0.3305574059
3004,-0.0342117548
3005,-0.2633708119
3006,0.2554262578
3007,0.373952359
3008,0.4790101945
3009,-0.1487264931
3010,0.6726237535
3011,0.07375569642
3012,0.4322046041
3013,-0.2016920596
3014,0.02955542877
3015,0.2406657785
3016,-0.02649818547
3017,-0.0009421618306
3018,0.2458855063
3019,0.1110360399
3020,0.4312242866
3021,0.4155648649
3022,0.4818915427
3023,-0.1342478096
3024,-0.1903124452
3025,0.115177542
3026,0.0149490675
3027,-0.5239028931
3028,0.2109219879
3029,-0.04598476365
3030,-0.05071932077
3031,0.8692224622
3032,-0.3009054065
3033,-0.08818720281
3034,-0.177777648
3035,0.3010199368
3036,0.1063861698
3037,-0.2384183705
3038,0.06888447702
3039,0.1477540135
3040,-0.2644838691
3041,0.001432579942
3042,-0.01478061173
3043,-0.05146708712
3044,0.3808252811
3045,-0.469596386
3046,0.4547707736
3047,-0.4056647718
3048,-0.2884336412
3049,-0.3812800348
3050,-0.1208508536
3051,-0.02890987508
3052,-0.3798519075
3053,-0.09191313386
3054,-0.01489721052
3055,-0.006459143478
3056,0.02329904214
3057,0.3134092987
3058,-0.7630609274
3059,0.1395792514
3060,-0.1150864139
3061,-0.2854841352
3062,-0.1457275748
3063,-0.5197615623
3064,-0.09877798706
3065,-0.5155417323
3066,0.6292773485
3067,0.2754032314
3068,0.4752798676
3069,0.2453116179
3070,-0.004329153802
3071,-0.3857988119
3072,0.07324493676
3073,0.2052213252
3074,0.08026611805
3075,0.04079825059
3076,-0.2626549602
3077,0.07097933441
3078,0.02184165642
3079,-0.4422412813
3080,-0.02673154511
3081,0.2863040268
3082,0.2312042415
3083,0.3084542453
3084,-1.055471659
3085,-0.2937636077
3086,-0.1455086768
3087,0.118508175
3088,0.08421500027
3089,0.3379220068
3090,0.03349422291
3091,-0.2047363222
3092,0.3686699867
3093,0.07565742731
3094,-0.02208753861
3095,0.2769458294
3096,-0.3160344958
3097,-0.49861449
3098,-0.05429304019
3099,0.4658173025
3100,-0.3228414059
3101,-0.1264822483
3102,-0.02988243662
3103,0.5824301839
3104,-0.118683964
3105,0.2659592032
3106,0.1102006957
3107,-0.3667070866
3108,-0.1672864258
3109,-0.2711697221
3110,-0.08301521093
3111,-0.03785012662
3112,-0.1403131187
3113,0.07441807538
3114,-0.2910301983
3115,0.065685682
3116,-0.2630482316
3117,-0.417435497
3118,0.1065357774
3119,0.1911315322
3120,-0.01631948538
3121,-0.431990236
3122,0.06371507794
3123,-0.03528720513
3124,-0.2366891801
3125,-0.371076256
3126,-0.03114497289
3127,0.3897823691
3128,0.5112197995
3129,0.007390863262
3130,-0.1427773237
3131,0.1259151101
3132,0.0355772227
3133,-0.1472501755
3134,-0.7576794028
3135,-0.4941633642
3136,-0.239094004
3137,-0.2568389475
3138,0.1169851497
3139,0.1367658079
3140,-0.227230534
3141,-0.6086573601
3142,-0.01270045247
3143,0.08048148453
3144,0.4967010915
3145,0.003610050073
3146,-0.4629168212
3147,0.3791666627
3148,0.2326748669
3149,-0.8554233909
3150,0.2894489169
3151,0.1803347319
3152,-0.3653436899
3153,0.08998455107
3154,-0.4604847729
3155,-0.3950287998
3156,0.4965613484
3157,-0.09828158468
3158,-1.047019124
3159,0.6391425133
3160,0.2518674135
3161,-0.7127335668
3162,0.144785136
3163,-0.7033325434
3164,0.005844440311
3165,-0.0750290975
3166,0.29492414
3167,-0.1142776757
3168,-0.1077042595
3169,0.06444479525
3170,-0.05043404549
3171,-0.04377446696
3172,-0.1872302592
3173,0.1639569402
3174,-0.404311806
3175,0.25128299
3176,-0.09765122086
3177,0.5928612947
3178,0.1088042334
3179,0.2402474135
3180,0.2253155857
3181,-0.5014216304
3182,-0.4790012538
3183,0.3390492499
3184,-0.5084617734
3185,0.5978847146
3186,0.1756125093
3187,0.2848409116
3188,-0.1527571678
3189,-0.3559035659
3190,-0.24175632
3191,-0.4267501831
3192,-0.6047115922
3193,-0.0415475443
3194,0.07616546005
3195,-0.0689401105
3196,-0.03830684349
3197,0.1891456842
3198,-0.1236544028
3199,-0.373149693
3200,0.4191125631
3201,-0.08565519005
3202,-0.342112869
3203,-1.326845169
3204,0.6538745761
3205,-0.09515011311
3206,1.021768451
3207,-0.3631924093
3208,0.243852511
3209,0.5156283975
3210,-0.2222479582
3211,0.6518662572
3212,0.8337463737
3213,1.075033665
3214,0.1619547457
3215,1.850199461
3216,-1.122922063
3217,0.7714800835
3218,0.2886175513
3219,-1.426661372
3220,0.06299377978
3221,0.03422565758
3222,-1.373920321
3223,-0.717823565
3224,1.489375591
3225,-0.2837685645
3226,0.2663554251
3227,-1.400239229
3228,0.2067779601
3229,0.2765734196
3230,0.5805231929
3231,-0.001467773458
3232,-0.2173772901
3233,-1.24818778
3234,-0.1405624896
3235,0.09558450431
3236,0.4869269729
3237,-0.4173793793
3238,0.4408645928
3239,0.2726123035
3240,-0.4159604907
3241,0.8605486155
3242,0.514213562
3243,0.006368712522
3244,-0.7060430646
3245,-0.0664146021
3246,0.7438135743
3247,0.1868923455
3248,-0.1567811966
3249,1.304887891
3250,0.449218452
3251,-0.2481847107
3252,-0.1667096615
3253,-0.2050271481
3254,-0.6619307399
3255,0.07372080535
3256,-0.937279582
3257,0.1314637661
3258,0.4746692479
3259,0.9200718403
3260,0.06220488995
3261,-0.1084694639
3262,-0.6327009797
3263,-0.1786646545
3264,0.4131480753
3265,-0.7845680714
3266,0.3094065189
3267,-0.9330122471
3268,0.2451916188
3269,-0.2406941801
3270,0.07758803666
3271,-0.9989492893
3272,-0.5952606201
3273,0.09379562736
3274,-0.2920740545
3275,0.5321859717
3276,0.09290599078
3277,0.7051144838
3278,0.5659152269
3279,-0.8681851625
3280,-0.3478836119
3281,0.3041697145
3282,-0.2964954972
3283,0.02753498219
3284,0.8178513646
3285,0.04734256119
3286,-1.173947811
3287,-0.1409749836
3288,-0.4406190813
3289,-0.5520982742
3290,-0.1838521957
3291,-0.9559178948
3292,-0.03284511715
3293,-1.17633903
3294,-0.07686141878
3295,-0.2748602629
3296,0.4290460348
3297,-1.611098409
3298,-1.481268406
3299,-0.6352930665
3300,-1.185325027
3301,-0.1355448961
3302,0.4269869924
3303,0.1486116946
3304,0.05056416616
3305,-1.034176111
3306,-0.2232593894
3307,0.05819770321
3308,-0.5614019632
3309,-0.04607013986
3310,0.3450167775
3311,-0.7138829231
3312,-0.7372270226
3313,-1.343132615
3314,0.9038200974
3315,0.3196173012
3316,0.2868886292
3317,-0.1099831983
3318,-0.9417080879
3319,0.3789497912
3320,-0.2693310082
3321,-0.2280782759
3322,0.3617459834
3323,-0.1340921819
3324,-0.4224230349
3325,-1.154883504
3326,-0.999096036
3327,0.008395543322
3328,0.001339952461
3329,0.6162959337
3330,-0.05805696547
3331,-0.3226189911
3332,0.09158942103
3333,-0.2872736454
3334,0.3888014257
3335,0.2731509507
3336,-0.3153098226
3337,0.2063527256
3338,-0.6917837858
3339,-0.2717838585
3340,0.0315692313
3341,0.1808247417
3342,0.2908787727
3343,-0.5325739384
3344,-0.564593792
3345,0.1378404796
3346,-1.55992198
3347,-0.1791440994
3348,0.1324973553
3349,-0.03384977207
3350,0.380535692
3351,-0.2254890501
3352,-1.516734119e-05
3353,-0.4249459207
3354,-0.2406356931
3355,1.022953391
3356,-0.1083315313
3357,-1.147071958
3358,-0.9267436862
3359,0.0730560571
3360,-0.6968759894
3361,-0.5024964213
3362,-1.215734839
3363,-0.1334217042
3364,0.06628994644
3365,0.1230527982
3366,0.5834528804
3367,-0.2310232222
3368,-0.3989416361
3369,-0.5686348677
3370,0.0761712268
3371,-0.3111717105
3372,-0.005753537174
3373,-0.230494976
3374,0.4942795038
3375,-0.1622643024
3376,0.626152873
3377,0.004279070068
3378,0.6177103519
3379,0.1008589044
3380,-0.1592955589
3381,-0.1291744113
3382,0.4462684989
3383,-1.094648004
3384,-0.108081989
3385,-0.5117972493
3386,-0.3139657974
3387,-0.6602927446
3388,-0.3276521266
3389,0.1166285723
3390,0.6116227508
3391,0.1045373455
3392,0.06551880389
3393,0.1989654601
3394,0.2371161729
3395,0.0876269266
3396,-0.4267850816
3397,0.1749691367
3398,-0.2676450014
3399,-0.5494022369
3400,0.1369961202
3401,-0.2267654687
3402,0.6048622131
3403,-0.1956746131
3404,0.3479245305
3405,0.07437992096
3406,0.1591818631
3407,-1.210234404
3408,0.3509198129
3409,0.2872565091
3410,-0.2021260113
3411,-0.15374358
3412,-0.1775852889
3413,-0.2045444995
3414,0.6779215336
3415,-0.5291176438
3416,-0.6544123292
3417,-0.1222345233
3418,-0.1036718413
3419,0.6716877222
3420,0.5227920413
3421,-0.5138174295
3422,0.1114234701
3423,-0.2725316882
3424,-0.2932074964
3425,0.03418723121
3426,0.06802053005
3427,-0.07537882775
3428,-2.380789995
3429,-0.295217663
3430,0.3075483143
3431,-0.6071790457
3432,0.2056836635
3433,-0.295945555
3434,-0.05673758686
3435,-0.3729600608
3436,-0.4187445045
3437,0.2788382173
3438,-0.5464051962
3439,-0.06749648601
3440,0.3562172651
3441,0.3853850663
3442,-0.3045337498
3443,0.512395978
3444,0.1890359521
3445,0.2805909216
3446,0.6349358559
3447,-0.86362046
3448,0.5013332367
3449,0.06730686128
3450,-0.9759145379
3451,-0.154470861
3452,-0.4162612557
3453,0.07910489291
3454,-0.601015389
3455,0.1847995818
3456,-0.1053262278
3457,0.3223484457
3458,0.5357658863
3459,0.1992238015
3460,-0.4030985832
3461,0.4654376507
3462,0.1581235379
3463,-0.1587624252
3464,-0.6240900159
3465,0.05417264625
3466,0.6841806173
3467,-0.2843169868
3468,0.2963751256
3469,-0.3034009933
3470,-0.1569147408
3471,0.5831669569
3472,0.8979638815
3473,0.2210194618
3474,-0.1594141871
3475,0.1947853416
3476,-0.06149008125
3477,0.1414536387
3478,0.1719357967
3479,-0.3973881602
3480,0.3059876561
3481,-0.2513705492
3482,-0.3056207597
3483,0.4481343031
3484,-0.2951568663
3485,-0.05358312652
3486,-0.01370672788
3487,0.3554141819
3488,0.8659700155
3489,0.131492883
3490,-0.4444817305
3491,0.4418382049
3492,-0.2962516248
3493,0.02793672867
3494,-0.1702519506
3495,-0.4089125097
3496,0.5695349574
3497,-1.550191045
3498,0.7566184402
3499,-0.1760134697
3500,-0.06608867645
3501,-0.2639625072
3502,-0.5147532821
3503,0.6221768856
3504,0.5948683619
3505,-1.033146501
3506,0.27745682
3507,-0.1289828271
3508,-0.1446554512
3509,-0.2959654331
3510,0.535482049
3511,-0.2673716247
3512,0.3379258811
3513,0.2610660493
3514,-0.1518628746
3515,0.08185698837
3516,-0.6879211068
3517,0.4287135899
3518,0.7939685583
3519,0.1816545278
3520,-0.6356309652
3521,0.5709044933
3522,0.03318731487
3523,0.1193959787
3524,0.5131113529
3525,-0.08553790301
3526,-0.6523433328
3527,-0.4448317289
3528,-0.1446812749
3529,-0.01443502679
3530,-0.7111886144
3531,0.3560657203
3532,0.2834286988
3533,0.01819399558
3534,-0.116665788
3535,0.3966204822
3536,0.1337355971
3537,-0.3609921038
3538,-0.1665963978
3539,0.2222880423
3540,-0.8527669907
3541,0.0505515337
3542,0.3211576045
3543,-0.2807707489
3544,-0.05824654922
3545,0.4901494682
3546,-0.3329868019
3547,0.3089409471
3548,-0.005009378772
3549,-0.627076149
3550,-1.135104895
3551,-0.4087228477
3552,-1.25547421
3553,0.04339768365
3554,-1.226488829
3555,-0.503670752
3556,-0.960536778
3557,-0.161041826
3558,0.3337570429
3559,-0.377427578
3560,-1.744440675
3561,-1.285143137
3562,-0.3544502854
3563,0.3003289104
3564,-0.02099309675
3565,-0.3353327513
3566,-0.2909645736
3567,0.11610201
3568,-1.312177181
3569,-0.1314637959
3570,0.3036947548
3571,0.2665955722
3572,-0.3008681536
3573,0.1394743919
3574,-0.08851451427
3575,-0.09803684056
3576,0.1556633711
3577,0.691765964
3578,-0.1759359986
3579,0.2400282472
3580,0.5992626548
3581,-0.1738112718
3582,-1.401993275
3583,0.4915903509
3584,-0.07370064408
3585,0.09231169522
3586,-0.691472888
3587,0.2007929087
3588,-0.2543263137
3589,-0.1970695108
3590,-0.4668766558
3591,-0.09681279957
3592,0.2796625793
3593,0.06789571792
3594,0.1850221604
3595,0.2351298481
3596,-0.313860178
3597,0.2015697807
3598,-0.07274736464
3599,-0.3212190866
3600,-0.2991645634
3601,0.4557459652
3602,-0.6830601692
3603,-0.04122248292
3604,0.0260799583
3605,-0.2545301616
3606,-0.0904867202
3607,-1.493540287
3608,-0.1224800572
3609,0.2801608443
3610,-0.1834869534
3611,0.5089080334
3612,-0.8126478195
3613,-1.910760403
3614,-0.1536254883
3615,0.1795651168
3616,0.3581625521
3617,-0.01501007657
3618,0.3643384576
3619,-0.3098334372
3620,-1.518620729
3621,-0.4374058545
3622,-0.5310565829
3623,0.2673766911
3624,-0.1805383563
3625,0.2799345255
3626,0.3394715488
3627,-0.1829385906
3628,0.3089026213
3629,-0.3793944418
3630,-0.1166420057
3631,-0.3567439616
3632,0.05721766874
3633,0.2188583612
3634,-0.1544397622
3635,0.2925156653
3636,0.02820800804
3637,0.08433891833
3638,-0.01934973523
3639,-0.2504958212
3640,0.5766217113
3641,-0.03190733865
3642,0.07290200144
3643,0.1055616811
3644,-0.09832537174
3645,-0.2156422734
3646,-0.8839123249
3647,-0.03971859813
3648,-0.1701000929
3649,0.02067565173
3650,-0.1552668214
3651,0.1131933257
3652,0.3997980356
3653,-0.5291552544
3654,-0.5098397136
3655,-0.1320903897
3656,-0.08987682313
3657,0.4575038552
3658,-0.5256960392
3659,-0.5610046983
3660,-0.1518176496
3661,0.4751721621
3662,-0.5189700723
3663,-0.09270356596
3664,-1.741116405
3665,-0.2832989693
3666,0.0959013924
3667,-0.3611414433
3668,-0.5596722364
3669,-0.08078856021
3670,-1.9780761
3671,-0.07710047811
3672,-0.04305754229
3673,0.157727167
3674,-0.1158014908
3675,0.1656669229
3676,-0.1515887827
3677,0.02616891265
3678,0.1232458875
3679,-0.277477026
3680,0.4675821364
3681,0.208937034
3682,-0.2431441396
3683,0.1070642397
3684,-0.2399912924
3685,-0.06290780753
3686,-0.4254796207
3687,0.816942513
3688,-0.2657950819
3689,-0.7318270206
3690,0.05746606365
3691,0.1904509217
3692,-0.07318818569
3693,0.3197085857
3694,-0.1341010779
3695,-0.04264578596
3696,0.3520251513
3697,-0.8922353983
3698,-0.5541969538
3699,-1.502883077
3700,-0.2086599767
3701,0.08965264261
3702,-1.299054503
3703,-0.6112606525
3704,0.586663723
3705,-0.001418092637
3706,0.1317609102
3707,-0.5435140133
3708,0.008889613673
3709,-0.6193882823
3710,0.006287138909
3711,-0.1102433205
3712,0.05688270926
3713,0.5303635597
3714,-0.1072550192
3715,-0.04991737381
3716,-0.5750388503
3717,0.1338024735
3718,-0.5062121153
3719,0.04983333498
3720,-0.03377509862
3721,0.1059406847
3722,-1.266629934
3723,-0.4661720693
3724,-0.36442554
3725,-0.9436911941
3726,-0.163608402
3727,0.515451014
3728,-0.04470590875
3729,-0.325365752
3730,-0.218144238
3731,-0.1044609919
3732,0.06083971635
3733,-0.5670885444
3734,0.1780934632
3735,0.3527899683
3736,0.3663609624
3737,-1.082750916
3738,-0.2852165103
3739,-0.059053801
3740,-0.06424276531
3741,0.3396724164
3742,-0.005489715841
3743,0.2817723155
3744,0.1998050511
3745,0.2524320185
3746,0.05476956815
3747,-0.1663933843
3748,-0.116354242
3749,0.2049632668
3750,0.0134197874
3751,-0.4734094739
3752,-0.4541563988
3753,0.2434700429
3754,0.1474274248
3755,0.1118996739
3756,0.1630962342
3757,-0.2572138608
3758,-0.5769515038
3759,0.1853757799
3760,0.1737627387
3761,-0.504088223
3762,0.1082561091
3763,-0.5578731894
3764,0.0678204596
3765,0.09226474911
3766,-0.1465381682
3767,0.1574348062
3768,-0.3755121827
3769,0.4503074586
3770,0.3289182484
3771,0.1185669377
3772,0.38689363
3773,-0.1272137761
3774,0.3361347318
3775,-0.06307741255
3776,-0.6190326214
3777,-0.5633255839
3778,0.05505746603
3779,0.3353382647
3780,-0.3150048256
3781,0.2563923597
3782,-0.6127762198
3783,0.2359081656
3784,0.2018591464
3785,-0.8534621596
3786,0.1788742095
3787,-0.03488460928
3788,-0.3782999814
3789,-0.5536884665
3790,-0.2023107558
3791,-0.3501738608
3792,-0.2750045657
3793,-0.07085011154
3794,0.1948702782
3795,-0.3358957171
3796,-0.8654426932
3797,-0.2552118301
3798,-0.1520225108
3799,-0.5857536793
3800,0.1161229238
3801,0.4423615038
3802,0.1251430213
3803,0.2152448595
3804,-0.482544899
3805,-0.6145167947
3806,-0.09740699828
3807,0.05999091268
3808,-0.1033539474
3809,0.437418133
3810,-0.01991917193
3811,0.3284109235
3812,-1.436467052
3813,-0.2461047769
3814,-0.1959360987
3815,0.1091227308
3816,0.01983915642
3817,0.04213730991
3818,0.05299192667
3819,-0.2843863964
3820,-0.2743754089
3821,-0.03511838615
3822,0.3048042357
3823,0.007782063447
3824,0.2067869753
3825,0.09503745288
3826,0.2196445912
3827,-0.4025466144
3828,0.09245469421
3829,-0.3650661707
3830,-0.08878847957
3831,0.2382264137
3832,0.1573641896
3833,0.2665567696
3834,-0.07845924795
3835,-0.1857144833
3836,-0.7036232948
3837,0.08959094435
3838,-0.4528751969
3839,0.08962978423
3840,-0.1367397308
3841,-1.107674956
3842,0.2153358459
3843,0.01558001246
3844,0.2392230332
3845,0.1401655525
3846,0.1484067589
3847,-0.370331347
3848,0.331032306
3849,-0.8297098875
3850,0.1976574957
3851,0.256085664
3852,0.1693640798
3853,0.3166109324
3854,0.2746911943
3855,-0.4676499963
3856,0.2761416435
3857,-1.47979629
3858,-0.05361187086
3859,-0.3140725493
3860,-0.4623192251
3861,-0.2453891635
3862,0.1534631401
3863,-1.131219864
3864,-0.04560425878
3865,0.3383805454
3866,0.2088848352
3867,0.177688092
3868,0.4548515081
3869,0.3413124979
3870,0.3371351957
3871,-0.9346091747
3872,0.1123876795
3873,0.2860988379
3874,0.3325574696
3875,-0.2695151269
3876,-0.7819136977
3877,-0.2704620957
3878,0.08405795693
3879,0.1005805656
3880,-0.0494932197
3881,-1.205751538
3882,-0.2121367902
3883,-0.3800771236
3884,0.1765183657
3885,0.01050585881
3886,0.1400860697
3887,-0.0483700186
3888,-0.318906039
3889,-1.525605321
3890,-1.287485123
3891,0.3372984231
3892,-0.128781423
3893,-0.2943556607
3894,-0.07524263859
3895,-0.2328151315
3896,0.1815572232
3897,-0.9324064851
3898,-1.212692022
3899,-0.383928895
3900,0.1421731114
3901,0.08206687123
3902,-0.4977622032
3903,-1.196699262
3904,-0.04953701794
3905,0.06342931092
3906,-0.1355217695
3907,-0.2174476683
3908,-0.1594237089
3909,0.1400258094
3910,-0.1213275939
3911,0.1012669653
3912,0.06722404808
3913,0.08472817391
3914,-0.2254828662
3915,-0.01537963562
3916,0.09653902054
3917,-0.1613860577
3918,-0.148185268
3919,-0.3030487597
3920,0.1799464822
3921,0.2230495661
3922,0.1537123471
3923,0.05667173862
3924,0.2177705169
3925,0.02265653946
3926,-0.0803764388
3927,0.1837972254
3928,0.01042799931
3929,0.2909160852
3930,0.02499525622
3931,0.045152843
3932,0.1051732227
3933,-0.1295194328
3934,-0.07939953357
3935,0.2435033172
3936,-0.2299981266
3937,-0.2835824192
3938,0.1117905006
3939,0.04225454107
3940,0.2586648762
3941,-0.1804789901
3942,0.01051025093
3943,-0.08201784641
3944,0.19981727
3945,0.1733326763
3946,0.03130786493
3947,-0.2375380099
3948,-0.1227461025
3949,0.04689668119
3950,0.300755769
3951,0.1168373078
3952,-0.03482526541
3953,0.1946658641
3954,-0.1798985749
3955,0.2369054705
3956,-0.1019962057
3957,-0.1422608346
3958,-0.0367458351
3959,0.2220565528
3960,0.2647713423
3961,-0.2521617115
3962,-0.05020526424
3963,-0.01003072225
3964,0.2296029478
3965,0.1805915385
3966,-0.01104895119
3967,-0.2695831358
3968,-0.1395546794
3969,0.0267911423
3970,0.01921818033
3971,0.256840378
3972,-0.1483608335
3973,-0.251327306
3974,0.2246170491
3975,-0.2633153796
3976,0.05572608858
3977,0.2727500498
3978,-0.2281208634
3979,0.05537729338
3980,-0.08595287055
3981,0.2347656935
3982,0.2181261033
3983,0.2757495642
3984,-0.2716375291
3985,-0.258928895
3986,0.2426028848
3987,0.02799240127
3988,-0.1205897927
3989,-0.1798778027
3990,-0.3000257313
3991,0.3006666005
3992,0.03734796122
3993,-0.2177222818
3994,0.06647161394
3995,0.3034446239
3996,-0.2734816968
3997,0.2463021129
3998,-0.01603216678
3999,-0.1861681789
4000,0.09654992819
4001,-0.2366887778
4002,0.187080428
4003,0.02585450932
4004,0.101146847
4005,-0.1834512502
4006,0.30308339
4007,-0.1742882282
4008,0.04838892072
4009,0.1125843078
4010,-0.2272088975
4011,-0.1163477153
4012,0.1769262403
4013,-0.08537470549
4014,0.2054802775
4015,-0.29668957
4016,0.1746279597
4017,0.2084668279
4018,-0.1202339903
4019,0.1309690028
4020,-0.1654519439
4021,0.05341076851
4022,-0.2992870212
4023,-0.143433094
4024,0.01534240227
4025,-0.2962418199
4026,0.1870669872
4027,0.008678626269
4028,-0.2775824964
4029,-0.04527727515
4030,0.2884601653
4031,-0.150473386
4032,0.1918345094
4033,-0.4898151755
4034,-0.0566187948
4035,-0.01118022855
4036,0.3198046088
4037,-0.2206258327
4038,-0.2688566446
4039,-0.2797682285
4040,-0.2958889604
4041,-0.03970490396
4042,-0.5743361115
4043,-0.5623317361
4044,-0.6845987439
4045,0.2496597022
4046,-0.8997184038
4047,-0.4290051162
4048,-1.370724201
4049,0.1491993517
4050,-0.009068761952
4051,-0.3632226884
4052,0.5473595858
4053,-0.02819846384
4054,-0.6107638478
4055,-0.411328882
4056,-0.01338283811
4057,0.109249413
4058,-0.07760267705
4059,0.5255234241
4060,-0.2864410877
4061,-0.9409660697
4062,-0.5807159543
4063,-0.2631609738
4064,-0.4155329466
4065,-0.8481637836
4066,-0.2433523089
4067,-0.2386904657
4068,-0.06124963239
4069,-0.1771462113
4070,-0.417339772
4071,-1.162047505
4072,-0.2928736508
4073,0.2605692148
4074,0.3201480806
4075,-0.4777285457
4076,0.105445981
4077,0.001200431376
4078,0.02000238746
4079,-0.6705110669
4080,-0.3002560735
4081,-0.4447795153
4082,-0.5249399543
4083,-0.7857075334
4084,-0.04227559268
4085,-0.1338318884
4086,-0.6141192317
4087,-0.3878348768
4088,-0.1046868488
4089,0.2211744338
4090,0.01023669261
4091,-0.2409394681
4092,0.3592457473
4093,-1.02431345
4094,-1.525021076
4095,-0.3510296345
4096,-0.2751219571
4097,-0.2066195309
4098,-0.1887381077
4099,0.1051667854
4100,-0.7172169089
4101,-0.01170248538
4102,-1.208946347
4103,-0.1310822368
4104,-0.3272117674
4105,0.0271922797
4106,0.02734156325
4107,0.3848027289
4108,-0.1301261485
4109,-0.4709242284
4110,-0.1305167526
4111,-0.4360686839
4112,-0.1838030517
4113,0.08988920599
4114,-0.0577413477
4115,-0.3829904795
4116,0.03598291799
4117,-0.1029548496
4118,0.2174012363
4119,0.1882687658
4120,-0.129438892
4121,-0.2320635617
4122,0.0360718593
4123,-0.2032959461
4124,0.1477376819
4125,-0.4345251918
4126,-0.4666644633
4127,0.1629363447
4128,0.09860777855
4129,-0.1207484975
4130,-0.3579041958
4131,-0.04918726534
4132,-0.6186982989
4133,0.006429370493
4134,-0.09949443489
4135,-0.2602770925
4136,0.235597685
4137,-0.3325243592
4138,0.1251592636
4139,0.1096394807
4140,-0.1302411258
4141,0.1005298346
4142,-0.1365272552
4143,-0.2030397207
4144,-0.08341351897
4145,-1.146607041
4146,0.06953170896
4147,-0.08476258814
4148,0.1426891387
4149,-0.06558323652
4150,0.1297448874
4151,0.2957111001
4152,0.3634251952
4153,0.02917766757
4154,0.07951573282
4155,0.2197358161
4156,-0.1460440159
4157,0.03709694743
4158,-0.4044925869
4159,0.3222160637
4160,-0.3252475262
4161,-0.3513074815
4162,-0.01328158472
4163,-0.2889131904
4164,-1.11267066
4165,0.217017591
4166,0.1186482906
4167,0.05451491103
4168,0.3343530297
4169,-0.2295440584
4170,0.2253472656
4171,-0.1548845172
4172,-0.1649192274
4173,-0.2619600892
4174,-0.4149854779
4175,-0.2253996432
4176,0.1067787111
4177,-0.9215589762
4178,0.3879743516
4179,0.5603219867
4180,-0.6372523904
4181,-0.8553945422
4182,0.1576409191
4183,-0.4902349412
4184,-0.1955332756
4185,0.04957027733
4186,-0.2050274312
4187,-0.3375117481
4188,0.06066131592
4189,0.2556432486
4190,-0.05433527008
4191,0.03420272097
4192,0.3809671104
4193,0.05337049067
4194,0.1482322812
4195,0.7283383608
4196,0.08368050307
4197,-0.1367523223
4198,0.7552342415
4199,-0.9464260936
4200,0.04468833283
4201,-3.395423889
4202,-0.7997011542
4203,0.3247627616
4204,-0.01754060574
4205,-0.2789368331
4206,0.1979243159
4207,-0.4832332134
4208,0.3508023024
4209,-0.8411736488
4210,-1.469417334
4211,-0.3862191141
4212,-0.1288001388
4213,-0.08357420564
4214,0.4696025252
4215,-0.6989374757
4216,-0.03086447529
4217,-0.5250890851
4218,-0.4734133482
4219,-0.9767172933
4220,0.6215641499
4221,0.3267352879
4222,0.2435343266
4223,-1.706245661
4224,0.2693447769
4225,-0.1457060277
4226,0.3132114708
4227,0.3241375387
4228,-0.4235081077
4229,0.2417381555
4230,0.06045031548
4231,0.05373381078
4232,-0.07045342028
4233,-0.0230990462
4234,-0.1506391913
4235,-0.1998161376
4236,-0.01734821498
4237,-0.1461257935
4238,-0.1298116595
4239,-0.6235690713
4240,-0.1000826508
4241,0.2443191111
4242,-0.1012291759
4243,0.2710052133
4244,0.142147854
4245,-0.0144628752
4246,-0.5497439504
4247,0.07711844891
4248,-0.54338938
4249,0.07968451083
4250,-0.08682951331
4251,-0.1383391321
4252,-0.3343841136
4253,0.2676168382
4254,0.1409167945
4255,0.08294901997
4256,-0.0162401367
4257,0.0820498839
4258,-0.03131850436
4259,0.2774217129
4260,0.01536672004
4261,-0.6198790669
4262,-0.1008710116
4263,-0.2281742543
4264,0.1287780106
4265,0.452041626
4266,-0.0249913577
4267,0.2514117062
4268,-0.4075402021
4269,-0.3257765472
4270,-0.138762176
4271,-0.1340542436
4272,-0.1577934772
4273,-0.07536844164
4274,0.1976560652
4275,-0.3238317072
4276,-0.284349978
4277,-0.03259809315
4278,-0.4566233158
4279,0.1021366194
4280,0.05090758577
4281,-0.3057672977
4282,0.1606777608
4283,0.06665959954
4284,0.3410966694
4285,0.09968396276
4286,0.004166272935
4287,-0.8453876376
4288,0.3289248645
4289,0.1473637819
4290,0.04758559167
4291,0.2654602528
4292,-0.03439150751
4293,-0.2434872836
4294,0.5542833209
4295,0.2461535335
4296,-0.4004467428
4297,0.2304883152
4298,-0.5961592197
4299,0.005222713575
4300,-0.7122735381
4301,-0.0660771057
4302,0.03040247969
4303,0.003964757081
4304,0.108656764
4305,-0.03490140289
4306,-0.2784980237
4307,0.07135526836
4308,-0.237096712
4309,0.4692267776
4310,0.3528551459
4311,0.2163503617
4312,-0.05744659528
4313,-0.3928929865
4314,-0.02466642112
4315,-0.0926156193
4316,0.164847061
4317,-0.06664396077
4318,-0.06187031418
4319,0.1475100219
4320,-1.495159268
4321,0.0759698227
4322,-0.01141416468
4323,-0.4131079018
4324,0.05673808604
4325,-0.03514140099
4326,0.3419859409
4327,0.1962611526
4328,0.2780421078
4329,0.4545302987
4330,-0.2687877417
4331,-0.04657671228
4332,0.2032220662
4333,0.3620602489
4334,0.3012749553
4335,0.1584541202
4336,0.1845853031
4337,-0.5394530892
4338,-0.7307487726
4339,-0.06021543965
4340,-0.2553153932
4341,0.08554503322
4342,0.03870112821
4343,-0.1837662458
4344,0.1368746012
4345,-0.05062383041
4346,0.2144296318
4347,0.04176326096
4348,0.441647619
4349,0.06365139037
4350,-0.1937106997
4351,-0.1529481411
4352,0.3129647672
4353,0.2504077852
4354,0.02714779973
4355,0.2565604746
4356,-0.5060477853
4357,0.1502282619
4358,0.2838318944
4359,0.5216642022
4360,-0.09457798302
4361,0.2831067741
4362,0.1640835404
4363,-0.003245050088
4364,0.3740430474
4365,0.001475112978
4366,0.06473888457
4367,-0.398073405
4368,-0.1139656231
4369,0.4532914162
4370,0.1375900805
4371,-0.5085865855
4372,-0.1377701163
4373,0.297431469
4374,0.5893728733
4375,0.2878502905
4376,-0.6145714521
4377,0.1301631182
4378,0.1841235459
4379,0.449533999
4380,-0.2078124285
4381,0.228937313
4382,-0.3766786456
4383,0.3050341904
4384,0.1205556765
4385,-0.06018871814
4386,-0.2586496472
4387,-0.2454592139
4388,0.1117142439
4389,-0.2431369722
4390,0.07692824304
4391,-0.09684984386
4392,0.2487158626
4393,-0.8147827387
4394,0.1584200859
4395,0.1376902014
4396,0.3063355982
4397,0.2673068643
4398,-0.5289277434
4399,0.05139474198
4400,0.1622130424
4401,-0.554140985
4402,-0.8156106472
4403,0.09237732738
4404,-0.2083542943
4405,-0.09074342251
4406,-0.07600111514
4407,-0.2335181832
4408,-0.09870512784
4409,-0.1186175272
4410,0.3837843239
4411,0.2073566318
4412,-0.01843643002
4413,-0.05743501335
4414,0.09921085089
4415,0.06436897069
4416,-0.3968225718
4417,-0.8048242927
4418,0.1278042495
4419,-0.1014578864
4420,-0.3262403309
4421,-0.05133419856
4422,-0.5093895197
4423,-0.1887367666
4424,-0.2297947556
4425,0.3018317819
4426,0.02121176943
4427,0.2261320204
4428,-0.385766387
4429,-0.2839201093
4430,-0.1543609351
4431,-1.627785683
4432,-0.4743788838
4433,0.2860097289
4434,0.0669510439
4435,0.02154728211
4436,-0.4037492871
4437,0.001769092632
4438,-0.1196155548
4439,-0.04001470283
4440,-1.599390388
4441,0.2984621525
4442,-0.3348870277
4443,-0.07243258506
4444,-0.01494806446
4445,-0.296195507
4446,-0.1115002632
4447,0.4922251403
4448,-0.4480445087
4449,-0.1396210045
4450,-0.3674559891
4451,-0.2984532714
4452,-0.2701534033
4453,-0.2157287747
4454,0.1388866305
4455,0.382691443
4456,-0.3531981111
4457,-0.09226856381
4458,-0.03060490452
4459,0.09193953872
4460,-0.1680384278
4461,-0.3340495825
4462,0.2187304497
4463,-0.3107855618
4464,0.3011083901
4465,0.3643610477
4466,-0.05701763555
4467,0.06257102638
4468,-0.05100337043
4469,-0.2492128909
4470,0.06307802349
4471,-0.2230860889
4472,0.4011201859
4473,-0.2178519517
4474,0.3579179049
4475,0.1962949485
4476,0.07595722377
4477,0.1672341973
4478,-0.8262847066
4479,-0.09461628646
4480,-0.141503498
4481,0.1870591938
4482,-0.4054969549
4483,-0.4189738929
4484,-0.4478046894
4485,-0.3712756336
4486,-0.2288229316
4487,0.2066586763
4488,0.01008981839
4489,0.5779486299
4490,-1.266347408
4491,0.06050336733
4492,0.1334445477
4493,-0.685321033
4494,-0.0126230754
4495,0.06293269247
4496,-0.5771485567
4497,0.2769716382
4498,0.521799922
4499,-0.9118738174
4500,0.06901870668
4501,0.08556677401
4502,-0.1113756672
4503,0.3215152919
4504,0.009118732996
4505,-0.4951111376
4506,-0.1876872033
4507,0.3761153817
4508,0.1362639368
4509,-0.05990981683
4510,0.5499378443
4511,0.2385586351
4512,-0.4460723102
4513,-0.5606427193
4514,0.02335609309
4515,-0.09342763573
4516,0.1501530409
4517,0.1738090068
4518,0.05401657522
4519,0.2491952926
4520,-0.08811686188
4521,-0.2057834417
4522,-0.3136568367
4523,-0.1559602022
4524,0.3521516323
4525,-0.3362077475
4526,0.07913884521
4527,-0.06269367784
4528,0.05976305157
4529,-0.3939127922
4530,0.4662763774
4531,0.07572457939
4532,-0.0985191986
4533,0.04111912102
4534,0.1946424246
4535,0.1505187601
4536,-0.5363775492
4537,-1.223925829
4538,0.2563402653
4539,0.3356927335
4540,-0.1955816746
4541,0.02811084501
4542,-0.007796775084
4543,0.20327425
4544,0.3953837454
4545,-0.2025337964
4546,-0.4786074758
4547,0.1140064746
4548,0.2487590462
4549,-0.3209925294
4550,0.1080111712
4551,-0.447402209
4552,0.4242188036
4553,-0.515429318
4554,-0.2655753195
4555,0.07402241975
4556,-0.3602566421
4557,0.2326926291
4558,-0.07059969753
4559,0.4049260616
4560,-0.1944464594
4561,-0.00347357546
4562,-0.6189033389
4563,0.2446641177
4564,-0.1377892643
4565,-0.2607975602
4566,-0.5464533567
4567,0.3197025359
4568,0.1183792129
4569,-0.3747723699
4570,0.2279165387
4571,-0.5879379511
4572,0.3831467032
4573,0.08287662268
4574,0.08515220881
4575,-0.2456791699
4576,-0.59921664
4577,-0.1574451029
4578,0.1577606648
4579,-0.4808095396
4580,0.2567970753
4581,0.02751598507
4582,0.4175037146
4583,-0.3117197156
4584,0.04767092317
4585,-0.0008006290882
4586,-0.5793347955
4587,-0.1878677905
4588,0.04709401354
4589,0.001863793819
4590,0.06252659857
4591,0.2306142151
4592,-0.7486588955
4593,0.2844834328
4594,-0.5939730406
4595,-0.003388640238
4596,-0.1831295192
4597,-0.1109473631
4598,-0.1426953077
4599,-0.6750924587
4600,-0.5482647419
4601,-0.1429208666
4602,0.2843615711
4603,0.08893137425
4604,0.4268630147
4605,-0.4361883998
4606,-0.4231281877
4607,-0.8328523636
4608,0.4597385824
4609,-0.7239412665
4610,-0.1704677641
4611,-0.1052816212
4612,0.1242587641
4613,0.07193588465
4614,-0.3030118048
4615,-0.04782631248
4616,0.693639636
4617,-0.9747512341
4618,-0.1213931069
4619,-0.592643857
4620,1.247037888
4621,-0.3398320973
4622,0.4468353391
4623,-0.9001514316
4624,-0.5346084237
4625,0.4632369876
4626,-0.4836778045
4627,0.1025946215
4628,-0.4036910236
4629,0.2674845755
4630,1.3495785
4631,-1.009750485
4632,-0.06083994359
4633,0.2667387128
4634,-0.2614066601
4635,1.162600994
4636,-0.5430952311
4637,-0.5968571305
4638,-0.06028226018
4639,-0.5472599864
4640,-1.13751471
4641,-0.02790240012
4642,-0.2185241878
4643,-0.1358243674
4644,0.2004352808
4645,-0.4274185002
4646,1.133344173
4647,-0.0491457656
4648,-0.1505323648
4649,0.6540264487
4650,-0.004635732155
4651,-0.3797543645
4652,-1.124199867
4653,-0.1569710523
4654,-0.6971952915
4655,-0.5641538501
4656,-0.3461830318
4657,-0.6557936072
4658,-0.160526678
4659,-0.2177437097
4660,0.1125729755
4661,0.03841036931
4662,-0.47344473
4663,-0.2871098816
4664,0.3896990716
4665,0.9927889705
4666,-1.041834116
4667,0.1748474687
4668,0.2536112964
4669,-0.5005062819
4670,-0.1342684329
4671,0.3188635707
4672,0.1043205708
4673,0.0869840607
4674,0.01697178185
4675,0.4464200735
4676,-0.3689041734
4677,-0.3989909589
4678,-0.6591544747
4679,0.01575097814
4680,-0.2384558618
4681,-0.4066029787
4682,-0.2725844383
4683,0.08861875534
4684,-0.6070845723
4685,-0.6519570947
4686,-0.8478569388
4687,0.4224804342
4688,1.383326173
4689,-0.1704572439
4690,0.6052556038
4691,0.6084102988
4692,-0.4791837633
4693,-0.004288504831
4694,0.8974018097
4695,-0.6553313732
4696,-0.1996780485
4697,0.4578307569
4698,0.1551742405
4699,-0.9656686187
4700,-0.3129923344
4701,-0.5857467055
4702,0.5583376884
4703,-0.251686126
4704,0.6615672112
4705,0.6047187448
4706,-0.1061770171
4707,-0.1060927138
4708,-0.3993072808
4709,-0.2056020945
4710,-1.652267337
4711,-0.6306843758
4712,0.2926323712
4713,0.2818925977
4714,0.2066166252
4715,-0.1209940612
4716,0.6216467619
4717,-0.1231769696
4718,-0.9507681727
4719,0.2648623884
4720,-0.05438025296
4721,0.1267589331
4722,-0.5964539647
4723,0.7390864491
4724,-0.09854587168
4725,0.201462552
4726,0.910621345
4727,-0.1643195748
4728,-0.1523203403
4729,0.5057421327
4730,-0.3229103386
4731,0.04002541304
4732,-1.544699192
4733,0.9732561707
4734,0.5981385112
4735,-0.01088355109
4736,-0.1949076951
4737,0.6389577985
4738,-0.5212513208
4739,0.6700950861
4740,-0.04067156091
4741,-0.200005725
4742,-0.6536479592
4743,0.2119209766
4744,0.2577461004
4745,0.1588373482
4746,-0.6276901364
4747,-0.2163514197
4748,0.148945421
4749,0.01759847254
4750,0.01525847148
4751,-0.2075718194
4752,0.6595775485
4753,-0.01388917398
4754,-0.096917741
4755,0.3501178622
4756,0.01261200011
4757,-0.1181676909
4758,0.06054718792
4759,-0.5118526816
4760,-0.179991141
4761,0.2056714147
4762,0.2214630693
4763,0.5461753011
4764,0.04879128188
4765,-0.07015862316
4766,0.06015735492
4767,-0.1598761529
4768,-0.09983230382
4769,-0.1469044387
4770,0.08708465844
4771,0.08766573668
4772,-0.1244352013
4773,-0.3974449039
4774,-0.4201292992
4775,0.2925777137
4776,0.4262357056
4777,-0.702829957
4778,-0.4722527862
4779,-0.520888567
4780,-0.1336097717
4781,0.1172058135
4782,0.1003305763
4783,0.1808957011
4784,-0.1463174373
4785,-0.2951302826
4786,-0.8467525244
4787,0.2378897071
4788,-0.1140067801
4789,-0.005729597062
4790,0.5768480301
4791,-0.4953255653
4792,-0.3088007271
4793,-0.5755364895
4794,-0.9954046011
4795,-0.0744696483
4796,-0.6490824819
4797,0.2816184759
4798,-0.04358376563
4799,-0.6373156309
4800,0.1393105388
4801,-0.2211340219
4802,0.4251961112
4803,-0.7327442765
4804,0.4536522329
4805,-0.1090778336
4806,0.2017489821
4807,-1.277471542
4808,0.3122876287
4809,-0.06178989261
4810,0.5067858696
4811,0.326125443
4812,-0.4953009486
4813,1.008110523
4814,0.6598064899
4815,-0.6209552884
4816,-0.7386099696
4817,0.04618345946
4818,-0.1560915112
4819,-1.422178388
4820,0.3099223077
4821,-0.5447360873
4822,0.09122308344
4823,-0.1832514256
4824,-0.718439281
4825,-0.01692145132
4826,-0.2238843292
4827,0.4699921608
4828,-0.2244801074
4829,-0.7695180774
4830,0.006126512773
4831,-0.9273212552
4832,0.07619733363
4833,-0.4714737236
4834,0.3846284747
4835,0.150887087
4836,-0.7864103317
4837,-0.7571247816
4838,0.3018112779
4839,-0.05491168797
4840,0.01020407211
4841,-0.6386073828
4842,-0.6355394721
4843,0.3981663287
4844,-0.4652616084
4845,0.01760133542
4846,-0.3699943125
4847,-0.307068646
4848,-0.3688600957
4849,-0.1269628257
4850,-0.1815057844
4851,-0.02039405704
4852,0.08171340823
4853,-0.140531674
4854,-0.5913082361
4855,-0.2051990032
4856,0.1713510752
4857,0.1908570528
4858,-0.6396318078
4859,-0.623726368
4860,0.2070764005
4861,-0.7216097713
4862,-0.8901869655
4863,0.1929457188
4864,0.03302375972
4865,-0.07673804462
4866,-0.343860954
4867,0.05813890323
4868,0.009011627175
4869,-0.1638859212
4870,-0.1334878951
4871,-0.4820954204
4872,-0.1546966881
4873,0.287666887
4874,-0.6722538471
4875,0.3399675786
4876,-0.7113929391
4877,-0.2369678319
4878,-0.2200133204
4879,-0.167859152
4880,-0.2243613005
4881,-0.04719625041
4882,-0.6484788656
4883,-0.05362457037
4884,0.07119807601
4885,-0.1481281966
4886,0.1953898966
4887,-0.1859180033
4888,-0.4286895692
4889,0.05441030487
4890,-0.3415812552
4891,-0.268468976
4892,0.1896478385
4893,-0.3154498935
4894,0.03957078978
4895,-0.21489802
4896,-1.246917963
4897,-1.036271453
4898,-0.013925815
4899,0.4306793809
4900,0.05765086412
4901,-0.4854979217
4902,-0.470040977
4903,0.008313136175
4904,-0.1127746254
4905,0.5749793053
4906,-0.1835753918
4907,0.313205719
4908,-0.4906180799
4909,-0.1267571002
4910,-0.4972746968
4911,-0.3760333955
4912,-0.4764025211
4913,-0.5937841535
4914,-1.139680624
4915,0.4553979933
4916,0.08518628031
4917,0.08211003989
4918,-0.5074595213
4919,-0.2095600069
4920,0.2869081795
4921,0.2339901328
4922,0.04013597965
4923,-0.2452649772
4924,0.3320928812
4925,-0.808989346
4926,-0.439953059
4927,0.1414456964
4928,-0.4661506712
4929,0.04785962403
4930,-0.1945024133
4931,0.08940208703
4932,-0.8163304329
4933,-0.4029460847
4934,-0.1508057863
4935,-0.5974605083
4936,0.5604355335
4937,0.02517207712
4938,-0.1294602603
4939,-0.3994353712
4940,0.3254576325
4941,-0.2071836591
4942,0.200528875
4943,1.897604346
4944,-0.4130796492
4945,0.2616970241
4946,-0.0731292218
4947,0.04382240027
4948,0.2645663619
4949,0.07028029859
4950,1.529062748
4951,-0.9878124595
4952,-0.002815589542
4953,0.2308745682
4954,0.1611734182
4955,-0.06897646934
4956,-1.143044949
4957,0.7577957511
4958,-0.5119605064
4959,-0.2154046744
4960,-0.0676144287
4961,-0.04144429788
4962,0.2085538507
4963,0.004441197962
4964,-0.09813165665
4965,-0.2171785831
4966,-0.03714481741
4967,-0.175784573
4968,-0.1739564985
4969,0.4499394298
4970,0.008177065291
4971,-0.4191328883
4972,0.01557830814
4973,0.03167243674
4974,0.03382553533
4975,0.4752745032
4976,-0.07003257424
4977,-0.2683138251
4978,-0.5930207372
4979,-0.02238436043
4980,-0.1100816056
4981,-0.0157451015
4982,-0.09365024418
4983,-0.8423320651
4984,-0.6416729689
4985,0.06389214844
4986,-1.232587218
4987,-0.299066335
4988,-0.791128993
4989,0.0700224936
4990,-0.3396416008
4991,0.4675481021
4992,-0.5823958516
4993,-0.863722086
4994,0.1724931598
4995,-0.1579675972
4996,-0.2451264411
4997,-0.0876487121
4998,0.3911769092
4999,-0.01077655982
5000,-0.2010014504
5001,0.05985498056
5002,-0.4209332764
5003,0.2956213951
5004,0.6482464075
5005,0.03347406909
5006,0.3556174338
5007,-0.9047784805
5008,-0.3765600026
5009,0.1583230197
5010,-0.1298857778
5011,-0.03158613667
5012,0.04594387859
5013,-0.06501090527
5014,0.1373561174
5015,-0.5572530627
5016,-0.7362444401
5017,-0.2199988514
5018,-0.06518634409
5019,0.5074483156
5020,0.09297905117
5021,-0.6082035899
5022,0.04037354514
5023,0.01799032278
5024,-0.9977847338
5025,-0.1602637619
5026,0.001076700748
5027,-1.322140813
5028,-0.2459898889
5029,0.2631452978
5030,-0.1631734073
5031,-0.05570918322
5032,-0.3144682944
5033,0.3050638139
5034,-0.07541532069
5035,0.2272965759
5036,-0.8725158572
5037,-0.05732223019
5038,-0.322976023
5039,-0.1339504421
5040,-0.5410423279
5041,0.4224909842
5042,-0.5232836008
5043,0.152885288
5044,0.05975883827
5045,-0.1434345394
5046,0.2068897337
5047,0.5539139509
5048,0.01720131375
5049,-0.0494662188
5050,-1.742843747
5051,-0.04841636121
5052,-0.9121152759
5053,0.1063736826
5054,-1.309176803
5055,-0.1893164963
5056,-0.1323628277
5057,-0.02721608244
5058,-0.2152479142
5059,0.2782479227
5060,0.005019608419
5061,-0.2412554622
5062,-0.3901915848
5063,-0.1262076944
5064,-0.6662550569
5065,0.08048863709
5066,-0.7704999447
5067,-0.09245844185
5068,0.01661255397
5069,0.05898795649
5070,-0.4885743856
5071,-0.9381816983
5072,0.04239657149
5073,-0.1454828829
5074,-0.0116966404
5075,0.1151547059
5076,-0.1876764446
5077,-0.08949545026
5078,-0.06799795479
5079,-0.5167614818
5080,0.4953070879
5081,-0.09037923813
5082,-0.1808891147
5083,0.2228774279
5084,0.1844218671
5085,-0.819099009
5086,-0.3755920827
5087,0.05034800246
5088,-1.124256015
5089,-0.345980674
5090,-0.2778332531
5091,-0.7193983197
5092,-0.04855081439
5093,-0.09176502377
5094,-0.2732252777
5095,0.1162786409
5096,-0.2173258215
5097,-0.07961175591
5098,0.5115312934
5099,-0.00814410951
5100,0.4095241725
5101,0.00639913464
5102,-0.09574116021
5103,0.5020886064
5104,0.1670698822
5105,0.162201032
5106,0.1207279339
5107,0.1385803074
5108,-0.2295380384
5109,0.1604819894
5110,0.4190257788
5111,0.1543128341
5112,-0.03466140851
5113,-0.6072283387
5114,-0.01730659418
5115,0.4299061298
5116,-0.02936234884
5117,0.06535078585
5118,-0.1601659358
5119,-0.1792551726
5120,0.01183422003
5121,-0.5647497773
5122,0.2265541703
5123,-0.4119048119
5124,-0.01524441969
5125,-0.3734593093
5126,0.0173025392
5127,0.1374751031
5128,-0.3338619471
5129,-0.1894175708
5130,-0.4536707997
5131,0.03767648712
5132,-0.03098679893
5133,0.3462226689
5134,-0.01379869319
5135,-0.4390870333
5136,-0.4927477837
5137,-0.06092455238
5138,0.1254882365
5139,0.1046232879
5140,-0.1746344417
5141,-0.4958754182
5142,0.0435475409
5143,-0.08051625639
5144,-0.1921505034
5145,-0.06156945229
5146,-0.1416523904
5147,0.04211666062
5148,-0.1895082593
5149,-0.1762665063
5150,-0.1116972938
5151,0.2077752352
5152,-0.4136440754
5153,-0.1428302675
5154,0.1986258626
5155,-0.3118571639
5156,-0.343049556
5157,-0.1795995533
5158,0.3688178062
5159,-0.04022917897
5160,-0.4766671658
5161,0.09694517404
5162,-0.784158051
5163,0.1619299948
5164,0.0295732189
5165,-0.5217425823
5166,0.3581623733
5167,-1.01199615
5168,-0.6460808516
5169,-0.1076267958
5170,-0.2610410154
5171,0.2314340472
5172,-0.02851561271
5173,-0.04149256274
5174,-0.274451524
5175,0.2687700391
5176,-0.3603546023
5177,-0.2084874064
5178,-0.3098805547
5179,-0.08683820814
5180,-0.2103935331
5181,-0.2427452207
5182,-0.3278000057
5183,-0.1475444585
5184,0.1398119628
5185,0.3823666573
5186,-0.03700941429
5187,0.1114517599
5188,-0.1264748126
5189,-0.08592131734
5190,-0.500225842
5191,0.5560398102
5192,0.04055684432
5193,-0.3624702394
5194,0.088712506
5195,-0.1724730432
5196,0.2471307069
5197,-0.4881010056
5198,0.2855261564
5199,-0.6604568958
5200,0.0233245194
5201,0.1933146268
5202,0.0105850948
5203,0.3384817243
5204,0.2336724252
5205,0.117795974
5206,-0.343685925
5207,-0.02808566205
5208,-0.5362562537
5209,0.004427301697
5210,0.07475347817
5211,-0.005197564606
5212,0.1510392874
5213,-0.6365251541
5214,-0.6443302035
5215,0.1061249599
5216,-0.262512356
5217,-0.3944607079
5218,-0.1901813895
5219,0.174127847
5220,-0.178372547
5221,0.1023790389
5222,-0.43974787
5223,-0.3060536683
5224,-0.381904453
5225,-0.4344780743
5226,0.265887171
5227,0.1400723606
5228,0.2367140949
5229,-0.1651090086
5230,-0.3995384872
5231,-0.0951898694
5232,0.3064486682
5233,0.4999735951
5234,-0.4660161436
5235,0.1910816282
5236,-0.2567113042
5237,-0.01634696685
5238,0.2774205506
5239,-0.0795571208
5240,-0.4020097554
5241,-0.2947292924
5242,-0.01903170906
5243,0.1342566758
5244,0.1571869701
5245,-0.124272652
5246,0.1730686128
5247,0.2177821547
5248,0.04995587096
5249,-0.7506148815
5250,-0.4009696245
5251,-0.2012851834
5252,0.06113130599
5253,-0.1146794707
5254,-0.6723713279
5255,0.4469304979
5256,-1.217559814
5257,-0.5473551154
5258,-0.3090509474
5259,0.1367024779
5260,-1.06742239
5261,0.1847331673
5262,-0.6273809671
5263,-0.6637688875
5264,-0.07414382696
5265,-0.3238603473
5266,-0.5956895947
5267,0.06837010384
5268,0.02661962248
5269,0.1740463823
5270,-0.6698081493
5271,-0.2323107272
5272,0.2275753915
5273,0.303817451
5274,0.2069116682
5275,-0.829762876
5276,0.5631241798
5277,-0.4319831729
5278,0.5103800893
5279,0.1066133901
5280,-0.459846586
5281,-0.2497647256
5282,-0.6122455001
5283,0.1289841682
5284,-0.2463977933
5285,-0.08380725235
5286,0.2711742818
5287,0.2983216047
5288,-0.09306300431
5289,-1.830567241
5290,0.3882071376
5291,0.2455174774
5292,-0.4179728627
5293,0.2944571376
5294,-0.4099802375
5295,0.07208778709
5296,0.1139043719
5297,-0.3401597142
5298,0.03917320445
5299,0.7019733191
5300,-0.1864828765
5301,-0.002174351364
5302,0.4880342484
5303,-0.1163645163
5304,0.3213791251
5305,0.4292096496
5306,-0.07429371774
5307,0.3192338645
5308,-0.01499535609
5309,-1.008912683
5310,0.1659496278
5311,0.1250826865
5312,-0.8412684798
5313,0.1399288625
5314,0.2519355118
5315,0.2170463353
5316,-0.503493011
5317,-0.2964970171
5318,-0.1398219615
5319,-0.4850953817
5320,-0.02560871281
5321,-0.1638155431
5322,-0.317212671
5323,0.2764091194
5324,0.3193013668
5325,0.2299257368
5326,0.1289766729
5327,-0.09544672817
5328,0.1960157007
5329,0.03391109407
5330,0.1896801889
5331,0.319650948
5332,-1.12649107
5333,0.1446444243
5334,0.2410770059
5335,-0.1567832381
5336,-0.6049113274
5337,0.1632954925
5338,0.06051239371
5339,-0.5659573674
5340,-0.02465854213
5341,-0.5632407069
5342,-0.4448024631
5343,-0.468182981
5344,0.05853689089
5345,0.3562113345
5346,-0.3125164211
5347,-0.1382934153
5348,0.01198221929
5349,0.1400215626
5350,-0.1984339952
5351,-0.09133797884
5352,0.1266714185
5353,-0.6775372028
5354,0.07929741591
5355,0.3596890271
5356,0.3325046897
5357,-0.4092059731
5358,-0.02675356902
5359,0.215432182
5360,-0.3436831534
5361,-0.4856652915
5362,0.2036518902
5363,0.2808618248
5364,-0.2811219692
5365,0.1875529736
5366,0.1388080716
5367,-0.3104480505
5368,-0.5422920585
5369,-1.783022046
5370,-0.175933212
5371,-0.3076397777
5372,0.3739840984
5373,0.1452852786
5374,0.3386813104
5375,-0.183910504
5376,-0.5208534002
5377,-1.317006469
5378,0.2760270834
5379,-0.08211927116
5380,-0.3300624192
5381,0.4151620269
5382,-0.01283583324
5383,-0.1765926331
5384,-0.3842164576
5385,0.183661148
5386,-0.887697041
5387,0.5533870459
5388,-0.2803552449
5389,-0.1558793038
5390,-0.1456097513
5391,-0.04751094058
5392,0.4791075289
5393,0.0496394597
5394,-0.1415688246
5395,-0.5089479685
5396,-0.8132106662
5397,0.08867680281
5398,-0.3649521172
5399,-0.1499764472
5400,0.01395963598
5401,0.07477166504
5402,-0.1298890859
5403,-1.863945842
5404,0.3485409617
5405,-0.4780296385
5406,0.3823274076
5407,-0.3469741642
5408,-1.442839265
5409,0.1471558809
5410,0.1199941486
5411,0.4790997207
5412,-0.6289198399
5413,-0.4121071994
5414,-0.1088551879
5415,0.153216958
5416,0.1256561428
5417,0.2253779173
5418,0.1909819543
5419,0.05048147589
5420,0.2958563864
5421,-0.22038728
5422,-0.1013430804
5423,0.3007511497
5424,0.2016710341
5425,0.3828538656
5426,-0.6817427278
5427,0.8126385808
5428,-0.09909143299
5429,-0.172311902
5430,0.4977962673
5431,0.1214823648
5432,-0.3304291964
5433,0.714371562
5434,-0.482845515
5435,0.3102209568
5436,-0.06382188946
5437,0.2440810949
5438,-0.09072378278
5439,0.6331669092
5440,0.009621828794
5441,-0.1513337642
5442,-0.1069107428
5443,0.1903956681
5444,-0.1705845743
