idx,weight
0,0.2999185622
1,0.1238418967
2,-0.5522401333
3,-0.1437863111
4,-0.6239824891
5,-0.1497014165
6,-0.5640774369
7,0.6629710197
8,0.06761881709
9,-0.1272880286
10,-0.0433938019
11,-0.07864578813
12,-0.3523654342
13,-0.09135197103
14,-0.2595690489
15,0.2640660703
16,0.4259493947
17,-0.5422216654
18,-0.3378257453
19,0.3642573953
20,0.5653254986
21,-0.2204670161
22,-0.06468106806
23,-0.544195056
24,-0.1396787018
25,-0.1243044883
26,-0.04170927405
27,0.2066427916
28,0.7653806806
29,0.1254604906
30,0.1619955301
31,0.1181852967
32,-0.2432139218
33,0.2861799896
34,0.0985481143
35,-0.2729454935
36,-0.255940944
37,-0.04042946547
38,0.6277300119
39,0.2218726724
40,-0.03051659092
41,-0.2370919734
42,-0.3210131526
43,0.2319357395
44,0.110442102
45,-0.2652914226
46,-0.429187417
47,0.4041416049
48,0.02206541598
49,-0.01252975222
50,-0.04234039411
51,0.2032588571
52,0.06991358101
53,0.7974866629
54,0.2600497305
55,-0.06645647436
56,-0.9452090263
57,-0.5228565335
58,0.1560636163
59,-0.1364475936
60,-0.6004819274
61,-0.1049400568
62,0.1774652302
63,0.4873351753
64,0.3414064944
65,-0.9979614615
66,-0.5423054099
67,0.2922461629
68,-0.9564886689
69,0.2923918962
70,-0.2063516676
71,0.1983785927
72,0.7362074852
73,0.2036626339
74,0.2525891364
75,0.3827281892
76,-0.6766866446
77,-0.0158397723
78,-0.1756686568
79,0.4716869891
80,0.2752922773
81,0.1547535658
82,0.2846114039
83,0.2697081566
84,-0.3497275412
85,-0.1056677848
86,-0.3483496606
87,-1.363764167
88,-0.3720988929
89,-0.01327885408
90,0.5930928588
91,0.2812799811
92,-0.01418336295
93,0.3009980917
94,-0.5128866434
95,0.2295559198
96,0.1021010727
97,-0.1425911337
98,0.3399651945
99,-0.6656585932
100,-0.1037944704
101,-0.4056384265
102,0.3290979266
103,-1.174552083
104,-0.3103046417
105,-0.648543179
106,-1.314300299
107,0.006392277777
108,-0.940286994
109,-0.3338962197
110,0.1658643335
111,-0.1402336061
112,0.2920269668
113,0.4055663943
114,-0.242825225
115,0.505425036
116,-0.8557216525
117,-0.03667959198
118,0.02175268717
119,0.4353862405
120,-0.7329859138
121,0.7687761188
122,0.02062479593
123,-0.2188483775
124,-0.2654545009
125,0.3658650219
126,0.5192822814
127,-1.165045738
128,0.4763837159
129,-0.05376879498
130,-0.7025387287
131,0.6831052303
132,0.10196428
133,-0.3391583562
134,0.3388212025
135,-0.501109004
136,-0.5354040265
137,0.4779615402
138,0.1545373648
139,0.4927272201
140,0.6287807822
141,0.4710178077
142,-0.3101961613
143,0.3056992888
144,0.4550579786
145,-0.3584467769
146,-0.3588196635
147,0.6627885103
148,0.4988769889
149,-0.3442734778
150,-0.2241352946
151,-0.2724915147
152,-0.1723902225
153,0.6313027143
154,0.01872465946
155,-0.609697938
156,-0.2092939913
157,0.6181324124
158,0.6521503925
159,-0.5957998037
160,-0.2010881007
161,-0.2541274726
162,0.4345038235
163,-0.09832672775
164,-0.7844472528
165,-0.4938987195
166,-0.3688863814
167,0.361125052
168,0.1475626379
169,-0.2672458589
170,-0.1507599801
171,0.7694813013
172,-0.1719983816
173,0.1697207391
174,-0.2054304332
175,0.3930991292
176,-0.4157189727
177,0.2089585364
178,-0.1979985833
179,-0.3133809268
180,-0.4022245109
181,-0.2632457912
182,-0.6132914424
183,0.1014755592
184,-0.08770123124
185,-0.02146827057
186,-0.1593623161
187,-0.006545209792
188,-0.05441255867
189,0.03464906663
190,-0.2357328236
191,-0.3925075829
192,0.1310344189
193,0.1824051887
194,0.4363233447
195,-0.05905050784
196,0.03300874308
197,-0.308480233
198,0.2646802068
199,0.3463392556
200,0.2793592811
201,0.6441549063
202,-0.03126419336
203,-0.4282110631
204,0.1136715338
205,0.0474913232
206,-0.4365173876
207,-1.556027651
208,-0.06695125997
209,0.6747777462
210,-0.005178086925
211,-0.4872960746
212,-0.1569052637
213,0.1125732958
214,-0.1252761185
215,-0.01442726981
216,0.1300416589
217,0.008850697428
218,0.3288602531
219,0.08878623694
220,-0.6316024065
221,-0.09325589985
222,-0.1030465737
223,0.7967771292
224,-0.7434976697
225,0.1890054494
226,-0.6875657439
227,0.247763887
228,0.3147963285
229,0.08427969366
230,0.12056043
231,0.03547782078
232,-0.4062238336
233,0.1577295512
234,0.7102589011
235,-0.6613155007
236,-0.184450388
237,-0.0775725916
238,-0.247594133
239,-0.2266715914
240,-0.3954551816
241,-0.1792702079
242,0.2275304943
243,-0.5423308015
244,0.1747712791
245,0.02969010361
246,-0.1070291102
247,-0.5776202679
248,0.1177884862
249,0.1492979079
250,0.1834615618
251,-0.2041452378
252,0.2901854515
253,-0.08325138688
254,-0.2571289539
255,-0.3213654757
256,0.2125134021
257,0.2919958532
258,0.384829551
259,-0.4990260601
260,0.4525016844
261,-0.2829245925
262,0.3822092414
263,-0.05464792624
264,-0.7252704501
265,-0.6106407046
266,0.1370758265
267,-0.3998756409
268,0.1099594235
269,0.6621391773
270,-0.2380699813
271,-0.3777280152
272,-0.246746242
273,0.2753575146
274,-0.7895228863
275,-0.2221754342
276,0.7613551021
277,-0.3488974571
278,-0.3640939891
279,-0.5222908258
280,0.01543603092
281,-0.8521570563
282,-0.05034985021
283,0.4664932787
284,-0.6394919753
285,0.2571139038
286,1.24006176
287,0.6224476099
288,0.8386158943
289,-0.03112522699
290,-1.215187073
291,-0.395129472
292,-0.02784682624
293,-0.1640573144
294,-0.8321965337
295,0.4841916859
296,0.2466307282
297,-0.9967591763
298,0.3010352254
299,-0.4991544187
300,0.5042803884
301,0.194662109
302,0.4501357973
303,-0.1685016602
304,-0.06300120056
305,-0.3670160174
306,-0.9404764175
307,0.3267653883
308,0.4718590975
309,-0.2629038393
310,-0.1318511814
311,-0.5814132094
312,0.06656316668
313,0.06376376003
314,0.2206475735
315,0.5604863167
316,0.1652412415
317,-0.3639885783
318,-0.32340312
319,-0.1690768152
320,-0.6513175368
321,0.2794600725
322,0.08441076428
323,-0.5923358202
324,-0.02679988742
325,0.06815570593
326,-0.06978352368
327,-0.2078128308
328,0.1053396165
329,-0.09987650067
330,0.09377262741
331,0.4297864735
332,0.7364750504
333,-0.162286669
334,0.11797297
335,-0.3637943268
336,-0.3907380104
337,-0.08440997452
338,0.01073349081
339,0.2325041145
340,0.6597016454
341,-0.2690321505
342,-0.0463398546
343,0.4882331491
344,0.2243015021
345,0.04306067526
346,-0.3188601434
347,-0.28580001
348,0.279389292
349,-0.0654412955
350,0.2826219201
351,0.09064013511
352,0.3383574784
353,-0.7848888636
354,-0.1536134928
355,0.04267641902
356,0.04476158321
357,-0.2830958366
358,-1.17117095
359,-0.07471770793
360,0.2634798586
361,-0.02902843244
362,0.4822897315
363,-0.5629577041
364,0.3754356802
365,0.00565502001
366,0.3126300573
367,-0.5981683135
368,0.005862415303
369,-0.553032577
370,-0.33123824
371,0.1397470087
372,-0.2518717647
373,-0.2935218215
374,-0.1697548777
375,0.5215408206
376,-1.989943624
377,-0.2246690243
378,-0.05958156288
379,-0.1212683171
380,-0.2070830911
381,-0.3004740477
382,-0.5280575156
383,0.3679457307
384,0.359692663
385,-0.05689310655
386,-0.1320672184
387,0.3775159121
388,0.5221703053
389,0.01729180291
390,0.06413733214
391,0.1041941792
392,0.008950693533
393,0.1670650542
394,-0.2016464621
395,0.6227143407
396,0.08145302534
397,-0.379355222
398,0.1946982145
399,-0.132074073
400,-1.221795082
401,-0.4464786053
402,0.1884780228
403,-0.3277355433
404,0.02867749892
405,0.373213172
406,-0.1087239981
407,-0.2988485992
408,-0.3697867393
409,-6.225376606
410,-0.362996459
411,0.2054137886
412,0.1220587716
413,-0.04391076788
414,0.09962198138
415,0.3022803962
416,0.4891569018
417,-0.903809309
418,-0.0495692417
419,0.2539510429
420,-0.1848415881
421,-0.4049166143
422,-1.303299189
423,0.39305529
424,0.4099363685
425,-0.1557670534
426,0.1695749313
427,-0.08514130116
428,0.2546935976
429,0.1391327232
430,0.2426791042
431,0.6322648525
432,0.1139330789
433,-0.1676512063
434,-0.5218595862
435,0.2530537248
436,0.346914053
437,-0.1292577237
438,-0.1695787609
439,-0.1635774225
440,0.4177011251
441,-1.155078173
442,-0.3995384276
443,-0.7195594907
444,0.05526602641
445,0.07335858047
446,0.3230276108
447,0.160084039
448,-0.603222549
449,-0.2198165208
450,0.4418698847
451,-0.6260567904
452,-0.5583933592
453,0.1371392608
454,-1.089331388
455,-0.7900309563
456,0.5131816268
457,0.5378969908
458,-0.3275610805
459,0.2199852318
460,-0.08131435513
461,-1.186798453
462,0.3720327914
463,0.1128042713
464,0.6116559505
465,0.0157812424
466,-0.4452174008
467,-0.3452831507
468,0.04454053193
469,0.1143147945
470,0.2316803932
471,0.3963761628
472,0.09898058325
473,0.6072793007
474,0.4101438522
475,0.05483524501
476,-0.2742899656
477,-0.02739583887
478,0.3379156888
479,-0.2867351472
480,-0.2340953201
481,0.1509737223
482,-0.7739249468
483,0.2059736103
484,0.6609883308
485,-1.337294817
486,-0.05328732356
487,0.0506522432
488,-0.3236714005
489,-0.3529007733
490,0.03630498797
491,-0.00406912202
492,0.04697130993
493,-0.04516223818
494,0.2676620483
495,0.7792598009
496,-0.2312677652
497,-0.09126204997
498,0.1644067615
499,0.2292149067
500,1.268079162
501,-0.102472879
502,-0.611140728
503,0.07833759487
504,0.8784982562
505,0.7700789571
506,0.1591799408
507,-0.5640955567
508,-0.7635346055
509,-0.3151195645
510,0.7045907378
511,0.6991440654
512,0.34518525
513,-0.01623783633
514,-0.561100781
515,0.03834153339
516,0.05573546141
517,-0.2746182084
518,0.1915407777
519,0.1887060106
520,0.2641260624
521,-0.09072962403
522,-0.1721155196
523,0.4467482269
524,0.1697795391
525,-0.06250358373
526,0.3622632921
527,0.3755597174
528,0.2077035159
529,-0.4732985198
530,-0.2306407094
531,0.38917768
532,0.1164193973
533,-0.06662700325
534,-0.3831607699
535,0.1398011595
536,0.3430959284
537,-0.6389990449
538,0.1420640349
539,-0.05670718476
540,-0.3730973601
541,-0.2860440016
542,-0.4244289994
543,0.2265622169
544,0.07510112226
545,-0.2250862569
546,-0.1095522568
547,0.09731592983
548,0.1162621453
549,0.03689401597
550,0.3453946114
551,0.373817116
552,0.2570382059
553,0.3140090108
554,0.257935971
555,0.3039697707
556,-0.239429161
557,0.3486127257
558,0.1657693684
559,-0.1761535555
560,-0.1163245514
561,0.04880322143
562,0.2026690096
563,-0.06703668088
564,-0.1579494923
565,-0.1854235679
566,0.1696680188
567,-0.162126869
568,-0.1950144172
569,-0.2429764569
570,0.01655898429
571,-0.5436182022
572,0.4631819129
573,0.3005708456
574,-0.4260135591
575,-0.1427654922
576,0.8076289892
577,-0.09403657168
578,-0.03613802791
579,0.2426244617
580,0.859541297
581,-0.04754821584
582,-0.6009994745
583,-0.4045509398
584,1.358021379
585,0.7653008103
586,-0.03538360819
587,-0.5375868082
588,-0.2621486187
589,-0.7859122157
590,0.2182534337
591,-1.005261064
592,-0.004274166189
593,1.337122679
594,-0.4187855721
595,-0.03207687661
596,-0.3328289986
597,-0.2516773939
598,0.2629929781
599,-0.4001541138
600,-0.5817778111
601,0.3880772293
602,0.8339700699
603,-0.2432814837
604,-1.043796301
605,0.008050034754
606,-0.6015225053
607,-0.00424748566
608,-0.4512867332
609,1.024963617
610,0.2667891681
611,-0.5076548457
612,0.6226892471
613,-0.3693742752
614,0.4572640061
615,-0.4197017848
616,0.7006541491
617,0.1097334996
618,0.6547829509
619,0.524761796
620,0.1283100694
621,-0.06576112658
622,-0.1080003083
623,0.004786885809
624,-0.5634599924
625,0.5574738383
626,-0.8673865795
627,-0.2129730135
628,0.7819087505
629,0.08703963459
630,-0.355915606
631,0.06227917224
632,-0.3640902042
633,0.4545013607
634,0.5044882894
635,0.6577172875
636,-0.8984869123
637,-0.2067340314
638,0.322588563
639,-0.3261500895
640,0.9910681248
641,0.4454102814
642,-0.7951300144
643,-0.04346952215
644,0.6243784428
645,0.2465178818
646,-0.2170197964
647,-0.3159835637
648,1.201883435
649,0.9515467286
650,-0.3090403676
651,-0.5412662029
652,0.01309951302
653,-0.1406276673
654,-0.2837676704
655,-0.7414488196
656,-0.7373068333
657,0.5386697054
658,-0.5568279624
659,0.4514383376
660,0.1146215945
661,-0.2149309516
662,-0.1611700803
663,0.786144495
664,0.2741317451
665,0.4589174092
666,0.7730683088
667,0.3584779501
668,-0.7058688998
669,1.53016448
670,0.156638518
671,0.3779849112
672,-0.7047257423
673,1.398571491
674,0.7792019248
675,-0.7277003527
676,-0.1648540944
677,-0.590387404
678,1.28123498
679,-0.7900065184
680,1.004233837
681,0.3661399782
682,0.114241302
683,-0.003177421167
684,0.3684360087
685,0.1531731337
686,0.5613848567
687,0.4123760462
688,-0.8622456789
689,0.4645161331
690,-1.311897516
691,0.07425373048
692,-0.05307658017
693,0.517380476
694,-1.404353619
695,0.8515464067
696,-0.8658801913
697,1.026527286
698,0.4076979458
699,0.5111775398
700,-1.00334537
701,0.2127465904
702,-0.902805388
703,0.1800382286
704,0.09870851785
705,-0.04592531919
706,-0.2609003782
707,0.2652727962
708,-0.1594521552
709,0.1408230215
710,0.1303890944
711,0.3039804101
712,-0.1698306799
713,-0.07983401418
714,0.3080239296
715,-0.3295239806
716,0.3782373369
717,-0.05968762934
718,0.04503567889
719,0.0435939841
720,0.402577579
721,-0.5277223587
722,0.4286210835
723,0.1565438807
724,-0.09736310691
725,0.3351996839
726,-0.1704775691
727,-0.4557626843
728,0.2817841768
729,-4.631282806
730,-0.01327226963
731,0.4202094078
732,0.2953195274
733,0.5383017659
734,0.1213059649
735,-0.3060519099
736,0.1185189784
737,-0.9176722169
738,-0.433476001
739,0.07165373862
740,0.726852119
741,-0.07134065032
742,0.04661186412
743,0.1820498556
744,0.2726134658
745,-0.09678899497
746,0.4826743901
747,-0.3734159768
748,0.2135920674
749,0.1096560434
750,0.2566973269
751,-0.3682786822
752,-0.2773774862
753,-0.4279559851
754,0.05450240895
755,-0.04826345667
756,-0.02485287935
757,0.2022384256
758,0.298402667
759,-0.3882724941
760,0.4496487081
761,0.09806310385
762,-0.01947008818
763,-0.5346178412
764,0.3366275132
765,-0.01565698907
766,-0.350713104
767,0.4356459975
768,0.6176093221
769,-0.16139552
770,-0.4641990364
771,-0.02751481906
772,-0.05806619301
773,0.3735390902
774,-0.6465209723
775,0.02954087779
776,-0.159290418
777,-0.3017413616
778,0.4966275096
779,-0.3711361289
780,-0.3755845428
781,-0.5270494819
782,-0.08444503695
783,-0.05468164384
784,0.1722915173
785,0.222152397
786,0.03710495308
787,-0.0825778991
788,-0.6059753895
789,-0.1245863959
790,-0.08645048738
791,-0.134450078
792,0.3735260963
793,-0.4891156256
794,-0.03633433953
795,-0.2117244303
796,-0.2098312527
797,0.2248339355
798,0.1229969338
799,-0.2749007344
800,0.2725738585
801,0.02507025003
802,0.3535501361
803,-0.1116774678
804,0.1430455446
805,-0.3404605687
806,-1.319910049
807,0.1935437322
808,-0.683842957
809,0.09919121861
810,0.05778375641
811,0.1485559046
812,0.05889948085
813,-0.02480616793
814,0.2787483335
815,-0.1361816823
816,0.4170238972
817,-0.337928921
818,-0.3648565412
819,-0.002706503263
820,-1.072700858
821,0.3993043602
822,0.2422185391
823,0.2869358659
824,-2.147031307
825,-0.3920417428
826,0.1166745722
827,0.3808110654
828,0.02630865388
829,0.3562379479
830,-0.7679225206
831,-0.1932066679
832,0.4357827306
833,-0.28475824
834,0.0853831172
835,-0.5432199836
836,-0.1361623108
837,-0.2240693122
838,0.1205464602
839,0.3502551317
840,0.104101263
841,-1.086183429
842,0.2102362961
843,-0.03856752068
844,-0.2245303839
845,0.7670065165
846,-0.02525751106
847,0.7097303867
848,0.205750674
849,1.077615619
850,-0.6794856191
851,0.2669394612
852,0.4603904784
853,0.1566607505
854,0.04612093791
855,-0.1352021843
856,-0.01255419943
857,-3.31020236
858,0.239925459
859,0.07259384543
860,-0.7139137387
861,-0.3056402802
862,0.4906123281
863,0.6609816551
864,0.7996021509
865,-0.3519972563
866,-0.7121899128
867,0.08427732438
868,-0.7491309047
869,0.1008017212
870,-1.545874
871,0.03768894449
872,-0.199039042
873,-0.7837065458
874,0.3980382085
875,0.2497985065
876,0.04913110659
877,0.03560264409
878,0.1057048216
879,-0.5460900068
880,-0.2745762765
881,0.1600256264
882,-0.5952937007
883,0.7453274131
884,-0.2458052337
885,-0.04503793269
886,-0.7346310616
887,-0.4045520723
888,0.2912111282
889,0.3061774969
890,0.3805164993
891,0.4230932295
892,-0.1185874343
893,0.1269329786
894,-0.3330152035
895,0.5547441244
896,0.4189529717
897,-0.09693687409
898,-0.07670982927
899,0.3607443273
900,-0.2368008196
901,-0.2183213532
902,0.2156475335
903,-0.2845287323
904,0.3466784954
905,-0.491437912
906,-0.3690503836
907,0.6241887212
908,0.2485305816
909,-0.8931655884
910,-0.06822778285
911,0.6157929897
912,-0.7212557197
913,-0.7133084536
914,-0.1791659147
915,0.1451698542
916,-0.1761451513
917,0.09437188506
918,0.1722045988
919,0.3450064957
920,0.5161759257
921,-7.629847527
922,-0.3442929089
923,-0.1411277801
924,-0.3461579978
925,0.2354551405
926,-0.08392110467
927,0.1296733767
928,0.0006627590046
929,-0.4137470126
930,0.6992585063
931,-0.1558889151
932,0.2928644419
933,-0.5307367444
934,-2.076222658
935,-0.333476007
936,-0.3331959844
937,-0.1104665622
938,0.4105445147
939,-0.09434898943
940,0.163864255
941,0.1042565554
942,0.3275832236
943,-0.5783947706
944,-0.4483013451
945,0.2437484115
946,-0.01212939434
947,0.3904777467
948,0.02921922505
949,-0.2895430923
950,0.5596767068
951,-0.2906017601
952,0.2847272456
953,-1.326400518
954,-0.000919514976
955,-0.4400854111
956,0.3110067844
957,0.1444495469
958,0.488669157
959,-0.126852721
960,-0.2653122246
961,0.03195419908
962,0.003391796723
963,-0.01424642839
964,0.2164684534
965,-0.2427412868
966,-0.5072613955
967,-0.1683172137
968,0.1327809095
969,-3.123169184
970,-0.4878100753
971,-0.07605902851
972,0.2287241817
973,-0.03241952881
974,-0.419002533
975,-0.1612330824
976,0.3527033329
977,-0.3197002113
978,0.2871940136
979,0.08952756971
980,0.1543912143
981,0.09413738549
982,-0.348641634
983,-0.2845933735
984,0.411436528
985,0.05506752804
986,0.1573755294
987,-0.4436188638
988,0.3749462366
989,0.165405944
990,-0.3353234529
991,0.1804652959
992,0.1868119091
993,-0.08663101494
994,-0.2820208967
995,-0.03544286266
996,0.01727393828
997,0.1669558287
998,0.2811510265
999,0.391941607
1000,-0.01448996738
1001,-0.1999974698
1002,-0.04209854081
1003,0.09997794032
1004,-0.1015073955
1005,-0.2893747985
1006,-0.8551341295
1007,-0.4066666961
1008,0.1815406829
1009,-1.072708607
1010,0.2243841738
1011,0.1610073298
1012,0.3193046153
1013,-0.06649821252
1014,0.1732524931
1015,0.07983734459
1016,-0.3754810691
1017,0.413756609
1018,-0.2228812277
1019,-0.6399302483
1020,-0.1974387467
1021,0.2378394604
1022,0.03326199576
1023,-0.342707783
1024,-0.239922598
1025,0.09403161705
1026,0.1616829038
1027,0.2453065068
1028,-0.32838431
1029,-0.306986481
1030,0.2015459239
1031,-0.9397581816
1032,0.05551433191
1033,0.2202832997
1034,0.4076218605
1035,-0.9777991176
1036,-0.3117084205
1037,0.1455141455
1038,-0.03791673481
1039,-0.0243991334
1040,0.2379146665
1041,0.2078129798
1042,-0.1678681672
1043,0.2776420712
1044,0.1254089773
1045,-0.08532853425
1046,-0.3467344344
1047,-0.01793627255
1048,0.1204318255
1049,0.08966730535
1050,-0.3507927358
1051,-0.01472079661
1052,-0.5893294811
1053,0.1682717055
1054,-0.37456429
1055,0.0623097159
1056,0.1708141863
1057,0.05862976238
1058,0.5687484741
1059,0.01035428885
1060,0.3214381635
1061,0.2300507128
1062,0.1323153973
1063,0.1744636595
1064,0.3422493041
1065,-0.3122660518
1066,-0.6297550201
1067,-0.2941586971
1068,-0.1064549014
1069,-0.1345810145
1070,0.2010120898
1071,-0.006178096868
1072,0.2207060158
1073,-0.1806345135
1074,0.2602791488
1075,-0.08712314069
1076,0.000819133129
1077,0.07609827071
1078,0.5680266619
1079,-0.2021808475
1080,0.1802026182
1081,0.124678269
1082,-0.7820128798
1083,-0.5046281219
1084,-0.01085607987
1085,-0.1254627705
1086,-0.1117628589
1087,-0.3519043326
1088,-0.06292081624
1089,0.1889308393
1090,0.2361916602
1091,0.9572360516
1092,-0.05849649385
1093,-0.2694711089
1094,-1.274899125
1095,-0.06108840182
1096,0.2821515203
1097,0.1642574519
1098,-0.6500753164
1099,0.09681557864
1100,-0.2882178724
1101,-0.3384872079
1102,0.09304368496
1103,-0.002393550938
1104,-0.1382694095
1105,-0.9831249118
1106,0.07357930392
1107,0.364064604
1108,0.04519984871
1109,-0.2410092801
1110,-0.3763279915
1111,1.020761013
1112,0.1791259348
1113,0.1322757006
1114,-0.188180536
1115,0.5194177628
1116,0.6185640693
1117,-0.8458219767
1118,0.006147066131
1119,-0.9694646001
1120,-0.0356730558
1121,0.3301096857
1122,0.08642341942
1123,0.06300095469
1124,0.1243240014
1125,-0.02855704911
1126,-0.04455800354
1127,0.03900327906
1128,0.4981001616
1129,0.2925004363
1130,-0.6710425019
1131,-0.6409141421
1132,-0.1606952846
1133,-0.2487525344
1134,-0.2119962424
1135,-0.5527844429
1136,-0.8255521059
1137,-0.2329998761
1138,-0.1414822191
1139,0.1348127276
1140,0.2821059227
1141,-0.2747751176
1142,0.1161314175
1143,-0.4732508659
1144,0.4608994126
1145,0.3594468832
1146,-0.3805352151
1147,0.5533474684
1148,1.265889168
1149,0.1089557484
1150,0.5240297914
1151,-0.3597790301
1152,-0.2012963146
1153,-0.4098716676
1154,0.5585510731
1155,-0.9312286973
1156,0.1357612759
1157,-0.2699439228
1158,-0.9180711508
1159,0.5085417628
1160,0.8782458305
1161,-0.2823361158
1162,0.5269712806
1163,0.6534748077
1164,0.2566057742
1165,-0.4423892498
1166,0.692302525
1167,0.5874125361
1168,-0.472935468
1169,0.4452036917
1170,-0.2246651649
1171,0.07662430406
1172,0.549580574
1173,-0.1287809759
1174,-0.2912669182
1175,0.1738535762
1176,0.1430169642
1177,0.180939436
1178,-0.9820646048
1179,-0.9503457546
1180,-0.3505191505
1181,-0.1030641496
1182,0.3592024446
1183,-0.3593469858
1184,-0.006820472423
1185,-0.1083966717
1186,-0.3571088016
1187,0.2031035274
1188,0.5671655536
1189,0.5375475287
1190,0.1319993883
1191,-0.6612112522
1192,-0.08463502675
1193,0.3475718498
1194,-0.101607278
1195,0.8135505915
1196,-1.2348032
1197,0.1226124689
1198,0.02277565934
1199,-0.2427773476
1200,-0.158961609
1201,-0.1618825048
1202,0.1117578968
1203,0.3312466443
1204,1.000332952
1205,1.131726384
1206,-0.1235921904
1207,1.086351752
1208,1.30375123
1209,0.1160584092
1210,0.6472438574
1211,0.3586856127
1212,-0.2135121524
1213,0.07317280769
1214,0.5886236429
1215,-0.05212855712
1216,0.3614560664
1217,0.5640696287
1218,0.1898092628
1219,-1.18282783
1220,0.131474793
1221,0.1205588207
1222,0.001120323897
1223,-0.1243467927
1224,-0.1153013706
1225,-0.9152346849
1226,0.6199546456
1227,0.7171326876
1228,0.8844454288
1229,0.2033070326
1230,-0.4105320573
1231,-0.2079721093
1232,-1.120828271
1233,0.693199873
1234,0.02214728855
1235,-0.2114554495
1236,0.5416852832
1237,-0.3765441775
1238,0.2374692857
1239,0.2869341373
1240,-0.2943663895
1241,0.3009666502
1242,-0.5278252363
1243,0.2117055058
1244,-1.421906829
1245,0.1707236022
1246,-0.004468331579
1247,0.3095085323
1248,0.2216506302
1249,0.3303538561
1250,-0.6416599154
1251,0.3515725136
1252,0.1166692153
1253,0.03674972802
1254,0.5993048549
1255,-0.1639427543
1256,-0.2845094502
1257,0.8302472234
1258,1.238072991
1259,-0.01229498908
1260,-0.2331554592
1261,-0.2960398197
1262,0.9837371111
1263,-0.005233561154
1264,-0.3275362551
1265,-0.1556064636
1266,0.5567602515
1267,0.5062654018
1268,0.4158560634
1269,-0.396941334
1270,-0.3114932775
1271,-0.6058437824
1272,-1.313821435
1273,0.448487699
1274,0.6647728086
1275,0.4577894807
1276,0.2869957983
1277,-0.3045285046
1278,-0.1047287956
1279,0.4432429671
1280,-0.04815709591
1281,0.5947130322
1282,-0.4701445401
1283,0.5879379511
1284,-0.2389803529
1285,0.1759457439
1286,0.2933322787
1287,0.3706139922
1288,0.4414098859
1289,-0.6695317626
1290,0.4430313706
1291,-0.472679466
1292,-1.175749779
1293,0.9587464333
1294,-0.04748295993
1295,0.3308634162
1296,-0.1170486212
1297,-0.0329628624
1298,0.2299893945
1299,-0.7640485168
1300,0.5186035037
1301,0.2977046072
1302,-0.047700461
1303,-0.189240396
1304,0.01198881026
1305,-1.090031862
1306,0.2601260841
1307,-1.344056845
1308,2.097705126
1309,0.8898160458
1310,0.9787028432
1311,-0.5657915473
1312,-1.890350223
1313,0.1557839513
1314,0.5251058936
1315,-0.2562097907
1316,0.08403217047
1317,1.417037487
1318,-0.1487157941
1319,0.3477213681
1320,-0.38521716
1321,1.762652278
1322,0.338740319
1323,1.044852734
1324,0.007450327743
1325,0.2919369936
1326,-0.7340915203
1327,-1.553209543
1328,0.6917913556
1329,-0.04709586501
1330,-0.01910628192
1331,0.3753983974
1332,-0.1793229282
1333,0.7653729916
1334,1.078041434
1335,-0.1340620518
1336,0.345187068
1337,-1.608960629
1338,-0.4026320279
1339,0.9626772404
1340,-0.08364109695
1341,0.3286535442
1342,-0.167580381
1343,-0.8880313039
1344,-0.03086190484
1345,0.2376313657
1346,0.8883069754
1347,0.6273981929
1348,0.4439812005
1349,-0.3331451416
1350,0.1592030525
1351,0.5590376258
1352,0.8856179118
1353,0.2801921368
1354,0.7778014541
1355,0.1317354441
1356,0.9982534647
1357,-1.180521011
1358,-0.7345366478
1359,-0.3151263595
1360,0.1262103915
1361,-0.2695461214
1362,0.9254456162
1363,0.04446519166
1364,0.4859949648
1365,-0.2252271771
1366,-0.2233585268
1367,-0.1946242899
1368,1.137365222
1369,0.08771765977
1370,0.4214581251
1371,0.006258419715
1372,0.4407415986
1373,1.051179886
1374,1.127577186
1375,0.07041157037
1376,-0.3567919135
1377,-0.3219802678
1378,-0.148788169
1379,-1.027314663
1380,-0.3691011369
1381,-0.918415308
1382,-1.837049127
1383,-0.7611945868
1384,0.6883644462
1385,1.066628337
1386,-0.4356483221
1387,-0.9073721766
1388,-0.06593972445
1389,-0.2096076757
1390,0.6851639152
1391,-0.06695593148
1392,0.9036813378
1393,-0.5127630234
1394,0.5353893638
1395,0.8817042708
1396,-0.4872019887
1397,0.6277942061
1398,-0.7548627257
1399,0.515348196
1400,1.200055718
1401,-0.5331278443
1402,0.3058153093
1403,0.3652894199
1404,-0.06694034487
1405,0.06906215101
1406,0.05771652609
1407,-1.221259713
1408,0.004370985087
1409,-0.2083943337
1410,0.04330000281
1411,0.1949569732
1412,-0.04920641705
1413,0.0315499641
1414,-0.1023908034
1415,0.2460628301
1416,0.2038376331
1417,-0.13767232
1418,-0.2560766041
1419,0.2870618403
1420,0.2467443645
1421,-0.8043701649
1422,-0.1708100289
1423,-0.02245842293
1424,-0.2644107938
1425,-1.109224081
1426,-0.435525775
1427,-0.2726567984
1428,-0.1728507131
1429,-0.1247760057
1430,-0.310813725
1431,-0.2449112386
1432,-0.2378580868
1433,0.2490456551
1434,0.08721540123
1435,0.363922894
1436,0.1746899784
1437,0.5305367708
1438,0.2653572857
1439,0.1966003031
1440,-0.3752878904
1441,-0.250790596
1442,0.1802802384
1443,0.1591374129
1444,0.0372771211
1445,-0.1067198515
1446,0.2590918541
1447,0.2098432332
1448,0.3445830047
1449,0.240492776
1450,0.08609540761
1451,0.2230072021
1452,0.2238524407
1453,-0.1332235485
1454,0.01374693401
1455,0.3454479873
1456,-0.0640950948
1457,-0.06058339402
1458,-0.3186022639
1459,-0.0250568483
1460,0.3086523712
1461,0.02588351443
1462,-0.3251927197
1463,0.2888042927
1464,-0.04586337879
1465,-0.1394225806
1466,-0.05046253651
1467,-0.5600912571
1468,-0.6211237311
1469,-0.2333666682
1470,0.08860438317
1471,-0.3070891798
1472,0.1378067136
1473,0.1321324259
1474,-0.08721018583
1475,0.09505420923
1476,-0.1512435079
1477,0.03279250488
1478,-0.276047051
1479,0.339381367
1480,-0.3343783915
1481,0.00212670234
1482,0.2094579339
1483,0.07948469371
1484,-0.06203860044
1485,0.1765341312
1486,0.005875706207
1487,0.04855788127
1488,0.3114215136
1489,-0.3943710625
1490,-0.7317757607
1491,0.3391060233
1492,0.5263630152
1493,-0.2742057145
1494,0.2006244212
1495,-0.2402645051
1496,0.2369003743
1497,-0.1158096865
1498,0.06938229501
1499,-0.7812401652
1500,0.1849212945
1501,0.74900949
1502,0.2520000637
1503,0.3808486164
1504,-0.6371269822
1505,-0.2000406086
1506,0.3118463457
1507,0.1050636321
1508,0.03825248033
1509,-0.003827526933
1510,0.6617498994
1511,-0.5347164869
1512,0.4339705408
1513,-0.1164457053
1514,0.09926603734
1515,0.08099073917
1516,-0.1060213149
1517,-0.3861683607
1518,0.07684829086
1519,-0.9211706519
1520,0.05827759951
1521,0.2538011968
1522,0.2021290064
1523,-0.08590277284
1524,-2.393087149
1525,0.2442663759
1526,-0.1862110645
1527,0.3812050521
1528,-0.8331595063
1529,-0.2774287164
1530,-0.1941365153
1531,0.3840959966
1532,-1.430246949
1533,0.03315843269
1534,-0.5191833973
1535,0.5680896044
1536,-1.024870634
1537,0.9125782251
1538,0.5461311936
1539,-0.8193196654
1540,0.7601910233
1541,0.08693323284
1542,0.4159993827
1543,0.4364233017
1544,-0.4740749002
1545,0.7402358651
1546,0.8173971176
1547,-0.3097043335
1548,-0.1597247422
1549,-0.07871828973
1550,-0.09915217757
1551,-0.4117922783
1552,-0.8466315866
1553,-0.7865982652
1554,1.297908306
1555,-0.295294553
1556,0.3593809009
1557,0.3820486367
1558,-0.07524688542
1559,-0.03680444136
1560,0.4291185141
1561,-0.739074707
1562,-1.059337854
1563,0.9809066653
1564,0.5845059156
1565,-0.5048202872
1566,-0.6745920181
1567,0.01547068544
1568,0.2783833742
1569,0.2828429639
1570,-0.6892940402
1571,-0.008994446136
1572,-1.06948638
1573,0.198699221
1574,-1.196089149
1575,-0.2569421828
1576,0.1296113133
1577,-0.174617663
1578,-2.916121721
1579,-0.1758207381
1580,0.2444355786
1581,0.3362951875
1582,0.7058748007
1583,-0.5536140203
1584,0.5528271794
1585,0.4766538441
1586,0.4481332898
1587,0.114907518
1588,2.004506826
1589,0.6687936187
1590,0.3295474052
1591,-0.2103263885
1592,-0.6464369893
1593,-1.118919015
1594,-0.2137870938
1595,-0.9200644493
1596,0.8875334263
1597,-0.2421761751
1598,-0.00370893022
1599,0.3691959679
1600,0.5597189665
1601,-0.2719771862
1602,0.3944492638
1603,0.1274852008
1604,0.02559077926
1605,0.03404785693
1606,1.0385077
1607,0.276891917
1608,0.9539535642
1609,-0.3262138665
1610,0.1721508652
1611,0.3657383621
1612,-0.04486203194
1613,0.1606561691
1614,0.4221612215
1615,0.658546865
1616,-0.6593384743
1617,0.2962680757
1618,0.2428880483
1619,-0.7453066707
1620,0.735126853
1621,-0.1185287386
1622,-0.04472372308
1623,0.5314124823
1624,0.2194557488
1625,-0.7130032778
1626,-0.419044435
1627,0.08225924522
1628,0.3682700694
1629,-0.4758262336
1630,0.4500792623
1631,-0.07284148782
1632,0.1085333303
1633,-0.423112154
1634,0.4563596845
1635,0.07007864863
1636,-0.2056147903
1637,-0.6244201064
1638,-0.3540224731
1639,-0.4317579269
1640,-0.1235844269
1641,-0.2069233954
1642,0.2152032256
1643,0.4603807032
1644,0.07096273452
1645,-0.09330607951
1646,0.5841517448
1647,0.2593085468
1648,0.1237065494
1649,-0.43263641
1650,0.2923363745
1651,0.1880185902
1652,-0.5364205241
1653,-0.5440853238
1654,0.02841433696
1655,0.2990873754
1656,0.3475504518
1657,-0.5177980661
1658,-0.2696891129
1659,0.6549334526
1660,0.09367106855
1661,-0.0288529098
1662,-0.7715651393
1663,-0.9696606398
1664,0.4680843055
1665,-0.3417340219
1666,-0.002934599062
1667,-0.7770062685
1668,0.3906734884
1669,-0.1714259237
1670,0.5139926076
1671,-2.436717749
1672,1.001558065
1673,-0.8558212519
1674,-1.865174174
1675,0.4108105302
1676,-0.1615438461
1677,0.4927150011
1678,-0.3340543807
1679,-0.1422953755
1680,-1.169659019
1681,-0.4311524332
1682,0.06099360064
1683,1.163190603
1684,0.3791740239
1685,-0.1193229929
1686,0.2645125091
1687,1.258126259
1688,0.7707239389
1689,-0.6430937052
1690,-0.9463629723
1691,-0.6384888291
1692,0.1306806952
1693,-0.1393003911
1694,0.2559504509
1695,-0.5222382545
1696,0.3200084269
1697,-0.1133234873
1698,0.1043422446
1699,0.1383056939
1700,-0.1325914413
1701,0.1615187377
1702,0.6481053829
1703,-0.4914503694
1704,0.2428669631
1705,-0.713424027
1706,-0.08684992045
1707,-0.3920016289
1708,0.3235965073
1709,0.2410190254
1710,0.4939308167
1711,-0.9400721192
1712,0.1931442916
1713,0.06233143806
1714,0.5155826211
1715,0.4392721057
1716,0.739566803
1717,0.7516265512
1718,-1.043726563
1719,-0.2221490443
1720,-0.8337955475
1721,0.6585613489
1722,0.9320346713
1723,-0.5996417403
1724,-0.5252233744
1725,0.03243981302
1726,-1.227050424
1727,-0.207005024
1728,0.4515295625
1729,0.5394067168
1730,0.09475436062
1731,0.06166578829
1732,0.4524629116
1733,-0.3137577772
1734,-0.1244443879
1735,-0.1596646458
1736,-0.4019586742
1737,-0.5085051656
1738,-0.217341885
1739,1.250798702
1740,-0.0776925087
1741,-0.2355808169
1742,-0.2351096421
1743,0.61285007
1744,-0.1019269824
1745,-0.2084460855
1746,0.6996763349
1747,-1.395395398
1748,0.1502102017
1749,-0.2416845411
1750,-0.3802139759
1751,0.4606924355
1752,-0.3714913726
1753,1.077295661
1754,0.1572349817
1755,0.1733980626
1756,0.2837381065
1757,0.8895075321
1758,0.2146074623
1759,0.4567767084
1760,0.7377983928
1761,0.1512532085
1762,0.3907650709
1763,-1.049639583
1764,-0.5333733559
1765,0.6097279787
1766,0.0815244019
1767,-0.3934799433
1768,0.5806602836
1769,-0.3045195639
1770,-0.633518517
1771,0.2215815336
1772,0.1613014191
1773,0.06264502555
1774,-0.3282860518
1775,-0.05858468264
1776,-0.6518104076
1777,0.052302856
1778,0.1687518507
1779,0.6710287333
1780,0.7076806426
1781,0.167708993
1782,0.04901308566
1783,0.1823074967
1784,-0.1111267284
1785,0.3412170112
1786,0.106040664
1787,-0.3020314276
1788,0.03721886873
1789,0.1799545586
1790,-1.595860124
1791,-0.3991144896
1792,-0.3843612373
1793,0.240952462
1794,-0.06760821491
1795,-0.2308784723
1796,0.301957041
1797,-0.2468177676
1798,-0.2383323014
1799,-0.1211778447
1800,-0.3515077233
1801,-0.2098929137
1802,-0.08076505363
1803,-0.3462685645
1804,-0.0003236771445
1805,-0.006905065849
1806,0.2609178126
1807,-0.09349458665
1808,-0.05179959163
1809,0.1664000452
1810,0.08177299798
1811,-0.1048766971
1812,-0.3676331341
1813,-0.3641699255
1814,-0.07699352503
1815,0.2209454328
1816,-0.0972410813
1817,0.2151652426
1818,0.3094297945
1819,0.05014549196
1820,0.001212844625
1821,0.01383324526
1822,-0.1724143773
1823,0.1140580177
1824,0.02861018106
1825,0.1350485086
1826,-0.08599499613
1827,0.1132997721
1828,0.1362258941
1829,-0.3702388108
1830,-0.3541357815
1831,-0.1703352034
1832,-0.1545012593
1833,0.1694565713
1834,-0.3401826024
1835,-0.135846898
1836,0.3623812497
1837,-0.356860131
1838,-0.04075703025
1839,-0.3881659508
1840,0.2866895199
1841,-0.09481221437
1842,0.08615700155
1843,0.2026858032
1844,-0.09913533181
1845,-0.3984203041
1846,0.2325160652
1847,0.0678730458
1848,-0.03368589655
1849,0.04936797917
1850,0.04513411224
1851,0.1776362658
1852,0.2561439574
1853,-0.2277593762
1854,0.3636045456
1855,-0.03994914517
1856,-0.1166829094
1857,-0.2310859561
1858,0.07351949811
1859,-0.2241893709
1860,0.4138123095
1861,-0.2446778715
1862,-0.3850771487
1863,-0.006467763335
1864,0.08646211028
1865,-0.2728480101
1866,-0.2870111167
1867,-0.1759969443
1868,-0.2131104916
1869,0.2311821431
1870,0.3549359143
1871,0.1743734777
1872,-0.3054037392
1873,0.3638840616
1874,0.09415447712
1875,0.01320929639
1876,0.2565302253
1877,-0.1901534498
1878,-0.2025810629
1879,-0.190471217
1880,-0.01268098969
1881,-0.1399735659
1882,-0.1660886556
1883,0.2804021537
1884,-0.3390354514
1885,-0.316318363
1886,-0.1311140805
1887,-0.503665328
1888,-0.2792244554
1889,0.2209089696
1890,0.05540787056
1891,0.09117464721
1892,0.06391532719
1893,0.3369354308
1894,-0.2730281651
1895,0.01100084838
1896,-0.1927337646
1897,0.08003789186
1898,0.0192021057
1899,0.2755898535
1900,0.328854233
1901,-0.1136315018
1902,0.322047025
1903,-0.2128677964
1904,-0.004687316716
1905,-0.3509169519
1906,0.3123206496
1907,-0.05109027028
1908,-0.2011885792
1909,0.206155017
1910,0.1125526354
1911,-0.08219096065
1912,-0.08274106681
1913,-0.2214739323
1914,0.07531329989
1915,0.2122959495
1916,0.2946377397
1917,-0.2313863486
1918,-0.2614063621
1919,0.006712117232
1920,0.9160290956
1921,-1.092295408
1922,-0.5380305648
1923,1.239905357
1924,1.465628266
1925,0.262889713
1926,-0.5891178846
1927,-1.524009705
1928,0.4049893022
1929,0.4719696939
1930,-0.6482471228
1931,-0.9454342127
1932,-0.5321114659
1933,-0.8961362243
1934,0.2820043862
1935,-0.20531331
1936,-1.167853594
1937,0.6186230183
1938,1.181441545
1939,-0.8418109417
1940,-2.152413607
1941,-0.07166743279
1942,0.2920366228
1943,-0.3206810057
1944,0.5352830887
1945,1.142817855
1946,0.6208897829
1947,0.2843249738
1948,-0.8242496848
1949,0.1604567468
1950,0.610281229
1951,-1.946125984
1952,-3.680458546
1953,3.669495821
1954,1.677396417
1955,-7.329159737
1956,-1.227934122
1957,-1.236727476
1958,0.2192139626
1959,1.682023525
1960,-1.710373759
1961,1.491739869
1962,-0.2657429576
1963,1.577978611
1964,0.8093799949
1965,-0.3049340248
1966,0.9680505991
1967,-0.2261932641
1968,-2.94939661
1969,0.4952955544
1970,2.652992725
1971,1.64143908
1972,0.4252854288
1973,-3.41660738
1974,0.463564992
1975,-1.706057668
1976,0.4016777575
1977,0.6088529229
1978,0.5592191219
1979,0.9554800987
1980,-0.3298861384
1981,0.346193254
1982,1.174486041
1983,-0.1009140089
1984,-0.3978880048
1985,-12.8083353
1986,0.6837689877
1987,-1.042724133
1988,0.7827461958
1989,-0.2475835532
1990,0.577567935
1991,0.07017087191
1992,-1.504595757
1993,1.50697279
1994,1.625402808
1995,-0.4014672637
1996,0.6998836398
1997,-2.586440325
1998,-14.17461014
1999,0.2338076532
2000,0.4459443092
2001,0.832834065
2002,0.5304808617
2003,-3.357704401
2004,0.09352540225
2005,-0.3208886087
2006,-0.3169076741
2007,1.060121179
2008,-9.012871742
2009,-1.275204539
2010,0.6484336257
2011,-0.1107964814
2012,-2.92442131
2013,0.09742391109
2014,0.01524636615
2015,2.338321924
2016,-1.69522202
2017,0.9352461696
2018,1.353387237
2019,0.8549536467
2020,1.152721405
2021,1.508008599
2022,1.206181765
2023,-2.090083361
2024,2.725908995
2025,0.2479754835
2026,-3.246428967
2027,0.001323225559
2028,-10.16695786
2029,-0.1263885349
2030,0.4307145178
2031,0.06524211913
2032,0.3932541311
2033,-0.4791781604
2034,-3.684951305
2035,1.019725442
2036,-8.699278831
2037,1.0695858
2038,-2.321855783
2039,-0.4142684639
2040,-1.128723025
2041,0.26115942
2042,0.9613477588
2043,0.4162204862
2044,0.06588705629
2045,-0.1519801766
2046,-0.3075346947
2047,-0.2041416615
2048,2.230810642
2049,0.4322558939
2050,-0.8161525726
2051,-0.5125875473
2052,-0.08700289577
2053,0.08355816454
2054,-1.456671953
2055,0.03595128283
2056,-0.3432872593
2057,-1.207557321
2058,-0.6370924711
2059,-1.854368925
2060,-0.3941672146
2061,-0.2210990787
2062,-0.1675435156
2063,1.823987246
2064,-0.6442247033
2065,-0.3304382861
2066,-1.182071686
2067,0.5391968489
2068,0.04419018328
2069,0.3351246119
2070,0.2430212498
2071,0.9741071463
2072,1.399000525
2073,-0.7166763544
2074,-1.585458517
2075,-1.446497083
2076,-0.3317603469
2077,0.6879905462
2078,0.5649783015
2079,-0.6317290664
2080,0.1810777485
2081,1.335449338
2082,0.5867984891
2083,0.06748583913
2084,-1.643858314
2085,-1.018274426
2086,-0.01545719989
2087,-0.4605193436
2088,-0.4991322756
2089,0.4368097186
2090,0.9001386762
2091,0.8253101707
2092,0.2547153234
2093,0.2479601204
2094,1.159432769
2095,0.4608798027
2096,1.760638237
2097,0.2305045277
2098,-0.8589568734
2099,-0.09084329009
2100,-1.13661778
2101,-0.1153023764
2102,0.7140905261
2103,-0.3197773993
2104,-1.196350336
2105,-0.6911392808
2106,0.435226649
2107,-0.6811573505
2108,0.5975193977
2109,0.08006658405
2110,1.140542626
2111,0.737234056
2112,-0.08067154884
2113,-8.88320446
2114,0.5621173382
2115,-1.213773966
2116,-0.2293446809
2117,-0.3316934705
2118,-0.4552289248
2119,-0.1396636814
2120,-1.186463475
2121,0.3172783256
2122,0.5829236507
2123,-0.0508467555
2124,0.667910099
2125,-2.948308945
2126,-2.546455145
2127,-0.5436559319
2128,-0.5420774221
2129,0.3294001222
2130,0.8456681371
2131,-1.646672249
2132,0.3296174407
2133,0.2946552336
2134,0.0339884758
2135,0.1595420688
2136,-0.8833220005
2137,-1.352782965
2138,-0.1371215731
2139,-0.06237753108
2140,-0.5953293443
2141,0.08712149411
2142,0.8747720718
2143,0.9592605233
2144,-1.614031434
2145,0.5773178339
2146,-0.480817616
2147,0.02774706855
2148,-0.2549672425
2149,0.4151228368
2150,0.7274009585
2151,-0.6654667258
2152,1.466274142
2153,-0.6593346596
2154,-0.1690993309
2155,-0.3957843184
2156,-2.815462351
2157,-0.1746073961
2158,0.6462458968
2159,1.109002948
2160,-0.3279697895
2161,-0.4173385799
2162,-0.9663236737
2163,1.096605659
2164,-3.23923254
2165,0.4969551563
2166,-1.807137489
2167,1.413758874
2168,0.2856424451
2169,0.2272842824
2170,0.9479243159
2171,1.384247184
2172,-0.5159185529
2173,-0.1667427719
2174,0.3210924268
2175,0.4943247736
2176,0.5186048746
2177,1.268925786
2178,1.082260609
2179,-0.3691599667
2180,1.235946894
2181,0.2858020067
2182,-0.2893486321
2183,-0.3632793128
2184,-0.4068356752
2185,-0.2190973014
2186,-1.09711647
2187,-2.077053308
2188,0.2859956324
2189,-1.267693162
2190,1.381567836
2191,0.218226254
2192,-0.1419209838
2193,0.03583327681
2194,0.4768466055
2195,0.5135721564
2196,0.3460887969
2197,-0.3491745293
2198,-0.3433457613
2199,0.6915001869
2200,-0.1199438572
2201,0.3300701678
2202,-2.175384998
2203,-0.3171050549
2204,-0.431014508
2205,-1.325781465
2206,-0.6494631171
2207,-0.3004225791
2208,0.08317897469
2209,1.337567925
2210,-0.03338295594
2211,0.01767916977
2212,-1.376347303
2213,0.3891853094
2214,1.15694201
2215,-0.5471526384
2216,-1.086302519
2217,-0.4619911909
2218,0.2853918076
2219,0.5659218431
2220,1.21135056
2221,0.01093668025
2222,-0.965062201
2223,1.078299403
2224,-0.1199230701
2225,0.308101058
2226,0.03991898522
2227,-0.483178854
2228,-1.307075262
2229,0.4404645264
2230,0.5029956698
2231,-0.6621259451
2232,-0.6136929393
2233,0.2687146962
2234,0.4103640914
2235,0.3670417368
2236,0.6726515293
2237,-0.3090103865
2238,0.8788817525
2239,0.71205616
2240,-0.233036235
2241,-8.804947853
2242,0.1346964538
2243,-1.19094348
2244,0.1683939546
2245,-0.239858523
2246,0.06304001808
2247,-0.2259462327
2248,-1.501252055
2249,0.7239610553
2250,0.4069183171
2251,0.02228094079
2252,0.8668684959
2253,-2.70641613
2254,-2.710262537
2255,-0.08426453918
2256,-0.9713363647
2257,0.2465368956
2258,0.9777763486
2259,-1.978258848
2260,0.0109254485
2261,-0.1972954273
2262,0.1490492374
2263,-0.09621109813
2264,-0.5038670897
2265,-1.153195381
2266,0.001040564617
2267,0.1532916874
2268,-0.2590304315
2269,0.4805172682
2270,0.5259854794
2271,0.7615825534
2272,-1.845186114
2273,0.2420460135
2274,-0.3516415358
2275,0.2728655636
2276,-0.4779872894
2277,0.1988026947
2278,0.8999658227
2279,-0.4872431755
2280,1.753288627
2281,-0.7814810276
2282,-0.01921917312
2283,-0.3702844977
2284,-3.064028025
2285,0.3070428967
2286,0.270865649
2287,1.128155828
2288,-0.1638006121
2289,0.1339736432
2290,-1.562483191
2291,0.87042135
2292,-3.299302578
2293,0.466121316
2294,-1.349395275
2295,1.686651587
2296,-0.2592213452
2297,0.343906939
2298,1.139598966
2299,1.402168155
2300,0.10671819
2301,-0.001724121161
2302,0.4772166014
2303,0.6903657317
2304,-13.64968204
2305,-8.262435913
2306,-2.326581478
2307,-12.01713467
2308,-10.02462006
2309,0.376714915
2310,-12.40894413
2311,7.302462578
2312,-6.95583725
2313,-14.95565701
2314,0.4913344085
2315,-1.530227184
2316,13.56093693
2317,7.278131962
2318,13.21205425
2319,17.70425034
2320,13.94354725
2321,7.658763885
2322,-12.97178936
2323,2.158627033
2324,9.354607582
2325,-0.02901924029
2326,0.001245485619
2327,0.3999837339
2328,-6.460707188
2329,0.4479106963
2330,-14.36989212
2331,-10.18876934
2332,15.55630112
2333,-6.743303299
2334,8.533231735
2335,-9.688340187
2336,12.93192482
2337,-15.65454102
2338,-6.700978279
2339,16.53884697
2340,-1.600053906
2341,8.203761101
2342,4.8154459
2343,-19.94394112
2344,9.095719337
2345,-7.589097977
2346,-6.656664371
2347,-9.050786972
2348,-14.5533886
2349,-0.150734365
2350,-8.436508179
2351,8.033932686
2352,13.53960991
2353,-5.686117649
2354,-20.46557808
2355,-5.756885052
2356,-6.124108315
2357,20.11389542
2358,-2.155013561
2359,4.26213026
2360,2.341780186
2361,-8.021448135
2362,7.782661438
2363,-3.375007391
2364,3.559840441
2365,0.1481731385
2366,12.54194546
2367,12.3290987
2368,-0.592030704
2369,0.2440672219
2370,0.3452386856
2371,-0.1670274436
2372,-0.2848222852
2373,-0.2367888391
2374,0.3354995847
2375,-0.1241679713
2376,0.07654402405
2377,0.3919745684
2378,0.05736404657
2379,0.05328219011
2380,-0.5278545022
2381,0.1097355634
2382,0.04496005177
2383,-0.4682787657
2384,0.03623070568
2385,-0.3386928439
2386,0.4210145473
2387,0.008127828129
2388,-0.2505972385
2389,-0.0003044506593
2390,-0.3562595546
2391,0.1457713544
2392,0.06843976676
2393,0.1209380999
2394,0.09434958547
2395,-0.3634293675
2396,0.4030609429
2397,-0.2105435431
2398,0.004770845175
2399,-0.04371420294
2400,0.4177823067
2401,-1.259181857
2402,-0.7172678709
2403,0.06029081717
2404,-0.1307999641
2405,0.4144452512
2406,-0.01125308592
2407,0.3308169246
2408,0.3533937633
2409,0.1367861629
2410,-0.1318634897
2411,0.007805016357
2412,-0.3876824975
2413,-0.3042171001
2414,-0.04473983496
2415,-0.5633227825
2416,0.2457604706
2417,-0.3818925321
2418,0.05843842775
2419,-0.2909238935
2420,0.4496074319
2421,0.1845097691
2422,0.1221205443
2423,-0.2644691467
2424,0.439263761
2425,-0.1605071276
2426,-0.210820511
2427,-0.1336605996
2428,-0.08419084549
2429,-0.1112356558
2430,0.2991081774
2431,0.3825508058
2432,0.1076595113
2433,-0.6322851777
2434,0.8079695702
2435,-1.158553839
2436,-0.2882973254
2437,0.386544615
2438,0.4499101341
2439,0.3228808939
2440,-0.02793225646
2441,-0.2075983137
2442,-0.6476083994
2443,-0.2007956356
2444,0.3343667388
2445,-0.7267526388
2446,-0.2765807509
2447,0.551106751
2448,0.3074653745
2449,-0.8957564235
2450,0.05627533793
2451,0.1202087924
2452,-0.3772062659
2453,-0.3169941604
2454,0.1946988106
2455,-0.7555516958
2456,0.12343207
2457,-0.5511999726
2458,-0.583707571
2459,-0.2765402794
2460,0.03054317832
2461,-0.1475892663
2462,0.4178836346
2463,0.1327379048
2464,0.4165077507
2465,-0.1901757717
2466,0.3878465891
2467,0.0516336076
2468,0.03352163732
2469,0.3386425674
2470,0.04899316281
2471,-0.4914568067
2472,-0.2988047004
2473,0.02868022583
2474,0.2958462536
2475,-0.3832025826
2476,-1.110680223
2477,-0.3881063163
2478,-0.6290136576
2479,0.001859487616
2480,-0.2322224528
2481,-0.2688486874
2482,-0.3426826
2483,0.2728699744
2484,-0.8426415324
2485,0.265525043
2486,-0.1746404618
2487,0.1669768691
2488,-0.4782351255
2489,0.537457943
2490,0.9185436964
2491,0.6030925512
2492,-1.735280871
2493,-0.1761405468
2494,0.01834718697
2495,-0.1591341048
2496,0.03313291818
2497,0.08471788466
2498,-0.03432833031
2499,0.002279262757
2500,0.06401562691
2501,0
2502,0.07277777046
2503,-0.07319796085
2504,-0.1470613033
2505,0.04429010674
2506,-0.148561582
2507,-0.00253609987
2508,-0.006795310881
2509,0.1907539666
2510,0.06939946115
2511,-0.01901745237
2512,-0.05534304306
2513,0.1672852784
2514,0.1607417762
2515,-0.1807246506
2516,-0.002962620463
2517,-0.01105470303
2518,0
2519,0.2347782701
2520,-0.05784865841
2521,0.08919142932
2522,-0.06418201327
2523,-0.00462971488
2524,0.03297137469
2525,-0.2851535082
2526,-0.008907131851
2527,-0.1500860751
2528,0.04106702656
2529,0.06497655809
2530,0.01415964402
2531,0.002984637627
2532,-0.08094657958
2533,-0.05075475574
2534,-0.1002914757
2535,-0.008781701326
2536,0.04029546306
2537,0.01094967593
2538,0.01676528715
2539,-0.02611882798
2540,-0.01384850871
2541,0
2542,-0.02687195316
2543,-0.005127459764
2544,-0.001547403866
2545,-0.07578478754
2546,0.002107246313
2547,-0.0245271679
2548,0.01846517809
2549,-0.07361718267
2550,-0.07504761219
2551,0.001632176223
2552,0.2365007699
2553,-0.08610330522
2554,-0.1646156162
2555,0.03447378427
2556,0.1433511972
2557,0
2558,-0.01015932392
2559,0.05608505383
2560,0.1102572232
2561,-0.5461398363
2562,-0.1314654499
2563,-0.005313641857
2564,0.4015926123
2565,0.1505339146
2566,-0.8889408112
2567,0.2859346271
2568,-0.4519248009
2569,-0.193613261
2570,-0.2535752952
2571,0.4865097702
2572,-1.102719188
2573,0.1693954319
2574,-0.6867123842
2575,-0.04534398392
2576,-0.1077741757
2577,-0.3768520355
2578,-0.04816425592
2579,0.1535666585
2580,0.2331346869
2581,-0.0131726265
2582,-0.2197075933
2583,0.3103491068
2584,0.03103324212
2585,-0.6080339551
2586,-0.1807072461
2587,-1.369929552
2588,0.452717185
2589,-0.2585714757
2590,-0.04366697744
2591,0.2599747777
2592,-1.360247493
2593,0.3292226493
2594,0.2175300121
2595,0.7428767085
2596,-0.7907214761
2597,-0.1205284894
2598,-0.4936815798
2599,-1.638142586
2600,0.2014867812
2601,-0.8546917439
2602,-0.0906329453
2603,0.6149957776
2604,0.1985730231
2605,-0.2600252628
2606,-0.03216750547
2607,-0.1155150458
2608,-0.4102936685
2609,-0.020065194
2610,0.2865810394
2611,0.1385838687
2612,0.1466793716
2613,-0.2739951313
2614,-0.1322600842
2615,0.3866452575
2616,-0.4190236628
2617,-0.1481490135
2618,0.4646232724
2619,0.2569489777
2620,0.4763692319
2621,0.4457631111
2622,-0.2592469156
2623,-1.547515869
2624,-0.36294052
2625,-0.5629360676
2626,1.309074402
2627,-1.441121936
2628,-0.1504599452
2629,0.14977099
2630,-2.072687864
2631,-0.2923981845
2632,-3.190286636
2633,1.729166031
2634,2.725793123
2635,-0.5110883117
2636,1.415770531
2637,-1.266545057
2638,-4.558992863
2639,-0.5713547468
2640,3.777843237
2641,-0.3644964397
2642,0.03860035539
2643,-0.8201569319
2644,0.3043681383
2645,-0.7376817465
2646,-0.9123550057
2647,-2.200263023
2648,-0.5370964408
2649,-1.518918991
2650,-0.1153054386
2651,1.01937449
2652,0.6109473705
2653,-2.000257015
2654,-0.4637316465
2655,0.4286925197
2656,2.242087603
2657,1.646321416
2658,-2.764382601
2659,1.858977199
2660,2.156719208
2661,-0.03451396152
2662,-0.6342684627
2663,0.3513611853
2664,2.883899927
2665,0.2011449784
2666,0.3775860965
2667,-1.814370394
2668,2.053823948
2669,0.138660267
2670,-0.6883170009
2671,1.7001158
2672,2.412932634
2673,-0.06493937224
2674,0.2960810661
2675,-0.03313487396
2676,0.2617467344
2677,-0.2757541537
2678,2.930396557
2679,-1.28886652
2680,0.5425313711
2681,-0.2776461244
2682,-0.1580214947
2683,0.173944965
2684,-0.08975736797
2685,2.702590466
2686,2.613301039
2687,0.1725687534
2688,-1.031620145
2689,-0.07190898061
2690,-0.01538191736
2691,0.09782870114
2692,-0.0977492854
2693,-0.7509548664
2694,0.3057509959
2695,-0.2996706069
2696,0.278129071
2697,0.02579699457
2698,0.01538579166
2699,-0.05986461043
2700,0.355489552
2701,-0.3789433241
2702,0.4140950143
2703,0.6865392923
2704,-0.4290460944
2705,0.1739082187
2706,0.444067955
2707,0.2118973434
2708,0.7005420327
2709,0.0875197351
2710,0.3796404302
2711,-0.132751286
2712,0.4785469472
2713,0.1626071781
2714,0.2475938201
2715,-0.01787451468
2716,-0.7488180399
2717,0.9131656289
2718,0.1230700612
2719,0.2224693149
2720,-0.2676285207
2721,0.06195300817
2722,0.2929472029
2723,0.1331059486
2724,0.1732600033
2725,-0.2125050128
2726,0.2247993946
2727,0.7141144276
2728,-0.07893761247
2729,0.5518261194
2730,-0.03825749829
2731,0.1974690706
2732,0.1083040163
2733,-0.4835162759
2734,-0.8011841178
2735,0.241868034
2736,0.08692914248
2737,-0.2316604406
2738,0.1982448846
2739,-0.2678986788
2740,-0.3485956788
2741,0.04493786767
2742,0.01960502565
2743,0.2880015671
2744,-0.03920575231
2745,0.1607207656
2746,-0.3690505922
2747,0.538880229
2748,-0.7739078403
2749,-0.03340600803
2750,-0.10255225
2751,0.07402013242
2752,-0.4508830309
2753,-0.9262471199
2754,-0.1281434447
2755,0.407171458
2756,0.08204618841
2757,0.4570185542
2758,0.01195398904
2759,-0.2719368339
2760,0.9039957523
2761,0.7211562991
2762,-0.1075752303
2763,0.04224168882
2764,-1.372703314
2765,-0.5319904685
2766,-0.7739285827
2767,0.06828995049
2768,0.2279857695
2769,0.6405892968
2770,0.05677169934
2771,-0.05568241701
2772,0.1874361187
2773,0.3646013439
2774,0.396012336
2775,0.2577561736
2776,0.1598631591
2777,0.432998538
2778,-0.07676383853
2779,-0.1059599072
2780,0.1675438136
2781,0.330529958
2782,0.5504656434
2783,0.07300068438
2784,-0.3361111879
2785,0.5862081647
2786,0.1628400087
2787,0.8906112909
2788,0.1334334165
2789,0.3078534901
2790,-0.1280546486
2791,-0.2773677111
2792,-0.01725741848
2793,0.8053324223
2794,-0.03083026595
2795,-0.5794397593
2796,-0.625803709
2797,0.372735858
2798,0.2282344401
2799,0.1456201077
2800,-0.5017446876
2801,1.751661539
2802,0.2916996479
2803,0.07815066725
2804,-0.2211788744
2805,0.02478018589
2806,0.2399280965
2807,0.1810245514
2808,0.07741054893
2809,-0.3244229853
2810,0.1050092429
2811,-0.1432029456
2812,-0.03077797778
2813,0.07256133109
2814,0.2159568667
2815,0.2244288772
2816,-1.042171478
2817,0.8784434199
2818,-0.4994237423
2819,0.2131673843
2820,0.1201675162
2821,0.04913089052
2822,0.2798875868
2823,-0.4199188948
2824,-0.179072842
2825,-0.1869734675
2826,-0.06867275387
2827,-0.3196944594
2828,-0.02681058645
2829,-0.09282074124
2830,-0.08853942156
2831,0.3501182497
2832,0.1931603402
2833,-0.4079485238
2834,-0.1487315297
2835,0.3079876602
2836,-1.099782228
2837,-0.4455063641
2838,-0.207536906
2839,-1.060558796
2840,0.1367502362
2841,0.4003272653
2842,-0.1948064119
2843,-0.4630360603
2844,-0.1381959766
2845,0.01306205895
2846,0.2366053313
2847,-0.1354563236
2848,0.4277678728
2849,-0.1674698442
2850,0.09379932284
2851,-0.05721405521
2852,0.2701668143
2853,0.03435401991
2854,0.1005779058
2855,-0.2013038844
2856,-0.1604643315
2857,-0.9534298182
2858,0.1663371325
2859,-0.07813192904
2860,0.001219856553
2861,-0.1759719104
2862,-0.2632104754
2863,0.212007165
2864,-0.01180741563
2865,-0.5932270288
2866,-0.2453230321
2867,-0.1303224117
2868,0.2055445015
2869,-0.6228563786
2870,-0.2245393395
2871,-0.4537429214
2872,0.02885085158
2873,-0.3562696576
2874,-0.8211461306
2875,-0.1153737009
2876,-0.3444161117
2877,0.06993774325
2878,0.5561057925
2879,0.1018341258
2880,0.272115469
2881,0.2920645475
2882,0.02962093242
2883,0.08556123823
2884,-0.05094162002
2885,0.08429194242
2886,-0.1611937135
2887,0.0788243562
2888,-0.04765891284
2889,-0.01615528204
2890,-0.02493114397
2891,-0.2927690446
2892,0.01731462032
2893,0.2603100836
2894,0.2727436125
2895,-0.09649598598
2896,-0.2040003538
2897,0.01950047351
2898,-0.1842527986
2899,-0.07229062915
2900,-0.2568763793
2901,-0.1609171629
2902,0.09477196634
2903,-0.2826711535
2904,0.2834773362
2905,-0.2879618108
2906,-0.09207247943
2907,-0.1735209823
2908,0.2484011203
2909,0.1187709868
2910,0.02378457971
2911,0.04183767363
2912,-0.158154428
2913,-0.2156759948
2914,-0.1578955948
2915,-0.1287440807
2916,-0.1902927756
2917,-0.2460538894
2918,0.2434433401
2919,-0.129528746
2920,-0.2562761605
2921,0.05308857933
2922,0.03324314207
2923,0.00706151966
2924,-0.06961905211
2925,-0.1385806501
2926,0.1084623709
2927,0.1053956226
2928,-0.09934287518
2929,0.2019775957
2930,0.2058283389
2931,-0.1830717325
2932,-0.199406743
2933,-0.1731106341
2934,-0.1955530047
2935,0.07566919923
2936,0.140064612
2937,-0.2189565599
2938,-0.2677728832
2939,0.1047180295
2940,0.189198941
2941,-0.2768756747
2942,-0.2300559133
2943,-0.1339718848
2944,0.3703713119
2945,-0.03043808974
2946,-0.187624976
2947,-0.4342064857
2948,0.3644813299
2949,-0.4329582155
2950,0.1088490635
2951,-0.0652943328
2952,-0.04645304009
2953,0.2420122772
2954,-0.4965297878
2955,0.4213013947
2956,-0.2289773673
2957,0.5262008309
2958,0.0380095318
2959,-1.31803596
2960,0.0557750091
2961,0.2205060869
2962,-0.1362993419
2963,0.3379503489
2964,0.2991403043
2965,-0.2054016441
2966,0.02917653322
2967,-0.6160429716
2968,-0.5644911528
2969,-0.2707872689
2970,0.02067439444
2971,-0.6271865368
2972,-0.01995930821
2973,-0.3212378025
2974,-0.2804794312
2975,0.2895443738
2976,-0.4314705431
2977,-0.6265359521
2978,-0.2350496799
2979,-0.1404328346
2980,-0.1166682094
2981,-0.3985438049
2982,-0.2436890751
2983,-0.1863918602
2984,-0.1152354404
2985,0.2493790686
2986,-0.01122175809
2987,0.06280854344
2988,-0.002918530256
2989,0.3721798062
2990,-0.3067748547
2991,-0.4503075182
2992,-0.5574070811
2993,0.1270105839
2994,0.2895831466
2995,0.09580711275
2996,-0.2672812939
2997,-0.45573771
2998,-0.4944956601
2999,0.09563273937
3000,-0.09682716429
3001,0.6000348926
3002,0.9343702793
3003,0.07064554095
3004,0.3310908973
3005,-0.4593216181
3006,-0.1858112067
3007,-0.2826714218
3008,0.3998784125
3009,0.05385594815
3010,0.3504858911
3011,0.308608681
3012,0.3735870421
3013,0.3517297804
3014,0.1754215509
3015,0.136760816
3016,-0.2711313665
3017,0.1244096458
3018,0.212460503
3019,0.09049133956
3020,0.2808280885
3021,0.1255386919
3022,0.3470134139
3023,-0.4909797907
3024,-0.6342154145
3025,0.02003642544
3026,0.2693410814
3027,-0.6559634805
3028,0.3282891214
3029,-0.1101317182
3030,-0.0948683098
3031,0.634185195
3032,-0.2262660563
3033,0.04651819915
3034,-0.177777648
3035,0.419498533
3036,0.1424630731
3037,-0.2112145275
3038,-0.05479449034
3039,0.1952323169
3040,-0.187713176
3041,0.2891784608
3042,-0.1452323347
3043,0.02253548987
3044,0.5385212302
3045,-0.2805810869
3046,0.258477062
3047,-0.5756499767
3048,-0.2546218038
3049,-0.5666727424
3050,-0.06067514792
3051,-0.1064355895
3052,-0.3144134879
3053,-0.152485773
3054,-0.4113350213
3055,0.2426014841
3056,0.03822275996
3057,0.2712295651
3058,-0.5636661053
3059,0.2025053203
3060,-0.1150864139
3061,-0.3180622756
3062,-0.429513067
3063,-0.3968975544
3064,0.1256145686
3065,-0.07426688075
3066,0.5782994032
3067,0.1538672447
3068,0.3382256925
3069,0.3506965637
3070,-0.008215300739
3071,-0.4217462838
3072,0.08549212664
3073,0.2739575505
3074,0.1548852026
3075,-0.1516769528
3076,-0.2875516713
3077,0.1730631143
3078,-0.4102777541
3079,-0.4113271236
3080,0.3041597605
3081,0.03024401143
3082,0.237633273
3083,-0.09892879426
3084,-1.211238384
3085,-0.1232569739
3086,-0.4848881662
3087,-0.02718102746
3088,0.406236887
3089,0.2257294804
3090,-0.1365853846
3091,-0.1308439076
3092,-0.03393799812
3093,-0.06978222728
3094,-0.2422951907
3095,0.1534832269
3096,-0.3206979632
3097,-0.3153949976
3098,-0.05429304019
3099,0.4035920501
3100,-0.8040497899
3101,-0.4761097133
3102,0.0381314382
3103,0.6186369061
3104,-0.1320339441
3105,0.4336393178
3106,0.1052968428
3107,0.03063039295
3108,-0.2568802834
3109,-0.2042764127
3110,-0.4058436155
3111,0.001200261177
3112,0.04045386612
3113,0.01925308257
3114,-0.1409857422
3115,-0.02995176241
3116,-0.4757973254
3117,-0.5436211228
3118,-0.0869621411
3119,0.3418515325
3120,0.08284238726
3121,0.01773020439
3122,-0.1894352585
3123,-0.1917364597
3124,-0.2366891801
3125,-0.3830145299
3126,0.07170901448
3127,0.4468386173
3128,0.5025532842
3129,-0.1614088863
3130,-0.2349900156
3131,-0.001403363771
3132,0.06970836967
3133,-0.08429180831
3134,-1.017511606
3135,-0.206810683
3136,0.05214750767
3137,-0.4143970907
3138,-0.1577702165
3139,0.2837581635
3140,-0.2700435519
3141,-0.2382348925
3142,0.1721332073
3143,0.07247062773
3144,0.4244731963
3145,-0.087984927
3146,-0.5131770968
3147,0.4386870265
3148,0.05629391596
3149,-0.9428831339
3150,0.3459048867
3151,0.1844351739
3152,-0.4139234126
3153,0.086088337
3154,-0.4061403573
3155,-0.1849094182
3156,0.5585643053
3157,0.6731245518
3158,-0.7665701509
3159,0.4531417489
3160,0.1542433649
3161,-0.3187032044
3162,0.1341968179
3163,-0.9744144082
3164,-0.2181707919
3165,-0.2967581749
3166,0.2437424213
3167,0.0818125084
3168,-0.05333838984
3169,-0.1068933159
3170,-0.0261063613
3171,0.004181921016
3172,-0.1359403282
3173,0.1097906902
3174,-0.3924900293
3175,0.4204240739
3176,-0.02682193741
3177,0.5196342468
3178,0.2619366646
3179,0.2834278643
3180,0.326133579
3181,-0.4525132179
3182,-0.4718776941
3183,0.313214004
3184,-0.4612238407
3185,0.4843040109
3186,0.03356897086
3187,0.2703632414
3188,-0.1527571678
3189,-0.4017722607
3190,-0.00237761531
3191,-0.6963983774
3192,-0.5708940625
3193,0.2358030081
3194,0.4647824764
3195,0.04108113423
3196,0.3341625631
3197,0.1966876835
3198,-0.0993335247
3199,-0.7735546231
3200,-0.04693175107
3201,-0.5767754316
3202,-0.6658299565
3203,-0.9433162212
3204,0.5115226507
3205,-0.3704683185
3206,0.6041817665
3207,-0.4276067019
3208,-0.03425527737
3209,0.3632385433
3210,-0.2364087999
3211,0.4498426914
3212,0.6171111465
3213,1.221592307
3214,0.588137567
3215,1.594287872
3216,-1.032382965
3217,0.7728180885
3218,0.426086694
3219,-1.566253901
3220,0.2174118906
3221,0.6776838899
3222,-0.8118022084
3223,-0.8809674382
3224,1.239263177
3225,-0.1862206161
3226,0.2557672858
3227,-1.163314342
3228,0.4050310254
3229,-0.1927545816
3230,0.2678475976
3231,-0.1836563647
3232,-0.2674562335
3233,-1.587008476
3234,-0.05729215965
3235,0.1805514693
3236,0.4977972507
3237,-0.4378104508
3238,0.2790835798
3239,0.06251010299
3240,-0.248550266
3241,0.6954459548
3242,0.005762548186
3243,-0.1898068041
3244,-0.5617508292
3245,-0.133768633
3246,0.4569242001
3247,0.6244126558
3248,-0.1518736929
3249,1.573069811
3250,0.6010357738
3251,-0.2804299295
3252,-0.1667096615
3253,-0.5982651711
3254,-0.6075149775
3255,-0.02374184504
3256,-1.635640502
3257,0.1836102456
3258,1.047015429
3259,0.7591204047
3260,0.7048335075
3261,-0.1364858896
3262,-0.3973778784
3263,0.7852531672
3264,0.5425268412
3265,-1.169513226
3266,0.1456047744
3267,-0.8953847289
3268,0.09906020761
3269,-0.3399446607
3270,-0.2901892066
3271,-0.6309075356
3272,-0.5142835379
3273,-0.4682039022
3274,-0.06721424311
3275,0.5659908652
3276,-0.2037980109
3277,0.6665722132
3278,0.04098433629
3279,-0.9780128002
3280,-0.4885253906
3281,0.3180738986
3282,0.1441266537
3283,0.09409432113
3284,0.9074832797
3285,-0.007595627569
3286,-1.32745409
3287,-0.0870135203
3288,-0.2759584785
3289,-0.5236663222
3290,-0.1838521957
3291,-1.239629745
3292,-0.1766852587
3293,-1.402365685
3294,0.3312964737
3295,-0.2888332307
3296,1.093085408
3297,-1.211778641
3298,-1.692914486
3299,-0.4808581769
3300,-1.350194573
3301,-0.01009305846
3302,0.04901750758
3303,-0.5418842435
3304,0.09654334933
3305,-1.147064447
3306,-0.009139409289
3307,0.1617368162
3308,-1.00042212
3309,-0.2558605075
3310,0.1771990657
3311,-0.5823644996
3312,-0.8708525896
3313,-1.304514885
3314,0.8438971639
3315,0.1882344186
3316,0.2868886292
3317,0.08859244734
3318,-1.595434308
3319,0.298964709
3320,-0.3905164301
3321,-0.2712101936
3322,0.3794914782
3323,0.05542653427
3324,-0.2675750256
3325,-1.568517447
3326,-0.7295641899
3327,-0.412968576
3328,-0.1664821357
3329,0.2683079243
3330,-0.08385510743
3331,-0.3436019421
3332,0.04320252687
3333,0.2944830656
3334,0.2608842552
3335,0.363931179
3336,-0.1172187328
3337,0.3884231448
3338,-0.6160238981
3339,-0.2027042806
3340,-0.174990356
3341,0.1698496342
3342,0.259783268
3343,-0.4665708244
3344,-0.2752457559
3345,0.04388946667
3346,-1.668368459
3347,-0.1197886094
3348,0.1147406772
3349,0.2559983134
3350,0.1932204515
3351,-0.1199359298
3352,-0.07752969861
3353,-0.04121884331
3354,-0.2512237728
3355,1.16037786
3356,-0.09075852484
3357,-1.41305232
3358,-0.9252417088
3359,-0.07474862039
3360,-0.7347069383
3361,-0.8243687749
3362,-1.437108636
3363,0.03062816896
3364,0.2029271424
3365,0.1512634754
3366,0.5316627622
3367,0.1556707919
3368,-0.2968120575
3369,-0.9790685177
3370,-0.07423160225
3371,-0.421938777
3372,-0.09606583416
3373,-0.3521945179
3374,0.4485372007
3375,-0.01317653991
3376,1.20273304
3377,-0.4801732898
3378,0.6005955935
3379,0.1801358312
3380,-0.1592955589
3381,-0.2267930955
3382,0.2926923335
3383,-0.9124791622
3384,-0.03185762838
3385,-0.4087231755
3386,-0.2984039187
3387,-0.7017374635
3388,-0.3808551729
3389,0.005959976465
3390,0.8996247649
3391,0.391531229
3392,0.01509932242
3393,-0.387595892
3394,0.1917506158
3395,-0.00126302056
3396,-0.2362450063
3397,0.09179230779
3398,-0.09331191331
3399,-0.08500231057
3400,0.06489806622
3401,0.05570203811
3402,0.6158891916
3403,-0.1660827696
3404,0.4309956431
3405,-0.1024272889
3406,0.3087517321
3407,-1.112544894
3408,0.872878015
3409,0.3065935671
3410,-0.499933213
3411,0.1802790612
3412,-0.386323005
3413,-0.0208926592
3414,0.5618247986
3415,-0.3255643845
3416,-0.7741765976
3417,-0.1495272219
3418,-0.1036718413
3419,0.9889750481
3420,0.1478673965
3421,-0.606661737
3422,-0.02690964006
3423,-0.7563622594
3424,-0.2408807427
3425,0.08079785109
3426,-0.02365506254
3427,-0.08082798868
3428,-1.982810497
3429,-0.2318966687
3430,0.157743454
3431,-0.6326777339
3432,0.1940831244
3433,-1.12434566
3434,-0.1717798114
3435,-0.2645809054
3436,-0.0127997864
3437,0.3495796621
3438,-0.6263167858
3439,-0.1551487744
3440,0.40572083
3441,0.2014923096
3442,-0.6452316046
3443,0.5136466622
3444,0.1890359521
3445,0.3924975991
3446,0.6611219645
3447,-1.007776022
3448,0.5049906969
3449,-0.01225194521
3450,-1.702328682
3451,-0.1530746669
3452,-0.4401075244
3453,0.1307834238
3454,-0.8515561819
3455,-0.2706282437
3456,-0.09031873941
3457,0.2845517993
3458,0.2424292713
3459,0.3432763517
3460,-0.3177598715
3461,0.5077721477
3462,0.04591023549
3463,-0.2431079149
3464,-0.8142060637
3465,0.1184222251
3466,0.6708369255
3467,-0.3636784256
3468,0.3125874698
3469,-0.3052420914
3470,-0.09122574329
3471,0.9371556044
3472,0.9028884768
3473,0.275734514
3474,-0.06457817554
3475,0.03024940938
3476,0.1774678826
3477,0.1258405
3478,0.1674007624
3479,-0.4902821481
3480,0.2228675187
3481,-0.2799203396
3482,-0.3056207597
3483,0.5340616107
3484,-0.175284788
3485,-0.1340932399
3486,0.07706320286
3487,0.6270745993
3488,0.9001007676
3489,0.07770237327
3490,-0.5880449414
3491,0.5095945001
3492,0.3471803367
3493,-0.0001463939698
3494,-0.3943348229
3495,-0.5501486659
3496,0.5611044168
3497,-1.781449437
3498,0.8323354125
3499,-0.2185717821
3500,-0.3707405031
3501,-0.1363325566
3502,-0.6716800332
3503,0.8131924868
3504,0.6131854653
3505,-0.9868242741
3506,0.3416534066
3507,-0.2441309392
3508,-0.1446554512
3509,-0.3974448442
3510,0.6906123757
3511,-0.08726457506
3512,0.6170081496
3513,-0.0491668582
3514,0.03553452715
3515,0.3463272452
3516,-0.7747195959
3517,0.588911891
3518,0.9370008111
3519,0.2339667529
3520,-0.8095051646
3521,0.4207521379
3522,0.1161251888
3523,-0.09406097233
3524,0.4198915362
3525,-0.1334965378
3526,-0.7451920509
3527,-0.2018642426
3528,0.003631036729
3529,-0.1089612097
3530,-0.7178869247
3531,0.2046073079
3532,0.2408554256
3533,-0.02057685703
3534,-0.09353543073
3535,-0.1783841103
3536,-0.0486372076
3537,-0.1307273209
3538,-0.3890846074
3539,0.123970367
3540,-0.7601342797
3541,0.2722089291
3542,0.5722007751
3543,0.04463072121
3544,0.2854639888
3545,0.7694930434
3546,-0.3329868019
3547,0.6392694116
3548,0.1250510216
3549,-0.2915358543
3550,-1.061387777
3551,-0.2262139618
3552,-1.206553698
3553,-0.3464186788
3554,-0.8918451667
3555,-0.1756662875
3556,-0.5009843707
3557,-0.1431004852
3558,0.7556174994
3559,-0.6065416932
3560,-2.008649349
3561,-0.8879057765
3562,-0.3347020149
3563,0.1019149423
3564,-0.1580404639
3565,-0.255248189
3566,-0.2223820388
3567,0.05268344656
3568,-1.072760582
3569,-0.6560446024
3570,0.1790928692
3571,0.4402555823
3572,-0.3008681536
3573,0.2903430164
3574,-0.08391404897
3575,-0.03984171897
3576,0.24834387
3577,0.796467483
3578,-0.2879879773
3579,0.450953424
3580,0.6193499565
3581,-0.1174474433
3582,-0.7406297326
3583,0.3391032815
3584,0.06373478472
3585,0.2554134727
3586,-0.6830495
3587,0.289958328
3588,-0.05191573501
3589,-0.1344908625
3590,-0.4453563392
3591,-0.02298828773
3592,0.384331286
3593,0.1282381713
3594,0.07666248828
3595,0.1486720145
3596,-0.2706980407
3597,0.07565099001
3598,-0.03378165886
3599,-0.2394692153
3600,-0.1720348299
3601,0.439822346
3602,-1.085483909
3603,-0.09219711274
3604,0.1161218882
3605,-0.5167350769
3606,-0.09513572603
3607,-1.864266157
3608,-0.08711983263
3609,0.2654956877
3610,-0.1834869534
3611,0.5507262349
3612,-0.9029688239
3613,-1.449708581
3614,-0.1175476611
3615,0.2854886055
3616,0.2363063544
3617,-0.05755583197
3618,0.2533498704
3619,-0.2973666489
3620,-0.4847261608
3621,-0.5540485978
3622,-0.320373565
3623,0.3368996978
3624,-0.2305337936
3625,0.2517955601
3626,0.4461580813
3627,-0.2319868207
3628,0.09399216622
3629,-0.7144932151
3630,0.003200277919
3631,-0.2359747589
3632,-0.09993410856
3633,0.2700975239
3634,-0.6360151768
3635,0.1538404077
3636,0.02820800804
3637,0.1392259151
3638,0.04206148908
3639,-0.1221595183
3640,0.3315512836
3641,-0.0554546304
3642,0.1576013416
3643,0.1141376421
3644,-0.1618572026
3645,-0.1475357264
3646,-1.243757963
3647,0.0528530404
3648,-0.09657609463
3649,0.05061163008
3650,-0.4744225144
3651,0.1747421026
3652,0.6623339653
3653,-0.168327719
3654,-0.2944742441
3655,-0.1436776072
3656,-0.08792601526
3657,-0.3284308016
3658,-0.5213982463
3659,-0.2527444661
3660,-0.04337472469
3661,0.4539311528
3662,-0.7868722081
3663,-0.09955839068
3664,-1.511480451
3665,-0.2637574971
3666,0.07156960666
3667,-0.5663612485
3668,-0.6253340244
3669,-0.3904163837
3670,-2.379009485
3671,0.07874207944
3672,0.1776155978
3673,0.1191354692
3674,-0.1158014908
3675,-0.06375327706
3676,0.009980114177
3677,0.3194829822
3678,-0.21488747
3679,-0.2264287919
3680,0.5147469044
3681,-0.04672562703
3682,-0.3011171222
3683,0.09876064211
3684,0.08887016773
3685,-0.1900578886
3686,-0.9431901574
3687,0.9106639624
3688,-0.286154002
3689,-0.8546997905
3690,-0.334528327
3691,0.285708487
3692,-0.04573056102
3693,0.4307790399
3694,-0.2413545102
3695,-0.03991095349
3696,0.2910755873
3697,-1.096583605
3698,-0.3415497541
3699,-1.553685308
3700,-0.2086599767
3701,-0.2616513371
3702,-1.445882797
3703,-1.412199616
3704,0.5195732117
3705,-0.1560718268
3706,-0.5234749913
3707,-0.4988354743
3708,0.2318270355
3709,-0.6224113107
3710,-0.04533805326
3711,-0.08810881525
3712,0.001494502416
3713,0.4842369258
3714,-0.1305236965
3715,-0.05751491711
3716,-0.6869229078
3717,-0.327942729
3718,-0.4146851003
3719,0.038210731
3720,-0.05408266559
3721,0.06134822965
3722,-0.8654543757
3723,-0.3139315844
3724,-0.3265624642
3725,-1.125714898
3726,0.0571940802
3727,0.670126915
3728,-0.2135255486
3729,-0.4139565527
3730,0.02815185115
3731,-0.4882832468
3732,-0.04315888882
3733,-0.2374065816
3734,0.2659857869
3735,0.2017951608
3736,0.4595730901
3737,-0.8867554665
3738,-0.2958015501
3739,0.03542057052
3740,-0.09838923812
3741,0.3280333281
3742,0.1280076504
3743,0.1843935996
3744,0.2842041254
3745,0.356084168
3746,0.09651716053
3747,-0.1672947705
3748,-0.1177487224
3749,0.1948667169
3750,-0.1310326159
3751,-0.4091426134
3752,-0.4741696417
3753,0.324413538
3754,0.2113880664
3755,0.1113397181
3756,0.304445833
3757,-0.5366535187
3758,-0.2430616915
3759,0.1219628081
3760,0.1284875125
3761,-0.4263049364
3762,0.2075209022
3763,-0.5966618061
3764,0.0678204596
3765,0.1473166645
3766,-0.3270409405
3767,0.1332066506
3768,-0.3018268645
3769,0.2351394743
3770,-0.1646357775
3771,0.1534697711
3772,0.2947170436
3773,-0.3352628052
3774,0.4481731951
3775,0.154582724
3776,-0.8382519484
3777,-0.03051380813
3778,0.2777474225
3779,0.1345633566
3780,-0.1940143555
3781,0.4137478769
3782,-0.7602538466
3783,-0.4911347032
3784,0.2066755444
3785,-0.1770860404
3786,0.2737812102
3787,-0.1410270631
3788,-0.1007781252
3789,-0.3413449526
3790,-0.1274793744
3791,-0.004900580738
3792,-0.0705242455
3793,0.2382157296
3794,0.1843581051
3795,-0.3365633488
3796,-0.864141047
3797,-0.2014032751
3798,-0.1683188528
3799,-0.05131582916
3800,0.3656829
3801,0.5045850873
3802,0.1251430213
3803,0.3154720664
3804,-0.3816328943
3805,-0.5508381724
3806,-0.2951194346
3807,0.2625928223
3808,-0.1909778863
3809,0.5002967119
3810,-0.3287319541
3811,0.4793966413
3812,-0.7595765591
3813,-0.1460967362
3814,0.005389100872
3815,-0.01474015787
3816,-0.1745600551
3817,0.0820800066
3818,0.415781945
3819,-0.5116159916
3820,-0.3416404724
3821,-0.1989212483
3822,0.2872385383
3823,0.336400032
3824,0.2993322611
3825,0.008309707977
3826,0.2463783473
3827,-0.3064279258
3828,0.09245469421
3829,-0.3219714165
3830,-0.06992973387
3831,0.5520664454
3832,0.1515423506
3833,0.3319756985
3834,-0.2012271434
3835,-0.4212532938
3836,-0.5769951344
3837,0.2236647308
3838,-0.5213814378
3839,0.1450999379
3840,-0.4433052242
3841,-0.877613008
3842,0.309699893
3843,0.06342884153
3844,0.260083288
3845,0.2540084422
3846,0.2189445049
3847,-0.5017614365
3848,0.4169310629
3849,-0.09736444056
3850,0.2180770189
3851,0.2314077169
3852,0.2832722664
3853,0.2415923178
3854,0.09613524377
3855,-0.6339105964
3856,0.1777113825
3857,-1.604170322
3858,-0.2714260817
3859,-0.179204911
3860,-0.2973157465
3861,-0.859359026
3862,0.06735499948
3863,-1.023883939
3864,-0.03420140222
3865,0.1084783226
3866,0.1982967556
3867,0.2446088642
3868,0.3992309868
3869,0.6489240527
3870,0.158250317
3871,-1.04646039
3872,0.06435069442
3873,0.276072979
3874,0.2768581212
3875,-0.141709432
3876,-0.7428024411
3877,-0.5310012698
3878,0.2693335414
3879,0.1519683599
3880,-0.06373148412
3881,-1.487627625
3882,0.09939092398
3883,-0.4924530983
3884,0.1476035267
3885,0.06162364036
3886,0.3555374742
3887,-0.007324031554
3888,-0.2292401195
3889,-1.228932261
3890,-1.168356776
3891,0.4399241507
3892,-0.128781423
3893,-0.2586269975
3894,-0.07110182196
3895,-0.181296289
3896,0.2388960272
3897,-0.8645376563
3898,-1.653594613
3899,-0.262901336
3900,0.02247774974
3901,0.06931269914
3902,-0.3182045519
3903,-1.238451123
3904,-0.04953701794
3905,0.06342931092
3906,-0.1355217695
3907,-0.2174476683
3908,-0.1594237089
3909,0.1400258094
3910,-0.1213275939
3911,0.1012669653
3912,0.06722404808
3913,0.08472817391
3914,-0.2254828662
3915,-0.01537963562
3916,0.09653902054
3917,-0.1613860577
3918,-0.148185268
3919,-0.3030487597
3920,0.1799464822
3921,0.2230495661
3922,0.1537123471
3923,0.05667173862
3924,0.2177705169
3925,0.02265653946
3926,-0.0803764388
3927,0.1837972254
3928,0.01042799931
3929,0.2909160852
3930,0.02499525622
3931,0.045152843
3932,0.1051732227
3933,-0.1295194328
3934,-0.07939953357
3935,0.2435033172
3936,-0.2299981266
3937,-0.2835824192
3938,0.1117905006
3939,0.04225454107
3940,0.2586648762
3941,-0.1804789901
3942,0.01051025093
3943,-0.08201784641
3944,0.19981727
3945,0.1733326763
3946,0.03130786493
3947,-0.2375380099
3948,-0.1227461025
3949,0.04689668119
3950,0.300755769
3951,0.1168373078
3952,-0.03482526541
3953,0.1946658641
3954,-0.1798985749
3955,0.2369054705
3956,-0.1019962057
3957,-0.1422608346
3958,-0.0367458351
3959,0.2220565528
3960,0.2647713423
3961,-0.2521617115
3962,-0.05020526424
3963,-0.01003072225
3964,0.2296029478
3965,0.1805915385
3966,-0.01104895119
3967,-0.2695831358
3968,-0.1395546794
3969,0.0267911423
3970,0.01921818033
3971,0.256840378
3972,-0.1483608335
3973,-0.251327306
3974,0.2246170491
3975,-0.2633153796
3976,0.05572608858
3977,0.2727500498
3978,-0.2281208634
3979,0.05537729338
3980,-0.08595287055
3981,0.2347656935
3982,0.2181261033
3983,0.2757495642
3984,-0.2716375291
3985,-0.258928895
3986,0.2426028848
3987,0.02799240127
3988,-0.1205897927
3989,-0.1798778027
3990,-0.3000257313
3991,0.3006666005
3992,0.03734796122
3993,-0.2177222818
3994,0.06647161394
3995,0.3034446239
3996,-0.2734816968
3997,0.2463021129
3998,-0.01603216678
3999,-0.1861681789
4000,0.09654992819
4001,-0.2366887778
4002,0.187080428
4003,0.02585450932
4004,0.101146847
4005,-0.1834512502
4006,0.30308339
4007,-0.1742882282
4008,0.04838892072
4009,0.1125843078
4010,-0.2272088975
4011,-0.1163477153
4012,0.1769262403
4013,-0.08537470549
4014,0.2054802775
4015,-0.29668957
4016,0.1746279597
4017,0.2084668279
4018,-0.1202339903
4019,0.1309690028
4020,-0.1654519439
4021,0.05341076851
4022,-0.2992870212
4023,-0.143433094
4024,0.01534240227
4025,-0.2962418199
4026,0.1870669872
4027,0.008678626269
4028,-0.2775824964
4029,-0.04527727515
4030,0.2884601653
4031,-0.150473386
4032,-0.02339107171
4033,-0.7920985222
4034,-0.06012525037
4035,0.08720277995
4036,0.3422702849
4037,0.02202923782
4038,0.2292651683
4039,-0.3162945211
4040,-0.3721223474
4041,-0.2584581077
4042,-0.4690186977
4043,-0.130600825
4044,-0.3482334912
4045,0.6327018142
4046,-0.7114658356
4047,-0.9276275635
4048,-1.103335619
4049,-0.2004322261
4050,0.112545535
4051,-0.2136390507
4052,0.5649005771
4053,-0.3063134849
4054,-0.7317388654
4055,-0.47334373
4056,-0.04804848135
4057,0.221434027
4058,-0.07760267705
4059,0.2101903707
4060,-0.743712306
4061,-1.115835786
4062,-0.2741701603
4063,-0.4977489114
4064,-0.4260582626
4065,-1.00880456
4066,-0.6946157813
4067,-0.2838829458
4068,-0.02086530812
4069,-0.3965389729
4070,-0.3920823038
4071,-0.3872983158
4072,-0.4716615975
4073,0.8139556646
4074,0.3568060398
4075,-0.3478904665
4076,0.1773297489
4077,0.04809516668
4078,0.4565005302
4079,-0.5825089216
4080,-0.0682856217
4081,-0.07314341515
4082,-0.5497223735
4083,-0.5569602847
4084,-0.04227559268
4085,-0.3020270467
4086,-0.34486112
4087,-0.9979560375
4088,-0.246303305
4089,0.1882146299
4090,0.8987903595
4091,-0.3896037936
4092,0.3831989467
4093,-0.9814537764
4094,-1.320272684
4095,-0.5277549028
4096,-0.3802955151
4097,-0.2111319602
4098,-0.1391038448
4099,0.3631293178
4100,-0.4593326449
4101,0.2742294371
4102,-1.120358348
4103,-0.4111783206
4104,-0.4222926199
4105,0.09069121629
4106,0.3390337527
4107,0.5360255241
4108,0.08620402962
4109,-0.5140827894
4110,-0.01100330241
4111,-0.7810424566
4112,0.02264974453
4113,0.1766497642
4114,0.1410905868
4115,-0.608137548
4116,0.07379911095
4117,-0.08322630823
4118,0.09287255257
4119,0.1957893819
4120,-0.09968947619
4121,-0.4855586886
4122,0.0360718593
4123,-0.07387197018
4124,0.3609484136
4125,-0.5022347569
4126,-0.4403928816
4127,0.3872341812
4128,0.0303589087
4129,-0.06391359866
4130,-0.5122610331
4131,-0.04126283154
4132,-1.076985955
4133,0.02689816244
4134,0.1684154421
4135,-0.384221524
4136,0.1400418878
4137,-0.3154429495
4138,0.1883693933
4139,0.07534059882
4140,-0.1037289575
4141,0.1463574618
4142,-0.2215887755
4143,0.1101613045
4144,-0.1201362908
4145,-0.6553423405
4146,0.03835509717
4147,-0.2378005534
4148,0.1426891387
4149,-0.002662218641
4150,0.08298204839
4151,0.2987065613
4152,0.3732636571
4153,-0.1398728937
4154,0.08213101327
4155,0.2389335036
4156,-0.1898712218
4157,-0.07599779218
4158,-0.4351713955
4159,0.2440384179
4160,-0.130283922
4161,-0.603782773
4162,-0.1219299734
4163,-0.2805080414
4164,-0.8645658493
4165,0.1858084798
4166,0.1498206705
4167,-0.04237307981
4168,0.2859993279
4169,-0.2713960409
4170,0.1558879912
4171,-0.2109594792
4172,-0.1700991988
4173,-0.4349027574
4174,-0.3362548649
4175,-0.5850579143
4176,0.07557617128
4177,-1.213204384
4178,0.428317517
4179,0.3134714961
4180,-0.8550102115
4181,-0.7276299596
4182,0.5570454597
4183,-0.2331586927
4184,0.01588934101
4185,-0.07976030558
4186,-0.2050274312
4187,-0.3013149202
4188,0.1008452326
4189,-0.1117527708
4190,-0.312060833
4191,0.03805584833
4192,0.4056529403
4193,-0.05793216452
4194,0.1668468714
4195,0.8046947718
4196,0.06591868401
4197,-0.2154074162
4198,0.9502988458
4199,-1.377769947
4200,0.04421296343
4201,-3.649820089
4202,-1.007969499
4203,0.4950657189
4204,-0.03328518569
4205,-0.5247014165
4206,0.392593801
4207,-0.3832581341
4208,0.4212178588
4209,-0.9662569761
4210,-1.175972342
4211,-0.8812550902
4212,-0.1288001388
4213,0.1758880466
4214,0.524091661
4215,-0.7450211048
4216,-0.2265919149
4217,-0.6868112087
4218,-0.1962940246
4219,-1.347653627
4220,0.5694766045
4221,0.3407428563
4222,0.1901242435
4223,-2.101817131
4224,0.4053252637
4225,-0.08186036348
4226,0.2526160777
4227,0.2025157362
4228,-0.1040688157
4229,0.0312428344
4230,0.1355594099
4231,-0.2990136445
4232,-0.0383634232
4233,0.1122374833
4234,-0.1733117402
4235,-0.21237275
4236,-0.005549055059
4237,-0.2071076334
4238,-0.2074520737
4239,-0.6381821632
4240,-0.2588131726
4241,0.3098336756
4242,-0.1539431959
4243,-0.06018157303
4244,0.09190861136
4245,-0.1492404789
4246,-0.4157928824
4247,0.1511188
4248,-0.4912148714
4249,0.2075211108
4250,-0.08682951331
4251,-0.1645921022
4252,-0.3800207973
4253,0.3018524051
4254,0.1756000668
4255,-0.02756617405
4256,-0.001841725665
4257,0.0686499849
4258,0.03587974608
4259,0.2474891543
4260,0.1015203074
4261,-0.6963611841
4262,-0.2768057883
4263,-0.03495693579
4264,0.1368433088
4265,0.2765682042
4266,-0.1479592919
4267,0.1802329123
4268,-0.3017700613
4269,-0.3421582878
4270,-0.09322986007
4271,-0.2278293222
4272,-0.08680829406
4273,-0.0281702131
4274,-0.3573215902
4275,-0.2771549225
4276,-0.284349978
4277,-0.07415536046
4278,-0.5219572186
4279,0.2795889974
4280,0.04386233911
4281,-0.8515544534
4282,0.2471867651
4283,0.02895028144
4284,0.1473938674
4285,0.1292970628
4286,0.01782649755
4287,-0.2570704818
4288,0.2511680722
4289,0.5380728245
4290,-0.001610319829
4291,0.2697666287
4292,-0.03045798466
4293,-0.3654621243
4294,0.4975969493
4295,0.175220415
4296,-0.4260533154
4297,0.1397478431
4298,-0.273561269
4299,0.1887061
4300,-0.8125129938
4301,0.1382939219
4302,-0.1048703566
4303,-0.4016603231
4304,0.2532291114
4305,-0.2316450477
4306,-0.2507170439
4307,0.07862474024
4308,-0.512317121
4309,0.4908064902
4310,0.3821634352
4311,0.1965415329
4312,-0.1955558509
4313,-0.07770023495
4314,-0.03525465727
4315,-0.2418930531
4316,0.302328825
4317,-0.2456043512
4318,-0.004422282334
4319,0.1195146069
4320,-1.386485934
4321,0.2437056303
4322,-0.125931561
4323,-0.4812154472
4324,0.1193552166
4325,-0.09939101338
4326,0.3816790581
4327,0.1283259988
4328,0.2589057684
4329,0.3865990937
4330,-0.3979602754
4331,0.125126943
4332,0.07401213795
4333,0.2686364055
4334,0.3058152199
4335,0.02373876609
4336,0.3015462458
4337,-0.1954069585
4338,-0.8287119269
4339,0.02565401979
4340,-0.2553153932
4341,0.169421047
4342,0.1223406494
4343,-0.3570242226
4344,0.265324533
4345,-0.1585721523
4346,-0.04731410369
4347,-0.009026246145
4348,0.2092598379
4349,0.06156051159
4350,-0.003592923284
4351,-0.07479529828
4352,-0.04084469751
4353,0.3393976986
4354,-0.006310913712
4355,0.2489144653
4356,-0.580370605
4357,-0.2563988268
4358,0.5699022412
4359,-0.04107461497
4360,0.06648148596
4361,0.1369108111
4362,-0.3385034204
4363,-0.1283676475
4364,0.5779954791
4365,-0.4667865932
4366,0.2240268439
4367,-0.5019353628
4368,-0.353585124
4369,0.3187371194
4370,0.1695857346
4371,-0.3487554789
4372,-0.01699228957
4373,0.2522586286
4374,0.408212781
4375,0.148107782
4376,-0.4041809142
4377,-0.144683063
4378,0.1841235459
4379,0.5819679499
4380,-0.1447930038
4381,-0.09269428998
4382,-0.01508360635
4383,0.1566080749
4384,-0.2181274742
4385,0.431797415
4386,-0.4333457649
4387,-0.1974747181
4388,-0.137551561
4389,-0.1761361659
4390,0.1163172573
4391,-0.2781061828
4392,0.1479627341
4393,-0.4534442127
4394,0.1211339012
4395,0.1907019466
4396,0.1387759745
4397,0.5348241925
4398,-0.6862314343
4399,-0.01414972171
4400,0.005324999802
4401,-0.4305948913
4402,-0.7250362039
4403,0.3019047678
4404,-0.2083542943
4405,-0.08046848327
4406,-0.03114804439
4407,-0.6673930287
4408,-0.3481451273
4409,-0.3740950823
4410,0.6486679316
4411,0.06971795112
4412,-0.3292988837
4413,-0.1432911307
4414,0.007421671879
4415,-0.07237496227
4416,-0.6076173186
4417,-0.7986576557
4418,0.2195178419
4419,-0.1847385615
4420,-0.1782386452
4421,0.06197486073
4422,-0.4646874666
4423,-0.1002402231
4424,-0.1369896382
4425,0.1328309327
4426,0.00309790601
4427,0.2775105238
4428,-0.2696084678
4429,-0.3342472911
4430,-0.3433356285
4431,-1.764127493
4432,-0.5667748451
4433,0.4448390305
4434,-0.0403836295
4435,-0.06708703935
4436,-0.3433022499
4437,-0.05549377203
4438,0.003075721674
4439,-0.08919164538
4440,-1.648505807
4441,0.1332777143
4442,-0.3454752266
4443,-0.2008782774
4444,0.002482434502
4445,-0.5072040558
4446,-0.2026457787
4447,0.5144664049
4448,-0.4487121999
4449,-0.08461390436
4450,-0.1840275079
4451,-0.2316404581
4452,-0.2703282833
4453,-0.2187577784
4454,0.3293924034
4455,0.3249042034
4456,-0.3078148365
4457,-0.01988822594
4458,0.01909566484
4459,0.0578966178
4460,-0.08249426633
4461,-0.5215625167
4462,0.2089419216
4463,-0.413492918
4464,0.268401593
4465,0.3166652918
4466,-0.2047804445
4467,0.07648308575
4468,-0.05100337043
4469,-0.1815073341
4470,0.03027663939
4471,-0.1001272574
4472,0.2468925864
4473,-0.2148033381
4474,0.2602516115
4475,0.1058084965
4476,0.02719346993
4477,0.2197955251
4478,-0.8951052427
4479,-0.08862934262
4480,-0.2416062653
4481,-0.08009766042
4482,-0.8977699876
4483,-0.293599993
4484,-0.7908865809
4485,-0.5248387456
4486,-0.1106004417
4487,0.2456113249
4488,-0.144120574
4489,0.5857877731
4490,-0.6750858426
4491,0.3038389981
4492,0.2782970369
4493,-0.6924728155
4494,-0.2001778334
4495,0.01331070997
4496,-0.9493451715
4497,0.2392407805
4498,0.4028964639
4499,-0.7832122445
4500,0.2746788561
4501,0.1706525683
4502,-0.256914705
4503,0.2442015111
4504,-0.01383501478
4505,-0.2751393318
4506,-0.1982744038
4507,0.3402299285
4508,0.4801933765
4509,-0.1222354695
4510,0.6177607775
4511,0.2941713035
4512,0.1118079051
4513,-0.8556473851
4514,0.3625115156
4515,0.01878558844
4516,0.07704824954
4517,0.1676736176
4518,0.3060909212
4519,0.257601887
4520,-0.1223514602
4521,-0.2204559296
4522,-0.3440872729
4523,0.03633577749
4524,0.2470468879
4525,-0.3837150037
4526,0.06164623052
4527,-0.05373288319
4528,0.002039681422
4529,-0.1827557683
4530,0.4414585829
4531,-0.03143714368
4532,-0.0985191986
4533,0.1973233819
4534,0.05851884931
4535,0.09148971736
4536,-0.3192194998
4537,-0.6930884123
4538,0.2801652849
4539,0.3606991768
4540,-0.3481992185
4541,-0.03569617122
4542,-0.1311766803
4543,0.01421345584
4544,0.5532326102
4545,-0.251444459
4546,-0.4241950512
4547,0.01478267089
4548,0.3800362051
4549,-0.6514478326
4550,0.04801221564
4551,-0.4329375327
4552,0.2123388499
4553,-0.4934866428
4554,-0.2801079154
4555,-0.08037723601
4556,-0.4393348098
4557,0.2144865692
4558,-0.06848031282
4559,0.5277527571
4560,-0.207299009
4561,0.2381640822
4562,-0.7816283703
4563,0.1894996464
4564,-0.5156919956
4565,-0.1792265028
4566,-0.7927613258
4567,0.4101347923
4568,0.0706191957
4569,-0.5434334278
4570,0.217328012
4571,-0.8521512747
4572,0.2993774116
4573,0.2380642295
4574,-0.1132812724
4575,0.1134889647
4576,-0.4799905419
4577,-0.09117498994
4578,0.2526621222
4579,-0.4371996522
4580,0.4910823107
4581,-0.08130381256
4582,0.2619408965
4583,-0.2091038674
4584,0.1108943149
4585,-0.4035441577
4586,-0.4052454233
4587,-0.3207020462
4588,-0.1535395235
4589,0.08669327199
4590,-0.1589030772
4591,0.197898373
4592,-0.838745892
4593,0.2376704961
4594,-0.8270165324
4595,-0.2824136913
4596,-0.1831295192
4597,-0.1037782654
4598,-0.4839984775
4599,-0.3039905727
4600,-0.6206799746
4601,0.04569241032
4602,0.2615479231
4603,0.1458767503
4604,0.405644536
4605,-0.486554116
4606,-0.6177027225
4607,-1.162700295
4608,0.3324868083
4609,0.1424515396
4610,-0.346478045
4611,-0.05853266269
4612,-0.1097647622
4613,-0.1558956355
4614,-0.5233282447
4615,-0.08704195917
4616,0.4213090837
4617,-0.6251121759
4618,-0.0503574051
4619,-0.1993383318
4620,1.063696146
4621,-0.7499406338
4622,0.1620190442
4623,-0.7126404047
4624,-0.8678455353
4625,0.3239950538
4626,-0.3825813234
4627,-0.06304157525
4628,-0.7562584877
4629,0.3673482835
4630,0.8728669882
4631,-0.8666951656
4632,0.1302549392
4633,0.4618628919
4634,-0.2614066601
4635,0.8120509386
4636,-0.2743104696
4637,-0.6380347013
4638,-0.2897381783
4639,-0.09091809392
4640,-1.555992484
4641,0.1033596024
4642,-0.1217883676
4643,-0.2760178149
4644,0.07115820795
4645,-0.3443907797
4646,0.7951288223
4647,-0.6761710048
4648,-0.5737449527
4649,0.7416507006
4650,-0.68164891
4651,-0.1891810447
4652,-1.49430871
4653,-0.1742801666
4654,-1.393672943
4655,-1.3794204
4656,-1.085237265
4657,-0.6315830946
4658,-0.3735552132
4659,-0.4853249192
4660,0.1125729755
4661,-0.1523765028
4662,-0.2557022572
4663,-0.3888383508
4664,0.4936493635
4665,0.9413539171
4666,-1.037889123
4667,0.5050805211
4668,0.2819875777
4669,-0.5533307195
4670,-0.2894030809
4671,-0.2427947819
4672,-0.1216880307
4673,-0.1758761555
4674,-0.1611366272
4675,0.565189898
4676,-0.1708699167
4677,-0.3626299798
4678,-0.6720365286
4679,0.2472146451
4680,-0.3731279969
4681,-0.8205678463
4682,-0.4549585283
4683,0.09823358059
4684,-1.07344234
4685,-0.7241588831
4686,-0.591047883
4687,0.3060888648
4688,1.492602229
4689,-0.798499763
4690,0.656548202
4691,0.764308989
4692,-0.5451512933
4693,0.09600578249
4694,0.6591522098
4695,-0.9473794103
4696,-0.01895073988
4697,0.3039194643
4698,0.1445857286
4699,-1.437767386
4700,-0.4575495422
4701,-0.5023311377
4702,0.8754947782
4703,-0.3876523674
4704,-0.0332644321
4705,0.7480583191
4706,-0.1326012015
4707,-0.4591547847
4708,-0.3005261421
4709,-0.1142663956
4710,-1.88575542
4711,-0.9896134138
4712,0.3655128777
4713,0.0149866445
4714,0.0768577978
4715,-0.1592649817
4716,0.2839763761
4717,0.04146793485
4718,-1.132539511
4719,0.3053738773
4720,-0.8051204681
4721,0.3149673343
4722,-0.2393708974
4723,0.6975321174
4724,-0.09854587168
4725,0.3323776424
4726,1.041987062
4727,-0.2812993526
4728,0.175334245
4729,0.7439385056
4730,-0.5607748628
4731,0.09703208506
4732,-0.8442059755
4733,1.072025657
4734,0.5140917897
4735,-0.09636813402
4736,-0.09530395269
4737,-0.276909411
4738,-0.1885135323
4739,0.4847607315
4740,-0.03532114625
4741,-0.1561653465
4742,-0.4278184772
4743,0.4193406999
4744,0.4428248703
4745,-0.04900810495
4746,-0.7549980879
4747,-0.1820332706
4748,-0.686273098
4749,0.08317561448
4750,0.09064877033
4751,-0.2135408819
4752,0.6838909984
4753,0.2176901996
4754,-0.5943238139
4755,0.4168785214
4756,-0.7522904873
4757,0.2292858809
4758,0.04949422553
4759,-0.2002536654
4760,-0.362734884
4761,0.3771556616
4762,0.2108746171
4763,0.8809233308
4764,0.0949915126
4765,-0.1080842391
4766,-0.1751555949
4767,-0.002878310159
4768,-1.120785356
4769,-0.1751321256
4770,0.1635788232
4771,0.0006748867454
4772,-1.249114394
4773,-0.3442291617
4774,-0.141659081
4775,-0.1756078005
4776,0.3449675441
4777,-0.9160919189
4778,-0.4432906806
4779,-0.6686184406
4780,-0.3095772564
4781,0.1759716272
4782,0.3471574783
4783,0.2170636654
4784,-0.6376732588
4785,0.01346615143
4786,-0.5954135656
4787,0.2064966559
4788,-0.1140067801
4789,0.08035517484
4790,0.5266014934
4791,-0.3708262146
4792,-0.3251187503
4793,-0.2553991973
4794,-1.398613691
4795,-0.3505847752
4796,-0.8624402285
4797,0.1470900178
4798,0.009347900748
4799,-0.6975090504
4800,0.1597987115
4801,-0.1378530115
4802,0.5072163939
4803,-0.8114113808
4804,0.6477512121
4805,-0.2226249874
4806,0.3514490724
4807,-0.6613042355
4808,0.9660856724
4809,0.04114991054
4810,0.5910548568
4811,0.6013786793
4812,-0.4180593491
4813,1.124564409
4814,0.8391025066
4815,-0.7697103024
4816,-0.930332303
4817,-0.2161127329
4818,-0.0470745638
4819,-1.599945188
4820,0.06780552864
4821,-0.6010704637
4822,0.04876392335
4823,-0.1750553995
4824,-0.5484311581
4825,0.5420675874
4826,-0.2344700098
4827,0.9687107205
4828,-0.06708277762
4829,-0.4691763818
4830,-0.01880229823
4831,-0.9911140203
4832,0.263507545
4833,-0.7913559079
4834,0.5141929388
4835,0.001706493902
4836,-0.7350065112
4837,-0.7624110579
4838,0.616778791
4839,-0.06146673113
4840,0.04568933696
4841,-1.190587163
4842,-0.6826415658
4843,0.5978839993
4844,-0.3115592897
4845,-0.06413663924
4846,-0.3848342597
4847,-0.3895230591
4848,-0.4873188138
4849,0.3859186471
4850,0.1188187376
4851,-0.02624829113
4852,0.08171340823
4853,-0.1011082828
4854,-0.7524213195
4855,-0.5720623732
4856,0.5481684804
4857,0.02967519499
4858,-1.064002514
4859,-0.9195099473
4860,0.1869733632
4861,-0.8874179721
4862,-1.04498446
4863,0.2532151341
4864,0.1530203074
4865,-0.03740560263
4866,-0.2224429995
4867,-0.08234937489
4868,-0.07544004917
4869,-0.02147149481
4870,-0.08895958215
4871,-0.5209624767
4872,0.1283495426
4873,0.1987447292
4874,-0.5347859859
4875,0.1955270767
4876,-0.689804852
4877,-0.2330888063
4878,-0.4214556813
4879,-0.3666414618
4880,0.02258098498
4881,-0.02288344502
4882,-0.5371164083
4883,0.4630756378
4884,0.03733326495
4885,-0.3634914756
4886,0.2245757133
4887,-0.2490720749
4888,-0.9184032679
4889,0.02966232784
4890,-0.3415812552
4891,-0.2565475106
4892,0.0894889459
4893,0.2406085283
4894,0.04743466526
4895,-0.1757318676
4896,-1.071899652
4897,-0.7470548153
4898,-0.1044775248
4899,0.3888527453
4900,0.1859875172
4901,-0.6836038828
4902,-0.269795537
4903,0.1805217117
4904,-0.07866050303
4905,0.4645057023
4906,-0.1601462662
4907,0.1942843944
4908,-0.3777709901
4909,-0.2143433541
4910,-0.7703766227
4911,-0.4590815306
4912,-0.5561967492
4913,-0.1253033429
4914,-0.7857780457
4915,0.3154404163
4916,0.08518628031
4917,0.08355589956
4918,-0.3882840872
4919,-0.1926279962
4920,0.1502653211
4921,-0.07068529725
4922,0.254976511
4923,-0.3506819606
4924,0.2792791426
4925,-0.3128060997
4926,-0.1713081151
4927,0.2723743021
4928,-0.7031700015
4929,0.3957190812
4930,-0.6383337379
4931,-0.2106560022
4932,-0.4560176134
4933,-0.5532554388
4934,0.1581376791
4935,-0.4710147381
4936,0.5406739116
4937,-0.2843235731
4938,-0.2041389346
4939,-0.6474997997
4940,0.206380412
4941,-0.3132188916
4942,0.1852152199
4943,1.743313074
4944,-0.9486659169
4945,0.2973356247
4946,-0.05263626948
4947,0.2694466114
4948,0.519279778
4949,-0.2464360446
4950,1.395818114
4951,-0.5257822871
4952,0.1963931471
4953,0.8357909918
4954,0.1505853534
4955,0.1837604493
4956,-1.012025595
4957,0.940462172
4958,-0.645968318
4959,-0.1680271178
4960,-0.1734203398
4961,-0.1716105491
4962,0.2525800169
4963,-0.09513711929
4964,-0.05141673237
4965,-0.3324433267
4966,-0.05726030469
4967,-0.2863815725
4968,-0.2735641301
4969,0.4213031232
4970,-0.7620027661
4971,-0.340773195
4972,-0.4585249722
4973,0.01160269883
4974,-0.1900591403
4975,0.3422404528
4976,-0.1929628551
4977,-0.3676759601
4978,-0.3584454954
4979,-0.1712478101
4980,-0.1100816056
4981,-0.0228197109
4982,-0.1745114475
4983,-0.1083464995
4984,-0.5962310433
4985,0.4057106078
4986,-1.128782511
4987,-0.247093156
4988,-1.064616561
4989,-0.08860014379
4990,-0.4150265753
4991,0.1551273316
4992,-0.2026044428
4993,-1.178858161
4994,0.1569688022
4995,-0.08488830179
4996,-0.05070140585
4997,-0.1842607707
4998,0.06092037261
4999,-0.0228249263
5000,-0.339188844
5001,-0.01177049242
5002,-0.3636172414
5003,0.3255380392
5004,0.3922525346
5005,0.1020908654
5006,0.2230338603
5007,-1.217497349
5008,-0.002497291891
5009,0.01320628263
5010,-0.270548135
5011,-0.04399572685
5012,-0.06253748387
5013,-0.2257741988
5014,0.1620974243
5015,-0.4459886551
5016,-0.6533119678
5017,-0.2230022848
5018,-0.07577482611
5019,0.543813169
5020,-0.09414034337
5021,-0.5794712305
5022,0.1496285796
5023,0.04848100245
5024,-0.935110569
5025,-0.04537248984
5026,0.1069228053
5027,-1.4421134
5028,-0.1746997237
5029,0.2418200821
5030,-0.1529413015
5031,-0.1264469624
5032,-0.1278186888
5033,0.2439807802
5034,-0.1519052982
5035,0.1105882823
5036,-0.82668823
5037,0.01408495009
5038,-0.466060102
5039,-0.1547611654
5040,-0.59476161
5041,0.5089641213
5042,-0.5936188102
5043,0.1810700595
5044,0.05975883827
5045,-0.08923083544
5046,0.2377881259
5047,0.3725556731
5048,0.01100205071
5049,0.04083184525
5050,-1.158955455
5051,-0.2372725904
5052,-0.9227243066
5053,0.2440770864
5054,-1.191766143
5055,-0.5964967012
5056,-0.1897180676
5057,-0.05674287304
5058,-0.1487847418
5059,0.3049527407
5060,0.1366709322
5061,0.03557280079
5062,-0.8232401609
5063,-0.1764160395
5064,-0.5461165309
5065,-0.07978013158
5066,-0.6217892766
5067,-0.006423956715
5068,0.07395740598
5069,0.1123076826
5070,-0.5769240856
5071,-0.4802920222
5072,0.1277982593
5073,-0.2800715566
5074,-0.04061137512
5075,0.07115024328
5076,-0.2722276151
5077,-0.06885374337
5078,-0.06119241193
5079,-0.4861736596
5080,0.3708583713
5081,-0.1480241716
5082,-0.1808891147
5083,-0.09619165957
5084,0.1467251182
5085,-0.7918063998
5086,-0.336489737
5087,0.1152508408
5088,-0.6111755371
5089,-0.2674199641
5090,-0.3454302251
5091,-0.6834102869
5092,-0.1845014691
5093,-0.08584371954
5094,-0.06196563691
5095,0.0712216869
5096,-0.265034169
5097,-0.12054912
5098,0.2516843379
5099,0.1609676778
5100,0.3137852848
5101,-0.003984716255
5102,-0.1805505604
5103,0.4118538797
5104,0.04251617193
5105,0.1174217314
5106,0.04946921393
5107,0.1471235007
5108,-0.2295380384
5109,0.2302779406
5110,0.3660395145
5111,-0.02602973022
5112,-0.1877976656
5113,-0.8146769404
5114,-0.03330613673
5115,0.3275831044
5116,-0.04968876019
5117,0.006526316982
5118,-0.06123322621
5119,-0.1465134919
5120,0.1182920486
5121,-0.529848814
5122,0.2234293222
5123,-0.3628622591
5124,-0.1578409076
5125,-0.2090196759
5126,0.08618524671
5127,0.1833147407
5128,-0.1970758289
5129,-0.1806345433
5130,-0.5723890662
5131,0.05223665386
5132,-0.1541789621
5133,0.4049448371
5134,0.09889224917
5135,-0.5244528055
5136,-0.5492703915
5137,-0.06641383469
5138,0.1673205793
5139,0.1094283089
5140,0.05590287596
5141,-0.5231550336
5142,0.05582315102
5143,-0.0872785151
5144,-0.132680431
5145,-0.04046101496
5146,-0.1522409469
5147,-0.03031710722
5148,-0.208749488
5149,-0.1531590372
5150,-0.2319387197
5151,0.1122481674
5152,-0.6605993509
5153,-0.1578913033
5154,0.03948546201
5155,-0.2785811424
5156,-0.2053587884
5157,-0.1811321527
5158,0.437596947
5159,0.1383168697
5160,-0.496386528
5161,0.1704041511
5162,-0.7751162648
5163,0.1679185927
5164,0.1352886111
5165,-0.6713213921
5166,0.352091074
5167,-1.047093034
5168,-0.4435060024
5169,-0.1574611366
5170,-0.3360821307
5171,0.3546684086
5172,-0.02851561271
5173,-0.01506402064
5174,-0.2108984441
5175,0.2845395803
5176,-0.4507087469
5177,-0.170226872
5178,-0.3512611389
5179,-0.08734896034
5180,-0.5212055445
5181,-0.2746753097
5182,-0.2948923707
5183,-0.2886757255
5184,0.189030394
5185,0.1912260205
5186,-0.3625986278
5187,-0.07132721692
5188,-0.4164065719
5189,-0.1796186119
5190,-0.4299406111
5191,0.40588817
5192,-0.09495270997
5193,-0.5044039488
5194,0.2295408249
5195,-0.1396480799
5196,0.04108351842
5197,-0.3159710765
5198,0.2562335432
5199,-0.2603868544
5200,-0.07415349036
5201,0.07941631973
5202,0.04862695932
5203,0.3184460402
5204,0.5232582092
5205,-0.005980862305
5206,-0.1104546189
5207,-0.005410780199
5208,-0.7623804808
5209,0.1175507605
5210,0.06417390704
5211,-0.3005007207
5212,0.237114355
5213,-0.4197000265
5214,0.04446586594
5215,0.04212965071
5216,0.3072673082
5217,-0.4864310324
5218,-0.1904560775
5219,0.1020470634
5220,-0.2396446466
5221,0.07633186877
5222,-0.3726807237
5223,-0.3208885789
5224,-0.3351660371
5225,-0.4164761901
5226,-0.02934047207
5227,0.1861350834
5228,0.4617815614
5229,-0.1421529502
5230,-0.3871709108
5231,-0.2381857187
5232,0.3190664053
5233,0.4249819815
5234,-0.2742149234
5235,0.07075477391
5236,-0.2567113042
5237,-0.01247824728
5238,0.2526123226
5239,-0.2108611912
5240,-0.3006042242
5241,-0.03809038922
5242,0.2694173753
5243,-0.140607059
5244,0.2040963173
5245,-0.1763048619
5246,0.4119306505
5247,0.1620946974
5248,0.2043260038
5249,-1.078905106
5250,-0.4784753919
5251,-0.1443243623
5252,-0.1537540853
5253,-0.4637079835
5254,-0.9645215869
5255,0.3138062358
5256,-1.687971354
5257,-0.3149279058
5258,-0.3196394145
5259,0.2669845819
5260,-0.7686242461
5261,0.07210849971
5262,-0.2607631087
5263,-0.8602889776
5264,-0.03107300587
5265,-0.1895514131
5266,-0.3742159307
5267,0.3073804677
5268,0.488878876
5269,0.2114778012
5270,-0.5761182308
5271,0.04460532218
5272,0.006622724235
5273,0.9144906402
5274,0.2069116682
5275,-0.9445112348
5276,0.9172666669
5277,-0.2296471149
5278,0.2890536189
5279,0.102247186
5280,-0.6360549331
5281,-0.1704178751
5282,-1.173170805
5283,0.03105681948
5284,-0.03804757819
5285,-0.3063103557
5286,0.5262640715
5287,0.6445763707
5288,-0.2083399296
5289,-1.868428349
5290,0.2730904222
5291,0.09518907964
5292,-0.1452625245
5293,0.2031080872
5294,0.04108397663
5295,0.01993532106
5296,0.2611784935
5297,-0.3669605851
5298,0.2584858239
5299,0.7843050957
5300,-0.1864828765
5301,-0.5683243871
5302,0.1730810106
5303,0.0314710848
5304,0.1584152579
5305,-0.1844628155
5306,-0.130019471
5307,0.2312079668
5308,0.3096267581
5309,-0.5695416331
5310,0.2480745018
5311,0.2719047368
5312,-0.7331747413
5313,-0.3909959495
5314,-0.004093846306
5315,0.2323959768
5316,-0.2443009913
5317,-0.3040197194
5318,-0.09980193526
5319,-0.2066898644
5320,0.06367121637
5321,-0.3055632114
5322,-0.3546533585
5323,0.07571508735
5324,0.3825791478
5325,0.1260760128
5326,0.1547094285
5327,0.01090538967
5328,0.05850156769
5329,0.2008469403
5330,-0.03869003057
5331,0.4089688063
5332,-0.1799070537
5333,0.26672405
5334,0.2595212758
5335,0.1630429178
5336,-0.7553955913
5337,0.206824407
5338,0.04992415756
5339,-0.3680993021
5340,-0.1280269176
5341,-0.2765423059
5342,-0.4464719296
5343,-0.2015402466
5344,0.130240187
5345,0.1679083854
5346,-0.3079685867
5347,0.06883343309
5348,0.08302126825
5349,0.1843380481
5350,-0.07281976938
5351,-0.1420602053
5352,0.1469784379
5353,-0.6874036193
5354,0.1256130487
5355,0.2478066236
5356,0.3179241121
5357,-0.5709447265
5358,-0.0770720914
5359,0.1314366162
5360,-0.2992106974
5361,-1.172506094
5362,0.1675167084
5363,0.132248655
5364,-0.2811219692
5365,0.2515316606
5366,0.121673815
5367,0.01370781288
5368,-0.6211381555
5369,-1.758631349
5370,-0.01343084592
5371,-0.2480887175
5372,0.3875363469
5373,0.2101210803
5374,0.4174439609
5375,-0.07754499465
5376,-0.7945863008
5377,-1.433863163
5378,-0.0487017408
5379,0.01564178243
5380,-0.2224272192
5381,0.5579102635
5382,-0.004365521483
5383,-0.1593592614
5384,-0.6406501532
5385,0.2189872861
5386,-0.8198001385
5387,0.4336075783
5388,-0.8151168227
5389,-0.2239250392
5390,-0.2621067464
5391,-0.2714191079
5392,0.5526635051
5393,-0.04266919196
5394,-0.2165239453
5395,-0.922290504
5396,-0.7636942863
5397,0.1011792272
5398,-0.1074139848
5399,-0.04087938368
5400,0.2380761057
5401,-0.04582837224
5402,-0.1298890859
5403,-1.648284316
5404,0.4426599741
5405,-0.1769561321
5406,0.4447596371
5407,-0.3425409496
5408,-1.200368881
5409,0.108475551
5410,-0.0515615195
5411,0.5279014111
5412,-0.3875566125
5413,-0.3655895591
5414,-0.04480447248
5415,0.1212424785
5416,0.1464912444
5417,0.3020941019
5418,0.3374554217
5419,0.04191322625
5420,0.2599315643
5421,-0.2279013842
5422,-0.2277413309
5423,0.5288931727
5424,0.2668529451
5425,0.3153623939
5426,-0.5780911446
5427,0.6867778301
5428,-0.09909143299
5429,-0.121914275
5430,0.6415495872
5431,-0.02698193491
5432,-0.1169220954
5433,0.5399364829
5434,-0.3491814733
5435,0.04390154034
5436,-0.1643187255
5437,0.4392638803
5438,-0.03573906049
5439,0.6096721292
5440,0.009621828794
5441,-0.1513337642
5442,-0.1069107428
5443,0.1903956681
5444,-0.1705845743
5445,-0.227281332
5446,0.2391499132
5447,-0.060652107
5448,0.06620819122
5449,0.1109905615
