idx,weight
0,0.2601615191
1,0.2380225211
2,-0.4102159441
3,-0.2046936601
4,-0.6732347012
5,-0.1497014165
6,-0.540375948
7,0.4977908134
8,0.104348354
9,-0.06238787621
10,-0.1546050012
11,0.1188144982
12,-0.3347937763
13,-0.03811640665
14,-0.3363534212
15,0.1303715706
16,0.5135483146
17,-0.6439639926
18,-0.2077872157
19,0.3154362142
20,0.6396497488
21,-0.2307106853
22,-0.06468106806
23,-0.7673447132
24,-0.1074839607
25,-0.1262466311
26,0.1559121609
27,0.2818316221
28,0.5325571299
29,0.3618312776
30,0.2213592678
31,0.1472656429
32,-0.295047611
33,0.07749830186
34,0.08944045007
35,-0.2663323879
36,-0.1491159648
37,-0.1691195369
38,0.4489422739
39,0.1158973351
40,0.09796740115
41,-0.2483390719
42,-0.3723269105
43,0.1820814013
44,-0.1397763789
45,-0.2652914226
46,-0.250115633
47,0.7963991165
48,0.04458621889
49,0.1927438378
50,0.05460382625
51,0.3155702055
52,0.1410290599
53,0.6697643995
54,0.05038823932
55,-0.1159528419
56,-0.5966095328
57,-0.5637176037
58,0.1256813705
59,-0.04239222407
60,-0.4076044858
61,-0.1049400568
62,0.004649566486
63,0.4860516191
64,0.3482375145
65,-0.3205572963
66,-0.5299697518
67,0.1551787704
68,-0.3077345788
69,0.2923918962
70,-0.1174351573
71,0.137124449
72,0.3237713277
73,0.1110270247
74,0.1294258684
75,0.2836996019
76,-0.5391421318
77,-0.04048813134
78,-0.2150489986
79,0.3702820837
80,0.05939940363
81,0.1787786335
82,0.2446437627
83,0.2684048414
84,-0.1776687503
85,-0.1159115806
86,-0.3483496606
87,-1.438418865
88,-0.1817766875
89,-0.30313766
90,0.5367369652
91,0.03835392371
92,-0.000400667981
93,0.1354003251
94,-0.2978881598
95,0.1949927509
96,0.3708085716
97,-0.5234761834
98,0.09874765575
99,-0.7612198591
100,-0.01221610792
101,-0.2514353096
102,0.3100156486
103,-1.234578252
104,-0.05676937848
105,-0.5378264189
106,-0.5694972873
107,-0.1048526838
108,-0.5897420049
109,-0.3338962197
110,0.3685793877
111,0.03353242204
112,0.285374701
113,0.5854600668
114,-0.4563622177
115,0.7354851961
116,-0.9857150912
117,0.08412962407
118,-0.06969871372
119,0.5733598471
120,-0.6009811163
121,0.7746505737
122,0.266186446
123,-0.315303117
124,-0.2080565244
125,0.3658650219
126,0.4780736864
127,-0.9204018116
128,0.4529627264
129,-0.3146458864
130,-0.6602019072
131,0.5787937045
132,-0.01594083942
133,-0.3391583562
134,0.5661578178
135,-0.4503334761
136,-0.3206591308
137,0.1808453351
138,0.09277766943
139,0.2504184544
140,0.3305515349
141,0.3899874091
142,-0.7373235226
143,0.2372986227
144,0.05399421975
145,-0.6266859174
146,-0.2896415889
147,0.274224937
148,0.3361611068
149,-0.3545170128
150,-0.2241352946
151,-0.1561516523
152,-0.3250161409
153,0.6800748706
154,0.05655124038
155,-0.3054614067
156,-0.08229699731
157,0.1992961615
158,0.2810654938
159,-0.4430658519
160,-0.3862607181
161,-0.303745538
162,0.3435460329
163,-0.197792694
164,-0.3528784811
165,-0.1542333066
166,-0.6691326499
167,0.4027103782
168,0.3209116161
169,-0.1365148425
170,0.06508521736
171,0.3910305798
172,-0.133417964
173,0.1697207391
174,-0.1401297599
175,-0.1345902681
176,-0.6755672097
177,0.2803229392
178,0.1003480256
179,-0.01555757131
180,-0.4352386892
181,0.01771430299
182,-0.5182878375
183,0.1178251579
184,0.1949152052
185,-0.002432559151
186,0.2243492305
187,0.02908569574
188,-0.09160062671
189,0.03464906663
190,0.1663351357
191,-0.2169429511
192,0.1067234799
193,0.2058144212
194,0.4262943268
195,-0.2794236243
196,0.2352721542
197,-0.308480233
198,0.5320014954
199,0.3891162276
200,-0.01225574221
201,0.6793381572
202,-0.09860894084
203,-0.4075069427
204,0.1771440804
205,0.08717512339
206,-0.4490532875
207,-1.130657911
208,-0.3068931699
209,0.5870019794
210,0.02182960697
211,-0.5201328993
212,-0.04059783369
213,0.1026108414
214,-0.1252761185
215,-0.1562636495
216,0.127873227
217,-0.02353284508
218,0.2719766796
219,0.5059790611
220,-0.1482525468
221,0.05687639862
222,-0.3871384263
223,0.4615578055
224,-0.7445914149
225,0.2886209786
226,-0.9063558578
227,0.1628674269
228,0.4248003662
229,0.270337224
230,0.2596569955
231,-0.02755663171
232,-0.3064757288
233,0.1405473799
234,0.8298802972
235,-0.5037631989
236,-0.1551671028
237,-0.0775725916
238,-0.1817435771
239,-0.2558625937
240,-0.265350163
241,-0.1511687338
242,0.2831778526
243,-0.3693421483
244,0.2907512486
245,-0.08346179873
246,-0.06089162827
247,-0.4151846766
248,0.1824228466
249,0.1661467999
250,0.3809279203
251,-0.1121902913
252,0.2021193951
253,-0.08325138688
254,-0.4327439368
255,-0.3473362923
256,0.4837967455
257,0.8019117713
258,-0.2237174362
259,0.2197891027
260,0.3796075881
261,-0.2829245925
262,0.215981707
263,-0.02844648995
264,-0.4009274244
265,-0.4670166969
266,0.5620077252
267,-0.3620675802
268,0.1126755551
269,-0.5186647177
270,-0.1627735645
271,-0.4050256908
272,0.009518864565
273,-0.293508023
274,-0.2496211827
275,-0.3643438518
276,0.250068754
277,-0.3488974571
278,-0.3640939891
279,-0.2183374017
280,0.2193668038
281,-0.1706230491
282,0.3268976808
283,0.06637650728
284,-0.3692898154
285,-0.05971538275
286,0.9642452002
287,0.1429255754
288,0.3280980885
289,-0.1287955046
290,-0.1869269609
291,-0.2754751444
292,0.09414100647
293,0.1072177291
294,-0.9469344616
295,0.2287119478
296,0.08247283101
297,-0.2738139331
298,0.2983323038
299,-0.7895092964
300,0.6492765546
301,0.194662109
302,0.2067878097
303,-0.3241542578
304,0.7156341076
305,-0.6963331103
306,-0.5986512899
307,-0.1427244097
308,0.4440449178
309,-0.386736691
310,0.3346217275
311,-0.06084490195
312,-0.5659753084
313,-0.5528287888
314,0.2756070495
315,0.3982667029
316,0.03517221659
317,-0.3639885783
318,-0.2283457369
319,-0.7838221192
320,-0.3029701412
321,0.3416588902
322,0.009134157561
323,-0.1600568593
324,-0.1284891665
325,0.06815570593
326,-0.01676742919
327,-0.1234563142
328,0.002048686147
329,-0.8561467528
330,-0.04906779155
331,0.3598275781
332,0.6433301568
333,0.2558323145
334,0.1215594932
335,-0.08851508051
336,-0.02810983919
337,-0.1461829096
338,-0.0759043172
339,0.6094195843
340,0.2038446218
341,-0.2690321505
342,-0.0463398546
343,0.5297074914
344,0.4079250395
345,-0.1198181063
346,-0.2586989701
347,-0.3435510993
348,0.3571751118
349,0.005955378059
350,0.2448404133
351,-0.1733988225
352,0.1615386158
353,-0.1809587181
354,-0.4373441935
355,-0.00604474172
356,0.02429614961
357,-0.1256173849
358,-0.8551239967
359,-0.09807980061
360,0.05831076205
361,-0.08201758564
362,0.2927933633
363,-0.2799223661
364,0.4433419108
365,0.00565502001
366,0.3206184506
367,-1.367658615
368,-0.2823277414
369,-0.8788197041
370,0.02875304781
371,0.05584583059
372,-1.057320833
373,-0.6265208721
374,0.06705392897
375,0.5683371425
376,-1.094597101
377,0.1185971424
378,0.005660403986
379,-1.256255031
380,-0.1761905551
381,-0.3004740477
382,-0.2984271348
383,0.4509568214
384,0.4587580562
385,-3.596684456
386,-0.4396067262
387,0.2167706788
388,0.1917301118
389,0.01729180291
390,0.1198342592
391,-0.005713787861
392,-0.02852187306
393,0.07627002895
394,-0.1563958079
395,0.5483641028
396,0.04447420686
397,-0.4107873738
398,0.1813556999
399,-0.3706069589
400,-0.5233348012
401,0.4455490112
402,-0.2012212574
403,0.03741847724
404,0.1848536134
405,0.3629690707
406,-0.1087239981
407,-0.07646995783
408,-0.05521045253
409,-0.9596454501
410,-0.3779570758
411,-0.06597287953
412,-0.2337761521
413,0.05494147912
414,0.01631985977
415,0.2585440874
416,0.3981861174
417,0.01604344323
418,-0.2835157812
419,0.2372871637
420,-0.07886954397
421,-0.3744771481
422,-0.7616240978
423,0.4282637239
424,0.2187107652
425,-0.1360045224
426,0.003363963217
427,0.1144041643
428,0.241266802
429,0.1391327232
430,0.4905594289
431,0.08918630332
432,0.09560986608
433,-0.158594206
434,-0.8086075187
435,0.2810610533
436,0.2513613105
437,0.09224092215
438,-0.3969890773
439,0.078782022
440,0.09821540862
441,-0.2895385921
442,-0.1921522319
443,-0.3812488616
444,0.2149056643
445,0.07335858047
446,-0.07394269109
447,0.2120984346
448,-0.4325405657
449,0.9111787081
450,-0.03439358622
451,-0.2417574525
452,0.1971917301
453,0.1371392608
454,-0.2610768378
455,-0.5029323697
456,0.08864491433
457,0.4322369695
458,-0.04761587456
459,-0.4903444648
460,-0.04752122983
461,-0.7968703508
462,0.2346563786
463,0.1520954818
464,0.3296265304
465,0.5191981196
466,-0.1946305931
467,-0.182512477
468,0.1360410154
469,0.1143147945
470,0.2316803932
471,0.781771183
472,0.2421144545
473,0.111822091
474,0.04053475335
475,0.03490706906
476,-0.6315129399
477,0.07481179386
478,0.3175729513
479,-0.08773127943
480,-0.148608759
481,-0.4871740639
482,-0.6774000525
483,0.4381883442
484,0.4656810164
485,-0.07029944658
486,-0.4789124131
487,0.2575425208
488,-0.1289235801
489,-0.3968275785
490,-0.344599694
491,0.02231409028
492,0.132973969
493,-0.04516223818
494,0.02308901772
495,0.3282017112
496,-0.02289125323
497,-0.1522332579
498,0.2882915735
499,0.2153928876
500,1.089212179
501,-0.1547928005
502,-0.6374818087
503,0.2606640756
504,0.4788483381
505,0.05907361209
506,-0.2032322884
507,-0.06758212298
508,-0.6513308287
509,-0.3151195645
510,0.09439060092
511,0.09814644605
512,0.3267504275
513,-1.357691884
514,-0.5278514624
515,0.07796230167
516,-0.1914002299
517,-0.2746182084
518,0.2770040035
519,-0.04698548838
520,0.2936607599
521,-0.08288643509
522,-0.09196446836
523,0.4810722172
524,0.1095277816
525,-0.4870945215
526,0.3911219835
527,0.3279120326
528,0.239518851
529,-0.4475679696
530,-0.2526937723
531,0.3428991139
532,-0.07795788348
533,-0.07687110454
534,-0.3831607699
535,0.08616441488
536,0.3058670461
537,-0.4388790727
538,0.09608352184
539,-0.1261551231
540,-0.4610565007
541,-0.3522284627
542,-0.3241378367
543,0.2238961756
544,0.06593509763
545,-0.4472740591
546,-0.04419673234
547,0.2541050315
548,-0.02819762006
549,-0.01492166985
550,0.1876291633
551,0.3382765353
552,0.2830608189
553,0.3164201677
554,0.1465372294
555,0.3830698133
556,-0.3846819103
557,0.3486127257
558,0.1590518206
559,-0.1006853059
560,-0.1850183755
561,0.2216435224
562,0.2226074934
563,0.03317825124
564,-0.2181961983
565,-0.1775087565
566,0.1712014526
567,-0.1394632757
568,-0.3555817604
569,-0.2630658448
570,-0.07687866688
571,-0.5555642247
572,0.3633805513
573,0.3005708456
574,-0.4203319252
575,-0.08902662247
576,0.01156752557
577,0.08149340004
578,0.5765144229
579,1.196756482
580,0.207563892
581,-0.04754821584
582,0.624332428
583,-0.3557270467
584,0.4805271029
585,0.2977632284
586,-0.03538360819
587,-0.9898071289
588,-0.118866764
589,-0.7573385835
590,-0.001293526264
591,0.06187481061
592,0.2351394296
593,1.072403193
594,-0.1314510107
595,0.1188552603
596,0.1630433798
597,-0.2516773939
598,0.2629929781
599,0.08010816574
600,-0.9448237419
601,-0.03661116213
602,0.7429658771
603,-0.1034911498
604,-1.366521955
605,-0.04428945482
606,-0.7013086081
607,0.2461416572
608,-0.4540829062
609,0.5341036916
610,-0.3153169453
611,-0.3152037263
612,0.08333460242
613,0.1040505543
614,0.1584998518
615,-0.3340666294
616,-0.1002206728
617,0.2535101175
618,-0.7565298676
619,0.1998589337
620,0.1151018292
621,-0.06576112658
622,-0.01157154981
623,0.4339415729
624,-0.1696031392
625,0.3886991739
626,0.6339974403
627,0.02896628901
628,1.402201176
629,-0.288077563
630,0.105007425
631,0.08870965242
632,0.4523025155
633,0.5230033398
634,0.5446767807
635,0.5001511574
636,-0.5872776508
637,-0.2067340314
638,0.7700666785
639,-1.061270833
640,-0.1948721409
641,0.0916698575
642,-0.1533513665
643,0.974840641
644,0.04033752531
645,0.2465178818
646,0.9478295445
647,-0.7280014157
648,0.03088338114
649,0.3555243313
650,-0.3090403676
651,-1.042585492
652,-0.04444264248
653,0.05863352865
654,-0.2527119219
655,0.2603779435
656,-0.1314371675
657,-0.09874560684
658,-0.2834040523
659,0.2008273453
660,0.1896091849
661,-0.2149309516
662,-0.1611700803
663,0.4081100821
664,-0.1713672876
665,0.06960205734
666,0.2201885432
667,0.3786550462
668,-1.222612381
669,0.8926317096
670,-0.1522286832
671,0.02533065155
672,-0.9039283991
673,0.8704942465
674,-0.05809772015
675,-0.2237369269
676,0.05383087322
677,-0.1515184194
678,-0.1446271092
679,-0.4460074604
680,0.3095140159
681,0.5975924134
682,-1.335869074
683,-0.3194237947
684,0.5656866431
685,0.1531731337
686,0.435769558
687,0.7838819027
688,-0.1372733116
689,0.9569941163
690,0.6837368011
691,0.1835651398
692,0.4972658157
693,-0.198232457
694,-0.3820996881
695,0.3997011483
696,-0.5114571452
697,0.3866448998
698,0.2208337933
699,-0.1466284096
700,-1.045979381
701,0.2127465904
702,0.07856708765
703,-1.075089216
704,0.279173255
705,-1.294167161
706,-0.2270190418
707,0.3488659859
708,-0.1134186611
709,0.1408230215
710,0.1288321465
711,-0.02218049951
712,-0.2862716913
713,-0.01762315072
714,0.2280753553
715,-0.2699837387
716,0.1822431386
717,-0.316539526
718,0.03533937782
719,0.09751400352
720,0.4632968605
721,-0.6971672177
722,0.1021005288
723,-0.09114226699
724,0.03185756877
725,0.3249555826
726,-0.1704775691
727,-0.09045422822
728,0.2012373209
729,-0.8349573612
730,0.06386538595
731,0.4012393355
732,0.2430586368
733,0.55566746
734,0.2765861154
735,-0.3243417144
736,0.151472494
737,-0.4886449575
738,-0.08242518455
739,0.1417851895
740,0.5207518339
741,-0.2238005102
742,-0.07809179276
743,0.3044773042
744,0.08912519366
745,-0.104684256
746,0.3315317035
747,-0.3380494118
748,0.2582650185
749,0.1096560434
750,0.04703168571
751,-0.09530770779
752,-0.2305897921
753,-0.7181907296
754,-0.1541436315
755,-0.07281526178
756,-0.1784789264
757,0.4346130192
758,0.3716174066
759,-0.2875473499
760,0.1716685295
761,0.1374409348
762,-0.1626784354
763,-0.515733242
764,0.3439715207
765,-0.01565698907
766,-0.3267218471
767,0.4327277541
768,0.906052649
769,0.0889699012
770,-0.4060764909
771,-0.1000765488
772,-0.3646142483
773,0.3735390902
774,-0.5273182988
775,0.1294452697
776,-1.159314036
777,-1.028827906
778,0.3413770795
779,-0.3013190925
780,-0.2376473695
781,-0.2689334452
782,-0.1503311396
783,-0.1271230131
784,0.2625876963
785,0.3189134896
786,-0.01421820465
787,-0.1832348406
788,-0.9273434877
789,-0.1245863959
790,-0.08645048738
791,0.05662017688
792,0.4215755761
793,-0.5814413428
794,-0.1636687964
795,-0.2106604725
796,-0.2303861529
797,0.3283549845
798,0.106538251
799,-0.1775583923
800,0.09684038162
801,-0.3925902843
802,0.5802921057
803,0.06218452007
804,0.004474638496
805,-0.2064661235
806,-1.603761792
807,0.1215561703
808,-0.4009048045
809,0.244249925
810,0.04703304544
811,0.4240710735
812,0.06141107902
813,-0.02480616793
814,0.3109678924
815,-1.264850616
816,0.04783946648
817,-0.1480769813
818,-0.3513073921
819,0.002382049104
820,-0.9345493317
821,-0.01664723828
822,0.2293641716
823,0.3179038167
824,-1.288131952
825,-0.1913407445
826,0.1513452381
827,0.254922837
828,0.1274608076
829,0.3562379479
830,-0.4109343588
831,-0.1296820939
832,0.4609491825
833,0.3248366714
834,-0.4592244625
835,0.4356219471
836,-0.1362505108
837,-0.2240693122
838,-0.02403346263
839,0.0522265397
840,-0.5106099248
841,-0.8890443444
842,0.5742892623
843,-0.470379591
844,0.448081553
845,0.3850678504
846,0.09966198355
847,0.5499607325
848,0.3367995322
849,0.2625331581
850,-0.3825104237
851,0.249709323
852,-0.1411193013
853,0.1566607505
854,0.04612093791
855,0.02240582369
856,0.05326853693
857,-0.02777325921
858,0.2098087966
859,-0.2462394387
860,-0.4507117271
861,-0.5301429033
862,-0.06249319017
863,0.2939305902
864,0.3143819869
865,-0.3981907666
866,0.5593134761
867,-0.00746359257
868,-0.5588395596
869,-0.257386148
870,-1.744280815
871,-0.1553452313
872,-0.9385112524
873,-0.2213921547
874,0.2872546017
875,0.2038236707
876,0.2881726027
877,0.03560264409
878,-0.07290796936
879,-0.7311381102
880,0.2888117731
881,-0.2193215191
882,-0.5772057772
883,0.07240772247
884,-0.2595310509
885,0.2380411476
886,-0.2985217571
887,-0.000212434883
888,-0.1257925928
889,-0.493737042
890,0.124829039
891,0.1388824135
892,-0.8086872697
893,0.1269329786
894,0.1063076034
895,-0.08203700185
896,0.7039405704
897,-3.658563614
898,-0.1978305727
899,0.3014529049
900,-0.4318662584
901,-0.2183213532
902,0.3422655761
903,-0.3436207771
904,-0.06055881083
905,-0.3919221461
906,-0.2983967066
907,0.3242991567
908,0.245869562
909,-0.7011076808
910,-0.06228952855
911,0.1811961085
912,-0.2678297758
913,-0.06597404182
914,-0.2327284366
915,0.3605794013
916,0.1810910404
917,0.08412778378
918,0.1722045988
919,0.4822019637
920,0.7169844508
921,-2.448115587
922,-0.4756350815
923,-0.3423970044
924,-0.6823703051
925,0.03243549541
926,-0.2063399702
927,-0.5156714916
928,-0.06090278178
929,0.2033612877
930,0.2164621651
931,-0.09305667877
932,0.4027002454
933,-1.366576314
934,-0.6414095163
935,-0.2128234804
936,-0.5132403374
937,-0.1577835381
938,0.2003864795
939,0.2908734381
940,0.1381218433
941,0.1042565554
942,0.4464416206
943,-0.2182767391
944,-0.5696597099
945,0.4123423696
946,-0.08591168374
947,0.3665168285
948,-0.1067371219
949,-0.3369932473
950,0.4510237873
951,0.2249984294
952,-0.006499737967
953,-0.7114623189
954,0.2218026668
955,-0.2164092362
956,0.2199415565
957,0.1444495469
958,0.1395917982
959,-0.02268728614
960,-0.32020244
961,0.04522459954
962,-0.1527693123
963,0.1113653257
964,0.2639993727
965,-0.2427412868
966,-0.5092352033
967,-0.253393501
968,0.1861123592
969,-1.416652918
970,-0.191582635
971,-0.1418708116
972,-0.2123425901
973,0.01900311746
974,-0.3662008345
975,0.2818983793
976,0.3094661832
977,-0.2762853205
978,-0.1959630102
979,-0.2976064086
980,-0.07347970456
981,0.09413738549
982,-0.348641634
983,-0.009787295945
984,0.3911688328
985,0.2258211821
986,-0.02581115253
987,-0.3626309335
988,0.4812286198
989,-0.1679437757
990,-0.1334193796
991,0.6056018472
992,-0.1407491118
993,-0.01758648455
994,0.1969388723
995,0.1040601358
996,-0.06122573838
997,0.1268318295
998,-0.1099385768
999,0.2982353866
1000,0.03088789992
1001,-0.3158113062
1002,0.2531400025
1003,0.3094775677
1004,-0.4044601321
1005,-0.2893747985
1006,-0.2989968061
1007,-0.05693759769
1008,-0.28352952
1009,-1.37141335
1010,-0.1365856528
1011,0.08701200783
1012,0.4369291663
1013,0.1518865824
1014,0.4347873032
1015,0.02240283974
1016,-1.010866404
1017,0.08406699449
1018,0.1242224574
1019,-0.3809860349
1020,0.08216540515
1021,0.2378394604
1022,0.01438797172
1023,0.09161930531
1024,-0.2358964682
1025,-0.1735258996
1026,0.3683621585
1027,0.1854483634
1028,0.07091593742
1029,-0.306986481
1030,0.1749300063
1031,-0.395616889
1032,-0.0003611051652
1033,0.1772280782
1034,0.3588179946
1035,-0.7195583582
1036,-0.1124179214
1037,0.2452048212
1038,-0.1077197641
1039,0.01358216256
1040,0.1155942157
1041,-0.03729878739
1042,0.08490110934
1043,0.189638108
1044,0.0912296772
1045,-0.08532853425
1046,-0.3467344344
1047,0.05425424501
1048,0.1811638474
1049,0.2443911731
1050,-0.3382012248
1051,0.1044886187
1052,-0.3367379308
1053,0.07919994742
1054,-0.2313312292
1055,0.07900419086
1056,0.1291238368
1057,-0.05091486499
1058,0.4961731434
1059,-0.1028442234
1060,0.0486632064
1061,0.197326228
1062,0.3074144423
1063,0.07453286648
1064,0.2890504003
1065,-0.2148964256
1066,-0.02897290327
1067,-0.3090085983
1068,-0.1408694983
1069,-0.1345810145
1070,-0.06699196994
1071,-0.5762943625
1072,0.2507534921
1073,0.01671318337
1074,0.3323332965
1075,-0.08455389738
1076,0.04291671515
1077,0.1194482818
1078,0.2352102548
1079,-0.2520197034
1080,0.04914308712
1081,0.5239787698
1082,-0.2372021377
1083,-0.2016117871
1084,-0.09970168024
1085,-0.1254627705
1086,0.2525983155
1087,-0.04799354076
1088,0.09855536371
1089,0.6222020984
1090,0.09359081835
1091,0.1620120257
1092,-0.09022224694
1093,-0.2694711089
1094,-0.01244437136
1095,-0.1122759283
1096,-0.05470273644
1097,0.3973629773
1098,0.02800663933
1099,-0.1315405071
1100,-0.208976388
1101,-0.01178864017
1102,-0.06633734703
1103,0.04782481492
1104,-0.3880948722
1105,-0.07088972628
1106,-0.1597336829
1107,0.1429776251
1108,-0.1135855317
1109,-0.2410092801
1110,-0.3763279915
1111,0.82987988
1112,0.2180873007
1113,0.3423489928
1114,-0.4095678627
1115,0.1656310707
1116,-0.1156640649
1117,-0.5169379115
1118,0.1497724652
1119,-0.117572546
1120,0.1708408743
1121,0.2359624952
1122,0.4904750288
1123,-0.1861897409
1124,0.7890238166
1125,0.2621198595
1126,0.2904939353
1127,0.1742641926
1128,0.08804989606
1129,-0.1950345784
1130,0.480640918
1131,-0.01584608853
1132,-0.146034047
1133,-0.2487525344
1134,-0.1439568549
1135,0.1282696277
1136,-0.5873051286
1137,-0.3080943525
1138,-0.143160522
1139,0.112246342
1140,0.4732024074
1141,0.1077983081
1142,0.1152414456
1143,-0.2304281592
1144,0.727000773
1145,0.01781370677
1146,-0.7649990916
1147,0.09568949789
1148,0.2460025847
1149,0.1089557484
1150,0.3760966361
1151,0.4425587356
1152,-0.4783122838
1153,0.2430040836
1154,-0.06526438147
1155,0.1804566681
1156,-0.6877501607
1157,-0.2699439228
1158,-0.1332865953
1159,0.7768604755
1160,-0.8985233307
1161,-0.3712617755
1162,0.8923227787
1163,0.6262558103
1164,-0.3147672415
1165,-1.141767502
1166,0.2082502395
1167,0.2811782956
1168,0.9373949766
1169,0.3871809244
1170,-0.03912793845
1171,0.103212364
1172,0.1407673508
1173,-0.1287809759
1174,-0.2912669182
1175,-0.08875795454
1176,-0.1117938608
1177,0.1943641901
1178,0.1001899615
1179,-0.5299127698
1180,-0.1069190577
1181,0.02311472781
1182,0.7991467714
1183,0.02832857333
1184,0.1471263617
1185,-0.03365157172
1186,0.7957715988
1187,-0.2156439573
1188,0.1647998691
1189,0.8470671773
1190,0.3414764404
1191,-1.2760005
1192,-0.02034155093
1193,0.1454520375
1194,-0.4931655526
1195,-0.2854315937
1196,-0.4620969296
1197,0.1226124689
1198,0.3749954104
1199,-0.006134244148
1200,0.2876505256
1201,-1.163809419
1202,-0.5311143398
1203,0.3888835609
1204,-0.4927672148
1205,0.9875174165
1206,-0.093223162
1207,0.2342216223
1208,-0.4079765975
1209,-0.005832652561
1210,0.4207812548
1211,1.291401982
1212,-0.05034521967
1213,0.07317280769
1214,-0.9182671309
1215,-1.32659328
1216,-0.3306460679
1217,0.5476386547
1218,0.131866008
1219,0.9370115995
1220,-0.9217931032
1221,0.1205588207
1222,0.5539238453
1223,0.7205874324
1224,-0.4465022385
1225,-0.4991217256
1226,0.3259164095
1227,0.2543926537
1228,-0.5798831582
1229,-0.3388989568
1230,-0.2610099018
1231,-0.2333206385
1232,0.1181842461
1233,-0.3781110942
1234,0.7917310596
1235,-0.500808537
1236,0.1090995744
1237,-0.3765441775
1238,0.2374692857
1239,0.8563377857
1240,-0.3560883701
1241,0.372613579
1242,0.1497557312
1243,1.305165529
1244,-0.8351280093
1245,1.604256511
1246,0.7354493141
1247,-0.4099360406
1248,-1.15562439
1249,0.4050987363
1250,0.1676876694
1251,-0.3622843623
1252,1.00311017
1253,-0.4342347085
1254,0.3079044819
1255,-0.2462079823
1256,-1.014640808
1257,1.538634658
1258,-0.349431783
1259,-0.1276194751
1260,-0.1237298623
1261,-0.2960398197
1262,0.1656497419
1263,-0.4951070249
1264,-0.1510448456
1265,-0.1316234767
1266,0.1784323454
1267,0.5078949928
1268,0.1174016371
1269,0.6011181474
1270,0.1235670075
1271,0.4277760088
1272,-0.3495511711
1273,0.3266003132
1274,1.136741996
1275,0.1934626102
1276,0.7749128342
1277,-0.3045285046
1278,-0.3241055906
1279,-0.6915737391
1280,-0.00641924236
1281,-0.788983047
1282,-1.470871091
1283,1.11621809
1284,0.5111557841
1285,0.1759457439
1286,0.007865166292
1287,-0.1079436988
1288,0.7603693604
1289,-0.7826346159
1290,0.2440823019
1291,-0.4159063995
1292,-1.559857488
1293,0.2325086892
1294,-0.1128384173
1295,0.4846361876
1296,0.454072684
1297,-1.75082314
1298,0.01673980244
1299,-0.7229444385
1300,0.09895790368
1301,0.2977046072
1302,-0.047700461
1303,-0.007193376776
1304,0.4114173949
1305,-0.3785628378
1306,0.04301827773
1307,0.1925183982
1308,1.600269914
1309,0.2556968331
1310,0.2879728675
1311,0.5093279481
1312,-0.1577551514
1313,-0.3890036643
1314,0.7405511141
1315,-0.3529707193
1316,-0.1524979174
1317,0.6838654876
1318,-0.5647276044
1319,0.2034419924
1320,0.3371154368
1321,0.3297435641
1322,0.7613241673
1323,0.7677384615
1324,-0.5530731678
1325,0.2919369936
1326,-0.4720579088
1327,0.2098697126
1328,-0.1243107319
1329,0.09766745567
1330,-0.02584618144
1331,1.022975087
1332,0.2176439017
1333,1.015912294
1334,0.6792112589
1335,0.5208488107
1336,-0.5246885419
1337,-0.5592584014
1338,0.2412200421
1339,-0.2195131332
1340,0.08769397438
1341,0.3286535442
1342,0.6731519103
1343,0.2448278517
1344,0.1634470969
1345,0.6293956637
1346,-0.2161106914
1347,-1.002973795
1348,-0.1408487558
1349,-0.3331451416
1350,-0.1810756624
1351,-0.2204305083
1352,0.5247146487
1353,0.1509985775
1354,0.4929112494
1355,0.2081916928
1356,-0.09172157198
1357,-1.400436401
1358,-0.1719656289
1359,-0.1568770707
1360,0.8334389925
1361,0.8281335831
1362,-0.607596457
1363,0.4017720222
1364,0.6369832754
1365,-0.2252271771
1366,-0.2233585268
1367,-0.2784860432
1368,-0.3005509377
1369,0.07446429133
1370,0.1147914603
1371,0.5738545656
1372,0.09913203865
1373,-0.3365712762
1374,0.1918508112
1375,-0.4202553332
1376,-0.0213923119
1377,0.855171144
1378,-0.2353424728
1379,-0.007374078035
1380,-0.1787441671
1381,-1.587433934
1382,-0.3618713915
1383,0.1183672026
1384,0.05087091029
1385,0.008169343695
1386,-0.4389693737
1387,-0.6362378001
1388,0.09532720596
1389,-0.2096076757
1390,-0.02679108828
1391,0.3302663863
1392,-0.5164807439
1393,0.01038902998
1394,-0.092370525
1395,0.3821683526
1396,0.138456732
1397,0.1934089363
1398,-0.277761966
1399,-0.1339616477
1400,0.4506526887
1401,-0.5996959209
1402,0.05468802527
1403,-0.03689510748
1404,0.07795690745
1405,0.06906215101
1406,0.6017268896
1407,-1.451580524
1408,0.02213750966
1409,-0.1700869203
1410,0.155715242
1411,0.2370340079
1412,0.0746549964
1413,0.0315499641
1414,-0.09303963184
1415,0.1911889911
1416,0.2116262615
1417,-0.1203234494
1418,-0.1882410347
1419,0.2840144634
1420,0.2315980345
1421,-0.7845007181
1422,-0.1713628024
1423,-0.003856876167
1424,-0.218815133
1425,-0.9223735929
1426,-0.09365090728
1427,-0.2164379656
1428,-0.2007406801
1429,-0.1350200027
1430,-0.310813725
1431,-0.03941366076
1432,-0.2944903374
1433,0.2299770415
1434,0.1050586477
1435,0.3901416063
1436,0.1567348838
1437,0.46481058
1438,0.3938088417
1439,0.2215397954
1440,-0.3048038781
1441,-0.4480738044
1442,0.1915336847
1443,0.2044316232
1444,0.07772814482
1445,-0.1143650115
1446,0.04673076794
1447,0.1935643554
1448,0.3219296336
1449,0.3196836412
1450,0.1585746408
1451,0.2758451104
1452,0.1209351495
1453,-0.1332235485
1454,-0.0003144319635
1455,0.5103217363
1456,-0.04896768555
1457,0.1002310067
1458,-0.200070098
1459,-0.0008190695662
1460,0.2197551429
1461,-0.01904556155
1462,-0.2549078166
1463,0.1832739115
1464,0.1509921253
1465,-0.1112254113
1466,-0.02088143118
1467,-0.4980988801
1468,-0.4283206463
1469,-0.2333666682
1470,0.1309848279
1471,-0.3388879001
1472,-0.1468160152
1473,0.1332271099
1474,0.04895331711
1475,-0.1632410884
1476,-0.1036871523
1477,0.03279250488
1478,-0.262296617
1479,0.3925624192
1480,-0.02798863687
1481,-0.0663747713
1482,-0.1385210752
1483,0.1453668177
1484,0.2676945329
1485,0.172986716
1486,0.2437756062
1487,0.1383635104
1488,0.2469110191
1489,-0.5362980366
1490,-0.6276196241
1491,0.2273074836
1492,0.4730309546
1493,-0.2742057145
1494,0.2006244212
1495,-0.3251365721
1496,0.1445890665
1497,-0.005727510434
1498,-0.2004908919
1499,-0.550588131
1500,0.113717027
1501,0.6310392022
1502,0.2185873687
1503,0.3876590133
1504,-0.8354566693
1505,-0.009815660305
1506,0.3244684637
1507,-0.3165758848
1508,-0.06515234709
1509,0.2063764483
1510,0.4319049418
1511,-0.608874917
1512,0.3334375322
1513,-0.2566191256
1514,0.1799268872
1515,0.01823636703
1516,-0.05411119387
1517,-0.3861683607
1518,-0.07734929025
1519,0.03758723661
1520,0.05629751086
1521,0.4028632343
1522,0.09938579798
1523,-0.090258874
1524,-1.096786737
1525,0.3372028768
1526,-0.09552916884
1527,0.3946142197
1528,-1.231991887
1529,-0.2673290968
1530,-0.1456069052
1531,0.5148596764
1532,-1.074239373
1533,0.03315843269
1534,-0.6702346206
1535,0.376575321
1536,-1.040371895
1537,0.9108601213
1538,-0.05253200978
1539,-1.641658545
1540,-0.2531003356
1541,0.08693323284
1542,0.4571103752
1543,-0.9676336646
1544,0.3326168358
1545,-0.08890049905
1546,0.921233952
1547,0.5025535226
1548,0.06472104788
1549,-0.6376196146
1550,0.02185694128
1551,0.03205496445
1552,-0.2695750296
1553,-0.5638622046
1554,0.04042741656
1555,-0.2302739024
1556,-0.4208440781
1557,0.3820486367
1558,-0.07524688542
1559,-0.7146248817
1560,0.2848024368
1561,-0.6997994184
1562,-0.1426118165
1563,0.7554216981
1564,0.6917099357
1565,-0.04326232523
1566,-0.4318481088
1567,-0.7751868963
1568,-0.02833433263
1569,0.1652190238
1570,-0.2862348855
1571,0.2589305639
1572,-0.04913815111
1573,-0.2669718862
1574,0.2483653724
1575,0.4151477218
1576,0.09752263874
1577,-0.1865502
1578,-0.7411174774
1579,-0.03165154159
1580,0.3329045475
1581,0.3362951875
1582,0.4309046566
1583,0.1817979664
1584,-0.1160810441
1585,-0.3123452663
1586,0.676787436
1587,-0.2318688035
1588,0.3236036599
1589,0.4830830693
1590,-0.3753900826
1591,-0.3439127207
1592,0.6074841619
1593,0.2180748731
1594,0.2747072875
1595,-0.2657946944
1596,0.181984514
1597,-0.2421761751
1598,-0.005380967632
1599,-0.06334919482
1600,-0.8788369894
1601,-0.458535403
1602,-0.5490465164
1603,0.3704974055
1604,0.2138621062
1605,0.03404785693
1606,0.1443068087
1607,0.1812283695
1608,0.3120782673
1609,-0.3351444602
1610,0.3021490872
1611,0.8103824258
1612,0.2052453607
1613,-0.09279352427
1614,0.3127185404
1615,0.1753418595
1616,0.06546634436
1617,-0.0889891088
1618,0.08120885491
1619,-0.2234588861
1620,0.3271244764
1621,-0.1185287386
1622,-0.04472372308
1623,-0.6653244495
1624,0.3268524408
1625,-0.074699983
1626,-0.2087132931
1627,0.3095966578
1628,0.5041331649
1629,-0.221308291
1630,0.07557147741
1631,-0.1161039323
1632,-0.2106523514
1633,0.08071419597
1634,0.1844949722
1635,-0.03857211396
1636,-0.4829758406
1637,-0.3630773127
1638,-0.2309732884
1639,-0.3515648246
1640,-0.2586430311
1641,-0.1767929345
1642,-0.05180393159
1643,-0.02097382024
1644,0.2379098684
1645,-0.09330607951
1646,0.3550761938
1647,0.2428620905
1648,-0.1272238791
1649,-0.001117627718
1650,0.0995035544
1651,0.2440362722
1652,-0.2717865705
1653,-0.6485109925
1654,-0.2097741216
1655,0.2066214979
1656,-0.351952821
1657,-0.7358025908
1658,-0.2174037695
1659,-0.1886640489
1660,-0.4136075079
1661,-0.0288529098
1662,-0.6537025571
1663,-0.3333540559
1664,-0.3323891461
1665,-0.971996069
1666,0.104757756
1667,0.2846550643
1668,-0.2809702456
1669,-0.1714259237
1670,-0.1665689945
1671,-0.8732025027
1672,0.2672018707
1673,-0.9184445143
1674,-0.3451464474
1675,0.1867941618
1676,-0.0682400167
1677,0.4300958216
1678,-0.5043756366
1679,-0.1208438948
1680,0.3839289248
1681,-0.3693647981
1682,-0.1906777918
1683,0.2760025859
1684,-0.7231935263
1685,-0.1193229929
1686,0.2645125091
1687,0.375218004
1688,0.610172987
1689,-0.87902385
1690,-1.041763306
1691,-0.6351915002
1692,0.01585314795
1693,0.4492761791
1694,-0.03149940446
1695,0.08981848508
1696,-0.2179484963
1697,0.1304564625
1698,0.3905584514
1699,0.1973804981
1700,0.08324110508
1701,0.1611065716
1702,0.6416626573
1703,-0.4330041111
1704,0.4712854624
1705,-0.2329066545
1706,-1.519679189
1707,-0.9610691667
1708,0.2194890529
1709,0.2410190254
1710,0.9642762542
1711,0.5250399709
1712,-0.1530239731
1713,0.1681715995
1714,0.5270254612
1715,0.1173101589
1716,-0.4744735658
1717,-0.4697586894
1718,-0.4202605188
1719,-0.2404903024
1720,-0.9388022423
1721,0.4722252488
1722,0.4166291654
1723,-0.1713714004
1724,-0.5783027411
1725,0.03243981302
1726,-0.7955584526
1727,0.2485039532
1728,-0.7237084508
1729,0.7666605711
1730,-0.1842816919
1731,0.2308517843
1732,-0.08559179306
1733,-0.3137577772
1734,-0.8330056667
1735,-0.2911242545
1736,-0.2758280933
1737,0.1474043131
1738,-0.2186242789
1739,0.6164165735
1740,-0.09719035029
1741,-0.3823126853
1742,-0.6770021915
1743,0.419906199
1744,-0.3417926133
1745,-0.4867473245
1746,0.1197203696
1747,-0.6471832395
1748,0.54793787
1749,-0.2416845411
1750,-0.3802139759
1751,0.7013166547
1752,0.4860616028
1753,0.8065626025
1754,0.1160154417
1755,-0.1462032497
1756,-0.3956621885
1757,-0.02050644159
1758,0.1776805967
1759,0.323274374
1760,-0.310380429
1761,0.3496842086
1762,0.3564112186
1763,0.5111601353
1764,-0.3792023957
1765,0.09566288441
1766,0.3051107824
1767,-0.533212781
1768,0.256105423
1769,-0.7738693357
1770,-0.7369609475
1771,-0.1251063198
1772,0.1126445681
1773,0.06264502555
1774,-0.1006844565
1775,-0.1848402321
1776,0.5361526608
1777,0.08592189103
1778,0.3650293648
1779,-0.2746292055
1780,0.1734832078
1781,-0.289278686
1782,0.2696199119
1783,0.01567536034
1784,-0.836669147
1785,0.04879783466
1786,-0.1890767515
1787,0.1487094462
1788,0.2006574571
1789,0.1799545586
1790,0.04971798509
1791,-0.6433275342
1792,-0.3727575243
1793,0.1744805127
1794,0.01868260279
1795,-0.216284588
1796,0.2458061427
1797,-0.2468177676
1798,-0.07463189214
1799,-0.0486731194
1800,-0.2479518056
1801,-0.2247888595
1802,-0.04207738489
1803,-0.3240682483
1804,0.08004665375
1805,-0.03406591713
1806,0.3245283663
1807,-0.02949141525
1808,-0.008636185899
1809,0.1956356615
1810,0.1215711236
1811,-0.04476524889
1812,-0.3396790922
1813,-0.3744140267
1814,-0.07699352503
1815,0.260199666
1816,-0.08261550963
1817,0.2317894697
1818,0.297555536
1819,0.05512770265
1820,-0.01626643352
1821,0.05492978171
1822,-0.1154668704
1823,0.1673053354
1824,0.09189647436
1825,0.1529461294
1826,0.01003419608
1827,0.08639997989
1828,0.1046772972
1829,-0.3072378933
1830,-0.3094248474
1831,-0.1983854622
1832,-0.1724967957
1833,0.159211129
1834,-0.3350368142
1835,-0.1208086312
1836,0.3567461371
1837,-0.356860131
1838,-0.02141504735
1839,-0.2612953782
1840,0.334905833
1841,-0.006406552624
1842,0.1317708939
1843,0.1794439852
1844,-0.135315299
1845,-0.4189920127
1846,0.3122178614
1847,0.07463168353
1848,0.007438062225
1849,0.07972148806
1850,0.07434055954
1851,0.1995842457
1852,0.2627132237
1853,-0.2277593762
1854,0.3697162569
1855,-0.07641200721
1856,-0.1050783098
1857,-0.2975577414
1858,0.1598108113
1859,-0.2095953673
1860,0.3576609194
1861,-0.2446778715
1862,-0.2213757634
1863,0.06603677571
1864,0.1900119036
1865,-0.287740469
1866,-0.2483245432
1867,-0.1537975669
1868,-0.1327393949
1869,0.2040204108
1870,0.4185463488
1871,0.2383749485
1872,-0.2622400522
1873,0.3931182921
1874,0.1339525431
1875,0.07332029939
1876,0.2844848931
1877,-0.2003974468
1878,-0.2025810629
1879,-0.1512152702
1880,0.001944106538
1881,-0.1233503893
1882,-0.1779621542
1883,0.2853876352
1884,-0.3565120101
1885,-0.2752221823
1886,-0.0741667524
1887,-0.4504243135
1888,-0.2159370482
1889,0.2388074845
1890,0.1514358222
1891,0.0642747432
1892,0.03236716613
1893,0.3999363482
1894,-0.2283163071
1895,-0.01704781875
1896,-0.210729301
1897,0.06979116797
1898,0.02434728853
1899,0.290627569
1900,0.3232191205
1901,-0.1136315018
1902,0.3413933516
1903,-0.08599761873
1904,0.04352736101
1905,-0.26251477
1906,0.3579325378
1907,-0.07433268428
1908,-0.2373684049
1909,0.1855839789
1910,0.1922555566
1911,-0.07543244213
1912,-0.04161680862
1913,-0.1911204755
1914,0.104519479
1915,0.2342412174
1916,0.3012091815
1917,-0.2313863486
1918,-0.2552951574
1919,-0.02975036018
1920,0.6439057589
1921,-2.017167568
1922,-0.2580035031
1923,0.2887292206
1924,1.60973227
1925,0.262889713
1926,-0.03169092536
1927,-1.42072916
1928,0.6296344399
1929,0.8524550796
1930,-0.8628393412
1931,-1.536493659
1932,-4.062803268
1933,-0.5167700052
1934,0.564332068
1935,-0.62372154
1936,-1.406548023
1937,0.7235018611
1938,2.487351656
1939,-0.2575283349
1940,-0.03962675855
1941,-0.08189279586
1942,0.2920366228
1943,-0.3858930767
1944,1.394775987
1945,0.5480993986
1946,0.28533867
1947,0.2408749759
1948,0.7506635189
1949,-0.3602455258
1950,0.4743338823
1951,-0.7298278213
1952,-0.1259633452
1953,0.6762254834
1954,0.2814354599
1955,-5.026381969
1956,-1.161026716
1957,-1.38591361
1958,0.464030087
1959,0.994602263
1960,-1.187927723
1961,0.765696764
1962,-0.785783112
1963,1.499659419
1964,-0.851751864
1965,-0.3049340248
1966,0.8105025291
1967,0.663025558
1968,-1.678038716
1969,1.526010275
1970,1.444573283
1971,1.86107564
1972,0.8262221217
1973,-1.36212194
1974,0.7231621146
1975,-0.1777681559
1976,0.9452189803
1977,0.5958986282
1978,0.1273174882
1979,1.166220784
1980,0.01614891365
1981,0.346193254
1982,0.3791659474
1983,-0.0490315482
1984,0.2696228921
1985,-8.560727119
1986,0.2369632572
1987,0.6999076605
1988,-0.4336358309
1989,-0.2475835532
1990,0.2965446413
1991,-0.403059274
1992,0.2943649292
1993,0.895529747
1994,1.318140507
1995,0.04906412587
1996,0.3146925569
1997,-0.4219235182
1998,-2.095728874
1999,-10.69216728
2000,0.6468031406
2001,0.5879603028
2002,1.107582092
2003,0.5283600092
2004,-0.9182345271
2005,-0.3208886087
2006,-0.3169076741
2007,0.3077970743
2008,-0.4433473945
2009,-1.22727263
2010,-0.3863719106
2011,-0.5548151731
2012,0.1054211035
2013,-0.4758034647
2014,0.003830190515
2015,0.7398113012
2016,0.2768547535
2017,0.7355552912
2018,0.5940063
2019,-0.7129026055
2020,0.3966171443
2021,0.2882659137
2022,0.7345991731
2023,-0.6997648478
2024,0.2308818698
2025,-0.4109383225
2026,-1.249773622
2027,0.1561542153
2028,-2.887940407
2029,-0.1263885349
2030,-0.1754460931
2031,0.4525624514
2032,-0.3890242577
2033,0.03564981744
2034,-0.7945508957
2035,0.8650719523
2036,-4.643147945
2037,0.1690249294
2038,-0.3126880527
2039,-0.073058635
2040,-1.934877634
2041,0.4014087915
2042,0.4480358064
2043,0.4224872291
2044,-0.4629795253
2045,-0.1519801766
2046,-1.048689246
2047,0.02061118744
2048,1.763642907
2049,0.06618811935
2050,-0.1624385715
2051,-1.18553865
2052,-0.2119725496
2053,0.08355816454
2054,-1.333024383
2055,-0.08190796524
2056,0.008772846311
2057,-0.5221174359
2058,-0.3427315056
2059,-1.074924707
2060,-1.065052867
2061,0.6132749319
2062,0.2704082727
2063,0.9619932771
2064,0.1135680005
2065,-0.1055219993
2066,0.1981328279
2067,-0.5083342791
2068,0.1148191094
2069,0.3351246119
2070,0.2430212498
2071,0.3527717888
2072,1.508362293
2073,-0.8537451029
2074,-0.6796220541
2075,-1.410748243
2076,-0.6177065372
2077,0.5594140887
2078,0.6617786288
2079,-0.8991826773
2080,0.9345208406
2081,0.1832181513
2082,0.8892120123
2083,-0.2972000539
2084,-1.22203958
2085,-0.6567119956
2086,0.3666073084
2087,-0.2032509744
2088,-0.4626387954
2089,0.8491643071
2090,0.7691854835
2091,0.736789763
2092,0.6752768159
2093,0.2479601204
2094,1.273460865
2095,0.9947363138
2096,1.222243428
2097,0.7702918649
2098,-0.4237424731
2099,-0.4503131211
2100,-0.9126024842
2101,-0.6672873497
2102,0.3629777431
2103,-0.3855960071
2104,-1.025167942
2105,-1.300129652
2106,-0.786146462
2107,-0.2939326763
2108,-0.3956135511
2109,0.08006658405
2110,0.2427734584
2111,1.15937829
2112,0.1608613729
2113,-7.073278904
2114,0.3030156195
2115,-0.4406441152
2116,-0.5640326738
2117,-0.3316934705
2118,-0.377867043
2119,0.3090732098
2120,-0.6755903959
2121,0.5254855752
2122,0.5656345487
2123,0.5463709831
2124,0.6792773604
2125,-1.887825251
2126,-1.054388642
2127,-1.786048532
2128,-0.4213312268
2129,0.7861840725
2130,0.8251034617
2131,-0.3689156473
2132,0.1788681895
2133,0.2946552336
2134,0.0339884758
2135,0.1121334285
2136,-0.4941020608
2137,-1.010798931
2138,-0.4413200021
2139,-0.5810357332
2140,-0.1745402813
2141,-0.07885589451
2142,0.625661552
2143,0.5878831744
2144,0.3541302681
2145,0.7700716853
2146,0.1180689111
2147,0.1556206495
2148,-0.3613387346
2149,0.7707933187
2150,-0.2028968036
2151,-0.2539298534
2152,1.16937685
2153,-0.5670873523
2154,-0.03699177131
2155,-0.3206857741
2156,-2.214253664
2157,-0.1746073961
2158,0.5901907682
2159,0.9277765751
2160,-0.8591746092
2161,-0.7094686031
2162,-0.7017720938
2163,0.515560329
2164,-0.906201005
2165,0.3611807525
2166,-1.608999252
2167,1.035158992
2168,-0.3855532706
2169,0.1118481234
2170,1.127171159
2171,1.351093292
2172,-1.269583821
2173,-0.1667427719
2174,0.1399637014
2175,0.2512482703
2176,0.3169760406
2177,0.3233392537
2178,1.204663038
2179,-1.767597318
2180,0.8017059565
2181,0.2858020067
2182,-0.4797244072
2183,0.06010397524
2184,-0.1215189844
2185,-0.02623849176
2186,-0.7163872719
2187,-0.6037015915
2188,-0.01709162444
2189,-0.4068824351
2190,0.2178333849
2191,0.6282007098
2192,-0.1811015606
2193,0.2572515309
2194,1.356486559
2195,-0.6560793519
2196,0.2849471271
2197,-0.3491745293
2198,-0.3433457613
2199,-0.6756131649
2200,0.0695469752
2201,1.013866305
2202,-0.007898565382
2203,-0.4377914369
2204,-0.2813719213
2205,-0.7770779729
2206,-0.558832705
2207,-0.5074813962
2208,0.3902288973
2209,1.146389127
2210,0.06628262997
2211,-0.1078396514
2212,-0.9678437114
2213,-0.01629976928
2214,0.9617729187
2215,0.006811163388
2216,-0.7014064193
2217,-0.04914753884
2218,0.02481757663
2219,0.415875107
2220,0.584875226
2221,0.01093668025
2222,0.322978586
2223,0.746037662
2224,-0.6781423688
2225,-0.003606528277
2226,0.4535766542
2227,-0.3045975268
2228,-1.010480404
2229,0.0141322976
2230,0.2463576496
2231,-1.144841552
2232,-0.9052850008
2233,-0.122643061
2234,-0.2973824143
2235,0.3841440678
2236,0.1330024898
2237,-0.3090103865
2238,0.2495576441
2239,0.6729189157
2240,0.008494509384
2241,-6.995026112
2242,-0.1244084314
2243,-0.4178145826
2244,-0.1662958115
2245,-0.239858523
2246,0.1403999925
2247,0.2227929831
2248,-0.9903850555
2249,0.9321669936
2250,0.389631331
2251,0.6194937229
2252,0.8782345653
2253,-1.645927191
2254,-1.218192697
2255,-1.326665521
2256,-0.8505921364
2257,0.7033213377
2258,0.9572121501
2259,-0.7005026937
2260,-0.1398251951
2261,-0.1972954273
2262,0.1490492374
2263,-0.1436208487
2264,-0.1146499887
2265,-0.811211884
2266,-0.3031588197
2267,-0.3653682172
2268,0.161760509
2269,0.3145393133
2270,0.2768746018
2271,0.3902071118
2272,0.1229788512
2273,0.4347961843
2274,0.2472459972
2275,0.4007426798
2276,-0.5843557119
2277,0.5544753075
2278,-0.03033228964
2279,-0.07570905238
2280,1.456400156
2281,-0.6892353892
2282,0.1128842905
2283,-0.2951864302
2284,-2.462803602
2285,0.3070428967
2286,0.2148115039
2287,0.9469304085
2288,-0.6950097084
2289,-0.158159256
2290,-1.297926784
2291,0.2893859148
2292,-0.9662712812
2293,0.3303421438
2294,-1.151249051
2295,1.308042645
2296,-0.9304157495
2297,0.2284680009
2298,1.318849921
2299,1.369013309
2300,-0.6469454169
2301,-0.001724121161
2302,0.2960883081
2303,0.4472894073
2304,-9.007293701
2305,0.03191209584
2306,-0.01082973089
2307,0.9411158562
2308,0.2870127857
2309,0.376714915
2310,-0.7394384742
2311,1.044233441
2312,-2.154792309
2313,0.4148843586
2314,1.126525164
2315,1.624642134
2316,14.64547253
2317,5.13939333
2318,0.3716611564
2319,-0.5839566588
2320,-0.1479944587
2321,4.447935581
2322,-0.7760416269
2323,-0.4390794933
2324,-0.5390590429
2325,-0.02906439453
2326,0.001245485619
2327,1.501162291
2328,-0.3549128473
2329,0.7099997997
2330,-1.263744235
2331,0.178728193
2332,-0.1725136638
2333,-0.492059499
2334,1.444750667
2335,-5.217390537
2336,0.5373875499
2337,-2.321969271
2338,0.1611669064
2339,16.38739967
2340,-0.005664297845
2341,2.538964748
2342,-1.575071573
2343,-16.64836311
2344,2.52188921
2345,-1.053601027
2346,-13.66331196
2347,-0.04979870468
2348,-6.481096268
2349,-0.150734365
2350,-0.1959096491
2351,11.25341988
2352,-0.2303967029
2353,-8.527618408
2354,-0.2294444442
2355,-1.828218937
2356,-3.210984945
2357,0.3654427528
2358,-0.2955522835
2359,1.536832929
2360,0.004387983587
2361,-11.57100487
2362,-5.471056461
2363,0.4696337581
2364,-0.1437542289
2365,0.1481731385
2366,-0.5852449536
2367,0.2700291276
2368,-0.431710422
2369,0.332246244
2370,0.3218648136
2371,0.08550252765
2372,-0.0248840712
2373,-0.2367888391
2374,0.2768193483
2375,-0.05908991024
2376,0.1199201643
2377,0.394223094
2378,-0.1056500822
2379,0.1052380428
2380,-0.4648195505
2381,0.1671998054
2382,0.0944859758
2383,-0.4004805088
2384,0.05116717145
2385,-0.1805780679
2386,0.3272000253
2387,0.1054739505
2388,-0.1529728919
2389,-0.01054854691
2390,-0.3562595546
2391,0.3163197041
2392,0.07549918443
2393,0.2861880064
2394,0.1554713249
2395,-0.229320094
2396,0.4003243148
2397,-0.04787383601
2398,0.1470354348
2399,-0.0067246533
2400,0.4493588209
2401,-0.5811805129
2402,-0.5364982486
2403,-0.004760552663
2404,-0.1192341223
2405,0.3971176147
2406,0.05177355558
2407,0.3736576736
2408,0.3305579424
2409,0.224988699
2410,-0.02921077609
2411,-0.1374488771
2412,-0.3189362288
2413,-0.3042171001
2414,-0.1591671705
2415,-0.3476378918
2416,0.3978592157
2417,-0.3939312696
2418,-0.05360415205
2419,-0.2298190147
2420,0.4502373934
2421,0.2145274431
2422,0.1313099861
2423,-0.2985816002
2424,0.2470642924
2425,-0.1874950379
2426,-0.2052306086
2427,-0.2636808157
2428,-0.08231223375
2429,-0.1112356558
2430,0.3660928309
2431,0.3540425599
2432,0.1093926355
2433,0.02832132578
2434,0.4558427632
2435,-0.9667457938
2436,-0.1446210146
2437,0.386544615
2438,0.2725844979
2439,0.09240499884
2440,0.001245444175
2441,0.1234719455
2442,-0.8261793256
2443,-0.08392500132
2444,0.01824948005
2445,-0.5450962782
2446,-0.4191406965
2447,0.292136848
2448,0.4533381164
2449,-0.2417171001
2450,0.01907055639
2451,0.1797351539
2452,-0.01935383864
2453,-0.3169941604
2454,0.1946988106
2455,-1.741240621
2456,0.1636939943
2457,-0.7072547674
2458,-0.2667128742
2459,-0.4813001156
2460,-0.1709778458
2461,-0.1621550471
2462,0.2089170963
2463,0.07003362477
2464,0.510319829
2465,0.2507804632
2466,0.3437296748
2467,0.08447558433
2468,0.1011472866
2469,-0.03084859811
2470,-0.06797713786
2471,-0.4867977202
2472,-0.3616651893
2473,0.04754202068
2474,-0.1302401274
2475,-0.4139077961
2476,-0.1820658296
2477,-0.3881063163
2478,-0.3946613967
2479,0.6328276396
2480,-0.2071169615
2481,-0.3316650391
2482,-0.3925398886
2483,0.32283777
2484,-1.061542749
2485,0.1198591366
2486,0.01619021408
2487,0.3171793222
2488,-0.7350487113
2489,0.5447460413
2490,0.4118138254
2491,0.4856367707
2492,-0.3452329338
2493,-0.1761405468
2494,-0.5972530246
2495,-0.05751420557
2496,-0.0404034704
2497,0.02553817816
2498,-0.01984111592
2499,0.03924327344
2500,0.01907605305
2501,0
2502,0.09964828193
2503,-0.007478701882
2504,-0.1316091865
2505,0.01755726896
2506,-0.1041070297
2507,0.1059767231
2508,0.1138023734
2509,0.1543566734
2510,0.1192143708
2511,0.004529512487
2512,0.03160432726
2513,0.1562745124
2514,0.1701273024
2515,-0.07924214005
2516,-0.007150770631
2517,-0.02129879594
2518,0
2519,0.04893982783
2520,-0.04146886989
2521,0.1356089264
2522,-0.07117849588
2523,0.006095019635
2524,0.04216542095
2525,-0.2199024856
2526,0.003789533628
2527,-0.1060267314
2528,0.04502021894
2529,0.08775094897
2530,0.08755687624
2531,-0.01623477973
2532,-0.1239846274
2533,0.03386878967
2534,-0.04894113541
2535,-0.03375527263
2536,0.02123567462
2537,-0.0007379989838
2538,-0.01234475244
2539,-0.04364388436
2540,0.0004066200927
2541,0
2542,-0.02946071327
2543,0.1076920107
2544,0.02228240483
2545,0.05455845967
2546,0.01734297909
2547,-0.06411254406
2548,0.01223022863
2549,-0.08376300335
2550,-0.02096956596
2551,0.01127007231
2552,0.1864393502
2553,-0.0707295388
2554,-0.1238837317
2555,-0.01811098307
2556,0.130795911
2557,0
2558,0.009192127734
2559,0.0574131012
2560,0.2628852427
2561,-0.34794572
2562,-0.2122074366
2563,-0.03234451264
2564,0.2190111428
2565,-0.2458539158
2566,-0.3589825928
2567,0.1331102848
2568,0.009896802716
2569,-0.02657672577
2570,-0.1684990674
2571,0.03384798393
2572,-0.4940110147
2573,0.02528853528
2574,-0.3277339041
2575,-0.3390493691
2576,0.3420362175
2577,-0.5557792783
2578,0.1160839275
2579,0.2306821048
2580,-0.2309138328
2581,-0.1530512273
2582,-0.1151508614
2583,-0.03688376397
2584,-0.02497971989
2585,-0.3194263875
2586,0.4232663512
2587,-1.284692526
2588,0.3872559965
2589,-0.1274733841
2590,-0.1152041033
2591,0.2138391435
2592,0.3572875857
2593,0.1529118866
2594,-0.6755640507
2595,0.126043424
2596,-0.2121338546
2597,-0.1485437751
2598,0.2014109045
2599,-0.5875222683
2600,0.3194774687
2601,-0.908197403
2602,0.04952240735
2603,0.01275668945
2604,0.2574778795
2605,-1.233158112
2606,0.05665617436
2607,-0.4527740777
2608,-0.401070565
2609,0.2029834986
2610,-0.07538051903
2611,0.3301579654
2612,0.1742007285
2613,-0.2138159275
2614,0.06705696881
2615,0.314368844
2616,-0.9079079628
2617,-0.05125858635
2618,0.3789333105
2619,0.06336250901
2620,0.1267635077
2621,0.0508229211
2622,-0.1626320779
2623,-0.3337631524
2624,0.2691655457
2625,-0.2410574257
2626,-0.3531180918
2627,-0.4032366872
2628,-0.1190296635
2629,0.03720841929
2630,-1.077088833
2631,-0.115109168
2632,-0.4359745979
2633,-0.5500290394
2634,1.537463784
2635,-1.471970439
2636,0.3124508858
2637,0.2124774307
2638,-1.346706152
2639,0.6463000178
2640,1.345462203
2641,-0.3574698269
2642,-0.4762493968
2643,-0.405010283
2644,0.4681017101
2645,-0.2806393802
2646,0.0823110044
2647,-0.035263706
2648,0.02547055669
2649,-0.2021417171
2650,-0.1581217647
2651,0.4600208402
2652,0.5730395913
2653,-0.4999213815
2654,0.4801216424
2655,0.6780799031
2656,0.8574767709
2657,1.438619375
2658,-0.02027270012
2659,0.9852071404
2660,-0.3598659337
2661,-0.03614166379
2662,0.003713038983
2663,-0.1307325363
2664,1.164068937
2665,-0.7697782516
2666,-0.5484933257
2667,-0.4339846075
2668,1.190949321
2669,-0.7097393274
2670,-0.518809855
2671,-0.2631569207
2672,1.046983957
2673,-0.06436517835
2674,0.2799960971
2675,-0.20940274
2676,0.2120978087
2677,-0.2552034855
2678,-0.4180329442
2679,-0.4706512988
2680,0.8356169462
2681,-0.02146010287
2682,0.4322541952
2683,1.091645241
2684,0.2607993186
2685,1.232863665
2686,2.205551863
2687,-0.575541079
2688,0.05653997138
2689,-0.7119303942
2690,0.2839227021
2691,-0.4342279136
2692,0.06161059067
2693,-0.3477908969
2694,0.2917889953
2695,0.03677745908
2696,0.0770605281
2697,0.05414349958
2698,-0.01571443118
2699,0.3646025658
2700,-0.02049452066
2701,-0.3233035207
2702,0.3529652953
2703,0.5728262067
2704,-0.173800543
2705,-0.3445175886
2706,0.549911499
2707,-0.3221071661
2708,0.5890675187
2709,-0.1061657742
2710,0.5543296337
2711,-0.1128424406
2712,0.1560290158
2713,-0.3965282738
2714,-1.193921924
2715,0.2084790468
2716,-0.07865808904
2717,0.08780484647
2718,0.08933304995
2719,0.03610123694
2720,-0.3751654923
2721,0.06410418451
2722,0.1157949716
2723,0.2235139161
2724,-1.214791179
2725,-0.0385671854
2726,0.1353869885
2727,-0.2410371006
2728,0.1414264143
2729,0.5027107596
2730,-0.3737607896
2731,0.2160416245
2732,0.04256837815
2733,-0.6848906279
2734,-0.3732961118
2735,0.1029992774
2736,0.2952925563
2737,-0.1132609397
2738,0.06145868823
2739,-0.2958423793
2740,-0.3488087356
2741,0.1079460233
2742,0.128947258
2743,0.1424013227
2744,-0.0510074608
2745,0.2315715849
2746,-0.5792243481
2747,0.1013206765
2748,-0.387180388
2749,0.1476570517
2750,0.009218046442
2751,-0.10668578
2752,0.03511743993
2753,-0.116377078
2754,0.2818789482
2755,0.3455526233
2756,0.849952817
2757,0.092498146
2758,0.2323646992
2759,-0.04302908108
2760,-0.7280458212
2761,-0.1476319879
2762,0.01209634356
2763,-0.1926209182
2764,-0.9257173538
2765,0.1820036173
2766,-0.1108644083
2767,0.5770680308
2768,0.5717889071
2769,0.566208005
2770,-0.1588329822
2771,0.5449425578
2772,0.4199188948
2773,0.1981128007
2774,-0.5146182775
2775,0.4592933953
2776,0.5766091347
2777,0.4501114786
2778,0.01237248071
2779,1.605453014
2780,0.09162472934
2781,-0.06615515053
2782,0.1059687957
2783,0.0668252632
2784,0.7667452097
2785,0.5485492945
2786,0.05452433974
2787,0.2231789529
2788,-0.2455993891
2789,0.2369377613
2790,-0.3689537942
2791,-0.1315851808
2792,-0.3307445645
2793,0.6805487275
2794,-0.3665226996
2795,-0.3391954899
2796,0.3604597449
2797,0.3528491259
2798,-0.2519893944
2799,0.4949197173
2800,1.31103754
2801,0.8062294722
2802,-0.2608393729
2803,-0.1717933267
2804,-0.1957251132
2805,0.1395063698
2806,-0.06228909269
2807,0.1287517548
2808,0.7423987389
2809,-0.3084107041
2810,0.01754667424
2811,0.09614970535
2812,0.01388784312
2813,0.1020620093
2814,0.2662084699
2815,1.210282922
2816,-0.3945843875
2817,-0.05946718901
2818,-0.05176965892
2819,-0.1390812397
2820,-0.06785216928
2821,-0.05768900737
2822,0.2389238924
2823,-0.3469263315
2824,-0.08939538896
2825,-0.02337000147
2826,-0.02687974274
2827,-0.3365419805
2828,0.2439882755
2829,-0.2658187151
2830,0.16605407
2831,0.02545094118
2832,0.269335717
2833,-0.3386906087
2834,-0.1597881317
2835,-0.03449238464
2836,-0.1273344457
2837,-0.3373931646
2838,-0.04027664661
2839,-0.2032539248
2840,0.3856862485
2841,0.1328273267
2842,0.06787848473
2843,-0.5412405729
2844,-0.4099832773
2845,0.1004964039
2846,-0.1415365934
2847,-0.1667775065
2848,0.3574080765
2849,-0.09382496029
2850,0.1439374238
2851,-0.1350078285
2852,0.2576279342
2853,0.1489170492
2854,-0.02464462444
2855,0.0007796896389
2856,0.1171170622
2857,-0.1182399467
2858,0.1677594483
2859,0.004716903437
2860,0.2500734925
2861,-0.1328734308
2862,-0.3212468922
2863,-0.007472236641
2864,0.1093760431
2865,0.08161405474
2866,-0.1701675355
2867,-0.1211633086
2868,0.2110663354
2869,-0.3587632775
2870,-0.04164216667
2871,-0.3055581152
2872,-0.3274272084
2873,-0.1887451708
2874,0.01445692871
2875,-0.05758937076
2876,0.06999023259
2877,0.05338226631
2878,0.3596209288
2879,0.003396713873
2880,0.272115469
2881,0.2920645475
2882,0.02962093242
2883,0.08556123823
2884,-0.05094162002
2885,0.08429194242
2886,-0.1611937135
2887,0.0788243562
2888,-0.04765891284
2889,-0.01615528204
2890,-0.02493114397
2891,-0.2927690446
2892,0.01731462032
2893,0.2603100836
2894,0.2727436125
2895,-0.09649598598
2896,-0.2040003538
2897,0.01950047351
2898,-0.1842527986
2899,-0.07229062915
2900,-0.2568763793
2901,-0.1609171629
2902,0.09477196634
2903,-0.2826711535
2904,0.2834773362
2905,-0.2879618108
2906,-0.09207247943
2907,-0.1735209823
2908,0.2484011203
2909,0.1187709868
2910,0.02378457971
2911,0.04183767363
2912,-0.158154428
2913,-0.2156759948
2914,-0.1578955948
2915,-0.1287440807
2916,-0.1902927756
2917,-0.2460538894
2918,0.2434433401
2919,-0.129528746
2920,-0.2562761605
2921,0.05308857933
2922,0.03324314207
2923,0.00706151966
2924,-0.06961905211
2925,-0.1385806501
2926,0.1084623709
2927,0.1053956226
2928,-0.09934287518
2929,0.2019775957
2930,0.2058283389
2931,-0.1830717325
2932,-0.199406743
2933,-0.1731106341
2934,-0.1955530047
2935,0.07566919923
2936,0.140064612
2937,-0.2189565599
2938,-0.2677728832
2939,0.1047180295
2940,0.189198941
2941,-0.2768756747
2942,-0.2300559133
2943,-0.1339718848
2944,0.07209192216
2945,0.03345389292
2946,-0.00336487405
2947,-0.05512394011
2948,0.4286961257
2949,-0.2456608862
2950,0.2694327235
2951,-0.2781089544
2952,0.2231655568
2953,-0.09610615671
2954,-0.1650151461
2955,0.1625158936
2956,0.3168781698
2957,0.1773955226
2958,-0.2419234067
2959,-0.6738252044
2960,0.005197043531
2961,0.04936250299
2962,-0.2307510823
2963,0.1315435767
2964,0.5329266191
2965,0.06951715052
2966,-0.5471295118
2967,-0.1019558012
2968,-0.2649252713
2969,0.05052018538
2970,-0.3290098906
2971,-0.3356571198
2972,-0.1229921952
2973,-0.02217138186
2974,0.3480295539
2975,-0.03722653538
2976,0.08628384769
2977,0.1099437252
2978,-0.6948842406
2979,-0.1716136336
2980,-0.2737501562
2981,-0.3344598711
2982,-0.3562407494
2983,-0.293966502
2984,0.1692644805
2985,0.3048615158
2986,0.1987799555
2987,0.04235073179
2988,-0.04221074656
2989,0.1483087838
2990,-0.2841874361
2991,-0.3992140293
2992,-0.468875438
2993,0.2494122386
2994,0.0934484303
2995,0.09482310712
2996,-0.2584200203
2997,-0.2743363678
2998,0.06062673777
2999,0.05008642375
3000,0.02855121717
3001,0.1459181011
3002,0.4795030951
3003,0.1680147499
3004,-0.1998770386
3005,-0.1608987004
3006,0.3003112078
3007,-0.1840571314
3008,0.5231668353
3009,0.007933558896
3010,0.2620559037
3011,0.2478689849
3012,-0.1886521429
3013,-0.4007077515
3014,0.1457951069
3015,-0.2687740028
3016,0.05674027279
3017,0.05751480535
3018,0.3234594464
3019,0.001875497401
3020,0.04157764837
3021,-0.3356135786
3022,0.2600372434
3023,0.09779985994
3024,-0.3626023233
3025,-0.183797434
3026,0.3338493705
3027,-0.5008784533
3028,0.2497902662
3029,-0.06284733862
3030,-0.9575371146
3031,0.3943948448
3032,-0.01727182232
3033,-0.0585411042
3034,-0.8888527751
3035,0.2315716594
3036,-0.1865209937
3037,0.0910256952
3038,0.2037504464
3039,-0.01447802316
3040,-0.2487682402
3041,0.126106739
3042,-0.2337344885
3043,-0.07522618771
3044,-0.4694879949
3045,-0.2960657179
3046,0.2225838155
3047,-0.3867228329
3048,-0.1588497907
3049,-0.2141923457
3050,0.1229076013
3051,-0.02729444765
3052,-0.4682927132
3053,-0.09923049808
3054,0.3497535288
3055,0.1456454247
3056,-0.08619889617
3057,0.2026592195
3058,-0.2373720258
3059,-0.3541048467
3060,-0.1078447998
3061,-0.2789727747
3062,0.002943804953
3063,-0.06588092446
3064,0.03165244311
3065,-0.6651936173
3066,0.5577458143
3067,0.1155787855
3068,-0.1443252116
3069,0.1900178641
3070,-0.1677749306
3071,-0.7117227912
3072,-0.04466762394
3073,-0.03610970452
3074,0.1441952884
3075,0.04225235805
3076,-0.06388101727
3077,-0.3204975426
3078,0.2086187899
3079,-0.2063599676
3080,0.2698231041
3081,-0.3404901624
3082,-0.03403746337
3083,0.164612487
3084,-0.5500118732
3085,-0.2803338468
3086,0.122039713
3087,0.1652560532
3088,0.2558774054
3089,0.05811994895
3090,-0.08117261529
3091,0.08557529747
3092,-0.3111950159
3093,-0.1978771091
3094,-0.2870796323
3095,-0.0318306759
3096,-0.226472348
3097,-0.08884266019
3098,0.2821979225
3099,0.04911199212
3100,-0.0421727784
3101,-0.2466506958
3102,0.349101305
3103,0.3438252807
3104,-0.2533380985
3105,-0.1851114482
3106,0.2585776746
3107,0.02699929103
3108,-0.7218109369
3109,-0.2541484833
3110,-0.08717844635
3111,0.2096512765
3112,-0.08134593815
3113,0.1541768014
3114,-0.3181162775
3115,0.2637471259
3116,-0.2260721475
3117,-0.5161445141
3118,-0.07021763176
3119,0.273358196
3120,0.180133298
3121,-0.1874208152
3122,-0.1747487783
3123,0.1011756659
3124,-0.2034076005
3125,-0.3469648659
3126,-0.3578702211
3127,0.3397959173
3128,-0.1057103798
3129,0.0356297493
3130,0.0901953727
3131,0.5313137174
3132,-0.301292628
3133,0.3314745128
3134,-0.3344869614
3135,-0.1150175333
3136,-0.1656456888
3137,0.02246857807
3138,-0.1157419086
3139,0.1875015646
3140,-0.09155909717
3141,-0.2842763364
3142,0.37596035
3143,0.0784175992
3144,0.5966333151
3145,-0.1439443678
3146,-0.4106198251
3147,0.4866995811
3148,-0.05422413722
3149,-0.3495510221
3150,0.3644054234
3151,0.3011812568
3152,-0.02410184965
3153,0.128759563
3154,-0.2792810798
3155,0.4739950895
3156,-1.078212857
3157,0.0343824625
3158,0.04399079829
3159,0.2829376161
3160,0.007101038005
3161,-0.005193532445
3162,-0.07530084997
3163,-0.9120673537
3164,-0.1730428934
3165,0.06457596272
3166,-0.01266313903
3167,-0.06181829423
3168,-0.03322714567
3169,-0.1280544847
3170,-0.1878327429
3171,-0.2845384479
3172,0.02025528252
3173,0.07107707113
3174,-0.2334220409
3175,0.2704646289
3176,-0.2639422417
3177,0.6933053136
3178,0.07279539853
3179,0.2465615273
3180,0.01707936265
3181,0.1500350982
3182,-0.6016246676
3183,0.1958682686
3184,-0.6089422703
3185,0.3474229574
3186,-0.1862532943
3187,0.3187672794
3188,-0.1455591172
3189,-0.294788003
3190,0.04260058701
3191,0.2289146036
3192,-0.4780001938
3193,0.09119182825
3194,-0.6465469599
3195,0.1905180514
3196,0.08668311685
3197,0.1925366521
3198,-0.3643034697
3199,-0.800103724
3200,-0.8341372609
3201,0.01483197697
3202,-1.004314899
3203,-0.9192360044
3204,1.127016068
3205,-0.1132383719
3206,1.541109085
3207,-0.05384900793
3208,0.103127107
3209,-1.105313063
3210,0.06767644733
3211,-0.2552081645
3212,0.2065635175
3213,0.02135954052
3214,0.4326292872
3215,0.09414087236
3216,-0.5215970874
3217,0.2407500595
3218,0.5152055025
3219,-1.923175931
3220,0.09910291433
3221,0.03422306105
3222,-0.6233991385
3223,0.2790200412
3224,0.2749373913
3225,-0.3407474458
3226,-1.480741858
3227,0.7338011861
3228,0.04387660697
3229,0.05487624556
3230,0.5049405694
3231,-0.3991449475
3232,0.01658022217
3233,-1.061377645
3234,0.1882520914
3235,0.231252566
3236,0.6469393969
3237,-0.2053135931
3238,1.177624106
3239,0.1489146203
3240,-0.9783499241
3241,0.5743222237
3242,-0.2469880879
3243,0.2662364244
3244,-0.1897656173
3245,0.1696279645
3246,1.938585162
3247,-0.03018012084
3248,-0.4450441003
3249,-0.01072327048
3250,0.1526295245
3251,-0.3239875138
3252,-0.1984613687
3253,-0.1944410801
3254,0.04937202856
3255,-0.3657308519
3256,-0.5568412542
3257,0.1201515794
3258,-0.4521956444
3259,-0.0742527619
3260,0.8035576344
3261,-0.3872699738
3262,0.1307442933
3263,-0.2456076294
3264,0.07647327334
3265,-0.1150189713
3266,-0.1393813193
3267,0.07346209884
3268,-0.5600130558
3269,-0.2753302753
3270,-0.2710643113
3271,-0.3236424625
3272,0.2979045808
3273,-0.1378211528
3274,-1.182534218
3275,0.1703125834
3276,0.07920382172
3277,0.02573988959
3278,0.1686316729
3279,-0.4390352368
3280,-0.3672490716
3281,0.3938495219
3282,-0.3900410235
3283,-1.012183666
3284,0.3735157847
3285,0.07972532511
3286,0.2626126409
3287,0.1277573407
3288,-0.1519045979
3289,0.02146559022
3290,-1.261300206
3291,-0.313169688
3292,0.007535986137
3293,-0.5275216103
3294,-0.1238556802
3295,-0.1952722967
3296,0.03247825056
3297,-0.3748903871
3298,-0.3507612348
3299,-1.076228261
3300,-0.5871428251
3301,0.07882726938
3302,-0.06719332933
3303,0.05265240744
3304,0.2961782813
3305,-0.3320542872
3306,0.167251125
3307,-0.09218316525
3308,-0.3928299844
3309,-2.044976473
3310,1.023074746
3311,-0.04754253104
3312,-0.3508351445
3313,0.1667213142
3314,-0.184037894
3315,-0.1104217917
3316,0.2770465016
3317,-0.1282438487
3318,-0.4388951659
3319,0.1540267169
3320,0.4435813427
3321,-0.2172899693
3322,0.4040802419
3323,0.1396693736
3324,0.02625169046
3325,-0.6219503284
3326,0.03727526218
3327,0.0715103671
3328,-0.1878024042
3329,0.5104501843
3330,0.1208973154
3331,-0.3791942894
3332,-0.2074010074
3333,-0.0438583903
3334,0.4782063663
3335,0.1508889049
3336,0.5201993585
3337,-0.2086960822
3338,-0.836633265
3339,-0.5078752041
3340,-0.07992565632
3341,-0.2800438404
3342,0.2857171297
3343,-1.266117692
3344,-0.9471325874
3345,-0.008344420232
3346,0.4591024816
3347,-0.6150527596
3348,0.171922937
3349,0.1558998376
3350,0.2206813246
3351,-1.112088203
3352,-0.3545309007
3353,-0.6571974754
3354,-0.9718257785
3355,-1.015736818
3356,-0.5237901807
3357,0.08602057397
3358,-0.3405834436
3359,0.009299358353
3360,-0.02666980028
3361,-0.9544829726
3362,-0.2423116565
3363,0.06551866233
3364,0.4053549469
3365,-0.05676180124
3366,0.6709142327
3367,0.6269527674
3368,-0.3968281448
3369,-1.283068538
3370,0.4377915561
3371,-0.4048810601
3372,-0.3371767402
3373,-0.4249981046
3374,0.9826980233
3375,-0.3263118565
3376,0.5115461946
3377,-0.485661298
3378,-0.0006870711804
3379,-0.6712166667
3380,-0.1619063467
3381,-0.1318743676
3382,0.1656008363
3383,-0.6617098451
3384,-0.02331467904
3385,0.4213223457
3386,-0.3208527863
3387,-0.7382047176
3388,0.2414573133
3389,-0.4107689559
3390,0.3155925572
3391,-0.3650951982
3392,-0.4009846151
3393,0.1475785673
3394,-0.0528639406
3395,0.3033862412
3396,-1.995043397
3397,0.08050397784
3398,-0.02636235952
3399,0.180916965
3400,0.149633944
3401,-0.5754188895
3402,0.600643754
3403,0.3656291962
3404,0.3956762254
3405,-0.1459387839
3406,0.2204771936
3407,-1.152658343
3408,0.2876429856
3409,0.5327463746
3410,-0.004386560991
3411,0.2296534926
3412,-0.1705127954
3413,-0.1381088644
3414,-1.082698584
3415,-0.0334492214
3416,-0.869341135
3417,-0.2724585235
3418,0.4333397746
3419,0.6042659879
3420,0.1453830302
3421,-0.4748348892
3422,0.1909644008
3423,-0.189575389
3424,-0.2051304132
3425,0.2156397849
3426,-0.2827506959
3427,0.002328356961
3428,-0.9895169139
3429,-0.009771121666
3430,-0.2480670065
3431,-0.1938493699
3432,0.328656882
3433,-0.09811456501
3434,0.1324805617
3435,-0.5963407159
3436,-0.4522705376
3437,0.298343569
3438,-0.578527987
3439,-0.3109106421
3440,0.278676033
3441,0.444019258
3442,-0.1370619088
3443,-0.2439319193
3444,0.1828072518
3445,0.2693329155
3446,0.3089440763
3447,-0.00388889201
3448,0.5818248987
3449,0.2799786925
3450,0.2065333426
3451,0.004022396635
3452,-0.7456769347
3453,-0.06157821789
3454,-0.4209634066
3455,-0.1839241385
3456,-0.3979510963
3457,0.04553575814
3458,0.1124911457
3459,0.1466109753
3460,-1.051136136
3461,0.0666712299
3462,0.02954519913
3463,-0.08103642613
3464,-0.1272949427
3465,-0.08093781769
3466,0.3322201073
3467,-0.2646787763
3468,0.2465643585
3469,-0.08446952701
3470,0.03389892727
3471,-0.2101599723
3472,0.4234946966
3473,0.05915294588
3474,-0.4678054452
3475,0.4215945601
3476,-0.2177474946
3477,0.01016577985
3478,-0.4757377207
3479,-0.3075457811
3480,-0.06051068753
3481,-0.0730914101
3482,-0.2883396149
3483,0.3762615919
3484,-0.1039846316
3485,-0.198877573
3486,-0.01064034738
3487,0.07670781761
3488,0.4844625294
3489,-0.04961163551
3490,-0.1258410066
3491,-0.06715399772
3492,0.149037689
3493,-0.05734800175
3494,-0.1567453742
3495,0.2485406399
3496,0.2544270158
3497,-0.8049449921
3498,0.2640935183
3499,0.2487507313
3500,-0.01246132143
3501,-0.2047097683
3502,-0.02308991179
3503,0.4360758364
3504,0.2903499007
3505,-0.6729208827
3506,0.240755856
3507,-0.2248793095
3508,-0.1165268049
3509,-0.270509541
3510,0.2483398765
3511,-0.2913170755
3512,0.04295644909
3513,0.371753037
3514,-0.2980374098
3515,0.0550105907
3516,-0.263543129
3517,0.002196096117
3518,0.305734247
3519,0.1675577909
3520,-1.330035686
3521,-0.3722798228
3522,0.3697194457
3523,0.6246367693
3524,0.2042450905
3525,0.04113767669
3526,-1.961942434
3527,-0.2939190567
3528,0.1878491044
3529,0.1792571247
3530,-0.4110227525
3531,0.5661531091
3532,-0.7331181169
3533,-0.1262688935
3534,-0.2165913582
3535,-0.7252975702
3536,0.7967972159
3537,0.2094525397
3538,-0.3140560091
3539,0.5741102099
3540,-0.8544330001
3541,0.2071397454
3542,-0.1977490485
3543,-0.5308821201
3544,0.07404816151
3545,0.8067143559
3546,-0.2009095699
3547,0.7830603719
3548,0.4779661894
3549,-0.07229174674
3550,-1.087735295
3551,0.1773961633
3552,-0.4219668508
3553,0.5773363113
3554,-0.1659470797
3555,-0.001979707042
3556,0.4224681854
3557,-0.09044165164
3558,-0.1641555429
3559,-0.4144015014
3560,0.1910163611
3561,-2.383204937
3562,-0.003712822683
3563,-0.03587716818
3564,0.2729802728
3565,-1.867294788
3566,-0.790956974
3567,-0.7003188729
3568,-0.7690975666
3569,-1.795182943
3570,0.08148332685
3571,0.01401822455
3572,-0.3108207285
3573,0.1572096795
3574,0.009525496513
3575,-0.2987237573
3576,0.7835931778
3577,0.2526582778
3578,-0.0132269552
3579,-0.1732471287
3580,-0.1723632663
3581,0.4187518358
3582,-0.7855648994
3583,0.2434816211
3584,0.131595999
3585,-0.3052396178
3586,-0.2173423022
3587,0.3577549756
3588,0.03855620697
3589,-0.1437931806
3590,0.08789005876
3591,-0.03051274642
3592,0.1524484158
3593,0.2086798698
3594,0.2245973796
3595,0.2530525923
3596,-1.293307543
3597,-0.07155583054
3598,0.04948367551
3599,-0.926682651
3600,0.04251737893
3601,0.2681099176
3602,-0.1624796242
3603,-0.5797249079
3604,0.2516681254
3605,-0.2347660661
3606,-0.6418508291
3607,-0.513838172
3608,-0.002805044642
3609,0.08911390603
3610,-0.409388721
3611,0.4371965826
3612,-0.04638754576
3613,0.2320518792
3614,-0.01844181307
3615,0.3216232955
3616,-0.02575786039
3617,0.08575540781
3618,0.2892186046
3619,0.006094046403
3620,-0.4261580408
3621,0.04597340524
3622,-0.3292356133
3623,0.2054297328
3624,0.05074420944
3625,0.1963786036
3626,0.07170254737
3627,0.1266070902
3628,0.04899191111
3629,0.2583394349
3630,0.08578173816
3631,-0.9617735147
3632,-0.1404844075
3633,0.3970614672
3634,-0.2641114891
3635,0.2212633789
3636,0.02205311134
3637,0.100816898
3638,-0.1742955446
3639,-0.03598647565
3640,0.3343838155
3641,0.3747319281
3642,0.07101772726
3643,0.2404719442
3644,-0.1031863019
3645,-0.04879427329
3646,-0.9589101672
3647,-0.1752873808
3648,-0.4638434052
3649,0.07007981837
3650,0.4877278209
3651,-0.1504209191
3652,0.2523486614
3653,0.1793668717
3654,-0.6015121341
3655,0.1631020308
3656,0.4434868991
3657,1.096676111
3658,-0.6617329121
3659,-0.1917800456
3660,-0.1213479042
3661,-0.1403015107
3662,-0.3057159483
3663,-0.3706701398
3664,-0.7440366745
3665,-0.4500178397
3666,0.2230483294
3667,-0.2651387453
3668,-0.5899584293
3669,-0.08078856021
3670,-1.141867757
3671,0.2050117105
3672,0.2510885596
3673,0.4780929983
3674,-1.048968792
3675,-0.735911727
3676,-1.016380072
3677,0.1730760038
3678,-0.2138751149
3679,-0.5020636916
3680,0.6182377338
3681,-0.07054991275
3682,-0.04856938869
3683,-0.05605032668
3684,-0.376434803
3685,-0.06487557292
3686,0.4090141058
3687,0.9043240547
3688,-0.4237139225
3689,-0.8899507523
3690,-0.4235056639
3691,-0.2245883942
3692,-0.2758165002
3693,0.08152205497
3694,0.2105221152
3695,-0.02415236458
3696,-0.2115189135
3697,-1.153538823
3698,-0.408585459
3699,-0.8353543282
3700,-0.2296977043
3701,0.07019041479
3702,0.07487358153
3703,-0.6567255259
3704,0.81715101
3705,-0.06099874526
3706,0.2873152494
3707,-0.7897896767
3708,0.7136853933
3709,-0.7168822885
3710,0.2498138249
3711,-0.05403899774
3712,0.1745869368
3713,0.4186344147
3714,0.0814698413
3715,0.2638432682
3716,0.1596175879
3717,-0.1748040915
3718,-0.3116483986
3719,0.004340016749
3720,-0.05710159987
3721,0.2677366436
3722,-1.043247342
3723,0.02739913948
3724,-0.3645305037
3725,0.09433940053
3726,0.004072474316
3727,0.3114728928
3728,0.003745325841
3729,-0.1868067682
3730,-0.03409982473
3731,0.1437233239
3732,-0.1623217762
3733,-0.335962832
3734,0.006578588393
3735,0.07226996124
3736,0.4166666567
3737,-0.08247377723
3738,-0.1291434616
3739,-0.2472484857
3740,0.09340903163
3741,0.2674931884
3742,0.3014138341
3743,0.2271933109
3744,-0.0868345499
3745,0.2049653083
3746,-0.1147337034
3747,-0.4720132947
3748,-0.2377150506
3749,0.1936919391
3750,-0.2955109477
3751,-0.2106727362
3752,-0.4879090488
3753,0.0196201168
3754,0.3012850583
3755,-0.0872092247
3756,0.2010862827
3757,0.1367715895
3758,-1.409068346
3759,0.2945553064
3760,0.1982282549
3761,-0.1527259499
3762,0.140806362
3763,-0.3674875498
3764,0.09594128281
3765,0.08830687404
3766,0.01572333835
3767,-0.1046797931
3768,-0.3785009384
3769,0.1208285764
3770,0.07518599182
3771,0.1928378046
3772,0.1779278219
3773,0.008447681554
3774,0.3795110881
3775,0.3943603337
3776,-0.476423651
3777,-0.2822151184
3778,0.3392477632
3779,0.3615351617
3780,-0.1494458616
3781,0.04552224278
3782,-0.1425603032
3783,-0.3188906312
3784,0.1558094919
3785,-0.1840428561
3786,-0.05351932347
3787,0.08315979689
3788,-0.1548500657
3789,-0.2712199092
3790,0.04790502787
3791,-0.1140345111
3792,-0.1162831932
3793,0.1644128561
3794,-0.2003293633
3795,-0.3663960099
3796,-0.2009854168
3797,-0.1427921355
3798,-1.285356283
3799,-0.1000548676
3800,-0.2252456248
3801,0.4316311777
3802,0.08850136399
3803,0.1533353925
3804,0.1174845248
3805,-0.0001559949596
3806,-0.03472986817
3807,0.04265639931
3808,-0.05632734671
3809,0.1714971513
3810,0.02920214459
3811,0.02876387723
3812,-0.6634035707
3813,-0.323104769
3814,-0.08310437948
3815,-0.2546853423
3816,-0.1302238703
3817,0.3090889752
3818,0.2833533883
3819,-0.3289794922
3820,-0.2375388741
3821,0.3008783758
3822,-0.0001436504972
3823,-0.02621795982
3824,-0.1183492318
3825,-0.09385789931
3826,-0.2180048525
3827,-0.1355755627
3828,0.1363029927
3829,-0.366971612
3830,-0.1546295732
3831,0.2839365005
3832,0.05410128087
3833,0.1712743193
3834,0.02006896213
3835,0.1422846168
3836,-0.527402401
3837,-0.07371779531
3838,-0.318703115
3839,-0.05158951506
3840,0.02206480131
3841,-1.866730213
3842,-0.01997260563
3843,-0.116271846
3844,-1.207095623
3845,0.1582522243
3846,0.1406186223
3847,-0.2990853488
3848,0.2325153798
3849,-0.2113475353
3850,0.0644185096
3851,0.4606702924
3852,-0.09480739385
3853,0.1658089608
3854,0.1910241395
3855,0.2452205122
3856,0.2592497468
3857,-0.3514267504
3858,0.2113510221
3859,-0.03151483834
3860,0.1139821038
3861,-0.2798050046
3862,-0.009137528948
3863,-0.5973898172
3864,0.1310773492
3865,0.119710587
3866,0.1757746637
3867,0.2834796309
3868,-0.04273785278
3869,0.226543054
3870,-0.3217499852
3871,0.094117634
3872,-0.09503418207
3873,0.3518577218
3874,0.3382772505
3875,-0.1616302431
3876,-0.5323845148
3877,-0.2183373868
3878,-0.1427071393
3879,0.07056637853
3880,0.1928107888
3881,-0.1971904784
3882,0.3217256069
3883,-0.4103536606
3884,0.3363185525
3885,0.360309124
3886,0.2422087193
3887,-0.5933407545
3888,-0.2305839807
3889,-0.2829784751
3890,-0.3263600767
3891,0.3590079248
3892,-0.07866928726
3893,-0.3114885688
3894,-1.872430921
3895,0.2574488521
3896,0.5411646366
3897,-0.4626051486
3898,-0.4183697104
3899,0.1024264768
3900,0.05654650927
3901,0.163714096
3902,-0.6834313273
3903,-0.6960564256
3904,-0.03407237306
3905,0.06312669814
3906,-0.1389865875
3907,-0.2171999216
3908,-0.1594237089
3909,0.1400258094
3910,-0.1351394057
3911,0.1012669653
3912,0.06400141865
3913,0.08167845011
3914,-0.2254828662
3915,-0.01472430956
3916,0.09653902054
3917,-0.1613860577
3918,-0.1636956334
3919,-0.3030487597
3920,0.1701164246
3921,0.2140673548
3922,0.1537123471
3923,0.0724311322
3924,0.2177705169
3925,0.02265653946
3926,-0.0803764388
3927,0.1837972254
3928,0.03317554295
3929,0.287982285
3930,0.02499525622
3931,0.045152843
3932,0.1102503836
3933,-0.1217774749
3934,-0.07546632737
3935,0.2470594794
3936,-0.2299981266
3937,-0.2835824192
3938,0.1117905006
3939,0.06240749359
3940,0.2586648762
3941,-0.1804789901
3942,0.006576825865
3943,-0.0855634585
3944,0.2042170465
3945,0.1741460413
3946,0.03192012757
3947,-0.2453444302
3948,-0.1189170778
3949,0.04689668119
3950,0.300755769
3951,0.1240309775
3952,-0.03482526541
3953,0.1946658641
3954,-0.1798985749
3955,0.2393897027
3956,-0.1019962057
3957,-0.1422608346
3958,-0.03477548435
3959,0.2289544046
3960,0.242102325
3961,-0.2521617115
3962,-0.0445012711
3963,-0.001524797641
3964,0.2293984443
3965,0.1884202659
3966,-0.02213300392
3967,-0.2695831358
3968,-0.1395546794
3969,0.0267911423
3970,0.01921818033
3971,0.256840378
3972,-0.1483608335
3973,-0.251327306
3974,0.2246170491
3975,-0.2633153796
3976,0.05572608858
3977,0.2727500498
3978,-0.2281208634
3979,0.05537729338
3980,-0.08595287055
3981,0.2347656935
3982,0.2181261033
3983,0.2757495642
3984,-0.2716375291
3985,-0.258928895
3986,0.2426028848
3987,0.02799240127
3988,-0.1205897927
3989,-0.1798778027
3990,-0.3000257313
3991,0.3006666005
3992,0.03734796122
3993,-0.2177222818
3994,0.06647161394
3995,0.3034446239
3996,-0.2734816968
3997,0.2463021129
3998,-0.01603216678
3999,-0.1861681789
4000,0.09654992819
4001,-0.2366887778
4002,0.187080428
4003,0.02585450932
4004,0.101146847
4005,-0.1834512502
4006,0.30308339
4007,-0.1742882282
4008,0.04838892072
4009,0.1125843078
4010,-0.2272088975
4011,-0.1163477153
4012,0.1769262403
4013,-0.08537470549
4014,0.2054802775
4015,-0.29668957
4016,0.1746279597
4017,0.2084668279
4018,-0.1202339903
4019,0.1309690028
4020,-0.1654519439
4021,0.05341076851
4022,-0.2992870212
4023,-0.143433094
4024,0.01534240227
4025,-0.2962418199
4026,0.1870669872
4027,0.008678626269
4028,-0.2775824964
4029,-0.04527727515
4030,0.2884601653
4031,-0.150473386
4032,-0.9270379543
4033,0.2862403989
4034,0.4584575593
4035,-1.124477983
4036,0.9720683098
4037,0.127817899
4038,-0.9831103086
4039,-0.2833548188
4040,-0.5754696727
4041,0.1420769542
4042,-0.4008451998
4043,-1.236989737
4044,-0.7868775129
4045,0.04929475486
4046,0.599922955
4047,0.518451035
4048,0.2503026128
4049,0.5525070429
4050,0.06763320416
4051,-0.0755951032
4052,0.107336767
4053,-0.02819846384
4054,0.02629796229
4055,-1.145787358
4056,0.2014125735
4057,0.1610595733
4058,0.3297457993
4059,0.169810757
4060,-0.129802078
4061,-2.080105305
4062,-0.2682389021
4063,0.1431926191
4064,-0.7200360894
4065,-0.6267728806
4066,-0.1295775175
4067,0.1858174801
4068,-0.02512346581
4069,-0.06809496135
4070,-0.3819749951
4071,0.7025865912
4072,-0.3204627037
4073,-0.6892086864
4074,0.4095543325
4075,-0.07909469306
4076,-0.2615330219
4077,0.9450781941
4078,-0.643564105
4079,0.211349532
4080,0.7133436799
4081,-0.5940164328
4082,-0.07289371639
4083,0.7095248699
4084,-0.133095637
4085,-0.1481987685
4086,0.4553533792
4087,-0.4232459068
4088,-0.05419832096
4089,-0.04049555957
4090,-2.405587196
4091,-0.8998007178
4092,0.6940261126
4093,0.2741387784
4094,-1.26958859
4095,0.2763491869
4096,-0.1004093289
4097,-0.4154798985
4098,-0.1417551935
4099,-0.03783446923
4100,0.2686106265
4101,-0.2107407451
4102,0.04821582884
4103,-0.2592502236
4104,-0.2812445462
4105,0.3005795479
4106,0.3496001065
4107,0.2819914818
4108,-0.1881619543
4109,-0.2194229811
4110,0.1741198599
4111,0.2286646664
4112,-0.301328212
4113,0.1754192859
4114,-0.3377734423
4115,-0.06754590571
4116,0.1510104984
4117,-0.1448649019
4118,0.1146929637
4119,0.07864209265
4120,0.04515838996
4121,-0.1767641455
4122,0.07916124165
4123,-0.2050041258
4124,0.2419048101
4125,-0.3521411121
4126,-0.3024909198
4127,-0.01311361976
4128,-0.1589710712
4129,0.08260340244
4130,-0.2643866539
4131,-0.2616286576
4132,-0.310891211
4133,0.01474448666
4134,-0.06725260615
4135,-0.1599432379
4136,0.3068466783
4137,-0.2872507274
4138,-0.01160533447
4139,0.1132400781
4140,-0.07700325549
4141,0.05454726145
4142,-0.518596828
4143,0.0333067812
4144,-0.3307445049
4145,-0.04597723857
4146,-0.1418151855
4147,-0.09146208316
4148,0.151252687
4149,-0.1078643575
4150,0.1741851717
4151,0.3107213676
4152,0.2621679008
4153,0.009860905819
4154,0.0007222255808
4155,0.03412213549
4156,-0.2187830955
4157,-0.3943032622
4158,-0.5962204337
4159,0.3545828462
4160,0.132532075
4161,-0.3188238442
4162,-0.1304071993
4163,-0.1507875621
4164,-2.139750481
4165,0.1342540234
4166,0.131207794
4167,-0.08499392867
4168,0.02759632468
4169,-0.3034569323
4170,0.249213919
4171,0.06880996376
4172,-0.1349831223
4173,-0.2245624959
4174,-0.2704117596
4175,-0.5918470025
4176,0.07701782137
4177,-0.5236958861
4178,0.2469501197
4179,0.4083780944
4180,-0.6744297743
4181,-0.1398549676
4182,-0.06750863045
4183,-0.4083690047
4184,-0.1078379974
4185,-0.2627845407
4186,0.02328705043
4187,-0.6614286304
4188,-0.01969858259
4189,-0.03220675141
4190,-0.1701927781
4191,-0.2371838987
4192,0.6885660291
4193,-0.108244054
4194,0.201534465
4195,0.6375949979
4196,-0.07138428092
4197,-0.1026570424
4198,0.1367440671
4199,-0.2771610022
4200,0.1930360943
4201,-1.940119743
4202,0.06961661577
4203,0.03595750779
4204,0.02116660587
4205,-0.1899328828
4206,0.007224431727
4207,-0.2948357463
4208,0.5402929783
4209,-1.542632937
4210,-0.2889198661
4211,-0.4094647467
4212,-0.1872849315
4213,-0.09992644936
4214,0.3056772947
4215,-0.57853508
4216,0.07060556114
4217,-0.4958539903
4218,-0.7342306972
4219,-0.5170334578
4220,0.4166916013
4221,0.4792263508
4222,0.4341077209
4223,-1.200974822
4224,0.2612971067
4225,-0.1170892119
4226,0.2321935892
4227,0.1449281722
4228,-0.5026834011
4229,0.1012361646
4230,0.1931502074
4231,-0.312579155
4232,-0.107706517
4233,-0.015618545
4234,-0.1124390811
4235,-0.09127120674
4236,0.08779098094
4237,-0.3279393315
4238,-0.03402750567
4239,-0.7874389887
4240,0.1300943792
4241,0.1842393577
4242,-0.1811693162
4243,-0.07980464399
4244,-0.09223228693
4245,-0.2142518312
4246,-0.829295516
4247,0.4632230997
4248,-0.3466624916
4249,-0.1222168058
4250,-0.07984109223
4251,-0.07193151116
4252,-0.4411379993
4253,0.2362835407
4254,0.2041296512
4255,-0.1318626553
4256,-0.04091017693
4257,0.1551761031
4258,0.09057117999
4259,0.236539036
4260,-0.6185565591
4261,-0.2769699991
4262,0.07340673357
4263,-0.00458413735
4264,0.09255365282
4265,0.2616862655
4266,-0.09972659498
4267,0.1842086315
4268,-0.175754413
4269,0.1772582382
4270,-0.2436312437
4271,-0.2640667558
4272,-0.1981989443
4273,0.09737537801
4274,-0.2834034264
4275,-0.04546202347
4276,-0.2789856791
4277,-0.009056599811
4278,-0.3722153604
4279,0.08335904032
4280,-0.1534515619
4281,-0.01073963568
4282,0.1854317933
4283,0.140173167
4284,0.1697764695
4285,0.1490748078
4286,0.1069946289
4287,-0.9413695335
4288,0.3400245607
4289,0.3635363877
4290,0.1077482998
4291,0.2799940407
4292,-1.221826553
4293,-0.2969102859
4294,0.305133611
4295,0.173441872
4296,-0.2998198867
4297,0.3052431047
4298,-0.3430998623
4299,0.2127202898
4300,-0.2593879402
4301,-0.07204733789
4302,0.1143969074
4303,-0.6480366588
4304,0.3652527332
4305,-0.1719915569
4306,-0.2292011976
4307,-0.1065503806
4308,-0.2946332693
4309,0.2102715969
4310,-0.0589056462
4311,0.1727730483
4312,-0.080392465
4313,0.08288536221
4314,0.1512788832
4315,-0.4963459671
4316,0.30572474
4317,0.1825240552
4318,0.2407550812
4319,0.1189363077
4320,-0.7324379086
4321,0.2509233952
4322,-0.2444066554
4323,-0.2456942499
4324,-0.0888324976
4325,0.04050995409
4326,0.3179549873
4327,0.169375971
4328,0.0840446353
4329,0.3741137087
4330,-0.2560830414
4331,-0.07343333215
4332,0.3688496649
4333,0.4180711806
4334,0.1776665151
4335,-0.07230223715
4336,-0.04995957762
4337,-0.07176221907
4338,-0.3097654283
4339,0.05105903745
4340,-0.2627137005
4341,0.1291360557
4342,0.0190501269
4343,-0.005363685079
4344,-0.06867025793
4345,-0.3777657151
4346,0.2626342177
4347,-0.1196489036
4348,0.1825081706
4349,0.1807058454
4350,-0.1937159896
4351,-0.1843793839
4352,-0.1496129036
4353,0.1134348661
4354,0.02817634679
4355,-0.06200741976
4356,-0.9993318915
4357,-0.2081495672
4358,0.2331759334
4359,0.1474472582
4360,0.03516608104
4361,0.419295758
4362,0.1288706958
4363,-0.1094619557
4364,0.3614833355
4365,0.03440604731
4366,0.2583898008
4367,-0.03576051071
4368,-0.2101211548
4369,0.4327040315
4370,0.337538451
4371,-0.1662336886
4372,0.141734764
4373,0.2419454306
4374,-0.5399551988
4375,0.3519875109
4376,0.1877782643
4377,0.4562620521
4378,-0.7559892535
4379,0.9103885293
4380,-0.3998962343
4381,0.3585923612
4382,-0.1992547363
4383,0.1387722641
4384,0.1433428675
4385,-0.1533966213
4386,-0.4649682641
4387,-0.2458543777
4388,-0.3887369633
4389,0.06543310732
4390,0.2096153349
4391,-0.3387727141
4392,-0.1208005995
4393,-0.6549087763
4394,-0.143893525
4395,0.2708606124
4396,0.109502703
4397,0.08099441975
4398,0.02027389593
4399,-0.04148484394
4400,0.02214657143
4401,-0.1253819615
4402,-0.3262350559
4403,-0.05390717834
4404,-0.294255048
4405,-0.08673767745
4406,-0.06571881473
4407,-0.5104396939
4408,0.04894234613
4409,-0.2187226564
4410,-0.08231797069
4411,-0.005169128999
4412,-0.1915991604
4413,0.01347921137
4414,0.1173878536
4415,0.3653146625
4416,-0.1243361086
4417,-1.290150762
4418,0.3008484244
4419,-0.08509388566
4420,-0.6507862806
4421,-0.05480612814
4422,-0.2036036551
4423,-0.2370381504
4424,-0.06876969337
4425,0.04683124274
4426,0.03404331952
4427,0.2732933462
4428,-0.5782394409
4429,-0.3565272093
4430,-0.0716938749
4431,-1.358268619
4432,-0.2316055447
4433,0.07130197436
4434,-0.0823283121
4435,0.0250885766
4436,-0.6557739377
4437,-0.1397908926
4438,-0.1834049523
4439,0.05976633355
4440,-1.031328201
4441,0.115973331
4442,-0.1919839084
4443,-0.07684158534
4444,0.1942113042
4445,-0.07069291174
4446,0.1727250367
4447,0.1536770612
4448,-0.5544893146
4449,0.1286389828
4450,0.113228865
4451,-0.2743602693
4452,-0.334302485
4453,-0.2022725046
4454,0.3084935844
4455,0.2334113717
4456,-0.2098705471
4457,0.003379610134
4458,-0.05358958244
4459,0.2658892274
4460,0.1006327495
4461,-0.09457258135
4462,-0.009619835764
4463,-0.3174836338
4464,0.133635968
4465,0.2878781855
4466,-0.2948026061
4467,0.2040318698
4468,-0.04135806859
4469,-0.2630068064
4470,0.07277137786
4471,-0.1187140495
4472,0.1950691044
4473,-0.304130733
4474,0.305754602
4475,0.1046145037
4476,-0.2338989526
4477,0.179437384
4478,-0.703194499
4479,-0.431989193
4480,-0.1328451782
4481,-0.4404221177
4482,-0.2505393624
4483,-0.3350000978
4484,-0.8378554583
4485,-0.3371864259
4486,-0.22258313
4487,0.144664228
4488,-0.3136071265
4489,0.4452558756
4490,-0.7003409266
4491,-0.05555747822
4492,-0.02096828632
4493,-0.3123577833
4494,0.0004497944028
4495,0.0978069976
4496,-0.6606343985
4497,0.3160800338
4498,0.07223426551
4499,-1.270771027
4500,0.3547747135
4501,0.1091207638
4502,0.1249365509
4503,-0.009114973247
4504,-0.1314616799
4505,0.09540821612
4506,-0.5597075224
4507,0.2709288299
4508,0.1120745763
4509,0.06266721338
4510,0.2728284597
4511,0.2255233228
4512,-0.2564188242
4513,-0.4483526945
4514,0.5397933125
4515,-0.08995419741
4516,0.3703903258
4517,0.1084640548
4518,0.2085012496
4519,0.1010591984
4520,-0.5899417996
4521,-0.2609884739
4522,-0.3835365176
4523,-0.06908967346
4524,0.01736894064
4525,-0.04910321161
4526,-0.3386007845
4527,-0.1888993531
4528,-0.2338436842
4529,-0.107007727
4530,0.1482852101
4531,0.09072072059
4532,-0.08076611906
4533,0.04972750694
4534,0.03918835148
4535,-0.06872056425
4536,-0.2877739668
4537,-0.8226601481
4538,0.280043602
4539,0.3236979246
4540,-0.1220747083
4541,-0.04571732134
4542,-0.09162278473
4543,0.2319977134
4544,-0.05903276429
4545,-0.2736946344
4546,-0.3534570932
4547,-0.154496938
4548,0.09738548845
4549,-0.08504618704
4550,0.04494011402
4551,-0.2625941634
4552,0.05438540131
4553,-0.308626622
4554,0.00218673842
4555,0.08989764005
4556,-0.1367641538
4557,-0.08290444314
4558,0.0230884701
4559,0.5979478359
4560,0.04368877411
4561,0.05678634346
4562,-0.1388582587
4563,-0.145002082
4564,-0.0692993626
4565,-0.3000525236
4566,0.04470439255
4567,-0.1851964146
4568,-0.1986982673
4569,-0.4649461508
4570,0.4527367353
4571,-0.438374728
4572,0.3217645884
4573,0.1801725924
4574,0.05694251135
4575,0.09470787644
4576,-0.362157166
4577,0.1375269741
4578,0.1343705803
4579,-0.152936548
4580,-0.1238022223
4581,0.1263963282
4582,0.3560873568
4583,0.3426117897
4584,-0.2333903164
4585,-0.04995950311
4586,0.01228181459
4587,-0.04436254501
4588,-0.1746561676
4589,-0.1575194597
4590,0.1633182168
4591,0.5962520242
4592,-0.4410223961
4593,0.04359740391
4594,-0.239271313
4595,-0.03628220409
4596,-0.2462613583
4597,-0.1372795403
4598,-0.1581292003
4599,-0.01017600112
4600,-0.5832014084
4601,-0.5678433776
4602,-0.3604412675
4603,-0.07558009028
4604,0.2068704963
4605,-0.3095825315
4606,-0.5773815513
4607,-0.1972654015
4608,-0.4035606086
4609,0.3472893834
4610,-0.01631138287
4611,-0.1671520323
4612,0.9630505443
4613,-0.02817521431
4614,0.2551544905
4615,-0.1566120237
4616,-0.09653241187
4617,-0.1575112194
4618,0.1155979037
4619,-0.4119298458
4620,1.204439282
4621,-0.3441908062
4622,0.09809649736
4623,-0.318579644
4624,-0.3817100823
4625,-0.4903400242
4626,-0.417512387
4627,0.1450165361
4628,0.5626125932
4629,0.1322483271
4630,0.4038280845
4631,-0.1127192006
4632,-0.3140162528
4633,-0.2972060442
4634,-1.287229538
4635,0.2445085347
4636,-0.1025971249
4637,-0.02046778798
4638,-0.248234272
4639,-0.5940152407
4640,-1.976414442
4641,-0.2441547811
4642,0.8928738236
4643,-0.2633186281
4644,-0.1636251807
4645,-0.08840867877
4646,-0.03345770761
4647,0.4101779759
4648,0.2987371981
4649,-0.08155761659
4650,-0.18677257
4651,-0.3963811696
4652,-0.1181106791
4653,-0.6009061933
4654,-0.9139475226
4655,0.1863859296
4656,-0.1613925099
4657,-0.4634846151
4658,-0.2300216258
4659,0.008116156794
4660,0.1220398769
4661,0.02215022407
4662,-1.902130246
4663,-0.03307589889
4664,0.04700385407
4665,0.7585605979
4666,-0.2912346423
4667,-0.3077123463
4668,0.3892280161
4669,-0.3628285825
4670,0.2657648623
4671,-1.150467396
4672,-0.2958042622
4673,0.5191536546
4674,-0.1601950675
4675,-0.1646387279
4676,0.191657424
4677,-0.2026961744
4678,0.1122321114
4679,-0.08795333654
4680,-0.2796958983
4681,0.02073917538
4682,0.1852870435
4683,-0.2465009987
4684,0.1340346336
4685,-0.192578584
4686,-0.5619295239
4687,0.6144587994
4688,0.6603127718
4689,-0.8187448978
4690,-0.1764871329
4691,0.5650568008
4692,-0.3010804653
4693,-0.004288504831
4694,-0.4304589927
4695,-0.3882996738
4696,0.3649120033
4697,0.1072883084
4698,0.8545544147
4699,-0.1183899418
4700,0.5738154054
4701,0.4997415245
4702,0.1863433123
4703,0.02129617147
4704,1.214916706
4705,-0.01470149122
4706,-0.2387348861
4707,-0.5409167409
4708,0.1219491214
4709,-0.04111422971
4710,-0.1836639792
4711,-0.4566535652
4712,-0.3404106796
4713,0.09911329299
4714,0.04625966027
4715,-0.1903941035
4716,0.206994608
4717,0.09756273031
4718,0.002236342523
4719,-0.1494177282
4720,-0.02727046795
4721,0.6412803531
4722,-0.1663168371
4723,-0.04984885454
4724,-0.1229605898
4725,0.1536345035
4726,-0.1065309197
4727,-0.2357087135
4728,-0.5825229883
4729,-0.04544210806
4730,0.7691732049
4731,0.03176750615
4732,-0.1279756576
4733,0.1202898175
4734,0.4447577596
4735,0.1744539291
4736,-0.07247182727
4737,-0.3766680658
4738,0.02635130286
4739,0.1259749234
4740,-0.5505767465
4741,-0.06935434043
4742,-0.7274579406
4743,0.2224192768
4744,-0.4463591278
4745,0.1981471777
4746,-0.8525339961
4747,-0.1102319136
4748,-1.008512378
4749,-0.1709801853
4750,0.3180252016
4751,-0.2766081095
4752,0.4534783959
4753,0.1988727003
4754,0.1429396719
4755,0.6344767809
4756,-0.5106002092
4757,-0.1393464804
4758,-0.6254922152
4759,-0.3633833528
4760,0.1334997267
4761,-0.1535353959
4762,0.3197721243
4763,0.2801397145
4764,-0.2149036378
4765,0.2291829586
4766,-0.612921536
4767,-0.07847249508
4768,-0.707069695
4769,-0.02395867184
4770,0.0181077756
4771,-0.2385573834
4772,0.05693008751
4773,-0.03580951318
4774,0.01294822246
4775,0.3215132654
4776,-0.2378982455
4777,-0.4004750848
4778,-0.49160254
4779,0.1640340239
4780,-0.324865222
4781,-0.3944322169
4782,0.4541082382
4783,-1.317958117
4784,-0.3358310461
4785,-0.6734420061
4786,0.01972935349
4787,0.4010379612
4788,-0.02485945262
4789,-0.06760147214
4790,-0.3432548046
4791,-0.3797419667
4792,-0.324418962
4793,-0.1727219224
4794,-0.3179839551
4795,-0.05184110627
4796,0.05295141414
4797,-0.04761011153
4798,0.2467295825
4799,0.3298011422
4800,0.4292485118
4801,-0.8132804036
4802,0.2701591253
4803,-0.7000882626
4804,0.01424068771
4805,-0.1607551873
4806,-0.2691554725
4807,-0.1988552213
4808,-0.1711349636
4809,-0.07272832841
4810,-0.1965948939
4811,0.4235251844
4812,-0.9383711219
4813,0.1460584253
4814,0.4879496098
4815,0.4057099223
4816,-0.7624762654
4817,0.3508197069
4818,0.7822597623
4819,-1.167922378
4820,0.3300934732
4821,-0.2782945335
4822,-0.09607268125
4823,-0.4100346267
4824,-0.3230329752
4825,-0.3479652107
4826,-1.143793106
4827,0.280477941
4828,-0.4639815688
4829,-0.6004101038
4830,-0.1046981141
4831,-0.03486231342
4832,-0.2051262856
4833,-0.5699843764
4834,-0.1512434781
4835,0.2372961789
4836,0.225125879
4837,-0.3290913105
4838,0.1448077261
4839,0.4579463899
4840,-0.04052045196
4841,-0.7245514393
4842,-0.3859268725
4843,0.1873211563
4844,-0.6340806484
4845,-0.7527728677
4846,0.1854348928
4847,-0.2084569037
4848,-0.08531229198
4849,-0.4706872702
4850,0.2761364877
4851,0.0788121596
4852,0.09615005553
4853,-0.1674382687
4854,-0.243873015
4855,-0.3507973552
4856,0.02138432302
4857,-0.3435306251
4858,-0.7403755188
4859,-0.5404760838
4860,0.4435963929
4861,-0.4053820968
4862,-0.4423098862
4863,0.03116967157
4864,0.1676152349
4865,-0.4075905085
4866,-0.1076418385
4867,-0.125480637
4868,-0.03326610848
4869,-0.01778495125
4870,-0.2388563156
4871,-0.2257180661
4872,0.1008801982
4873,0.2352153212
4874,-0.3125372827
4875,0.4596109688
4876,-1.000469089
4877,-0.004031819291
4878,0.03706929833
4879,0.170712769
4880,-0.0295420941
4881,0.2634621561
4882,-0.4146344662
4883,-0.1908367872
4884,-0.7357111573
4885,-0.11695721
4886,0.2457867563
4887,0.06687818468
4888,0.1548070759
4889,0.0107441619
4890,-0.07580967247
4891,-0.1454624385
4892,0.247599259
4893,-0.1428231001
4894,0.1321055591
4895,-0.1372897178
4896,-0.636197567
4897,-0.03975218534
4898,-0.05295974016
4899,0.2289665341
4900,-0.4686308801
4901,-0.077150397
4902,-0.1740693599
4903,-0.09602557868
4904,-0.01886051893
4905,0.3011771739
4906,0.2117945105
4907,-0.01391290873
4908,-0.1368362159
4909,0.2277936488
4910,-0.0283143539
4911,-0.08511798084
4912,-0.3347556293
4913,0.1010249183
4914,-0.3113356233
4915,0.221282497
4916,0.1084632799
4917,0.07476708293
4918,-0.4182596207
4919,0.1202341616
4920,0.2416889817
4921,-0.06254529953
4922,0.169750303
4923,-0.225715369
4924,0.334531039
4925,-0.1903461963
4926,-0.5867747068
4927,0.6118555069
4928,-0.1634146124
4929,0.07437489927
4930,-0.2742961645
4931,-0.3153171837
4932,-0.09276790917
4933,-0.2607213557
4934,0.1782198697
4935,-0.2395902723
4936,0.3752916157
4937,0.001301944139
4938,-0.1604585499
4939,-0.07999712974
4940,-0.01625493728
4941,0.1977788806
4942,-1.529842848e-06
4943,0.3681624234
4944,-0.5616816282
4945,0.06801580638
4946,0.1455776095
4947,0.03390247375
4948,0.142626673
4949,-0.003617688082
4950,0.32409361
4951,-0.460437566
4952,-0.2742064595
4953,-0.1313888282
4954,0.06769430637
4955,-0.1869675666
4956,-0.1573484093
4957,-0.1370956749
4958,-0.424680829
4959,0.2310250849
4960,-0.3326099217
4961,-0.1108742058
4962,0.1454776078
4963,0.1989394873
4964,-0.2804422379
4965,0.03575351834
4966,0.3309235275
4967,0.06880193204
4968,-0.08081771433
4969,0.1693498641
4970,0.1645836681
4971,-0.06800263375
4972,0.1065417379
4973,0.02026241086
4974,0.300082624
4975,0.3938256204
4976,0.1822036207
4977,-0.206155628
4978,-0.3048746288
4979,-0.1269215047
4980,-0.1463211626
4981,0.0149156237
4982,0.02114398032
4983,-0.1164638847
4984,0.09663134068
4985,0.1469750702
4986,-0.7626758218
4987,-0.1995725334
4988,0.1621149033
4989,0.114878349
4990,-0.311953783
4991,0.02443244308
4992,-0.2130943835
4993,-0.8476456404
4994,0.4020595551
4995,-0.1116314828
4996,-0.3284185827
4997,0.2413934767
4998,0.3593427241
4999,-0.07018767297
5000,-0.1421545595
5001,-0.105167225
5002,0.0641047582
5003,0.1727584898
5004,-0.007415132131
5005,0.02737339959
5006,0.3560357988
5007,-0.3753392398
5008,0.1750098169
5009,-0.0683536604
5010,-0.4526389241
5011,-0.1554955989
5012,-0.2282616049
5013,-0.008862587623
5014,-0.1621173322
5015,-0.06509899348
5016,-0.694062233
5017,0.1172555089
5018,0.2553448677
5019,0.5957285762
5020,-0.5344180465
5021,-0.4584893882
5022,0.3532802165
5023,0.1042764708
5024,-0.6284076571
5025,-0.5944565535
5026,0.00858656317
5027,-0.5318443179
5028,-0.9327529073
5029,0.2824770808
5030,0.1128108427
5031,0.4791126549
5032,-0.1597771943
5033,0.526966095
5034,-0.1115720496
5035,-0.2588999271
5036,-0.5425753593
5037,-0.328452915
5038,-0.6006804705
5039,0.1017326862
5040,-0.2277736068
5041,0.2851289809
5042,-0.2831186056
5043,0.3749447763
5044,0.07791083306
5045,-0.186161831
5046,0.1428784728
5047,0.4587524533
5048,0.2170117348
5049,-0.01410343964
5050,-0.8919068575
5051,0.09002353251
5052,-0.1036736667
5053,0.1580050141
5054,-0.3887118995
5055,-0.1177129894
5056,0.05447273329
5057,0.4779380262
5058,-0.06544195861
5059,0.005500736646
5060,-0.2575887442
5061,0.2225421071
5062,0.1000770181
5063,-0.256051749
5064,-0.3877329826
5065,0.06987606734
5066,-0.3887914419
5067,-0.1751464754
5068,0.358984977
5069,0.1445362717
5070,-0.1633381397
5071,-0.1755618602
5072,0.2809588313
5073,-0.1584949046
5074,0.203645736
5075,0.01306231041
5076,0.2984776199
5077,0.002773442306
5078,-0.2158712447
5079,-0.8478142023
5080,0.198019743
5081,-0.04610602185
5082,-0.01380486414
5083,-0.2773634493
5084,0.2857726216
5085,-0.1464778483
5086,-0.07957642525
5087,-0.2625837028
5088,-0.4160773754
5089,-0.4258910418
5090,-0.4065666795
5091,-0.5249368548
5092,0.1588853747
5093,-0.1183888093
5094,-0.246525228
5095,-0.01731675118
5096,-0.4759158194
5097,-0.1083634645
5098,0.2858851254
5099,0.1903741509
5100,0.3758409023
5101,0.1051741913
5102,-0.09076473862
5103,0.3359154463
5104,-0.09439196438
5105,-0.02935271151
5106,0.07349690795
5107,0.1480710506
5108,-0.1860495806
5109,0.1865427643
5110,0.4891613722
5111,-0.0144342687
5112,-0.5500338674
5113,-0.7330911756
5114,-0.214991644
5115,0.2706102431
5116,-0.08521798998
5117,0.004776490852
5118,0.03277376294
5119,0.005910982843
5120,0.1867333353
5121,-0.5148363113
5122,0.1959417462
5123,-0.4387235641
5124,-0.9024497271
5125,-0.1190379262
5126,-0.03404462337
5127,0.1764001399
5128,-0.1401947886
5129,-0.2034782916
5130,-0.1210799515
5131,0.1044546217
5132,-0.05920938775
5133,0.001433351659
5134,0.1175528988
5135,-0.2796390951
5136,-0.359190017
5137,0.001635965426
5138,0.2839301825
5139,0.1242609546
5140,0.07113558054
5141,-0.1450286806
5142,0.07504445314
5143,-0.898979187
5144,-0.3767200708
5145,-0.04832848907
5146,-0.03247962892
5147,-0.07420107722
5148,-0.1169342026
5149,0.02432015538
5150,-0.2451156229
5151,0.169734776
5152,-0.3927916288
5153,0.03528054804
5154,0.150625363
5155,0.03241645545
5156,0.1680374146
5157,-0.2191173732
5158,0.4970101118
5159,0.1146294922
5160,-0.4568635523
5161,0.01169443037
5162,-0.5211199522
5163,0.2063543797
5164,-0.02577165887
5165,-0.153676033
5166,0.2966912985
5167,-0.5814318061
5168,-0.1911142319
5169,-0.1751784682
5170,-0.1092478782
5171,0.2516668439
5172,0.01981768198
5173,-0.05941990018
5174,-1.045699
5175,0.1951217502
5176,-0.2908009887
5177,-0.4916889668
5178,-0.1302679926
5179,-0.1589204669
5180,-0.1156660989
5181,-0.2779980004
5182,-0.2957847416
5183,-0.1118032038
5184,0.2690863013
5185,0.1406492293
5186,0.01051037386
5187,0.03701577708
5188,-0.9152937531
5189,0.03785603121
5190,-0.3940189779
5191,0.2389435023
5192,0.08339769393
5193,-0.0860587433
5194,0.5704405904
5195,-0.01407224871
5196,0.1160961762
5197,-0.0922563225
5198,0.2523156703
5199,-0.6125753522
5200,-0.04522290826
5201,0.2655620873
5202,-0.07403287292
5203,-0.04035400227
5204,-0.04095133021
5205,-0.06329014897
5206,-0.6124428511
5207,0.08700941503
5208,-0.4816244245
5209,0.255105257
5210,0.3278535008
5211,-0.09200926125
5212,0.1987154335
5213,-0.1339357793
5214,-0.2018091232
5215,0.1161245033
5216,-0.01077900082
5217,-0.322575599
5218,-0.2054120451
5219,0.1482230276
5220,-0.05455677956
5221,0.05928733572
5222,-0.163272351
5223,-0.2021785527
5224,-0.4350332022
5225,-0.3550955355
5226,0.08491755277
5227,-0.01568635367
5228,0.2697419524
5229,-0.477119118
5230,-0.1371215731
5231,-0.4358785152
5232,0.1486509442
5233,0.3236213624
5234,-0.03953193873
5235,0.1660010219
5236,-0.2500760257
5237,-0.02351100743
5238,0.4025099277
5239,0.07095526159
5240,0.02281408384
5241,0.2443166971
5242,0.2229160368
5243,-0.0151429344
5244,0.1101317033
5245,-0.04696950689
5246,0.08904933929
5247,-0.2049093395
5248,0.2144014835
5249,-0.0442177169
5250,-0.4538417757
5251,-0.2259203792
5252,-0.2228078097
5253,-0.2833575606
5254,-0.3447017074
5255,0.2383744419
5256,-0.173152104
5257,-0.2416926622
5258,0.4240904152
5259,0.1198876947
5260,-0.5672498345
5261,-0.3124544322
5262,-0.1233880967
5263,-0.8755696416
5264,-0.2979352176
5265,-0.0687360391
5266,-0.3937298656
5267,-0.729539156
5268,0.3089683652
5269,0.2424884439
5270,-0.2408891618
5271,-0.5347601771
5272,0.1376822442
5273,0.1860895306
5274,-0.06402896345
5275,-0.5985471606
5276,0.3511014283
5277,0.04021054134
5278,0.06655804068
5279,0.1958065182
5280,-0.6634213924
5281,0.3377696276
5282,-0.2549799383
5283,0.2281941026
5284,0.09272281826
5285,-0.02155573852
5286,0.3522670567
5287,0.2606605291
5288,-0.06376791745
5289,-0.9309832454
5290,0.2285538316
5291,-0.07137482613
5292,-0.3100625873
5293,-0.5188400745
5294,-0.02417546697
5295,-0.325777024
5296,-0.3780716658
5297,0.5121963024
5298,0.01209673844
5299,0.2577937245
5300,-0.2037398368
5301,-0.05640514567
5302,0.4236091673
5303,0.1988947392
5304,-0.3733932972
5305,-1.053473592
5306,0.04593810067
5307,-0.0906970799
5308,-0.1972761601
5309,-0.3726636469
5310,-0.5366268158
5311,-0.03599603847
5312,-0.2030869871
5313,0.007227271795
5314,0.09477011859
5315,0.2151684761
5316,-1.348552465
5317,-0.3299765587
5318,-0.2536938488
5319,-0.2398510724
5320,0.0619067587
5321,-0.1558364034
5322,-0.8998451829
5323,0.1290380955
5324,0.2913158238
5325,0.1222224012
5326,0.07967112958
5327,-0.3163109124
5328,0.1671200544
5329,0.1081007048
5330,-0.03835367784
5331,0.1761414707
5332,-0.2358577549
5333,0.2835219502
5334,0.1569999307
5335,0.09844835103
5336,-0.5847997665
5337,0.08953808248
5338,0.3653832674
5339,-0.1771657914
5340,0.2070661038
5341,-0.08661270142
5342,-0.5276273489
5343,-0.251847744
5344,0.4207732677
5345,-0.03093584441
5346,-0.01867683418
5347,0.09428054839
5348,0.07293920219
5349,0.1775575131
5350,-0.1985496283
5351,-0.1564282477
5352,-0.1958503127
5353,-0.7829480171
5354,0.1093472019
5355,0.4481508434
5356,0.2242776901
5357,-0.4273085296
5358,0.03040347807
5359,-0.2491833121
5360,-0.3574745953
5361,-0.008742830716
5362,0.1885126233
5363,0.104093194
5364,-0.2268153429
5365,0.1959718466
5366,0.168515265
5367,0.08769855648
5368,-0.5620669723
5369,-0.4457127452
5370,0.1580841094
5371,-0.2232163548
5372,-0.09358557314
5373,0.1204996258
5374,0.3690911829
5375,-0.8534232974
5376,-0.3245842755
5377,-0.6960680485
5378,0.07433583587
5379,0.2749084532
5380,-0.2450147122
5381,0.100960657
5382,0.03517487273
5383,-0.08671967685
5384,0.02569602989
5385,-0.1285099387
5386,-1.041443229
5387,0.4064971209
5388,-0.143763274
5389,-0.137079373
5390,0.08731313795
5391,0.6650736332
5392,0.9489597082
5393,-0.1395710856
5394,-0.7037754059
5395,-0.07845449448
5396,-0.326010704
5397,-0.1555451155
5398,-0.3762077987
5399,0.01961150952
5400,0.1365153491
5401,0.1147148237
5402,0.3065428436
5403,-0.6951197386
5404,0.5297412276
5405,0.2034980506
5406,0.1662504971
5407,-0.1286245733
5408,-0.4382581711
5409,-0.05104121566
5410,-0.3240343332
5411,0.2847853601
5412,-0.1627923399
5413,-0.2049156874
5414,0.03967502713
5415,-0.2685521543
5416,-0.05274875835
5417,1.276287436
5418,0.04791861773
5419,0.2081579417
5420,0.1922006458
5421,-0.7771397829
5422,-0.4663220346
5423,-0.2077284604
5424,-0.2309674323
5425,0.1277132928
5426,-0.3286390901
5427,0.4430930018
5428,-0.1006471962
