idx,weight
0,0.3666452765
1,0.1724831909
2,-0.3585919142
3,-0.04733632877
4,-0.6065438986
5,-0.1497014165
6,-0.1694601178
7,0.4363907576
8,0.04301753268
9,0.01165177114
10,-0.1614058614
11,-0.1092958972
12,-0.1925816983
13,-0.09547898918
14,-0.3764157295
15,0.1066405103
16,0.3843855262
17,-0.5329018235
18,-0.1930194348
19,0.2713311911
20,0.5113883615
21,-0.2195252925
22,-0.06468106806
23,-0.4275086522
24,0.04493393376
25,-0.05707197636
26,0.06982301176
27,0.2411811948
28,0.412773788
29,0.3496611118
30,0.2128749192
31,0.2972075343
32,-0.3890945613
33,0.2629223168
34,0.01793483458
35,-0.2809596062
36,-0.1301595122
37,-0.3367521465
38,0.5041733384
39,0.2132243067
40,-0.002503316849
41,-0.263928175
42,-0.4519596398
43,0.2967315614
44,0.1232210621
45,-0.2652914226
46,-0.3271292448
47,0.2690310776
48,-0.1873416752
49,-0.05798608437
50,0.1210114136
51,0.140784502
52,0.1059509367
53,0.5309337378
54,0.1811690927
55,-0.1030392945
56,-0.9096741676
57,-0.3190809488
58,0.1320930421
59,0.1011479199
60,-0.1833653897
61,-0.1049400568
62,0.02832634933
63,0.2288846076
64,0.1296333373
65,-0.3614171743
66,-0.5599168539
67,-0.03652074188
68,-0.5784523487
69,0.2923918962
70,-0.3700057268
71,0.1474405825
72,0.4070566893
73,0.2855295539
74,0.2172590494
75,0.0550481379
76,-0.2922295034
77,-0.1572668105
78,-0.3691917956
79,0.4027023017
80,0.3820070326
81,0.182660535
82,0.1460449696
83,0.204155311
84,-0.4891287088
85,-0.1047260463
86,-0.3483496606
87,-0.5887595415
88,-0.2467827201
89,-0.04428429157
90,0.4884356558
91,0.09826751798
92,0.1868613064
93,0.2183202058
94,-0.1311632544
95,0.4392772615
96,0.2747074664
97,-0.354778707
98,0.2494394481
99,-0.3444102705
100,-0.1060146764
101,-0.3696409166
102,0.5206674933
103,-1.051122189
104,-0.565828979
105,-0.6051999927
106,-1.297569275
107,0.05328211188
108,-0.8468771577
109,-0.3338962197
110,0.2907807827
111,-0.1119914502
112,0.08097694069
113,0.3039423525
114,-0.2441737503
115,0.6000678539
116,-0.5957609415
117,0.2875036895
118,0.1001741216
119,0.4976195693
120,-0.6139958501
121,0.725304842
122,0.2959100902
123,-0.2057822049
124,-0.1363536417
125,0.3658650219
126,0.2497498393
127,-0.9445269108
128,0.3088792264
129,-0.2621621192
130,-0.5635490417
131,0.5860091448
132,-0.1209800169
133,-0.3391583562
134,0.04256295413
135,-0.05319009349
136,-0.1897994131
137,0.2480580807
138,0.2484157234
139,0.4303255379
140,0.1956999749
141,0.3378008902
142,-0.2563385069
143,0.2441954911
144,0.1169449165
145,-0.002908762777
146,-0.2158803344
147,0.312448889
148,0.2537161708
149,-0.3433317244
150,-0.2241352946
151,-0.04352012649
152,-0.1421934366
153,0.5499677658
154,-0.1594917774
155,-0.3779847026
156,-0.01796427369
157,0.302996099
158,0.1475665569
159,-0.2467562556
160,-0.2681386769
161,-0.5950274467
162,0.3210531175
163,-0.04462604225
164,-0.4527875483
165,-0.06183177978
166,-0.2620304525
167,0.3332436681
168,0.03874045238
169,-0.1947337389
170,0.2878061533
171,0.5397309661
172,-0.2749679983
173,0.1697207391
174,-0.229759559
175,0.05956300721
176,-0.4028479755
177,0.05751818046
178,-0.2419856489
179,0.1987062097
180,-0.5957612395
181,0.04213256761
182,-0.234570682
183,0.2241253257
184,0.01887675002
185,-0.1460330784
186,0.0313259922
187,0.09470588714
188,0.2041968256
189,0.03464906663
190,-0.09791381657
191,-0.1294523627
192,-0.08928658068
193,0.2933976054
194,0.3424108922
195,-0.2808024287
196,0.1655010283
197,-0.308480233
198,0.2478171587
199,0.2631245255
200,0.1603852063
201,0.5278396606
202,-0.02238558047
203,-0.3047965169
204,0.2873514593
205,0.08410660177
206,-0.4540670216
207,-0.9632409811
208,-0.08984356374
209,0.4734081924
210,-0.07204665989
211,-0.06863816082
212,-0.02266201191
213,0.1139371023
214,-0.1252761185
215,-0.1145586967
216,-0.1483834386
217,-0.04000425339
218,0.3147254586
219,0.1000309661
220,-0.2768345177
221,-0.1175361723
222,-0.03218363971
223,0.3765304685
224,-0.3289914429
225,0.1374958307
226,-0.685718596
227,0.3566130996
228,0.3310014606
229,0.1042515635
230,-0.06676653028
231,-0.063266702
232,-0.1192286238
233,0.001739774831
234,0.420876056
235,-0.4045187533
236,-0.1221513823
237,-0.0775725916
238,-0.2838207781
239,-0.1411025971
240,-0.02588607557
241,-0.0704857111
242,0.03738309816
243,-0.2499826103
244,0.313991338
245,0.1810903847
246,0.1480070502
247,-0.3571122289
248,0.1537382752
249,-0.01579570584
250,0.3171249926
251,-0.04592388123
252,0.3491893709
253,-0.08325138688
254,-0.1870838702
255,-0.1168900058
256,0.03469862416
257,0.1555566788
258,0.1638399363
259,0.002924673492
260,0.4747486413
261,-0.2829245925
262,0.02313959226
263,-0.4046964347
264,-0.9482383728
265,-0.1423974335
266,0.01255336404
267,-0.2634723485
268,0.2530603111
269,0.02013912797
270,-0.1176698655
271,-0.1418463141
272,-0.04988519847
273,-0.4281390607
274,-0.2394715846
275,-0.600913167
276,0.5858300924
277,-0.3488974571
278,-0.3640939891
279,-0.3593311608
280,0.1015483364
281,-0.2878623903
282,0.1874857843
283,0.4687777162
284,-0.4153222144
285,0.3016353846
286,0.9214658141
287,-0.1080855057
288,0.5039291382
289,0.4798572659
290,-0.5332782865
291,-0.1891614944
292,0.1150589883
293,-0.1313904226
294,-0.7901783586
295,0.0432500802
296,0.06525262445
297,-0.1068927944
298,0.2937177718
299,-0.7060951591
300,0.6667816043
301,0.194662109
302,0.4557226002
303,0.2057452798
304,0.1359195411
305,-0.22472471
306,-0.9145040512
307,0.07334847748
308,0.595318377
309,-0.2650814652
310,0.2896196842
311,-0.2238520682
312,-0.2238293886
313,-0.4649000764
314,0.3736400008
315,0.2308486402
316,0.06723272055
317,-0.3639885783
318,-0.5650487542
319,-0.3159653246
320,-0.4109457433
321,0.4309518933
322,0.02081487887
323,-0.02024586312
324,0.1570407748
325,0.06815570593
326,0.1532922536
327,-0.1298843622
328,-0.04512660578
329,-0.09363692254
330,-0.1126651242
331,0.4779821336
332,0.8328005672
333,0.1253462732
334,0.04266206175
335,-0.002662397921
336,-0.5539574027
337,-0.2592159808
338,0.02552565373
339,0.456012696
340,0.573861897
341,-0.2690321505
342,-0.0463398546
343,0.2351637632
344,0.2543365359
345,-0.02701320127
346,-0.3841192722
347,-0.001403038041
348,0.2753524482
349,0.02818252891
350,0.111326769
351,0.2398978621
352,0.2231124341
353,-0.3859051466
354,-0.2823568285
355,-0.01822076552
356,-0.04362204298
357,-0.06211559847
358,-0.474579215
359,-0.1848766506
360,0.004873230588
361,0.07476337254
362,0.3719831109
363,-0.2636363208
364,0.2543832064
365,0.00565502001
366,0.07965158671
367,-0.2895324528
368,-0.2730558515
369,-0.1592313498
370,0.1319271177
371,0.07435587049
372,-0.493637085
373,-0.3252511621
374,-0.1942836344
375,0.4950596094
376,-0.632742703
377,-0.3425156474
378,0.102411449
379,-0.3457607329
380,-0.3279227018
381,-0.3004740477
382,-0.1380108297
383,0.3947393298
384,0.354630053
385,-1.139514327
386,0.141850099
387,0.3328282535
388,0.4215211272
389,0.01729180291
390,0.1511120349
391,0.1513011605
392,0.04799358174
393,-0.2387391031
394,0.3075985909
395,0.4987693727
396,-0.03317807242
397,0.008902927861
398,-0.08584766835
399,-0.2367090732
400,-0.5928636789
401,0.1517791748
402,0.06522009522
403,0.1027430519
404,0.01820874214
405,0.3741549253
406,-0.1087239981
407,-0.5760412216
408,0.000699606433
409,-0.04506391659
410,-0.2904024124
411,0.4155098498
412,-0.07452552021
413,-0.2502371967
414,0.2406632155
415,0.01988447085
416,0.326187104
417,-0.252315253
418,-0.3340973556
419,0.02126495354
420,-0.1150360107
421,-0.1865190566
422,-0.2052368224
423,0.3789253235
424,0.3437982798
425,-0.04125641659
426,0.2703677416
427,-0.1336882114
428,0.06382855773
429,0.1391327232
430,0.5732073784
431,0.315133512
432,0.01376193203
433,-0.2288622409
434,-0.1943384856
435,0.3665740192
436,0.1100127026
437,0.05879239365
438,-0.2199254781
439,0.2351804972
440,0.1254846156
441,0.1784829944
442,-0.3052601218
443,0.1317185462
444,0.06093071401
445,0.07335858047
446,-0.09645613283
447,0.1210034788
448,-0.2656894028
449,-0.2907401919
450,-0.04920541495
451,-0.3825779259
452,-0.2783946097
453,0.1371392608
454,-0.5703647137
455,-0.5154069662
456,0.381208688
457,0.08475073427
458,-0.3089658022
459,0.5751528144
460,0.02720963582
461,-0.5951565504
462,0.260933429
463,0.07337875664
464,0.5820731521
465,0.07028057426
466,-0.2292701602
467,-0.4689287841
468,-0.07759770006
469,0.1143147945
470,0.2316803932
471,-0.197686106
472,0.2216983885
473,-0.005780173931
474,0.1117236838
475,-0.273557514
476,-0.2257632613
477,-0.1460639983
478,0.28251037
479,-0.1109612584
480,-0.7718085051
481,-0.6955749393
482,-0.6070193648
483,0.5718127489
484,0.3700228035
485,-0.5830239058
486,-0.3518696725
487,0.3151678145
488,-0.03111195751
489,-0.05346134305
490,-0.09334031492
491,-0.04717443138
492,-0.1446565837
493,-0.04516223818
494,0.09256212413
495,0.2242785245
496,0.2665617466
497,-0.03317474946
498,0.2578006089
499,0.1014457718
500,1.094821572
501,-0.2645729482
502,-0.3874081969
503,0.241586253
504,0.3682704568
505,0.4938777089
506,-0.05318612233
507,-0.4087046683
508,-0.09532076865
509,-0.3151195645
510,0.4738086462
511,0.48639521
512,0.4208008647
513,-0.9496734142
514,-0.4464551508
515,0.07957835495
516,-0.06129872426
517,-0.2746182084
518,0.252109319
519,-0.02320810594
520,0.3064448535
521,-0.04040754586
522,-0.1319146752
523,0.2432403266
524,0.1965846717
525,-0.2309285998
526,0.3773469031
527,0.3452582657
528,0.211187914
529,-0.4425904751
530,-0.2781576812
531,0.3426228762
532,0.1087282822
533,-0.06568524987
534,-0.3831607699
535,0.1543165892
536,0.4827135801
537,-0.2678657472
538,0.05299388617
539,-0.01377870515
540,-0.3127956688
541,-0.1579469442
542,-0.340016067
543,0.3401260674
544,0.05836505443
545,-0.226262942
546,-0.1009466276
547,0.1621127874
548,0.1337855309
549,0.03671702743
550,0.4026801884
551,0.2986209989
552,0.3339300454
553,0.3136171401
554,0.03704001382
555,0.3612132967
556,-0.214975208
557,0.3486127257
558,0.1930066645
559,-0.2968149483
560,-0.44348979
561,0.08252814412
562,0.2549806237
563,-0.06698304415
564,-0.1404529214
565,-0.141042605
566,0.06736505032
567,-0.2585386634
568,-0.2853806317
569,-0.2392113805
570,-0.1030497104
571,-0.4840252995
572,0.2560859621
573,0.3005708456
574,-0.3481551409
575,-0.223856777
576,0.2835472822
577,-0.1883784384
578,0.4139400721
579,-0.3969105482
580,0.1106266826
581,-0.04754821584
582,-0.2809746265
583,-0.9247437716
584,0.3001225591
585,0.0868819207
586,-0.03538360819
587,-0.915360868
588,0.007201729808
589,-0.202582702
590,0.3365057707
591,-0.4216798842
592,0.1793416589
593,0.9568425417
594,-0.3546793461
595,0.6533896923
596,-0.8123365641
597,-0.2516773939
598,0.2629929781
599,-0.05501143634
600,-0.6792244911
601,-0.8971268535
602,0.349673003
603,-0.8767719269
604,-0.8595497012
605,-0.3959906399
606,-0.6345393658
607,-0.4500578046
608,-0.3478775918
609,0.0272383187
610,-0.2115608454
611,0.5018150806
612,0.5521986485
613,0.2578817308
614,0.0581326969
615,0.2287902683
616,0.3540275097
617,-0.4470582604
618,-0.0003840408172
619,0.3428669274
620,0.05340114236
621,-0.06576112658
622,-0.3407746553
623,0.009296933189
624,-0.04885193333
625,0.05451796949
626,-0.01709068939
627,-0.06731146574
628,0.7254660726
629,-0.7548009157
630,0.5749931931
631,0.3827724159
632,-0.2610827386
633,0.1965634078
634,-0.9521394968
635,0.8797172308
636,0.2621394694
637,-0.2067340314
638,0.2867969573
639,0.03467334807
640,0.4015439749
641,0.3012527227
642,-0.2362487763
643,-0.3138152659
644,-0.01836029068
645,0.2465178818
646,0.07452234626
647,-0.8334716558
648,0.1613563001
649,0.6754040122
650,-0.3090403676
651,-0.2496616989
652,0.1743076146
653,-0.3884682655
654,-0.04584665596
655,-0.1032796055
656,-0.488252461
657,0.1914140284
658,-0.5873029232
659,0.7581563592
660,-0.6985895634
661,-0.2149309516
662,-0.1611700803
663,0.50098598
664,0.09172280878
665,-0.4861965775
666,-0.06128530204
667,-0.359518379
668,-0.8232473731
669,0.2849549651
670,-0.6777499318
671,-0.3178931773
672,-0.7318718433
673,0.1656662524
674,0.1392946988
675,-0.1268236637
676,-0.2014850676
677,0.08858107775
678,0.06062316895
679,0.043386098
680,0.3796133995
681,0.1396340728
682,-0.6188049316
683,0.02935812622
684,0.2635807693
685,0.1531731337
686,0.5860880613
687,0.3733512759
688,0.237252444
689,0.02051598206
690,0.01586067677
691,0.4550749958
692,0.106411837
693,-0.584259212
694,0.03903288394
695,0.5581783056
696,-0.3470409214
697,0.2933788896
698,-0.8622544408
699,0.7130867839
700,-0.07079878449
701,0.2127465904
702,-0.4988384247
703,-0.08078989387
704,0.2995766699
705,-0.8974795341
706,-0.2831852138
707,0.1543845087
708,-0.1185929701
709,0.1408230215
710,0.1651500463
711,0.1597418338
712,-0.3608348668
713,-0.07014673948
714,0.09762573242
715,-0.190577209
716,0.3140061796
717,-0.2959692478
718,-0.1451125145
719,-0.008719259873
720,0.2967022061
721,-0.09165805578
722,0.3534502387
723,0.1017807946
724,-0.2342935503
725,0.3361414373
726,-0.1704775691
727,-0.1885754019
728,0.429967761
729,-1.000819445
730,-0.03646670654
731,0.4250910878
732,0.4043738842
733,0.4416300058
734,0.3290441036
735,-0.3054001331
736,0.1018735021
737,-0.2812784314
738,0.03047246486
739,0.2853554189
740,0.5613273978
741,-0.1798423976
742,0.1262738258
743,0.1690996736
744,0.2009658217
745,-0.00554622896
746,0.1299434453
747,-0.4516483247
748,0.04003611207
749,0.1096560434
750,0.2280989438
751,-0.3018191159
752,-0.5178235173
753,-0.1891300827
754,-0.07423779368
755,-0.1261514276
756,-0.3663901985
757,0.49711743
758,0.2129559517
759,-0.4558658004
760,0.2624978721
761,0.02714939974
762,-0.03806910664
763,-0.6939396858
764,0.2925620377
765,-0.01565698907
766,-0.3198692799
767,0.4106293321
768,0.6102445126
769,0.2304333895
770,-0.4864705503
771,0.08615205437
772,-0.03521011397
773,0.3735390902
774,-0.353428483
775,-0.06421796232
776,-0.2598280311
777,-0.2976869345
778,0.304402262
779,-0.3663097918
780,-0.8684969544
781,-0.01484168507
782,-0.1778534353
783,-0.32509619
784,0.0831425637
785,0.06218608469
786,0.05782179162
787,-0.1357634664
788,-0.5244603753
789,-0.1245863959
790,-0.08645048738
791,-0.179873988
792,0.3814667165
793,-0.5556649566
794,-0.2264980078
795,0.02653482929
796,-0.2741381526
797,0.3125757873
798,0.1496336907
799,-0.2203473896
800,0.1579144299
801,0.3074810207
802,0.2372042388
803,0.009609455243
804,0.09580837935
805,-0.1790515184
806,-0.2720585763
807,0.07454158366
808,-0.4458169043
809,0.1104587317
810,-0.01804794744
811,0.2549474835
812,-0.04533784091
813,-0.02480616793
814,0.02506224439
815,0.07494427264
816,0.1720521599
817,-0.1335255355
818,-0.2102353424
819,-0.0175266359
820,-0.7456959486
821,0.1469473094
822,0.3306434453
823,0.2745885253
824,-0.827737093
825,-0.581969738
826,0.09192078561
827,0.2927455604
828,0.05990884081
829,0.3562379479
830,-0.3061068952
831,-0.1705059111
832,0.3957019448
833,-0.2616496086
834,-0.07644602656
835,0.1595361978
836,-0.2413375974
837,-0.2240693122
838,-0.04805370793
839,0.04199736938
840,-0.293849647
841,-0.6331738234
842,0.132963866
843,-0.9355208278
844,0.1967685968
845,-0.05850951746
846,0.1856373399
847,0.888294518
848,0.3740426004
849,0.0931134522
850,-0.1214136854
851,0.04713036492
852,-0.04397728294
853,0.1566607505
854,0.04612093791
855,-0.07605931908
856,0.3204840422
857,0.2366027087
858,0.5486433506
859,0.1115283519
860,-0.4822154641
861,-0.1638206095
862,0.2412380129
863,0.2131733894
864,0.4646549225
865,-0.1027867347
866,0.6967755556
867,0.2848272026
868,-0.4826813042
869,0.1150131375
870,-1.041543126
871,-0.5653024912
872,-0.5064267516
873,-0.08998273313
874,0.1595198214
875,0.2771653831
876,0.1711394042
877,0.03560264409
878,-0.06391051412
879,-0.21488671
880,-0.210986957
881,0.3398580551
882,-0.633626461
883,0.3551427424
884,0.2046335638
885,-0.1142210364
886,-0.2137825787
887,-0.422994554
888,0.0351312533
889,-0.3932746947
890,0.584210813
891,-0.3888266385
892,-0.2998339236
893,0.1269329786
894,-0.2690634727
895,0.3013917506
896,0.3856173754
897,-1.260458231
898,0.129942432
899,0.2155435681
900,-0.1233607531
901,-0.2183213532
902,0.2813766599
903,-0.2154025882
904,0.1284637153
905,-0.7572036982
906,0.08939278871
907,0.5107843876
908,0.2555611134
909,0.02947723493
910,-0.2734954059
911,-0.3825435936
912,-0.3660944402
913,-0.2503661215
914,-0.1597746611
915,0.3563346267
916,-0.08439399302
917,0.09531362355
918,0.1722045988
919,-0.02679057606
920,0.5743303895
921,-0.7754323483
922,-0.4010410607
923,0.2781344056
924,-0.4763762951
925,-0.1592166126
926,-0.1501643807
927,-0.04893898219
928,-0.1557538956
929,-0.101070568
930,0.4272716641
931,-0.2061454505
932,0.3164116442
933,-0.1394755989
934,-0.6125618219
935,-0.2795014977
936,-0.1567369401
937,-0.0500135608
938,0.3212875128
939,-0.2538203597
940,0.02009045891
941,0.1042565554
942,0.5336971879
943,-0.1051815152
944,-0.4144952893
945,0.2348791808
946,-0.07857190073
947,0.4665847123
948,-0.215640828
949,-0.3372685909
950,0.2478316724
951,0.4092546999
952,0.06488882005
953,-0.2475305051
954,0.198896423
955,-0.2859631777
956,0.2099637687
957,0.1444495469
958,0.1762812287
959,-0.1140938848
960,-0.0436197482
961,0.1190169379
962,0.2173051238
963,-0.005515247583
964,0.3491390347
965,-0.2427412868
966,-0.0941997394
967,0.2266937047
968,-0.01657768525
969,-1.036364555
970,-0.404198736
971,0.09303181618
972,-0.1094269454
973,0.08365037292
974,-0.2876612842
975,0.2714523971
976,0.372264713
977,-0.2125805169
978,-0.007236178033
979,-0.2689269185
980,-0.06412379444
981,0.09413738549
982,-0.348641634
983,-0.5048707724
984,0.2873825133
985,0.2080897391
986,-0.007814573124
987,-0.264680177
988,0.3231797814
989,0.1008478701
990,-0.1798138767
991,0.05721672624
992,0.03403657675
993,0.1504402906
994,-0.1964310259
995,0.02691142075
996,0.111605607
997,0.0001120102243
998,0.1999484152
999,0.2362698466
1000,0.1272691041
1001,-0.3974009752
1002,-0.09166095406
1003,-0.1119630188
1004,-0.2121304572
1005,-0.2893747985
1006,-0.3762443364
1007,-0.2129881531
1008,-0.1033867374
1009,-0.3828290105
1010,-0.04670438915
1011,0.1576125473
1012,0.2425155342
1013,-0.1248736978
1014,0.08673069626
1015,0.2065603286
1016,-0.09105146676
1017,-0.0008008209406
1018,0.133535713
1019,0.2078532279
1020,0.1091315746
1021,0.2378394604
1022,-0.1204292178
1023,0.102978453
1024,-0.02863695286
1025,0.1035227254
1026,0.2650289834
1027,0.2233765274
1028,0.04827580228
1029,-0.306986481
1030,0.2097801119
1031,-0.8922342658
1032,0.1825074553
1033,0.07793773711
1034,0.3234140873
1035,-0.3511171937
1036,-0.2703054249
1037,-0.3961037993
1038,-0.06401724368
1039,-0.1800838113
1040,0.2637786865
1041,0.001078214729
1042,-0.1054466218
1043,0.312161088
1044,0.2133384645
1045,-0.08532853425
1046,-0.3467344344
1047,0.1110242829
1048,0.196735546
1049,0.2889839113
1050,-0.3240578473
1051,0.1100438833
1052,-0.7608931065
1053,0.3345799446
1054,-0.1842914522
1055,-0.1204322577
1056,0.2666345537
1057,0.3229338527
1058,0.4413029552
1059,0.01478387974
1060,0.3395415843
1061,-0.1415849179
1062,0.08981689066
1063,0.01509378012
1064,0.3259965181
1065,-0.3245566785
1066,0.07186453044
1067,-0.2202053666
1068,-0.372808516
1069,-0.1345810145
1070,0.1366359144
1071,0.03373222798
1072,-0.02506863326
1073,-0.3094039857
1074,0.3076679409
1075,0.1231461763
1076,-0.1935642213
1077,0.1609321237
1078,0.1687233746
1079,-0.09416088462
1080,-0.03327007219
1081,0.3256770372
1082,-0.393553257
1083,-0.07701262087
1084,-0.04005377367
1085,-0.1254627705
1086,0.01203147694
1087,0.05583295971
1088,0.07473051548
1089,-0.5132140517
1090,-0.1291190684
1091,0.6729722023
1092,0.1035420224
1093,-0.2694711089
1094,-0.5121867657
1095,-0.6112933159
1096,0.07664726675
1097,0.2054795772
1098,-0.6220118403
1099,-0.8118812442
1100,-0.4482029974
1101,-0.4295104444
1102,0.04936434701
1103,-0.01455758791
1104,0.08868785203
1105,-0.4443003237
1106,-0.04402886704
1107,0.3630252481
1108,-0.3928875029
1109,-0.2410092801
1110,-0.3763279915
1111,-0.3418386579
1112,0.413302809
1113,-0.006769187748
1114,-0.5774334073
1115,0.2698622048
1116,0.1702532768
1117,-0.4008902013
1118,0.4616163373
1119,-0.3688614368
1120,-0.04844019189
1121,-0.1326247454
1122,0.3876906931
1123,-0.2406296134
1124,0.5414828062
1125,-0.1764643341
1126,0.0255531501
1127,0.1025505811
1128,0.294754684
1129,0.2326814532
1130,-0.876947403
1131,-0.187881425
1132,-0.1293718666
1133,-0.2487525344
1134,-0.01619534194
1135,0.06103347242
1136,-0.6149395704
1137,-0.1504722834
1138,-0.2581115961
1139,0.07945234329
1140,-0.41880247
1141,-0.3406341374
1142,-0.2028352767
1143,-0.3001296818
1144,0.6226426363
1145,0.3285156488
1146,-0.4322588444
1147,-0.1475298852
1148,0.1136418059
1149,0.1089557484
1150,0.3797932565
1151,-0.03329294547
1152,-0.1168547571
1153,-0.5163164139
1154,0.4239856005
1155,0.0269918181
1156,0.1404645443
1157,-0.2699439228
1158,0.7222452164
1159,-0.3310454786
1160,0.3595999777
1161,0.1866180152
1162,-0.4105337858
1163,-0.2772107422
1164,-0.5106276274
1165,-0.4277144969
1166,0.8579908013
1167,0.01717655547
1168,0.1834467351
1169,0.8260435462
1170,-0.3636119664
1171,0.4504502416
1172,-0.2930404544
1173,-0.1287809759
1174,-0.2912669182
1175,0.03881929442
1176,-0.4466146827
1177,-0.8293108344
1178,0.1019419283
1179,-0.7673077583
1180,0.007607151289
1181,-0.2667821646
1182,0.5755186677
1183,0.8700328469
1184,-0.6808854342
1185,-0.2122309059
1186,0.4058202803
1187,0.2839539647
1188,0.1775247902
1189,0.01152293477
1190,0.8536254764
1191,-0.1904764473
1192,0.7337857485
1193,-0.8799766302
1194,0.03479939699
1195,-0.3864546716
1196,-0.5614382625
1197,0.1226124689
1198,-0.1511044353
1199,-0.3283549547
1200,-0.01902236417
1201,-0.1618825048
1202,-0.06578657031
1203,0.05790569633
1204,-0.6770988107
1205,0.8205069304
1206,0.4251894951
1207,-0.01691385731
1208,-0.6315495968
1209,-0.0005910852924
1210,-0.6386781931
1211,0.5910731554
1212,0.6609853506
1213,0.07317280769
1214,0.1264128387
1215,0.2807788253
1216,0.2394855618
1217,0.1995982379
1218,-0.2260411084
1219,-0.1671115905
1220,-1.207917809
1221,0.1205588207
1222,-0.05296904966
1223,0.2706389725
1224,-0.319627285
1225,0.2467200756
1226,-0.3589256704
1227,-0.3679072261
1228,0.01538189035
1229,0.2057107538
1230,-0.2601470947
1231,-0.2443583608
1232,-0.1550072283
1233,0.8104625344
1234,-0.3366413116
1235,0.9610285759
1236,-0.22047925
1237,-0.3765441775
1238,0.2374692857
1239,-0.08336438239
1240,-0.3618453741
1241,-0.4411505759
1242,-0.5943598747
1243,0.07832482457
1244,-0.1657522172
1245,0.3955625892
1246,0.3257822692
1247,0.007846176624
1248,-0.1672106981
1249,0.2265197933
1250,0.1157710999
1251,0.6760748625
1252,-0.01134764496
1253,-0.04406094551
1254,0.3079044819
1255,-0.263143599
1256,0.7615920305
1257,-0.05024680495
1258,0.1534463167
1259,-0.2177300751
1260,-0.2037324458
1261,-0.2960398197
1262,0.1610909849
1263,0.03175383061
1264,0.1624513716
1265,-0.149352625
1266,-0.4552274644
1267,0.6610374451
1268,-0.4778474867
1269,0.1521876156
1270,0.2561439574
1271,-0.2593997419
1272,-1.003071427
1273,0.3318419158
1274,0.4328356385
1275,0.7442405224
1276,-0.7115501165
1277,-0.3045285046
1278,-0.09376146644
1279,-0.1384910494
1280,0.4326276779
1281,0.2215578705
1282,0.111052826
1283,-0.08608455211
1284,0.07887609303
1285,0.1759457439
1286,0.5441076756
1287,-0.7245669961
1288,0.2361513972
1289,-0.9071252346
1290,-0.3518173099
1291,0.01208570506
1292,-0.5112918615
1293,0.1991265416
1294,-0.03927060589
1295,0.2502402663
1296,0.1828763038
1297,0.04951162636
1298,0.2358654886
1299,-0.6939186454
1300,-0.1022527888
1301,0.2977046072
1302,-0.047700461
1303,-0.6838926077
1304,0.2702067494
1305,0.01349318493
1306,0.2316984385
1307,-0.2374715656
1308,0.7804108858
1309,0.3840866089
1310,-0.05204632878
1311,-0.4362193942
1312,-0.8116659522
1313,1.290090561
1314,0.3950582445
1315,0.04273649678
1316,0.8698638082
1317,-0.04114821926
1318,-0.238101989
1319,0.3251717091
1320,-0.1391854286
1321,0.07203866541
1322,0.3021759391
1323,0.546669364
1324,0.1731761694
1325,0.2919369936
1326,-0.4136412144
1327,-0.186112836
1328,0.4276928306
1329,-0.3560532629
1330,-0.1570742875
1331,0.4021506011
1332,-0.5019932985
1333,0.3174489737
1334,0.3252340555
1335,-0.2430663407
1336,-0.5045688152
1337,-0.3640474081
1338,-0.5772449374
1339,-0.03014347702
1340,0.6806668639
1341,0.3286535442
1342,0.3510356545
1343,-0.2307526022
1344,0.08604176342
1345,-0.08207634091
1346,0.1877220422
1347,-0.4076843858
1348,-0.7516278028
1349,-0.3331451416
1350,0.8252691031
1351,0.1774995178
1352,0.5094197392
1353,0.6813496351
1354,0.5161864161
1355,-0.3492002189
1356,0.3436397016
1357,0.3100270927
1358,-1.063675165
1359,-0.299877584
1360,0.02271671779
1361,-0.392346561
1362,-0.0752415061
1363,0.7672216892
1364,0.04763974994
1365,-0.2252271771
1366,-0.2233585268
1367,-0.1199557185
1368,-0.2656025589
1369,-0.2243502438
1370,0.08871677518
1371,0.503174603
1372,-0.4193921685
1373,0.6341425776
1374,0.2171705216
1375,-0.0263774097
1376,-0.4990618527
1377,-0.1008996665
1378,-0.09946339577
1379,-1.006202579
1380,-0.1722553074
1381,-0.6367098093
1382,-0.6338195801
1383,0.467076242
1384,0.8364878893
1385,0.1860443652
1386,-0.4566167593
1387,0.02218147367
1388,0.3368975818
1389,-0.2096076757
1390,0.1059917435
1391,0.04809579626
1392,-0.3421618044
1393,-0.3059880137
1394,-0.2657574415
1395,-0.08843675256
1396,-0.7120624781
1397,0.4391827285
1398,-0.8552039862
1399,0.179183051
1400,0.3972983956
1401,0.5241574645
1402,-0.1992799789
1403,-0.5015047193
1404,0.5738902092
1405,0.06906215101
1406,0.3865915537
1407,-1.329108238
1408,0.1026540399
1409,-0.3216375411
1410,0.2012333274
1411,0.3142994046
1412,0.1217236146
1413,0.0315499641
1414,-0.03261805698
1415,0.1120205969
1416,0.2308675647
1417,-0.06125589833
1418,-0.2524667382
1419,0.1926711649
1420,0.2446793318
1421,-0.4162750244
1422,-0.1309946328
1423,0.05338379741
1424,-0.2000346631
1425,-0.5480038524
1426,-0.299746722
1427,-0.1813716143
1428,-0.1885323822
1429,-0.1238342524
1430,-0.310813725
1431,-0.2340843678
1432,-0.3068284094
1433,0.2795288265
1434,0.08598955721
1435,0.454537183
1436,0.2322809547
1437,0.4084922373
1438,0.3194049597
1439,0.3053525686
1440,-0.3617853224
1441,-0.2135378867
1442,0.1773502231
1443,0.1580675989
1444,0.119886741
1445,-0.1515064538
1446,0.2429582775
1447,0.1771313101
1448,0.3866381347
1449,0.2765507102
1450,0.2256001383
1451,0.3118666708
1452,0.2192307115
1453,-0.1332235485
1454,-0.05337459221
1455,0.1907039285
1456,-0.1262530386
1457,-0.02344465256
1458,-0.3131687939
1459,-0.02793468162
1460,0.3387750983
1461,0.1023314968
1462,-0.351342082
1463,0.2613725066
1464,-0.03307792544
1465,-0.06505084783
1466,0.01308594458
1467,-0.3017823994
1468,-0.3935658336
1469,-0.2333666682
1470,0.2323947549
1471,-0.3115407526
1472,-0.2064504474
1473,0.1825279593
1474,0.1754778028
1475,-0.3569380641
1476,-0.1907234639
1477,0.03279250488
1478,-0.5214949846
1479,0.3899789751
1480,-0.120361954
1481,0.05993666127
1482,0.07784821093
1483,0.3480350077
1484,0.1994504482
1485,0.1522464752
1486,0.2003841996
1487,0.2764897048
1488,0.1651385427
1489,-0.5018498302
1490,-0.6482285261
1491,0.3860006034
1492,0.5513476133
1493,-0.2742057145
1494,0.2006244212
1495,-0.2274372578
1496,0.2545178831
1497,-0.06264835596
1498,0.1999630183
1499,-0.7190832496
1500,0.1086381748
1501,0.6528179646
1502,0.003860013559
1503,0.300737679
1504,-0.6746248007
1505,-0.2687718868
1506,0.1245237216
1507,0.1062931567
1508,-0.04652171209
1509,0.09534839541
1510,0.6496537328
1511,-0.8429855704
1512,-0.09609556943
1513,-0.339749217
1514,-0.2932793796
1515,0.001519359881
1516,-0.1417176127
1517,-0.3861683607
1518,-0.05030791834
1519,-0.1523964852
1520,0.01449635904
1521,0.1880870312
1522,0.1865426004
1523,0.007730504498
1524,-1.258749843
1525,0.2318871617
1526,0.02465340123
1527,0.3231946528
1528,-0.7898863554
1529,-0.04467670247
1530,-0.1477655172
1531,0.4050816596
1532,-1.012958884
1533,0.03315843269
1534,-0.4832633436
1535,0.4661475122
1536,-0.4563197792
1537,0.6447542906
1538,0.1397131532
1539,-0.7319185138
1540,-0.06591131538
1541,0.08693323284
1542,0.1016962677
1543,0.4901372492
1544,-0.1001153663
1545,-0.1168747395
1546,1.0329777
1547,-0.578771472
1548,0.68955791
1549,0.3731729984
1550,-0.09473796189
1551,0.02385788038
1552,0.2343288213
1553,-0.3583269119
1554,0.3348491788
1555,-0.2308954895
1556,-0.09796200693
1557,0.3820486367
1558,-0.07524688542
1559,-0.1173478514
1560,0.2385269701
1561,-0.3251279593
1562,-0.2899069786
1563,0.5641769171
1564,0.6086434126
1565,-0.1018217355
1566,0.2824374735
1567,0.03939955309
1568,-0.3773830235
1569,0.6873365045
1570,-0.5063425303
1571,0.4352067113
1572,0.3270203173
1573,0.05462306738
1574,-0.1686491519
1575,0.4264787138
1576,0.1930722743
1577,-0.4571956694
1578,-0.5639970303
1579,-0.7501954436
1580,0.6542989612
1581,0.3362951875
1582,0.1169416383
1583,0.03424713761
1584,0.252284348
1585,0.1251147091
1586,-0.2237408757
1587,-0.3138219416
1588,0.3714116216
1589,0.5550014377
1590,-0.1828977168
1591,-0.1230448931
1592,-0.1774944216
1593,-0.04698551446
1594,0.3568045497
1595,-0.5867894888
1596,-0.2233223319
1597,-0.2421761751
1598,0.2956372797
1599,-0.3276001513
1600,-0.1308831871
1601,-0.3197596371
1602,-0.2845463455
1603,0.215438962
1604,0.07377411425
1605,0.03404785693
1606,0.4095179439
1607,0.5607198477
1608,0.2270057797
1609,-0.108355172
1610,0.08012991399
1611,0.3097456694
1612,-0.1562239379
1613,0.2131925821
1614,0.317468524
1615,0.7006686926
1616,-0.3273327351
1617,-0.3337442875
1618,0.1304005831
1619,-0.002227059565
1620,0.5021731853
1621,-0.1185287386
1622,-0.04472372308
1623,0.3679156899
1624,0.3737229705
1625,-0.5512430072
1626,-0.1521365047
1627,-0.5273966193
1628,-0.04157754779
1629,0.1930823475
1630,0.1839928329
1631,-0.1406657696
1632,-0.05998206884
1633,-0.6488431096
1634,0.2613933384
1635,-0.3088590503
1636,0.2145654112
1637,-0.6615233421
1638,-0.2170244157
1639,0.2202910781
1640,0.224401474
1641,-0.1560116857
1642,0.3016417325
1643,0.2102320343
1644,-0.1986040473
1645,-0.09330607951
1646,0.2987517118
1647,0.1913879514
1648,-0.05451571941
1649,0.1157413274
1650,0.281635493
1651,0.5636609197
1652,-0.9834088087
1653,-0.479819864
1654,-0.5489344001
1655,0.2818411291
1656,-0.6045452952
1657,-0.2811839283
1658,0.2998712063
1659,0.3979301751
1660,-0.6093511581
1661,-0.0288529098
1662,-0.3561429977
1663,-0.3802114129
1664,0.6293773055
1665,-0.2442599237
1666,0.2342453748
1667,0.44159922
1668,-0.3497098684
1669,-0.1714259237
1670,-0.4781079888
1671,-0.9155784249
1672,0.296328485
1673,-0.5894226432
1674,-0.4356031418
1675,0.161895588
1676,-1.300195575
1677,0.4960922301
1678,-0.1019083634
1679,-0.2888794243
1680,-1.045301437
1681,-0.3432188332
1682,0.1357863545
1683,0.6117887497
1684,0.1323628873
1685,-0.1193229929
1686,0.2645125091
1687,0.2441109121
1688,0.5584516525
1689,-0.4627906084
1690,-0.5169958472
1691,-1.031247258
1692,-0.02898130566
1693,0.4527561367
1694,0.01487021241
1695,0.2177435309
1696,0.1251122653
1697,-0.02629349567
1698,0.5811662674
1699,0.3402396142
1700,0.2132300884
1701,0.3335407674
1702,0.5315521955
1703,-0.1819839925
1704,0.06918273866
1705,-0.04437568039
1706,-0.4848730266
1707,-0.005662009586
1708,0.01786430366
1709,0.2410190254
1710,0.3018116057
1711,-0.1542690247
1712,0.6761379838
1713,0.2212464064
1714,0.2127991915
1715,0.02724966966
1716,0.1416941732
1717,0.1686258763
1718,-0.476778388
1719,0.0588844046
1720,-0.5318598151
1721,0.5013384223
1722,0.1740943342
1723,-0.3048467934
1724,-0.2605275512
1725,0.03243981302
1726,-1.110906601
1727,0.1083624139
1728,-0.3384785354
1729,-1.163335681
1730,-0.5757302046
1731,-0.3722484708
1732,-0.6285163164
1733,-0.3137577772
1734,0.6061250567
1735,0.1300316751
1736,-0.2736237645
1737,0.1588414162
1738,-0.2237367481
1739,0.6084951758
1740,0.009133372456
1741,-0.8742947578
1742,-0.3064073622
1743,0.3347243667
1744,0.135037601
1745,-0.5423739552
1746,0.520021081
1747,0.1616786569
1748,0.3134371936
1749,-0.2416845411
1750,-0.3802139759
1751,0.7301151752
1752,0.4051847458
1753,0.09384267777
1754,-0.2684610486
1755,0.2447869182
1756,0.09592337906
1757,0.2522285283
1758,0.5876101851
1759,0.0533074066
1760,0.4307213128
1761,0.01972063631
1762,0.2171673626
1763,-0.430917263
1764,-0.7410895228
1765,-0.2595042288
1766,0.3160507977
1767,-0.413572371
1768,0.08072821051
1769,0.3984567821
1770,-0.224390015
1771,0.3004737496
1772,0.346123904
1773,0.06264502555
1774,0.5221276283
1775,-0.3322023451
1776,-0.1510553956
1777,-0.3291400373
1778,-0.05403634161
1779,0.1221892908
1780,-0.3986670971
1781,-0.4071608782
1782,-0.2536366582
1783,0.4234743118
1784,-0.4119927287
1785,0.03253099322
1786,0.9752244353
1787,-0.2363668382
1788,-0.6298571825
1789,0.1799545586
1790,-0.4837428033
1791,-0.7316779494
1792,-0.2743127346
1793,0.1628032029
1794,0.04703426361
1795,-0.1906603873
1796,0.2659035921
1797,-0.2468177676
1798,-0.2084127218
1799,-0.07704994828
1800,-0.2461728901
1801,-0.2102522999
1802,0.04288688675
1803,-0.3071799278
1804,0.05826525018
1805,-0.06822884828
1806,0.3448862433
1807,-0.0176487118
1808,-0.07631924748
1809,0.1354747564
1810,0.07880083472
1811,-0.08024418354
1812,-0.3238921463
1813,-0.3632281721
1814,-0.07699352503
1815,0.1935679317
1816,-0.09915890545
1817,0.2277998924
1818,0.3162774146
1819,0.09887123108
1820,0.01462587621
1821,0.1214254871
1822,-0.107700035
1823,0.1553704739
1824,0.07282163948
1825,0.09714006633
1826,-0.07801529765
1827,0.1219042614
1828,0.1234846413
1829,-0.2926542461
1830,-0.303080529
1831,-0.1905444562
1832,-0.1792988777
1833,0.2002775073
1834,-0.2532823086
1835,-0.1078724042
1836,0.3964130878
1837,-0.356860131
1838,-0.007945401594
1839,-0.4194360077
1840,0.3303795457
1841,-0.04589872062
1842,0.1115702763
1843,0.2180432975
1844,-0.05487166345
1845,-0.3878061771
1846,0.2971950769
1847,0.06374127418
1848,0.003290180815
1849,0.06167875603
1850,0.1477432102
1851,0.224217236
1852,0.1860432774
1853,-0.2277593762
1854,0.3704187572
1855,-0.05941323936
1856,-0.006632763427
1857,-0.3092336059
1858,0.1881614923
1859,-0.1839711368
1860,0.3777585626
1861,-0.2446778715
1862,-0.3551550806
1863,0.0376595147
1864,0.1917954236
1865,-0.2732065916
1866,-0.1633586287
1867,-0.1369086206
1868,-0.1545201838
1869,0.1698580086
1870,0.4389041662
1871,0.2502182126
1872,-0.3299213648
1873,0.3329578936
1874,0.09118210524
1875,0.03784176707
1876,0.3002718389
1877,-0.1892116517
1878,-0.2025810629
1879,-0.2178484797
1880,-0.0145992646
1881,-0.1273390502
1882,-0.1592415273
1883,0.329128027
1884,-0.3256205022
1885,-0.2087254226
1886,-0.06640005857
1887,-0.4623559415
1888,-0.2350108474
1889,0.1830011457
1890,0.06338701397
1891,0.09977915138
1892,0.05117487907
1893,0.4145199955
1894,-0.2219727486
1895,-0.009207140654
1896,-0.217531383
1897,0.1108597815
1898,0.1061022282
1899,0.3035654426
1900,0.3628861308
1901,-0.1136315018
1902,0.3548589349
1903,-0.2441387773
1904,0.03900283948
1905,-0.3020042777
1906,0.3377345204
1907,-0.03573317081
1908,-0.1569247693
1909,0.2167688608
1910,0.1772316247
1911,-0.08632276207
1912,-0.04576477781
1913,-0.2091629505
1914,0.1779229194
1915,0.2588770092
1916,0.2245386094
1917,-0.2313863486
1918,-0.2545929253
1919,-0.01275187079
1920,0.08596129715
1921,-1.694055557
1922,-0.1933671236
1923,0.5425778031
1924,0.8058479428
1925,0.262889713
1926,-0.5755799413
1927,-0.2327984571
1928,0.04878177121
1929,0.4519872665
1930,-0.7212748528
1931,-1.354115486
1932,-0.982778132
1933,-0.8252670169
1934,0.3748809099
1935,-0.09921354055
1936,-0.6192325354
1937,0.4757997692
1938,0.7875965238
1939,-0.3252385259
1940,-0.4164689481
1941,-0.07072537392
1942,0.2920366228
1943,-0.5316238403
1944,-0.1168485582
1945,0.2760049701
1946,0.2077358961
1947,0.2328015268
1948,0.4942827523
1949,-0.4635733664
1950,0.5083451271
1951,-0.5861281157
1952,-0.4016093314
1953,0.9312742949
1954,0.2398450077
1955,-1.413134813
1956,-0.9774029255
1957,-0.4277566075
1958,0.181643486
1959,0.8841298819
1960,-0.3239277303
1961,0.4036993682
1962,-0.3481111825
1963,1.001835942
1964,-1.05864954
1965,-0.3049340248
1966,0.3045015633
1967,0.2844696343
1968,-0.4759933352
1969,-0.3416332901
1970,0.3170666993
1971,0.9324609637
1972,-0.4611440897
1973,-0.9629960656
1974,-0.2009775043
1975,-0.319640547
1976,0.6846408844
1977,0.4169749022
1978,0.4925368428
1979,0.7892401218
1980,-0.4208366871
1981,0.346193254
1982,1.134150386
1983,0.09062746167
1984,-0.01027379651
1985,-2.738469601
1986,0.4292693436
1987,0.3666471839
1988,-0.1560783088
1989,-0.2475835532
1990,0.4013869464
1991,-0.4986072481
1992,0.3357857168
1993,0.1497323364
1994,0.7087658644
1995,-0.4576789737
1996,0.3161895573
1997,-1.78020978
1998,-0.1879869848
1999,0.0668976903
2000,0.4611679614
2001,-0.1876454502
2002,0.5929729342
2003,0.3061845601
2004,0.1674231291
2005,-0.3208886087
2006,-0.3169076741
2007,0.5043818355
2008,-0.3000379503
2009,-0.3401554227
2010,-0.1658590734
2011,-0.3848111629
2012,-0.1754769832
2013,-0.116561003
2014,0.4271127582
2015,0.4970017672
2016,-0.9662011266
2017,0.3898828626
2018,0.5747485161
2019,-0.2497675419
2020,-0.2497979254
2021,0.4032912254
2022,0.7363772988
2023,-0.1717552394
2024,0.336925894
2025,0.01329733524
2026,-0.1234597117
2027,0.1639630646
2028,1.059295058
2029,-0.1263885349
2030,-0.1758268178
2031,0.269020021
2032,0.1742813885
2033,-0.3231996
2034,-0.2698667347
2035,0.6296725273
2036,-0.7060288191
2037,0.0133373132
2038,-0.1724214852
2039,0.07475756109
2040,-0.3163735271
2041,0.4809367359
2042,0.6593768001
2043,0.2107736021
2044,-0.1204843372
2045,-0.1519801766
2046,-0.1380692273
2047,-0.3534725606
2048,0.888664782
2049,-1.275714993
2050,-0.4171120226
2051,0.5837418437
2052,-0.2989711463
2053,0.08355816454
2054,-0.8067789078
2055,-0.625390172
2056,0.1550874412
2057,0.2368044853
2058,-0.5599425435
2059,-0.8769493103
2060,-0.9203377366
2061,-0.8583966494
2062,0.0741578415
2063,0.8709446192
2064,-0.3935339153
2065,-0.1057175845
2066,-0.4174186587
2067,0.1006407514
2068,-0.07612367719
2069,0.3351246119
2070,0.2430212498
2071,0.4800197184
2072,0.4359297156
2073,-0.1257829666
2074,-0.03204231709
2075,-0.3580353856
2076,-0.171712175
2077,0.5720236301
2078,0.4098509252
2079,-0.3867040575
2080,0.05234335363
2081,0.9850091934
2082,0.4479978383
2083,-0.6598278284
2084,-0.5809342265
2085,-0.2629858255
2086,0.2665453553
2087,-0.1507237256
2088,-0.4001125395
2089,0.9686955214
2090,0.415977329
2091,0.748894453
2092,-0.1805214137
2093,0.2479601204
2094,0.8973379135
2095,-0.3651695848
2096,0.4447634518
2097,-0.3432360291
2098,-0.2391125709
2099,0.0360234715
2100,-0.08298969269
2101,-0.4933457077
2102,-0.1396959275
2103,-0.102757208
2104,-0.6215799451
2105,-0.6815053225
2106,0.2181951404
2107,-0.3736532629
2108,-0.01800590195
2109,0.08006658405
2110,0.5820551515
2111,-0.03319062293
2112,-0.385396868
2113,-3.11511898
2114,0.2113012671
2115,-0.2519241869
2116,-0.07479775697
2117,-0.3316934705
2118,-0.3878321648
2119,-0.3792580962
2120,-0.2627574503
2121,0.4504676461
2122,0.4327549636
2123,0.0923025161
2124,0.4369255006
2125,-1.444020867
2126,-0.7965165973
2127,-0.4200083911
2128,-0.3126385212
2129,-0.2256345302
2130,0.6746094227
2131,-0.1964952499
2132,0.1450397819
2133,0.2946552336
2134,0.0339884758
2135,-0.1897152513
2136,-0.3762538433
2137,-1.073400736
2138,-0.1767569482
2139,-0.2664787471
2140,-0.584869504
2141,-0.1553162634
2142,0.3693613112
2143,0.6882017851
2144,-0.3205389678
2145,0.4254164994
2146,-0.1993833929
2147,-0.3114896715
2148,-0.2098651677
2149,0.1902014911
2150,0.2505995631
2151,-0.117275022
2152,0.5724039078
2153,-0.182655707
2154,0.198504284
2155,-0.1083638072
2156,-0.6297520399
2157,-0.1746073961
2158,0.3532650471
2159,0.3262876272
2160,0.111205861
2161,-0.2536281645
2162,-0.145569399
2163,0.655582726
2164,-0.7058872581
2165,0.3409482539
2166,-0.8696035147
2167,0.7261522412
2168,0.3450184762
2169,0.07696381956
2170,0.4851006866
2171,0.9749124646
2172,-0.6963942051
2173,-0.1667427719
2174,0.5174231529
2175,-0.006080208346
2176,-0.2392307818
2177,-0.7992752194
2178,0.498973161
2179,0.02628973126
2180,0.7123457789
2181,0.2858020067
2182,-0.1533021927
2183,-0.4317382276
2184,0.01512434799
2185,0.3890841007
2186,-0.6575940847
2187,-1.05095017
2188,-0.03005786426
2189,-0.776963532
2190,0.3168843687
2191,0.1298462152
2192,-0.09769566357
2193,-0.1596407145
2194,0.2735956907
2195,0.2127741575
2196,-0.1502679884
2197,-0.3491745293
2198,-0.3433457613
2199,-0.3044871688
2200,-0.2460188419
2201,0.06749499589
2202,-0.2084594965
2203,-0.3552412093
2204,-0.5442253947
2205,-0.3553934097
2206,-0.3956307769
2207,0.01094271615
2208,0.2581403255
2209,0.5275292993
2210,-0.2873862386
2211,-0.1078545228
2212,-0.4768101573
2213,-0.2001557946
2214,0.5792893171
2215,-0.2355858237
2216,0.04272666201
2217,0.3402807415
2218,-0.2889803648
2219,0.5578444004
2220,-0.509953022
2221,0.01093668025
2222,-0.201006934
2223,0.3561702669
2224,-0.3416745961
2225,0.01431282144
2226,0.6223481297
2227,0.2101045698
2228,-0.4579286277
2229,-0.1536661386
2230,0.3294880092
2231,-0.5823675394
2232,-0.009244619869
2233,-0.0001181452244
2234,-0.2293221653
2235,0.2616939843
2236,0.2089782208
2237,-0.3090103865
2238,0.3255485296
2239,-0.1757208854
2240,-0.5377627015
2241,-3.036865473
2242,-0.2161237001
2243,-0.2290930748
2244,0.3229381144
2245,-0.239858523
2246,0.1304354072
2247,-0.4655388594
2248,-0.5775533915
2249,0.8571490049
2250,0.256747812
2251,0.1654311866
2252,0.635884881
2253,-1.202130198
2254,-0.9603236318
2255,0.03937546909
2256,-0.7419016361
2257,-0.3084977567
2258,0.8067164421
2259,-0.5280841589
2260,-0.1736531407
2261,-0.1972954273
2262,0.1490492374
2263,-0.4454700947
2264,0.003202015767
2265,-0.873812139
2266,-0.03859595954
2267,-0.05081065744
2268,-0.2485723794
2269,0.2380797565
2270,0.02057623118
2271,0.4905200899
2272,-0.5516885519
2273,0.09014122188
2274,-0.07020709664
2275,-0.06637195498
2276,-0.4328822196
2277,-0.02611909248
2278,0.4231640697
2279,0.06094583124
2280,0.8594175577
2281,-0.3048020899
2282,0.3483842015
2283,-0.08286383748
2284,-0.8783168793
2285,0.3070428967
2286,-0.02211297117
2287,0.3454414606
2288,0.2753711045
2289,0.2976844311
2290,-0.74173069
2291,0.429405719
2292,-0.7659577727
2293,0.3101129234
2294,-0.4118626416
2295,0.9990448356
2296,-0.1998452991
2297,0.1935856044
2298,0.6767752171
2299,0.9928331971
2300,-0.07375629991
2301,-0.001724121161
2302,0.6735473275
2303,0.1899605691
2304,-6.750471592
2305,-0.8874627948
2306,-5.918989182
2307,-3.475404501
2308,-3.816489935
2309,0.376714915
2310,-1.670530915
2311,4.416790009
2312,-4.932069778
2313,-6.576449871
2314,0.1129386276
2315,-0.2640702426
2316,5.123993874
2317,2.107354641
2318,6.224455357
2319,6.003883839
2320,5.762704849
2321,0.367213279
2322,-0.7842527032
2323,-6.823304176
2324,2.576168776
2325,-0.02901915461
2326,0.001245485619
2327,0.6245161891
2328,6.612545013
2329,1.942156315
2330,-5.059601784
2331,-4.163971424
2332,6.785148621
2333,0.04387238249
2334,7.358777046
2335,1.811506391
2336,3.676531315
2337,-1.788133144
2338,-1.937201738
2339,-3.721809387
2340,-2.759377956
2341,4.519733906
2342,2.624401331
2343,-1.694038987
2344,2.73479104
2345,2.465410471
2346,1.112626672
2347,-2.168370724
2348,2.282929659
2349,-0.150734365
2350,2.304527044
2351,0.2813867927
2352,3.045392275
2353,-0.2762172818
2354,-7.424789906
2355,-5.226931095
2356,-2.650007963
2357,7.195818901
2358,3.525168896
2359,-1.017573118
2360,-0.6987082362
2361,-4.603296757
2362,4.585401535
2363,-2.947203875
2364,-5.444387913
2365,0.1481731385
2366,6.180780888
2367,4.312191963
2368,-0.3960787654
2369,0.3101489544
2370,0.2615375519
2371,-0.1116122752
2372,-0.09654930979
2373,-0.2367888391
2374,0.2347031981
2375,0.01940864511
2376,0.09848317504
2377,0.3423331678
2378,-0.2233241349
2379,0.2294946611
2380,-0.8018320799
2381,0.1163335145
2382,0.06841500849
2383,-0.4470262825
2384,-0.03400687873
2385,-0.1642549336
2386,0.4127416909
2387,0.1729489118
2388,-0.1765469313
2389,0.0006373122451
2390,-0.3562595546
2391,0.4209425747
2392,0.08999428898
2393,0.1751673222
2394,0.1967800409
2395,-0.2640613317
2396,0.3857882917
2397,-0.1695100516
2398,0.1149840206
2399,-0.03765782714
2400,0.4252653122
2401,-0.5715921521
2402,-0.45328933
2403,-0.1254123151
2404,-0.1435939819
2405,0.4553150833
2406,-0.1410176456
2407,0.3840446472
2408,0.3563800752
2409,0.2362073362
2410,-0.09368234873
2411,-0.1324484348
2412,-0.2822535038
2413,-0.3042171001
2414,-0.03082918189
2415,-0.3716538846
2416,0.3732405901
2417,-0.2775485218
2418,-0.06587922573
2419,-0.2330860198
2420,0.424318552
2421,0.2593328059
2422,0.2106612027
2423,-0.2360340059
2424,0.3078126609
2425,-0.1624351144
2426,-0.07350702584
2427,-0.2694779038
2428,0.001576621551
2429,-0.1112356558
2430,0.3239834011
2431,0.3994044363
2432,0.02508232184
2433,0.01945113949
2434,0.524276793
2435,-0.9699583054
2436,-0.04345089197
2437,0.386544615
2438,0.373332113
2439,-0.2569822073
2440,-0.008327170275
2441,0.06079137698
2442,-0.2085677683
2443,-0.3278644383
2444,0.379989028
2445,-0.2416040897
2446,-0.484778434
2447,0.3967212141
2448,0.2599914074
2449,-0.6939573288
2450,-0.1367840469
2451,0.2948911488
2452,-0.02008698508
2453,-0.3169941604
2454,0.1946988106
2455,0.315377593
2456,0.3564276397
2457,-0.6301540732
2458,-0.388368696
2459,-0.7000008225
2460,-0.1887261868
2461,-0.1056524664
2462,0.2987726331
2463,0.01972550154
2464,0.3334015012
2465,0.0955042392
2466,0.543712914
2467,0.02196762152
2468,0.1059478596
2469,0.1258699894
2470,0.002256664215
2471,-0.4699261189
2472,0.2268183529
2473,-0.2109681517
2474,0.1724358499
2475,-0.359378159
2476,-0.3167157471
2477,-0.3881063163
2478,-0.5157045722
2479,-0.09147846699
2480,-0.08793418109
2481,-0.1669985354
2482,-0.2126557082
2483,0.2597211301
2484,-0.7019956708
2485,0.3185342252
2486,-0.0498864688
2487,0.2746686041
2488,-0.5562800169
2489,0.3740375638
2490,0.4641663432
2491,0.2462866008
2492,-0.2663078308
2493,-0.1761405468
2494,-0.1550045162
2495,-0.1655671448
2496,0.07883790135
2497,0.01578319259
2498,0.02361873351
2499,0.05680210888
2500,0.02827654406
2501,0
2502,-0.01387737133
2503,-0.01162002981
2504,-0.1354321986
2505,0.04993630573
2506,-0.01682575792
2507,0.06195341423
2508,0.06740573049
2509,0.1253971159
2510,0.1344836354
2511,0.05849153176
2512,-0.05921994522
2513,0.1027655602
2514,0.1161980778
2515,-0.1054202914
2516,0.005367288832
2517,-0.01011294406
2518,0
2519,0.07127008587
2520,-0.05840100721
2521,0.1101859212
2522,-0.0535399951
2523,0.001029117149
2524,0.0135589838
2525,-0.1278646141
2526,0.01816528104
2527,-0.1189865246
2528,0.04909351841
2529,0.007235800382
2530,0.01626855321
2531,0.002800344955
2532,-0.06620375812
2533,0.03618996218
2534,-0.04525351524
2535,0.009964421391
2536,0.05561573058
2537,0.03999667242
2538,0.0871220082
2539,-0.01966111735
2540,0.01523575932
2541,0
2542,-0.01824535616
2543,-0.0487344861
2544,0.0221858304
2545,0
2546,0.01550170965
2547,-0.01556736603
2548,0.05895422772
2549,-0.04685698822
2550,-0.05326613411
2551,0.0004084419925
2552,0.170160681
2553,-0.05525834486
2554,-0.02812830918
2555,0.05374964699
2556,0.0506422855
2557,0
2558,0.03930360079
2559,0.06976663321
2560,-0.7895786762
2561,-0.07615318894
2562,0.0588302128
2563,0.1304542422
2564,0.1226563901
2565,-0.284668982
2566,-0.3713844419
2567,0.1486061215
2568,-0.02882386744
2569,0.275544703
2570,-0.1224991307
2571,0.0634490326
2572,-0.5059953928
2573,0.08880144358
2574,-0.4058844149
2575,-0.06975816935
2576,0.2092868537
2577,-0.09308663011
2578,0.1437867284
2579,0.4227235317
2580,-0.1330464035
2581,-0.1212870255
2582,0.3237502873
2583,-0.09252408147
2584,0.2184180468
2585,-0.1282673627
2586,-0.1410095245
2587,-0.1498803496
2588,0.3357310593
2589,0.0313285701
2590,-0.2112342268
2591,0.0560279265
2592,-0.3251623511
2593,0.5247015357
2594,-0.2827084959
2595,0.1921073943
2596,-0.2579203248
2597,-0.1168159246
2598,-0.2812717259
2599,-0.264727354
2600,0.3467776179
2601,-0.2642850578
2602,0.00953382533
2603,0.1239627749
2604,0.180441916
2605,-0.06197390333
2606,0.06552062929
2607,0.3478769958
2608,-0.230752334
2609,0.1886203736
2610,0.5091990829
2611,0.3878057897
2612,0.1466793716
2613,-0.2011360526
2614,-0.1684875786
2615,0.1655315757
2616,0.0335800685
2617,-0.6613894701
2618,-0.1010564491
2619,-0.2077522129
2620,-0.01010170113
2621,0.1747947186
2622,0.1418185383
2623,-0.8640905023
2624,-0.1089618206
2625,0.250639677
2626,-0.1004140303
2627,-0.03030527942
2628,-0.3690384328
2629,0.09471856058
2630,-0.1395079046
2631,-0.08354396373
2632,-0.9963009953
2633,-0.5494914055
2634,0.9802016616
2635,-0.6918868423
2636,0.4663041234
2637,0.2390538156
2638,-0.6298287511
2639,0.08118240535
2640,0.08250275254
2641,0.4038060308
2642,-0.1763144284
2643,-1.278100491
2644,0.4687002003
2645,-0.2806393802
2646,0.1646417528
2647,0.1515686512
2648,0.09436218441
2649,-0.09190909564
2650,-0.1038159281
2651,0.6525712013
2652,0.1178119406
2653,-0.9778319001
2654,0.05384400487
2655,-0.1529034674
2656,0.6120988727
2657,0.5452001095
2658,-0.7043511868
2659,0.4765926898
2660,-0.5396274328
2661,-0.03614166379
2662,-0.2346082181
2663,0.09586142749
2664,0.5699649453
2665,-0.02087527141
2666,0.08593498915
2667,-0.5453922749
2668,0.2818958759
2669,0.04616130888
2670,-0.338101685
2671,0.23531349
2672,0.2770410776
2673,0.0251025483
2674,0.07341574878
2675,-0.145872578
2676,0.2617467344
2677,-0.2501057088
2678,0.2908557951
2679,-0.4390157759
2680,-0.07479472458
2681,0.03980331495
2682,0.004993237089
2683,0.1944387406
2684,0.3364026845
2685,0.4445414543
2686,-0.7368735075
2687,-0.5680732131
2688,0.02356052399
2689,-0.492832154
2690,0.3115949929
2691,0.3112747669
2692,0.1503217965
2693,-0.317142278
2694,0.1903402954
2695,0.01914811507
2696,0.2451612949
2697,-0.1039970592
2698,0.04278948158
2699,0.1731396019
2700,0.2272598445
2701,-0.2635874152
2702,0.05504436791
2703,0.1179432422
2704,0.1029971391
2705,-0.3742462099
2706,0.3165818453
2707,0.1557040364
2708,0.08858336508
2709,-0.1061657742
2710,-0.1535619348
2711,-0.2509991825
2712,0.3645529747
2713,0.0001427674433
2714,0.2454488575
2715,-0.1744752675
2716,-0.2451711446
2717,0.3901455402
2718,0.2866042256
2719,-0.0679782927
2720,-0.1820984632
2721,0.3499949872
2722,0.2633578181
2723,0.215338096
2724,-0.04990785569
2725,-0.05844479427
2726,-0.01427754574
2727,-0.2062296718
2728,0.3057211339
2729,0.661567688
2730,-0.14537552
2731,0.3110028505
2732,0.1580580026
2733,-0.2077419609
2734,-0.9013151526
2735,0.06941306591
2736,0.2342994809
2737,-0.002791726962
2738,0.3180654645
2739,-0.08771451563
2740,-0.3009080589
2741,0.1558844894
2742,-0.3688773513
2743,0.1409504712
2744,-0.2389534116
2745,0.3647386432
2746,-0.0579058677
2747,0.2935422957
2748,-0.5591797233
2749,0.2465306371
2750,0.2226317227
2751,0.2431280464
2752,-0.9473383427
2753,-0.3184435666
2754,0.1391845196
2755,-0.01232517883
2756,-0.3767695725
2757,0.08358816803
2758,-0.08853947371
2759,-0.06136390194
2760,0.1463703215
2761,0.1568704993
2762,0.005992975086
2763,0.1538876444
2764,-0.6656688452
2765,0.1837669611
2766,0.01414869819
2767,0.2197197378
2768,0.2890508473
2769,0.2406753898
2770,0.242790848
2771,0.1245035902
2772,-0.03130459413
2773,0.2298776954
2774,-0.5396948457
2775,0.07023371756
2776,0.2514205575
2777,0.528010428
2778,-0.1143257022
2779,-0.3668316603
2780,-0.3268787265
2781,-0.0326515846
2782,0.5504335761
2783,0.01540634967
2784,-0.2125554383
2785,0.4714154303
2786,-0.1218009889
2787,0.1658503264
2788,-0.4982644618
2789,0.2369414717
2790,-0.1275111735
2791,0.005660957657
2792,0.06930668652
2793,0.6142583489
2794,-0.5565291643
2795,-0.05807716399
2796,-0.4970420003
2797,0.1911172867
2798,-0.343011111
2799,0.1224686578
2800,-0.02640770003
2801,0.05066723004
2802,0.2755912244
2803,-0.1838798672
2804,-0.2295449972
2805,0.1304446757
2806,0.1429106295
2807,0.3257330954
2808,-0.001569130574
2809,-0.4260973632
2810,0.1504523307
2811,0.5361675024
2812,0.1007708237
2813,0.06640525907
2814,0.4584209323
2815,-0.3776454926
2816,0.04847740382
2817,-0.2300749719
2818,-0.02344747633
2819,-0.01805821247
2820,0.1460862756
2821,0.03513158485
2822,0.1911158711
2823,-0.3314859271
2824,-0.2922473252
2825,0.05807397142
2826,-0.07764393091
2827,-0.379827559
2828,-0.05138974637
2829,-0.2058843672
2830,0.08938658237
2831,0.1461609006
2832,0.3300947547
2833,-0.4477098286
2834,-0.1634168774
2835,-0.1387399137
2836,-0.3067228198
2837,-0.3056307733
2838,-0.1749967784
2839,-0.3035218418
2840,0.477822721
2841,0.212245658
2842,-0.1479921788
2843,-0.05405976623
2844,-0.1147506237
2845,0.01097624004
2846,-0.2415921092
2847,-0.1428571492
2848,0.3292196691
2849,-0.1561343074
2850,0.09049472213
2851,-0.02467229217
2852,0.4728646576
2853,0.1605751067
2854,-0.01501503307
2855,0.1185767353
2856,0.1445722133
2857,-0.2648469806
2858,0.2759797275
2859,0.06303684413
2860,0.2416918278
2861,-0.1226225942
2862,-0.3297759891
2863,0.07968117297
2864,0.1299945861
2865,-0.1620154232
2866,0.1237697303
2867,-0.2151453793
2868,0.2515624166
2869,-0.2787914574
2870,-0.3923295736
2871,-0.2486356795
2872,-0.3275487125
2873,-0.232397601
2874,0.2045628279
2875,0.05961754546
2876,0.08222050965
2877,0.1515740007
2878,0.3591867983
2879,-0.04988437146
2880,0.272115469
2881,0.2920645475
2882,0.02962093242
2883,0.08556123823
2884,-0.05094162002
2885,0.08429194242
2886,-0.1611937135
2887,0.0788243562
2888,-0.04765891284
2889,-0.01615528204
2890,-0.02493114397
2891,-0.2927690446
2892,0.01731462032
2893,0.2603100836
2894,0.2727436125
2895,-0.09649598598
2896,-0.2040003538
2897,0.01950047351
2898,-0.1842527986
2899,-0.07229062915
2900,-0.2568763793
2901,-0.1609171629
2902,0.09477196634
2903,-0.2826711535
2904,0.2834773362
2905,-0.2879618108
2906,-0.09207247943
2907,-0.1735209823
2908,0.2484011203
2909,0.1187709868
2910,0.02378457971
2911,0.04183767363
2912,-0.158154428
2913,-0.2156759948
2914,-0.1578955948
2915,-0.1287440807
2916,-0.1902927756
2917,-0.2460538894
2918,0.2434433401
2919,-0.129528746
2920,-0.2562761605
2921,0.05308857933
2922,0.03324314207
2923,0.00706151966
2924,-0.06961905211
2925,-0.1385806501
2926,0.1084623709
2927,0.1053956226
2928,-0.09934287518
2929,0.2019775957
2930,0.2058283389
2931,-0.1830717325
2932,-0.199406743
2933,-0.1731106341
2934,-0.1955530047
2935,0.07566919923
2936,0.140064612
2937,-0.2189565599
2938,-0.2677728832
2939,0.1047180295
2940,0.189198941
2941,-0.2768756747
2942,-0.2300559133
2943,-0.1339718848
2944,-0.07529383153
2945,0.01021264307
2946,-0.5867221951
2947,-0.009430127218
2948,0.07655276358
2949,-0.173340112
2950,-0.4040249288
2951,-0.2716587484
2952,0.2400335371
2953,0.2073671073
2954,-0.2237121314
2955,-0.41377002
2956,-0.4998061955
2957,0.2674911916
2958,-0.007469351403
2959,-0.6148484349
2960,0.06952930987
2961,0.5783545971
2962,-0.2984352112
2963,0.004100286867
2964,0.5906606913
2965,0.1012816802
2966,-0.5452847481
2967,-0.2048479766
2968,0.1129883528
2969,-0.2312291712
2970,0.04620942101
2971,-0.2511587143
2972,-0.4251581132
2973,-0.3875466883
2974,0.6483857036
2975,0.4157916009
2976,-0.05102968216
2977,-0.01183825824
2978,-0.6284205914
2979,0.2881511748
2980,-0.4066227674
2981,-0.2651505768
2982,-0.4520925581
2983,-0.08639799803
2984,0.170127064
2985,0.3180734217
2986,0.1190407723
2987,0.110261865
2988,-0.4345065355
2989,0.2324148715
2990,-0.2178721875
2991,-0.5022400022
2992,-0.7238299251
2993,0.03577503935
2994,-0.2111672312
2995,-0.2092396915
2996,-0.2567306757
2997,-0.209444806
2998,0.21630162
2999,-0.1568261236
3000,-0.04236602038
3001,-0.2033388317
3002,0.08637212962
3003,0.2683569491
3004,0.4496581852
3005,0.03861222416
3006,0.2825420499
3007,0.07999937236
3008,-0.3704540133
3009,0.06058756262
3010,0.3298683763
3011,0.08816360682
3012,0.324269712
3013,-0.2930555642
3014,0.2141919136
3015,-0.2816322148
3016,0.09971527755
3017,0.0200595092
3018,0.3874801993
3019,-0.1247889251
3020,0.2661189735
3021,-0.2772834301
3022,0.4027229548
3023,0.04559021816
3024,-0.3036911786
3025,-0.01733585075
3026,-0.2025458813
3027,-0.3231784105
3028,-0.08931453526
3029,-0.06284733862
3030,0.02391678281
3031,0.2156286389
3032,-0.05192107335
3033,-0.09999491274
3034,-0.1727612466
3035,0.2196291983
3036,0.2143925875
3037,-0.06190831587
3038,0.02853590995
3039,0.2197597325
3040,0.08160768449
3041,0.1079271138
3042,-0.1656968445
3043,-0.1258409917
3044,0.04162494466
3045,-0.3216132522
3046,0.4241279066
3047,-0.3249613047
3048,-0.1342716515
3049,-0.2110248804
3050,0.2714275122
3051,-0.1142543703
3052,-0.332919836
3053,-0.1630077511
3054,0.6015496254
3055,0.05626943335
3056,-0.06380858272
3057,0.2935765386
3058,-0.4796633124
3059,-0.2262084633
3060,-0.1150864139
3061,-0.2777405381
3062,0.1184825227
3063,-0.1822323203
3064,0.06383790821
3065,-0.2334668338
3066,0.2385664731
3067,0.06594584137
3068,0.1432204694
3069,0.1844191551
3070,-0.07177948207
3071,-0.03570301086
3072,-0.09938813746
3073,0.1129725501
3074,0.1171134934
3075,0.2281464785
3076,-0.3881061673
3077,-0.2350212187
3078,0.05855736136
3079,-0.196601674
3080,0.2814422846
3081,-0.1505386084
3082,-0.05205060542
3083,0.2369676679
3084,-0.205898881
3085,-0.1889301091
3086,0.02480822988
3087,-0.09330987185
3088,0.2481653988
3089,-0.003730457742
3090,0.06944859028
3091,0.1727681905
3092,-0.06958606839
3093,-0.1978771091
3094,-0.1693808883
3095,0.1581585407
3096,-0.4007190764
3097,-0.00594700221
3098,-0.03075793572
3099,0.1538046002
3100,-0.1440199614
3101,-0.2224463969
3102,0.1124762967
3103,0.165101245
3104,0.048722554
3105,-0.006230385974
3106,0.1204962283
3107,-0.1417338848
3108,-0.172523126
3109,-0.2420552224
3110,-0.00912403129
3111,0.2314652354
3112,-0.1424225867
3113,0.2408733368
3114,-0.2941155136
3115,0.3927938342
3116,-0.2074749023
3117,-0.3620188236
3118,0.129583165
3119,0.1666469872
3120,0.03067175299
3121,-0.2828081548
3122,0.05258212611
3123,0.0676523447
3124,-0.1890926957
3125,-0.3023974597
3126,0.162210539
3127,0.2686998248
3128,0.1197397411
3129,0.05746328086
3130,-0.1596577913
3131,0.1373299509
3132,-0.2502450049
3133,0.2698367536
3134,-0.3747652471
3135,-0.2184190452
3136,-0.2869136333
3137,-0.3551921248
3138,0.1735711694
3139,-0.09573486447
3140,-0.1955563724
3141,-0.3422905505
3142,0.114004001
3143,0.0784175992
3144,0.456656754
3145,-0.06608822197
3146,-0.2705409825
3147,0.430477351
3148,-0.07861124724
3149,-0.291326344
3150,0.3848222196
3151,0.338430047
3152,-0.3872234821
3153,0.1379252821
3154,-0.148523733
3155,0.02050090209
3156,0.5593138933
3157,0.0343824625
3158,-0.5948821902
3159,0.4082419872
3160,0.1636303365
3161,0.1334682256
3162,0.1715959609
3163,-0.2895001173
3164,-0.1948789954
3165,0.2245461047
3166,0.241849795
3167,-0.1454967409
3168,0.1134573147
3169,-0.1486958712
3170,-0.1065307334
3171,0.1234496683
3172,-0.03990316391
3173,0.07731339335
3174,0.04415684193
3175,0.3537133336
3176,0.1060136631
3177,0.5801126957
3178,0.2314641327
3179,0.2486756444
3180,-0.03196590021
3181,-0.1157902181
3182,0.1953947693
3183,0.08790315688
3184,-0.4532704055
3185,0.4075119495
3186,-0.116937153
3187,0.03142492101
3188,-0.1527571678
3189,-0.3332969844
3190,-0.490731746
3191,0.02665579319
3192,-0.5396981835
3193,-0.4596604705
3194,-0.4468469918
3195,0.009192977101
3196,0.3129033744
3197,0.1328018904
3198,0.008611849509
3199,-0.4555277526
3200,0.08102633804
3201,-0.459351331
3202,-0.6494063735
3203,-0.234325707
3204,-0.0556133315
3205,-0.1132383719
3206,0.480189085
3207,-0.05384900793
3208,-0.2190821022
3209,-0.1996691525
3210,0.06654046476
3211,0.8429789543
3212,-0.03889968619
3213,0.02135954052
3214,0.2953743637
3215,0.3274272084
3216,-0.8037789464
3217,-0.3081212938
3218,0.4877854586
3219,-1.115039229
3220,0.079604581
3221,0.06598678231
3222,-0.4124079049
3223,-0.08890490234
3224,0.4995867908
3225,-1.069943666
3226,0.282034725
3227,-0.09728047252
3228,-0.03961561993
3229,-0.4484923184
3230,0.2987334728
3231,-0.6074181199
3232,-0.4957690537
3233,-1.075185299
3234,-0.4717452526
3235,0.2672505081
3236,0.5106999278
3237,-0.2053135931
3238,0.6724435091
3239,0.1067155376
3240,-0.3029925823
3241,0.8605865836
3242,0.1823460013
3243,0.1340332329
3244,0.04969495907
3245,-0.1058654413
3246,0.7533041239
3247,-0.5557540655
3248,-0.4286747873
3249,0.06922586262
3250,0.5689743161
3251,0.8128907084
3252,-0.1667096615
3253,-0.1944410801
3254,-0.6593647599
3255,0.2304757386
3256,-0.542191267
3257,0.2146676034
3258,-0.2800882459
3259,0.2916549146
3260,0.2825862169
3261,0.06603057683
3262,0.1992850155
3263,-0.2839188278
3264,0.4895376861
3265,-0.2020594329
3266,0.2251438946
3267,-0.2615644038
3268,0.4772939384
3269,-0.2753302753
3270,-0.05980171636
3271,-0.3233144879
3272,-0.3464145362
3273,-0.2538085282
3274,0.4438894391
3275,0.4764343202
3276,-0.4085306525
3277,0.1158341765
3278,0.4890208542
3279,0.09582360089
3280,-0.6800395846
3281,0.3977567255
3282,0.5891101956
3283,-0.7470872402
3284,0.5911895633
3285,0.07972532511
3286,-0.5084989071
3287,0.01767417043
3288,-0.3964942396
3289,0.04098246619
3290,-0.1772417426
3291,-0.7169836164
3292,0.0709381178
3293,-0.7701085806
3294,-0.01949284971
3295,-0.339328289
3296,0.3290133774
3297,-0.4324250519
3298,-0.6932608485
3299,-0.4377433062
3300,-0.4691111445
3301,0.1105804443
3302,0.2032138109
3303,0.03923250362
3304,0.2454500943
3305,0.02820832096
3306,-0.3196263611
3307,0.1902132481
3308,-0.7408110499
3309,-0.1871890873
3310,0.6549966931
3311,-0.4037094414
3312,0.6972059011
3313,-0.8872036338
3314,-0.5770840645
3315,0.04955881462
3316,0.2888076901
3317,-0.1288768649
3318,-1.326989532
3319,-0.0225712359
3320,-0.08024017513
3321,-0.6096465588
3322,0.06165441498
3323,-0.04759769142
3324,-0.1917767525
3325,-0.4199969471
3326,-0.5227966905
3327,-0.640132606
3328,-0.5613554716
3329,0.2080484927
3330,0.1622217298
3331,-0.2381422669
3332,0.4085451663
3333,0.07258862257
3334,0.5587826371
3335,0.2142189443
3336,-0.2733279467
3337,-0.2491900176
3338,-0.7283247709
3339,-0.2109657526
3340,-0.9570661783
3341,-0.2165309787
3342,0.4629119337
3343,0.1931837201
3344,-0.5438259244
3345,-0.4516891539
3346,-0.2026710063
3347,-0.6064707041
3348,0.09800845385
3349,0.1876597553
3350,0.0708231926
3351,-0.1547878981
3352,0.1894511282
3353,-0.3504621387
3354,-0.2413723618
3355,0.222604394
3356,0.5976842642
3357,-0.4031122327
3358,-0.9628308415
3359,-0.4376576841
3360,-0.4740418196
3361,-0.6181408763
3362,-0.266415149
3363,-0.1720017195
3364,0.2322363704
3365,-0.05676180124
3366,0.7528063059
3367,-0.4224303067
3368,0.04025153071
3369,-0.8343707323
3370,0.4463390708
3371,-0.1811652035
3372,-0.08278186619
3373,-0.189095974
3374,1.058169723
3375,-0.2420044392
3376,-0.6337303519
3377,-0.7756745815
3378,0.1621212065
3379,-0.05978634581
3380,-0.1592955589
3381,-0.1180997565
3382,-0.7744607925
3383,-0.4466745555
3384,-0.1516807824
3385,0.08776726574
3386,-0.1733040363
3387,-1.226155877
3388,0.3076075315
3389,-0.1446567923
3390,-0.03580650687
3391,-0.1708361804
3392,-0.09200248867
3393,-0.005711882375
3394,0.004203764256
3395,0.01960766688
3396,0.07206777483
3397,0.04144514725
3398,-0.03023493104
3399,0.180916965
3400,-0.03370671719
3401,-0.1742016971
3402,0.7613393664
3403,0.08101683855
3404,0.3512844443
3405,-0.1178959236
3406,0.003837751457
3407,-0.03037367575
3408,-0.02290973067
3409,0.3521203399
3410,0.002605543705
3411,0.05994230136
3412,0.5801053047
3413,-0.1381088644
3414,0.1880916804
3415,-0.1267925948
3416,0.1704119444
3417,-0.3297652602
3418,-0.1036718413
3419,0.4513771534
3420,0.3378823102
3421,-0.754299283
3422,-0.07859348506
3423,0.0242908299
3424,-0.2908628285
3425,0.03828806058
3426,0.05422122031
3427,-0.03955877945
3428,-0.5232405663
3429,-0.02935238741
3430,0.3577256203
3431,-0.5299978852
3432,0.2666632235
3433,-0.51689744
3434,0.008540447801
3435,-0.5155229568
3436,0.0412356481
3437,0.2487152815
3438,-0.2904660106
3439,0.1911256164
3440,0.4491865933
3441,-0.3737675846
3442,-0.3017454743
3443,0.4813243449
3444,0.2276859283
3445,0.3010979593
3446,0.4128397107
3447,-0.2899916172
3448,0.2997857332
3449,0.2929961979
3450,-0.3244258165
3451,0.290407002
3452,-0.3018237352
3453,0.06643354148
3454,-0.3167024553
3455,0.2163934559
3456,0.2910263538
3457,-0.2035140544
3458,0.1698293239
3459,0.05591424927
3460,0.001495253295
3461,0.06060602516
3462,0.3355958462
3463,-0.07014402002
3464,-0.162266165
3465,-0.1049305126
3466,0.2256320268
3467,-0.4049022198
3468,-0.002473833039
3469,-0.05133945867
3470,0.06022160128
3471,-0.3036884069
3472,0.5422589779
3473,-0.1284836084
3474,-0.1979990751
3475,0.3652994037
3476,-0.1249976084
3477,0.0419292897
3478,-0.1724078506
3479,-0.5122787952
3480,-0.07967438549
3481,-0.2596963644
3482,-0.2831524014
3483,0.2501115799
3484,-0.11362461
3485,-0.2574673295
3486,0.08835756779
3487,0.05439675972
3488,0.5086805224
3489,-0.0442822054
3490,-0.0732640177
3491,0.2129025459
3492,0.167303741
3493,-0.04615194723
3494,-0.06548691541
3495,0.1989127398
3496,0.1401295066
3497,-1.093159676
3498,0.1694077253
3499,0.001456639147
3500,-0.12394692
3501,-0.2155742347
3502,-0.2995480299
3503,0.3700741827
3504,0.3503323793
3505,-0.8046913147
3506,0.2541844249
3507,-0.1525643766
3508,-0.1115328223
3509,-0.2420846373
3510,0.2775686681
3511,-0.1679574102
3512,0.1798576266
3513,0.2273180932
3514,-0.329292804
3515,-0.2401806712
3516,-0.3746731281
3517,0.09247366339
3518,0.3707647622
3519,0.1605030149
3520,-1.180454731
3521,0.3896731138
3522,0.1780545712
3523,0.1095320061
3524,0.09908036143
3525,0.05476944521
3526,-0.4233410358
3527,-0.2622081041
3528,0.002157463692
3529,-0.003886849852
3530,-0.3723775744
3531,-0.04111608118
3532,0.4654978812
3533,-0.09455515444
3534,-0.3731570542
3535,-0.2021138668
3536,0.5453453064
3537,-0.2878042459
3538,-0.8151085377
3539,0.05830121413
3540,-0.4426375329
3541,0.2388911694
3542,0.3165157139
3543,-0.3064769208
3544,-0.2333915234
3545,0.2759864032
3546,-0.2905541062
3547,0.196513474
3548,0.5624933243
3549,-0.700651288
3550,-0.4801153541
3551,-0.1452864856
3552,-0.1245784611
3553,-0.01872001775
3554,-0.3103421926
3555,-0.07950106263
3556,0.3643309772
3557,-0.09044165164
3558,0.2258967161
3559,-0.3561407328
3560,-0.6448421478
3561,-0.6518486738
3562,-0.02885179035
3563,-0.1097583324
3564,0.2009807676
3565,-0.3206815124
3566,-0.2846395671
3567,0.3272804916
3568,-0.735548079
3569,-0.4372880757
3570,-0.03763860837
3571,0.2091666013
3572,-0.3008681536
3573,0.1909030825
3574,0.5018529892
3575,-0.05127264187
3576,0.1003360674
3577,-0.1080365852
3578,-0.2542593479
3579,-0.1573592126
3580,0.05063542724
3581,0.2030458152
3582,0.1212573349
3583,0.07545612007
3584,0.1551309377
3585,0.01239546295
3586,-0.4187647402
3587,0.4091807604
3588,-0.119051531
3589,-0.1696173996
3590,-0.001545277191
3591,0.001124609029
3592,0.3465335965
3593,-0.1329412758
3594,-0.311601758
3595,0.3230222166
3596,-0.06932406127
3597,0.01844094507
3598,-0.06321981549
3599,-0.4436606765
3600,-0.1811282784
3601,0.1737388074
3602,-0.2040905803
3603,-0.3205975592
3604,0.3860687912
3605,-0.2030011863
3606,-0.2469241023
3607,-0.3951497078
3608,-0.07054501027
3609,-0.01096163504
3610,-0.1720107198
3611,0.3769618273
3612,-0.2537584007
3613,-0.1388665438
3614,0.06000382826
3615,0.1618294567
3616,0.3377743661
3617,-0.4957261384
3618,0.496965915
3619,0.1795311868
3620,0.04976952448
3621,0.04597340524
3622,-0.5039458275
3623,0.1559401304
3624,-0.1603839844
3625,0.3439676762
3626,0.2042151242
3627,0.2690442502
3628,0.2965090275
3629,-0.07722567767
3630,-0.1716746241
3631,0.06492104381
3632,0.225197345
3633,-0.2426788509
3634,0.2992295325
3635,-0.06790053099
3636,0.02820800804
3637,0.1361147761
3638,0.5121479034
3639,-0.153666839
3640,0.4504071772
3641,-0.3226362467
3642,0.227308929
3643,0.4688223302
3644,-0.09786315262
3645,0.04170183837
3646,-0.08529964834
3647,-0.1919042319
3648,-0.2593661547
3649,-0.05637662113
3650,0.4950963557
3651,-0.1142804325
3652,0.3661904037
3653,0.09229423106
3654,-0.4280896187
3655,0.1946516037
3656,0.2908279002
3657,0.1709717661
3658,-0.2672066987
3659,-0.2882475555
3660,-0.07102296501
3661,-0.1438744068
3662,-0.616997242
3663,0.07877897471
3664,-0.2947823107
3665,0.001891122432
3666,-0.2145130932
3667,0.06750020385
3668,-0.3025625944
3669,-0.08078856021
3670,-0.6887040734
3671,0.04049061239
3672,-0.04690096527
3673,0.3610591292
3674,-0.1052433252
3675,0.04531063884
3676,-0.1649627835
3677,0.1072042957
3678,0.08306380361
3679,0.006731755566
3680,0.7542218566
3681,0.08199805021
3682,0.05211590603
3683,0.2194764763
3684,0.2464244366
3685,-0.08437997103
3686,-0.5008342862
3687,0.7021745443
3688,-0.1543810368
3689,-0.3675075769
3690,-0.06835183501
3691,0.02011221088
3692,-0.2369095236
3693,0.2520701587
3694,-0.236674279
3695,0.2308210433
3696,0.347438097
3697,-0.3359414339
3698,-0.3129501641
3699,-0.8283227086
3700,-0.1847854257
3701,0.1019555777
3702,-0.06703267992
3703,-0.3950840831
3704,0.7817340493
3705,0.2607980669
3706,0.3674759567
3707,-0.4425517023
3708,0.2980996668
3709,-0.003872510046
3710,0.1401394308
3711,-0.1256338954
3712,0.1671674401
3713,0.4570466876
3714,-0.005192364566
3715,0.2003992051
3716,-0.5925484896
3717,-0.1439949423
3718,-0.04696794227
3719,0.0361019522
3720,-0.007559835911
3721,0.3446340859
3722,-1.290282845
3723,0.1315285265
3724,-0.3227425516
3725,0.1542804241
3726,0.08530771732
3727,0.04117199406
3728,0.07735765725
3729,0.01207787916
3730,-0.3119662404
3731,0.006555000786
3732,-0.00978666544
3733,-0.3042224944
3734,0.1485863328
3735,-0.2674262822
3736,0.3258112669
3737,-0.06000337377
3738,-0.2656353712
3739,0.1055434495
3740,0.05555602908
3741,0.4273100197
3742,0.2297308445
3743,0.318266958
3744,-0.04743745178
3745,0.2761150301
3746,0.135646373
3747,-0.2990256846
3748,0.0008192538517
3749,0.2052016556
3750,-0.1574768722
3751,-0.131195873
3752,-0.2509563863
3753,0.1072028279
3754,0.3133395314
3755,-0.1638625562
3756,0.4321971238
3757,0.08316427469
3758,0.01274361648
3759,0.3444103301
3760,0.3618100286
3761,-0.2345740497
3762,0.4516097903
3763,-0.2971818149
3764,0.1114041805
3765,0.1172256768
3766,-0.1008943096
3767,-0.2467079014
3768,-0.3105378449
3769,0.07063298672
3770,-0.03625715524
3771,0.03749987856
3772,0.3511268497
3773,-0.1007925943
3774,0.3673264086
3775,0.2958858013
3776,-0.6787645817
3777,-0.01331221499
3778,0.05994137004
3779,0.2684460282
3780,-0.1667751074
3781,0.113341935
3782,-0.1703549176
3783,-0.339832902
3784,0.07234366983
3785,-0.2223641425
3786,-0.1138470322
3787,0.01598964632
3788,-0.08511544019
3789,-0.237880677
3790,0.02922661416
3791,-0.2738720179
3792,-0.007973168977
3793,0.08139801025
3794,-0.1929180324
3795,-0.2536542416
3796,-0.4785310328
3797,-0.1110295579
3798,-0.2236608565
3799,0.1136287972
3800,-0.3142398298
3801,0.2981944084
3802,0.119949311
3803,0.1465033591
3804,-0.01778304577
3805,-0.2444700897
3806,-0.1743052602
3807,0.1231965572
3808,-0.2504713535
3809,0.3326610029
3810,-0.1109277755
3811,-0.05068267509
3812,-0.4550214708
3813,-0.3437904716
3814,-0.1265691668
3815,-0.2620990872
3816,-0.1726117283
3817,0.1820355505
3818,0.1118822321
3819,-0.2025299966
3820,-0.2814123631
3821,0.06947647035
3822,-0.06421077251
3823,0.09195927531
3824,-0.1881848723
3825,-0.01722597703
3826,-0.1889341772
3827,-0.2396634966
3828,0.1306745857
3829,-0.3221390545
3830,0.005024364684
3831,0.1173101962
3832,-0.04887484014
3833,0.1859404147
3834,-0.3310685754
3835,-0.1001653373
3836,-0.3863740265
3837,-0.01405196544
3838,-0.3845073879
3839,-0.06096473336
3840,-0.627145648
3841,-0.6302671432
3842,0.1962839812
3843,-0.3864075243
3844,0.5031609535
3845,0.156960696
3846,0.1874797046
3847,-0.2819288969
3848,0.09511311352
3849,-0.4459922314
3850,0.1106995717
3851,0.2666644156
3852,0.1566381156
3853,0.2293175906
3854,0.4900432229
3855,0.08856703341
3856,0.357984215
3857,-0.345721066
3858,-0.2806751728
3859,-0.1294948757
3860,0.03090945445
3861,-0.2480475903
3862,0.2711821198
3863,0.1570922881
3864,0.05303272232
3865,0.2150622755
3866,0.2326559573
3867,0.2356585413
3868,0.3550070822
3869,0.3776876628
3870,0.2510539293
3871,0.1046361774
3872,0.1038239673
3873,0.5603827238
3874,0.3148656189
3875,-0.295782119
3876,-0.9427902102
3877,-0.1870043278
3878,-0.1208913252
3879,0.2340839058
3880,0.1729740351
3881,-0.8878056407
3882,0.2203173339
3883,-0.4319112897
3884,-0.1426571012
3885,-0.05489338189
3886,0.3561539054
3887,-0.1385858059
3888,-0.3517919183
3889,-1.160290599
3890,-0.5560644269
3891,0.4304115176
3892,-0.1155486703
3893,-0.2603583038
3894,0.1827319562
3895,0.1513714045
3896,0.38024652
3897,-0.3930476606
3898,-0.01708349027
3899,0.0924911797
3900,0.2977543175
3901,0.04385600612
3902,-0.1406634748
3903,-0.2999274433
3904,-0.04953701794
3905,0.05946399271
3906,-0.1347709149
3907,-0.2131153494
3908,-0.1594237089
3909,0.1400258094
3910,-0.1213275939
3911,0.1012669653
3912,0.06760673225
3913,0.08262778074
3914,-0.2254828662
3915,-0.0113750454
3916,0.09653902054
3917,-0.1613860577
3918,-0.1413024068
3919,-0.3030487597
3920,0.1887924224
3921,0.2296507061
3922,0.1537123471
3923,0.05667173862
3924,0.2177705169
3925,0.02265653946
3926,-0.0803764388
3927,0.1837972254
3928,0.00727305701
3929,0.2927640676
3930,0.02499525622
3931,0.045152843
3932,0.1035852432
3933,-0.1318868846
3934,-0.07980340719
3935,0.2411180884
3936,-0.2299981266
3937,-0.2835824192
3938,0.1117905006
3939,0.04660810903
3940,0.2586648762
3941,-0.1804789901
3942,0.01593113132
3943,-0.08581016213
3944,0.1897067875
3945,0.1704039872
3946,0.02133991197
3947,-0.2379950881
3948,-0.1253503561
3949,0.04689668119
3950,0.300755769
3951,0.1061756387
3952,-0.03482526541
3953,0.1946658641
3954,-0.1798985749
3955,0.2297859788
3956,-0.1019962057
3957,-0.1422608346
3958,-0.04074808583
3959,0.2144019157
3960,0.2682486475
3961,-0.2521617115
3962,-0.06235301122
3963,-0.009048189968
3964,0.2274564207
3965,0.1838848442
3966,-0.006680311169
3967,-0.2695831358
3968,-0.1395546794
3969,0.0267911423
3970,0.01921818033
3971,0.256840378
3972,-0.1483608335
3973,-0.251327306
3974,0.2246170491
3975,-0.2633153796
3976,0.05572608858
3977,0.2727500498
3978,-0.2281208634
3979,0.05537729338
3980,-0.08595287055
3981,0.2347656935
3982,0.2181261033
3983,0.2757495642
3984,-0.2716375291
3985,-0.258928895
3986,0.2426028848
3987,0.02799240127
3988,-0.1205897927
3989,-0.1798778027
3990,-0.3000257313
3991,0.3006666005
3992,0.03734796122
3993,-0.2177222818
3994,0.06647161394
3995,0.3034446239
3996,-0.2734816968
3997,0.2463021129
3998,-0.01603216678
3999,-0.1861681789
4000,0.09654992819
4001,-0.2366887778
4002,0.187080428
4003,0.02585450932
4004,0.101146847
4005,-0.1834512502
4006,0.30308339
4007,-0.1742882282
4008,0.04838892072
4009,0.1125843078
4010,-0.2272088975
4011,-0.1163477153
4012,0.1769262403
4013,-0.08537470549
4014,0.2054802775
4015,-0.29668957
4016,0.1746279597
4017,0.2084668279
4018,-0.1202339903
4019,0.1309690028
4020,-0.1654519439
4021,0.05341076851
4022,-0.2992870212
4023,-0.143433094
4024,0.01534240227
4025,-0.2962418199
4026,0.1870669872
4027,0.008678626269
4028,-0.2775824964
4029,-0.04527727515
4030,0.2884601653
4031,-0.150473386
4032,-0.1227462217
4033,0.3819555938
4034,0.4446289539
4035,-0.1076367795
4036,-0.1984375119
4037,0.1435691118
4038,-0.7486795783
4039,-0.2833548188
4040,0.1429559737
4041,-0.2637080252
4042,-0.1273181587
4043,-0.2507431209
4044,-0.3620151877
4045,0.04572531953
4046,0.02475661039
4047,-0.1356977969
4048,-0.4923449457
4049,0.618088305
4050,-0.193324402
4051,0.1712690145
4052,0.4315726757
4053,-0.02819846384
4054,0.2988824844
4055,0.2910535336
4056,-0.07007115334
4057,-0.2746037543
4058,-0.07760267705
4059,0.5120649934
4060,-0.0522133261
4061,-1.419168949
4062,-0.3683655262
4063,0.009527684189
4064,-0.8453751802
4065,-0.3034110963
4066,-0.426725775
4067,0.1494966596
4068,0.1730608344
4069,-0.05649561435
4070,0.06005280837
4071,-0.003323158482
4072,0.306435585
4073,-0.06731763482
4074,0.2000315189
4075,0.2333992422
4076,-0.4137204289
4077,0.1030553728
4078,0.01845132932
4079,0.05183751136
4080,0.191670388
4081,-0.321585834
4082,-0.3378227949
4083,0.05958380178
4084,-0.003207239788
4085,-0.116433695
4086,-0.2115946561
4087,-0.2168521136
4088,0.2572380602
4089,0.09626334906
4090,-0.08508510143
4091,-0.1664456129
4092,0.5866444707
4093,0.2552092969
4094,-0.1830356717
4095,0.4692960382
4096,-0.3373298943
4097,-0.09114486724
4098,-0.1803960204
4099,0.1159324721
4100,-0.5923293233
4101,-0.1588840336
4102,-0.3106216788
4103,-0.2480690181
4104,-0.3659504652
4105,0.1653381139
4106,-0.4163022637
4107,0.1682287753
4108,0.1593536437
4109,-0.1283851415
4110,0.02711309679
4111,-0.1219004989
4112,-0.3587542176
4113,0.02734384499
4114,-0.3092485964
4115,-0.06261697412
4116,0.1605622023
4117,-0.1131010428
4118,0.183090806
4119,0.02308747917
4120,-0.1875277609
4121,-0.1946558654
4122,0.05135914311
4123,-0.2737991512
4124,0.2511096001
4125,-0.121339336
4126,-0.2746712863
4127,-0.08364654332
4128,-0.08694369346
4129,0.1055516079
4130,-0.2921466827
4131,-0.2215057015
4132,-0.4997798204
4133,0.02638056874
4134,0.08222027868
4135,-0.03435341269
4136,0.09908561409
4137,-0.2220496237
4138,0.05154076219
4139,0.1131227687
4140,-0.08978372812
4141,0.2006194592
4142,-0.01462357491
4143,-0.1061418504
4144,0.1126967892
4145,-0.6441978812
4146,-0.1287947744
4147,-0.06592590362
4148,0.1838117987
4149,-0.03050953336
4150,0.1030768752
4151,0.2456502765
4152,0.3337799013
4153,-0.04677449167
4154,0.295701474
4155,-0.1206085384
4156,-0.1502223164
4157,-0.2415060252
4158,-0.4907656014
4159,0.2558324039
4160,-0.4667687416
4161,-0.2440538853
4162,0.1854624599
4163,-0.3842910826
4164,-0.4583899379
4165,0.2168650478
4166,0.2258527726
4167,-0.07084662467
4168,0.07335528731
4169,-0.07354035228
4170,0.3054894805
4171,-0.5706608891
4172,0.009516213089
4173,-0.1662702858
4174,-0.2774247825
4175,0.1587661654
4176,0.2318090498
4177,0.1306256503
4178,0.3281870186
4179,0.440089643
4180,-0.3076130152
4181,-0.1081103608
4182,-0.1280855685
4183,-0.4897544682
4184,-0.1298137605
4185,-0.1754642278
4186,-0.1913087964
4187,0.05913421884
4188,-0.01281293388
4189,-0.1445870101
4190,-0.04255557433
4191,-0.05622601509
4192,0.5890176296
4193,0.02504115552
4194,-0.04899261519
4195,0.4899854064
4196,0.1699019521
4197,-0.09672866762
4198,0.3406819701
4199,-0.3164927959
4200,0.1702435017
4201,-1.382751226
4202,-0.1721739322
4203,0.2874670029
4204,-0.1428419948
4205,0.1544715613
4206,0.02463709936
4207,-0.005796421319
4208,0.3239402473
4209,-0.5989605784
4210,-1.097104073
4211,-0.1690154523
4212,-0.1270995885
4213,-0.04491302744
4214,0.4131227732
4215,-0.2564103603
4216,0.001479496947
4217,-0.3736326396
4218,-0.1254481077
4219,-0.4462050796
4220,0.5000143051
4221,0.4929072261
4222,0.4242353439
4223,-0.7371143103
4224,0.1766346395
4225,0.1010193452
4226,0.2605569363
4227,0.2818223536
4228,-0.2937345207
4229,0.1129776984
4230,0.2484236211
4231,-0.2935521305
4232,0.04369900748
4233,0.1212088019
4234,-0.09675388038
4235,-0.1221501753
4236,0.2643581629
4237,-0.2364004552
4238,-0.06752723455
4239,-0.1336828619
4240,0.04127703235
4241,0.3665223122
4242,-0.08598642051
4243,0.1865053773
4244,0.210860014
4245,-0.1824868321
4246,-0.1748492122
4247,0.2557338774
4248,-0.06414286792
4249,-0.06960467994
4250,-0.07342769206
4251,-0.005660715047
4252,-0.2246935815
4253,0.2977553308
4254,0.1418793648
4255,0.09500306845
4256,0.1092279404
4257,0.1372025609
4258,0.009065376595
4259,0.2688997984
4260,-0.1224241033
4261,-0.2320084423
4262,0.1539534777
4263,-0.1071387157
4264,0.1902683377
4265,0.2375186682
4266,-0.09851954132
4267,0.1657229811
4268,-0.2472491115
4269,-0.04953911155
4270,-0.1160591617
4271,-0.3344122171
4272,-0.219689101
4273,-0.005965844728
4274,-0.2521244884
4275,0.0566570051
4276,-0.284349978
4277,0.03003432974
4278,-0.008519089781
4279,0.03059815243
4280,-0.004531427752
4281,0.1376885325
4282,0.104100816
4283,0.06618358195
4284,0.3101200759
4285,0.2889302075
4286,0.2700569332
4287,-0.0621778965
4288,0.2147923261
4289,0.217814222
4290,0.1641212851
4291,0.1378368735
4292,-0.1960721612
4293,-0.1882265806
4294,0.3035427332
4295,0.1890010387
4296,-0.4933185279
4297,0.3889122605
4298,-0.1817126572
4299,0.06603813916
4300,-0.5374411345
4301,-0.04028372839
4302,0.2059057355
4303,0.1346946955
4304,0.1943650395
4305,-0.07410753518
4306,-0.01378182322
4307,-0.2571163476
4308,-0.369264245
4309,0.2420366555
4310,0.08684551716
4311,0.252914995
4312,-0.04474424198
4313,-0.06014600024
4314,-0.01842291094
4315,-0.2459669858
4316,0.1990438253
4317,0.1722304225
4318,0.1105654016
4319,0.3422529995
4320,-0.2603855729
4321,0.1298020184
4322,-0.2762045562
4323,-0.4415475726
4324,-0.3520163894
4325,0.07226464152
4326,0.3063533306
4327,0.2168639749
4328,0.1820985526
4329,0.2352850735
4330,-0.2747609913
4331,0.06211905554
4332,0.332529366
4333,0.2328375876
4334,0.3485009968
4335,0.04186141118
4336,0.05341925845
4337,-0.8061259389
4338,-1.32035172
4339,0.06562683731
4340,-0.2553153932
4341,0.1622539759
4342,-0.2266298234
4343,-0.1077958718
4344,-0.01024779864
4345,-0.3520402908
4346,0.1018784046
4347,-0.01685986482
4348,0.3902365863
4349,0.1537841856
4350,-0.1294797212
4351,-0.62704283
4352,-0.2239114195
4353,0.3111847043
4354,0.05920486152
4355,-0.05549814552
4356,-0.409668982
4357,-0.2081699967
4358,0.2133685499
4359,0.1474472582
4360,-0.1610251814
4361,0.2672173083
4362,0.2519229352
4363,0.07579742372
4364,0.5805841684
4365,0.06262037903
4366,0.2599047422
4367,-0.3139050305
4368,-0.1804412454
4369,0.6476132274
4370,-0.07666088641
4371,0.2380304933
4372,-0.05241248757
4373,0.2419454306
4374,0.418838203
4375,-0.1317250282
4376,-0.2167149037
4377,0.2465281636
4378,0.1841235459
4379,0.2268539816
4380,0.3574500382
4381,0.1342168599
4382,0.1922902316
4383,0.3436366022
4384,0.215912044
4385,-0.0126901716
4386,-0.2581031024
4387,-0.1461864859
4388,-0.5002499819
4389,0.0765613988
4390,0.348158896
4391,-0.105916962
4392,-0.0485169366
4393,-0.514390409
4394,-0.1310678124
4395,0.3900344372
4396,0.1295415908
4397,0.1496926099
4398,0.0339250043
4399,0.0731632188
4400,0.1357174665
4401,-0.2882997692
4402,-0.8944222927
4403,-0.130071342
4404,-0.2083542943
4405,-0.08164530993
4406,0.3695315123
4407,-0.3237530589
4408,0.1638536602
4409,-0.5377065539
4410,0.4827306867
4411,-0.07540896535
4412,-0.09644076228
4413,-0.002972549992
4414,0.04234888777
4415,-0.06596843898
4416,-0.5734637976
4417,-0.2894310355
4418,0.287054956
4419,-0.1735121906
4420,0.0226329919
4421,0.02724058554
4422,-0.2772267461
4423,-0.1957029104
4424,-0.2357723862
4425,0.09948684275
4426,-0.0143356584
4427,0.1554978639
4428,-0.2287077308
4429,-0.2612892091
4430,-0.04546227679
4431,-0.217474997
4432,-0.3747353852
4433,0.1984992176
4434,0.03860553354
4435,-0.03271548077
4436,-0.6778764725
4437,-0.1080266684
4438,0.09491787106
4439,0.27073735
4440,-0.6403903961
4441,0.0477806367
4442,-0.3079536855
4443,-0.076331608
4444,0.06115656346
4445,-0.245090574
4446,0.1607105881
4447,0.2932712138
4448,-0.3463453352
4449,0.1230040565
4450,-0.1480350494
4451,-0.2318637818
4452,-0.2638002336
4453,-0.199882254
4454,0.1788503677
4455,0.273684144
4456,-0.3017297983
4457,-0.02036242932
4458,0.02324535325
4459,0.3404061198
4460,-0.1217488423
4461,-0.2901327312
4462,0.1069405302
4463,-0.4128509164
4464,0.1448815316
4465,0.3571464419
4466,-0.4978944659
4467,0.2216429263
4468,-0.03764133155
4469,-0.1848440468
4470,0.1168454662
4471,-0.03902735561
4472,0.2630403936
4473,-0.2026942074
4474,0.2845779359
4475,0.05906535313
4476,0.02836279944
4477,0.2133167386
4478,-0.5040425658
4479,-0.3965090513
4480,-0.2684797943
4481,0.2223812491
4482,-0.4843787253
4483,-0.3167099059
4484,-0.6817631125
4485,-0.2603981495
4486,-0.3034293056
4487,0.1578927785
4488,-0.1315346658
4489,0.3777660131
4490,-1.242111802
4491,-0.03929570317
4492,0.25929901
4493,-0.252435118
4494,0.03429238498
4495,0.05541323125
4496,-0.3679185808
4497,0.3040261269
4498,0.3263056278
4499,-0.423119545
4500,0.04912915081
4501,0.1408852488
4502,0.1426180005
4503,-0.07599624991
4504,-0.1230536997
4505,-0.1338102221
4506,-0.1555784047
4507,0.3686374426
4508,0.2002828866
4509,-0.0157456398
4510,0.292103827
4511,0.2501042485
4512,-0.01846992224
4513,-0.1924055666
4514,0.1446138024
4515,0.06453345716
4516,0.115660429
4517,0.1183770522
4518,0.1197755262
4519,0.00865705777
4520,-0.03633869439
4521,-0.3367811441
4522,-0.2754943669
4523,-0.1837248355
4524,0.03973411396
4525,-0.2102663815
4526,0.07327225059
4527,-0.1550638527
4528,-0.1915548891
4529,-0.4516521096
4530,0.4007294774
4531,0.1019496098
4532,-0.06632964313
4533,0.08445562422
4534,-0.08315671235
4535,0.0433854349
4536,-0.3553033173
4537,-0.7779061794
4538,0.07681529224
4539,0.3109374642
4540,-0.03877413273
4541,0.06598466635
4542,0.2359371781
4543,0.001742085093
4544,-0.5308513045
4545,-0.0009881935548
4546,-0.1473074853
4547,-0.05628868192
4548,0.3454236388
4549,-0.01828553714
4550,0.03777270019
4551,-0.2411067933
4552,0.2131346911
4553,-0.1539058387
4554,0.01103479229
4555,0.3061895967
4556,0.08036302775
4557,-0.02458152734
4558,-0.1449248642
4559,0.348197341
4560,0.05509833619
4561,0.2705361843
4562,-0.1875804961
4563,0.1624011546
4564,-0.06694029272
4565,-0.2682900429
4566,-0.1340380758
4567,-0.1612961441
4568,-0.1459057331
4569,-0.2230146527
4570,0.2633351386
4571,0.05032584071
4572,0.2972772419
4573,0.1458906084
4574,0.1670034677
4575,-0.09936013073
4576,-0.2892969251
4577,0.195993185
4578,0.0575768277
4579,-0.7078330517
4580,-0.02750361338
4581,0.1263963282
4582,0.4204418063
4583,0.1241839081
4584,0.1849140525
4585,0.2929719687
4586,-0.2409680486
4587,-0.1243906543
4588,0.09815491736
4589,-0.02348460443
4590,0.1874209493
4591,0.229883045
4592,-0.5530833602
4593,0.2798556983
4594,-0.3249290884
4595,-0.01064856723
4596,-0.1831295192
4597,-0.08836006373
4598,0.01357729267
4599,-0.2783149481
4600,-0.1875511855
4601,-0.3852055073
4602,-0.2233102918
4603,-0.01137942262
4604,0.3057021797
4605,-0.2767843604
4606,-0.2690604627
4607,-0.291230619
4608,-0.06831233948
4609,-0.105286479
4610,-0.07709629834
4611,-0.2908652723
4612,0.000507985882
4613,-0.102888748
4614,0.3322326541
4615,-0.1786016524
4616,0.5276607275
4617,-0.5661275387
4618,0.07393812388
4619,-0.1936038733
4620,0.7599490285
4621,-0.284655273
4622,0.4677641988
4623,-0.398753494
4624,-0.2306538969
4625,0.8975769281
4626,0.1496809423
4627,-1.05182755
4628,0.4021441936
4629,0.1640099287
4630,1.232203841
4631,-0.8856853843
4632,0.5190293789
4633,-0.485267669
4634,-0.2747164071
4635,0.683986187
4636,0.05436962843
4637,0.4839119613
4638,0.2419887185
4639,-0.08543647081
4640,-1.388114929
4641,-0.03769384325
4642,0.5969420671
4643,0.2497451901
4644,0.5088139772
4645,-0.138824895
4646,0.9994089007
4647,-0.04932240769
4648,-0.03867103904
4649,0.8916254044
4650,-0.3731246591
4651,-0.2326355129
4652,-0.04013474286
4653,-0.2635693848
4654,-1.039088726
4655,0.3213543892
4656,0.124093309
4657,-0.02213484049
4658,0.01636449993
4659,-0.4977427125
4660,0.1274421364
4661,0.04264407232
4662,1.013100624
4663,-0.4219743907
4664,0.3719814122
4665,0.7935586572
4666,-0.8225544095
4667,0.814783752
4668,0.3824738264
4669,0.1385131627
4670,-0.1907594651
4671,0.6183234453
4672,0.5757232308
4673,-0.06867662817
4674,0.2468760759
4675,0.2667170465
4676,-0.2255117148
4677,-0.2026961744
4678,-0.4250137806
4679,-0.08795333654
4680,-0.3681130111
4681,-0.1043926254
4682,0.21943748
4683,-0.03881088644
4684,-0.4576770365
4685,-0.1909487545
4686,-0.4254446924
4687,0.0969864428
4688,1.013711452
4689,-0.3748747408
4690,0.3841054738
4691,0.418435663
4692,-0.3802049458
4693,-0.004288504831
4694,0.377653569
4695,-0.1222966313
4696,0.4512810111
4697,0.231353268
4698,0.1940098703
4699,0.05086341873
4700,-0.08986612409
4701,-0.8963410854
4702,-0.2651475072
4703,-0.2203750461
4704,-0.5896078944
4705,0.8464657664
4706,0.05772392079
4707,-0.3371536434
4708,0.08919329941
4709,-0.003072918858
4710,-0.3933822513
4711,-0.5821124911
4712,-0.01959958673
4713,0.3264566064
4714,-0.1835457236
4715,-0.07124660909
4716,0.4788146913
4717,-0.1611467898
4718,-0.3305717707
4719,0.3041635454
4720,-0.2693537176
4721,0.0300909467
4722,-0.2914969027
4723,0.5268309712
4724,-0.06818172336
4725,0.1794034839
4726,0.5449524522
4727,0.2916857898
4728,0.02604656853
4729,-0.3445114791
4730,-0.1455976516
4731,0.7436371446
4732,-0.4741046429
4733,0.4244513512
4734,-0.2221141756
4735,-0.01657894067
4736,0.04212651029
4737,0.1823464036
4738,0.05088852346
4739,0.1691364795
4740,-0.1737577617
4741,-0.1210261807
4742,-0.0619174093
4743,0.2541842461
4744,-0.3005728126
4745,-0.1135316491
4746,-0.3535479307
4747,-0.3017751575
4748,-0.2431127578
4749,-0.07597731799
4750,-0.06774937361
4751,-0.2382029891
4752,0.7286140323
4753,-0.3077817261
4754,0.1363654435
4755,0.5311540961
4756,0.02428801358
4757,-0.1075853631
4758,-0.02833336778
4759,0.151246503
4760,0.2499063462
4761,0.1019384712
4762,0.2366854399
4763,0.2490392327
4764,0.02273287997
4765,-0.292974323
4766,-0.1979546398
4767,-0.3008592725
4768,-0.9278059006
4769,-0.001827064203
4770,0.002644246211
4771,-0.4235291481
4772,0.2653784752
4773,-0.06480163336
4774,-0.3652207851
4775,0.2908947468
4776,0.08193498105
4777,-0.2360001504
4778,0.01137798093
4779,-0.04616959393
4780,-0.6318721771
4781,-0.005128649063
4782,-0.06599530578
4783,0.09877856821
4784,-0.3180322945
4785,-0.5244691968
4786,-0.1274906397
4787,0.3993007541
4788,-0.1035225391
4789,0.009221944027
4790,0.4250933528
4791,-0.06380137056
4792,-0.1337286532
4793,-0.6209851503
4794,-0.5143505931
4795,-0.3103918433
4796,-0.1045208052
4797,0.03191749007
4798,0.01647656038
4799,-0.4862600565
4800,0.50881356
4801,-0.446103096
4802,0.1951408684
4803,-0.2907986343
4804,0.3564623594
4805,-0.1461089551
4806,-0.2851688564
4807,-0.1669503599
4808,-0.2810885012
4809,-0.07581502199
4810,0.6270557642
4811,0.1469677985
4812,-0.2971318662
4813,0.1477170736
4814,0.2406748682
4815,0.1605459303
4816,-0.3053402901
4817,0.2028631121
4818,0.389162153
4819,-0.3742840886
4820,0.1779520214
4821,-0.2782945335
4822,-0.2014810443
4823,0.01384953689
4824,-0.3343992531
4825,-0.2265975177
4826,-0.2028353661
4827,-0.2858936489
4828,-0.2870906591
4829,-1.002768636
4830,0.2813219428
4831,-0.358932972
4832,0.02701063827
4833,-0.04550120234
4834,-0.2663429379
4835,0.2731361091
4836,0.3928694129
4837,-0.307115674
4838,-0.1183883697
4839,0.06183132157
4840,0.01294984948
4841,0.02899064682
4842,-0.247113809
4843,0.04333321005
4844,-0.2248944342
4845,0.009984970093
4846,0.003241138998
4847,-0.07507005334
4848,0.1844989955
4849,-0.1298124045
4850,-0.02188449353
4851,-0.1165258959
4852,0.1244680882
4853,-0.1167157888
4854,-0.2371756732
4855,0.205710426
4856,-0.1084637791
4857,0.1865736246
4858,-0.2335542738
4859,-0.1183977053
4860,0.4206984341
4861,0.02154563926
4862,-0.3012056351
4863,0.1767842174
4864,0.1000460386
4865,-0.0228801202
4866,-0.1665604711
4867,-0.007609268185
4868,-0.3373275697
4869,0.03110998869
4870,-0.4913968742
4871,-0.1844226718
4872,0.07481783628
4873,0.1945947707
4874,-0.2714955211
4875,0.2378721684
4876,-0.1891212314
4877,0.02253079601
4878,0.006029077806
4879,0.2494249344
4880,-0.2317207903
4881,0.1629469693
4882,-0.1398862451
4883,-0.246251151
4884,-0.2884360254
4885,-0.08519612998
4886,0.05617783219
4887,-0.2631562948
4888,-0.5916970968
4889,0.06274499744
4890,-0.3184766471
4891,-0.1298970878
4892,0.06833495945
4893,-0.684702754
4894,0.007417622954
4895,-0.3497506678
4896,-0.6852561831
4897,-0.5221239924
4898,-0.3806159198
4899,0.2113294154
4900,-0.1795626283
4901,-0.077150397
4902,-0.2621864676
4903,0.06760330498
4904,-0.2342179865
4905,0.2885256708
4906,0.1099550202
4907,0.310354501
4908,-0.216131404
4909,-0.1515863836
4910,-0.1300139576
4911,-0.01534226537
4912,-0.1543126702
4913,-0.5304362774
4914,-0.5265257359
4915,0.1727141887
4916,0.1170670837
4917,0.1358760893
4918,-0.2722040713
4919,-0.06037262455
4920,0.2606764436
4921,0.4231021106
4922,0.2623082101
4923,-0.1162262559
4924,0.1468230486
4925,-0.03923114762
4926,-0.09279917926
4927,0.4655117691
4928,-0.007145312149
4929,-0.3242972493
4930,-0.153673023
4931,-0.1209809333
4932,0.06158109754
4933,-0.2165822685
4934,0.33104375
4935,-0.2078299671
4936,0.3912395537
4937,0.04509304464
4938,-0.1474366039
4939,0.03956837207
4940,0.01481000334
4941,0.2576368749
4942,-0.09013183415
4943,0.1289181858
4944,-0.1720407456
4945,-0.02524179406
4946,0.07187198102
4947,0.1006413847
4948,-0.03395475447
4949,0.02814606763
4950,0.2636380196
4951,-0.2334600091
4952,-0.1255713701
4953,-0.03600410745
4954,0.1988345981
4955,-0.2423813343
4956,-0.4143785536
4957,0.1199508086
4958,-0.3594893217
4959,0.2517322898
4960,-0.1923733056
4961,-0.1789878905
4962,0.4625567794
4963,0.08385767043
4964,-0.0864411667
4965,0.01580416597
4966,0.1767060161
4967,0.1688555926
4968,0.001655050553
4969,0.08396244794
4970,0.216318354
4971,-0.1071638912
4972,0.2193363756
4973,0.2461125553
4974,-0.649930954
4975,0.2616026402
4976,0.2225769907
4977,0.09654520452
4978,-0.1486465037
4979,-0.1187173799
4980,-0.06875076145
4981,0.07679851353
4982,-0.02125830948
4983,-0.2897579372
4984,0.1086843759
4985,0.2892227471
4986,-0.4570812583
4987,-0.04988631234
4988,-0.3102366924
4989,0.1196831465
4990,-0.02581449412
4991,0.1667304635
4992,-0.8965612054
4993,-0.3820384741
4994,0.4370046258
4995,-0.1250706017
4996,0.1365112215
4997,0.2027426958
4998,-0.07008383423
4999,-0.03843940794
5000,-0.6163112521
5001,0.1508059502
5002,-0.3865190744
5003,0.05905713513
5004,0.2625997663
5005,0.06073972955
5006,-0.01668689586
5007,-0.4797502458
5008,0.04622928053
5009,0.09652193636
5010,-0.2796805203
5011,0.009661188349
5012,-0.2577365637
5013,-0.008862587623
5014,-0.1129535735
5015,-0.252089262
5016,-0.3571479023
5017,0.08858057112
5018,-0.03490291163
5019,0.2289227843
5020,0.07278301567
5021,-0.7252502441
5022,0.2108113617
5023,-0.06305557489
5024,-0.6074766517
5025,0.01468632556
5026,0.04339182749
5027,-1.125646591
5028,-0.6459412575
5029,0.2569881678
5030,0.05591857061
5031,0.2086566985
5032,0.05108021572
5033,0.3867326975
5034,-0.4113946855
5035,0.1714716703
5036,-0.7861945629
5037,-0.2106740028
5038,-0.5657379627
5039,-0.02092242427
5040,-0.7407292128
5041,0.2461391985
5042,-0.6351748109
5043,-0.04212469608
5044,0.07271388918
5045,-0.1751982123
5046,0.6832584143
5047,0.444034487
5048,0.04872738197
5049,0.01446816977
5050,-0.2534177005
5051,-0.1793969274
5052,-0.5870848894
5053,0.1525458694
5054,-0.819568038
5055,-0.07744063437
5056,0.1607773602
5057,0.03189782053
5058,0.03509729356
5059,0.1751323491
5060,-0.02974259481
5061,0.2761977315
5062,0.2379587591
5063,-0.2314277142
5064,-0.5301943421
5065,0.0597476922
5066,0.01909706183
5067,0.05232533813
5068,0.2724843025
5069,0.2044743299
5070,-0.1566606313
5071,-0.1231361926
5072,0.03446859866
5073,-0.2141871005
5074,0.1959420294
5075,-0.06839755177
5076,0.3209002018
5077,0.03453769907
5078,-0.358171314
5079,-0.4772560894
5080,0.4076630771
5081,-0.03072595038
5082,-0.1906002462
5083,-0.123668924
5084,0.1399196088
5085,-0.4577964246
5086,0.1255909055
5087,0.01691367663
5088,-0.9123899937
5089,-0.3943445385
5090,0.0734975934
5091,-0.4142222703
5092,-0.1028398797
5093,-0.1065421477
5094,-0.1622129977
5095,0.09140306711
5096,-0.1670528501
5097,0.03821073845
5098,0.2956323624
5099,0.1142887175
5100,0.3626271784
5101,-0.01114147995
5102,-0.1818901151
5103,0.3146637678
5104,0.4877967536
5105,-0.2441450506
5106,0.3872785568
5107,0.1342931837
5108,-0.1924827248
5109,0.2287623286
5110,0.2551541924
5111,0.1128586754
5112,-0.1990552396
5113,-0.6916492581
5114,-0.01429030392
5115,0.1950351298
5116,-0.03484687209
5117,0.1996091157
5118,-0.0935921222
5119,-0.4751362503
5120,0.1556115746
5121,-0.1461978555
5122,0.2507389188
5123,-0.264773488
5124,-0.1340350956
5125,-0.04220163077
5126,-0.01023701765
5127,0.2086820602
5128,-0.6982207298
5129,-0.292763263
5130,-0.2680570185
5131,0.03134796023
5132,0.2003336251
5133,0.09313044697
5134,-0.002537938068
5135,-0.2073978335
5136,-0.3675751686
5137,0.1133844852
5138,0.3156335354
5139,0.1393540651
5140,0.230171293
5141,-0.1132655293
5142,0.1045555472
5143,-0.007403338328
5144,-0.4482277036
5145,0.06186079234
5146,-0.1205123365
5147,0.1255420893
5148,-0.1216955036
5149,-0.456086427
5150,-0.2107869685
5151,0.2084618807
5152,-0.3422347307
5153,-0.2114186883
5154,0.03156163543
5155,-0.1449851096
5156,-0.258153528
5157,-0.2102571428
5158,0.187905997
5159,-0.1011260524
5160,-0.5100374222
5161,0.03312344849
5162,-0.3164427578
5163,0.04503509402
5164,0.00584743917
5165,-0.1495763808
5166,0.1082042977
5167,-0.371206373
5168,-0.3775379956
5169,-0.3605520427
5170,-0.4250344634
5171,0.2756780386
5172,0.0052717668
5173,0.01874621399
5174,-0.02444743365
5175,0.07149084657
5176,-0.2255690992
5177,-0.4699237943
5178,-0.3906547427
5179,-0.1324506253
5180,-0.3351059556
5181,-0.18357867
5182,-0.1468216032
5183,-0.3414961696
5184,0.3302829266
5185,0.00403179368
5186,0.05442338809
5187,0.1440354437
5188,0.3612369299
5189,0.08611875027
5190,-0.246554032
5191,0.25403139
5192,0.09625406563
5193,-0.06326539814
5194,-0.5996177793
5195,-0.09473157674
5196,-0.1642005295
5197,-0.03232009709
5198,0.2245573252
5199,-0.0307371188
5200,0.1895849407
5201,0.1703224331
5202,0.1211215556
5203,0.185309127
5204,-0.05661588535
5205,-0.03153643012
5206,-0.2891667485
5207,0.01969352737
5208,-0.1203160807
5209,0.1119883806
5210,0.1209210157
5211,-0.1535550207
5212,0.3180130422
5213,-0.4757148027
5214,-0.3596372604
5215,0.05726460367
5216,-0.007696928456
5217,-0.3425574601
5218,-0.3213183582
5219,0.2554082572
5220,-0.1378342062
5221,0.07121525705
5222,-0.2585154474
5223,-0.3310727775
5224,-0.2923223376
5225,-0.3778418005
5226,0.2735570371
5227,-0.102057673
5228,0.322794199
5229,-0.2462283075
5230,-0.001903395168
5231,-0.2047526687
5232,0.3732744157
5233,0.1206372306
5234,-0.134467423
5235,0.2957681715
5236,-0.2133709341
5237,0.04629348963
5238,0.1527377069
5239,0.1047766507
5240,0.1050440967
5241,0.2658308148
5242,0.117038317
5243,-0.1835650355
5244,0.2770313323
5245,0.07381562889
5246,0.1713382006
5247,0.09556880593
5248,0.2165248841
5249,-0.6393949389
5250,-0.3316425681
5251,-0.3683772981
5252,0.1524825096
5253,-0.2374492437
5254,-0.3761028945
5255,0.2526881099
5256,-0.3338966966
5257,-0.2399154454
5258,-0.06889653206
5259,-0.07231490314
5260,-0.6261808276
5261,-0.2223800272
5262,-0.22656627
5263,0.1896559447
5264,0.07836911082
5265,-0.2673649192
5266,-0.2445430607
5267,-0.22831361
5268,0.2389040291
5269,0.2742530704
5270,0.05064022169
5271,-0.7232609987
5272,0.2315409034
5273,0.0391520597
5274,0.2124884874
5275,0.02445622906
5276,0.5531082153
5277,0.3183164895
5278,0.09425029159
5279,-0.01920335367
5280,-0.3781369627
5281,0.5087193251
5282,-0.9942763448
5283,0.4242526591
5284,0.09670640528
5285,0.01020192727
5286,0.4857114255
5287,0.514008522
5288,-0.04396202043
5289,-1.072701573
5290,0.3230286837
5291,-0.1475414038
5292,-0.5074435472
5293,0.01604950242
5294,-0.5885512233
5295,0.1251236349
5296,0.6198510528
5297,0.240806669
5298,0.5478513837
5299,0.502705574
5300,-0.1758953035
5301,-0.02558616735
5302,0.3449339569
5303,0.1281845421
5304,0.3078213334
5305,-0.5083559155
5306,-0.151805222
5307,0.1621524692
5308,-0.102399826
5309,0.06191003323
5310,0.1705337763
5311,-0.09314803779
5312,-0.1643719226
5313,0.02807679959
5314,0.2691715658
5315,0.1882868707
5316,-0.2384968549
5317,-0.2498829067
5318,-0.09138201177
5319,-0.2080867141
5320,-0.02203716151
5321,-0.02456546947
5322,-0.3901670873
5323,0.2749034762
5324,0.09171852469
5325,0.1555912048
5326,0.1115542948
5327,-0.02310860716
5328,0.2812856436
5329,0.08372285962
5330,-0.07180883735
5331,0.3096881807
5332,0.1898655593
5333,0.2835219502
5334,0.2703000307
5335,0.1531201303
5336,-0.1015904322
5337,0.08553695679
5338,0.09728135169
5339,-0.1157655492
5340,0.1689629108
5341,-0.4482906461
5342,-0.169642061
5343,-0.1904435605
5344,-0.01184439845
5345,0.1222094297
5346,-0.2289385349
5347,0.1773995161
5348,0.1741558164
5349,0.1520247161
5350,-0.2783088386
5351,-0.2312186658
5352,0.1029337123
5353,-0.3826646805
5354,0.23689574
5355,0.3219852746
5356,0.3205054104
5357,-0.1209004968
5358,-0.03533918038
5359,0.1195083261
5360,-0.1408942789
5361,0.09826343507
5362,-0.03189816698
5363,0.1970377862
5364,-0.2681558132
5365,0.2474390417
5366,0.144855231
5367,0.2281124741
5368,-0.259582907
5369,-1.169153214
5370,-0.06480506063
5371,-0.2512389719
5372,0.1356361061
5373,0.141387254
5374,0.1402657926
5375,-0.1159427091
5376,-0.7502483726
5377,-0.6838007569
5378,0.07058705389
5379,-0.424772501
5380,-0.09961049259
5381,0.1973133087
5382,-0.1544429213
5383,-0.1037697122
5384,-0.09498396516
5385,0.09382207692
5386,-0.5661419034
5387,0.4746418893
5388,-0.5118448138
5389,-0.1053964943
5390,0.09605357796
5391,0.3874823749
5392,0.1279298961
5393,-0.1180811152
5394,0.268039465
5395,-0.2727692723
5396,-0.3009958863
5397,-0.123783052
5398,-0.4920163751
5399,0.1257109642
5400,0.1773980558
5401,-0.1088772342
5402,-0.128524974
5403,0.02310299315
5404,0.3096325397
5405,-0.2029336691
5406,0.4539059103
5407,-0.1709068269
5408,-0.7828639746
5409,-0.04884343222
5410,0.07840875536
5411,0.3731943369
5412,-0.5413101912
5413,-0.2049156874
5414,0.109818697
5415,0.06005339697
5416,-0.08449603617
5417,-0.3233717382
5418,-0.05376571789
5419,0.1581668407
5420,-0.04334678501
5421,-0.1163143292
