idx,weight
0,0.2982689142
1,0.156150192
2,-0.3641202152
3,-0.1998325139
4,-0.5375852585
5,-0.1497014165
6,-0.3177570701
7,0.389773041
8,0.01273271535
9,-0.03710789606
10,-0.1335498542
11,0.01410060842
12,-0.2634035349
13,-0.1408548057
14,-0.4105811417
15,0.07833763957
16,0.3775040507
17,-0.5747460723
18,-0.08862254769
19,0.1765317172
20,0.486343503
21,-0.2204670161
22,-0.06468106806
23,-0.5150318146
24,-0.04277924448
25,-0.03204971552
26,0.06719231606
27,0.2568408549
28,0.3809592128
29,0.3693909943
30,0.2412145138
31,0.2152277976
32,-0.2467820942
33,0.2599124312
34,0.009829046205
35,-0.2364818156
36,-0.1409121007
37,-0.1261476278
38,0.3709709942
39,0.2034645677
40,0.1298256963
41,-0.233194977
42,-0.3452818096
43,0.268845588
44,0.05148696899
45,-0.2652914226
46,-0.281560421
47,0.4202995598
48,-0.1388842762
49,0.00528676575
50,0.1313231885
51,0.2023933381
52,0.1049365327
53,0.5693951249
54,0.08846661448
55,-0.04106476903
56,-0.7150136828
57,-0.3143239617
58,0.07293121517
59,0.02039502375
60,-0.2873868346
61,-0.1049400568
62,0.07264145464
63,0.3747518361
64,0.2063709646
65,-0.9945437908
66,-0.5404581428
67,0.04172524065
68,-0.5810562372
69,0.2923918962
70,-0.2950738668
71,0.1353237182
72,0.446149826
73,0.2225742936
74,0.242101118
75,0.1532427222
76,-0.5118181109
77,-0.03052503616
78,-0.2789509892
79,0.4297407269
80,0.1602899432
81,0.1188926771
82,0.1416438818
83,0.2429935783
84,-0.2981278598
85,-0.1056677848
86,-0.3483496606
87,-0.6896766424
88,-0.2173164487
89,-0.1404896975
90,0.4746975005
91,0.2277082503
92,0.03716152534
93,0.2491900772
94,-0.2003020197
95,0.2993908226
96,0.157119453
97,-0.2597253919
98,0.1749554127
99,-0.5049533844
100,-0.009177228436
101,-0.3726872504
102,0.3773963749
103,-0.8478994966
104,-0.2278510183
105,-0.5680555105
106,-0.7043194771
107,-0.04468771815
108,-0.7962470651
109,-0.3338962197
110,0.3067502975
111,0.01750023477
112,0.2578146756
113,0.4088500142
114,-0.3391017318
115,0.5960562229
116,-0.7222985625
117,0.2056984007
118,0.05564763397
119,0.4982274175
120,-0.6456494927
121,0.6752848029
122,0.2494608462
123,-0.2295309007
124,-0.1715613753
125,0.3658650219
126,0.3181876242
127,-0.7827764153
128,0.1927942932
129,-0.1977125406
130,-0.4946053922
131,0.5578794479
132,-0.07653346658
133,-0.3391583562
134,0.2277939171
135,-0.1358515173
136,-0.2346717864
137,0.1792011857
138,0.2514890432
139,0.3464443982
140,0.20894894
141,0.345467478
142,-0.3716666102
143,0.2487070709
144,0.2177960873
145,-0.06600619853
146,-0.2414394915
147,0.3184811175
148,0.3910150826
149,-0.3442734778
150,-0.2241352946
151,-0.06678594649
152,-0.1028473824
153,0.2962622941
154,-0.1302265674
155,-0.2529743016
156,-0.1440973431
157,0.3369765282
158,0.232384041
159,-0.1454767436
160,-0.1998644769
161,-0.3414359689
162,0.2396429181
163,-0.09952418506
164,-0.4037463069
165,-0.1427654475
166,-0.3116793931
167,0.2928207219
168,0.2706041634
169,-0.2340289354
170,0.02391988225
171,0.4457205236
172,-0.2362953275
173,0.1697207391
174,-0.1957465708
175,0.05594317988
176,-0.3560974598
177,0.1646376997
178,-0.2350991368
179,0.05177843198
180,-0.4324278235
181,0.01369998511
182,-0.3500380814
183,0.1525515616
184,0.07451418787
185,-0.2738063931
186,0.08073097467
187,0.1094879583
188,0.02858212031
189,0.03464906663
190,-0.04452874884
191,-0.2281876653
192,-0.09687434882
193,0.2897258699
194,0.3250484765
195,-0.2212000936
196,0.2125332952
197,-0.308480233
198,0.2835371494
199,0.3633362353
200,0.144618392
201,0.5617708564
202,-0.06019614637
203,-0.2819783986
204,0.1691037267
205,0.1629612148
206,-0.3992586434
207,-1.013623953
208,-0.05368789285
209,0.4478392005
210,-0.1100721806
211,-0.1999073327
212,-0.02819649316
213,0.1125732958
214,-0.1252761185
215,-0.1733790785
216,-0.004086022731
217,0.05895943567
218,0.3308759332
219,0.2291186005
220,-0.1989638805
221,-0.05581429228
222,-0.07855299115
223,0.4983391464
224,-0.4148757756
225,0.06900288165
226,-0.644964397
227,0.3723098636
228,0.3500054479
229,0.1812866628
230,0.1168346778
231,0.07045077533
232,-0.2221777439
233,0.03897612169
234,0.5589980483
235,-0.508028388
236,-0.1429043114
237,-0.0775725916
238,-0.2634297311
239,-0.08051730692
240,-0.1415295154
241,-0.1043071225
242,0.06579944491
243,-0.3016544878
244,0.3113602996
245,0.139845103
246,0.1650050282
247,-0.3608264029
248,0.1541185081
249,0.01370162237
250,0.245243296
251,-0.1451308131
252,0.3711233735
253,-0.08325138688
254,-0.2497620732
255,-0.1858136356
256,0.1579604894
257,0.1440128684
258,0.1401825696
259,0.04712759331
260,0.3649349213
261,-0.2829245925
262,0.1028491557
263,-0.1031665802
264,-0.6855999827
265,-0.304191649
266,0.03552911431
267,-0.4639552832
268,-0.3310942948
269,-0.1293585151
270,-0.05285868049
271,-0.2954899967
272,-0.05763827637
273,-0.3672043383
274,-0.2490435541
275,-0.3705167174
276,0.4039038718
277,-0.3488974571
278,-0.3640939891
279,-0.1627863199
280,-0.1694155037
281,0.0681097433
282,0.2677972019
283,0.3516589403
284,-0.3066702485
285,0.1971789002
286,0.7118463516
287,-0.06390517205
288,0.3541978598
289,-0.01140944567
290,-0.5177019835
291,-0.1699873507
292,0.07137440145
293,-0.02661808021
294,-0.5070539117
295,0.1654424518
296,0.2241554558
297,-0.08559630811
298,0.425470233
299,-0.6027834415
300,0.5104614496
301,0.194662109
302,0.2737825215
303,0.1524816155
304,0.1798706949
305,-0.4469328225
306,-0.9153371453
307,0.07148735225
308,0.493471384
309,-0.3312802315
310,0.2966977954
311,-0.07106045634
312,-0.2415542901
313,-0.2771018147
314,0.2484092563
315,0.0785760209
316,0.08020802587
317,-0.3639885783
318,-0.4105020463
319,-0.4225650728
320,-0.3960852921
321,0.448584646
322,0.07017533481
323,-0.0882140398
324,0.1014545858
325,0.06815570593
326,0.1345591396
327,-0.1175351813
328,0.05379873887
329,-0.3814502656
330,-0.187522456
331,0.51730299
332,0.5237182379
333,-0.02360173129
334,0.01871720143
335,-0.2046046257
336,-0.3389828205
337,-0.2202279866
338,-0.03805229813
339,0.3824810088
340,0.2651942968
341,-0.2690321505
342,-0.0463398546
343,0.335994482
344,0.3162365854
345,0.0494007878
346,-0.3810144663
347,-0.1881596446
348,0.2582132816
349,0.03456518427
350,0.2294550836
351,0.2440991849
352,0.124862209
353,-0.4498326182
354,-0.05019805953
355,-0.006749331951
356,-0.0372854583
357,-0.077625826
358,-0.6372308731
359,-0.3341082633
360,0.04476168007
361,0.04208416492
362,0.2882276177
363,-0.3671288192
364,0.3486042619
365,0.00565502001
366,0.1546990573
367,-0.543664217
368,-0.2064341456
369,-0.402102083
370,-0.08118596673
371,0.01602337509
372,-0.3963873386
373,-0.3177381158
374,-0.1444404721
375,0.5346859694
376,-0.4228692055
377,-0.1745575666
378,0.09620957077
379,-0.5322676301
380,-0.3214118183
381,-0.3004740477
382,-0.3415718675
383,0.377222091
384,0.3823482394
385,-0.3139287233
386,-0.1076009721
387,0.2551465333
388,0.3713073134
389,0.01729180291
390,0.244081229
391,0.06560537964
392,0.0003305164573
393,-0.1237781793
394,0.2091798335
395,0.5181863308
396,-0.03705213219
397,0.06653974205
398,0.01243492216
399,-0.4394131303
400,-0.4803791344
401,0.209810853
402,0.01409046818
403,-0.1051056162
404,0.1574209183
405,0.373213172
406,-0.1087239981
407,-0.4003788829
408,-0.08837968111
409,-0.2451379448
410,-0.2816702724
411,0.3793886602
412,-0.0009971261024
413,-0.2103475034
414,0.20600079
415,0.05103922635
416,0.1740970165
417,-0.4089576006
418,-0.2367790341
419,0.1523561925
420,-0.1034030691
421,-0.1864470243
422,-0.04246785864
423,0.4060159326
424,0.3320669532
425,-0.1835977882
426,0.228056103
427,0.02386744879
428,0.03566520289
429,0.1391327232
430,0.4934926033
431,0.3447099328
432,0.07899831235
433,-0.3470464349
434,-0.3474504948
435,0.2644863725
436,0.1530318558
437,-0.1541175544
438,-0.2055749595
439,0.1760749221
440,0.1107486337
441,0.01621217467
442,-0.3396755755
443,-0.0651807189
444,0.07748956978
445,0.07335858047
446,-0.04400342703
447,0.2167058289
448,-0.4804380834
449,-0.2177853882
450,-0.08820639551
451,-0.3758980632
452,-0.1165565923
453,0.1371392608
454,-0.4719699919
455,-0.3951820731
456,0.3365498483
457,0.2060213089
458,-0.334531188
459,0.2122745663
460,-0.1640296876
461,-0.6897995472
462,0.3247751594
463,0.007929522544
464,0.518563509
465,0.1306385249
466,-0.3052448928
467,-0.264062196
468,0.1142885983
469,0.1143147945
470,0.2316803932
471,-0.1429364532
472,0.2903707325
473,0.05909160525
474,0.2307732552
475,-0.09159179032
476,-0.3069109023
477,0.07067995518
478,0.2524591684
479,0.02279406413
480,-0.3716441095
481,-0.4708092213
482,-0.7440628409
483,0.4717050493
484,0.4553771913
485,-0.4374060631
486,-0.2570576966
487,0.2235210687
488,-0.1758224219
489,-0.3213918507
490,0.0279582832
491,0.06478390843
492,0.1926550269
493,-0.04516223818
494,0.03611189872
495,0.2366203964
496,-0.05148417875
497,-0.1401962787
498,0.2067440152
499,0.03312368318
500,0.9584203959
501,-0.1723730415
502,-0.4050623178
503,0.009864621796
504,0.476747483
505,0.4327537715
506,-0.1445071846
507,-0.3216685951
508,-0.3127584159
509,-0.3151195645
510,0.2443108112
511,0.4018167853
512,0.3148722649
513,-0.4660864174
514,-0.5269854069
515,0.08124543726
516,-0.06618873775
517,-0.2746182084
518,0.2907888889
519,-0.1223711073
520,0.2874613106
521,-0.05572966859
522,-0.1961876005
523,0.3374722302
524,0.1739156842
525,-0.1738197207
526,0.367752254
527,0.3644751012
528,0.2767388225
529,-0.2969441712
530,-0.2963576317
531,0.3311303556
532,0.1128271669
533,-0.06662700325
534,-0.3831607699
535,0.1449287683
536,0.4146974683
537,-0.4264272153
538,0.0720089823
539,-0.1148707569
540,-0.3932629824
541,-0.2033276856
542,-0.3266028762
543,0.2560234368
544,0.09042552859
545,-0.27325809
546,-0.09454696625
547,0.1734247506
548,0.1062129512
549,0.06673778594
550,0.2670329511
551,0.3180059493
552,0.3268936872
553,0.2852011323
554,0.09010373801
555,0.3754079938
556,-0.2914308906
557,0.3486127257
558,0.1828115284
559,-0.2485528886
560,-0.3080508113
561,0.1204385385
562,0.2544871271
563,-0.02197997831
564,-0.2321655899
565,-0.1784587502
566,0.06634771824
567,-0.169208616
568,-0.3232421875
569,-0.2271556407
570,-0.08225336671
571,-0.5306454301
572,0.2724036276
573,0.3005708456
574,-0.315839678
575,-0.190171808
576,0.5315090418
577,-0.1734173447
578,0.4323572516
579,0.4285286367
580,0.04434977099
581,-0.04754821584
582,-0.1291735023
583,-0.1498389989
584,0.58800596
585,0.166395098
586,-0.03538360819
587,-0.6173999906
588,-0.09442806989
589,0.003443444846
590,0.1590251327
591,-0.1586738974
592,0.3525857925
593,0.8433992863
594,0.07906172425
595,0.3102903664
596,-0.2820395529
597,-0.2516773939
598,0.2629929781
599,0.1146020666
600,-0.5627400875
601,-0.4844910204
602,0.4667729735
603,-0.3977348506
604,-0.8310804963
605,-0.3118343055
606,-0.6897057295
607,-0.05556276068
608,-0.1321236938
609,0.3987689316
610,0.2626874745
611,-0.01501077879
612,0.2585983276
613,0.2513906956
614,0.350543946
615,0.1014209837
616,0.1016673595
617,-0.2329372168
618,0.02463654988
619,0.2650786936
620,0.1682269126
621,-0.06576112658
622,-0.2472215295
623,0.04520830512
624,-0.2137510329
625,0.3588099778
626,0.05935855955
627,0.0737355575
628,0.3997203112
629,-0.4487873912
630,0.4382613897
631,0.2638879716
632,-0.4958286285
633,0.2534005344
634,-0.272269845
635,0.4403659105
636,0.1134907231
637,-0.2067340314
638,0.04979235306
639,-0.2430910766
640,0.478974998
641,0.4129271805
642,-0.2013904154
643,0.1467642188
644,-0.05535735935
645,0.2465178818
646,0.2718162239
647,-0.1499604285
648,0.3973690569
649,0.5120171309
650,-0.3090403676
651,-0.4040799141
652,0.09130952507
653,-0.01390479039
654,-0.2230111957
655,-0.03977420926
656,-0.1001380011
657,-0.00237776828
658,-0.2054159343
659,0.4508520067
660,-0.1944026649
661,-0.2149309516
662,-0.1611700803
663,0.7357016802
664,0.07978781313
665,-0.06129841506
666,0.001694465638
667,0.03452223912
668,-0.6234772205
669,0.5900882483
670,-0.514754653
671,0.1232277378
672,-0.4466958344
673,0.6061714888
674,0.3169831634
675,-0.1580575854
676,-0.1125374213
677,0.07741699368
678,0.2288495004
679,-0.06740537286
680,0.2556390464
681,0.02280201763
682,-0.5222331285
683,-0.2759810984
684,0.4267590046
685,0.1531731337
686,0.3145425618
687,0.3809693158
688,-0.05569583923
689,0.3547100127
690,0.08130050451
691,0.2463160604
692,0.108706668
693,-0.1630825847
694,-0.2772314548
695,0.4785328209
696,-0.2877306342
697,0.4123636186
698,-0.4211058617
699,0.1988749951
700,-0.1992564052
701,0.2127465904
702,-0.6169720888
703,-0.2367309034
704,0.1661296487
705,-0.3383851349
706,-0.2894659042
707,0.2217210829
708,-0.1826748997
709,0.1408230215
710,0.2036583126
711,0.0783983767
712,-0.3004711866
713,-0.01418851689
714,0.02953831479
715,-0.2204994559
716,0.3266187012
717,-0.25435552
718,0.08299340308
719,0.006222786848
720,0.3793541789
721,-0.2318716049
722,0.3191705644
723,0.02034445293
724,-0.09386060387
725,0.3351996839
726,-0.1704775691
727,-0.1520667076
728,0.4159402251
729,-1.155570507
730,0.0317084454
731,0.2755762637
732,0.2702555954
733,0.4279453158
734,0.2626672685
735,-0.2858890295
736,0.1339856386
737,-0.5355035663
738,-0.1346721798
739,0.2362395227
740,0.5484349132
741,-0.1253244132
742,0.1120204926
743,0.1677868962
744,0.1520482451
745,-0.08940149099
746,0.2425994724
747,-0.4026562274
748,0.08711536229
749,0.1096560434
750,0.2108442485
751,-0.2547186315
752,-0.4466100037
753,-0.2814645469
754,-0.08587800711
755,-0.05691410601
756,-0.2769000828
757,0.3880107105
758,0.2611508667
759,-0.2802080512
760,0.2237403542
761,0.05565099791
762,-0.08045015484
763,-0.6034637094
764,0.2716096342
765,-0.01565698907
766,-0.3517406285
767,0.3830679953
768,0.5344059467
769,0.16437985
770,-0.4527558088
771,-0.06393418461
772,-0.0690100342
773,0.3735390902
774,-0.4190174043
775,0.02681565471
776,-0.163687855
777,-0.5863221288
778,0.2650687695
779,-0.3053297102
780,-0.5074205995
781,-0.2640045881
782,-0.1993918717
783,-0.1128458008
784,0.2163020819
785,0.1239123419
786,-0.002500516828
787,-0.09858283401
788,-0.267337203
789,-0.1245863959
790,-0.08645048738
791,-0.1250013858
792,0.4288347363
793,-0.5083225965
794,-0.2045511007
795,-0.1037089825
796,-0.2695584893
797,0.2806817889
798,0.2104345113
799,-0.229635939
800,0.0589238219
801,0.1983937621
802,0.2824397385
803,-0.0639340952
804,0.04430225492
805,-0.1844436973
806,-0.678930521
807,-0.03495747969
808,-0.4649562538
809,0.1808755696
810,-0.007304565515
811,0.2947273254
812,0.06091907248
813,-0.02480616793
814,0.1111664176
815,-0.1345376223
816,0.2326675653
817,-0.2154571712
818,-0.2774764001
819,-0.01915830001
820,-0.5932976604
821,0.1503302455
822,0.3564818203
823,0.3264960647
824,-0.6153055429
825,-0.4652087688
826,0.197986424
827,0.2185108215
828,0.1155325919
829,0.3562379479
830,-0.498169601
831,-0.1836854815
832,0.3705127537
833,-0.3355672956
834,-0.1284239143
835,0.1412816048
836,-0.2643262744
837,-0.2240693122
838,-0.03179259226
839,0.1125165448
840,-0.2113123983
841,-0.7291095853
842,0.1514200419
843,-0.9170741439
844,-0.08058524132
845,-0.1301305145
846,0.1776202023
847,0.7295439243
848,0.380479157
849,0.18753618
850,-0.1351567805
851,0.2590718865
852,-0.1024430543
853,0.1566607505
854,0.04612093791
855,0.1552520543
856,0.17674236
857,0.2080793679
858,0.4891325831
859,0.03226106986
860,-0.3817225099
861,-0.26537624
862,0.09382963926
863,0.3428361714
864,0.3186374307
865,-0.308175832
866,0.1196917892
867,0.1444866508
868,-0.4110055268
869,0.2042582035
870,-0.8200016022
871,-0.3680894375
872,-0.2967469394
873,-0.1701830626
874,0.3672851324
875,0.07166168839
876,0.1175726578
877,0.03560264409
878,-0.2004261017
879,-0.2205492705
880,-0.235604912
881,0.3272273839
882,-0.8579000831
883,0.477134794
884,-0.08176872879
885,0.03101790696
886,-0.143948853
887,-0.2066995502
888,0.001506560831
889,-0.2136815637
890,0.3953334391
891,0.1650758088
892,-0.3603443205
893,0.1269329786
894,-0.1429659128
895,0.1893841028
896,0.4877777994
897,-0.4776198864
898,-0.005607683212
899,0.2514081597
900,-0.2121972889
901,-0.2183213532
902,0.3244212568
903,-0.3315714002
904,0.1544114798
905,-0.5544407964
906,0.04177870229
907,0.5727962255
908,0.395739764
909,0.08334690332
910,-0.151059404
911,-0.07089286298
912,-0.2429573834
913,-0.1383823156
914,-0.2466334105
915,0.3301666379
916,0.1116978154
917,0.09437188506
918,0.1722045988
919,0.1480602324
920,0.6781722903
921,-0.9123461843
922,-0.4364894331
923,0.0614999868
924,-0.4493643045
925,-0.1826811433
926,-0.1416246593
927,-0.07165536284
928,-0.3032965362
929,-0.2473457307
930,0.256739974
931,-0.2244801074
932,0.308050096
933,-0.1700748503
934,-0.3243682086
935,-0.2170262039
936,-0.2722389698
937,-0.1600412726
938,0.3165672421
939,0.003450139659
940,0.07489275187
941,0.1042565554
942,0.407995373
943,-0.07174192369
944,-0.4716057777
945,0.294893831
946,0.05601650104
947,0.3492847979
948,-0.1530662775
949,-0.50365448
950,0.4007686973
951,0.2339221835
952,0.06212491915
953,-0.4115431309
954,0.1265546232
955,-0.2328552008
956,0.2072998583
957,0.1444495469
958,0.2340521812
959,-0.02044127136
960,-0.2156766802
961,0.1574341953
962,-0.0397824198
963,0.01466347277
964,0.3448370695
965,-0.2427412868
966,-0.3217997849
967,-0.0432318151
968,0.01408256404
969,-1.263700366
970,-0.3234650493
971,-0.1005967483
972,-0.0624438934
973,-0.1038078815
974,-0.3078921437
975,0.2829521596
976,0.3052057326
977,-0.3307174444
978,-0.007204598282
979,-0.05280470476
980,-0.04354005307
981,0.09413738549
982,-0.348641634
983,-0.1707250923
984,0.2823997438
985,0.284832716
986,0.1114594117
987,-0.3096754551
988,0.381110847
989,0.1014169976
990,-0.2044884562
991,0.09444401413
992,-0.0519137308
993,-0.007147694472
994,-0.0919380337
995,0.02425136417
996,0.107944712
997,0.04690396041
998,0.2623279393
999,0.2769143581
1000,0.133318007
1001,-0.1683012396
1002,-0.05078294501
1003,0.07331037521
1004,-0.1236877814
1005,-0.2893747985
1006,-0.4627718329
1007,-0.1781906784
1008,-0.04025521129
1009,-0.5697003007
1010,-0.07293349504
1011,0.1402375549
1012,0.2773019969
1013,-0.06771486253
1014,0.2423067987
1015,0.1199449003
1016,-0.5691872835
1017,0.1310289502
1018,0.1022650972
1019,0.04621732607
1020,0.0225582812
1021,0.2378394604
1022,-0.04621377587
1023,0.07800488919
1024,-0.1130533665
1025,0.04558923468
1026,0.2398511022
1027,0.2280981243
1028,0.07226964086
1029,-0.306986481
1030,0.2148536742
1031,-0.5839929581
1032,0.130646348
1033,0.1247503161
1034,0.1502902508
1035,-0.4479525983
1036,-0.2848855555
1037,-0.2546401322
1038,-0.2341493964
1039,-0.1066844687
1040,0.1661860049
1041,0.07132859528
1042,-0.1007106379
1043,0.3625125289
1044,0.1382854581
1045,-0.08532853425
1046,-0.3467344344
1047,0.0007530972362
1048,0.1600405127
1049,0.2669588327
1050,-0.296113342
1051,0.1450772434
1052,-0.4468266666
1053,0.2152721137
1054,-0.260584265
1055,-0.0844181031
1056,0.1751698554
1057,0.2028580457
1058,0.3924401104
1059,-0.06138842553
1060,0.3194049001
1061,0.05513038114
1062,0.2069259286
1063,0.04371725395
1064,0.3167205751
1065,-0.2706309259
1066,-0.2525785565
1067,-0.2125352621
1068,-0.275580734
1069,-0.1345810145
1070,0.1044018567
1071,-0.03659966961
1072,0.05164733157
1073,-0.1733734459
1074,0.3335591257
1075,0.01155638229
1076,-0.1053726673
1077,0.1121266261
1078,0.1932727993
1079,-0.1865192503
1080,0.13921386
1081,0.3150183558
1082,-0.3398902118
1083,-0.1852055788
1084,-0.04370792583
1085,-0.1254627705
1086,0.0375100635
1087,-0.1311206669
1088,0.0803983137
1089,-0.1223261729
1090,0.02869192511
1091,0.5235391855
1092,0.06311523169
1093,-0.2694711089
1094,-0.1866014451
1095,-0.2395258248
1096,-0.05761214346
1097,0.2260128409
1098,-0.3927048147
1099,-0.3476534188
1100,-0.485717833
1101,-0.5249584913
1102,0.1064832658
1103,-0.1147573963
1104,-0.03894750401
1105,-0.293018043
1106,0.04050127417
1107,0.3255136609
1108,-0.1029218957
1109,-0.2410092801
1110,-0.3763279915
1111,0.1655231416
1112,0.1979586929
1113,0.07954778522
1114,-0.3857929707
1115,0.4146239161
1116,0.1342757195
1117,-0.372345686
1118,0.2844953239
1119,-0.260620296
1120,-0.04973623529
1121,0.2666153014
1122,0.2312706709
1123,-0.06648250669
1124,0.459094882
1125,-0.07679276168
1126,-0.1044242755
1127,0.06466483325
1128,0.2410716861
1129,0.0757355988
1130,-0.1768545508
1131,-0.2510643005
1132,0.01524578314
1133,-0.2487525344
1134,-0.237921536
1135,0.08438941091
1136,-0.2643004954
1137,-0.1399153918
1138,-0.05561549589
1139,0.1698240638
1140,-0.1112963483
1141,-0.2968190312
1142,-0.04409884661
1143,-0.1129634455
1144,0.2331505865
1145,0.3155063391
1146,-0.4569791257
1147,-0.1383680701
1148,0.3390305042
1149,0.1089557484
1150,0.2472364753
1151,-0.03744237125
1152,0.247121796
1153,-0.08045561612
1154,0.2859094739
1155,-0.08204941452
1156,-0.07527470589
1157,-0.2699439228
1158,0.4254871011
1159,-0.1670496613
1160,0.3087699413
1161,-0.2023212761
1162,0.005319168326
1163,0.4814724326
1164,-0.4358748794
1165,-0.4737331271
1166,0.5986686349
1167,0.2260600775
1168,0.5053417683
1169,0.560708046
1170,-0.2027654946
1171,-0.09612133354
1172,-0.0572691299
1173,-0.1287809759
1174,-0.2912669182
1175,0.03379122913
1176,-0.1382511556
1177,-0.08228687942
1178,-0.006888417061
1179,-0.5385522246
1180,0.5533359647
1181,-0.3399268389
1182,0.5329660177
1183,0.2291451246
1184,-0.4578405321
1185,-0.1083966717
1186,-0.1936011463
1187,0.02670330368
1188,0.2165917009
1189,0.2541022599
1190,0.5121927857
1191,-0.4666052163
1192,0.3861382604
1193,-0.5497097969
1194,0.02617335878
1195,0.1554444283
1196,-0.5525524616
1197,0.1226124689
1198,0.104520306
1199,-0.3586027622
1200,-0.3744570315
1201,-0.1618825048
1202,-0.09505642951
1203,0.5661510229
1204,0.2736961544
1205,0.3666566312
1206,0.308521539
1207,0.3257530332
1208,0.08971526474
1209,0.1419910938
1210,-0.0697741732
1211,0.3348264694
1212,0.03227955848
1213,0.07317280769
1214,-0.2245990038
1215,0.2062550783
1216,0.4689113796
1217,0.4246854782
1218,0.2691714764
1219,-0.07934883982
1220,-0.7008118033
1221,0.1205588207
1222,-0.07798267156
1223,0.01610547863
1224,-0.08351818472
1225,-0.09183938801
1226,0.05692755058
1227,0.1332127452
1228,0.1061743274
1229,0.1580128372
1230,0.07060610503
1231,-0.2079721093
1232,-0.3835380077
1233,0.5451766849
1234,-0.02415477671
1235,0.07613498718
1236,-0.5203318596
1237,-0.3765441775
1238,0.2374692857
1239,0.1281054318
1240,0.02472806908
1241,0.1880723089
1242,-0.1168943346
1243,0.01148699131
1244,-0.067656748
1245,0.4904208183
1246,0.1273882836
1247,-0.6534062624
1248,-0.2981313765
1249,0.3303538561
1250,-0.4590511024
1251,0.2430690825
1252,-0.08376011997
1253,-0.2240558416
1254,0.3280842602
1255,0.146321699
1256,0.3642768264
1257,0.4496273398
1258,0.003522982588
1259,0.1993758082
1260,-0.1873590648
1261,-0.2960398197
1262,0.3877709508
1263,-0.1210597679
1264,-0.2278878987
1265,-0.1556064636
1266,0.2407005131
1267,0.2999373674
1268,0.5953292847
1269,-0.2130237967
1270,-0.05210274458
1271,-0.2256697416
1272,-0.3707469106
1273,0.4744231701
1274,0.5989346504
1275,0.433929801
1276,-0.1918817312
1277,-0.3045285046
1278,0.1386159658
1279,-0.09214234352
1280,0.5273871422
1281,0.3804077506
1282,0.09588466585
1283,0.3859529793
1284,0.06057488546
1285,0.1759457439
1286,-0.1599944532
1287,-0.2902952731
1288,0.356364131
1289,-0.8192994595
1290,-0.03474613652
1291,-0.3646690845
1292,-0.5005209446
1293,0.5931957364
1294,0.03690182045
1295,0.5205252767
1296,0.476159066
1297,-0.1331679374
1298,0.1729850471
1299,-0.4571121931
1300,0.05737183616
1301,0.2977046072
1302,-0.047700461
1303,-0.2317396253
1304,0.1427182108
1305,-0.1722725481
1306,0.1468348503
1307,-0.2622127235
1308,1.09925437
1309,0.4067960978
1310,0.3845652342
1311,-0.4002507329
1312,-0.3665345311
1313,0.496694088
1314,0.6789804697
1315,-0.128109321
1316,0.3765817285
1317,0.2582486868
1318,-0.3155165911
1319,-0.05840905383
1320,-0.009411198087
1321,0.4205094576
1322,0.4030352235
1323,0.7117608786
1324,-0.1229389831
1325,0.2919369936
1326,-0.2178978324
1327,-0.1353784949
1328,0.5071995258
1329,-0.1495674103
1330,-0.2787283361
1331,0.4477737844
1332,0.1201118827
1333,0.6518437266
1334,0.4182634652
1335,0.01971307583
1336,0.252492249
1337,-0.5754987001
1338,-0.03558377549
1339,0.4499238431
1340,0.2736149132
1341,0.3286535442
1342,0.4638828039
1343,-0.2508313656
1344,0.4040443599
1345,-0.03168423846
1346,0.3997460604
1347,0.2942276895
1348,-0.3275416195
1349,-0.3331451416
1350,0.324744761
1351,0.06279306859
1352,0.3430234194
1353,0.3915711939
1354,0.4327214658
1355,-0.2128901929
1356,0.369654268
1357,-0.3207890689
1358,-0.4842554629
1359,-0.2304586619
1360,0.3641854823
1361,-0.06877209991
1362,-0.1695847809
1363,0.0980405435
1364,0.2920586467
1365,-0.2252271771
1366,-0.2233585268
1367,-0.1859894991
1368,0.05765132979
1369,-0.16389139
1370,-0.04038195685
1371,0.1841259301
1372,0.182226181
1373,0.2326716781
1374,0.4423796237
1375,-0.01549071539
1376,-0.5514701605
1377,-0.2367199063
1378,0.006997408811
1379,-0.4851972461
1380,-0.02899956144
1381,-0.3724095821
1382,-0.7987539172
1383,0.1301738918
1384,0.6467885375
1385,0.17465204
1386,0.02552104183
1387,-0.002547981916
1388,-0.2662993073
1389,-0.2096076757
1390,0.2889544964
1391,-0.182855159
1392,0.07723197341
1393,-0.602942884
1394,-0.110439986
1395,0.09694387019
1396,-0.01334741246
1397,0.4729236364
1398,-0.3388081789
1399,0.06018290296
1400,0.6024358273
1401,0.4143744707
1402,0.05217809603
1403,-0.03446098417
1404,-0.2150652111
1405,0.06906215101
1406,0.3206457496
1407,-0.6318814754
1408,0.05610919744
1409,-0.2025372535
1410,0.179468751
1411,0.2717607319
1412,0.09717588872
1413,0.0315499641
1414,-0.02226262167
1415,0.1275037229
1416,0.2561039031
1417,-0.1023452058
1418,-0.2851036787
1419,0.2335112244
1420,0.2313081473
1421,-0.4965748191
1422,-0.170147568
1423,0.02854523808
1424,-0.1295338422
1425,-0.7161189318
1426,-0.2031409293
1427,-0.2338799983
1428,-0.1774608195
1429,-0.1247760057
1430,-0.310813725
1431,-0.2135173082
1432,-0.2837456465
1433,0.2740453184
1434,0.0923614502
1435,0.4113585949
1436,0.1778272986
1437,0.4803462327
1438,0.345192492
1439,0.2804352045
1440,-0.2730788589
1441,-0.2868577838
1442,0.2180582583
1443,0.1335249543
1444,0.08055756241
1445,-0.115729481
1446,0.180089578
1447,0.1595321596
1448,0.3781080544
1449,0.3140926361
1450,0.1537757069
1451,0.3154581487
1452,0.218093127
1453,-0.1332235485
1454,-0.02409226261
1455,0.315885514
1456,-0.1053521782
1457,0.006095615681
1458,-0.2922757566
1459,0.002292757155
1460,0.2504394054
1461,0.04312756285
1462,-0.3334710598
1463,0.2659362257
1464,0.05571871623
1465,-0.06520097703
1466,0.01190355141
1467,-0.4174658358
1468,-0.4299626052
1469,-0.2333666682
1470,0.2208445221
1471,-0.306353569
1472,-0.1205829754
1473,0.04612034932
1474,0.1739405841
1475,-0.1306569278
1476,-0.1807750762
1477,0.03279250488
1478,-0.2487893552
1479,0.4211584926
1480,-0.1238288805
1481,0.02082200535
1482,-0.009667351842
1483,0.1565223932
1484,0.06039078534
1485,0.1198766232
1486,0.2044913024
1487,0.08850070089
1488,0.09115482867
1489,-0.4704619348
1490,-0.6987892985
1491,0.3477129936
1492,0.4593911171
1493,-0.2742057145
1494,0.2006244212
1495,-0.06598301977
1496,0.05489199236
1497,-0.07967476547
1498,0.1265810132
1499,-0.7172940373
1500,0.1490667462
1501,0.5926041007
1502,0.04481353611
1503,0.3134002686
1504,-0.5485830903
1505,-0.1931397468
1506,0.2031793594
1507,0.04870833084
1508,-0.05105610937
1509,0.09881232679
1510,0.5896980762
1511,-0.5682609677
1512,0.1218773946
1513,-0.3865660727
1514,-0.1453114599
1515,0.02533456124
1516,-0.1633790135
1517,-0.3861683607
1518,-0.1033888236
1519,-0.1078888476
1520,0.09736127406
1521,0.2806638777
1522,0.2259017825
1523,-0.0006980158505
1524,-1.060672045
1525,0.2342259139
1526,-0.02679247968
1527,0.3782028258
1528,-0.6826800108
1529,-0.1965949833
1530,-0.1366969198
1531,0.4613242745
1532,-1.113560915
1533,0.03315843269
1534,-0.5103260875
1535,0.4700381458
1536,-0.1670299023
1537,0.8967403769
1538,0.05920488387
1539,-0.6525175571
1540,-0.03660776094
1541,0.08693323284
1542,0.2801550627
1543,0.08116810024
1544,0.203014642
1545,-0.04804687575
1546,0.4472330511
1547,0.05650414899
1548,0.318333447
1549,-0.1677062064
1550,-0.08775292337
1551,-0.06199232489
1552,-0.04009142518
1553,-0.5167794824
1554,0.223521471
1555,-0.3291523159
1556,-0.2151357383
1557,0.3820486367
1558,-0.07524688542
1559,0.007899795659
1560,-0.02002016827
1561,-0.3909855783
1562,-0.4716360867
1563,0.5010213256
1564,0.2432149947
1565,-0.07860155404
1566,-0.1589954942
1567,0.02699809894
1568,-0.3545669615
1569,0.3513610065
1570,-0.108092472
1571,0.1164684966
1572,-0.2184916884
1573,0.009044053964
1574,-0.00507769594
1575,0.2460224777
1576,-0.004892756697
1577,-0.4953124225
1578,-0.3462634981
1579,-0.4027486444
1580,0.2114480436
1581,0.3362951875
1582,0.2813447416
1583,-0.06734092534
1584,0.4537576735
1585,0.1679521054
1586,0.004462792072
1587,-0.1958864182
1588,0.6543652415
1589,0.2637446225
1590,0.1116735935
1591,-0.1682770699
1592,0.05028500035
1593,-0.03184239194
1594,0.1400177628
1595,-0.4094406664
1596,0.1064806283
1597,-0.2421761751
1598,0.06973111629
1599,-0.1556305289
1600,0.1421812922
1601,-0.3519800901
1602,-0.1926713586
1603,-0.02447035722
1604,0.09859700501
1605,0.03404785693
1606,0.3072489202
1607,0.5740130544
1608,0.3227747977
1609,-0.4778298736
1610,-0.0802751407
1611,0.2888829708
1612,-0.04438020289
1613,0.1239258274
1614,0.1061409488
1615,0.6628043652
1616,-0.003713081358
1617,-0.1068376303
1618,-0.2089504302
1619,-0.1612242907
1620,0.3656548262
1621,-0.1185287386
1622,-0.04472372308
1623,0.04549504444
1624,0.2993248701
1625,-0.4717065096
1626,-0.3089335859
1627,-0.03300350532
1628,0.09876072407
1629,0.1685006022
1630,0.05970367044
1631,-0.06352511793
1632,0.01025243383
1633,-0.2473978996
1634,0.2666182518
1635,0.02811522223
1636,0.1775795072
1637,-0.4186114669
1638,-0.36246562
1639,-0.001059409813
1640,0.05246734992
1641,0.02665825747
1642,0.223614037
1643,0.1781652868
1644,-0.112058498
1645,-0.09330607951
1646,0.3521977961
1647,0.1350482553
1648,-0.07193596661
1649,-0.02045138739
1650,0.2629436255
1651,0.3320158124
1652,-0.6466623545
1653,-0.6634083986
1654,-0.2569210529
1655,0.1167689189
1656,-0.3712781668
1657,-0.4559042752
1658,0.07145562023
1659,0.3554652631
1660,-0.3795900941
1661,-0.0288529098
1662,-0.5055712461
1663,-0.5899006128
1664,0.3390012085
1665,-0.5862342119
1666,0.1524376422
1667,-0.2072758377
1668,-0.3307495415
1669,-0.1714259237
1670,-0.1393983662
1671,-0.9184103012
1672,0.3548995256
1673,-0.5712774396
1674,-0.9755112529
1675,0.2514795959
1676,-0.3398375511
1677,0.4933277369
1678,-0.1993855685
1679,-0.1981692761
1680,-0.4503095448
1681,-0.3712025583
1682,0.1835670918
1683,0.6783000231
1684,-0.002277145861
1685,-0.1193229929
1686,0.2645125091
1687,0.2621414661
1688,0.4237298965
1689,-0.6843816638
1690,-0.5800695419
1691,-0.6119386554
1692,-0.01626041345
1693,0.3479383588
1694,0.104305841
1695,0.08377527446
1696,-0.04663848504
1697,0.1708250493
1698,0.4279206693
1699,0.2864815891
1700,0.1829258054
1701,0.1774017662
1702,0.5007277727
1703,-0.2565700114
1704,0.2789483368
1705,-0.0899771601
1706,-0.1228175387
1707,-0.2999993861
1708,0.07235237956
1709,0.2410190254
1710,0.3329271376
1711,-0.09977965057
1712,0.420753926
1713,0.2257675976
1714,0.2016055435
1715,0.07612103224
1716,0.2439931929
1717,0.2206059098
1718,-0.6420813203
1719,-0.06271141022
1720,-0.4252953231
1721,0.4698348045
1722,0.2316305786
1723,-0.2643433213
1724,-0.2294932604
1725,0.03243981302
1726,-0.851267755
1727,0.02130419202
1728,-0.05494105816
1729,-0.4363388419
1730,-0.3652636409
1731,-0.0004992187023
1732,-0.2136837393
1733,-0.3137577772
1734,0.08463986963
1735,0.004862946924
1736,-0.2649454176
1737,0.1258485317
1738,-0.217341885
1739,0.5034274459
1740,0.04985074326
1741,-0.6555315256
1742,-0.227846697
1743,0.4157316387
1744,0.1784640551
1745,-0.6859957576
1746,0.2051143795
1747,-0.1711825132
1748,0.09863546491
1749,-0.2416845411
1750,-0.3802139759
1751,0.4166487455
1752,0.07304979861
1753,0.4656548202
1754,-0.2012834102
1755,-0.03251200169
1756,0.1580648869
1757,0.02844592743
1758,0.5045049787
1759,0.04511039704
1760,0.4117110968
1761,-0.03488320485
1762,0.09424435347
1763,-0.3706349134
1764,-0.369527638
1765,0.1765925139
1766,0.2897831798
1767,-0.4014817476
1768,0.09222321212
1769,-0.05057311431
1770,-0.1857752055
1771,-0.05533800647
1772,0.2730543911
1773,0.06264502555
1774,-0.2641290426
1775,-0.1518638134
1776,0.02529690973
1777,-0.1510460377
1778,0.06112843379
1779,0.1584947407
1780,-0.01954376884
1781,-0.09770356119
1782,-0.2177673876
1783,-0.03486348689
1784,0.06984374672
1785,-0.005216518883
1786,0.1102108955
1787,-0.2099629045
1788,-0.4231463075
1789,0.1799545586
1790,-0.1720111817
1791,-0.4305678904
1792,-0.3181259334
1793,0.1655102968
1794,0.0171850957
1795,-0.1786733419
1796,0.2646693587
1797,-0.2468177676
1798,-0.1590384841
1799,-0.07963151485
1800,-0.2331114411
1801,-0.2204535753
1802,-0.03066555224
1803,-0.3119367361
1804,0.008858875372
1805,-0.06037958339
1806,0.3288376629
1807,-0.01665019803
1808,-0.0376309678
1809,0.1699416488
1810,0.08647017181
1811,-0.06967339665
1812,-0.3134524822
1813,-0.3641699255
1814,-0.07699352503
1815,0.2038380802
1816,-0.06724423915
1817,0.2278614491
1818,0.3228956461
1819,0.09365882725
1820,0.0104965698
1821,0.118755877
1822,-0.1002292335
1823,0.1616071463
1824,0.04939690977
1825,0.1265588254
1826,-0.03408527002
1827,0.09104765952
1828,0.1314198375
1829,-0.3300786316
1830,-0.3302832842
1831,-0.1936634779
1832,-0.1893941164
1833,0.1927559972
1834,-0.2774685919
1835,-0.09844178706
1836,0.3857807517
1837,-0.356860131
1838,-0.006304720882
1839,-0.3645743728
1840,0.3337678313
1841,-0.03689076006
1842,0.1376800537
1843,0.2278974652
1844,-0.08623110503
1845,-0.4056451023
1846,0.2933161855
1847,0.06083196402
1848,-0.02351047844
1849,0.0934907347
1850,0.136146158
1851,0.2095553577
1852,0.2018290758
1853,-0.2277593762
1854,0.369284302
1855,-0.04835753515
1856,-0.05044773221
1857,-0.306527555
1858,0.158312887
1859,-0.1719841212
1860,0.3765245974
1861,-0.2446778715
1862,-0.305781275
1863,0.03507794812
1864,0.2048566043
1865,-0.2834082544
1866,-0.2369107902
1867,-0.141666308
1868,-0.2039269209
1869,0.1777074784
1870,0.4228557348
1871,0.25121665
1872,-0.291233629
1873,0.3674256206
1874,0.09885148704
1875,0.04841258377
1876,0.310711503
1877,-0.1901534498
1878,-0.2025810629
1879,-0.2075784057
1880,0.0173156783
1881,-0.1272778511
1882,-0.1526239365
1883,0.3239154518
1884,-0.3297501206
1885,-0.2113949656
1886,-0.05892917886
1887,-0.4561192393
1888,-0.2584357858
1889,0.2124199122
1890,0.1073169261
1891,0.06892254204
1892,0.05910954624
1893,0.3770956099
1894,-0.2491760105
1895,-0.01232625078
1896,-0.2276266217
1897,0.1033377349
1898,0.08191597462
1899,0.3129953444
1900,0.3522537351
1901,-0.1136315018
1902,0.356500268
1903,-0.1892765462
1904,0.04239067435
1905,-0.2929964364
1906,0.3638426363
1907,-0.02587918565
1908,-0.1882843375
1909,0.1989303976
1910,0.1733537465
1911,-0.08923199028
1912,-0.07256551087
1913,-0.1773513705
1914,0.1663258374
1915,0.2442145795
1916,0.2403240204
1917,-0.2313863486
1918,-0.2557269931
1919,-0.001696230727
1920,0.3252930343
1921,-0.9980687499
1922,-0.2227023095
1923,0.2073592842
1924,0.7502816319
1925,0.262889713
1926,-0.4662491083
1927,-0.2649120092
1928,0.1210318133
1929,0.5667780042
1930,-0.4538122416
1931,-1.029572248
1932,-0.4186223149
1933,-0.5788530111
1934,0.1992097497
1935,-0.08113452047
1936,-0.7971976399
1937,0.4849755168
1938,0.7115214467
1939,-0.1258874685
1940,-0.1967642456
1941,-0.07166743279
1942,0.2920366228
1943,-0.45321998
1944,0.1348390877
1945,0.377586931
1946,0.1377764493
1947,-0.00511961244
1948,0.7196315527
1949,-0.3713088632
1950,0.4992516637
1951,-0.6214112639
1952,-0.3724681735
1953,0.7628653646
1954,0.2492012829
1955,-1.536385059
1956,-0.92598176
1957,-0.6230499148
1958,0.4065935314
1959,0.9006636739
1960,-0.2431442291
1961,0.282993257
1962,-0.5338008404
1963,0.9061278105
1964,-0.8673021197
1965,-0.3049340248
1966,0.3939936459
1967,0.4265027046
1968,-0.6288710833
1969,-0.05254409835
1970,0.2622344196
1971,0.8487634063
1972,-0.1888926327
1973,-0.632014811
1974,-0.184977293
1975,-0.0738253668
1976,0.5207605958
1977,0.4716552794
1978,0.5028555393
1979,0.9628733993
1980,-0.3017857969
1981,0.346193254
1982,0.9340045452
1983,0.01121094357
1984,0.02089976892
1985,-1.60138154
1986,0.1702286005
1987,-0.5006793737
1988,0.03080370277
1989,-0.2475835532
1990,0.4082915485
1991,-0.3923507929
1992,0.06825824827
1993,0.1199723333
1994,0.7755355239
1995,-1.171126723
1996,0.151220426
1997,-0.9633513689
1998,-0.3451916575
1999,0.1616463214
2000,0.2714188099
2001,-0.08256516606
2002,0.3823142648
2003,0.2309395373
2004,-0.1146754697
2005,-0.3208886087
2006,-0.3169076741
2007,0.6889568567
2008,-0.2438292354
2009,-0.2541501224
2010,-0.238683328
2011,-0.3243487179
2012,-0.06603033096
2013,-0.1960504502
2014,0.3643800914
2015,0.2871739566
2016,-1.20174396
2017,0.20273
2018,0.6212445498
2019,0.07771417499
2020,-0.03736699373
2021,0.2913916111
2022,0.5877290368
2023,-0.4454627037
2024,0.03183009475
2025,-0.04355512559
2026,-0.2986046374
2027,-0.07351811975
2028,-0.5698271394
2029,-0.1263885349
2030,0.0224398654
2031,0.3243108988
2032,-0.01253338158
2033,-0.3251984715
2034,-0.3688854575
2035,0.3740153909
2036,-1.125532031
2037,0.09241070598
2038,0.2184824347
2039,-0.07749907672
2040,-0.6651903987
2041,0.309002459
2042,0.516340971
2043,0.1175695434
2044,-0.4411646724
2045,-0.1519801766
2046,-0.1614186019
2047,-0.3277004957
2048,1.078864336
2049,-0.4482257366
2050,-0.4472576082
2051,0.04481465369
2052,-0.195745483
2053,0.08355816454
2054,-0.8360117078
2055,-0.3165217042
2056,0.1435496509
2057,-0.1033130065
2058,-0.3489634991
2059,-0.7980558872
2060,-0.2752541006
2061,-0.1705787182
2062,-0.2645707726
2063,0.7708013058
2064,-0.476459384
2065,-0.07604508847
2066,-0.6226987839
2067,0.2597505152
2068,0.1559528857
2069,0.3351246119
2070,0.2430212498
2071,0.4336716533
2072,0.7990931869
2073,-0.4512610734
2074,-0.4836012721
2075,-0.66460675
2076,-0.1648853123
2077,0.5617313981
2078,0.3499646485
2079,-0.5715374351
2080,0.2940179706
2081,0.6788973808
2082,0.5400750041
2083,-0.3561311364
2084,-0.6642348766
2085,-0.4380039275
2086,0.05520160869
2087,-0.1261441708
2088,-0.3995626867
2089,0.6866815686
2090,0.232218504
2091,0.4863458574
2092,0.1248508245
2093,0.2479601204
2094,0.7786883116
2095,-0.03819969296
2096,0.4829831421
2097,0.08220553398
2098,-0.2483747751
2099,-0.1009237096
2100,-0.4348715246
2101,-0.3142215312
2102,0.05437387154
2103,0.006274762098
2104,-0.4980587661
2105,-0.6446478367
2106,-0.1034739614
2107,-0.2600978315
2108,-0.1846579462
2109,0.08006658405
2110,0.4835000336
2111,0.2345312089
2112,-0.06485975534
2113,-1.985455036
2114,0.33662045
2115,-0.5242541432
2116,0.004390098155
2117,-0.3316934705
2118,-0.1410783827
2119,-0.2759136856
2120,-0.2762886286
2121,0.3766929507
2122,0.5329630971
2123,-0.1749817282
2124,0.1579228044
2125,-1.164726615
2126,-1.115380645
2127,-0.4791065753
2128,-0.4598698914
2129,-0.04835604876
2130,0.6325433254
2131,-0.1597768366
2132,0.1043116003
2133,0.2946552336
2134,0.0339884758
2135,0.04340364411
2136,-0.4694805741
2137,-0.786316812
2138,-0.2307032645
2139,-0.3889741004
2140,-0.4350079596
2141,-0.1931381822
2142,0.4953688979
2143,0.625770092
2144,-0.2954835594
2145,0.3429842293
2146,-0.1648495644
2147,-0.3005871177
2148,-0.2044061124
2149,0.3015340269
2150,0.3867794275
2151,-0.0664928928
2152,0.5659440756
2153,-0.2734438181
2154,0.1322609186
2155,-0.08476223052
2156,-0.9537144899
2157,-0.1746073961
2158,0.4259971082
2159,0.4557477534
2160,-0.1709901989
2161,-0.3004801571
2162,-0.1513081044
2163,0.7668546438
2164,-0.6594465971
2165,0.2457685769
2166,-0.941818893
2167,0.7553680539
2168,0.2893044055
2169,0.1455142349
2170,0.6007790565
2171,1.056724668
2172,-0.6297081113
2173,-0.1667427719
2174,0.416113168
2175,0.0600861609
2176,0.1477663517
2177,-0.2223002464
2178,0.5527983904
2179,-0.145871222
2180,0.8567031622
2181,0.2858020067
2182,-0.2297228426
2183,-0.3334542811
2184,0.1219222918
2185,0.06020504981
2186,-0.5179653168
2187,-0.9437022209
2188,0.2399369329
2189,-0.7629457712
2190,-0.00521400338
2191,0.2183341086
2192,-0.3535557091
2193,0.07886451483
2194,0.4766973555
2195,0.2259283513
2196,0.2933759689
2197,-0.3491745293
2198,-0.3433457613
2199,-0.1900539547
2200,0.0196697358
2201,0.3402865529
2202,-0.5241660476
2203,-0.4346962869
2204,-0.194596976
2205,-0.6420004964
2206,-0.3594248891
2207,-0.05291620642
2208,0.2228616774
2209,0.7150780559
2210,0.07204324752
2211,-0.2766608894
2212,-0.7368012071
2213,-0.1752230376
2214,0.4371941984
2215,-0.1644141525
2216,-0.3828360438
2217,0.1957881749
2218,-0.2473612279
2219,0.4869171977
2220,-0.2849845886
2221,0.01093668025
2222,0.007857233286
2223,0.5224807858
2224,-0.4620797038
2225,0.1691440195
2226,0.6057154536
2227,0.1316718012
2228,-0.5859764814
2229,-0.2715606093
2230,0.436100632
2231,-0.7270386815
2232,-0.08889812976
2233,0.06015116721
2234,-0.1924045831
2235,0.4109591842
2236,0.1296705604
2237,-0.3090103865
2238,0.2099286467
2239,0.120627664
2240,-0.2172255665
2241,-1.907202363
2242,-0.09080312401
2243,-0.5014240742
2244,0.4021274447
2245,-0.239858523
2246,0.3771899939
2247,-0.362195164
2248,-0.5910841823
2249,0.7833753228
2250,0.3569534421
2251,-0.1018538103
2252,0.3568813205
2253,-0.9228335619
2254,-1.27918601
2255,-0.01972347684
2256,-0.8891326189
2257,-0.1312183142
2258,0.7646521926
2259,-0.4913642108
2260,-0.2143818289
2261,-0.1972954273
2262,0.1490492374
2263,-0.2123507857
2264,-0.09002543241
2265,-0.5867286325
2266,-0.09254237264
2267,-0.1733054519
2268,-0.09870639443
2269,0.200257957
2270,0.1465819627
2271,0.4280868173
2272,-0.5266345739
2273,0.00770934904
2274,-0.03567292914
2275,-0.05546824262
2276,-0.4274235368
2277,0.08521279693
2278,0.5593438148
2279,0.1117277965
2280,0.8529592752
2281,-0.3955901563
2282,0.2821406126
2283,-0.05926229805
2284,-1.202277899
2285,0.3070428967
2286,0.05061939731
2287,0.474901557
2288,-0.00682400912
2289,0.2508322895
2290,-0.7474680543
2291,0.5406779051
2292,-0.719517231
2293,0.2149330676
2294,-0.4840761423
2295,1.028262138
2296,-0.2555579543
2297,0.262136519
2298,0.7924540639
2299,1.074645519
2300,-0.007068614941
2301,-0.001724121161
2302,0.572237134
2303,0.2561267614
2304,-4.307529449
2305,-0.5987105966
2306,-3.123870373
2307,-2.793549538
2308,-2.662356138
2309,0.376714915
2310,-2.765011787
2311,2.022114277
2312,-2.640772343
2313,-3.684833527
2314,0.1023219898
2315,0.6093953848
2316,3.54590106
2317,1.065073848
2318,4.217434406
2319,3.219367504
2320,4.290369987
2321,2.29719162
2322,-2.639024734
2323,-2.643656969
2324,1.78782177
2325,-0.02901924029
2326,0.001245485619
2327,0.01385594439
2328,1.817884564
2329,0.8708531857
2330,-2.456199884
2331,-3.165066957
2332,3.797721624
2333,-0.06413303316
2334,3.861188412
2335,0.1235434785
2336,3.275417805
2337,-2.667294025
2338,-0.2267828733
2339,1.235069275
2340,-0.3063313663
2341,3.540863514
2342,0.2172324508
2343,-3.306424141
2344,3.550084591
2345,-0.4380955696
2346,-2.062572956
2347,-1.851919651
2348,-1.160667539
2349,-0.150734365
2350,-0.08256277442
2351,1.723048925
2352,2.673201084
2353,-2.104823351
2354,-4.962856293
2355,-3.296073198
2356,-1.971278548
2357,4.776898861
2358,2.201616764
2359,1.863144875
2360,-0.01394033432
2361,-2.861994743
2362,1.858694673
2363,-1.448500276
2364,-0.2360284328
2365,0.1481731385
2366,3.772438526
2367,2.911146879
2368,-0.4423236549
2369,0.2681005895
2370,0.3111795187
2371,-0.09370203316
2372,-0.1067727208
2373,-0.2367888391
2374,0.2798854113
2375,0.02883465216
2376,0.145393759
2377,0.3836728334
2378,-0.06022726372
2379,0.09655094147
2380,-0.5303689837
2381,0.1264993846
2382,0.1475354135
2383,-0.4482493699
2384,-0.005972504616
2385,-0.1899665296
2386,0.394290328
2387,0.1712988764
2388,-0.2223952264
2389,-0.0003044506593
2390,-0.3562595546
2391,0.3351935744
2392,0.1334781647
2393,0.2032423466
2394,0.2157489508
2395,-0.2971273661
2396,0.379389137
2397,-0.2079492509
2398,0.1163534597
2399,-0.0488768369
2400,0.4383683801
2401,-0.5937253237
2402,-0.5095537901
2403,-0.09721615911
2404,-0.1991670132
2405,0.400089711
2406,-0.01487990003
2407,0.3709132373
2408,0.3238790333
2409,0.2484688163
2410,-0.1234887466
2411,-0.0816386193
2412,-0.2483915836
2413,-0.3042171001
2414,-0.0609055385
2415,-0.3461325169
2416,0.3330322802
2417,-0.2832258344
2418,-0.02314095758
2419,-0.2271219045
2420,0.5046494007
2421,0.2391456366
2422,0.263135761
2423,-0.292189002
2424,0.2970224917
2425,-0.1872737408
2426,-0.09895825386
2427,-0.2337789088
2428,-0.009005697444
2429,-0.1112356558
2430,0.3436492682
2431,0.336374104
2432,-0.03359698504
2433,-0.2392227799
2434,0.5056090355
2435,-0.9256821275
2436,-0.05247469246
2437,0.386544615
2438,0.3441683352
2439,-0.0540015474
2440,0.00926040113
2441,0.1235942617
2442,-0.3401899338
2443,-0.3887431622
2444,0.2306858152
2445,-0.5117006898
2446,-0.478238672
2447,0.3857294321
2448,0.1689516157
2449,-0.4821047187
2450,0.04204410315
2451,0.187417835
2452,-0.1607069224
2453,-0.3169941604
2454,0.1946988106
2455,-0.3294734955
2456,0.3586257398
2457,-0.646201551
2458,-0.4661065936
2459,-0.4931039214
2460,-0.1690595001
2461,-0.1513790637
2462,0.288705498
2463,0.07752335817
2464,0.3507961631
2465,0.07304685563
2466,0.2536493242
2467,0.1024298444
2468,0.1217597872
2469,0.212699011
2470,-0.06309942156
2471,-0.5154648423
2472,0.1158336028
2473,-0.08955232799
2474,0.01026481669
2475,-0.3326150775
2476,-0.4703090787
2477,-0.3881063163
2478,-0.4808709621
2479,0.05219020322
2480,-0.2337282747
2481,-0.2192658931
2482,-0.2831892371
2483,0.3860601783
2484,-0.822234869
2485,0.2309706211
2486,-0.02203301713
2487,0.313508451
2488,-0.5997177362
2489,0.43152529
2490,0.4155763686
2491,0.3292750716
2492,-0.666790545
2493,-0.1761405468
2494,-0.1910807341
2495,-0.09075388312
2496,0.04989860579
2497,0.01324415207
2498,-0.002453804249
2499,0.0512916781
2500,0.02865866385
2501,0
2502,0.03022637963
2503,-0.009373416193
2504,-0.1158967838
2505,0.0152756786
2506,-0.09520756453
2507,0.05603676662
2508,0.02021717466
2509,0.1319781393
2510,0.1096657589
2511,0.0552257821
2512,0.002112311311
2513,0.1422996223
2514,0.1138233021
2515,-0.1031736434
2516,0.01913848147
2517,-0.01105470303
2518,0
2519,0.05127492547
2520,-0.03164211288
2521,0.1156516746
2522,-0.05449528247
2523,0.02548090182
2524,0.02746509947
2525,-0.1325445622
2526,0.0198874101
2527,-0.1090823784
2528,0.06110237166
2529,0.05443894863
2530,0.0545103699
2531,-0.0119715184
2532,-0.06177003309
2533,0.01281410269
2534,-0.07576512545
2535,-0.008458242752
2536,0.02924500778
2537,0.0428805165
2538,0.06259607524
2539,-0.01014888007
2540,0.004929409828
2541,0
2542,-0.01416327059
2543,0.001091368496
2544,0.02576322481
2545,0.006050045136
2546,0.03789335862
2547,-0.01295268722
2548,0.04446233809
2549,-0.07386921346
2550,-0.04144672304
2551,-0.005679333583
2552,0.153590396
2553,-0.03459779173
2554,-0.04818528891
2555,0.03660315275
2556,0.07430589944
2557,0
2558,0.02298009768
2559,0.07074460387
2560,-0.2550325394
2561,-0.04803569987
2562,-0.09902699292
2563,0.1437956989
2564,0.05684712902
2565,-0.2587922812
2566,-0.2301435918
2567,0.1681455076
2568,-0.05683075264
2569,0.1647263914
2570,-0.1531657577
2571,0.1444967836
2572,-0.2850800455
2573,0.1269110441
2574,-0.3571049273
2575,-0.1334052384
2576,0.3520699739
2577,-0.1051100045
2578,-0.1472542882
2579,0.4293743968
2580,-0.316434592
2581,-0.1212870255
2582,0.3489387035
2583,-0.03912364691
2584,0.2432630807
2585,-0.004082967993
2586,-0.1493398994
2587,-0.4100012779
2588,0.5270701647
2589,0.2871697843
2590,0.02233943902
2591,0.2554342747
2592,-0.3130214214
2593,0.5144017935
2594,-0.4582718015
2595,0.09551500529
2596,-0.09687310457
2597,-0.3239991069
2598,-0.3625651896
2599,-0.5650305152
2600,0.2844599187
2601,-0.5294488072
2602,-0.1420751661
2603,0.06578838825
2604,0.2488400191
2605,-0.1114651337
2606,-0.01870869659
2607,0.1019247174
2608,-0.3612405658
2609,0.2216223627
2610,0.1700838655
2611,0.3773266077
2612,0.1466793716
2613,-0.2090408355
2614,0.04969199374
2615,0.3337546289
2616,-0.06417302787
2617,-0.4093271494
2618,0.2082310319
2619,-0.09294194728
2620,-0.0217547752
2621,0.3858174086
2622,0.05188551173
2623,-0.8265399933
2624,-0.3562903404
2625,0.09884007275
2626,0.0664711073
2627,-0.1369386017
2628,-0.2446651459
2629,0.09667181224
2630,-0.2905854583
2631,-0.08354396373
2632,-0.4034665227
2633,-0.4262920022
2634,0.6623993516
2635,-0.4909829199
2636,0.123076342
2637,0.05103375763
2638,-0.6789883971
2639,-0.1813046336
2640,0.1371696144
2641,0.1689013541
2642,-0.1404727101
2643,-0.7746483684
2644,0.05432560667
2645,-0.2806393802
2646,0.06575679034
2647,-0.4923556745
2648,-0.03849104047
2649,-0.04147259891
2650,-0.1153054386
2651,0.4018199146
2652,0.2219625264
2653,-0.4913214743
2654,0.1118462011
2655,-0.1901601702
2656,0.3983633816
2657,0.4871630073
2658,-0.43634516
2659,0.4292394519
2660,-0.4964471161
2661,-0.05589019135
2662,-0.09461406618
2663,0.2684698701
2664,0.4440868795
2665,-0.4222632051
2666,0.3363556564
2667,-0.5629777312
2668,0.4393258989
2669,0.01479655411
2670,-0.2268868536
2671,0.1470622718
2672,0.2704498172
2673,0.1534884721
2674,0.2111359835
2675,-0.007796003949
2676,0.2617467344
2677,-0.2518049777
2678,0.2733476162
2679,-0.4291168749
2680,0.03393661603
2681,0.01175859198
2682,0.05688424781
2683,0.01583496295
2684,0.06591691822
2685,0.4260184169
2686,-0.5846912861
2687,-0.1523080766
2688,-0.3960538805
2689,-0.3095616102
2690,0.3161106408
2691,0.2347290516
2692,-0.07135307044
2693,-0.3073692322
2694,0.2038295567
2695,0.02909755893
2696,0.1889348626
2697,-0.07289043069
2698,0.07887615263
2699,0.3025743663
2700,0.1518528163
2701,-0.585383594
2702,0.1626757085
2703,0.4146855772
2704,-0.03817595169
2705,-0.2502768338
2706,0.3051043451
2707,0.03428360075
2708,0.1784541607
2709,-0.1061657742
2710,-0.02534700185
2711,-0.1011872739
2712,0.4051939845
2713,0.01925169677
2714,0.249180913
2715,-0.1324279159
2716,-0.2522560358
2717,0.3376551867
2718,0.2928643823
2719,-0.07379414886
2720,-0.2386541814
2721,0.338874042
2722,0.2405451089
2723,0.2803835869
2724,-0.05894359946
2725,-0.2228455395
2726,0.01385860797
2727,-0.3517042994
2728,0.2104611397
2729,0.5794887543
2730,-0.2135602236
2731,0.266572237
2732,0.2046827972
2733,-0.2249753177
2734,-0.3867359757
2735,0.09216955304
2736,0.2694270611
2737,0.1442651302
2738,0.1613562256
2739,-0.1255027205
2740,-0.3009080589
2741,0.1640379578
2742,-0.05622285232
2743,0.1338399947
2744,-0.1965499967
2745,0.2818357944
2746,-0.2963166237
2747,0.2258775681
2748,-0.4358641803
2749,0.2643851638
2750,0.1604459137
2751,0.1131400838
2752,-0.4940345287
2753,-0.3180836141
2754,-0.04369573295
2755,0.1506127864
2756,-0.3706107736
2757,0.08952815086
2758,0.003584042424
2759,-0.04044354707
2760,0.0892867744
2761,0.1659595817
2762,0.07973178476
2763,0.1101913378
2764,-0.2997977436
2765,0.1134691834
2766,-0.1798467338
2767,0.08561472595
2768,0.3925581574
2769,0.2898671329
2770,-0.04906007648
2771,0.09128236026
2772,-0.07461538166
2773,0.2298776954
2774,0.1118621901
2775,0.09890513122
2776,0.2396647334
2777,0.5752682686
2778,-0.08735049516
2779,-0.1867067218
2780,0.01318902243
2781,0.1922159195
2782,0.5209063888
2783,0.1865805686
2784,-0.4646472335
2785,0.450342685
2786,0.01032533217
2787,0.2128481269
2788,-0.2094082385
2789,0.08155165613
2790,0.01536561083
2791,-0.291177094
2792,0.09792324901
2793,0.6004503965
2794,-0.3566274643
2795,-0.4526128173
2796,-0.2717491984
2797,0.1517165005
2798,0.1201357469
2799,-0.1014584377
2800,-0.1811805516
2801,0.4485077858
2802,-0.07142338157
2803,0.002476672409
2804,-0.2295449972
2805,0.1691250801
2806,0.2443808764
2807,0.3098315895
2808,0.1061441004
2809,-0.1957062334
2810,0.1162573397
2811,0.2791317105
2812,-0.02366807498
2813,0.1623272002
2814,0.3937045336
2815,0.05798280239
2816,-0.1441492587
2817,-0.1890956014
2818,-0.05952011421
2819,-0.004469249398
2820,0.2115602791
2821,0.0138750989
2822,0.2224662006
2823,-0.3224671781
2824,-0.2893589437
2825,0.05683526024
2826,-0.03927964345
2827,-0.3443539143
2828,0.04179814458
2829,-0.1451255977
2830,0.08763194829
2831,0.1986296922
2832,0.3255562782
2833,-0.4380720556
2834,-0.06332656741
2835,-0.0933329314
2836,-0.1645830274
2837,-0.3056307733
2838,-0.2529917955
2839,-0.2893241644
2840,0.4277033508
2841,0.2543516159
2842,-0.1621118337
2843,-0.2306441367
2844,-0.1144867763
2845,0.02437680028
2846,-0.1810429841
2847,-0.09627962857
2848,0.3642650247
2849,-0.09829244763
2850,0.0714873597
2851,-0.02152433805
2852,0.306068331
2853,0.1958956122
2854,-0.07675104588
2855,0.03808689862
2856,0.1049158126
2857,-0.2452205867
2858,0.2304272652
2859,0.1107115522
2860,0.232553184
2861,-0.13214463
2862,-0.2815084755
2863,0.1543459296
2864,0.07410725206
2865,-0.07169403136
2866,-0.0472686626
2867,-0.2364842296
2868,0.2515624166
2869,-0.2885507643
2870,-0.2766702175
2871,-0.3205220699
2872,-0.2591044307
2873,-0.286705941
2874,0.1651719511
2875,0.05472105742
2876,0.09517914057
2877,0.1591585577
2878,0.4258821905
2879,-0.1204081029
2880,0.272115469
2881,0.2920645475
2882,0.02962093242
2883,0.08556123823
2884,-0.05094162002
2885,0.08429194242
2886,-0.1611937135
2887,0.0788243562
2888,-0.04765891284
2889,-0.01615528204
2890,-0.02493114397
2891,-0.2927690446
2892,0.01731462032
2893,0.2603100836
2894,0.2727436125
2895,-0.09649598598
2896,-0.2040003538
2897,0.01950047351
2898,-0.1842527986
2899,-0.07229062915
2900,-0.2568763793
2901,-0.1609171629
2902,0.09477196634
2903,-0.2826711535
2904,0.2834773362
2905,-0.2879618108
2906,-0.09207247943
2907,-0.1735209823
2908,0.2484011203
2909,0.1187709868
2910,0.02378457971
2911,0.04183767363
2912,-0.158154428
2913,-0.2156759948
2914,-0.1578955948
2915,-0.1287440807
2916,-0.1902927756
2917,-0.2460538894
2918,0.2434433401
2919,-0.129528746
2920,-0.2562761605
2921,0.05308857933
2922,0.03324314207
2923,0.00706151966
2924,-0.06961905211
2925,-0.1385806501
2926,0.1084623709
2927,0.1053956226
2928,-0.09934287518
2929,0.2019775957
2930,0.2058283389
2931,-0.1830717325
2932,-0.199406743
2933,-0.1731106341
2934,-0.1955530047
2935,0.07566919923
2936,0.140064612
2937,-0.2189565599
2938,-0.2677728832
2939,0.1047180295
2940,0.189198941
2941,-0.2768756747
2942,-0.2300559133
2943,-0.1339718848
2944,0.1193724722
2945,-0.101544857
2946,-0.3258685172
2947,-0.08160848916
2948,0.280608803
2949,-0.173340112
2950,0.1179705486
2951,-0.2672352195
2952,0.206007883
2953,-0.03223453462
2954,-0.7378361821
2955,-0.09630124271
2956,-0.1647798717
2957,0.2867705822
2958,-0.2173475325
2959,-0.4102107882
2960,0.05131272227
2961,0.09407717735
2962,-0.3929676414
2963,0.1379931569
2964,0.3742148578
2965,0.1012816802
2966,-0.3857849538
2967,-0.5091887116
2968,0.2472910285
2969,-0.3032335639
2970,0.03961568698
2971,-0.2153870761
2972,-0.244003877
2973,-0.3343898058
2974,0.4485979676
2975,0.1572121382
2976,-0.1716605425
2977,-0.03931158036
2978,-0.3916774094
2979,0.2336886227
2980,-0.4580965638
2981,-0.1925765425
2982,-0.2610030174
2983,-0.1560828388
2984,0.1395649016
2985,0.3196540773
2986,0.17443268
2987,0.1487081945
2988,-0.2152862698
2989,0.262352854
2990,-0.2761204541
2991,-0.3806942701
2992,-0.7085987926
2993,-0.1834014654
2994,-0.008195641451
2995,0.001667715609
2996,-0.2567306757
2997,-0.221560657
2998,0.1859454662
2999,-0.06536971033
3000,-0.1980788261
3001,0.1369199604
3002,0.2435316592
3003,0.1427662671
3004,0.151121825
3005,-0.1302918494
3006,0.227072224
3007,0.05048053339
3008,0.07917299867
3009,-0.006159018259
3010,0.2860424519
3011,0.07227545977
3012,0.2946739793
3013,-0.3050355315
3014,0.1343861371
3015,-0.273529917
3016,0.1865428239
3017,0.04897571355
3018,0.4240870476
3019,-0.09183302522
3020,0.2392826527
3021,0.0982741639
3022,0.3103356063
3023,0.0104408497
3024,-0.3763814867
3025,-0.02889834903
3026,-0.0451862216
3027,-0.3892655075
3028,-0.06056563184
3029,-0.06284733862
3030,-0.1381593794
3031,0.2402842045
3032,-0.03940433636
3033,-0.1376599222
3034,-0.177777648
3035,0.1377179027
3036,0.1438108981
3037,0.01642923802
3038,0.1123173907
3039,0.2921251953
3040,0.02186192758
3041,0.1429983824
3042,-0.1102968082
3043,-0.07756942511
3044,0.03628390655
3045,-0.2801964581
3046,0.3472769856
3047,-0.3260267675
3048,-0.2183004916
3049,-0.1871385127
3050,0.1332868189
3051,-0.08381785452
3052,-0.4368122518
3053,-0.06685821712
3054,0.162375316
3055,0.01416547969
3056,-0.04596321657
3057,0.1467970461
3058,-0.2744956315
3059,-0.3340624571
3060,-0.1150864139
3061,-0.2839183807
3062,0.001557756215
3063,-0.1235636398
3064,0.04679680243
3065,-0.2070171088
3066,0.2382427305
3067,0.1153925806
3068,0.05700368062
3069,0.2253460586
3070,-0.07691656053
3071,-0.08452003449
3072,-0.1480148882
3073,0.0144853862
3074,0.1393297613
3075,0.2216023505
3076,-0.3650146425
3077,-0.250964433
3078,0.09783571213
3079,-0.204839319
3080,0.2460876703
3081,-0.1859959215
3082,-0.05674481019
3083,0.3368028402
3084,-0.2405198067
3085,-0.1905858219
3086,0.02258080803
3087,0.005976134446
3088,0.2644661963
3089,-0.02305015922
3090,0.05384141579
3091,0.1035358757
3092,-0.1140289828
3093,-0.1978771091
3094,-0.1534284949
3095,0.1176565066
3096,-0.3296515048
3097,0.006125736516
3098,-0.04079206288
3099,0.1578189731
3100,-0.1654019803
3101,-0.2119889706
3102,0.09493337572
3103,0.2175805867
3104,0.101584211
3105,0.01471608784
3106,0.2197657079
3107,-0.1008415669
3108,-0.1866559386
3109,-0.2159649283
3110,0.03591557965
3111,0.235207811
3112,-0.05330516025
3113,0.1683289856
3114,-0.2935604751
3115,0.3816865087
3116,-0.2319282442
3117,-0.3701659441
3118,0.05619822815
3119,0.1843141615
3120,0.1498954743
3121,-0.2315721959
3122,-0.09009448439
3123,0.1240800917
3124,-0.1890926957
3125,-0.3212828934
3126,0.1238289326
3127,0.2743760049
3128,0.09214693308
3129,0.03828485683
3130,-0.09281831235
3131,0.1978137195
3132,-0.2280028313
3133,0.2645900249
3134,-0.3874980509
3135,-0.2373648286
3136,-0.150481835
3137,-0.2887694538
3138,0.1076685414
3139,0.009533077478
3140,-0.06423224509
3141,-0.3036144078
3142,0.08256450295
3143,0.06784677505
3144,0.4408509135
3145,-0.04126694053
3146,-0.2366590798
3147,0.347896874
3148,-0.002348736627
3149,-0.3383255005
3150,0.3290864825
3151,0.3378217518
3152,-0.1536268145
3153,0.1207196862
3154,-0.2525221109
3155,0.07072227448
3156,0.1872921735
3157,0.0343824625
3158,-0.2635885477
3159,0.5025017262
3160,0.1721882224
3161,0.0742597878
3162,0.1658946574
3163,-0.4268393517
3164,-0.1413668692
3165,0.0426218994
3166,0.2696282864
3167,-0.224257648
3168,0.06470637769
3169,-0.01699049212
3170,0.00945964735
3171,0.09780095518
3172,-0.2654460967
3173,0.1308967769
3174,-0.1419510692
3175,0.2286439985
3176,0.08198074996
3177,0.697186172
3178,0.07614807039
3179,0.25374192
3180,0.1477589309
3181,-0.1885230392
3182,-0.1879700571
3183,0.1650352925
3184,-0.438872844
3185,0.4816690385
3186,-0.1914740801
3187,0.1138387173
3188,-0.1527571678
3189,-0.3197670281
3190,-0.2260528952
3191,0.02310759388
3192,-0.6061073542
3193,-0.2279496193
3194,-0.2914288938
3195,0.03852615878
3196,0.3005690575
3197,0.28189978
3198,0.01078950427
3199,-0.3947838247
3200,-0.02024479769
3201,-0.3583347201
3202,-0.3774475157
3203,-0.14265351
3204,0.1900909841
3205,-0.1132383719
3206,0.2900446057
3207,-0.05384900793
3208,-0.01445242483
3209,-0.1172173023
3210,-0.144671753
3211,0.8040710092
3212,-0.1080705076
3213,-0.2110074908
3214,0.04368140921
3215,0.510158062
3216,-0.332497865
3217,-0.08349333704
3218,0.09205375612
3219,-0.8194736838
3220,0.079604581
3221,0.06598678231
3222,-0.291436553
3223,-0.0002162605524
3224,0.5742028952
3225,-0.4752477407
3226,0.2875213623
3227,-0.27067554
3228,0.1060263366
3229,-0.1968377829
3230,0.1253417581
3231,-0.2781120837
3232,-0.3036369383
3233,-0.5800233483
3234,-0.04343690351
3235,0.05502808839
3236,0.4308760464
3237,-0.2952925861
3238,0.6848799586
3239,-0.07093216479
3240,-0.2191706747
3241,0.610929966
3242,0.3974834383
3243,-0.02855133452
3244,0.1272514462
3245,-0.05850169063
3246,0.2444627583
3247,-0.1691607386
3248,-0.4957427979
3249,0.1252227575
3250,0.2914111316
3251,0.3325770795
3252,-0.1667096615
3253,-0.1944410801
3254,-0.2365995497
3255,0.5607748032
3256,-0.71443367
3257,0.2123137861
3258,-0.1381003261
3259,0.4214938581
3260,0.3929630518
3261,0.3494852185
3262,-0.1975881457
3263,-0.1651820242
3264,0.4811508954
3265,-0.2510427833
3266,0.1600850821
3267,-0.2642170787
3268,0.3815462589
3269,-0.2753302753
3270,0.12362995
3271,-0.3025007248
3272,-0.08604702353
3273,-0.1665308475
3274,-0.1727846265
3275,0.3672241569
3276,-0.1776074171
3277,0.3863626719
3278,0.3264137506
3279,-0.03973916173
3280,-0.48173967
3281,0.5830255747
3282,0.1089452058
3283,-0.2821712196
3284,0.282874316
3285,0.07972532511
3286,-0.564270556
3287,-0.1193920746
3288,-0.3332831264
3289,0.07882940024
3290,-0.1838521957
3291,-0.497574985
3292,-0.1419989169
3293,-0.4246727824
3294,0.01542144269
3295,-0.308796525
3296,0.2470493019
3297,-0.7918214798
3298,-0.6716450453
3299,-0.359290123
3300,-0.9647476673
3301,0.09853903204
3302,-0.1644222736
3303,0.02651407756
3304,0.1166911274
3305,-0.7729660869
3306,-0.3048326969
3307,0.3212754726
3308,-0.5123053789
3309,-0.1648619026
3310,0.302454561
3311,-0.1499698311
3312,0.2993141413
3313,-0.07571730018
3314,-0.2720419765
3315,-0.08630658686
3316,0.2888076901
3317,-0.1139342338
3318,-0.8229916096
3319,0.07362430543
3320,0.003911124077
3321,-0.3333410621
3322,0.262917161
3323,0.1186133698
3324,-0.3271150887
3325,-0.3161655664
3326,-0.33528319
3327,-0.03902181983
3328,-0.2781853974
3329,0.3175020218
3330,0.2460893393
3331,-0.3916481137
3332,-0.01176005602
3333,0.05953209475
3334,0.4738839567
3335,0.2142189443
3336,0.03921141475
3337,-0.08505075425
3338,-0.4206680655
3339,-0.1337838471
3340,-0.4410986304
3341,-0.1368165761
3342,0.3221424222
3343,0.03928036243
3344,-1.003731251
3345,-0.06545874476
3346,-0.243274048
3347,-0.4398389459
3348,-0.09862460941
3349,0.1876597553
3350,0.2197488248
3351,-0.2118632495
3352,-0.2326211184
3353,-0.08404084295
3354,-0.2200389504
3355,0.2699641585
3356,0.2437711656
3357,-0.1464064866
3358,-0.4909284413
3359,-0.01857676543
3360,-0.5679838657
3361,-0.505803287
3362,-0.2320173234
3363,-0.02301431261
3364,-0.0128934728
3365,0.02160444856
3366,0.5348325372
3367,-0.1622528881
3368,-0.23836191
3369,-0.4223541021
3370,0.3152202666
3371,-0.255864948
3372,-0.02410524525
3373,-0.1384408027
3374,0.5063703656
3375,-0.03877727687
3376,0.2071390003
3377,-0.2092459947
3378,0.0850500837
3379,-0.09929265082
3380,-0.1592955589
3381,-0.1026419997
3382,0.281691879
3383,-0.8233578205
3384,0.3600078523
3385,0.04572949931
3386,-0.1879097223
3387,-0.6365211606
3388,-0.2585633993
3389,-0.1523891985
3390,-0.03611656651
3391,-0.1856995821
3392,-0.1221373305
3393,-0.4175989628
3394,0.04389544204
3395,0.07344450057
3396,-0.4517931342
3397,0.07830996811
3398,0.07742779702
3399,0.1580328047
3400,0.1048474833
3401,-0.1480526477
3402,0.6177800894
3403,0.1597458273
3404,0.3402406275
3405,-0.01091988105
3406,0.1962274611
3407,-0.3794814348
3408,-0.1323473155
3409,0.4286744893
3410,-0.0238064155
3411,0.07012990117
3412,0.3503118157
3413,-0.1381088644
3414,0.04390689358
3415,-0.01958993264
3416,-0.08853195608
3417,-0.255682081
3418,-0.1036718413
3419,0.4662985504
3420,0.01093530562
3421,-0.6268156767
3422,-0.08806043863
3423,-0.1299373657
3424,-0.1218654066
3425,0.02312777005
3426,-0.02015154064
3427,0.01654901356
3428,-0.7289260626
3429,-0.114469856
3430,0.2463523895
3431,-0.3669922948
3432,0.2296521515
3433,-0.3274147809
3434,0.152548179
3435,-0.461905092
3436,-0.05577882752
3437,0.2285168022
3438,-0.2383000553
3439,-0.03123036027
3440,0.3483100533
3441,-0.06446457654
3442,-0.1276989728
3443,0.3446167409
3444,0.2276859283
3445,0.3010979593
3446,0.3868130147
3447,-0.2181732059
3448,0.3860887885
3449,0.2532024384
3450,0.1422405541
3451,0.0862422362
3452,-0.4009095728
3453,-0.1557675302
3454,-0.2987242937
3455,0.1676953584
3456,-0.05455597863
3457,0.07853590697
3458,0.1236594245
3459,0.09096711874
3460,-0.3094616234
3461,0.06524018943
3462,0.1640970558
3463,-0.05817940831
3464,-0.2021003366
3465,0.05861143395
3466,0.2953990102
3467,-0.324750334
3468,0.08350237459
3469,-0.07039189339
3470,-0.03060087562
3471,-0.2418179065
3472,0.5899692178
3473,-0.07148742676
3474,-0.1898599863
3475,0.3360172808
3476,0.001400719048
3477,0.0419292897
3478,-0.1543511003
3479,-0.333758533
3480,-0.1925468445
3481,-0.134025842
3482,-0.3056207597
3483,0.3225593567
3484,-0.115813449
3485,-0.1786643565
3486,0.04180868343
3487,-0.007358703762
3488,0.5137809515
3489,-0.100321576
3490,-0.2487377226
3491,0.120295994
3492,0.04213781655
3493,0.01533163246
3494,-0.1008335948
3495,0.09578403085
3496,0.1201310381
3497,-1.085033298
3498,0.2547179759
3499,-0.01328619383
3500,-0.1308267266
3501,-0.2703891993
3502,-0.1983059794
3503,0.380440563
3504,0.3069450855
3505,-0.6121643186
3506,0.2379599661
3507,-0.166047588
3508,-0.1115328223
3509,-0.2409233153
3510,0.3802338839
3511,-0.2248604447
3512,0.1799802184
3513,0.1744210571
3514,-0.2138834596
3515,-0.1591106355
3516,-0.4471147656
3517,0.06180600822
3518,0.3483261168
3519,0.1993001997
3520,-0.590680182
3521,0.4562027454
3522,0.1826059371
3523,0.1957775652
3524,0.2655530572
3525,0.05661819503
3526,-0.5505218506
3527,-0.2622081041
3528,0.07024426758
3529,-0.06154521182
3530,-0.3963039815
3531,0.1195525154
3532,0.2860711217
3533,-0.2186713368
3534,-0.06657323986
3535,-0.1682019979
3536,0.4751845896
3537,-0.1249139011
3538,-0.57148844
3539,-0.1125449017
3540,-0.4229237735
3541,0.2388911694
3542,0.3263850212
3543,-0.5169886947
3544,0.02689543366
3545,0.3903887868
3546,-0.3078812063
3547,0.2395841777
3548,0.194685325
3549,-0.09228716791
3550,-0.5346990824
3551,-0.0354601182
3552,-0.2658479214
3553,0.09345699847
3554,-0.2915699184
3555,-0.2296322137
3556,0.1407152116
3557,-0.04617070407
3558,0.3598089218
3559,-0.2881468534
3560,-0.6024744511
3561,-0.7887301445
3562,0.04808628559
3563,-0.151034072
3564,0.1476682872
3565,-0.2944084704
3566,-0.2820097208
3567,0.04928268865
3568,-0.2746722698
3569,-0.3089329004
3570,0.05207165703
3571,0.2743131518
3572,-0.3008681536
3573,0.1697016954
3574,0.1289310455
3575,-0.1518692821
3576,0.1369659156
3577,-0.2386008203
3578,-0.1213455126
3579,-0.03562199697
3580,-0.02694918402
3581,0.1855897903
3582,0.1251387447
3583,0.1995613724
3584,0.05282187462
3585,0.03100737184
3586,-0.284922421
3587,0.3277315497
3588,-0.06599345803
3589,-0.1312366575
3590,0.04346425459
3591,0.001124609029
3592,0.3321689069
3593,0.1030415371
3594,-0.2449100763
3595,0.2821780741
3596,-0.5272378922
3597,-0.08067043126
3598,-0.1019227803
3599,-0.7056373358
3600,-0.1756716073
3601,0.1803910881
3602,-0.3193457723
3603,-0.5397151709
3604,0.1692814231
3605,-0.2030011863
3606,-0.1886405498
3607,-0.5838131905
3608,-0.08117941767
3609,0.06548479199
3610,-0.1895197183
3611,0.430084914
3612,-0.201055333
3613,0.04701055214
3614,-0.06446558982
3615,0.08108702302
3616,0.4015597105
3617,-0.2133315653
3618,0.2194592506
3619,-0.2845158577
3620,-0.04818526655
3621,-0.09132480621
3622,-0.3308928907
3623,0.1800704747
3624,0.07612127066
3625,0.2503606677
3626,0.2485020608
3627,0.2313172668
3628,0.2259114981
3629,-0.06704805046
3630,0.03497488424
3631,-0.1058400795
3632,0.06905465573
3633,0.04666095972
3634,-0.07763478905
3635,0.129390642
3636,0.02820800804
3637,0.1158497036
3638,0.2580143213
3639,-0.1292703897
3640,0.4026066661
3641,-0.1081404611
3642,0.2580995262
3643,0.2160318494
3644,-0.04968754947
3645,-0.01320201997
3646,-0.5361270308
3647,-0.2668783963
3648,0.2156013101
3649,0.04318272322
3650,0.3914759457
3651,-0.01781649888
3652,0.4241275191
3653,0.1297674179
3654,-0.4707498252
3655,0.1840798259
3656,0.3613387644
3657,0.2332742363
3658,-0.3323688805
3659,-0.1737044007
3660,-0.1217789799
3661,0.04810812697
3662,-0.4110393226
3663,0.05732502043
3664,-0.4566616118
3665,-0.04436823353
3666,0.06472010165
3667,0.1006887555
3668,-0.3374257982
3669,-0.08078856021
3670,-0.539720118
3671,0.1064108685
3672,0.005658220965
3673,0.383813262
3674,-0.1158014908
3675,0.2030003071
3676,-0.4571428299
3677,0.1848135144
3678,0.1016498506
3679,0.02846013196
3680,0.7853823304
3681,0.1169750094
3682,0.09534138441
3683,0.258859992
3684,-0.0243270006
3685,-0.003485365538
3686,-0.323677808
3687,0.7176952958
3688,-0.1023154333
3689,-0.35323295
3690,-0.1407985538
3691,0.1176839843
3692,-0.2319470495
3693,0.3088226318
3694,-0.1432390809
3695,0.1701737642
3696,0.1917393357
3697,-0.4703276157
3698,-0.2956880927
3699,-0.6382659078
3700,-0.1847854257
3701,0.1126912907
3702,-0.1530556381
3703,-0.4831045568
3704,0.5249435902
3705,0.1479197443
3706,0.07639186829
3707,-0.5311341882
3708,0.437826544
3709,-0.1680362523
3710,0.175135985
3711,-0.2243154347
3712,0.138354063
3713,0.4528469145
3714,0.0167776309
3715,0.2142142504
3716,-0.2838279605
3717,-0.1352891922
3718,-0.2919211984
3719,0.02553036064
3720,-0.00509337103
3721,0.2776730955
3722,-1.018610239
3723,0.1466318965
3724,-0.2716290057
3725,-0.04925141856
3726,0.06868779659
3727,0.254619509
3728,0.05147153884
3729,-0.06234098226
3730,-0.06327305734
3731,0.1721674055
3732,-0.06328755617
3733,-0.3042224944
3734,0.08069593459
3735,-0.1833196133
3736,0.3678891063
3737,-0.0845053196
3738,-0.2826393843
3739,0.009251346812
3740,0.1272758096
3741,0.3221353889
3742,0.2047397047
3743,0.3156841397
3744,-0.07899545133
3745,0.3082931042
3746,0.1526275575
3747,-0.3065651357
3748,-0.116502434
3749,0.2657698095
3750,-0.1786552221
3751,-0.1393648088
3752,-0.4138745368
3753,0.08542213589
3754,0.338047564
3755,-0.1075526327
3756,0.3445784748
3757,-0.007485336158
3758,-0.1215619817
3759,0.3802943528
3760,0.2838464379
3761,-0.3226140738
3762,0.2728637457
3763,-0.2970089614
3764,0.1114041805
3765,0.1289065927
3766,-0.0973283276
3767,-0.0968215242
3768,-0.2869533896
3769,0.04722928628
3770,-0.08880351484
3771,0.1354968697
3772,0.2937729061
3773,-0.07645238936
3774,0.3892311454
3775,0.2011397332
3776,-0.3774010539
3777,-0.1309651881
3778,0.07099046558
3779,0.25553599
3780,-0.1849424392
3781,0.1078699157
3782,-0.1570477039
3783,-0.3276578486
3784,0.1435317993
3785,-0.22867015
3786,-0.1226261407
3787,-0.00114306563
3788,-0.04621188343
3789,-0.2386504859
3790,-0.01393629611
3791,-0.2706245482
3792,-0.1423939914
3793,0.008017113432
3794,-0.06367120892
3795,-0.3944314122
3796,-0.2632786334
3797,-0.1110295579
3798,-0.2632855177
3799,0.0176561866
3800,-0.1293399781
3801,0.2825261354
3802,0.1252936572
3803,0.1497053355
3804,-0.05477328598
3805,-0.1700162739
3806,-0.153740257
3807,0.01558253914
3808,-0.2830027938
3809,0.2787768841
3810,-0.0450822413
3811,0.04068114236
3812,-0.359446913
3813,-0.2426783144
3814,0.009375348687
3815,-0.2031152695
3816,-0.2055932283
3817,0.1924473941
3818,0.1968910098
3819,-0.2183533907
3820,-0.2961347699
3821,0.02359444462
3822,0.06194481626
3823,0.1095672697
3824,-0.1413780004
3825,-0.03957302496
3826,-0.2231762707
3827,-0.2938435078
3828,0.1306745857
3829,-0.340756923
3830,-0.07500585169
3831,0.1009333804
3832,-0.09499140829
3833,0.1992935836
3834,-0.1874509156
3835,-0.0605952777
3836,-0.2937867641
3837,-0.04885479808
3838,-0.4333559871
3839,-0.05900357291
3840,-0.2012250572
3841,-0.6582446098
3842,0.06300848722
3843,-0.2666138113
3844,0.2913540006
3845,0.168759048
3846,0.1157042086
3847,-0.2634911537
3848,0.08099833131
3849,-0.3781387508
3850,0.1354518086
3851,0.2879446149
3852,0.1242683306
3853,0.272811681
3854,0.4249610007
3855,0.06212724
3856,0.2326835394
3857,-0.5891602039
3858,0.05734588206
3859,-0.3173102736
3860,-0.1420370489
3861,-0.2480475903
3862,0.1117231473
3863,0.02966371179
3864,-0.0363515839
3865,0.1801526845
3866,0.2191086709
3867,0.06490788609
3868,0.2603501678
3869,0.4265165329
3870,0.1517634541
3871,0.1372285038
3872,0.1181055978
3873,0.44368577
3874,0.2756409943
3875,-0.1940949708
3876,-0.4610612392
3877,-0.1805691719
3878,-0.104528591
3879,0.2982442975
3880,0.1254882514
3881,-0.4887924194
3882,0.2234099954
3883,-0.4430396855
3884,0.07610632479
3885,-0.02716194093
3886,0.204569608
3887,-0.08570596576
3888,-0.2944139838
3889,-0.6109048724
3890,-0.3820435405
3891,0.2110261917
3892,-0.1155486703
3893,-0.2824895978
3894,-0.1555267274
3895,0.07510745525
3896,0.3827694654
3897,-0.2971531749
3898,-0.06042362377
3899,0.1077914163
3900,0.1179884821
3901,0.09074871987
3902,-0.1818053722
3903,-0.2394133359
3904,-0.04953701794
3905,0.06342931092
3906,-0.1355217695
3907,-0.2174476683
3908,-0.1594237089
3909,0.1400258094
3910,-0.1213275939
3911,0.1012669653
3912,0.06722404808
3913,0.08472817391
3914,-0.2254828662
3915,-0.01537963562
3916,0.09653902054
3917,-0.1613860577
3918,-0.148185268
3919,-0.3030487597
3920,0.1799464822
3921,0.2230495661
3922,0.1537123471
3923,0.05667173862
3924,0.2177705169
3925,0.02265653946
3926,-0.0803764388
3927,0.1837972254
3928,0.01042799931
3929,0.2909160852
3930,0.02499525622
3931,0.045152843
3932,0.1051732227
3933,-0.1295194328
3934,-0.07939953357
3935,0.2435033172
3936,-0.2299981266
3937,-0.2835824192
3938,0.1117905006
3939,0.04225454107
3940,0.2586648762
3941,-0.1804789901
3942,0.01051025093
3943,-0.08201784641
3944,0.19981727
3945,0.1733326763
3946,0.03130786493
3947,-0.2375380099
3948,-0.1227461025
3949,0.04689668119
3950,0.300755769
3951,0.1168373078
3952,-0.03482526541
3953,0.1946658641
3954,-0.1798985749
3955,0.2369054705
3956,-0.1019962057
3957,-0.1422608346
3958,-0.0367458351
3959,0.2220565528
3960,0.2647713423
3961,-0.2521617115
3962,-0.05020526424
3963,-0.01003072225
3964,0.2296029478
3965,0.1805915385
3966,-0.01104895119
3967,-0.2695831358
3968,-0.1395546794
3969,0.0267911423
3970,0.01921818033
3971,0.256840378
3972,-0.1483608335
3973,-0.251327306
3974,0.2246170491
3975,-0.2633153796
3976,0.05572608858
3977,0.2727500498
3978,-0.2281208634
3979,0.05537729338
3980,-0.08595287055
3981,0.2347656935
3982,0.2181261033
3983,0.2757495642
3984,-0.2716375291
3985,-0.258928895
3986,0.2426028848
3987,0.02799240127
3988,-0.1205897927
3989,-0.1798778027
3990,-0.3000257313
3991,0.3006666005
3992,0.03734796122
3993,-0.2177222818
3994,0.06647161394
3995,0.3034446239
3996,-0.2734816968
3997,0.2463021129
3998,-0.01603216678
3999,-0.1861681789
4000,0.09654992819
4001,-0.2366887778
4002,0.187080428
4003,0.02585450932
4004,0.101146847
4005,-0.1834512502
4006,0.30308339
4007,-0.1742882282
4008,0.04838892072
4009,0.1125843078
4010,-0.2272088975
4011,-0.1163477153
4012,0.1769262403
4013,-0.08537470549
4014,0.2054802775
4015,-0.29668957
4016,0.1746279597
4017,0.2084668279
4018,-0.1202339903
4019,0.1309690028
4020,-0.1654519439
4021,0.05341076851
4022,-0.2992870212
4023,-0.143433094
4024,0.01534240227
4025,-0.2962418199
4026,0.1870669872
4027,0.008678626269
4028,-0.2775824964
4029,-0.04527727515
4030,0.2884601653
4031,-0.150473386
4032,-0.04604389518
4033,0.4101292491
4034,0.3031647205
4035,-0.1234585494
4036,0.2742860019
4037,0.1618013233
4038,-0.4200776815
4039,-0.2833548188
4040,0.1072638407
4041,-0.1705252975
4042,-0.3398076594
4043,-0.2040385902
4044,-0.545678854
4045,-0.3041997254
4046,0.03901539743
4047,0.2806834877
4048,-0.3184614778
4049,0.4371560216
4050,-0.1888343245
4051,0.1094148085
4052,0.447145313
4053,-0.02819846384
4054,0.3459025919
4055,0.1596097648
4056,0.02201092057
4057,0.06380201131
4058,-0.07760267705
4059,0.01961635053
4060,0.06128753722
4061,-1.144095302
4062,-0.409083128
4063,-0.06852541119
4064,-0.5891649723
4065,-0.1902267784
4066,-0.09424606711
4067,0.1708627939
4068,0.451939702
4069,-0.2260261327
4070,-0.1097226143
4071,0.1757785678
4072,0.2856168747
4073,0.5636469126
4074,0.3461529016
4075,-0.3901524246
4076,-0.1499018073
4077,0.02972541749
4078,0.05157001689
4079,0.2596234083
4080,0.3475013673
4081,-0.06098018214
4082,-0.1852736622
4083,-0.09787032008
4084,-0.003207239788
4085,-0.116433695
4086,-0.02306056581
4087,-0.1577409357
4088,0.2374972552
4089,0.1277574748
4090,-0.4346650839
4091,-0.1746478528
4092,0.3032550514
4093,0.1702733934
4094,-0.7811696529
4095,0.4082269967
4096,-0.2443584204
4097,-0.1339512616
4098,-0.1239155382
4099,0.07284983248
4100,-0.4191999435
4101,-0.1742804945
4102,-0.1209649667
4103,-0.2360584587
4104,-0.3376036286
4105,0.2093332112
4106,-0.2481041998
4107,0.2301745713
4108,0.09876986593
4109,-0.2468585074
4110,0.0837341994
4111,0.1318312734
4112,-0.2723060846
4113,0.1198942065
4114,-0.2568309009
4115,-0.001533161849
4116,0.1873864532
4117,-0.1131010428
4118,0.1063057259
4119,0.01976703852
4120,-0.008383301087
4121,-0.2058196664
4122,0.0360718593
4123,-0.243228361
4124,0.2541584671
4125,-0.1894100904
4126,-0.3039014339
4127,-0.1209053621
4128,0.08838415891
4129,0.1395921856
4130,-0.2248523235
4131,-0.1199778244
4132,-0.4746865034
4133,0.06351608038
4134,0.1027307361
4135,-0.045752462
4136,0.1427753568
4137,-0.2149826437
4138,0.1466931999
4139,0.1299482733
4140,-0.007597745396
4141,0.1983546317
4142,0.00824218709
4143,-0.02653484605
4144,-0.1518488079
4145,-0.3842818737
4146,-0.1183814183
4147,-0.09774393588
4148,0.1838117987
4149,-0.04939062148
4150,0.04593000934
4151,0.285480082
4152,0.2979774475
4153,-0.06202481687
4154,0.1474634558
4155,-0.03431639448
4156,-0.1224470288
4157,-0.2757116854
4158,-0.4084756076
4159,0.2991554439
4160,-0.1042211577
4161,-0.2799392641
4162,0.1430517733
4163,-0.2995913327
4164,-0.666429162
4165,0.2124657184
4166,0.220696941
4167,-0.06096245721
4168,0.112267442
4169,-0.07164468616
4170,0.2742303014
4171,-0.3112702966
4172,-0.03661747649
4173,-0.2316227406
4174,-0.1873690486
4175,0.03787693381
4176,0.2161646932
4177,-0.2670742869
4178,0.3316445351
4179,0.2992063165
4180,-0.3883431852
4181,-0.1081103608
4182,-0.01765776984
4183,-0.3584335148
4184,-0.2006439269
4185,-0.1050763205
4186,-0.2050274312
4187,-0.03849784657
4188,0.0702445358
4189,-0.04370472208
4190,-0.04348182306
4191,-0.05765807256
4192,0.6245414615
4193,0.04297527298
4194,-0.01951035298
4195,0.4770544171
4196,0.1543873847
4197,-0.06145929918
4198,0.3771328628
4199,-0.3183859587
4200,0.1600446552
4201,-1.19699049
4202,-0.2041949779
4203,0.2551887035
4204,-0.05553638563
4205,0.01297106314
4206,0.2064882666
4207,-0.2009066641
4208,0.3657570183
4209,-0.5610294342
4210,-0.5541632771
4211,-0.2278939486
4212,-0.1270995885
4213,-0.06152392179
4214,0.3517236114
4215,-0.4294882119
4216,-0.02238833532
4217,-0.4630992115
4218,-0.1154254004
4219,-0.5050019622
4220,0.4097001255
4221,0.3993355036
4222,0.4913783073
4223,-0.785138905
4224,0.1322190464
4225,0.0563271977
4226,0.2333224863
4227,0.245435819
4228,-0.2805564702
4229,0.1057406887
4230,0.2097699642
4231,-0.2869295478
4232,0.01845076866
4233,0.1447802633
4234,-0.05727533251
4235,-0.09269850701
4236,0.2242838144
4237,-0.2818199098
4238,-0.01503381412
4239,-0.1130990535
4240,0.06382073462
4241,0.3000706732
4242,-0.06914313138
4243,0.1485922933
4244,0.0003974623978
4245,-0.1824868321
4246,-0.2026673257
4247,0.3045465052
4248,-0.1941359788
4249,-0.0505245477
4250,-0.06574347615
4251,-0.002019326668
4252,-0.2894151211
4253,0.2686661184
4254,0.1650369167
4255,0.05348620191
4256,0.07620154321
4257,0.1197094023
4258,-0.003038718831
4259,0.2611968517
4260,-0.1335375011
4261,-0.4534116983
4262,0.08733721823
4263,-0.147618413
4264,0.2072182894
4265,0.295986712
4266,-0.1450465918
4267,0.1943053901
4268,-0.2252535224
4269,-0.1185694337
4270,-0.2556518316
4271,-0.3308110535
4272,-0.1550276726
4273,-0.03831579909
4274,-0.247658208
4275,0.03804592416
4276,-0.284349978
4277,0.01208870299
4278,-0.1896662265
4279,0.002295095008
4280,-0.005002351943
4281,0.04671063647
4282,0.1476207972
4283,0.04206077009
4284,0.3333211541
4285,0.267118454
4286,0.2717324793
4287,-0.2606639862
4288,0.2409859598
4289,0.2420536131
4290,0.1545601934
4291,0.1709894836
4292,-0.3524644375
4293,-0.2093911022
4294,0.3004724085
4295,0.1979321241
4296,-0.3149543107
4297,0.3172580898
4298,-0.2146856487
4299,0.0758068338
4300,-0.3532598317
4301,-0.01376650948
4302,0.1515630037
4303,-0.1857106984
4304,0.2142069191
4305,-0.1600570679
4306,-0.08664596081
4307,-0.1955524385
4308,-0.3932078481
4309,0.2420366555
4310,0.0881799981
4311,0.09796903282
4312,-0.1939864755
4313,-0.0006873607635
4314,-0.002006497933
4315,-0.2292549014
4316,0.2220565677
4317,0.2035620958
4318,0.08317746222
4319,0.2700139582
4320,-0.5790057778
4321,0.0352460891
4322,-0.1689780056
4323,-0.3442072868
4324,-0.04405117035
4325,0.05966345966
4326,0.3272632062
4327,0.2598188221
4328,0.2862465978
4329,0.3507180214
4330,-0.276019454
4331,0.110246405
4332,0.2933615148
4333,0.3006950319
4334,0.2027063668
4335,0.02778883092
4336,0.08251708746
4337,-0.5218168497
4338,-0.601141572
4339,0.05503308773
4340,-0.2553153932
4341,0.1443366706
4342,-0.1049883813
4343,-0.06483135372
4344,0.001515710726
4345,-0.2335136533
4346,0.07298356295
4347,-0.03503935039
4348,0.3346198499
4349,0.1078146696
4350,-0.2078969032
4351,-0.4104378521
4352,-0.2480891794
4353,0.2989864945
4354,0.08155874908
4355,0.0553525202
4356,-0.4334515929
4357,-0.1874266416
4358,0.3885182142
4359,0.136886999
4360,0.04355531558
4361,0.3995961249
4362,0.2412449867
4363,-0.02711687982
4364,0.4378321767
4365,-0.01903656498
4366,0.18277812
4367,-0.3139236867
4368,-0.1497379094
4369,0.4842062593
4370,0.1527775824
4371,0.208009541
4372,-0.06057003886
4373,0.2419454306
4374,0.4170820415
4375,-0.1367011815
4376,-0.2092383206
4377,0.2637169659
4378,0.1841235459
4379,0.4132565558
4380,-0.09333145618
4381,0.1673164368
4382,0.1882592887
4383,0.3906151056
4384,0.1435745209
4385,0.08686711639
4386,-0.1501217782
4387,-0.1891977787
4388,-0.3256770968
4389,0.1082019359
4390,0.2506840229
4391,-0.1047378406
4392,-0.09231627733
4393,-0.367590189
4394,-0.03547720239
4395,0.3677884936
4396,0.182474643
4397,0.1786207557
4398,-0.1356026977
4399,0.06328456104
4400,0.1634999514
4401,-0.325150907
4402,-0.5341119766
4403,-0.2420393378
4404,-0.2083542943
4405,-0.1026479676
4406,0.1538905203
4407,-0.3620523214
4408,0.04409308732
4409,-0.6564685702
4410,0.09273319691
4411,-0.1071643308
4412,-0.1903810352
4413,-0.08723745495
4414,0.1457172483
4415,-0.1185999215
4416,-0.208648026
4417,-0.4590201974
4418,0.2803944051
4419,-0.1993445903
4420,-0.05646368116
4421,0.01285375841
4422,-0.2236298323
4423,-0.2036982924
4424,-0.1366102099
4425,0.05470127612
4426,-0.01266402472
4427,0.1674349308
4428,-0.2654752433
4429,-0.241389662
4430,-0.09346045554
4431,-0.3605881929
4432,-0.3751339912
4433,0.1209374517
4434,0.0227133818
4435,-0.09400750697
4436,-0.396553278
4437,-0.1080266684
4438,-0.001295978553
4439,0.1739750803
4440,-0.6956127882
4441,0.02623772807
4442,-0.3146890104
4443,-0.09424432367
4444,0.06757327914
4445,-0.0942446515
4446,0.1342304349
4447,0.2636677623
4448,-0.4140702188
4449,0.1602767408
4450,-0.07429944724
4451,-0.216974169
4452,-0.1381153613
4453,-0.1483418047
4454,0.2698668838
4455,0.2927237451
4456,-0.2907866836
4457,-0.01835285127
4458,0.01171287801
4459,0.3559390604
4460,-0.1141988784
4461,-0.1953852773
4462,0.06947974861
4463,-0.4207002521
4464,0.1796521097
4465,0.3187833428
4466,-0.361318469
4467,0.1833929867
4468,-0.03764133155
4469,-0.204715237
4470,0.05823720992
4471,-0.09365238994
4472,0.2810659409
4473,-0.1031838804
4474,0.2941067517
4475,0.05374108627
4476,-0.002489646198
4477,0.2159170359
4478,-0.502094686
4479,-0.359290272
4480,-0.1190610826
4481,0.1333338618
4482,-0.3552678525
4483,-0.3631083965
4484,-0.3755128682
4485,-0.2926256657
4486,-0.2103200257
4487,0.1787947565
4488,-0.2069639415
4489,0.4030176401
4490,-0.933809042
4491,-0.03278381005
4492,0.1765921116
4493,-0.1672115773
4494,-0.02580213547
4495,0.08179717511
4496,-0.4505513012
4497,0.337883234
4498,0.3183011413
4499,-0.2907063961
4500,0.05182924867
4501,0.1408852488
4502,0.1086710617
4503,-0.08034577221
4504,-0.03874428943
4505,-0.144095093
4506,-0.1669873446
4507,0.3697586954
4508,0.245747894
4509,-0.05648260936
4510,0.3156785965
4511,0.2191176414
4512,-0.3270834684
4513,-0.3131098747
4514,0.2907979488
4515,-0.001760212122
4516,0.1319186836
4517,0.1930641234
4518,0.166906476
4519,0.09905972332
4520,-0.2974725664
4521,-0.324195981
4522,-0.3632263839
4523,-0.02713156864
4524,0.08501458168
4525,-0.2669991255
4526,-0.0935466215
4527,-0.1560383141
4528,-0.2007661909
4529,-0.3121882379
4530,0.2473136336
4531,0.03747868538
4532,-0.06632964313
4533,0.08371683955
4534,-0.07411889732
4535,0.09183804691
4536,-0.3090414405
4537,-0.5859742761
4538,0.07699269801
4539,0.362552762
4540,-0.06863036752
4541,0.06250344217
4542,0.2247563303
4543,0.06523824483
4544,-0.2808923721
4545,-0.2780628502
4546,-0.1854881942
4547,-0.1576299518
4548,0.1836701483
4549,-0.03109855764
4550,0.05923654512
4551,-0.2361000925
4552,0.201040864
4553,-0.1686633229
4554,0.06857825071
4555,0.3553420603
4556,-0.08504496515
4557,0.1092946082
4558,-0.09822430462
4559,0.3143809736
4560,0.02886330523
4561,0.2121398002
4562,-0.2241706699
4563,0.09865040332
4564,-0.1814481318
4565,-0.2682900429
4566,-0.2862576842
4567,-0.1298619062
4568,-0.02698360197
4569,-0.1877699792
4570,0.2501752675
4571,-0.1308867484
4572,0.351239562
4573,0.06688121706
4574,0.2039618045
4575,-0.1055430844
4576,-0.3298489153
4577,0.09317573905
4578,0.1065150946
4579,-0.4768890738
4580,0.2034460157
4581,0.07829549909
4582,0.4031617641
4583,0.1283174604
4584,0.2054871321
4585,0.2362124026
4586,-0.2172504067
4587,-0.1253799796
4588,0.0877686888
4589,0.03225193173
4590,-0.07570266724
4591,0.2035407275
4592,-0.3298965693
4593,0.1723055691
4594,-0.2363580018
4595,-0.0353208743
4596,-0.1831295192
4597,-0.1021507308
4598,-0.2141545713
4599,-0.2690944076
4600,-0.1118849963
4601,-0.03475466743
4602,-0.2106647193
4603,-0.001259787008
4604,0.2468867302
4605,-0.2633765042
4606,-0.2851186693
4607,-0.2675842047
4608,-0.003714429913
4609,0.1141711399
4610,-0.07383309305
4611,-0.1447110623
4612,0.05073206872
4613,-0.07412946224
4614,0.1923581511
4615,-0.1764866859
4616,0.2594799697
4617,-0.3296319246
4618,0.09615632147
4619,-0.2760531902
4620,0.3031029701
4621,-0.3198349178
4622,0.2194209397
4623,-0.5261792541
4624,-0.2423007041
4625,0.3874801993
4626,-0.2100989223
4627,-0.2919409573
4628,0.2220318168
4629,0.1640099287
4630,0.713889122
4631,-0.2131629884
4632,-0.03232267871
4633,-0.168934077
4634,-0.2614066601
4635,0.4929634631
4636,0.07131769508
4637,0.1113372669
4638,-0.1750104725
4639,-0.1150895432
4640,-0.8342804313
4641,0.03251038492
4642,0.3251878321
4643,0.1002378687
4644,-0.2948060334
4645,-0.3047213554
4646,0.5552713871
4647,-0.0423114039
4648,-0.05664183572
4649,0.08893667161
4650,-0.07197304815
4651,-0.1640621424
4652,-0.1870336235
4653,-0.2133740187
4654,-0.2431147397
4655,0.2070406675
4656,-0.01212225854
4657,-0.1577874869
4658,-0.07693430036
4659,-0.3769309223
4660,0.1274421364
4661,0.03856305778
4662,-0.1467611045
4663,-0.1642447412
4664,0.3592100441
4665,0.1871228963
4666,-0.2761119604
4667,0.2037207931
4668,0.3170670271
4669,-0.006318511441
4670,-0.05780530348
4671,0.08204194158
4672,0.1085724309
4673,0.01891182549
4674,0.04282160103
4675,0.2756406963
4676,-0.3973363638
4677,-0.2130347192
4678,-0.5612823963
4679,-0.08795333654
4680,-0.2139246017
4681,-0.1232682392
4682,-0.006142722908
4683,0.1058135852
4684,-0.2671307027
4685,-0.1749922484
4686,-0.4789737165
4687,0.0182647109
4688,0.9927093983
4689,-0.1585573703
4690,0.4681649506
4691,0.3201155961
4692,-0.4079444408
4693,-0.004288504831
4694,0.4898988307
4695,-0.2219013572
4696,0.2715016603
4697,0.2378458977
4698,0.1778657734
4699,0.1755588204
4700,-0.2062024921
4701,-0.2349342853
4702,-0.1854145676
4703,0.0526856333
4704,-0.3036606908
4705,0.6685382724
4706,-0.2673142552
4707,-0.2640497088
4708,-0.02564953268
4709,-0.2079579085
4710,-0.5522502661
4711,-0.5250707865
4712,-0.03180667758
4713,-0.6248857975
4714,0.17027466
4715,-0.07201810181
4716,0.3043418229
4717,-0.1232391596
4718,-0.2633031309
4719,0.09789448977
4720,-0.06730527431
4721,-0.4114319682
4722,-0.1868875176
4723,0.3892148733
4724,-0.06818172336
4725,0.192592442
4726,0.2946444452
4727,0.2503439188
4728,-0.1018259749
4729,-0.2077713162
4730,-0.2001680732
4731,0.3290716708
4732,-0.4840942323
4733,0.5956681371
4734,-0.08028758317
4735,-0.06739996374
4736,0.1278645098
4737,0.1086564511
4738,0.1262161732
4739,0.273221761
4740,0.03108162805
4741,-0.09936755151
4742,-0.2844884694
4743,0.2541842461
4744,-0.2220611125
4745,-0.02893078513
4746,-0.4882106483
4747,-0.3060881197
4748,-0.3714623153
4749,-0.05214338377
4750,0.1163785085
4751,-0.2761489749
4752,0.7180283666
4753,-0.2561822832
4754,-0.1807432622
4755,0.3610785902
4756,-0.1531985104
4757,-0.1075853631
4758,-0.03045341931
4759,-0.2154605687
4760,-0.02123484015
4761,0.1372776181
4762,0.2428280413
4763,0.0621114783
4764,-0.08163939416
4765,0.2197538465
4766,-0.152206257
4767,-0.1091826484
4768,-0.6925119758
4769,0.1092347503
4770,0.001190214651
4771,-0.1230077073
4772,0.2395245135
4773,-0.2996309102
4774,-0.3389668167
4775,0.2430445552
4776,0.05562938005
4777,-0.468218416
4778,-0.002366064116
4779,-0.1045657247
4780,-0.2897905707
4781,0.04884495214
4782,0.252337724
4783,-0.1086320654
4784,-0.3667076528
4785,-0.287458241
4786,0.008233080618
4787,0.3144407868
4788,-0.1035225391
4789,-0.0009830681374
4790,0.2168415338
4791,-0.2222940773
4792,-0.2248969674
4793,-0.3899786472
4794,-0.2951905131
4795,-0.3597537875
4796,-0.1382191032
4797,0.1254955381
4798,-0.03645960242
4799,-0.4791626334
4800,0.2473410368
4801,-0.3715689182
4802,0.2949542999
4803,-0.3378851712
4804,0.2206394523
4805,-0.1468298137
4806,-0.1758641154
4807,-0.158297047
4808,-0.275704056
4809,0.05819497257
4810,0.5119160414
4811,0.1216201931
4812,-0.5791560411
4813,0.2942000628
4814,0.3233596683
4815,-0.03930042312
4816,-0.2929348946
4817,0.2484287322
4818,0.2740504146
4819,-0.4636162519
4820,0.167573303
4821,-0.2782945335
4822,-0.1164630875
4823,-0.08548597246
4824,-0.4196072817
4825,-0.1107807234
4826,-0.2028353661
4827,-0.1468008161
4828,-0.2808933556
4829,-0.6385303736
4830,0.1748048812
4831,-0.3236891627
4832,0.09498981386
4833,-0.04594479874
4834,-0.1047396138
4835,0.1567224115
4836,0.1761581302
4837,-0.5600164533
4838,-0.1439399868
4839,0.1281525642
4840,0.1196040139
4841,-0.1553569138
4842,-0.2804005146
4843,0.05098681524
4844,-0.1874333471
4845,0.1031456068
4846,-0.2873927355
4847,-0.0526695922
4848,0.08181341738
4849,-0.1548414975
4850,0.1731878221
4851,-0.1359618008
4852,0.1244680882
4853,-0.1246427819
4854,-0.1795190573
4855,0.03353599831
4856,-0.09967235476
4857,0.06538311392
4858,-0.1594798714
4859,-0.3289860487
4860,0.3819502592
4861,-0.04621057212
4862,-0.4475975633
4863,0.1916018128
4864,0.05957616866
4865,-0.1568054259
4866,-0.09645202756
4867,-0.03851409256
4868,-0.1999487579
4869,0.01895529404
4870,-0.3101647794
4871,-0.1697580963
4872,0.04185316339
4873,0.266530931
4874,-0.2628331482
4875,0.3189283013
4876,-0.3114335239
4877,0.02160714194
4878,0.04097224772
4879,-0.004019786138
4880,-0.2238077223
4881,0.1787362695
4882,-0.242377609
4883,-0.1954040229
4884,-0.2441041768
4885,-0.08519612998
4886,0.09940644354
4887,-0.2299682647
4888,-0.5621908903
4889,0.08300276101
4890,-0.3183790743
4891,-0.1488003284
4892,-0.0130653372
4893,-0.3418352604
4894,0.03936118633
4895,-0.3068102896
4896,-0.5654710531
4897,-0.4824753702
4898,-0.183583647
4899,0.2613061666
4900,-0.1541549414
4901,-0.1108017787
4902,-0.2833079696
4903,0.0340186581
4904,-0.02582419105
4905,0.333114475
4906,0.1508173347
4907,0.3047913611
4908,-0.2590661943
4909,-0.07946056128
4910,-0.2107743472
4911,-0.0537151508
4912,-0.1626623422
4913,-0.2105588913
4914,-0.3887300193
4915,0.2067920268
4916,0.1170670837
4917,0.1204921603
4918,-0.3907314837
4919,-0.06249806285
4920,0.2292949408
4921,0.1844787151
4922,0.2686037123
4923,-0.1687160581
4924,0.2262267917
4925,-0.03262440115
4926,-0.09073142707
4927,0.4531912506
4928,0.05114226043
4929,-0.2236894518
4930,-0.2203985453
4931,-0.115303196
4932,0.03609852493
4933,-0.2047222257
4934,0.2194658071
4935,-0.2306100726
4936,0.3476397097
4937,0.02983860113
4938,-0.1199808493
4939,-0.08094479144
4940,0.008057467639
4941,0.2173416615
4942,-0.0723586157
4943,0.2889337838
4944,-0.4080312252
4945,0.03903155029
4946,0.06410656869
4947,0.0303368587
4948,0.04507602379
4949,0.02814606763
4950,0.2402900308
4951,-0.2290069312
4952,-0.111047931
4953,-0.04258038849
4954,0.1836118847
4955,-0.1922810525
4956,-0.3609473109
4957,0.0240669027
4958,-0.2549377382
4959,0.2720949948
4960,-0.201693669
4961,-0.1735254079
4962,0.4381386936
4963,0.1251384318
4964,0.01002640743
4965,0.02675582841
4966,0.1648251116
4967,0.07712400705
4968,-0.05749890208
4969,0.07451933622
4970,0.1938308626
4971,-0.1590230614
4972,0.2317780405
4973,0.2080316693
4974,0.03130627796
4975,0.3067886233
4976,0.2049819976
4977,0.05176679045
4978,-0.2345826328
4979,-0.2666452229
4980,-0.06875076145
4981,0.03249453753
4982,0.05722258985
4983,-0.2929367125
4984,0.0740968585
4985,0.2152792513
4986,-0.3212797642
4987,-0.1199908853
4988,-0.1530865431
4989,0.167469427
4990,-0.1132081077
4991,0.0686802268
4992,-0.3219005466
4993,-0.6710004807
4994,0.3485316336
4995,-0.07721833885
4996,-0.04538531229
4997,0.2285098881
4998,0.2081191689
4999,-0.03843940794
5000,-0.3102787137
5001,0.1578312963
5002,-0.3027522564
5003,0.1290508062
5004,0.05283565447
5005,0.04813977703
5006,0.2332555354
5007,-0.4909638464
5008,0.03429214284
5009,0.03461677209
5010,-0.6053068638
5011,-0.07176208496
5012,-0.281046778
5013,-0.008862587623
5014,-0.01395649184
5015,-0.1768539846
5016,-0.4316529632
5017,0.04443223402
5018,-0.04277424142
5019,0.203779012
5020,0.01016903482
5021,-0.6201931238
5022,0.173259154
5023,-0.1782787144
5024,-0.8705278635
5025,-0.07565784454
5026,0.2010650784
5027,-1.055777311
5028,-0.2372844666
5029,0.2908376455
5030,-0.02431092039
5031,0.2186480612
5032,-0.2289065868
5033,0.4433556199
5034,-0.2144719213
5035,-0.000395699084
5036,-0.5698722601
5037,-0.1697442085
5038,-0.1330882162
5039,-0.1707611233
5040,-0.6297258139
5041,0.3141449392
5042,-0.3747249544
5043,0.148967728
5044,0.07271388918
5045,-0.1235478744
5046,0.371558398
5047,0.336057961
5048,-0.003513918491
5049,0.07350181043
5050,-0.2169682086
5051,-0.2063861191
5052,-0.6078857183
5053,0.08139009029
5054,-0.7104701996
5055,-0.1267945766
5056,0.09736203402
5057,0.04702371359
5058,-0.003074426437
5059,0.06602819264
5060,-0.1404947191
5061,0.2801673114
5062,0.08951155096
5063,-0.2179666013
5064,-0.4385584891
5065,0.01630402356
5066,-0.07919307798
5067,-0.1009853557
5068,0.3327022791
5069,0.1753765196
5070,-0.2449174821
5071,0.06386475265
5072,0.05987994373
5073,-0.1779716015
5074,0.189120993
5075,-0.06539608538
5076,0.2107148319
5077,0.03453769907
5078,-0.3286131918
5079,-0.3302985728
5080,0.331522584
5081,-0.08407963067
5082,-0.1767231524
5083,-0.2111745775
5084,0.22226502
5085,-0.3031359613
5086,0.008539859205
5087,-0.008132061921
5088,-0.5374903083
5089,-0.3185909688
5090,-0.08452741057
5091,-0.3935557008
5092,0.07043543458
5093,-0.08267856389
5094,-0.1603409648
5095,0.04952181503
5096,-0.1171632484
5097,0.04483972117
5098,0.3030443788
5099,0.1705612391
5100,0.3539102077
5101,-0.09607675672
5102,-0.07947204262
5103,0.4275805354
5104,0.1599976569
5105,-0.1067617834
5106,0.1938670129
5107,0.1234937608
5108,-0.1924827248
5109,0.2148950994
5110,0.2826665938
5111,0.1358619183
5112,-0.2539999485
5113,-0.5855178237
5114,-0.01019531023
5115,0.1877713948
5116,0.001179048209
5117,0.0581738092
5118,-0.01587874629
5119,-0.4867863953
5120,0.2074374706
5121,-0.2690718472
5122,0.2345362604
5123,-0.3200199902
5124,-0.3037540615
5125,-0.04495056719
5126,0.04602573812
5127,0.2169663608
5128,-0.3391034603
5129,-0.2679371834
5130,-0.4147338271
5131,0.0250964798
5132,0.08028997481
5133,0.1350445002
5134,-0.01959626935
5135,-0.4135542214
5136,-0.339921385
5137,0.01533178147
5138,0.2317284346
5139,0.09930552542
5140,0.1389986575
5141,-0.1132655293
5142,0.1307032853
5143,-0.1892603636
5144,-0.3510022163
5145,0.01318404078
5146,-0.1196891218
5147,0.04447073117
5148,-0.1355445981
5149,-0.1612880379
5150,-0.1941364706
5151,0.2065632641
5152,-0.3461166024
5153,-0.09644201398
5154,0.1138396561
5155,-0.05924287066
5156,-0.03346154094
5157,-0.1338270307
5158,0.236443311
5159,-0.006690154318
5160,-0.3998991251
5161,0.01140302978
5162,-0.3423620462
5163,0.08891383559
5164,0.02090729587
5165,-0.2773981094
5166,0.124275662
5167,-0.5106121898
5168,-0.4312399626
5169,-0.3517017961
5170,-0.1987790018
5171,0.2264798731
5172,0.0052717668
5173,0.004146148916
5174,-0.1582919359
5175,0.09234432131
5176,-0.2397458255
5177,-0.3785402775
5178,-0.2481577098
5179,-0.1125748679
5180,-0.2512715161
5181,-0.2128791362
5182,-0.1793897301
5183,-0.2432431728
5184,0.2773575187
5185,0.04824376479
5186,0.02516395226
5187,0.1651991308
5188,-0.08435668051
5189,0.08332291991
5190,-0.3070008755
5191,0.2632916868
5192,0.137575388
5193,-0.1070383936
5194,-0.4034849703
5195,-0.1110441312
5196,0.04273173213
5197,-0.0509006083
5198,0.2083892077
5199,-0.161008209
5200,0.2227918208
5201,0.2289478332
5202,0.05832153559
5203,0.25459975
5204,0.06909769773
5205,-0.03153643012
5206,-0.2524223328
5207,0.02144510671
5208,-0.2463731468
5209,0.1928952038
5210,0.1062983647
5211,-0.1449172944
5212,0.3060409725
5213,-0.230016157
5214,-0.2938906252
5215,0.08855073154
5216,-0.01922496222
5217,-0.2191420048
5218,-0.1967953444
5219,0.2507819533
5220,-0.1558555663
5221,0.0961875543
5222,-0.2121763825
5223,-0.316750437
5224,-0.2740933299
5225,-0.3801249266
5226,0.2722758055
5227,-0.04803918675
5228,0.3356101513
5229,-0.2578428984
5230,-0.04861148447
5231,-0.227373153
5232,0.2562958896
5233,0.2094255537
5234,-0.04361818731
5235,0.2696374655
5236,-0.2133709341
5237,0.02846439555
5238,0.2619398534
5239,0.155007109
5240,0.1136616915
5241,0.246664837
5242,0.09032680094
5243,-0.09898129106
5244,0.2698290348
5245,0.05205114931
5246,0.1781673878
5247,0.01728227176
5248,0.2408316433
5249,-0.718824625
5250,-0.392917484
5251,-0.4022297561
5252,-0.05536293238
5253,-0.2257840633
5254,-0.2722079456
5255,0.2730150223
5256,-0.4554486573
5257,-0.2121449262
5258,-0.2334418744
5259,-0.06866192073
5260,-0.2863522768
5261,-0.1406620145
5262,-0.02005762421
5263,-0.1585941315
5264,0.05894133821
5265,-0.1325369328
5266,-0.0870372206
5267,0.01518445089
5268,0.1437003464
5269,0.2742530704
5270,-0.3359966576
5271,-0.2675827444
5272,0.2576887012
5273,-0.09579610825
5274,0.2069116682
5275,-0.3969601393
5276,0.5066827536
5277,0.2691937089
5278,0.2454616278
5279,0.1155724376
5280,0.01029152144
5281,0.4733396173
5282,-0.5199086666
5283,0.3002150357
5284,0.0835442543
5285,-0.2089570761
5286,0.4343979657
5287,0.2921586633
5288,0.04430006817
5289,-0.5736814737
5290,0.2411365658
5291,0.02871093899
5292,-0.3280935884
5293,0.1539032906
5294,-0.4447256029
5295,0.04925359413
5296,0.04659852013
5297,0.2650882602
5298,0.2193612605
5299,0.5818191767
5300,-0.1758953035
5301,-0.01299033314
5302,0.1948165596
5303,0.2266004831
5304,0.1770377457
5305,-0.9195715785
5306,0.009891015477
5307,0.08590839803
5308,-0.1006793678
5309,-0.1210889518
5310,0.1384433806
5311,-0.229953602
5312,-0.162535578
5313,0.1079540253
5314,0.2202442288
5315,0.1911370903
5316,-0.3512965143
5317,-0.2565521002
5318,-0.1045591012
5319,-0.2313051969
5320,0.06681922078
5321,-0.1208456606
5322,-0.5348446369
5323,0.2499759793
5324,0.05573955551
5325,0.1941441447
5326,0.1103144288
5327,-0.1468696147
5328,0.2728500962
5329,0.1117257252
5330,-0.01699038036
5331,0.1828469634
5332,0.04696546122
5333,0.2835219502
5334,0.2951131463
5335,0.03203600645
5336,-0.3320633173
5337,0.07458308339
5338,0.08161800355
5339,-0.1320834905
5340,0.1785832494
5341,-0.1803747267
5342,-0.2794121504
5343,-0.2070381641
5344,-0.03263328969
5345,0.1117528528
5346,-0.2424264103
5347,0.1059969738
5348,0.1811035872
5349,0.2179223448
5350,-0.2262660563
5351,-0.1891329736
5352,0.04710569605
5353,-0.4484462738
5354,0.2305018902
5355,0.3894707859
5356,0.2905600369
5357,-0.2079342604
5358,-0.0610900186
5359,0.0609975867
5360,-0.2114593983
5361,0.1316083819
5362,0.1257326752
5363,0.1522245854
5364,-0.2681558132
5365,0.2278476357
5366,0.1431066841
5367,0.1574917585
5368,-0.2334784269
5369,-0.7214362621
5370,-0.01561066043
5371,-0.2496984005
5372,0.1353268921
5373,0.1241124645
5374,0.2219452262
5375,0.01447141171
5376,-0.4506248534
5377,-0.5554911494
5378,0.04872405902
5379,-0.2689590454
5380,-0.1718005389
5381,0.1730898321
5382,-0.1667045057
5383,-0.08370807767
5384,-0.05260977522
5385,0.001845578314
5386,-0.7743076086
5387,0.4666448832
5388,-0.3855935037
5389,-0.1302579939
5390,0.09009385854
5391,0.3148495257
5392,0.2005238682
5393,-0.06166517362
5394,0.119710058
5395,-0.4557323158
5396,-0.3257535398
5397,-0.123783052
5398,-0.4108985364
5399,0.1211319342
5400,0.204157576
5401,-0.034002956
5402,-0.1298890859
5403,-0.153200075
5404,0.2808339
5405,-0.2750423551
5406,0.2935085297
5407,-0.2256420553
5408,-0.6602089405
5409,-0.135419026
5410,0.0172103215
5411,0.3287751973
5412,-0.4577203393
5413,-0.263997525
5414,0.1539445668
5415,-0.02400032058
