idx,weight
0,0.3011756837
1,0.04170494899
2,-0.5212512612
3,-0.2284340858
4,-0.5308038592
5,-0.1497014165
6,-0.4474827945
7,0.533513546
8,-0.003927723505
9,-0.1265260726
10,-0.03006836958
11,0.1599459499
12,-0.2068400383
13,-0.1355470717
14,-0.4165673554
15,0.2222226858
16,0.4991027415
17,-0.6729070544
18,-0.2583747804
19,0.2006555647
20,0.6129304767
21,-0.2204670161
22,-0.06468106806
23,-0.4488079548
24,-0.1030867398
25,-0.104911454
26,0.0067463452
27,0.2888055742
28,0.624681294
29,0.2514238656
30,0.2742927969
31,0.2007794529
32,-0.1854943335
33,0.2638117373
34,0.002011634875
35,-0.2602787912
36,-0.2028872073
37,0.0364044793
38,0.5114703774
39,0.1473780721
40,0.1415653676
41,-0.4076518416
42,-0.3154246211
43,0.2456822544
44,-0.08804339916
45,-0.2652914226
46,-0.3328145146
47,0.4128062427
48,-0.03173405305
49,-0.03756025434
50,-0.01328288577
51,0.2906331718
52,0.01926758327
53,0.7534126043
54,0.1484194547
55,-0.02902572788
56,-0.8251851201
57,-0.4222553968
58,0.07853204012
59,0.01940042339
60,-0.3773300946
61,-0.1049400568
62,0.1678088754
63,0.5159338117
64,0.1896153539
65,-1.026289701
66,-0.472595185
67,-0.04677679762
68,-0.8180878758
69,0.2923918962
70,-0.2949678302
71,0.1524609923
72,0.5085547566
73,0.190878585
74,0.1272464693
75,0.177513659
76,-0.6190124154
77,0.06658347696
78,-0.221101597
79,0.4803275168
80,0.1661873609
81,0.08164762706
82,0.270029068
83,0.216639027
84,-0.3731004596
85,-0.1056677848
86,-0.3483496606
87,-0.7202599049
88,-0.250837177
89,-0.1413299739
90,0.5969876647
91,0.2713557184
92,0.07859291136
93,0.3899893761
94,-0.241851747
95,0.2587312758
96,0.03055679984
97,-0.1813863516
98,0.3130983114
99,-0.6283342838
100,0.05900032446
101,-0.4460323751
102,0.4576475322
103,-1.070130587
104,-0.3079527617
105,-0.7377799153
106,-1.27237618
107,0.04958144575
108,-0.8552025557
109,-0.3338962197
110,0.3084802628
111,-0.1207431033
112,0.2709345818
113,0.3665846884
114,-0.3278903067
115,0.6032838225
116,-0.8566137552
117,0.1222813427
118,-0.03045042604
119,0.4551144838
120,-0.7814341187
121,0.7950915098
122,0.1947817653
123,-0.3056286275
124,-0.16612719
125,0.3658650219
126,0.3483794034
127,-0.9867060781
128,0.254762888
129,-0.1209353581
130,-0.5436348915
131,0.5867821574
132,-0.1142682806
133,-0.3391583562
134,0.3512535095
135,-0.16463314
136,-0.3043421209
137,0.2669837773
138,0.408439666
139,0.01698911563
140,0.5208215714
141,0.3614435792
142,-0.4672676921
143,0.1314801425
144,0.2548129261
145,0.01401047222
146,-0.207875967
147,0.2895836234
148,0.520630002
149,-0.3442734778
150,-0.2241352946
151,-0.3268066645
152,-0.1569126099
153,0.3916373849
154,-0.005680084694
155,-0.3014629781
156,-0.2700844109
157,0.3836154938
158,0.4675033092
159,-0.1697626114
160,-0.2767205834
161,-0.4296520054
162,0.1924523264
163,-0.1167247668
164,-0.4673600793
165,-0.1303271949
166,-0.3284326792
167,0.4027190804
168,0.1876506954
169,-0.07684242725
170,0.06516768783
171,0.5197672844
172,-0.06157748774
173,0.1697207391
174,-0.08697038889
175,0.4600735903
176,-0.3192672729
177,0.1240198538
178,-0.1500335783
179,-0.1523433477
180,-0.5079661608
181,-0.1575288773
182,-0.5125287771
183,0.3271095753
184,0.1179411709
185,-0.1184809133
186,-0.0237989109
187,-0.0005939630792
188,-0.1723211557
189,0.03464906663
190,-0.1676682979
191,-0.2808137536
192,-0.204003796
193,0.2896755338
194,0.4005050063
195,-0.1948678344
196,0.1877761334
197,-0.308480233
198,0.4238893688
199,0.3538817465
200,0.2295146883
201,0.658547163
202,-0.117658034
203,-0.1733855009
204,0.2457239926
205,0.1069117263
206,-0.4819732904
207,-1.242009759
208,-0.01229033619
209,0.5987818837
210,-0.1263032407
211,-0.3727087379
212,-0.05212441459
213,0.1125732958
214,-0.1252761185
215,-0.3054915965
216,-0.06706020236
217,0.02193160914
218,0.3696702719
219,0.3346509635
220,-0.4370036721
221,-0.04550061375
222,-0.07664256543
223,0.683155179
224,-0.5497086048
225,-0.01094542351
226,-0.8669673204
227,0.3253573477
228,0.3710141778
229,0.1970399916
230,0.1466836333
231,0.06574318558
232,-0.2811128199
233,-0.002218896756
234,0.6541065574
235,-0.5177568197
236,-0.247614935
237,-0.0775725916
238,-0.2885117531
239,-0.1363354176
240,-0.3423783779
241,-0.1470467299
242,0.02678312548
243,-0.2406678796
244,0.2372415811
245,0.155329302
246,0.02171503939
247,-0.4782468677
248,0.1445986927
249,0.1706895232
250,0.3307845891
251,-0.0633739531
252,0.4634035528
253,-0.08325138688
254,-0.2780679464
255,-0.365881592
256,0.3519040048
257,0.302336663
258,-0.07352881134
259,0.09361312538
260,0.4441237152
261,-0.2829245925
262,0.09583179653
263,-0.1879659444
264,-0.578322947
265,-0.3372518122
266,-0.04777743667
267,-1.15341711
268,-0.2944085896
269,-0.1048905775
270,0.001363793155
271,-0.433818996
272,-0.1880960763
273,-0.4225847125
274,-0.2937680185
275,-0.2824217975
276,0.4857006371
277,-0.3488974571
278,-0.3640939891
279,0.2918726206
280,-0.1852031201
281,-0.003489777911
282,0.2368339449
283,0.3814404309
284,-0.8195878267
285,0.04562828317
286,1.042212725
287,0.04032931477
288,0.6714183092
289,0.1890168637
290,-0.9140331745
291,-0.3354589343
292,0.08068229258
293,-0.08984426409
294,-0.1885604709
295,0.2444826216
296,0.363656044
297,-0.3799389005
298,0.3988669515
299,-0.6310401559
300,0.3647737503
301,0.194662109
302,0.2272754163
303,-0.02411090583
304,-0.1680377573
305,-0.4469328225
306,-0.9740151763
307,0.1302657425
308,0.3674200475
309,-0.4865799844
310,0.04373894632
311,-0.3008414805
312,-0.3434982002
313,-0.2617209554
314,-0.1568909734
315,0.1783691794
316,-0.1280326247
317,-0.3639885783
318,-0.4857442975
319,-0.4780447483
320,-0.5600107312
321,0.3675982952
322,0.06798005849
323,-0.3427591324
324,-0.001367945806
325,0.06815570593
326,0.05012027547
327,-0.1878276318
328,0.0105820233
329,-0.6143562198
330,-0.2010289133
331,0.4647168517
332,0.7333177328
333,0.2230598181
334,0.0756027028
335,-0.409493655
336,-0.5611256361
337,-0.2600831687
338,-0.1317706704
339,0.3187622428
340,0.2295640558
341,-0.2690321505
342,-0.0463398546
343,0.3229414523
344,0.35059762
345,0.02002308145
346,-0.3802323639
347,-0.2897227108
348,0.2949966788
349,0.05716739222
350,0.3831487298
351,0.195207864
352,0.2632802427
353,-0.441768676
354,-0.1969004869
355,0.1026655436
356,0.1100777462
357,-0.2822081149
358,-1.173014879
359,-0.1564804316
360,0.2396029532
361,-0.02536225133
362,0.3713142872
363,-0.4400824308
364,0.3760684133
365,0.00565502001
366,0.2241534293
367,0.005741776899
368,-0.1990295202
369,-0.402102083
370,-0.4475078285
371,0.1233464405
372,-1.059843779
373,-0.3357244432
374,-0.1322253197
375,0.4868990183
376,-0.5555243492
377,-0.2274291813
378,0.04677921161
379,-0.5442588329
380,-0.2680504322
381,-0.3004740477
382,-0.705735743
383,0.4617816806
384,0.3075151145
385,-0.7978616953
386,-0.03503948823
387,0.2511357963
388,0.1524675041
389,0.01729180291
390,0.07583226264
391,0.07015498728
392,-0.009079623967
393,0.1254680306
394,0.1258733273
395,0.6233759522
396,-0.01785489544
397,-0.4056185186
398,0.009015229531
399,-0.36639902
400,-0.4943303764
401,0.4295296371
402,-0.1728279144
403,-0.3253764212
404,0.2236644328
405,0.373213172
406,-0.1087239981
407,-0.7532159686
408,-0.0660738498
409,-1.589061379
410,-0.2741233706
411,0.193905741
412,0.1382534504
413,-0.08904516697
414,0.1751537919
415,0.1422951669
416,0.4691573083
417,-0.4099980891
418,-0.564358592
419,0.1848452836
420,-0.02454883233
421,-0.1575396359
422,-0.5425673723
423,0.3042392433
424,0.4879351854
425,-0.4261894226
426,0.1671661139
427,0.0003109654645
428,0.2044755518
429,0.1391327232
430,0.453624934
431,0.1816969067
432,-0.08900532126
433,-0.3470464349
434,-0.6667578816
435,0.1508264989
436,0.2713428736
437,-0.2550246418
438,-0.1264194399
439,0.1655035764
440,0.2396924198
441,-0.4326040447
442,-0.2164200246
443,-0.2316295505
444,-0.09310565889
445,0.07335858047
446,0.08030484617
447,0.2868306041
448,-0.3673819602
449,-0.7367408276
450,0.2304971516
451,-0.5565394163
452,-0.3153430521
453,0.1371392608
454,-0.4834284782
455,-0.2760809064
456,0.3906257451
457,0.4408572316
458,-0.2539201081
459,0.4661966562
460,-0.006301029585
461,-1.135524631
462,0.4268612564
463,-0.1069755703
464,0.3720168173
465,-0.09952851385
466,-0.2000987381
467,-0.06457240134
468,-0.05901570991
469,0.1143147945
470,0.2316803932
471,0.01608267054
472,0.3857402503
473,0.1849268675
474,0.4036882818
475,-0.04123879224
476,-0.2314383984
477,0.04545931518
478,0.2154913396
479,-0.06657481194
480,-0.6455147862
481,-0.04248536006
482,-0.9883078337
483,0.3865718842
484,0.5587247014
485,-0.5418109894
486,-0.1196765155
487,0.03966670111
488,-0.2940177917
489,-0.2579169869
490,0.1514383256
491,0.01888889447
492,0.2688332498
493,-0.04516223818
494,0.1332263798
495,0.4085248113
496,-0.00447889138
497,-0.1401962787
498,0.1723674983
499,0.1827587783
500,1.209101558
501,-0.1741296947
502,-0.4231011868
503,0.02720625699
504,0.8060840368
505,0.6666887403
506,-0.03374646232
507,-0.608746469
508,-0.3290270865
509,-0.3151195645
510,0.1549405456
511,0.5170398951
512,0.3525374234
513,-0.510707736
514,-0.6230413914
515,0.1383384019
516,-0.03189051524
517,-0.2746182084
518,0.2235737443
519,-0.07439564914
520,0.1711347401
521,-0.04736708105
522,-0.1004902273
523,0.4501526058
524,0.1744446903
525,-0.2821551561
526,0.3415157795
527,0.4085365534
528,0.2380209416
529,-0.6285272837
530,-0.2575194836
531,0.3380016088
532,0.08751947433
533,-0.06662700325
534,-0.3831607699
535,0.1937702745
536,0.3754941821
537,-0.5315793753
538,0.08223480731
539,-0.1539633423
540,-0.3701599538
541,-0.3709782958
542,-0.4039948881
543,0.2061271667
544,0.04262714088
545,-0.2689977288
546,-0.08186463267
547,0.1465095729
548,0.06586949527
549,0.1154220924
550,0.2261023372
551,0.3061839044
552,0.2805719376
553,0.2577845752
554,0.05625203252
555,0.3449323475
556,-0.407633394
557,0.3486127257
558,0.1535762846
559,-0.2676293254
560,-0.1307046413
561,0.07817386836
562,0.2858129442
563,-0.1348399818
564,-0.3691143095
565,-0.2361790836
566,0.1624269485
567,-0.1476190239
568,-0.2430824488
569,-0.2649203837
570,-0.1331649572
571,-0.439484179
572,0.3194299638
573,0.3005708456
574,-0.3540220857
575,-0.1232019365
576,0.1736949682
577,0.01930749416
578,0.5124388933
579,1.311129212
580,0.5607996583
581,-0.04754821584
582,-0.8490692377
583,0.1868186742
584,1.201513886
585,0.722551465
586,-0.03538360819
587,-0.4897307456
588,0.2105292082
589,-0.5984032154
590,0.4265843332
591,-0.3527820706
592,0.5135564804
593,1.507843852
594,0.170091629
595,-0.1592561305
596,-0.0500972718
597,-0.2516773939
598,0.2629929781
599,0.5380114913
600,-0.8040711284
601,-0.1374289542
602,0.625285387
603,-0.5163112879
604,-0.5577743053
605,-0.2593614161
606,-0.7303083539
607,0.08461318165
608,0.3139016926
609,0.4952692091
610,0.3953253925
611,-0.06437726319
612,0.271644026
613,0.2296793163
614,0.3630168736
615,-0.4063946605
616,0.2542387843
617,0.05521240458
618,0.1647635698
619,0.2805958688
620,0.2172429264
621,-0.06576112658
622,-0.1384585202
623,-0.1665482372
624,-0.06208889559
625,0.3588099778
626,0.3486951292
627,-0.2567932308
628,0.7493298054
629,-0.01618988253
630,0.5658465028
631,0.0677536279
632,-0.4104033709
633,0.008158947341
634,-0.04560200125
635,-0.02485534176
636,-0.2909834683
637,-0.2067340314
638,0.1944849342
639,-0.7245953083
640,0.05356221646
641,0.6056499481
642,-0.1918273121
643,1.022280693
644,-0.09932873398
645,0.2465178818
646,-0.3657843769
647,0.2499314696
648,1.07023561
649,1.045197964
650,-0.3090403676
651,-0.4040799141
652,0.3794139624
653,-0.01390479039
654,-0.1277210563
655,-0.1463078558
656,0.08028721809
657,-0.07155783474
658,0.1175649241
659,0.05423533916
660,0.4288997352
661,-0.2149309516
662,-0.1611700803
663,1.152786255
664,-0.1457118243
665,0.0030095533
666,0.1452534348
667,0.3845393956
668,-0.7980871797
669,1.303790689
670,-0.3724138737
671,0.3457898498
672,-0.0384942852
673,0.4948461056
674,0.5603662729
675,-0.1868897676
676,-0.09148384631
677,0.06616719067
678,1.103628635
679,-0.6326603889
680,0.4670309722
681,0.2063949257
682,-0.2869144678
683,-0.2181653976
684,0.7053411603
685,0.1531731337
686,0.3791145682
687,0.1692128927
688,-0.1424644887
689,0.3547100127
690,0.09076292813
691,-0.09385950118
692,0.04825730249
693,0.2325157076
694,-0.8348397017
695,0.8173493147
696,-0.2792706192
697,0.7536637187
698,0.1107929125
699,-0.6418798566
700,-0.5845959783
701,0.2127465904
702,-0.7946770191
703,-0.7837406397
704,0.190989688
705,-0.2516793311
706,-0.3490656614
707,0.234081611
708,-0.1619841754
709,0.1408230215
710,0.1450544447
711,0.1531497687
712,-0.3621831834
713,0.01127342228
714,0.1566433907
715,-0.232325688
716,0.3176469207
717,-0.2570249736
718,0.1429991275
719,0.005497902166
720,0.4257273376
721,-0.4228011072
722,0.4025415778
723,0.05955339596
724,-0.04911141098
725,0.3351996839
726,-0.1704775691
727,-0.05318022147
728,0.3917911053
729,-2.221548557
730,0.006131561007
731,0.3409904838
732,0.3169616461
733,0.4429512024
734,0.1649062335
735,-0.2877251804
736,0.0861870423
737,-0.7512444854
738,-0.04608248547
739,0.1838414222
740,0.670828104
741,-0.03787183389
742,0.03908352926
743,0.2159876674
744,0.1349614859
745,-0.1478275508
746,0.3234993815
747,-0.4500845075
748,0.05572054163
749,0.1096560434
750,0.2400806546
751,-0.3103871942
752,-0.1899626553
753,-0.3237208128
754,0.01645293459
755,-0.06378414482
756,-0.04621166363
757,0.3663876653
758,0.2427026629
759,-0.3461324573
760,0.342533648
761,0.09483719617
762,-0.1263970286
763,-0.6878060699
764,0.2644690573
765,-0.01565698907
766,-0.3979321718
767,0.4078986943
768,0.5921956301
769,0.01445843279
770,-0.512414813
771,0.2426604182
772,-0.1412438601
773,0.3735390902
774,-0.5638754964
775,0.0465830788
776,-0.1379246265
777,-0.8491905332
778,0.2513454258
779,-0.5907307863
780,-0.4026499391
781,-0.2952213287
782,-0.1145454347
783,-0.1757020801
784,0.05504308268
785,0.3195171654
786,-0.0983056277
787,-0.1694936156
788,-0.4010780454
789,-0.1245863959
790,-0.08645048738
791,-0.130834341
792,0.4582705796
793,-0.5007696748
794,-0.1686603427
795,-0.1466256827
796,-0.168515861
797,0.2605736554
798,0.1808792502
799,-0.2979533374
800,0.1973347813
801,0.2660475671
802,0.5114684105
803,-0.1712690443
804,0.09541471303
805,-0.3714864552
806,-1.06274116
807,0.160702154
808,-0.675209403
809,0.2297298163
810,-0.001476355246
811,0.3081342876
812,0.07627638429
813,-0.02480616793
814,0.1506475955
815,0.2779249251
816,0.183188051
817,-0.2154571712
818,-0.3874576092
819,0.09252287447
820,-1.213400245
821,0.2050695121
822,0.2722973526
823,0.3403482437
824,-0.7479557991
825,-0.3716709018
826,0.2541197836
827,0.2094896734
828,-0.5084728003
829,0.3562379479
830,-0.7140908837
831,-0.1107381508
832,0.4670010507
833,-0.2024913281
834,-0.3421398103
835,-0.1715465635
836,-0.1034222618
837,-0.2240693122
838,-0.05986775085
839,0.1389051825
840,-0.2282714993
841,-0.7825016975
842,0.0681136623
843,-1.169456601
844,-0.5909519196
845,-0.1718659103
846,0.2456725091
847,0.6250308156
848,0.2407043427
849,0.1387281418
850,-0.1802883446
851,0.4429238737
852,0.04615770653
853,0.1566607505
854,0.04612093791
855,0.6094415784
856,0.04681153595
857,-0.6603921056
858,0.5224978328
859,0.008117423393
860,-0.8944790363
861,-0.3260962069
862,0.07733326405
863,0.4992631376
864,0.6358578205
865,-0.07039085776
866,-0.6605992913
867,-0.0239058286
868,-0.4948348105
869,0.2065621763
870,-0.7362818122
871,-0.2295682579
872,0.01034232229
873,-0.3887735903
874,0.5308733582
875,0.1159095988
876,-0.0318688564
877,0.03560264409
878,-0.2006954998
879,-0.4239008725
880,-0.74558568
881,0.3272273839
882,-0.8249240518
883,0.6004994512
884,-0.1800301671
885,0.2250820547
886,-0.319660604
887,-0.3771523833
888,-0.002104159677
889,-0.0190036837
890,0.04321181402
891,0.1182823628
892,-0.5064653754
893,0.1269329786
894,-0.3054834902
895,0.1905556768
896,0.4512334168
897,-0.8095960617
898,0.005274782889
899,0.2647216022
900,-0.4156585336
901,-0.2183213532
902,0.2326522022
903,-0.3370105922
904,0.1781494915
905,-0.2913802862
906,-0.04152783751
907,0.6066606641
908,0.1742652655
909,-0.8539614677
910,-0.09530355781
911,0.1239181533
912,-0.256621629
913,0.0920098722
914,-0.43355003
915,0.07107420266
916,0.05000571907
917,0.09437188506
918,0.1722045988
919,-0.2047788054
920,0.6663597822
921,-2.674109936
922,-0.4180176854
923,-0.159737125
924,-0.335139662
925,-0.05315379426
926,-0.137855798
927,-0.1235834584
928,-0.00823479984
929,-0.1656285524
930,-0.08843019605
931,-0.2182700783
932,0.2772240937
933,-0.2611547709
934,-1.096844673
935,-0.2324896157
936,-0.2984421849
937,-0.3506769538
938,0.2848929763
939,0.176150918
940,0.1838323474
941,0.1042565554
942,0.4231767952
943,-0.2437239885
944,-0.5718659163
945,0.294893831
946,-0.05437269807
947,0.2220310569
948,-0.03475327417
949,-0.674436748
950,0.440061897
951,0.1765544266
952,0.1329412162
953,-0.6210499406
954,0.2390305102
955,-0.2948195636
956,0.235722661
957,0.1444495469
958,0.2800045609
959,0.03240841255
960,-0.1903281659
961,0.07291212678
962,0.002771839732
963,0.2599988878
964,0.5033798218
965,-0.2427412868
966,-0.2670327425
967,-0.2097597122
968,-0.1543092579
969,-1.537896514
970,-0.7294307351
971,-0.2333753258
972,-0.01921016909
973,0.2344435751
974,-0.5463816524
975,0.289167285
976,0.3701426983
977,-0.5564213991
978,0.164926216
979,0.159042567
980,-0.1893845499
981,0.09413738549
982,-0.348641634
983,0.2131095678
984,0.3838651478
985,0.08562453091
986,0.05073511973
987,-0.3636240363
988,0.3125005364
989,0.2846694291
990,-0.2567895949
991,0.2241930217
992,0.08725341409
993,0.1960749179
994,-0.1142970845
995,-0.01589944586
996,0.2896741331
997,-0.1964265555
998,0.1855649799
999,0.2976247966
1000,0.1650401056
1001,-0.04513479397
1002,0.08447605371
1003,0.1257777363
1004,-0.2451959699
1005,-0.2893747985
1006,-0.5957507491
1007,-0.2707604766
1008,0.2177850753
1009,-0.5697003007
1010,0.2377969474
1011,0.1390613467
1012,0.1374291629
1013,-0.1093768701
1014,0.3730183542
1015,0.03274048492
1016,-0.1853774041
1017,0.1974698454
1018,-0.07128405571
1019,0.2886838019
1020,-0.07831044495
1021,0.2378394604
1022,0.04895427451
1023,0.1679569483
1024,-0.05240105838
1025,0.07699821144
1026,0.1061687768
1027,0.1641801894
1028,0.02572827972
1029,-0.306986481
1030,0.3087236881
1031,-0.7521017194
1032,0.1440665722
1033,0.2191901356
1034,0.2856481969
1035,-0.7624841928
1036,-0.3215420544
1037,-0.02984184213
1038,-0.2608888447
1039,-0.04775911197
1040,0.1862961799
1041,0.2049025595
1042,-0.1496872008
1043,0.3162465692
1044,0.09287790209
1045,-0.08532853425
1046,-0.3467344344
1047,0.03614503145
1048,0.2049565017
1049,0.3030031621
1050,-0.2389818132
1051,0.0657659024
1052,-0.6715949774
1053,0.1019365564
1054,-0.2869604528
1055,-0.06115750968
1056,0.3739054501
1057,0.1881542206
1058,0.3927452862
1059,-0.1682603061
1060,0.3007424772
1061,0.1373998821
1062,0.07714037597
1063,0.06849054247
1064,0.2405657619
1065,-0.2000364512
1066,-0.5095235109
1067,-0.29595083
1068,-0.104667902
1069,-0.1345810145
1070,0.07163668424
1071,0.01525736507
1072,-0.005707573611
1073,-0.2156381011
1074,0.2324848771
1075,-0.08651022613
1076,-0.01657416299
1077,0.1040917933
1078,0.3015515804
1079,-0.2258725017
1080,0.1065128744
1081,0.3402440548
1082,-0.6528457999
1083,-0.1784681082
1084,0.009600419551
1085,-0.1254627705
1086,-0.01197171491
1087,-0.2464096397
1088,-0.4070577323
1089,0.3299917281
1090,0.1742516458
1091,0.6696321964
1092,0.2226753533
1093,-0.2694711089
1094,-0.5554378033
1095,-0.151311785
1096,0.137006253
1097,0.3151065409
1098,-0.4307711422
1099,-0.5261980295
1100,-0.3788952827
1101,-0.4096912444
1102,0.249406755
1103,-0.06500507891
1104,0.07478258759
1105,-0.4031041861
1106,0.353231132
1107,0.08681857586
1108,0.06293608993
1109,-0.2410092801
1110,-0.3763279915
1111,0.603515923
1112,0.1873511672
1113,0.1824596226
1114,-0.4728523195
1115,0.5075353384
1116,0.1133266091
1117,-0.5863417387
1118,0.25259462
1119,-0.2610629499
1120,-0.1619246006
1121,0.1949617416
1122,-0.1901931614
1123,0.02930199355
1124,0.02719342709
1125,-0.006188310217
1126,-0.02333275042
1127,-0.1123240292
1128,0.0930929184
1129,0.1894267201
1130,-0.1058269441
1131,-0.2438123822
1132,0.07304898649
1133,-0.2487525344
1134,-0.1713790148
1135,0.7508730292
1136,-0.459363699
1137,-0.1716810018
1138,-0.1981528997
1139,0.2617200911
1140,0.6509466767
1141,-0.5311171412
1142,0.1078448743
1143,-0.239333868
1144,-0.07810278237
1145,0.5569167733
1146,-0.6252934933
1147,0.2448685914
1148,0.5821123123
1149,0.1089557484
1150,0.1873072237
1151,-0.115107052
1152,0.06568974257
1153,0.150986433
1154,0.4949403107
1155,-0.7250114083
1156,0.2066966593
1157,-0.2699439228
1158,0.3751187623
1159,0.0337058045
1160,0.5094231963
1161,-1.066398025
1162,0.005319168326
1163,1.295042634
1164,0.213835001
1165,-0.4737331271
1166,0.940911293
1167,0.8437139392
1168,1.125107527
1169,0.5289937258
1170,-0.4232990444
1171,0.1530435234
1172,0.700658679
1173,-0.1287809759
1174,-0.2912669182
1175,0.3556364477
1176,-0.02764705196
1177,0.179164961
1178,-0.166705966
1179,-0.840773046
1180,-0.1518661678
1181,-0.609921515
1182,0.2963379622
1183,-0.2489400357
1184,0.1656242907
1185,-0.1083966717
1186,-0.4340728223
1187,-0.284905076
1188,-0.1253363788
1189,0.2792240679
1190,0.5121927857
1191,-0.9401459694
1192,0.1024970338
1193,-0.5040401816
1194,-0.1907354593
1195,0.8501825333
1196,-0.9400513768
1197,0.1226124689
1198,-0.2257922143
1199,-0.3586027622
1200,-0.157237187
1201,-0.1618825048
1202,-0.05984263495
1203,0.7859143019
1204,0.8944471478
1205,0.9693986773
1206,0.06387927383
1207,0.7606915236
1208,0.6124979854
1209,0.7884482741
1210,0.07888291776
1211,0.3348264694
1212,-0.7736456394
1213,0.07317280769
1214,0.5197902918
1215,-0.5233345032
1216,0.6093460917
1217,0.7753472924
1218,0.7177461982
1219,-0.7542757392
1220,0.8539133668
1221,0.1205588207
1222,-0.228064999
1223,-0.2031716406
1224,-0.2464593649
1225,-0.9559169412
1226,0.05692755058
1227,0.639305234
1228,0.2851081491
1229,0.1897654831
1230,0.02412058227
1231,-0.2079721093
1232,0.2294009626
1233,0.5134623647
1234,-0.02822998539
1235,0.01086728368
1236,-0.7163976431
1237,-0.3765441775
1238,0.2374692857
1239,0.1598467678
1240,0.01292421203
1241,0.5818068981
1242,-0.08971078694
1243,0.7884979248
1244,-0.9151049852
1245,0.3920212686
1246,0.0754892379
1247,-1.165771246
1248,0.6658803821
1249,0.3303538561
1250,-0.8882864714
1251,0.03329862282
1252,0.085256055
1253,0.5307910442
1254,0.3280842602
1255,0.2237435281
1256,-0.2654423118
1257,0.9373599887
1258,0.2604951262
1259,0.04025635123
1260,0.2455234081
1261,-0.2960398197
1262,0.8507758379
1263,-0.1210597679
1264,-0.4470414817
1265,-0.1556064636
1266,0.7309235334
1267,-0.2785021365
1268,1.216085315
1269,-1.393201828
1270,-0.4400343299
1271,-0.4352195263
1272,-0.134942919
1273,1.120874763
1274,0.04381484166
1275,0.433929801
1276,-0.08221680671
1277,-0.3045285046
1278,-0.0119613884
1279,0.2475441545
1280,1.050253987
1281,0.7416141629
1282,0.1708229929
1283,1.421822906
1284,0.3604559898
1285,0.1759457439
1286,-0.2572007179
1287,-0.02853680961
1288,0.8797591925
1289,-1.216423631
1290,-0.03474613652
1291,-1.152550936
1292,-1.805484653
1293,-0.1488618553
1294,0.1538868099
1295,0.4616910219
1296,0.5543786287
1297,0.4388924837
1298,0.3496250212
1299,-0.5405293107
1300,0.08221226186
1301,0.2977046072
1302,-0.047700461
1303,-0.7011833787
1304,-0.3720578849
1305,-0.3048284352
1306,0.3387432992
1307,-0.7907722592
1308,1.571500897
1309,0.1341305971
1310,0.3087604046
1311,-0.2862042189
1312,-0.788834691
1313,0.1943271607
1314,0.7819948792
1315,-0.4895300269
1316,-0.425915271
1317,0.1879614443
1318,-0.09876713157
1319,0.2324730456
1320,-0.579287529
1321,0.9208562374
1322,0.4735656083
1323,0.8446702361
1324,-0.3498179913
1325,0.2919369936
1326,-0.3069129586
1327,-0.1353784949
1328,0.7446169257
1329,-0.1495674103
1330,-0.3575238287
1331,0.2162259221
1332,0.2529456317
1333,0.5899133086
1334,0.4989357293
1335,0.2716950178
1336,0.2782680988
1337,-1.030338883
1338,-0.4776464999
1339,0.8529262543
1340,-0.7487241626
1341,0.3286535442
1342,0.6194113493
1343,-0.5917860866
1344,0.3158943653
1345,-0.3264890015
1346,0.5369417667
1347,1.057834268
1348,0.1979880184
1349,-0.3331451416
1350,-0.3487789631
1351,-0.0356676504
1352,0.8659997582
1353,-0.2637745738
1354,0.4327214658
1355,0.119593218
1356,0.642718792
1357,-0.3184216619
1358,-0.07766535133
1359,-0.05356835574
1360,0.5069401264
1361,0.5470108986
1362,-0.09863124043
1363,-0.006994188298
1364,0.1808303893
1365,-0.2252271771
1366,-0.2233585268
1367,-0.1542399973
1368,0.4494197071
1369,-0.06587269157
1370,0.06867814064
1371,0.4169016778
1372,0.3189235032
1373,0.06681903452
1374,0.3536144495
1375,-0.5257382989
1376,-0.4615900218
1377,-0.2367199063
1378,0.3607441485
1379,-0.6649567485
1380,-0.7997239232
1381,-0.7778843641
1382,-0.9439713955
1383,-0.2261617929
1384,-0.06968110055
1385,0.76254493
1386,-0.4239854217
1387,0.04481687024
1388,0.4283060133
1389,-0.2096076757
1390,0.4598063529
1391,-0.182855159
1392,0.1372191459
1393,-0.602942884
1394,-0.1452473402
1395,0.4145826399
1396,0.6074517965
1397,0.5387224555
1398,-0.2229491323
1399,-0.3507924676
1400,0.7102905512
1401,-0.1832227707
1402,0.07572504878
1403,0.04772258177
1404,-1.154380322
1405,0.06906215101
1406,0.8749809265
1407,-1.442344546
1408,0.05274615809
1409,-0.2828232348
1410,0.1573846191
1411,0.2830446661
1412,0.02987738512
1413,0.0315499641
1414,-0.04001310095
1415,0.1806428134
1416,0.2410976589
1417,-0.07803664356
1418,-0.1935004145
1419,0.2353610843
1420,0.2415150553
1421,-0.8877514005
1422,-0.2421676069
1423,0.01733211614
1424,-0.1928589344
1425,-0.9452925324
1426,-0.2897048891
1427,-0.2645769119
1428,-0.2329169214
1429,-0.1247760057
1430,-0.310813725
1431,-0.226186648
1432,-0.2687810659
1433,0.2879424393
1434,0.139939785
1435,0.3616829813
1436,0.1805123836
1437,0.5027699471
1438,0.2961460054
1439,0.2486481518
1440,-0.3664972186
1441,-0.3007082343
1442,0.2074354887
1443,0.1238773838
1444,0.03611093387
1445,-0.045290526
1446,0.1529074162
1447,0.1820281893
1448,0.3876442909
1449,0.2624043524
1450,0.1646533459
1451,0.3095607758
1452,0.2288404554
1453,-0.1332235485
1454,-0.02672852017
1455,0.3000676334
1456,0.001683294075
1457,-0.03616906703
1458,-0.2800732851
1459,-0.115460217
1460,0.2356911749
1461,0.05875523388
1462,-0.3691626191
1463,0.3029797971
1464,0.05074936524
1465,-0.063719064
1466,-0.03451209143
1467,-0.3689110577
1468,-0.5052977204
1469,-0.2333666682
1470,0.2025777698
1471,-0.2788929343
1472,-0.3560215235
1473,0.1853684932
1474,0.002772964537
1475,-0.09524136782
1476,-0.1600298285
1477,0.03279250488
1478,-0.2547423244
1479,0.3531642556
1480,-0.0568433255
1481,-0.03894456103
1482,0.04131313041
1483,-0.2567413449
1484,0.05981789529
1485,0.1561501473
1486,0.1970961392
1487,0.05807652324
1488,0.1755539477
1489,-0.490326941
1490,-0.8159766793
1491,0.3480570018
1492,0.5669730902
1493,-0.2742057145
1494,0.2006244212
1495,-0.04352903739
1496,0.1559163928
1497,-0.1134390756
1498,-0.008526219055
1499,-0.718497932
1500,0.1678764969
1501,0.614993751
1502,0.1099500209
1503,0.2807001472
1504,-0.4263760746
1505,-0.1689270735
1506,0.2310698926
1507,0.1238068715
1508,-0.08358620852
1509,-0.05994667113
1510,0.7269868851
1511,-0.6779578924
1512,0.2060765624
1513,-0.2770262659
1514,-0.05046881735
1515,0.00168523204
1516,-0.1261835396
1517,-0.3861683607
1518,-0.03796780109
1519,-0.02817490697
1520,0.02603524551
1521,0.2375419289
1522,0.241926387
1523,0.02010327391
1524,-1.094563961
1525,0.2376677841
1526,-0.06874483824
1527,0.3365532756
1528,-0.8194671869
1529,-0.1625627875
1530,-0.1916023344
1531,0.4908667505
1532,-1.894303322
1533,0.03315843269
1534,-0.5852153897
1535,0.502987504
1536,0.2692677975
1537,0.5927342176
1538,0.08544690907
1539,-0.1179074794
1540,0.3045937121
1541,0.08693323284
1542,-0.2011987716
1543,0.9146410227
1544,0.1614269763
1545,0.008235072717
1546,0.4886732996
1547,-0.4361211061
1548,0.1434012353
1549,0.367631048
1550,-0.104118824
1551,-0.008696960285
1552,-0.3517481685
1553,-0.5970415473
1554,-0.3407705426
1555,0.07729996741
1556,-0.5404963493
1557,0.3820486367
1558,-0.07524688542
1559,-0.5089808106
1560,0.2298354656
1561,-1.429145098
1562,-0.4210612476
1563,0.5590074658
1564,0.1418386251
1565,0.04846778139
1566,-0.8784464598
1567,0.02700043656
1568,-0.1103215516
1569,0.2906819582
1570,-0.2627084255
1571,-0.2229616195
1572,-1.019436359
1573,0.4096866846
1574,-0.2828741074
1575,0.1775624752
1576,-0.1010010093
1577,-0.2894710004
1578,-1.159899712
1579,-0.2775400281
1580,0.2979841828
1581,0.3362951875
1582,0.4688743651
1583,-0.06734092534
1584,0.5965800285
1585,0.1679521054
1586,0.1584416926
1587,0.1632852107
1588,0.1206086278
1589,0.4130863547
1590,0.06860842556
1591,0.4310668111
1592,-0.3050846756
1593,-0.2711767554
1594,0.677773118
1595,-0.211740315
1596,-0.32680282
1597,-0.2421761751
1598,-0.1566686183
1599,-0.0530509688
1600,0.3812283278
1601,-0.2401866615
1602,0.0409344174
1603,0.251441747
1604,-0.03747162968
1605,0.03404785693
1606,0.6624230742
1607,0.6281690598
1608,0.10153348
1609,-0.160321638
1610,-0.08028515428
1611,0.2310148031
1612,0.419138819
1613,0.05343911797
1614,0.4295380712
1615,0.6797270775
1616,-0.7071470022
1617,-0.1784672141
1618,0.03358785436
1619,-0.7330560088
1620,0.5278447866
1621,-0.1185287386
1622,-0.04472372308
1623,0.07692309469
1624,0.2858437598
1625,-0.6180227995
1626,-0.3884035051
1627,0.1327610761
1628,0.03212222457
1629,-0.1736469269
1630,-0.09986711293
1631,0.005226952024
1632,-0.1607985348
1633,-0.4427317679
1634,0.2348273098
1635,0.166533187
1636,-0.01699502952
1637,-0.4134198427
1638,-0.4315679967
1639,-0.3678942323
1640,0.0829116255
1641,0.1756199002
1642,-0.2275786996
1643,0.2887772024
1644,0.2612365782
1645,-0.09330607951
1646,0.4793209136
1647,0.1617562622
1648,0.1542278081
1649,-0.05221658573
1650,0.3158820271
1651,0.1419449598
1652,-0.5609399676
1653,-1.049759984
1654,-0.02938503586
1655,0.2027421892
1656,-0.09175394475
1657,-0.6759502888
1658,0.03802042454
1659,0.568095088
1660,-0.2910428345
1661,-0.0288529098
1662,-0.8082818985
1663,-0.6862174273
1664,0.1403895169
1665,-1.089699388
1666,0.07268682122
1667,-0.6613757014
1668,-0.3286588192
1669,-0.1714259237
1670,-0.03760693222
1671,-1.249831557
1672,0.4670101404
1673,-0.9556957483
1674,-1.191765904
1675,-0.2489453107
1676,0.1811898202
1677,0.4232550263
1678,-0.4419428408
1679,-0.2162320167
1680,-0.8496463299
1681,-0.7051964998
1682,0.06505007297
1683,1.014530063
1684,0.06286711991
1685,-0.1193229929
1686,0.2645125091
1687,0.3339424431
1688,0.7012613416
1689,-1.112754822
1690,-0.5900058746
1691,-0.2116053253
1692,0.1318435818
1693,0.285261482
1694,0.1344861686
1695,0.09982472658
1696,0.1217146069
1697,0.1147294044
1698,0.5947040915
1699,0.2780817747
1700,-0.05143911764
1701,0.4454132617
1702,0.6755988598
1703,-0.2052675635
1704,0.4815612733
1705,-0.4405925274
1706,-0.2536876202
1707,-0.3382781744
1708,0.04538315162
1709,0.2410190254
1710,0.7916553617
1711,-0.08429884166
1712,0.1825118214
1713,0.2257675976
1714,-0.003479516599
1715,0.2180374116
1716,0.1410863549
1717,0.5056937337
1718,-0.6851038337
1719,-0.290694654
1720,-0.9089279175
1721,0.03916031495
1722,0.4928710163
1723,-0.634529829
1724,0.02655873448
1725,0.03243981302
1726,-0.772919476
1727,-0.2493673712
1728,-0.4178632796
1729,0.3396873772
1730,-0.4327761829
1731,-0.4613981247
1732,-0.1256254762
1733,-0.3137577772
1734,0.1218592823
1735,-0.1041993499
1736,0.5265658498
1737,0.04443946853
1738,-0.217341885
1739,0.3750247359
1740,-0.09866585582
1741,-1.347495317
1742,-0.08875907212
1743,0.5823528767
1744,0.6299281716
1745,-0.3796704113
1746,-0.3657668829
1747,-0.506480515
1748,0.6901579499
1749,-0.2416845411
1750,-0.3802139759
1751,0.3849329948
1752,-0.359359175
1753,1.178530455
1754,0.5142449737
1755,-0.08347401023
1756,0.4648964107
1757,-0.0927715376
1758,0.2588164508
1759,0.3420234025
1760,0.9020617008
1761,-0.0004300609289
1762,0.7193217874
1763,-0.7907930613
1764,-0.2225125432
1765,0.6182098389
1766,0.499125123
1767,-0.5726439357
1768,-0.1800302565
1769,-0.663844645
1770,-1.013544798
1771,-0.1312972456
1772,0.1466747224
1773,0.06264502555
1774,-0.6368528605
1775,-0.1518638134
1776,0.159426868
1777,-0.1510460377
1778,-0.171550855
1779,0.2019618899
1780,0.1604853123
1781,-0.159491241
1782,0.2053998113
1783,-0.2072840482
1784,0.3312522769
1785,-0.05516833812
1786,0.2450899035
1787,0.04191519693
1788,0.09592541307
1789,0.1799545586
1790,-0.01749871112
1791,-0.4997704327
1792,-0.3639318347
1793,0.2285531163
1794,0.001896584174
1795,-0.1876056939
1796,0.2845866084
1797,-0.2468177676
1798,-0.2041790485
1799,-0.1173400581
1800,-0.2878403366
1801,-0.2505649626
1802,-0.04478706792
1803,-0.3777768612
1804,0.01677811891
1805,-0.01383653469
1806,0.340839684
1807,-0.02666066773
1808,-0.05165746436
1809,0.1643693149
1810,0.05958736315
1811,-0.1247929707
1812,-0.3359064162
1813,-0.3641699255
1814,-0.07699352503
1815,0.1692354083
1816,-0.08364386111
1817,0.2643543184
1818,0.3075474501
1819,0.06769928336
1820,-0.000578027044
1821,0.05491012707
1822,-0.09727182239
1823,0.1440848708
1824,0.09428343177
1825,0.1418454051
1826,-0.04688588157
1827,0.1120099425
1828,0.07702584565
1829,-0.368717581
1830,-0.3510449827
1831,-0.2006843686
1832,-0.1857461184
1833,0.1582706124
1834,-0.3014670014
1835,-0.1170257851
1836,0.3908420205
1837,-0.356860131
1838,-0.04635498673
1839,-0.3825468123
1840,0.2872866392
1841,-0.07992243022
1842,0.1156235114
1843,0.1990306824
1844,-0.1194801033
1845,-0.3876336813
1846,0.2710547447
1847,0.04230620712
1848,-0.005546478555
1849,0.07668109983
1850,0.06336152554
1851,0.2450256646
1852,0.2366103679
1853,-0.2277593762
1854,0.3943473697
1855,-0.03933064267
1856,-0.09625135362
1857,-0.2434856594
1858,0.1430246681
1859,-0.1809164733
1860,0.3964419365
1861,-0.2446778715
1862,-0.3509228826
1863,-0.002630409319
1864,0.1501283646
1865,-0.313521415
1866,-0.2510325015
1867,-0.2075058818
1868,-0.1960086077
1869,0.2242508531
1870,0.4348577857
1871,0.2412064373
1872,-0.3052588701
1873,0.3618535995
1874,0.07196868956
1875,-0.006707089487
1876,0.2882575691
1877,-0.1901534498
1878,-0.2025810629
1879,-0.2421810031
1880,0.0009160367772
1881,-0.09078359604
1882,-0.1679725796
1883,0.297955811
1884,-0.3408255577
1885,-0.2752404213
1886,-0.05597120896
1887,-0.4736397266
1888,-0.213549614
1889,0.2277066112
1890,0.09451657534
1891,0.0898848623
1892,0.004715681542
1893,0.3384566605
1894,-0.2699374259
1895,-0.01934717223
1896,-0.2239786237
1897,0.06885216385
1898,0.0579161495
1899,0.2944120169
1900,0.3573150039
1901,-0.1136315018
1902,0.3164493442
1903,-0.2072492242
1904,-0.004090745468
1905,-0.3360280097
1906,0.3417868018
1907,-0.05474647135
1908,-0.2215333581
1909,0.2169420868
1910,0.1510903388
1911,-0.107757777
1912,-0.05460145324
1913,-0.19416143
1914,0.09354092181
1915,0.279686451
1916,0.2751055658
1917,-0.2313863486
1918,-0.2306631058
1919,0.007330816239
1920,0.7718550563
1921,-1.435689569
1922,-0.1306557655
1923,0.484313488
1924,0.9292180538
1925,0.262889713
1926,-0.519495666
1927,-0.599873662
1928,0.3567384481
1929,0.4768060148
1930,-0.5348277092
1931,-0.9080384374
1932,-0.5385317802
1933,-0.7323087454
1934,0.2020633221
1935,-0.0338922739
1936,-0.8620371222
1937,0.6457387209
1938,0.7367130518
1939,-0.1381101012
1940,-0.9682924151
1941,-0.07166743279
1942,0.2920366228
1943,-0.2580860555
1944,0.1483828127
1945,0.7096917033
1946,0.06638945639
1947,-0.02792748436
1948,0.2959437072
1949,-0.07141228765
1950,0.5621318221
1951,-0.8370559812
1952,-1.472832203
1953,2.075102568
1954,0.8077424169
1955,-3.136597395
1956,-1.081278443
1957,-0.9177161455
1958,0.5727670789
1959,0.9656643867
1960,-0.5245606899
1961,0.6161618829
1962,-0.4426645637
1963,1.147448778
1964,-0.3804708719
1965,-0.3049340248
1966,0.6335672736
1967,0.5609380007
1968,-0.6623899341
1969,-0.08995682001
1970,0.8564645648
1971,0.995349884
1972,-0.05314517766
1973,-1.124096036
1974,-0.2530825734
1975,-0.02817041054
1976,0.5373417735
1977,0.4755460918
1978,0.7233960032
1979,0.8643742204
1980,-0.416518122
1981,0.346193254
1982,0.9969927669
1983,-0.2209808528
1984,-0.07633859664
1985,-4.619235039
1986,0.123153694
1987,-2.105061769
1988,0.2229941785
1989,-0.2475835532
1990,0.6011718512
1991,-0.2892640233
1992,0.1871227771
1993,0.2138461173
1994,1.221651316
1995,0.006529365666
1996,0.2340355217
1997,-0.7310931683
1998,-1.716187477
1999,0.3822730184
2000,0.4185903668
2001,0.1280304193
2002,0.3208967745
2003,0.2953739464
2004,-0.234557569
2005,-0.3208886087
2006,-0.3169076741
2007,0.7497161031
2008,-0.5730577707
2009,-0.5362272859
2010,-0.2106220126
2011,-0.3335154057
2012,0.1358460486
2013,-0.4682966769
2014,0.336648494
2015,0.4979570806
2016,-1.582026362
2017,0.6317159534
2018,0.7316830754
2019,-0.142626822
2020,0.1606004685
2021,0.582952857
2022,0.6617732048
2023,-0.5221085548
2024,0.2418483049
2025,-0.1605409831
2026,-0.2577129304
2027,-0.1192057803
2028,-3.824786186
2029,-0.1263885349
2030,-0.2228786498
2031,0.4928229451
2032,-0.914560616
2033,-0.3623894453
2034,-0.707778275
2035,0.8639268875
2036,-3.889306545
2037,-0.1057076603
2038,0.1475547999
2039,-0.3917309344
2040,-0.6525018215
2041,0.274902761
2042,0.6154667139
2043,0.129139483
2044,-0.7847745419
2045,-0.1519801766
2046,-0.1921123415
2047,-0.1524522156
2048,1.662128091
2049,0.01144739985
2050,-0.518245995
2051,-0.4491384327
2052,-0.1053465679
2053,0.08355816454
2054,-1.001016498
2055,-0.03135669604
2056,0.1984234303
2057,-0.7986268401
2058,-0.589586556
2059,-0.3631530702
2060,-0.3024694026
2061,0.1669879556
2062,-0.3770287335
2063,1.238294363
2064,-0.3936635852
2065,-0.2669929266
2066,-1.119440675
2067,0.569198966
2068,-0.2190345526
2069,0.3351246119
2070,0.2430212498
2071,0.8120082617
2072,1.360280871
2073,-0.9548967481
2074,-1.202143431
2075,-1.115163922
2076,0.1200279593
2077,0.5863760114
2078,0.2580435574
2079,-1.007978559
2080,0.1111631468
2081,1.139820099
2082,0.7431854606
2083,-0.2125942558
2084,-1.048668385
2085,-0.6597077847
2086,0.07616265118
2087,-0.1701269001
2088,-0.6170509458
2089,0.6769894361
2090,1.017762542
2091,0.5402382612
2092,0.2615013421
2093,0.2479601204
2094,0.9361755848
2095,-0.2984282076
2096,1.062523484
2097,0.04346508533
2098,-0.4493879676
2099,-0.3461925983
2100,-1.046272159
2101,-0.2433024049
2102,0.9961931705
2103,-0.3261510134
2104,-0.8538424969
2105,-0.5854815841
2106,0.2272036374
2107,-0.4891774058
2108,-0.4532907009
2109,0.08006658405
2110,0.6912639141
2111,0.7058982849
2112,0.02702300251
2113,-4.193738937
2114,0.5732480884
2115,-1.287766814
2116,0.00741530722
2117,-0.3316934705
2118,-0.1765315831
2119,-0.1128871143
2120,-0.4852226079
2121,0.3541268706
2122,0.6028112173
2123,0.4170742929
2124,0.3064975441
2125,-1.684322834
2126,-1.770000339
2127,-0.5924080014
2128,-0.48559466
2129,0.02601147816
2130,0.5517488718
2131,-0.593239367
2132,0.06002356112
2133,0.2946552336
2134,0.0339884758
2135,0.1123083979
2136,-0.530820787
2137,-1.183735847
2138,-0.4001450539
2139,-0.3075043559
2140,-0.4337876737
2141,-0.08143149316
2142,0.7484816313
2143,0.9633547068
2144,-0.9468570948
2145,0.4418921471
2146,-0.3108303547
2147,-0.37951684
2148,-0.3739016652
2149,0.4071302116
2150,0.5255908966
2151,-0.2866410017
2152,0.9287745953
2153,-0.4526638091
2154,-0.07093695551
2155,-0.2435094416
2156,-1.593750119
2157,-0.1746073961
2158,0.4788929224
2159,0.5863178372
2160,-0.3760458231
2161,-0.3357623219
2162,-0.5930631757
2163,0.9368451834
2164,-1.760293722
2165,0.3019735217
2166,-1.26768899
2167,1.069680095
2168,0.2503526509
2169,0.1537543386
2170,0.8893985152
2171,1.203743577
2172,-0.8429492116
2173,-0.1667427719
2174,0.2656223178
2175,0.1242726147
2176,0.3740931153
2177,0.2305808216
2178,0.8486213088
2179,-0.3223651648
2180,1.026335359
2181,0.2858020067
2182,-0.1667486131
2183,-0.5314360857
2184,0.07207787782
2185,-0.116373919
2186,-0.9023520947
2187,-0.4605476558
2188,0.4703481495
2189,-0.8731936812
2190,-0.1241575405
2191,0.2581584156
2192,-0.3031861484
2193,0.1788953692
2194,0.0528768301
2195,0.1286318749
2196,0.3091208637
2197,-0.3491745293
2198,-0.3433457613
2199,0.3014892936
2200,0.109581694
2201,0.1019539014
2202,-1.06147325
2203,-0.3535298407
2204,0.1132024005
2205,-0.6541457176
2206,-0.601970315
2207,-0.1170884147
2208,-0.09253206104
2209,0.7760927081
2210,-0.127530396
2211,-0.06271408498
2212,-1.054580092
2213,0.05309682339
2214,0.815428853
2215,-0.4655240774
2216,-0.4573946297
2217,-0.09370701015
2218,0.4090129733
2219,0.4042080045
2220,0.0744677037
2221,0.01093668025
2222,-0.1824737191
2223,0.1448257267
2224,-0.295447886
2225,0.1311293244
2226,0.2382469475
2227,-0.3652503192
2228,-1.240048766
2229,0.08850573003
2230,0.8016973734
2231,-0.8547207117
2232,-0.372364223
2233,0.2010160387
2234,0.2003120929
2235,0.415350318
2236,0.1651924253
2237,-0.3090103865
2238,0.3799447417
2239,0.3218164742
2240,-0.1253426671
2241,-4.11549139
2242,0.1458238065
2243,-1.264935493
2244,0.4051525295
2245,-0.239858523
2246,0.3417363465
2247,-0.1991680861
2248,-0.8000184894
2249,0.7608106136
2250,0.4267966449
2251,0.4902019799
2252,0.5054556727
2253,-1.442431569
2254,-1.933805823
2255,-0.1330257207
2256,-0.9148561954
2257,-0.05685048178
2258,0.6838577986
2259,-0.9248279929
2260,-0.2586702704
2261,-0.1972954273
2262,0.1490492374
2263,-0.1434462517
2264,-0.1513626277
2265,-0.9841435552
2266,-0.2619833052
2267,-0.09183574468
2268,-0.0974880904
2269,0.3119641244
2270,0.3996983171
2271,0.7656713724
2272,-1.178008676
2273,0.1066170484
2274,-0.1816535294
2275,-0.1343988925
2276,-0.5969187021
2277,0.1908075213
2278,0.6981540322
2279,-0.1084216237
2280,1.215785265
2281,-0.5748120546
2282,0.07894295454
2283,-0.2180093527
2284,-1.842310786
2285,0.3070428967
2286,0.1035148725
2287,0.6054708958
2288,-0.2118810415
2289,0.2155497521
2290,-1.189228415
2291,0.7106688023
2292,-1.820364356
2293,0.2711389661
2294,-0.8099446297
2295,1.342574
2296,-0.2945097089
2297,0.2703773081
2298,1.081079006
2299,1.221664429
2300,-0.2203122377
2301,-0.001724121161
2302,0.4217451215
2303,0.3203127682
2304,-7.466162682
2305,-2.72735858
2306,-3.030661583
2307,-5.802202702
2308,-3.949954033
2309,0.376714915
2310,-6.384908199
2311,1.382151484
2312,-3.272143841
2313,-3.083484173
2314,0.6902325749
2315,0.4758195877
2316,8.109436989
2317,3.013956785
2318,3.768300772
2319,2.702483416
2320,3.872451067
2321,3.649075985
2322,-2.269200325
2323,-3.329322577
2324,1.648212552
2325,-0.02901924029
2326,0.001245485619
2327,0.9858121872
2328,1.688929915
2329,1.115957499
2330,-2.682210445
2331,-6.650941372
2332,3.326250076
2333,-0.6227368712
2334,3.769656658
2335,-3.391841412
2336,2.713673115
2337,-5.960403442
2338,-3.941174984
2339,2.209890842
2340,-0.6707727313
2341,3.886512518
2342,2.068531752
2343,-8.675951004
2344,4.564168453
2345,-0.2066072226
2346,-3.766664743
2347,-2.51240921
2348,-4.661035538
2349,-0.150734365
2350,0.5217857957
2351,2.064873695
2352,2.013469219
2353,-2.13019228
2354,-4.565749645
2355,-3.91114974
2356,-2.892669678
2357,4.213419437
2358,1.59837091
2359,1.464998007
2360,0.5635377765
2361,-3.180146456
2362,1.455863118
2363,-0.9360215068
2364,2.294616938
2365,0.1481731385
2366,3.31199646
2367,2.417720318
2368,-0.4917347729
2369,0.2987575531
2370,0.3315870464
2371,-0.2003114969
2372,-0.1084274575
2373,-0.2367888391
2374,0.2898506224
2375,-0.00510833459
2376,0.09313837439
2377,0.4056079686
2378,0.02217020467
2379,-0.09840451926
2380,-0.5755957365
2381,0.1650193334
2382,0.1962357312
2383,-0.4774538577
2384,0.02416631207
2385,-0.215060249
2386,0.4003772736
2387,0.1193398312
2388,-0.1821577847
2389,-0.0003044506593
2390,-0.3562595546
2391,0.3302959502
2392,0.1104789376
2393,0.2192093581
2394,0.2037785798
2395,-0.307878077
2396,0.3855542243
2397,-0.1916064769
2398,0.08536244184
2399,-0.05354911089
2400,0.4575446844
2401,-0.7049862146
2402,-0.5709214211
2403,-0.05128927901
2404,-0.1074675918
2405,0.3856705725
2406,-0.02757262811
2407,0.3862680197
2408,0.3107670248
2409,0.2375084609
2410,-0.1211986691
2411,-0.1050617918
2412,-0.2993997931
2413,-0.3042171001
2414,-0.05120104924
2415,-0.4362814426
2416,0.3050819039
2417,-0.3254903555
2418,0.0389585942
2419,-0.1736614853
2420,0.5423544049
2421,0.2322130948
2422,0.1540068835
2423,-0.2720379829
2424,0.3471051455
2425,-0.1190333664
2426,-0.1085130125
2427,-0.2630026042
2428,0.04567739367
2429,-0.1112356558
2430,0.3529134393
2431,0.2757435441
2432,0.17657727
2433,-0.6494596601
2434,0.5469991565
2435,-1.040785193
2436,0.04731878266
2437,0.386544615
2438,0.4427168071
2439,0.1975715309
2440,-0.2077917308
2441,-0.003729620483
2442,-0.7800269127
2443,-0.3728846312
2444,0.2623007298
2445,-0.645367384
2446,-0.4481475651
2447,0.4886226952
2448,0.2215154916
2449,-0.7266152501
2450,-0.03233869746
2451,-0.05028242618
2452,-0.2318602204
2453,-0.3169941604
2454,0.1946988106
2455,-0.1126439348
2456,0.2573822737
2457,-0.7578164339
2458,-0.5240442753
2459,-0.4639195502
2460,-0.0007246618625
2461,-0.1952507198
2462,0.1835769415
2463,0.1425533593
2464,0.3879024684
2465,-0.7519669533
2466,0.4460466802
2467,0.06447794288
2468,-0.003634107998
2469,0.191616714
2470,0.05722141266
2471,-0.4656262398
2472,-0.00301910378
2473,0.06448145211
2474,0.03901838884
2475,-0.3502961993
2476,-0.5470994115
2477,-0.3881063163
2478,-0.4921682179
2479,-0.08510895073
2480,-0.2172519118
2481,-0.2539368272
2482,-0.3820643127
2483,0.4381633997
2484,-1.322314024
2485,0.321049571
2486,-0.1249492913
2487,0.1595099866
2488,-0.7682185769
2489,0.4579885304
2490,0.5787858367
2491,0.6165495515
2492,-0.9571021795
2493,-0.1761405468
2494,-0.05568528548
2495,-0.08664408326
2496,0.01852152869
2497,0.07607996464
2498,-3.31713818e-05
2499,0.05494090542
2500,0.03497454152
2501,0
2502,0.03160369396
2503,-0.03820708767
2504,-0.1869463921
2505,0.007618439384
2506,-0.1093989313
2507,-0.0147829596
2508,0.05378460884
2509,0.1721509546
2510,0.143944487
2511,0.04760919511
2512,-0.07473110408
2513,0.131584689
2514,0.1118156984
2515,-0.1983139217
2516,0.007063060533
2517,-0.01105470303
2518,0
2519,0.02389032394
2520,-0.04951465875
2521,0.147818163
2522,-0.07209158689
2523,0.01187228225
2524,0.01056300662
2525,-0.2200588137
2526,0.01749099791
2527,-0.1227874234
2528,0.08028075099
2529,0.06229221076
2530,0.04056445882
2531,0.01944801025
2532,-0.1253354698
2533,-0.02491324022
2534,-0.09935116023
2535,-0.03851750866
2536,0.0347869359
2537,0.01759660244
2538,0.01384875644
2539,-0.02438382991
2540,0.02925745212
2541,0
2542,-0.04366224632
2543,-0.02969653532
2544,-0.005310337525
2545,-0.03621549904
2546,0.01953945868
2547,-0.04914710671
2548,0.008675148711
2549,-0.07417530566
2550,-0.04513682425
2551,-0.01822453737
2552,0.2015528381
2553,-0.06397500634
2554,-0.1219176203
2555,0.0851848349
2556,0.1123703867
2557,0
2558,0.02317148447
2559,0.07303804159
2560,-0.001860578777
2561,-0.3072525859
2562,0.1322026551
2563,0.2650105953
2564,0.05684712902
2565,-0.2587922812
2566,0.1072787941
2567,0.1681455076
2568,-0.2126197517
2569,-0.2640470564
2570,-0.1531657577
2571,0.3996374309
2572,-1.29718256
2573,0.0981760174
2574,-0.6620031595
2575,-0.1334052384
2576,0.4987589419
2577,-0.3772081137
2578,0.1080445871
2579,0.4546781778
2580,0.4852773845
2581,-0.1530492902
2582,0.2246677727
2583,0.1119442955
2584,0.08787634224
2585,0.05111802369
2586,-0.1810802072
2587,-0.7676454782
2588,0.4202664495
2589,0.1711015403
2590,-0.001861899626
2591,0.2661324143
2592,-0.3767211139
2593,0.5249272585
2594,-0.3420811892
2595,-0.01936086267
2596,-0.459934175
2597,-0.3239991069
2598,-0.404501915
2599,-0.4012117088
2600,0.3017163873
2601,-0.4030139744
2602,-0.1737564504
2603,0.1563723385
2604,0.4839000404
2605,-0.07970524579
2606,0.3240057528
2607,-0.1227059364
2608,-0.2826998234
2609,0.2379882485
2610,0.2554934919
2611,0.1152085587
2612,0.1466793716
2613,-0.2363441139
2614,0.2029952258
2615,0.5635307431
2616,-0.3715060949
2617,-0.2423480302
2618,0.5289320946
2619,0.2918195426
2620,-0.1503683031
2621,0.4434883296
2622,0.06500927359
2623,-0.7795307636
2624,-0.6135898232
2625,-0.04353374615
2626,0.1807629317
2627,-0.4822799563
2628,-0.2446651459
2629,0.06490816921
2630,-1.018498778
2631,-0.08354396373
2632,-0.4528592825
2633,-0.006821970921
2634,1.292307377
2635,-0.7234701514
2636,0.3832397461
2637,-0.1675734222
2638,-1.082640171
2639,-0.195617348
2640,0.8000103235
2641,0.1149421036
2642,0.1737239957
2643,-1.169220686
2644,-0.2684378624
2645,-0.2806393802
2646,-0.8306319714
2647,-1.034444809
2648,0.4745212197
2649,-0.7035943866
2650,-0.1153054386
2651,0.6481561661
2652,0.1240362823
2653,-1.500482082
2654,0.2130882442
2655,0.1200491562
2656,0.96796453
2657,0.6186875105
2658,-0.4705015123
2659,0.7817695141
2660,-0.003129457356
2661,-0.05589019135
2662,-0.02602795698
2663,0.1011971608
2664,0.9979202151
2665,-0.1411300898
2666,0.2415616363
2667,-0.8364770412
2668,0.6140986085
2669,0.01479655411
2670,-0.4861612916
2671,0.3609483838
2672,0.7316462994
2673,0.2191149145
2674,0.4481655359
2675,0.1040089801
2676,0.2617467344
2677,-0.3082047999
2678,0.582568109
2679,-0.9486079216
2680,0.1236706153
2681,-0.5051704645
2682,-0.01518828422
2683,-0.09258297086
2684,0.2345059514
2685,0.7618407607
2686,-0.6280261278
2687,-0.2111041695
2688,-0.5044875145
2689,-0.2768103778
2690,0.190140143
2691,0.3038724959
2692,-0.1756442934
2693,-0.3391287029
2694,0.2028596848
2695,0.02967960015
2696,0.3405381739
2697,-0.09360414743
2698,-0.07158376276
2699,0.07848133892
2700,0.09161693603
2701,-0.6128746271
2702,0.1094976142
2703,0.4705364704
2704,-0.05310977623
2705,-0.4065338075
2706,0.4626023173
2707,-0.1418106258
2708,0.5400140285
2709,-0.1061657742
2710,-0.05251976475
2711,-0.1218704432
2712,0.4364132881
2713,0.1462060511
2714,0.249180913
2715,-0.08119850606
2716,-0.6224947572
2717,0.3808541894
2718,0.3562951982
2719,-0.09422602504
2720,-0.2822881639
2721,0.3123172522
2722,0.238953352
2723,0.390244931
2724,0.05629547685
2725,-0.2228455395
2726,0.1442089528
2727,-0.2602519989
2728,0.07976642996
2729,0.7042860985
2730,-0.1999626905
2731,0.3006480634
2732,0.09924605489
2733,-0.2355478108
2734,-0.5384287238
2735,0.009576672688
2736,0.1367488056
2737,0.1413719952
2738,0.1521064788
2739,-0.04320641235
2740,-0.332673341
2741,0.09801851958
2742,0.1211498082
2743,0.2253821194
2744,-0.09695985913
2745,0.1853189468
2746,-0.3433635831
2747,0.113006644
2748,-0.4611599147
2749,0.2158159167
2750,0.1723484248
2751,-0.08900308609
2752,-0.5421030521
2753,-0.6951216459
2754,-0.05455370247
2755,0.747545898
2756,-0.3706107736
2757,0.08952815086
2758,-0.5302791595
2759,-0.04044354707
2760,0.1877406985
2761,0.5969208479
2762,0.07973178476
2763,0.04821846262
2764,-0.7209877372
2765,-0.394136548
2766,-0.6499428749
2767,0.1173091531
2768,0.8465489149
2769,0.231559813
2770,0.1101702228
2771,0.1140178442
2772,-0.4146065414
2773,0.1981138885
2774,0.6434454322
2775,0.1946115792
2776,0.2909777164
2777,1.0759691
2778,-0.08735049516
2779,-0.5763511062
2780,0.2793300748
2781,0.209714368
2782,0.3545138836
2783,0.1666795909
2784,-0.7662956715
2785,0.9583527446
2786,-0.4015257061
2787,0.6037151814
2788,0.1856413633
2789,0.08155165613
2790,-0.03862616792
2791,-0.4546170235
2792,-0.1014846265
2793,0.255761236
2794,-0.2537603974
2795,-0.7240208983
2796,-0.7583547831
2797,0.1517165005
2798,0.04001220316
2799,0.2955666184
2800,0.2455975562
2801,0.6686016917
2802,0.2149502486
2803,0.1386000216
2804,-0.2295449972
2805,0.1482156962
2806,0.6948636174
2807,0.341072917
2808,0.3795836866
2809,-0.6098599434
2810,0.2688847184
2811,0.04055619985
2812,-0.6624565125
2813,0.5421565175
2814,0.3907419741
2815,-0.02623096481
2816,-0.7126920819
2817,-0.1024940535
2818,-0.1181230918
2819,0.01086595003
2820,0.1013336033
2821,-0.01788488775
2822,0.1783412099
2823,-0.3376512527
2824,-0.5171973705
2825,0.04516143724
2826,-0.2749839723
2827,-0.5158851147
2828,0.3248235881
2829,-0.04106727242
2830,0.002006109804
2831,0.3394171
2832,0.3178930879
2833,-0.4547455907
2834,-0.1095582172
2835,-0.05853300542
2836,-0.008618240245
2837,-0.337394774
2838,-0.492325753
2839,-0.6490681767
2840,0.4148304164
2841,0.2063723207
2842,-0.1938761771
2843,-0.4904020131
2844,-0.1788952202
2845,-0.1155616269
2846,-0.2070448101
2847,-0.2074762136
2848,0.48188591
2849,-0.02141554281
2850,0.0952129513
2851,-0.03177457303
2852,0.201591447
2853,0.1641314924
2854,-0.127509132
2855,0.04832381383
2856,-0.05532868952
2857,-0.4648121893
2858,0.3104704618
2859,0.06707762182
2860,0.2196523845
2861,-0.1492166668
2862,-0.3988678753
2863,0.1937027276
2864,-0.1101507992
2865,-0.6517469287
2866,-0.05333914608
2867,-0.093132101
2868,0.2197975367
2869,-0.3158948421
2870,-0.03285511583
2871,-0.2542763352
2872,-0.1106959581
2873,-0.4161053598
2874,-0.2379780561
2875,0.1441304833
2876,0.01550965477
2877,0.1253544092
2878,0.4287095964
2879,-0.005551540758
2880,0.272115469
2881,0.2920645475
2882,0.02962093242
2883,0.08556123823
2884,-0.05094162002
2885,0.08429194242
2886,-0.1611937135
2887,0.0788243562
2888,-0.04765891284
2889,-0.01615528204
2890,-0.02493114397
2891,-0.2927690446
2892,0.01731462032
2893,0.2603100836
2894,0.2727436125
2895,-0.09649598598
2896,-0.2040003538
2897,0.01950047351
2898,-0.1842527986
2899,-0.07229062915
2900,-0.2568763793
2901,-0.1609171629
2902,0.09477196634
2903,-0.2826711535
2904,0.2834773362
2905,-0.2879618108
2906,-0.09207247943
2907,-0.1735209823
2908,0.2484011203
2909,0.1187709868
2910,0.02378457971
2911,0.04183767363
2912,-0.158154428
2913,-0.2156759948
2914,-0.1578955948
2915,-0.1287440807
2916,-0.1902927756
2917,-0.2460538894
2918,0.2434433401
2919,-0.129528746
2920,-0.2562761605
2921,0.05308857933
2922,0.03324314207
2923,0.00706151966
2924,-0.06961905211
2925,-0.1385806501
2926,0.1084623709
2927,0.1053956226
2928,-0.09934287518
2929,0.2019775957
2930,0.2058283389
2931,-0.1830717325
2932,-0.199406743
2933,-0.1731106341
2934,-0.1955530047
2935,0.07566919923
2936,0.140064612
2937,-0.2189565599
2938,-0.2677728832
2939,0.1047180295
2940,0.189198941
2941,-0.2768756747
2942,-0.2300559133
2943,-0.1339718848
2944,0.5280126333
2945,-0.6794196367
2946,-0.472668916
2947,-0.1565006077
2948,0.280608803
2949,-0.2050464749
2950,-0.003599660704
2951,-0.2552389503
2952,0.3199778497
2953,-0.296349287
2954,-0.7915300727
2955,0.02960688621
2956,0.01098228246
2957,0.6470742226
2958,-0.1808907539
2959,-0.9519848824
2960,0.08946491778
2961,0.3076824546
2962,-0.3049681187
2963,0.2986259162
2964,0.3826679289
2965,0.06953340769
2966,-0.2882586122
2967,-0.6722796559
2968,-0.01199579518
2969,-0.3149982095
2970,0.007854733616
2971,-0.01366243698
2972,-0.01442461181
2973,-0.6427006125
2974,0.05029615015
2975,0.3935059011
2976,0.0573624447
2977,-0.2426858544
2978,-0.4607209861
2979,0.05197054148
2980,-1.231191874
2981,-0.2243407369
2982,-0.0118898768
2983,-0.1800507903
2984,0.1146489531
2985,0.2450153828
2986,0.2879030704
2987,0.1920001507
2988,-0.04961844534
2989,0.2221607268
2990,-0.3140075505
2991,-0.2072958201
2992,-0.5806620121
2993,-0.6686702371
2994,-0.03342160955
2995,-0.01908499375
2996,-0.2567306757
2997,-0.2784021795
2998,0.2322419882
2999,-0.03336043656
3000,-0.1645832211
3001,-0.01640303805
3002,0.4875219166
3003,0.2064304352
3004,0.04761607572
3005,0.08607114851
3006,0.2828547359
3007,0.1917601675
3008,0.232747972
3009,-0.04931732267
3010,0.2612577975
3011,-0.01537920069
3012,0.191706866
3013,-0.3050355315
3014,0.1409326941
3015,-0.3081531227
3016,0.1207845882
3017,-0.2124699354
3018,0.3754713833
3019,-0.2743691802
3020,0.2686459422
3021,0.3959771395
3022,0.4851928651
3023,-0.1833361238
3024,-0.6395330429
3025,0.03402352333
3026,0.04526907578
3027,-0.6458650231
3028,-0.3038790226
3029,-0.09460716695
3030,-0.06980900466
3031,0.3470372856
3032,-0.1475677937
3033,0.08211110532
3034,-0.177777648
3035,0.1075207517
3036,0.08147543669
3037,0.005532083567
3038,0.1656973809
3039,0.3452867866
3040,-0.1357286572
3041,0.1221710294
3042,0.04026220366
3043,0.1257957816
3044,0.2658883333
3045,-0.2801964581
3046,0.4370763898
3047,-0.3198692203
3048,-0.1536076367
3049,-0.2080539614
3050,0.1545688361
3051,-0.06033330783
3052,-0.4747038484
3053,-0.09862286597
3054,0.2000620067
3055,-0.0601866208
3056,0.009955311194
3057,0.2008615881
3058,-0.4398646355
3059,-0.5208649635
3060,-0.1150864139
3061,-0.282568574
3062,-0.3454719186
3063,-0.1577533185
3064,-0.05597698689
3065,-0.2218176574
3066,0.452439636
3067,0.1882042289
3068,0.2100227028
3069,0.1672035158
3070,-0.1098889932
3071,-0.1190707684
3072,-0.1493705511
3073,0.1506683975
3074,0.1584871113
3075,0.1974435747
3076,-0.3967791498
3077,-0.2827195227
3078,0.08210341632
3079,-0.1923456937
3080,0.3015559018
3081,-0.273912698
3082,0.2141573727
3083,0.3934574127
3084,-0.3502435982
3085,-0.278932631
3086,-0.03542932495
3087,0.1313891858
3088,0.283814013
3089,-0.04213794693
3090,0.2991366088
3091,0.1236897931
3092,-0.1211432368
3093,-0.2296367139
3094,-0.02242234349
3095,0.2312162071
3096,0.001774277305
3097,-0.08513985574
3098,-0.07255101204
3099,0.1275953054
3100,0.04058917612
3101,-0.2390987873
3102,-0.1102209911
3103,0.2047156841
3104,0.2288826704
3105,0.03215913475
3106,0.2169910818
3107,-0.1269215494
3108,-0.0197994858
3109,-0.2477286607
3110,-0.08776111156
3111,0.2391248047
3112,0.03663713858
3113,0.1094382927
3114,-0.2090355754
3115,0.428394258
3116,-0.2887136042
3117,-0.4234802127
3118,0.01762718335
3119,0.1000750065
3120,0.1323186606
3121,-0.2024037838
3122,0.01690790989
3123,0.08457420766
3124,-0.2208577842
3125,-0.3456569016
3126,-0.02864623442
3127,0.3082431257
3128,0.184747681
3129,0.1680583209
3130,0.09861275554
3131,0.1494631022
3132,-0.0860453397
3133,0.1945464462
3134,-0.6371163726
3135,-0.4210400283
3136,-0.6362860799
3137,-0.2891213596
3138,-0.1054736897
3139,-0.1421770751
3140,-0.1534603238
3141,-0.3036144078
3142,0.1377966851
3143,0.02799847908
3144,0.6253548265
3145,-0.04874017835
3146,-0.46935305
3147,0.5474457145
3148,-0.105162397
3149,-0.5201930404
3150,0.1737269163
3151,0.3004803956
3152,-0.2221221924
3153,0.2643435895
3154,-0.4804548025
3155,0.08359334618
3156,0.2040770501
3157,0.0343824625
3158,-0.6918997169
3159,0.5819423199
3160,0.07269563526
3161,-0.245286271
3162,0.1341319382
3163,-0.553801477
3164,-0.09556566924
3165,-0.1077740118
3166,0.1600406617
3167,-0.1577204913
3168,0.01801973395
3169,-0.1110071689
3170,-0.01097324584
3171,0.2057429403
3172,-0.1452250332
3173,0.09913158417
3174,-0.2603269219
3175,0.3681819737
3176,0.07535230368
3177,0.6572319865
3178,0.2213350236
3179,0.2137481272
3180,0.1817297786
3181,-0.2484437078
3182,-0.2179880887
3183,0.2605176568
3184,-0.4984284937
3185,0.6236587167
3186,-0.1093117818
3187,0.1766865402
3188,-0.1527571678
3189,-0.3937735558
3190,-0.3535464406
3191,-0.1222672909
3192,-0.793936193
3193,0.3150562346
3194,0.1924619377
3195,-0.03366764635
3196,0.4177559316
3197,0.1706736386
3198,-0.004224471282
3199,-0.1230456978
3200,-0.07282168418
3201,-0.3738051951
3202,-0.192702204
3203,-0.673701942
3204,0.08167137951
3205,-0.1132383719
3206,0.8795258403
3207,-0.05384900793
3208,0.174155578
3209,0.3180989921
3210,-0.144671753
3211,0.7757781744
3212,0.5549188256
3213,0.2432175875
3214,0.6107131243
3215,0.845087111
3216,-1.047774673
3217,0.3928837478
3218,0.1347792447
3219,-1.229738355
3220,0.079604581
3221,0.06598678231
3222,-0.09958563745
3223,-0.0001438932668
3224,0.8766834736
3225,-0.4529200494
3226,0.2557584643
3227,-0.5052872896
3228,0.09668798745
3229,-0.1061318144
3230,0.2694302201
3231,-0.3965726197
3232,-0.281804353
3233,-1.070842981
3234,0.4520088136
3235,0.02340946533
3236,1.022073984
3237,-0.2952925861
3238,0.508831203
3239,-0.05256732181
3240,-0.3192742467
3241,0.909132421
3242,0.5043863058
3243,-0.08098631352
3244,-0.2247238308
3245,-0.1092063114
3246,0.3541026115
3247,0.2289986759
3248,0.07069997489
3249,0.5376757979
3250,0.2597368956
3251,0.2414306253
3252,-0.1667096615
3253,-0.2261992842
3254,-0.7130897641
3255,0.2639345527
3256,-0.825532198
3257,0.2123137861
3258,-0.03324820474
3259,0.4237633646
3260,0.6047061086
3261,0.6008592844
3262,-0.4926129878
3263,-0.1023342162
3264,0.4793729782
3265,-0.4280049205
3266,0.1076379493
3267,-0.8571290374
3268,0.3815462589
3269,-0.2753302753
3270,0.535136342
3271,-0.3025007248
3272,0.3462218344
3273,-0.1269736141
3274,-0.1727846265
3275,0.4355011284
3276,0.459965378
3277,0.9998368025
3278,0.4440193772
3279,-0.1386799812
3280,-0.6493266225
3281,0.548409164
3282,-0.4789699316
3283,-0.1975158155
3284,0.4949870706
3285,0.04796098545
3286,-0.9578145742
3287,0.02808838338
3288,0.1678497791
3289,-0.6552007794
3290,-0.1838521957
3291,-0.2964088321
3292,0.02706807293
3293,-0.3145985901
3294,0.1277859956
3295,-0.2149137855
3296,0.1360547245
3297,-1.173771024
3298,-0.8314135671
3299,-0.6811233759
3300,-1.173030615
3301,0.09853903204
3302,0.1501186639
3303,0.002808069112
3304,0.1642869711
3305,-0.80472368
3306,-0.2227703631
3307,0.5912786126
3308,-0.6257784367
3309,-0.1648619026
3310,0.5563195348
3311,-0.2408473641
3312,0.03971651569
3313,-0.07571730018
3314,0.2453827262
3315,-0.02295199595
3316,0.2888076901
3317,-0.07033327967
3318,-1.017119884
3319,-0.02307297289
3320,-0.231037125
3321,-0.3333410621
3322,0.3135305047
3323,0.000639808597
3324,-0.4622916281
3325,-0.843397975
3326,-0.9282197952
3327,-0.06272429228
3328,0.1386336237
3329,1.125983596
3330,0.3025864363
3331,-0.3058770001
3332,-0.1108201891
3333,0.05953209475
3334,0.5521456003
3335,0.2142189443
3336,0.0772196129
3337,-0.3823310733
3338,-0.5745648742
3339,-0.2713156939
3340,0.1667181551
3341,0.08345040679
3342,0.2720504701
3343,-0.3268452585
3344,-0.8734934926
3345,0.1050590351
3346,-0.3652459979
3347,-0.2094085962
3348,-0.3803427219
3349,0.1558953822
3350,0.319611907
3351,-0.155500859
3352,-0.3018594682
3353,0.02071516588
3354,-0.2518019676
3355,1.253278971
3356,-0.007157742511
3357,-0.7166004777
3358,-0.5115962029
3359,-0.1560756415
3360,-1.161169648
3361,-0.3875311017
3362,-0.2827742994
3363,0.0591135174
3364,0.02557666786
3365,0.02160444856
3366,0.3350833356
3367,-0.1675483882
3368,-0.1702269167
3369,-0.984141171
3370,0.1263623089
3371,-0.3701835871
3372,0.05489904061
3373,-0.1384408027
3374,0.3604820371
3375,-0.2175677121
3376,0.2647320926
3377,0.2657027245
3378,0.415561676
3379,0.1155202761
3380,-0.1592955589
3381,-0.1460230649
3382,0.44077456
3383,-0.7368516326
3384,0.2113105357
3385,-0.3717473745
3386,-0.5505641699
3387,-0.5728862286
3388,-0.6898649931
3389,-0.1325776726
3390,-0.1892322749
3391,0.389793694
3392,-0.1357325464
3393,-0.1432496011
3394,0.07275959849
3395,0.1196376756
3396,-0.5559127927
3397,0.07830996811
3398,-0.1037111208
3399,0.1580328047
3400,0.1888853759
3401,-0.2158181965
3402,0.631119132
3403,0.04413631931
3404,0.2892181575
3405,-0.04209331051
3406,0.1095493957
3407,-1.139423728
3408,0.3162841499
3409,0.4332740009
3410,-0.1954716146
3411,0.1413223445
3412,-0.2211568803
3413,-0.1381088644
3414,0.2013991922
3415,-0.3091876209
3416,-0.3722768128
3417,-0.09971943498
3418,-0.1036718413
3419,0.3595371544
3420,-0.3338423967
3421,-0.743538022
3422,-0.03098216094
3423,-0.479487896
3424,-0.178001985
3425,0.1711152196
3426,-0.04652815685
3427,0.1127618328
3428,-2.233265638
3429,-0.114469856
3430,-0.1518027037
3431,-0.3367924094
3432,0.1912928671
3433,0.01904043742
3434,0.1360289007
3435,-0.3548002541
3436,-0.4011940062
3437,0.2087411731
3438,-0.757245481
3439,-0.1466368735
3440,0.3518574238
3441,0.4179185331
3442,0.07648540288
3443,0.4790590405
3444,0.1959202588
3445,0.2395768464
3446,0.3138257861
3447,-0.01521905046
3448,0.3255248368
3449,0.2754253149
3450,-0.3091702759
3451,-0.2877911329
3452,-0.7834220529
3453,-0.06062388048
3454,-0.2391511053
3455,0.07725360245
3456,-0.2009724081
3457,0.2907051444
3458,0.1709797829
3459,0.2191962004
3460,-0.3094616234
3461,0.06524018943
3462,0.109310016
3463,-0.06997974217
3464,-0.2945250869
3465,0.1102437824
3466,0.3700713515
3467,-0.2000578493
3468,0.1565637887
3469,-0.05851803347
3470,-0.08396175504
3471,-0.1734932512
3472,0.6218903065
3473,-0.1021521911
3474,-0.3381007612
3475,0.2917020321
3476,0.3564046919
3477,0.01016620919
3478,0.1144636124
3479,-0.3508210182
3480,-0.1366114914
3481,-0.01850081421
3482,-0.3056207597
3483,0.3502267301
3484,0.07009733468
3485,-0.1266586483
3486,0.001283106045
3487,0.1721481681
3488,0.5180523992
3489,0.03300806507
3490,-0.4137962461
3491,0.2096574455
3492,0.08362092078
3493,0.01533163246
3494,-0.1239675879
3495,-0.04780216515
3496,0.1795439869
3497,-1.543433309
3498,0.2952685356
3499,0.02978712693
3500,-0.2258380949
3501,-0.2870205939
3502,-0.1866879016
3503,0.467123121
3504,0.382897228
3505,-0.6967628002
3506,0.4507305622
3507,-0.1825165451
3508,-0.1432977617
3509,-0.2671872079
3510,0.392836988
3511,-0.1635864675
3512,0.2852298617
3513,0.09344124049
3514,-0.3398513794
3515,0.04022526368
3516,-0.526925087
3517,0.07444392145
3518,0.2813402712
3519,0.09383872151
3520,-0.4083204269
3521,0.2942309678
3522,0.3560873568
3523,0.07848012447
3524,0.2337907404
3525,0.05661819503
3526,-0.7502672076
3527,-0.2622081041
3528,0.1314353049
3529,0.04662392288
3530,-0.4280533195
3531,-0.0531245172
3532,0.6730374098
3533,-0.2972702682
3534,0.0835808143
3535,-0.026470121
3536,0.4519936144
3537,-0.07981821895
3538,-0.3621144593
3539,0.1235914975
3540,-0.7736272812
3541,0.2388911694
3542,0.5808241963
3543,-0.6664022207
3544,-0.148764357
3545,0.4585612714
3546,-0.3396421969
3547,0.4283208251
3548,0.01388076413
3549,-0.320091784
3550,-0.8053165674
3551,-0.1202600002
3552,-0.7186860442
3553,0.1242348105
3554,-0.508671999
3555,-0.01267818641
3556,-0.6131421924
3557,-0.04617070407
3558,0.4497601986
3559,-0.6680855751
3560,-0.7204582691
3561,-0.927704215
3562,-0.1570583284
3563,-0.05182832107
3564,-0.1175368503
3565,-0.3261733353
3566,-0.4429281056
3567,-0.0223984234
3568,-0.4416140318
3569,-0.2058779746
3570,-0.1507921368
3571,0.2226433605
3572,-0.3008681536
3573,0.189486891
3574,0.1229441538
3575,-0.1616177559
3576,0.2695952356
3577,0.130029574
3578,-0.1940577626
3579,0.1703083664
3580,0.1853296608
3581,0.2046521008
3582,-0.08885483444
3583,0.4266029298
3584,-0.1501063704
3585,-0.09933006763
3586,-0.4878241718
3587,0.2902598083
3588,-0.06599345803
3589,-0.1312366575
3590,-0.1387400329
3591,0.001124609029
3592,0.4049625397
3593,0.05787672848
3594,-0.4405898154
3595,0.2852523923
3596,-0.4897937775
3597,0.0592870824
3598,-0.1140167266
3599,-0.8075833321
3600,-0.07180154324
3601,0.1356683671
3602,-0.1483136266
3603,-0.4080524147
3604,0.1439620405
3605,-0.2030011863
3606,-0.08546086401
3607,-0.6864979863
3608,-0.3075526357
3609,0.1813840866
3610,-0.1895197183
3611,0.5340411663
3612,-0.3617790639
3613,-0.4234293401
3614,0.08813422918
3615,0.07562530041
3616,-0.4891138971
3617,-0.1577894688
3618,0.1919872016
3619,-0.3355909884
3620,-0.6477890611
3621,-0.1230830699
3622,-0.4549801052
3623,0.02892879769
3624,0.1901589632
3625,0.3257156909
3626,0.3284970224
3627,0.1460895687
3628,0.1920496076
3629,-0.06704805046
3630,-0.03909798712
3631,-0.1984512955
3632,0.2650307417
3633,-0.06594382972
3634,-0.1551342458
3635,0.2154601365
3636,0.02820800804
3637,0.1211195365
3638,0.235373795
3639,-0.04352562129
3640,0.4271402359
3641,-0.1557513326
3642,0.3741307259
3643,0.1255284995
3644,-0.07737909257
3645,-0.1129589304
3646,-0.7765228152
3647,-0.3177100122
3648,-0.287343204
3649,0.1328757405
3650,0.2542494833
3651,-0.07800626755
3652,0.3207305968
3653,0.1297674179
3654,-0.3042905927
3655,0.1840798259
3656,0.2954357266
3657,0.3624480665
3658,-0.5447723269
3659,-0.3349151611
3660,-0.1821253896
3661,0.6781662703
3662,-0.1508233994
3663,-0.146006763
3664,-1.00015986
3665,-0.2163926065
3666,-0.0932912603
3667,0.1983416378
3668,-0.6637459993
3669,-0.08078856021
3670,-1.251423001
3671,0.1378046274
3672,-0.06062760949
3673,0.4159558713
3674,-0.1158014908
3675,0.6878917813
3676,-0.06645560265
3677,0.3414539695
3678,0.308072716
3679,0.154232949
3680,0.7186121941
3681,0.2090138495
3682,0.09235966951
3683,0.1223454475
3684,-0.07040792704
3685,-0.003485365538
3686,-0.1619581729
3687,0.9289899468
3688,-0.3392002583
3689,-0.6557813287
3690,-0.0436627157
3691,0.2682778835
3692,-0.1328733563
3693,0.2580504715
3694,-0.04806861654
3695,0.03196306527
3696,0.2250173092
3697,-0.3040996492
3698,-0.288682878
3699,-0.6384305954
3700,-0.216550082
3701,0.04357534647
3702,-0.8158328533
3703,-0.5471736789
3704,0.8223324418
3705,0.1637940854
3706,0.1110920012
3707,-0.9583654404
3708,0.2398328483
3709,-0.2265489846
3710,0.2006145269
3711,0.0898681134
3712,0.4180517495
3713,0.5700605512
3714,0.02814229205
3715,-0.009674071334
3716,-0.3155935109
3717,-0.1670442969
3718,-0.4041063786
3719,0.002488606144
3720,-0.07442616671
3721,0.2437243313
3722,-0.8687047362
3723,-0.125566721
3724,-0.1841940731
3725,-0.457264334
3726,-0.06181251258
3727,0.4619410634
3728,-0.02109445632
3729,-0.2275657803
3730,-0.03280615434
3731,0.2437499911
3732,0.09965777397
3733,-0.3042224944
3734,-0.03057646938
3735,-0.1045733616
3736,0.4129529893
3737,-0.356371969
3738,-0.2826393843
3739,-0.004509727936
3740,0.09801027924
3741,0.3852742016
3742,0.2058922946
3743,0.3718286753
3744,-0.02830971591
3745,0.2581704557
3746,0.3605672419
3747,-0.2149159759
3748,-0.09982389957
3749,0.2340047359
3750,-0.08289467543
3751,-0.3201551139
3752,-0.6556997299
3753,0.0742597878
3754,0.268781662
3755,0.02860484086
3756,0.04109593481
3757,-0.05586071685
3758,0.06925012171
3759,0.366364032
3760,0.2915245891
3761,-0.5138998628
3762,-0.00448122574
3763,-0.4204173982
3764,0.07963877171
3765,0.03264968842
3766,-0.1434600502
3767,-0.08935073018
3768,-0.4392493069
3769,0.1839011908
3770,-0.1636965871
3771,0.2171128541
3772,0.3753588498
3773,-0.08415751904
3774,0.4366645813
3775,0.1592083573
3776,-0.5029788613
3777,-0.2540670037
3778,0.07490656525
3779,0.2741401494
3780,-0.2597405314
3781,0.07610927522
3782,-0.3531998694
3783,-0.3276578486
3784,0.2019362748
3785,-0.3947912753
3786,0.03272830322
3787,-0.07167351991
3788,-0.09094831347
3789,-0.5039950013
3790,0.0436703302
3791,-0.2957272828
3792,-0.2795851231
3793,-0.06148650125
3794,0.2877544463
3795,-0.3876608312
3796,-0.240894258
3797,-0.1110295579
3798,-0.1626841128
3799,0.07897356153
3800,0.1680939198
3801,0.3973732591
3802,0.0935652405
3803,0.09584350139
3804,0.03411452845
3805,-0.3320364058
3806,-0.3003523648
3807,-0.01656782441
3808,-0.3042090833
3809,0.2070633173
3810,-0.06240849942
3811,-0.01378029212
3812,-0.5378593802
3813,-0.2744418085
3814,0.09724407643
3815,-0.1572632194
3816,-0.2397419214
3817,0.2356121093
3818,0.3696027398
3819,-0.2060140371
3820,-0.04797586054
3821,0.01711454242
3822,0.1995896995
3823,0.1185103208
3824,-0.01363773458
3825,-0.05729466677
3826,-0.05724304542
3827,-0.3376073539
3828,0.09890919179
3829,-0.4144788682
3830,-0.1388244033
3831,0.1980072111
3832,0.01579725742
3833,0.3398535848
3834,-0.2676295042
3835,-0.05777584389
3836,-0.2760370374
3837,-0.05285712704
3838,-0.4221577346
3839,-0.1746517122
3840,-0.1930936277
3841,-1.18224287
3842,0.2397962213
3843,-0.1718655974
3844,0.1855343431
3845,0.168759048
3846,0.3756562769
3847,-0.2634911537
3848,0.2255745083
3849,-0.02327314019
3850,0.1339425743
3851,0.3502747715
3852,0.2452549636
3853,0.3771300614
3854,0.5216380954
3855,-0.1423966289
3856,0.1497134119
3857,-0.7261392474
3858,0.1693071872
3859,-0.3674353063
3860,-0.5563874841
3861,-0.2798115015
3862,-0.02273014747
3863,-0.1574133337
3864,-0.06492543221
3865,0.09330133349
3866,0.187352851
3867,0.2884998024
3868,0.3497472405
3869,0.4920738339
3870,0.1666277647
3871,-0.3391293883
3872,0.01982813142
3873,0.346973449
3874,0.377007097
3875,-0.3530635536
3876,-0.8215207458
3877,-0.1805691719
3878,0.1775084883
3879,0.414955467
3880,0.06098507345
3881,-1.00436151
3882,0.09724754095
3883,-0.3058536649
3884,-0.08715003729
3885,0.004600926302
3886,0.381110698
3887,0.0120590385
3888,-0.2366564423
3889,-1.034854174
3890,-0.1168778911
3891,0.1710242778
3892,-0.1155486703
3893,-0.2788867056
3894,-0.1022726148
3895,0.04377134889
3896,0.4168368578
3897,-0.4268415868
3898,-0.8293082714
3899,-0.009315831587
3900,0.1674844325
3901,-0.0003732511541
3902,-0.2589640915
3903,-1.072235227
3904,-0.04953701794
3905,0.06342931092
3906,-0.1355217695
3907,-0.2174476683
3908,-0.1594237089
3909,0.1400258094
3910,-0.1213275939
3911,0.1012669653
3912,0.06722404808
3913,0.08472817391
3914,-0.2254828662
3915,-0.01537963562
3916,0.09653902054
3917,-0.1613860577
3918,-0.148185268
3919,-0.3030487597
3920,0.1799464822
3921,0.2230495661
3922,0.1537123471
3923,0.05667173862
3924,0.2177705169
3925,0.02265653946
3926,-0.0803764388
3927,0.1837972254
3928,0.01042799931
3929,0.2909160852
3930,0.02499525622
3931,0.045152843
3932,0.1051732227
3933,-0.1295194328
3934,-0.07939953357
3935,0.2435033172
3936,-0.2299981266
3937,-0.2835824192
3938,0.1117905006
3939,0.04225454107
3940,0.2586648762
3941,-0.1804789901
3942,0.01051025093
3943,-0.08201784641
3944,0.19981727
3945,0.1733326763
3946,0.03130786493
3947,-0.2375380099
3948,-0.1227461025
3949,0.04689668119
3950,0.300755769
3951,0.1168373078
3952,-0.03482526541
3953,0.1946658641
3954,-0.1798985749
3955,0.2369054705
3956,-0.1019962057
3957,-0.1422608346
3958,-0.0367458351
3959,0.2220565528
3960,0.2647713423
3961,-0.2521617115
3962,-0.05020526424
3963,-0.01003072225
3964,0.2296029478
3965,0.1805915385
3966,-0.01104895119
3967,-0.2695831358
3968,-0.1395546794
3969,0.0267911423
3970,0.01921818033
3971,0.256840378
3972,-0.1483608335
3973,-0.251327306
3974,0.2246170491
3975,-0.2633153796
3976,0.05572608858
3977,0.2727500498
3978,-0.2281208634
3979,0.05537729338
3980,-0.08595287055
3981,0.2347656935
3982,0.2181261033
3983,0.2757495642
3984,-0.2716375291
3985,-0.258928895
3986,0.2426028848
3987,0.02799240127
3988,-0.1205897927
3989,-0.1798778027
3990,-0.3000257313
3991,0.3006666005
3992,0.03734796122
3993,-0.2177222818
3994,0.06647161394
3995,0.3034446239
3996,-0.2734816968
3997,0.2463021129
3998,-0.01603216678
3999,-0.1861681789
4000,0.09654992819
4001,-0.2366887778
4002,0.187080428
4003,0.02585450932
4004,0.101146847
4005,-0.1834512502
4006,0.30308339
4007,-0.1742882282
4008,0.04838892072
4009,0.1125843078
4010,-0.2272088975
4011,-0.1163477153
4012,0.1769262403
4013,-0.08537470549
4014,0.2054802775
4015,-0.29668957
4016,0.1746279597
4017,0.2084668279
4018,-0.1202339903
4019,0.1309690028
4020,-0.1654519439
4021,0.05341076851
4022,-0.2992870212
4023,-0.143433094
4024,0.01534240227
4025,-0.2962418199
4026,0.1870669872
4027,0.008678626269
4028,-0.2775824964
4029,-0.04527727515
4030,0.2884601653
4031,-0.150473386
4032,0.1684895456
4033,-0.1216084808
4034,0.2674567103
4035,0.1775618494
4036,0.2742860019
4037,0.1618013233
4038,-0.8118450046
4039,-0.2833548188
4040,0.03544082865
4041,-0.08162416518
4042,-0.3205221295
4043,-0.8092730641
4044,0.1693103164
4045,0.1302870661
4046,-0.148923859
4047,-0.2726887465
4048,-0.7750710845
4049,0.4005296528
4050,-0.1806621552
4051,0.165664643
4052,0.1814068258
4053,-0.02819846384
4054,0.4489211142
4055,-0.3108280003
4056,-0.1154345274
4057,0.351330936
4058,-0.07760267705
4059,0.7252854109
4060,0.08971478045
4061,-1.075553179
4062,-0.5838032365
4063,-0.1521883458
4064,-0.795317471
4065,-0.2708819211
4066,-0.2545394897
4067,0.1881422102
4068,-0.3733085096
4069,-0.2260261327
4070,-0.4272733331
4071,-0.1018960178
4072,0.4738647044
4073,0.4577910006
4074,0.437258184
4075,-1.033762217
4076,0.001941173337
4077,0.01527799107
4078,0.02008526027
4079,0.23689726
4080,0.2022545189
4081,0.2206840366
4082,-0.5054810643
4083,-0.3450943828
4084,-0.03497214243
4085,-0.1686282605
4086,0.05647418275
4087,-0.54000175
4088,0.3719031513
4089,0.02512233891
4090,-0.03822489455
4091,-0.2557230592
4092,0.6729229689
4093,-0.04074918851
4094,-0.842226088
4095,0.2406843752
4096,-0.2340581268
4097,-0.04531551525
4098,-0.05967646465
4099,0.02828833647
4100,-0.4191999435
4101,-0.2060436904
4102,-0.3881914914
4103,-0.2426458597
4104,-0.2964868248
4105,0.1700887531
4106,0.5343931913
4107,0.301202774
4108,0.1466871798
4109,-0.4685514867
4110,0.08954197913
4111,-0.2271231562
4112,-0.4137502611
4113,0.2089363039
4114,-0.1351696849
4115,-0.1389080584
4116,0.225609377
4117,-0.1131010428
4118,0.1844313592
4119,0.103226766
4120,-0.1327594966
4121,-0.2649897933
4122,0.0360718593
4123,-0.1865235567
4124,0.2049199045
4125,-0.57843858
4126,-0.2479955107
4127,-0.05151648447
4128,0.2325039655
4129,0.2423732579
4130,-0.3237630129
4131,-0.1560322493
4132,-0.7359594703
4133,0.0317511335
4134,0.06543597579
4135,0.03943025321
4136,0.2470426112
4137,-0.1630469859
4138,0.1167632639
4139,0.009248230606
4140,0.0270941928
4141,0.190175429
4142,-0.01255511492
4143,-0.1398719251
4144,-0.2144668102
4145,-0.3044782579
4146,0.01832920872
4147,-0.02876375243
4148,0.1520464569
4149,-0.07200404257
4150,-0.02910466492
4151,0.3001601398
4152,0.4121206999
4153,-0.05085363612
4154,0.1415094286
4155,0.03139220923
4156,-0.1431488097
4157,-0.3576549292
4158,-0.6629586816
4159,0.4074299037
4160,-0.1013961062
4161,-0.2458053082
4162,0.1552948654
4163,-0.3467537463
4164,-0.6981887817
4165,0.1807026416
4166,0.1858487874
4167,-0.06096245721
4168,0.1376520991
4169,-0.01693280973
4170,0.2282842398
4171,-0.4045169055
4172,-0.1072240844
4173,-0.374638468
4174,-0.261492312
4175,-0.2275152504
4176,0.223612085
4177,-0.5008339286
4178,0.4803158641
4179,0.1482429504
4180,-0.6924136281
4181,-0.1398356706
4182,-0.03477113321
4183,-0.1675914228
4184,-0.3341759145
4185,-0.07141300291
4186,-0.2050274312
4187,-0.08110458404
4188,-0.06121266261
4189,0.04410814121
4190,-0.0008612299571
4191,-0.01063144673
4192,0.5025912523
4193,0.05608791113
4194,0.1505941898
4195,0.7458645105
4196,0.04500669613
4197,-0.06145929918
4198,0.5785228014
4199,-0.2818209231
4200,0.02838048525
4201,-2.585590839
4202,-0.3734457791
4203,0.3068671525
4204,-0.03216156736
4205,-0.01879316755
4206,0.2182760686
4207,-0.1999355108
4208,0.3249669671
4209,-0.3204168975
4210,-0.3152406514
4211,-0.3896634281
4212,-0.1270995885
4213,-0.08244648576
4214,0.5473030806
4215,-0.5240250826
4216,0.02321475185
4217,-0.393576324
4218,-0.0832907185
4219,-0.9638410807
4220,0.5105578303
4221,0.441367954
4222,0.4628692269
4223,-1.186158419
4224,-0.02961228974
4225,0.03651320934
4226,0.2300422937
4227,0.3118997514
4228,-0.380448997
4229,0.1057406887
4230,0.09162130952
4231,-0.3174568415
4232,0.03511582315
4233,0.172309503
4234,-0.1056793928
4235,-0.1182399616
4236,0.166727826
4237,-0.3778565228
4238,-0.03377363458
4239,-0.2552916706
4240,0.09055699408
4241,0.1967350692
4242,-0.2312503457
4243,0.1382777989
4244,0.1187698841
4245,-0.2142391652
4246,-0.09760349244
4247,0.4706494212
4248,-0.3337166309
4249,0.03925684467
4250,-0.09739685059
4251,-0.08990122378
4252,-0.2832568288
4253,0.3782711029
4254,0.2615708113
4255,-0.121622026
4256,-0.04372032732
4257,0.2596533
4258,0.1267305464
4259,0.289134264
4260,-0.01309161261
4261,-0.4534116983
4262,-0.1144665033
4263,-0.1660252213
4264,0.2134557515
4265,0.4405042231
4266,-0.003047008766
4267,0.1317243576
4268,-0.3672024012
4269,-0.1811868995
4270,-0.1367045045
4271,-0.2230153829
4272,-0.1263132989
4273,-0.1280076504
4274,-0.1884236932
4275,-0.05536439642
4276,-0.284349978
4277,-0.0002361880033
4278,-0.1334556937
4279,0.04720519856
4280,-0.02761669084
4281,-0.0260996148
4282,0.323766768
4283,-0.005232013296
4284,0.3455987275
4285,0.2639148533
4286,0.2136617452
4287,-0.484634161
4288,0.2277507484
4289,0.1280654073
4290,0.2264363468
4291,0.2360775471
4292,-0.3524644375
4293,-0.2411541045
4294,0.3205551803
4295,0.1948808581
4296,-0.2306598872
4297,0.3595686257
4298,-0.6865277886
4299,0.1354256123
4300,-0.8641168475
4301,0.01669026166
4302,0.1434597671
4303,-0.180651322
4304,0.2352698296
4305,-0.2069860846
4306,-0.1501992047
4307,-0.1476763934
4308,-0.2820619345
4309,0.2102718055
4310,0.2385846674
4311,0.08231010288
4312,-0.2703460455
4313,-0.07910442352
4314,-0.03377093002
4315,-0.1880220324
4316,0.2159542292
4317,0.1871385872
4318,0.003253085306
4319,0.09016828984
4320,-1.182461977
4321,0.1232692301
4322,0.05367114395
4323,-0.3336839676
4324,-0.07527179271
4325,0.02789971046
4326,0.227112934
4327,0.2342763543
4328,0.3581492901
4329,0.2914749384
4330,-0.4331569076
4331,0.1504369229
4332,0.2619918287
4333,0.2381338328
4334,0.3372142911
4335,0.1164526492
4336,0.06520942599
4337,-0.5980858207
4338,-0.6610506177
4339,-0.0394099392
4340,-0.2553153932
4341,0.09403157234
4342,-0.05613933876
4343,-0.08115760237
4344,0.07098098844
4345,-0.1353166103
4346,0.07714771479
4347,-0.08699344844
4348,0.2041166425
4349,0.08968514204
4350,-0.2253461331
4351,-0.4223769009
4352,-0.2320310473
4353,0.539693296
4354,0.396264255
4355,0.1152448654
4356,-0.4652157724
4357,-0.1874266416
4358,0.2013059258
4359,0.125524193
4360,0.4901503325
4361,0.4098798931
4362,0.4165691733
4363,0.0903705582
4364,0.7787101865
4365,-0.2372077554
4366,0.1704932749
4367,-0.6438612342
4368,-0.01222046558
4369,0.731603384
4370,0.2709050477
4371,-0.006783869583
4372,-0.2353428304
4373,0.2419454306
4374,0.76378721
4375,-0.4735491872
4376,-0.3618566394
4377,0.423501879
4378,0.1841235459
4379,0.6767380238
4380,-0.2028750032
4381,0.0489448756
4382,0.2140598595
4383,0.4046681225
4384,-0.2293257713
4385,0.2090191096
4386,-0.1163803563
4387,-0.3075341284
4388,-0.08297564834
4389,0.1082019359
4390,0.4756172001
4391,-0.2891937196
4392,-0.06173355132
4393,-0.2615654469
4394,-0.05890989676
4395,0.3499967754
4396,-0.06664571911
4397,0.1786207557
4398,-0.4509892464
4399,-0.1329040527
4400,0.1069562733
4401,-0.2131469697
4402,-0.781899333
4403,-0.3517823219
4404,-0.2083542943
4405,-0.0669317916
4406,-0.1113282368
4407,-0.2600589991
4408,0.2158100754
4409,-0.6121848226
4410,0.298656255
4411,-0.01691039093
4412,-0.1945040971
4413,-0.09561057389
4414,0.2290074229
4415,-0.117561914
4416,-0.4911652207
4417,-0.5909089446
4418,0.2465289235
4419,-0.1379584372
4420,-0.1644649953
4421,-0.01890869252
4422,-0.287027359
4423,-0.2036982924
4424,-0.1024999991
4425,0.04508475959
4426,0.05521028116
4427,0.2692512572
4428,-0.3089689612
4429,-0.3491494954
4430,-0.0488367565
4431,-1.116318583
4432,-0.3964244425
4433,0.169947505
4434,0.05517891422
4435,-0.2407289594
4436,-0.445453614
4437,-0.1397894621
4438,-0.01759682596
4439,0.2748095989
4440,-1.459136128
4441,0.04137919098
4442,-0.3464198411
4443,-0.09925927967
4444,0.06678853184
4445,-0.1550382972
4446,-0.009206820279
4447,0.2507578433
4448,-0.5020620227
4449,0.1001282632
4450,-0.08667591959
4451,-0.1629013419
4452,-0.2680132985
4453,-0.1801041663
4454,0.2089060694
4455,0.3375082314
4456,-0.267790705
4457,-0.01830524765
4458,0.04416231439
4459,0.2125810087
4460,0.02004552074
4461,-0.1884991974
4462,0.1217783913
4463,-0.2801837921
4464,0.1726396978
4465,0.2605414689
4466,-0.2164283693
4467,0.1939262748
4468,-0.03764133155
4469,-0.2386308163
4470,0.1624897122
4471,-0.05980033427
4472,0.2928345501
4473,-0.1760192066
4474,0.327185601
4475,0.1157085374
4476,0.03137623146
4477,0.1825642139
4478,-0.6721650362
4479,-0.3038319647
4480,-0.230765298
4481,0.1780437231
4482,-0.2926019132
4483,-0.6236752868
4484,-0.4840779901
4485,-0.3243893087
4486,-0.1324226111
4487,0.1691900492
4488,-0.2257486731
4489,0.3919807971
4490,-1.036031365
4491,0.1016343385
4492,0.2013373822
4493,-0.1092863604
4494,0.0007267483743
4495,0.09126246721
4496,-0.7651703358
4497,0.3149133027
4498,0.4385012984
4499,-0.4714018703
4500,0.07985492796
4501,0.109121412
4502,0.03758163005
4503,0.04920569062
4504,-0.1058977842
4505,-0.1359753311
4506,-0.1987485439
4507,0.3407171369
4508,0.2330017835
4509,-0.2093573213
4510,0.372151196
4511,0.2676578462
4512,-0.2738214135
4513,-0.6465735435
4514,0.298940748
4515,-0.005943900906
4516,0.02085863426
4517,0.1612992287
4518,0.19008632
4519,0.1275252402
4520,-0.1673940867
4521,-0.2694373131
4522,-0.4318567514
4523,0.04520995915
4524,0.1158406213
4525,-0.2765442431
4526,0.1809162498
4527,-0.1213663444
4528,-0.288320899
4529,-0.4216601253
4530,0.2262042314
4531,0.1140368357
4532,-0.09809368104
4533,0.02982040495
4534,-0.2299255282
4535,-0.05789509043
4536,-0.3598617613
4537,-0.6987764239
4538,0.1927776635
4539,0.4035927355
4540,-0.1162501574
4541,-0.06404879689
4542,0.1356069893
4543,0.1251081675
4544,0.2615612447
4545,-0.2851676047
4546,-0.1988657117
4547,-0.1265818626
4548,0.07819949836
4549,-0.06285469234
4550,0.09832719713
4551,-0.2361000925
4552,0.1858300567
4553,-0.3137858808
4554,-0.1222042441
4555,0.3276384473
4556,-0.09082853049
4557,0.2688668966
4558,-0.09896860272
4559,0.4354277849
4560,-0.05194521323
4561,0.04287932813
4562,-0.5837388039
4563,0.02973143943
4564,0.0943351984
4565,-0.300052911
4566,-0.4954465032
4567,0.1164539829
4568,0.03528697789
4569,-0.2253103405
4570,0.2184103876
4571,-0.2667803466
4572,0.381865114
4573,0.2302345186
4574,0.1346152425
4575,-0.1628796756
4576,-0.550194025
4577,0.02401340567
4578,0.1595066339
4579,-0.4368921816
4580,0.248890385
4581,0.04653205723
4582,0.5011841059
4583,0.1243386492
4584,0.2174643576
4585,0.2751294971
4586,-0.3327444792
4587,-0.1079946533
4588,0.01429671701
4589,-0.02714711986
4590,-0.02475004643
4591,0.2800171971
4592,-0.5481487513
4593,0.1686811447
4594,-0.4221041799
4595,-0.05862191319
4596,-0.1831295192
4597,-0.1032032296
4598,-0.1366470009
4599,-0.1935207844
4600,-0.2953938544
4601,0.1030245125
4602,-0.1701289117
4603,0.05532678589
4604,0.168219611
4605,-0.3224316239
4606,-0.3684678972
4607,-0.6386951208
4608,0.8209401965
4609,-0.3558195233
4610,-0.04511545226
4611,0.01384098642
4612,0.05073206872
4613,-0.07412946224
4614,-0.07458927482
4615,-0.1764866859
4616,0.360416472
4617,-0.2814418077
4618,0.09615632147
4619,-0.4556498826
4620,0.7355492115
4621,0.0879798308
4622,0.4890503883
4623,-0.5081772804
4624,-0.3581477106
4625,0.4440650642
4626,-0.2379818559
4627,-0.1654470861
4628,-0.1878872961
4629,0.1640099287
4630,1.068629026
4631,-0.312463671
4632,-0.07766167819
4633,0.0052619013
4634,-0.2614066601
4635,0.841558516
4636,-0.1207910255
4637,0.1390856951
4638,-0.3243132234
4639,-0.6097986102
4640,-0.933917284
4641,-0.1124320701
4642,0.5726597905
4643,0.03422043473
4644,-0.06849396974
4645,-0.3047213554
4646,0.8238455653
4647,0.2268938571
4648,-0.3652698696
4649,0.4591197371
4650,0.2272548676
4651,-0.328227222
4652,-0.1006289274
4653,-0.2133740187
4654,-0.3103726506
4655,-0.2460591495
4656,-0.1468693316
4657,-0.374157846
4658,-0.2984960079
4659,-0.1103670895
4660,0.1274421364
4661,0.006341356784
4662,-0.4809340537
4663,-0.3743037581
4664,0.5384622216
4665,1.094993234
4666,-0.7694921494
4667,0.03757120296
4668,0.4235571027
4669,-0.3048343956
4670,0.1895638257
4671,-0.3252145946
4672,-0.3062507808
4673,0.01705512032
4674,0.08159087598
4675,0.3659249842
4676,-0.4826352
4677,-0.2130347192
4678,-0.6415066719
4679,-0.08795333654
4680,-0.4323353469
4681,0.003293003887
4682,-0.2571981549
4683,0.06970914453
4684,-0.4265773594
4685,-0.5565838218
4686,-0.6144173145
4687,-0.3458995521
4688,1.463427305
4689,-0.5418948531
4690,0.727260828
4691,0.7334578633
4692,-0.11577712
4693,-0.004288504831
4694,0.3709228337
4695,-0.8778077364
4696,0.1407072842
4697,0.3389404118
4698,0.1461020112
4699,-0.4492121637
4700,-0.2436389923
4701,-0.6381591558
4702,-0.3354109824
4703,-0.1235508695
4704,0.7408900261
4705,0.5428222418
4706,-0.2181195319
4707,0.3269667029
4708,-0.2589241564
4709,-0.2079579085
4710,-1.084002852
4711,-0.7199506164
4712,0.9923138618
4713,-0.8185947537
4714,0.3514620662
4715,-0.1557306349
4716,0.3321831524
4717,-0.1113732755
4718,-0.9382775426
4719,0.06506434083
4720,0.03572386876
4721,0.3065659702
4722,-0.6428422928
4723,0.6675866842
4724,-0.09992516041
4725,0.222467199
4726,0.8332976103
4727,-0.04689117894
4728,-0.3464101851
4729,-0.2576397657
4730,-0.0003110885737
4731,-0.03957864642
4732,-0.680252254
4733,0.9239953756
4734,0.1119711921
4735,0.1581966281
4736,0.3623645008
4737,-0.5012685061
4738,0.0214138478
4739,0.5539633632
4740,-0.07920521498
4741,-0.1311202496
4742,-0.649281621
4743,0.2541842461
4744,-0.5179591775
4745,-0.5812689066
4746,-0.4882106483
4747,-0.1915587187
4748,-0.3138996065
4749,-0.1363798529
4750,-0.0908049643
4751,-0.173196435
4752,1.005358458
4753,-0.6128255129
4754,-0.1464243233
4755,0.5798882842
4756,0.3220367432
4757,-0.1075853631
4758,0.1358312815
4759,0.2467811704
4760,0.1948058456
4761,0.1714951247
4762,0.2110639662
4763,-0.1845062524
4764,0.01364260912
4765,0.09090969712
4766,-0.4540877044
4767,0.07462606579
4768,-0.2718984187
4769,0.09989926964
4770,-0.07955787331
4771,-0.03784937412
4772,-1.152116776
4773,-0.2996309102
4774,-0.2591328919
4775,-0.1335042566
4776,0.3055584431
4777,-0.7857476473
4778,0.01262998022
4779,-0.148179844
4780,-0.05314953998
4781,0.06051808596
4782,0.2099328041
4783,0.1827743948
4784,0.02899859101
4785,-0.3069719076
4786,0.09333501011
4787,0.4994498491
4788,-0.1035225391
4789,1.707001138e-05
4790,0.5120117068
4791,-0.1094317064
4792,-0.3186812997
4793,-0.374160409
4794,-0.1654238552
4795,0.05782457814
4796,-0.1229188666
4797,0.3757142425
4798,-0.05985624716
4799,-0.08848121017
4800,0.4135438204
4801,-0.4335703254
4802,0.2882528901
4803,-0.4175560474
4804,0.1611965448
4805,-0.1468298137
4806,-0.02307971939
4807,-0.158297047
4808,-0.1870789975
4809,0.03680144623
4810,0.6023961306
4811,0.1243274882
4812,-0.5722374916
4813,0.4746322334
4814,0.4254722297
4815,-0.6674495935
4816,-0.4079004824
4817,-0.009551426396
4818,0.09088654816
4819,-1.038030982
4820,0.4617306292
4821,-0.3100574017
4822,0.02939302847
4823,-0.1120108739
4824,-0.4869760275
4825,-0.1405056566
4826,-0.2028353661
4827,0.04612560943
4828,-0.1008020267
4829,-0.7662889361
4830,0.1071344465
4831,-0.484412998
4832,0.2618633509
4833,-0.1207341626
4834,-0.06820061058
4835,0.1759362668
4836,0.1472424269
4837,-0.5600164533
4838,-0.1215845719
4839,0.1446565539
4840,0.1111534983
4841,-0.6141584516
4842,-0.2447719872
4843,0.04837977514
4844,-0.09621989727
4845,0.09876976162
4846,-0.3122861683
4847,-0.1808962077
4848,-0.0283578597
4849,-0.02454704791
4850,0.04284897447
4851,-0.2202221006
4852,0.09270292521
4853,-0.1071668193
4854,-0.2253226042
4855,-0.2087114751
4856,0.06692138314
4857,-0.08288688958
4858,-0.3197030723
4859,-0.2973993123
4860,0.1626339555
4861,-0.2910606563
4862,-0.7460377216
4863,0.1725405306
4864,0.1600407064
4865,-0.1294171959
4866,-0.1202770397
4867,-0.1036589593
4868,-0.1999487579
4869,-0.01276012976
4870,-0.3423241377
4871,-0.1697580963
4872,-0.01395483408
4873,0.2136723995
4874,-0.2587775886
4875,0.4621042013
4876,-0.5172233582
4877,-0.3686800897
4878,0.01916708983
4879,-0.1789325923
4880,-0.2377901673
4881,0.1655086428
4882,-0.4447245598
4883,-0.02868368849
4884,-0.1056466326
4885,-0.08519612998
4886,0.1215842068
4887,-0.03206736222
4888,-0.1929727644
4889,-0.2586444914
4890,-0.3501391113
4891,-0.1598767489
4892,0.04883011803
4893,0.1141825765
4894,0.1535854191
4895,-0.2470533699
4896,-0.4749620557
4897,-0.5821763277
4898,-0.1080823541
4899,0.4025438428
4900,-0.5071075559
4901,-0.1425651759
4902,-0.5108199716
4903,0.06124425679
4904,0.06964676827
4905,0.4065294266
4906,0.1069828272
4907,0.2836368382
4908,-0.2680594623
4909,-0.1230232045
4910,-0.2723747194
4911,-0.2707412541
4912,-0.543212533
4913,0.3149537444
4914,-0.4702032506
4915,0.2029206306
4916,0.0853048861
4917,0.1265837103
4918,-0.4080781043
4919,-0.09156751633
4920,0.299364537
4921,-0.03595008329
4922,0.2744745612
4923,-0.2323883772
4924,0.2029390633
4925,-0.1020858586
4926,-0.2494600862
4927,0.2057388723
4928,0.1171773374
4929,-0.4491784275
4930,-0.3403531015
4931,-0.02451306954
4932,-0.04253130406
4933,-0.2364317924
4934,0.03835375234
4935,-0.2705514729
4936,0.2769469619
4937,0.006734888535
4938,-0.1840488166
4939,-0.288485378
4940,0.1516715586
4941,0.1735320687
4942,-0.2304227352
4943,0.4012721479
4944,-0.4399262071
4945,0.1452790648
4946,0.1082870513
4947,-0.08722630143
4948,0.4296257198
4949,0.02814606763
4950,0.2062840462
4951,0.02016167156
4952,-0.09626752883
4953,0.2734116018
4954,0.1518478245
4955,-0.182987541
4956,-0.4421821833
4957,0.09769398719
4958,-0.17975609
4959,0.3321572542
4960,-0.2175414711
4961,-0.2132331282
4962,0.3375543058
4963,0.02655419335
4964,-0.1927391738
4965,-0.005006569438
4966,0.1621369272
4967,-0.04639771581
4968,-0.218678236
4969,0.3139901161
4970,0.09428470582
4971,-0.153064549
4972,0.04489331692
4973,0.1943747401
4974,0.4118077755
4975,0.2426043451
4976,0.08679585159
4977,-0.07437806576
4978,-0.2849005163
4979,-0.2733244002
4980,-0.1005161926
4981,-0.03054877743
4982,-0.02326046675
4983,-0.1915256977
4984,0.01077371556
4985,0.2990357876
4986,-0.3608271182
4987,-0.1075321212
4988,-0.2123096585
4989,0.07133376598
4990,-0.1645939797
4991,-0.04997261986
4992,-0.7682213783
4993,-0.8834996223
4994,0.278449893
4995,-0.04889715835
4996,-0.1511831433
4997,0.2285098881
4998,0.4746372402
4999,-0.03843940794
5000,-0.1297453344
5001,0.3955751359
5002,-0.5199724436
5003,-0.005564916879
5004,0.1889294535
5005,0.02576046064
5006,0.3817351162
5007,-0.7968058586
5008,0.08778465539
5009,0.162582159
5010,-0.6127739549
5011,-0.1508217305
5012,-0.6143025756
5013,-0.008862587623
5014,0.2930232584
5015,-0.346344471
5016,-0.6300849915
5017,0.2025756389
5018,-0.07453885674
5019,0.5383405089
5020,-0.02233653143
5021,-0.506937921
5022,0.1732131243
5023,-0.07114052027
5024,-1.190222621
5025,-0.04316583276
5026,0.2411181927
5027,-1.32139051
5028,-0.1507409811
5029,0.2590726018
5030,-0.0305018872
5031,0.3537911177
5032,-0.2920040488
5033,0.4037674367
5034,-0.4668731093
5035,0.1191474572
5036,-0.6792318225
5037,-0.1696718186
5038,-0.3408282697
5039,-0.3267849386
5040,-0.6829292774
5041,0.4603317082
5042,-0.3943363726
5043,0.1142182052
5044,0.07271388918
5045,-0.1005505025
5046,0.5852770209
5047,0.2069520801
5048,0.238664791
5049,0.2797382176
5050,-0.7005127072
5051,-0.2657655478
5052,-0.7891863585
5053,0.00991742406
5054,-0.7226752639
5055,0.4210447073
5056,-0.0246106144
5057,0.1679399312
5058,-0.1252357662
5059,0.1566814333
5060,-0.1404947191
5061,0.2484163046
5062,-0.1941594332
5063,-0.2321982086
5064,-0.4707809389
5065,-0.008257570677
5066,-0.4285131991
5067,0.08417841047
5068,-0.0603142567
5069,0.1771507859
5070,-0.2598112822
5071,-0.3649946749
5072,0.124650076
5073,-0.2106897086
5074,0.1100496799
5075,0.01430421323
5076,0.06274028867
5077,0.00277327816
5078,-0.4437704086
5079,-0.5069741607
5080,0.2572486699
5081,-0.1779812723
5082,-0.2084805816
5083,-0.1286390722
5084,0.2949300706
5085,-0.2821372747
5086,-0.2028948516
5087,-0.0305580087
5088,-0.6024594903
5089,-0.2230553776
5090,-0.06823444366
5091,-0.4008287787
5092,-0.09858165681
5093,-0.1144428179
5094,-0.2779956162
5095,0.0235219337
5096,-0.03846452758
5097,-0.04318997264
5098,0.4702358246
5099,0.1409648806
5100,0.4817467928
5101,-0.09607675672
5102,-0.3023907542
5103,0.5516111255
5104,0.04118971899
5105,-0.170147568
5106,0.2696996629
5107,0.09079793096
5108,-0.223940745
5109,0.1593502164
5110,0.3224523664
5111,0.1182649806
5112,-0.2890633941
5113,-0.6378649473
5114,-0.06122953817
5115,0.1684898883
5116,-0.1412015706
5117,0.01259477623
5118,0.07907540351
5119,-0.1195625067
5120,0.2075818479
5121,-0.4256014228
5122,0.210891217
5123,-0.3811126947
5124,-0.3872398436
5125,-0.07670578361
5126,0.01921642013
5127,0.2084624618
5128,-0.2971991897
5129,-0.3650771677
5130,-0.4068658054
5131,0.05846101046
5132,0.008538930677
5133,0.3053560555
5134,-0.01702963747
5135,-0.5460401177
5136,-0.4201541841
5137,-0.02872636914
5138,0.2940579355
5139,0.1136172861
5140,0.1664629728
5141,-0.1450298429
5142,0.06154585257
5143,0.01964890212
5144,-0.4447299242
5145,-0.07358771563
5146,-0.1514542103
5147,-0.0100936899
5148,-0.08143346012
5149,-0.1387063861
5150,-0.1611200422
5151,0.2245739251
5152,-0.4639509618
5153,-0.177448988
5154,0.172641024
5155,-0.2104255855
5156,-0.2497783452
5157,-0.1655923277
5158,0.3677342534
5159,-0.03131624684
5160,-0.3986505568
5161,0.05957079679
5162,-0.5981077552
5163,0.1717134267
5164,-0.01265313383
5165,-0.3156730533
5166,0.2069811225
5167,-0.6943786144
5168,-0.4745768309
5169,-0.3788489401
5170,-0.2140730768
5171,0.2463231087
5172,-0.02649303339
5173,-0.04360602796
5174,-0.2482768446
5175,0.2132322043
5176,-0.3382290006
5177,-0.2684628963
5178,-0.2614830136
5179,-0.1213615537
5180,-0.2541360855
5181,-0.2816192806
5182,-0.3102822304
5183,-0.231740877
5184,0.1759688258
5185,0.3280290365
5186,-0.03300406784
5187,0.02914312482
5188,-0.08435668051
5189,0.05155987665
5190,-0.4179951549
5191,0.2455331087
5192,0.08763699234
5193,-0.1913022995
5194,0.3863480687
5195,-0.408837676
5196,0.03552176058
5197,0.1698735356
5198,0.3363205492
5199,-0.2351224571
5200,0.1843750179
5201,0.2403434366
5202,0.02649011649
5203,0.1186786592
5204,0.4021820724
5205,-0.06329841167
5206,-0.1402781606
5207,0.0008926327573
5208,-0.435636282
5209,0.2603232861
5210,0.07484579831
5211,-0.2242928892
5212,0.2650454342
5213,-0.322258532
5214,-0.05726316199
5215,0.1723033935
5216,0.187919125
5217,-0.2822805643
5218,-0.123832576
5219,0.3100884259
5220,-0.2912307382
5221,0.0644255951
5222,-0.270519197
5223,-0.2469349355
5224,-0.3352508545
5225,-0.396284163
5226,0.2392049432
5227,0.008128000423
5228,0.3494141996
5229,-0.2696226835
5230,-0.1849434376
5231,-0.08060552925
5232,0.2023861408
5233,0.442034781
5234,0.07355101407
5235,0.3092755973
5236,-0.2451359034
5237,-0.01005304232
5238,0.2577902973
5239,0.05777462572
5240,-0.04301962256
5241,0.3263357878
5242,0.09472215176
5243,-0.02497942373
5244,0.3758658469
5245,0.02665022947
5246,0.2072147876
5247,0.1395277232
5248,0.3513244689
5249,-0.6642724276
5250,-0.7524489164
5251,0.05167175457
5252,-0.05536293238
5253,-0.2257840633
5254,-0.3651676774
5255,0.2834729254
5256,-1.065397382
5257,-0.3946866095
5258,-0.2651860714
5259,-0.06094364822
5260,-0.8976023197
5261,-0.2092484385
5262,-0.06020007282
5263,-0.2609112263
5264,0.3930809796
5265,0.06241446733
5266,-0.4184249341
5267,0.07144393772
5268,-0.008947253227
5269,0.2424906641
5270,-0.5357900858
5271,-0.006811701693
5272,0.2031603456
5273,-0.1476747543
5274,0.2069116682
5275,-0.8068137169
5276,0.6903672218
5277,0.291423738
5278,0.5586572886
5279,0.1106959358
5280,-0.2839662135
5281,0.5636118054
5282,-0.8457120657
5283,0.07821739465
5284,-0.2683805525
5285,-0.2089570761
5286,0.2227678895
5287,0.3398480415
5288,0.2294419706
5289,-1.422249556
5290,0.4899650216
5291,-0.03992973268
5292,-0.3857556581
5293,0.1539032906
5294,-0.3544597328
5295,0.2101958543
5296,-0.5815297365
5297,0.1742928624
5298,0.433539629
5299,0.7037343979
5300,-0.1758953035
5301,0.01945761219
5302,0.7334368825
5303,0.2224347144
5304,0.002585609909
5305,-0.7828504443
5306,0.1063984707
5307,0.09152992815
5308,-0.3730416298
5309,-0.1310931742
5310,0.08860461414
5311,0.2136058658
5312,-0.4100885689
5313,0.07637252659
5314,0.2398101687
5315,0.1812294424
5316,-0.4569905698
5317,-0.2883067429
5318,-0.09120675176
5319,-0.2370538116
5320,0.1314692944
5321,0.02971295267
5322,-0.4553779066
5323,0.2269726545
5324,0.1865117699
5325,0.2781009078
5326,0.1817194968
5327,0.01617195457
5328,0.2759025991
5329,0.2922115326
5330,0.129084602
5331,0.2352075577
5332,-0.1762794554
5333,0.2517570555
5334,0.1938399225
5335,0.008220192976
5336,-0.542612493
5337,0.07067348808
5338,0.04985445365
5339,-0.0494305566
5340,0.1181801483
5341,-0.1269408017
5342,-0.4013377428
5343,-0.2775557637
5344,0.0216559507
5345,0.1856213659
5346,-0.1749878377
5347,0.1358429939
5348,0.1373440623
5349,0.1861580163
5350,-0.2372567207
5351,-0.1901623607
5352,-0.08155417442
5353,-0.5033848882
5354,0.07134325057
5355,0.3865642548
5356,0.3428344429
5357,-0.2396976203
5358,-0.0587846674
5359,0.1428304762
5360,-0.1863519102
5361,-0.546133399
5362,0.2273067087
5363,0.113306053
5364,-0.2681558132
5365,0.2229250371
5366,0.1807518601
5367,0.08605802059
5368,-0.3942101896
5369,-1.399037123
5370,0.01901612245
5371,-0.4818924665
5372,0.3008054495
5373,0.1299082488
5374,0.2460808605
5375,0.168514505
5376,-0.8429341912
5377,-1.513647199
5378,0.05680908263
5379,-0.2123393714
5380,-0.1718005389
5381,0.141325891
5382,-0.1958473772
5383,-0.05195270851
5384,-0.3713903427
5385,0.2720968425
5386,-1.065821767
5387,0.5020850897
5388,-0.8854496479
5389,-0.203433454
5390,-0.0346791856
5391,0.4221530259
5392,0.3405513465
5393,-0.03885867447
5394,-0.0596624501
5395,-0.7541371584
5396,-0.925955236
5397,-0.155547291
5398,-0.2582339644
5399,-0.1448114067
5400,0.214762792
5401,0.2479437888
5402,-0.1298890859
5403,-0.6098246574
5404,0.2208310664
5405,-0.5935228467
5406,0.3100727201
5407,-0.273570478
5408,-0.4342216253
5409,-0.0006081451429
5410,0.008157591335
5411,0.3719220459
5412,-0.349176079
5413,-0.263997525
5414,0.02960581519
5415,0.0458772257
5416,-0.1540412754
5417,0.2593858242
5418,-0.04604160786
5419,0.0895209685
5420,0.1887117326
5421,-0.1293549538
5422,0.1815884262
5423,0.07654583454
5424,-0.1398282498
5425,0.5574521422
5426,-0.2085381746
5427,0.5705230236
5428,-0.08786625415
5429,-0.1774998009
5430,0.3240770996
5431,-0.02428941242
