idx,weight
0,0.3315292895
1,0.1111814529
2,-0.41063568
3,-0.1162369922
4,-0.6023049355
5,-0.1497014165
6,-0.3485807776
7,0.5789300799
8,0.03503878042
9,-0.03202848509
10,-0.0172542762
11,-0.008826399222
12,-0.2875239849
13,-0.1594668776
14,-0.4369429648
15,0.1595365554
16,0.3402038813
17,-0.627607882
18,-0.1346212626
19,0.1960011572
20,0.4261841774
21,-0.2204670161
22,-0.06468106806
23,-0.5450186729
24,-0.08667907864
25,-0.0341132693
26,0.1241754442
27,0.3061801493
28,0.6189895868
29,0.2653651237
30,0.1921107322
31,0.2351997644
32,-0.2678446174
33,0.4099442959
34,0.1286982894
35,-0.2934642434
36,-0.2050036937
37,-0.09929873794
38,0.5732382536
39,0.1408299804
40,0.1037897989
41,-0.2441653758
42,-0.4310472012
43,0.2642605901
44,0.05537991598
45,-0.2652914226
46,-0.3435413539
47,0.3133186996
48,-0.1898096204
49,-0.01437241398
50,0.05368609726
51,0.2074100971
52,-0.00927787181
53,0.6666624546
54,0.09989607334
55,-0.1407375485
56,-0.8650839925
57,-0.3245253861
58,0.1373422593
59,0.02474092506
60,-0.4908032715
61,-0.1049400568
62,0.1945070624
63,0.4005885124
64,0.2982450724
65,-0.9697828293
66,-0.4227216244
67,0.1070490032
68,-0.7111297846
69,0.2923918962
70,-0.2349769324
71,0.1540452391
72,0.44929263
73,0.1873879284
74,0.1600989997
75,0.2140961885
76,-0.6482215524
77,0.1137303412
78,-0.2446743101
79,0.4780061543
80,0.2751992345
81,0.2439280748
82,0.1381062716
83,0.307951659
84,-0.3461972475
85,-0.1056677848
86,-0.3483496606
87,-1.041904569
88,-0.2286195755
89,-0.1888044477
90,0.5132445097
91,0.2403487563
92,0.04728398845
93,0.2983934581
94,-0.1912190169
95,0.2461826205
96,0.206071049
97,-0.2439732552
98,0.2167823017
99,-0.5135940313
100,0.06975788623
101,-0.3411466181
102,0.3586342931
103,-1.105138063
104,-0.3619571328
105,-0.5681074262
106,-1.034407377
107,-0.02250133827
108,-0.9832189679
109,-0.3338962197
110,0.2803561389
111,-0.03174641356
112,0.2825595438
113,0.3880588114
114,-0.3229549825
115,0.6146064401
116,-0.7668883204
117,0.2336295396
118,0.017920563
119,0.5293810964
120,-0.7841901779
121,0.78977108
122,0.1824102551
123,-0.2707336247
124,-0.2090951204
125,0.3658650219
126,0.3173357248
127,-0.9972106814
128,0.301441133
129,-0.08659889549
130,-0.5541478992
131,0.6673012972
132,-0.2369083762
133,-0.3391583562
134,0.2424821705
135,-0.2213913053
136,-0.2803385556
137,0.287127465
138,0.2418554872
139,0.4591059685
140,0.3587521613
141,0.4135157764
142,-0.4201626778
143,0.2491491288
144,0.2867185473
145,-0.0550491102
146,-0.3194043934
147,0.3610868156
148,0.4843920767
149,-0.3442734778
150,-0.2241352946
151,-0.1116770059
152,-0.2288254499
153,0.4409982264
154,-0.0270105619
155,-0.4131756127
156,-0.1624446958
157,0.4438278973
158,0.3596487045
159,-0.2647918761
160,-0.4662885368
161,-0.2542245686
162,0.2546842098
163,-0.101417169
164,-0.4746041298
165,-0.2537406385
166,-0.2117594332
167,0.3472631872
168,0.2257454246
169,-0.4034115672
170,0.07736226916
171,0.5085850358
172,-0.2066140026
173,0.1697207391
174,-0.2458929121
175,0.3633050919
176,-0.2989574671
177,0.1566920727
178,-0.2039561123
179,0.03447182477
180,-0.6301546097
181,-0.1574527174
182,-0.3469180763
183,0.2878200114
184,0.05874262005
185,-0.1507941186
186,-0.07374712825
187,0.004077602644
188,-0.052496925
189,0.03464906663
190,-0.1424305439
191,-0.3205567598
192,-0.03713876009
193,0.3056951463
194,0.3495096862
195,-0.1746141464
196,0.1600536406
197,-0.308480233
198,0.2960394323
199,0.3244766295
200,0.1840590984
201,0.5636809468
202,0.02393881232
203,-0.4288412035
204,0.1685457677
205,0.1448350549
206,-0.5372017026
207,-1.174079776
208,-0.02863947861
209,0.5375628471
210,-0.08364768326
211,-0.2245297134
212,-0.07370524108
213,0.1125732958
214,-0.1252761185
215,-0.04495553672
216,0.03796086088
217,0.0775244236
218,0.2532738745
219,0.2378903925
220,-0.4089985192
221,0.04186566174
222,-0.09469780326
223,0.5517734885
224,-0.4992770851
225,0.1504765898
226,-0.708594203
227,0.3491437137
228,0.3374734819
229,0.1935602725
230,0.05440529436
231,0.01118829101
232,-0.1950355917
233,0.1032526866
234,0.685135901
235,-0.4947000146
236,-0.1617070884
237,-0.0775725916
238,-0.2304024249
239,-0.1355708688
240,-0.2552846372
241,-0.1570717245
242,0.0605837293
243,-0.2783007324
244,0.2575938106
245,0.1420554221
246,0.1045796499
247,-0.3543474674
248,0.08763623983
249,0.03959672153
250,0.3366078734
251,-0.1679465622
252,0.262732923
253,-0.08325138688
254,-0.2371587902
255,-0.2771223187
256,0.1614785641
257,-0.02480204403
258,-0.08179656416
259,-0.08412723243
260,0.493999809
261,-0.2829245925
262,-0.01169312093
263,-0.2640900016
264,-0.7525020242
265,-0.4302881062
266,0.1046970412
267,-0.3224692643
268,-0.1985433549
269,0.6539939046
270,-0.1549128294
271,-0.1175556928
272,-0.3574687243
273,-0.2952364683
274,-0.2421316653
275,-0.7808914781
276,0.3803113401
277,-0.3488974571
278,-0.3640939891
279,0.1159037724
280,-0.2186742574
281,-0.33311373
282,-0.05234550685
283,0.1467862278
284,-0.3187942505
285,0.0585491918
286,0.9841914177
287,-0.1313843876
288,0.6154307723
289,-0.2779219151
290,-1.413813233
291,-0.243179813
292,-0.1103054434
293,-0.05029887334
294,-1.008414984
295,0.4310218096
296,0.4593999684
297,-0.1247094348
298,0.2410650104
299,-0.5624406338
300,0.2415647954
301,0.194662109
302,0.4766275883
303,0.3051894009
304,0.5505334139
305,-0.4786970913
306,-0.9028947353
307,0.3478808105
308,0.5373798609
309,-0.143358618
310,0.1186830401
311,-0.4428591728
312,-0.3009291291
313,-0.3257975578
314,0.1174421087
315,0.4820118845
316,-0.01124446932
317,-0.3639885783
318,-0.6161786914
319,-0.3747115433
320,-0.3004533052
321,0.4129661322
322,0.01206119638
323,-0.1010236815
324,-0.06657034904
325,0.06815570593
326,0.2295762599
327,-0.1401038766
328,0.1180807799
329,-0.4492819011
330,0.005083110183
331,0.5975426435
332,0.7994228005
333,0.08630862087
334,0.07799946517
335,-0.2655137181
336,-0.7866559029
337,0.1828766912
338,-0.03290503845
339,0.193010509
340,0.5504587293
341,-0.2690321505
342,-0.0463398546
343,0.02420140989
344,0.241627425
345,0.03193721175
346,-0.4088665247
347,-0.234745726
348,0.3336059153
349,-0.07456663251
350,0.1862750202
351,0.2167561501
352,0.2020410001
353,-0.6030703187
354,-0.1378946304
355,0.01139861438
356,0.03531721979
357,-0.09265824407
358,-0.7782840729
359,-0.2238415033
360,0.04778471217
361,-0.06582639366
362,0.442015022
363,-0.4627699554
364,0.3051279187
365,0.00565502001
366,0.009462011047
367,-1.100006223
368,-0.1190040559
369,-0.402102083
370,-0.2327976823
371,0.00971871987
372,-0.3908537626
373,-0.3493537605
374,-0.2656840682
375,0.4847067595
376,-0.6564742923
377,-0.1114270091
378,0.0732409507
379,-0.460192591
380,-0.2999464869
381,-0.3004740477
382,-0.2125362009
383,0.4304178357
384,0.5787960291
385,-0.5862364173
386,0.1048224941
387,0.4788221121
388,0.4815453291
389,0.01729180291
390,0.09494557977
391,-0.07490322739
392,0.02275778726
393,0.1556403339
394,0.1124058664
395,0.4990489483
396,0.03146099672
397,-0.5767995119
398,0.08764536679
399,-0.4226603806
400,-0.4731104374
401,0.2961935401
402,0.03297513723
403,-0.1753976643
404,0.1940348148
405,0.373213172
406,-0.1087239981
407,-0.4041496217
408,0.02511061355
409,-2.493232012
410,-0.2184828967
411,0.3344324827
412,-0.1733099073
413,-0.2929704785
414,0.1176066175
415,0.06754186749
416,0.2831710279
417,-0.3287203312
418,-0.5791850686
419,0.251973778
420,-0.1454443187
421,-0.08982646465
422,-0.3136627674
423,0.5452069044
424,0.5424100161
425,-0.1067752317
426,0.1434257478
427,0.04947316647
428,0.1081204489
429,0.1391327232
430,0.4957538843
431,0.4280802906
432,-0.3974088728
433,-0.3470464349
434,-0.2192951292
435,0.1801815182
436,0.2763740718
437,0.07000217587
438,0.08075395972
439,-0.09143178165
440,0.228217572
441,0.290353179
442,-0.4701038003
443,-0.4090456069
444,0.1835902184
445,0.07335858047
446,-0.2181316167
447,0.2922760248
448,-0.4097426832
449,-0.621109426
450,-0.2267433107
451,-0.3124375045
452,-0.369536072
453,0.1371392608
454,-0.4041732848
455,-0.4056907296
456,0.487868309
457,0.2855390012
458,-0.120508872
459,0.2775379419
460,-0.03521684185
461,-0.3871587813
462,0.5226069689
463,-0.1128691807
464,0.54602772
465,-0.0109927021
466,-0.152397871
467,-0.1291604936
468,-0.01577728614
469,0.1143147945
470,0.2316803932
471,0.1854255944
472,0.1415665448
473,0.2996996641
474,0.2439909428
475,-0.0353333801
476,-0.4388234615
477,-0.08901987225
478,0.2955090106
479,-0.01821492799
480,-0.4723637104
481,-0.2899104655
482,-0.784277916
483,0.4057506025
484,0.446582973
485,-0.6167861223
486,-0.01452954859
487,0.3789499104
488,-0.265019238
489,-0.411539197
490,0.03373350576
491,-0.08603454381
492,0.3607507646
493,-0.04516223818
494,0.05325493217
495,0.2164000869
496,-0.1467333138
497,-0.1795811057
498,0.2620538175
499,0.03121722303
500,1.121927261
501,-0.08422337472
502,-0.2526769042
503,0.03526760638
504,0.7335743308
505,0.3068702519
506,-0.1856453717
507,-0.4580749869
508,-0.5814706087
509,-0.3151195645
510,0.2682451308
511,0.3959359229
512,0.3929765224
513,-0.5845144987
514,-0.5535074472
515,0.08687288314
516,-0.06986708194
517,-0.2746182084
518,0.3093491793
519,0.05032302812
520,0.2277346998
521,-0.0373586677
522,-0.1236746833
523,0.2651596069
524,0.1913827956
525,-0.08863015473
526,0.3307198584
527,0.3536496758
528,0.1957812309
529,-0.4415227175
530,-0.3373162448
531,0.3170284331
532,0.05711609498
533,-0.06662700325
534,-0.3831607699
535,0.1868761182
536,0.4031181633
537,-0.4844528437
538,0.08561228961
539,-0.1175404862
540,-0.3151017129
541,-0.2859610021
542,-0.4150619507
543,0.303935051
544,0.07149019092
545,-0.2151675522
546,-0.1088880152
547,0.09788623452
548,0.07849702239
549,0.09778143466
550,0.4194864929
551,0.2545004785
552,0.3481402099
553,0.2599072158
554,0.1653885692
555,0.3324280977
556,-0.2648548186
557,0.3486127257
558,0.1982151568
559,-0.1848285645
560,-0.336350292
561,0.1103383675
562,0.2648391128
563,-0.1345043927
564,-0.1467271894
565,-0.1622434109
566,0.117875047
567,-0.1463925689
568,-0.3911094069
569,-0.2475433797
570,-0.02880150639
571,-0.6309167743
572,0.3549203575
573,0.3005708456
574,-0.3799979985
575,-0.2051178366
576,0.3474307656
577,-0.2545393407
578,0.1081806496
579,-0.1864445955
580,0.6577510834
581,-0.04754821584
582,0.5769373775
583,-1.075511217
584,0.3428443074
585,0.1835574955
586,-0.03538360819
587,-0.7263427973
588,-0.06271526963
589,-0.5768010616
590,0.2387444377
591,-0.2369784713
592,0.2550068498
593,1.488756061
594,-0.2453604341
595,0.6619550586
596,-0.6190197468
597,-0.2516773939
598,0.2629929781
599,-0.3000904918
600,-1.165818453
601,-0.7416209579
602,0.4817059934
603,-1.177375555
604,-1.419288635
605,-0.5184531808
606,-1.146960378
607,-0.1082428396
608,-0.8527594209
609,0.3488619924
610,-0.08161611855
611,0.3266797364
612,0.5298725963
613,0.8619766831
614,0.003679273883
615,0.4919335842
616,0.2503960729
617,-0.2144110054
618,0.7311769724
619,0.1308933944
620,0.8505860567
621,-0.06576112658
622,-0.5421221852
623,0.04520830512
624,-0.002771611325
625,0.3588099778
626,0.003814186435
627,0.05987788364
628,0.1117184609
629,-1.159171939
630,0.8484383821
631,0.2019037753
632,-0.7054690123
633,0.6781585813
634,-1.134929895
635,1.165774226
636,-0.01447137166
637,-0.2067340314
638,0.1728576571
639,-0.6279712915
640,0.9744151831
641,0.4129271805
642,-0.6425977349
643,0.03494506329
644,0.3441747427
645,0.2465178818
646,0.9424447417
647,-0.9421702623
648,0.4218970239
649,0.5165808797
650,-0.3090403676
651,-0.5267491341
652,-0.06016358733
653,-0.5638495684
654,-0.0774788484
655,-0.08213772625
656,-0.1217583567
657,0.5084349513
658,-0.6324221492
659,0.7574014068
660,-0.2665185928
661,-0.2149309516
662,-0.1611700803
663,0.766939044
664,-0.3416723311
665,-0.358854115
666,-0.03932018206
667,-0.4912129045
668,-0.9578474164
669,0.5082472563
670,-0.4661238492
671,0.1030508578
672,-1.024819613
673,0.8499459028
674,0.5498337746
675,-0.01632432081
676,-0.4793224335
677,0.1801523119
678,0.3282756507
679,0.4010084271
680,0.2076261044
681,0.1754248887
682,-0.1206395105
683,-0.2093272805
684,1.035832524
685,0.1531731337
686,0.1228072494
687,0.3809693158
688,-0.5103339553
689,0.3547100127
690,0.05212416872
691,0.05049142614
692,0.1376272291
693,-0.4931021631
694,-0.03085499257
695,0.5310840011
696,-1.104081392
697,0.7742026448
698,-1.267464042
699,0.8547527194
700,-0.5696166754
701,0.2127465904
702,-0.5245733857
703,-0.4431703091
704,0.1983756125
705,-0.4574549496
706,-0.2571536899
707,0.1772177815
708,-0.1932516694
709,0.1408230215
710,0.2291839272
711,0.1284233183
712,-0.4060027599
713,0.0252099447
714,0.04926373065
715,-0.1884801388
716,0.2161557823
717,-0.3778953254
718,0.1575402617
719,0.006429850589
720,0.3041323125
721,-0.1032667458
722,0.3570985198
723,0.07308866829
724,-0.3880531788
725,0.3351996839
726,-0.1704775691
727,-0.2067884058
728,0.3880803585
729,-2.153321266
730,0.1150551885
731,0.2946527004
732,0.2889485359
733,0.4778315723
734,0.2012084424
735,-0.2696234584
736,0.114939332
737,-0.5688778758
738,-0.1720089018
739,0.1525484025
740,0.5818579197
741,-0.1943974495
742,0.2259562165
743,0.1203098223
744,0.2724516094
745,-0.07551148534
746,0.3412629366
747,-0.4768294096
748,0.08265597373
749,0.1096560434
750,0.2597678304
751,-0.253888905
752,-0.2745187581
753,-0.2915674448
754,-0.01740308478
755,-0.1610038877
756,-0.2377173007
757,0.3780410886
758,0.2331841439
759,-0.4402169287
760,0.1577183306
761,0.0271582026
762,-0.2406180799
763,-0.6326089501
764,0.2731461525
765,-0.01565698907
766,-0.3369398713
767,0.4027427733
768,0.676294148
769,0.1002576575
770,-0.5418648124
771,-0.1169764772
772,-0.1925108731
773,0.3735390902
774,-0.3394261301
775,-0.03205226362
776,-0.2221218199
777,-0.6639681458
778,0.3846516311
779,-0.3965643644
780,-0.3168880641
781,-0.06856035441
782,-0.1529995948
783,-0.09943109751
784,-0.06414860487
785,-0.006607139483
786,-0.0137304021
787,-0.1908325553
788,-0.5243415236
789,-0.1245863959
790,-0.08645048738
791,-0.4456715286
792,0.3939937055
793,-0.5186531544
794,-0.2001035362
795,-0.1254889518
796,-0.2192882448
797,0.1950590461
798,0.1315250844
799,-0.2795707881
800,0.1361030638
801,0.05274866894
802,0.2667549849
803,-0.08564252406
804,0.1611660272
805,-0.1680931598
806,-0.6210023165
807,0.08468073606
808,-0.5173720121
809,0.07899217308
810,0.1177033409
811,0.1801881939
812,0.008246188983
813,-0.02480616793
814,-0.002902615117
815,-0.7944725156
816,0.2794425189
817,-0.2154571712
818,-0.3688210547
819,-0.009473050945
820,-1.027013779
821,0.2449326664
822,0.2916478515
823,0.2529089153
824,-0.8489109874
825,-0.4488268495
826,0.1652085185
827,0.2558574677
828,0.1069849432
829,0.3562379479
830,-0.6734355092
831,-0.1285823137
832,0.5420147777
833,-0.5335697532
834,-0.3579803705
835,-0.07860137522
836,-0.1386459172
837,-0.2240693122
838,-0.2674737275
839,0.1895383149
840,-0.1469697207
841,-0.8014324903
842,0.1532110721
843,-0.6709404588
844,-0.5620502234
845,0.529794693
846,0.0770406276
847,1.087465167
848,0.03565282747
849,0.2659517229
850,-0.1246882156
851,-0.1274085194
852,0.1434008181
853,0.1566607505
854,0.04612093791
855,0.3420087695
856,0.1297516674
857,-0.5821229815
858,0.2303295583
859,-0.135727331
860,-0.4034585059
861,-0.3012549281
862,0.4455060661
863,0.08862458915
864,0.5713419914
865,-0.6101939082
866,-0.4639936388
867,0.05062137917
868,-0.8020066619
869,0.08509159833
870,-1.584231377
871,-0.1840030402
872,-0.04186199605
873,-0.1513067931
874,0.2196690142
875,0.2352848053
876,-0.01635891013
877,0.03560264409
878,-0.0300204698
879,-0.0004202572745
880,0.3061544895
881,0.2954777777
882,-0.7315573692
883,0.8304099441
884,-0.09306959808
885,-0.09528366476
886,-0.4137360752
887,-1.095264435
888,-0.07414926589
889,-0.2623924613
890,0.4830005765
891,0.2561032474
892,-0.3257339299
893,0.1269329786
894,-0.6548627019
895,0.2413505018
896,0.6839620471
897,-0.7489309907
898,0.2004939616
899,0.4528616965
900,-0.1535571218
901,-0.2183213532
902,0.1793987155
903,-0.4132158756
904,0.1850533336
905,-0.5864291191
906,-0.05499527603
907,0.624868691
908,0.3527439237
909,-0.5898720622
910,-0.1491956264
911,-0.02586860396
912,-0.4281656146
913,-0.04788325727
914,-0.2277461141
915,0.2000039816
916,0.09195290506
917,0.09437188506
918,0.1722045988
919,0.1442884207
920,0.821088016
921,-3.41559124
922,-0.3179961145
923,0.0468611829
924,-0.602469027
925,-0.1167507917
926,-0.1806865931
927,-0.0286136847
928,-0.2179323733
929,-0.1175361052
930,-0.08505716175
931,-0.08966693282
932,0.3405408263
933,-0.1026489288
934,-0.7742268443
935,-0.1391831934
936,-0.008615601808
937,-0.08980854601
938,0.1956480891
939,0.08456674963
940,0.1255529374
941,0.1042565554
942,0.4508887827
943,-0.3833337426
944,-0.7562773824
945,0.294893831
946,0.2889540493
947,0.3305705786
948,-0.1688772738
949,-0.483933568
950,0.6939851046
951,-0.0422526598
952,0.1756666005
953,-0.001883063233
954,0.012475105
955,-0.2465957701
956,0.302988708
957,0.1444495469
958,0.02728936449
959,0.0545880571
960,-0.2820994854
961,-0.008091506548
962,-0.2738089859
963,0.1204981878
964,0.4611910582
965,-0.2427412868
966,-0.7519608736
967,-0.1204663143
968,0.1285411865
969,-2.390874624
970,-0.01797993481
971,-0.08490329981
972,-0.03254336119
973,-0.02521316521
974,-0.5141969323
975,0.2930265963
976,0.2430253327
977,0.1877262145
978,0.09778057039
979,-0.205236271
980,-0.01146375202
981,0.09413738549
982,-0.348641634
983,-0.8840060234
984,0.2676976323
985,0.1015772223
986,-0.1219291463
987,-0.4887330234
988,0.4395078719
989,0.08890841901
990,-0.2688646317
991,0.1308315843
992,-0.08974857628
993,-0.007107976824
994,-0.04847375304
995,-0.0469020009
996,0.06224932522
997,0.3342283666
998,0.1610644609
999,0.3298904598
1000,0.1238645762
1001,-0.1758754551
1002,-0.00465180818
1003,0.1201351807
1004,-0.1766724437
1005,-0.2893747985
1006,-0.8076382279
1007,-0.4689335823
1008,0.01276306063
1009,-0.5697003007
1010,0.02536076494
1011,0.1223294511
1012,0.2143317759
1013,-0.002059091814
1014,0.2971414626
1015,0.1271227598
1016,-0.2685268223
1017,0.09825073928
1018,-0.03903670609
1019,-0.6148055792
1020,0.1593895853
1021,0.2378394604
1022,-0.01552332379
1023,0.06966781616
1024,-0.1449601948
1025,0.1494715661
1026,0.2559758425
1027,0.1205706596
1028,0.01833456941
1029,-0.306986481
1030,0.2641055882
1031,-0.8972673416
1032,0.05247239396
1033,0.1425155103
1034,0.1884828955
1035,-0.6710864305
1036,-0.2401588261
1037,-0.354724586
1038,-0.06749357283
1039,-0.07406758517
1040,0.3899285495
1041,0.182615906
1042,-0.2801358998
1043,0.3271076381
1044,-0.01260326616
1045,-0.08532853425
1046,-0.3467344344
1047,0.07149057835
1048,0.2174424231
1049,0.3315992355
1050,-0.3658189476
1051,0.09385909885
1052,-0.8659822345
1053,0.1221769452
1054,-0.2366612256
1055,0.01000702474
1056,0.449647367
1057,0.09643733501
1058,0.4173159301
1059,-0.000821067486
1060,0.3248042464
1061,0.2269867808
1062,0.002550470876
1063,-0.0635387525
1064,0.2909059525
1065,-0.2503756881
1066,-0.1611396074
1067,-0.2837266028
1068,-0.2652010918
1069,-0.1345810145
1070,0.1534513533
1071,0.01245446038
1072,0.09729234874
1073,-0.1936217397
1074,0.3950951695
1075,-0.1213069186
1076,0.006960927974
1077,0.06821791828
1078,0.188534677
1079,-0.2041210085
1080,0.2269385904
1081,0.3397313356
1082,-0.574090302
1083,-0.01399348397
1084,-0.0867144689
1085,-0.1254627705
1086,0.02162907831
1087,-0.2568237782
1088,0.4044904411
1089,-0.9835716486
1090,-0.02956072055
1091,0.7340908051
1092,0.4895511568
1093,-0.2694711089
1094,-0.4630564749
1095,-0.4314252734
1096,0.2394384146
1097,0.2097067237
1098,-0.1128629521
1099,-0.7521217465
1100,-0.5496726632
1101,-0.7611144781
1102,0.1361444741
1103,-0.00269616046
1104,-0.2064144909
1105,-0.8897963166
1106,0.3646155
1107,0.372628361
1108,-0.6121448874
1109,-0.2410092801
1110,-0.3763279915
1111,0.3548057377
1112,0.6652187109
1113,0.1294623911
1114,-0.2942065001
1115,0.1534246802
1116,0.3464347124
1117,-0.3878070116
1118,0.3572626114
1119,-0.5371613503
1120,-0.2000144124
1121,0.2908267975
1122,0.1377416402
1123,-0.09049737453
1124,0.5808785558
1125,0.1955734193
1126,0.2001731843
1127,0.1714905649
1128,0.3395210207
1129,-0.1214859039
1130,-1.286095142
1131,-0.1366697848
1132,0.02217786573
1133,-0.2487525344
1134,0.03367550671
1135,0.4919597507
1136,-0.5554596782
1137,-0.1158627942
1138,-0.2144349962
1139,0.009986370802
1140,0.2314098477
1141,0.03401647881
1142,0.2366340011
1143,-0.4420059621
1144,0.7810453773
1145,0.1850035042
1146,-0.8648738861
1147,0.03560028598
1148,0.624083221
1149,0.1089557484
1150,0.5179348588
1151,0.208717078
1152,-0.4711856246
1153,-0.3927929699
1154,-0.5192767382
1155,-0.8326695561
1156,0.2861442268
1157,-0.2699439228
1158,-0.0437441431
1159,0.05337348208
1160,0.1713676453
1161,0.6336354613
1162,0.005319168326
1163,-0.004341768567
1164,0.2538784742
1165,-0.5324414968
1166,1.075344801
1167,0.2260600775
1168,0.4774329364
1169,0.6673199534
1170,-0.2421343178
1171,-0.5194696188
1172,0.1456689984
1173,-0.1287809759
1174,-0.2912669182
1175,0.03379122913
1176,-0.6687275171
1177,-0.5547659993
1178,-0.618983686
1179,-1.112246871
1180,0.0430832915
1181,-0.2919099331
1182,-0.05346116796
1183,0.1180715188
1184,-0.01889685541
1185,-0.1083966717
1186,-0.1936011463
1187,-0.09352197498
1188,0.5909909606
1189,0.8063319325
1190,-0.164904952
1191,0.1067795008
1192,0.6095361114
1193,-0.265365839
1194,0.1489954889
1195,0.132266432
1196,-0.6469487548
1197,0.1226124689
1198,-0.584579885
1199,-0.3586027622
1200,0.4904336333
1201,-0.1618825048
1202,-0.8984813094
1203,-0.01639899798
1204,-0.4984591603
1205,0.04037633911
1206,0.1230734885
1207,1.001876593
1208,0.5697234273
1209,0.1419910938
1210,-0.08001536131
1211,0.3348264694
1212,0.8669837117
1213,0.07317280769
1214,-0.5176829696
1215,0.8023974299
1216,-0.05868967995
1217,0.2733444273
1218,-0.4560414553
1219,0.5316563845
1220,-1.45408833
1221,0.1205588207
1222,0.3357232511
1223,0.5534809828
1224,0.3148778379
1225,0.7440646291
1226,0.05692755058
1227,0.3817645311
1228,0.6591725349
1229,0.09930388629
1230,-0.8443450928
1231,-0.2079721093
1232,-0.3835380077
1233,0.6517885923
1234,-1.107336044
1235,0.04683532566
1236,-0.3173952401
1237,-0.3765441775
1238,0.2374692857
1239,0.1281054318
1240,-0.8433328867
1241,0.1923173815
1242,0.05542638153
1243,-0.01920784265
1244,-1.117260098
1245,1.10801971
1246,0.4771331847
1247,0.4399375021
1248,-0.7026739717
1249,0.3303538561
1250,-0.4590511024
1251,0.4779574275
1252,-0.1795845628
1253,-0.2021685243
1254,0.3280842602
1255,-0.7285179496
1256,1.136882424
1257,0.1027690247
1258,0.710447073
1259,-0.822419107
1260,-0.2755749822
1261,-0.2960398197
1262,0.3258002102
1263,-0.1210597679
1264,0.180504784
1265,-0.1556064636
1266,-0.557600379
1267,0.8414676189
1268,-0.1929825097
1269,0.5761548877
1270,0.1180990189
1271,0.239770174
1272,-1.180236936
1273,0.4744231701
1274,0.4053081572
1275,0.433929801
1276,0.5416892171
1277,-0.3045285046
1278,-0.7127555013
1279,-0.6046519876
1280,0.09487124532
1281,0.8924587965
1282,-0.06354933232
1283,0.1882949024
1284,0.4151411355
1285,0.1759457439
1286,-0.08350633085
1287,-0.541161716
1288,0.02464185283
1289,-0.8145618439
1290,-0.03474613652
1291,-0.5625241995
1292,-1.19163692
1293,1.924672365
1294,-0.3746633828
1295,0.2470120192
1296,-0.1259717643
1297,-0.8810147047
1298,0.7673473954
1299,-0.525767982
1300,-0.1739667803
1301,0.2977046072
1302,-0.047700461
1303,-0.6419971585
1304,0.2855901122
1305,-0.1333450675
1306,0.3602265716
1307,-0.3978873193
1308,0.9393303394
1309,0.1385662407
1310,0.4418762922
1311,-0.06796099246
1312,-0.7342687845
1313,0.4847067893
1314,0.4000214934
1315,0.3809721172
1316,0.66280514
1317,0.3424085677
1318,-0.7746618986
1319,0.5057651401
1320,-0.08212040365
1321,0.8280286193
1322,0.4677590728
1323,0.7671256661
1324,-0.1056877822
1325,0.2919369936
1326,-0.3789798021
1327,-0.2787937224
1328,0.7493168712
1329,-0.1495674103
1330,-0.5931048393
1331,0.1141992509
1332,-0.4732023478
1333,0.6488318443
1334,0.9493743181
1335,-0.6386842728
1336,0.3969062865
1337,0.3885288835
1338,-0.4400384426
1339,-0.3590970039
1340,0.5394330025
1341,0.3286535442
1342,0.141646415
1343,-0.6334796548
1344,0.05220897868
1345,0.3059714139
1346,0.4492807984
1347,0.9479352236
1348,-1.039212704
1349,-0.3331451416
1350,0.5547252893
1351,0.140847981
1352,0.6204092503
1353,0.6482658982
1354,0.7843881845
1355,0.4423453212
1356,0.4522625506
1357,-0.9810949564
1358,-1.715900779
1359,-1.113573551
1360,0.2884629965
1361,-0.4969687164
1362,-1.16779983
1363,0.1529577374
1364,0.4270212352
1365,-0.2252271771
1366,-0.2233585268
1367,-0.1859894991
1368,0.232501328
1369,0.03965731338
1370,0.242713809
1371,0.4852385819
1372,0.1209725887
1373,0.43114537
1374,0.6582494378
1375,0.8078192472
1376,-1.364431024
1377,-0.7534406781
1378,-0.4579091072
1379,-0.3742308915
1380,0.2498460263
1381,-1.559538603
1382,-1.476390958
1383,0.1732544899
1384,1.215466619
1385,0.8174942732
1386,-0.3204513788
1387,-0.5411117673
1388,0.5829293728
1389,-0.2096076757
1390,0.1400398761
1391,-0.182855159
1392,0.2201435566
1393,-0.602942884
1394,0.4707397521
1395,0.815454185
1396,-0.7779688239
1397,0.3563411236
1398,-0.6566823721
1399,0.4581403434
1400,0.8547160029
1401,0.590780139
1402,0.2205481082
1403,-0.4685893059
1404,0.4718538225
1405,0.06906215101
1406,-0.1048283353
1407,-1.050648212
1408,0.07577740401
1409,-0.325132221
1410,0.1585818678
1411,0.257297039
1412,0.04904041067
1413,0.0315499641
1414,-0.02366256528
1415,0.1922295541
1416,0.2404674292
1417,-0.09203612059
1418,-0.2473100573
1419,0.2012202442
1420,0.2744068205
1421,-0.6597255468
1422,-0.2085486054
1423,-0.00496649649
1424,-0.2398974746
1425,-0.8848266006
1426,-0.2689947188
1427,-0.2993295491
1428,-0.2292200625
1429,-0.1247760057
1430,-0.310813725
1431,-0.2715746164
1432,-0.2554096282
1433,0.2803503871
1434,0.05096442625
1435,0.3989557922
1436,0.26458022
1437,0.4138428569
1438,0.2941583395
1439,0.2909198999
1440,-0.3256174028
1441,-0.2112535983
1442,0.1889882684
1443,0.1358342916
1444,0.05209895596
1445,-0.06493988633
1446,0.2945283949
1447,0.1682455242
1448,0.3782904148
1449,0.3012602925
1450,0.1825789362
1451,0.2633552551
1452,0.217158258
1453,-0.1332235485
1454,0.0184571296
1455,0.3345557451
1456,-0.1701796502
1457,-0.004004572984
1458,-0.3131524324
1459,-0.08911308646
1460,0.3459399045
1461,0.05343278125
1462,-0.3358638883
1463,0.2423137277
1464,0.002507175785
1465,-0.1227398589
1466,0.04160450399
1467,-0.3615976274
1468,-0.5357103348
1469,-0.2333666682
1470,0.2013248354
1471,-0.283162415
1472,-0.1133664697
1473,0.1733922362
1474,0.06940620393
1475,-0.2988733053
1476,-0.1426667571
1477,0.03279250488
1478,-0.1334892213
1479,0.4028478563
1480,-0.1909424663
1481,-0.009925727732
1482,0.156269297
1483,0.2433112711
1484,0.186371848
1485,0.1280872226
1486,0.1450786442
1487,0.1131401658
1488,0.2919331789
1489,-0.5469034314
1490,-0.6696864367
1491,0.3880157471
1492,0.5301558971
1493,-0.2742057145
1494,0.2006244212
1495,-0.02190579101
1496,0.1308627427
1497,-0.05841292068
1498,0.1366648525
1499,-0.7019178867
1500,0.137261197
1501,0.6363849044
1502,0.1082277521
1503,0.2993359268
1504,-0.570336163
1505,-0.2228280306
1506,0.231722191
1507,0.09080346674
1508,0.0002680179896
1509,0.02525311336
1510,0.6122146845
1511,-0.8576433659
1512,0.2101814598
1513,-0.4892693758
1514,-0.5715028048
1515,0.08509039134
1516,0.1017680392
1517,-0.3861683607
1518,-0.1179369017
1519,-0.2644242048
1520,0.034543816
1521,0.25717026
1522,0.1667656749
1523,0.02838011831
1524,-1.678983212
1525,0.1963935941
1526,0.001540308702
1527,0.3914250135
1528,-1.044531465
1529,-0.1486862302
1530,-0.1907579154
1531,0.4447858632
1532,-1.129359961
1533,0.03315843269
1534,-0.5195092559
1535,0.522867918
1536,-0.7835454345
1537,1.580017328
1538,0.1427396834
1539,-1.31145215
1540,-0.4340631366
1541,0.08693323284
1542,0.2520162165
1543,0.6861543059
1544,-0.8059501052
1545,-0.005089339335
1546,0.8265241981
1547,0.5586534142
1548,0.3510296047
1549,-0.116386421
1550,-0.05215123296
1551,-0.3007546961
1552,-0.1036829576
1553,-0.3146643639
1554,0.4656238258
1555,-0.4086079299
1556,-0.08847927302
1557,0.3820486367
1558,-0.07524688542
1559,0.01267544646
1560,-0.1625102162
1561,-0.04825846851
1562,-1.246308923
1563,0.8010715246
1564,0.6710641384
1565,-0.1407670081
1566,-0.07518865168
1567,0.5749596953
1568,-0.3701152802
1569,-0.5416871905
1570,-0.7804527283
1571,0.2538696527
1572,0.1006047502
1573,0.2331934273
1574,0.1631477922
1575,-0.3075658083
1576,0.6004490852
1577,-0.1572199762
1578,-0.4440413713
1579,-0.6063268781
1580,0.4768275023
1581,0.3362951875
1582,-0.06276433915
1583,-0.7829785943
1584,0.5141408443
1585,0.1361865401
1586,-0.3650459945
1587,0.2291360646
1588,0.5541382432
1589,1.020444512
1590,-0.01037097163
1591,-0.4460384846
1592,-0.1697721779
1593,-1.157102823
1594,0.1380318999
1595,-1.240066528
1596,0.528460443
1597,-0.2421761751
1598,0.3219996393
1599,0.4677014351
1600,0.004128368106
1601,-0.7652879953
1602,0.03894387558
1603,0.1235189885
1604,-0.3592880964
1605,0.03404785693
1606,0.1738608181
1607,0.5090664625
1608,0.4435451925
1609,-0.02073385566
1610,0.3240885437
1611,0.518145144
1612,0.3056565225
1613,0.06187160313
1614,0.2241564691
1615,0.6521865726
1616,-0.4689337313
1617,0.09523883462
1618,-0.05939281359
1619,-0.1612480432
1620,0.6373435259
1621,-0.1185287386
1622,-0.04472372308
1623,0.3859599531
1624,0.5601231456
1625,-0.546836555
1626,-0.4603103995
1627,-0.2746480405
1628,0.1795012653
1629,0.1907371432
1630,0.3859689236
1631,-0.002115057781
1632,0.2148349285
1633,0.1089847758
1634,0.4635794163
1635,-0.1231695414
1636,0.07196410745
1637,-0.5589503646
1638,-0.9876913428
1639,0.2793929577
1640,0.1337644011
1641,-0.2576361597
1642,0.1842621416
1643,0.1997856498
1644,0.4900414646
1645,-0.09330607951
1646,0.5852943063
1647,0.2856940031
1648,-0.6108276248
1649,-0.01722965203
1650,0.609469533
1651,0.008151960559
1652,-1.288878441
1653,-0.6880372167
1654,-0.4799151719
1655,0.2919182777
1656,-0.3396168947
1657,-0.03211173415
1658,0.133050099
1659,0.3507379889
1660,-0.01721599326
1661,-0.0288529098
1662,-0.5233710408
1663,-0.5277817845
1664,0.5422134995
1665,-0.455737561
1666,0.03641445935
1667,0.531498909
1668,-0.04232986644
1669,-0.1714259237
1670,0.02851371653
1671,-1.311961174
1672,0.7005805373
1673,-0.3522203267
1674,-1.258235693
1675,0.490124464
1676,-0.5938495994
1677,0.758079946
1678,-0.1744697988
1679,-0.02049007826
1680,-1.22892344
1681,-0.4612320662
1682,-0.04662693664
1683,0.7772873044
1684,0.8178162575
1685,-0.1193229929
1686,0.2645125091
1687,0.4787072837
1688,0.4204028845
1689,-0.7377266884
1690,-0.9192217588
1691,-0.6361132264
1692,-0.1943980902
1693,0.4021741152
1694,0.1074122638
1695,-0.8981163502
1696,0.2582182884
1697,0.3762561381
1698,0.512011528
1699,0.3759743273
1700,-0.1679162383
1701,0.2370189875
1702,0.3475884199
1703,-0.000633635791
1704,0.3372517824
1705,0.04106485471
1706,-0.5695534348
1707,-0.1955161691
1708,-0.02168882079
1709,0.2410190254
1710,0.3706998825
1711,-0.9113048911
1712,0.6118502617
1713,0.2451973706
1714,0.5388018489
1715,0.08545230329
1716,0.1793078184
1717,0.1353269219
1718,-0.8970222473
1719,-0.6619493365
1720,-0.7300390601
1721,0.5978837609
1722,0.1692444235
1723,-0.1008416489
1724,-0.387198478
1725,0.03243981302
1726,-1.009496808
1727,-0.03928232938
1728,-0.160905093
1729,-0.8729529381
1730,-0.6874964237
1731,-0.2088788599
1732,-0.07730324566
1733,-0.3137577772
1734,0.1455650628
1735,0.08129397035
1736,-0.3993639052
1737,-0.1786755025
1738,-0.217341885
1739,0.9360561371
1740,0.07132729143
1741,-1.433842182
1742,-0.6072029471
1743,0.3304287493
1744,-0.1713155508
1745,-0.3896918297
1746,0.7516791224
1747,-0.7922706604
1748,0.4465387166
1749,-0.2416845411
1750,-0.3802139759
1751,0.4964607954
1752,0.05415518582
1753,0.03931057453
1754,-0.1574296653
1755,-0.06062991545
1756,0.2329620868
1757,0.4384811223
1758,1.045824528
1759,-0.06885863841
1760,0.3909455836
1761,0.2441738248
1762,0.4914025068
1763,-0.4669549465
1764,-0.8911646605
1765,-0.1772120446
1766,-0.09672287107
1767,-1.008620977
1768,0.3727222979
1769,-0.1340845972
1770,0.05084568635
1771,0.194382906
1772,0.3233262002
1773,0.06264502555
1774,0.5862779617
1775,-0.1518638134
1776,-0.2386990935
1777,-0.1510460377
1778,-0.03791625425
1779,1.0526582
1780,-0.4390308261
1781,0.4612944126
1782,-0.3850419223
1783,0.539439857
1784,-0.1902873665
1785,-0.2298273891
1786,0.8488568664
1787,-0.7561327815
1788,-0.756403029
1789,0.1799545586
1790,-0.8828970194
1791,-0.2384438217
1792,-0.3279218078
1793,0.2278336436
1794,0.00271177711
1795,-0.2040580809
1796,0.2838382721
1797,-0.2468177676
1798,-0.1503073722
1799,-0.08380306512
1800,-0.2641281784
1801,-0.2301638126
1802,-0.0350558348
1803,-0.3287362754
1804,0.06762634218
1805,-0.02734010853
1806,0.3217356503
1807,-0.03673705086
1808,-0.06557623297
1809,0.145886302
1810,0.1036381871
1811,-0.1269087791
1812,-0.3288663626
1813,-0.3641699255
1814,-0.07699352503
1815,0.1968652457
1816,-0.09613998234
1817,0.2749755085
1818,0.2975203097
1819,0.0969234705
1820,0.0378084071
1821,0.04661240056
1822,-0.09651178867
1823,0.1352017969
1824,0.06115842611
1825,0.1499498188
1826,-0.06421669573
1827,0.1116791368
1828,0.0985519886
1829,-0.3307161927
1830,-0.3303265274
1831,-0.2129912972
1832,-0.1735026389
1833,0.177984044
1834,-0.3059504628
1835,-0.1074034646
1836,0.3891586363
1837,-0.356860131
1838,-0.03384506702
1839,-0.3648402691
1840,0.3106773496
1841,-0.06017129496
1842,0.09062968194
1843,0.2177810371
1844,-0.03702998906
1845,-0.4125954211
1846,0.2938085794
1847,0.05765449256
1848,0.01965245605
1849,0.09665329754
1850,0.1148623228
1851,0.2326389849
1852,0.2398016155
1853,-0.2277593762
1854,0.403280437
1855,-0.02657739446
1856,-0.0602433607
1857,-0.2442061603
1858,0.1438399851
1859,-0.1973688602
1860,0.3956937194
1861,-0.2446778715
1862,-0.2970529497
1863,0.03090666793
1864,0.1738423258
1865,-0.2931193411
1866,-0.2413007319
1867,-0.1584670842
1868,-0.1451598108
1869,0.2107467651
1870,0.415753752
1871,0.2311302722
1872,-0.3191792667
1873,0.3433701992
1874,0.1160195023
1875,-0.008822983131
1876,0.2952976227
1877,-0.1901534498
1878,-0.2025810629
1879,-0.2145512551
1880,-0.0115800621
1881,-0.08016319573
1882,-0.1779969782
1883,0.3271794319
1884,-0.302439332
1885,-0.2835386097
1886,-0.05521208048
1887,-0.4825228751
1888,-0.246675998
1889,0.2358107567
1890,0.07718540728
1891,0.08955401182
1892,0.02624151856
1893,0.3764580488
1894,-0.2492191643
1895,-0.03165439516
1896,-0.2117351443
1897,0.08856512606
1898,0.05343366414
1899,0.3040330708
1900,0.3556316197
1901,-0.1136315018
1902,0.3289586306
1903,-0.1895415932
1904,0.01929988153
1905,-0.3162768781
1906,0.316793859
1907,-0.03599604964
1908,-0.1390828788
1909,0.1919811517
1910,0.1738461256
1911,-0.09240955114
1912,-0.02940258011
1913,-0.1741890758
1914,0.1450416148
1915,0.2672985494
1916,0.2782967687
1917,-0.2313863486
1918,-0.2217315435
1919,0.02008390427
1920,0.6671931744
1921,-1.332856059
1922,-0.3152305782
1923,0.4680730402
1924,0.9204472899
1925,0.262889713
1926,-0.5928879976
1927,-0.5267156363
1928,0.2364037484
1929,0.3620874882
1930,-0.6579260826
1931,-1.215540648
1932,-0.6480664015
1933,-0.7093468904
1934,0.3342525959
1935,0.07782034576
1936,-0.9332202673
1937,0.5738255978
1938,0.8759480715
1939,-0.3276953101
1940,-0.5512894988
1941,-0.07166743279
1942,0.2920366228
1943,-0.3365003467
1944,0.1234535351
1945,0.681869328
1946,-0.04553791136
1947,0.07708114386
1948,0.4238898456
1949,-0.2715705037
1950,0.6351200342
1951,-0.9571115375
1952,-1.223458767
1953,1.85881424
1954,0.8950926065
1955,-2.764519215
1956,-1.11758697
1957,-0.68817693
1958,0.1840121597
1959,1.007740736
1960,-0.6501852274
1961,0.8732344508
1962,-0.5507837534
1963,1.262292385
1964,-1.100647807
1965,-0.3049340248
1966,0.5172589421
1967,0.3354181647
1968,-0.864720583
1969,-0.08323844522
1970,0.7082924843
1971,1.326193452
1972,-0.1694935113
1973,-1.414719105
1974,0.109394826
1975,-0.6125710607
1976,0.6106619835
1977,0.4523218572
1978,0.7081534863
1979,0.92841506
1980,-0.2198327482
1981,0.346193254
1982,1.214963078
1983,0.05124508962
1984,0.2695787251
1985,-4.389172077
1986,0.6821764112
1987,0.1016461775
1988,0.02363200299
1989,-0.2475835532
1990,0.1882136911
1991,-0.650236547
1992,0.517154336
1993,0.3360363245
1994,1.351396441
1995,-0.4505123198
1996,0.05633237585
1997,-0.6134120822
1998,-2.250069618
1999,0.06920024753
2000,0.4578968585
2001,0.4064461887
2002,0.6052068472
2003,0.2682420313
2004,0.1451426446
2005,-0.3208886087
2006,-0.3169076741
2007,0.7859739661
2008,-0.5870423913
2009,-0.5826807618
2010,0.03367731348
2011,-0.2897942364
2012,-0.264413178
2013,0.1336307526
2014,0.3202528358
2015,0.3994015157
2016,-1.37558639
2017,0.4979430437
2018,1.156718135
2019,-0.8965168595
2020,0.02884654328
2021,0.3740650117
2022,1.023238063
2023,-0.4690776169
2024,-0.07082588226
2025,0.0656652078
2026,-0.01963513717
2027,0.1226168647
2028,-1.309253693
2029,-0.1263885349
2030,-0.1513448209
2031,0.4305551648
2032,-0.7497680783
2033,-0.3882880807
2034,-0.3084547222
2035,0.8097671866
2036,-4.081433773
2037,0.146138832
2038,0.08669641614
2039,-0.3795695305
2040,-0.768533051
2041,0.3033656478
2042,0.8839684129
2043,-0.01006665174
2044,-0.5783717036
2045,-0.1519801766
2046,0.04519611225
2047,-0.5386295915
2048,1.475600719
2049,-1.043456316
2050,-0.7161410451
2051,0.09027344733
2052,-0.2361423373
2053,0.08355816454
2054,-1.299387217
2055,-0.6189962626
2056,0.09100951999
2057,-0.4552600086
2058,-0.5423462987
2059,-1.560822845
2060,-0.4648599029
2061,-0.8171674609
2062,-0.3027113974
2063,1.318351269
2064,-0.4659896791
2065,-0.06483972073
2066,-0.7387981415
2067,0.4091570377
2068,-0.006673737895
2069,0.3351246119
2070,0.2430212498
2071,0.422245115
2072,1.028180957
2073,-0.9131296277
2074,-1.028443813
2075,-0.916333735
2076,-0.17289114
2077,0.9148724079
2078,0.8605624437
2079,-0.7982493043
2080,0.3112048507
2081,1.154383302
2082,0.6460328698
2083,-0.5477589369
2084,-0.7667577267
2085,-0.9931304455
2086,0.04263889045
2087,-0.4096513093
2088,-0.4028765559
2089,0.9735814333
2090,0.571162045
2091,0.9153724313
2092,0.1972418129
2093,0.2479601204
2094,1.291304469
2095,0.2286106795
2096,0.7049299479
2097,0.04747359082
2098,-0.306386143
2099,-0.02066702582
2100,-0.7811413407
2101,-0.8169184923
2102,0.2373602837
2103,-0.01752119325
2104,-0.5999858379
2105,-0.906223774
2106,0.06878594309
2107,-0.5596743226
2108,0.007135311607
2109,0.08006658405
2110,0.6120784879
2111,0.1159163862
2112,0.0196323283
2113,-4.193899155
2114,0.3382563293
2115,-0.6044259667
2116,0.1665519774
2117,-0.3316934705
2118,-0.168311581
2119,0.02336913161
2120,-0.6142956614
2121,0.3462485373
2122,0.6426815987
2123,0.08810193837
2124,0.4268693328
2125,-1.453373909
2126,-1.415794492
2127,-0.4693772793
2128,-0.5647556782
2129,0.1039879471
2130,0.7504349351
2131,-0.3836226761
2132,0.05228038877
2133,0.2946552336
2134,0.0339884758
2135,0.04317369685
2136,-0.6584194303
2137,-1.301484585
2138,-0.3926045299
2139,-0.2893953025
2140,-0.188058719
2141,-0.06013925374
2142,0.6695771813
2143,0.8011908531
2144,-0.6389708519
2145,0.2881820798
2146,-0.3083448708
2147,-0.2252190709
2148,-0.16983293
2149,0.501523912
2150,0.4816705585
2151,-0.2653867602
2152,0.8918212056
2153,-0.3187628686
2154,0.01639984548
2155,-0.1730744094
2156,-1.109398603
2157,-0.1746073961
2158,0.5733661056
2159,0.6899724007
2160,-0.285464853
2161,-0.3429570794
2162,-0.4087289572
2163,0.8686382174
2164,-1.025726318
2165,0.2807199657
2166,-1.179512382
2167,1.052344084
2168,0.23759754
2169,0.2233690023
2170,0.7796762586
2171,1.098374486
2172,-0.5489180088
2173,-0.1667427719
2174,0.3610859811
2175,0.4021292329
2176,0.01572983526
2177,-0.5988442898
2178,0.7385197878
2179,-0.3932093084
2180,0.8661658764
2181,0.2858020067
2182,-0.02236950956
2183,-0.3985934854
2184,-0.09914555401
2185,0.2793137133
2186,-0.8689697981
2187,-1.66757226
2188,0.2623102963
2189,-1.680402637
2190,0.07373978943
2191,0.1399451494
2192,-0.02145050652
2193,0.657681942
2194,0.3255826533
2195,0.4276166558
2196,0.02063205279
2197,-0.3491745293
2198,-0.3433457613
2199,0.08630196005
2200,-0.2152685076
2201,-0.04172527418
2202,-0.7561258674
2203,-0.4976700544
2204,-0.1477043927
2205,-0.7429303527
2206,-0.2450052202
2207,0.061786782
2208,0.3318471611
2209,0.8592261076
2210,-0.1687677503
2211,-0.04539072886
2212,-0.3303282261
2213,-0.2548163831
2214,0.5118242502
2215,-0.5693010092
2216,-0.5041935444
2217,0.1769570708
2218,-0.1471527368
2219,0.3780162334
2220,-0.2253708988
2221,0.01093668025
2222,-0.07939816266
2223,0.9596379399
2224,-0.2800625861
2225,0.1328807771
2226,0.3932351172
2227,-0.1877041757
2228,-0.662522912
2229,-0.1270442009
2230,0.4889824092
2231,-0.579305172
2232,-0.1099700481
2233,0.1171287298
2234,-0.2925888002
2235,0.4413523972
2236,0.1704443395
2237,-0.3090103865
2238,0.5539428592
2239,0.1091466472
2240,-0.1327332109
2241,-4.115645885
2242,-0.08916840702
2243,-0.5815963149
2244,0.5642899871
2245,-0.239858523
2246,0.3499568105
2247,-0.062913239
2248,-0.9290885329
2249,0.7529308796
2250,0.4666722417
2251,0.1612305194
2252,0.6258307099
2253,-1.211480856
2254,-1.579599977
2255,-0.009994032793
2256,-0.9940186143
2257,0.02112548426
2258,0.8825438619
2259,-0.7152116299
2260,-0.2664129138
2261,-0.1972954273
2262,0.1490492374
2263,-0.2125806808
2264,-0.2789607048
2265,-1.101898551
2266,-0.2544437945
2267,-0.07372588664
2268,0.1482425779
2269,0.3332576454
2270,0.3207926452
2271,0.6035073996
2272,-0.8701223135
2273,-0.04709131643
2274,-0.1791691929
2275,0.01990072802
2276,-0.3928516805
2277,0.2852051258
2278,0.6542359591
2279,-0.08716569096
2280,1.178837776
2281,-0.4409091175
2282,0.1662801504
2283,-0.1475747377
2284,-1.3579638
2285,0.3070428967
2286,0.1979840845
2287,0.7091259956
2288,-0.1212985888
2289,0.2083552182
2290,-1.004884958
2291,0.6424614787
2292,-1.085796356
2293,0.2498843521
2294,-0.7217612863
2295,1.325234175
2296,-0.3072647154
2297,0.3399913013
2298,0.9713513255
2299,1.116295218
2300,0.07372120768
2301,-0.001724121161
2302,0.5172108412
2303,0.5981698632
2304,-9.308815956
2305,-2.973334312
2306,-4.784057617
2307,-6.652296066
2308,-5.73465538
2309,0.376714915
2310,-7.398339748
2311,5.302525997
2312,-8.820454597
2313,-8.755259514
2314,0.5188651681
2315,0.7901936173
2316,8.676353455
2317,4.072434902
2318,9.801177025
2319,9.215971947
2320,6.143511295
2321,3.527517796
2322,-4.823643684
2323,-5.277966499
2324,3.553845644
2325,-0.02901924029
2326,0.001245485619
2327,0.3210086524
2328,0.07067230344
2329,0.1701159626
2330,-4.324029446
2331,-8.10941124
2332,10.11769009
2333,-1.77890563
2334,10.03016853
2335,-2.28608036
2336,8.912144661
2337,-7.673784733
2338,-4.29702282
2339,-0.1661438346
2340,-1.865550041
2341,2.2312994
2342,5.689527035
2343,-7.000558376
2344,8.583784103
2345,-4.970722198
2346,-3.655113697
2347,-6.074194908
2348,-2.854578495
2349,-0.150734365
2350,-3.064856529
2351,2.940200329
2352,6.596626759
2353,-2.104424953
2354,-12.04544163
2355,-3.092195988
2356,-3.969102621
2357,11.50435352
2358,2.302399397
2359,1.966985822
2360,-0.7782629728
2361,-7.148380756
2362,0.4485770464
2363,-2.185403109
2364,1.796764731
2365,0.1481731385
2366,8.707091331
2367,8.661919594
2368,-0.5495954752
2369,0.3240243793
2370,0.3222369552
2371,-0.1681295782
2372,-0.11299932
2373,-0.2367888391
2374,0.260641247
2375,-0.103876695
2376,0.1632678956
2377,0.4041957855
2378,-0.1285956651
2379,0.0446582064
2380,-0.6134228706
2381,0.130246982
2382,0.1841167659
2383,-0.4482071996
2384,0.1131323054
2385,-0.3204993606
2386,0.4204410315
2387,0.1147564948
2388,-0.2402068377
2389,-0.0003044506593
2390,-0.3562595546
2391,0.20504269
2392,0.1174133718
2393,0.2029716223
2394,0.2335792184
2395,-0.2542986572
2396,0.3879769742
2397,-0.1709591597
2398,0.07180912048
2399,-0.09181948751
2400,0.4691513479
2401,-0.757478714
2402,-0.6348388195
2403,-0.09441808611
2404,-0.1748975515
2405,0.3469881713
2406,-0.05833208188
2407,0.4454069734
2408,0.2807947695
2409,0.3215970695
2410,-0.1423922032
2411,-0.08792068809
2412,-0.3792411387
2413,-0.3042171001
2414,-0.01467066258
2415,-0.4282931685
2416,0.3281176388
2417,-0.2635967135
2418,-0.003337028669
2419,-0.2179635912
2420,0.4089281559
2421,0.1644813716
2422,0.170507431
2423,-0.2500722408
2424,0.3262318671
2425,-0.2408975363
2426,-0.1700457633
2427,-0.1985618919
2428,-0.03780635446
2429,-0.1112356558
2430,0.372333169
2431,0.3682060242
2432,-0.007777532097
2433,-0.8062599897
2434,0.6797420979
2435,-0.8328146935
2436,-0.0745626092
2437,0.386544615
2438,0.3099121451
2439,0.03039338067
2440,0.05714547634
2441,0.06833136082
2442,-0.4982096851
2443,-0.2459456474
2444,0.2197781503
2445,-0.6821421981
2446,-0.3959282935
2447,0.4026303887
2448,0.25460127
2449,-0.9513686299
2450,0.02697336674
2451,0.0913117528
2452,-0.413506031
2453,-0.3169941604
2454,0.1946988106
2455,-0.5711422563
2456,0.2440285236
2457,-0.7513936758
2458,-0.3672806323
2459,-0.5217323303
2460,-0.04480849206
2461,-0.1514201462
2462,0.28149575
2463,0.09141359478
2464,0.3241984248
2465,-0.06889428943
2466,0.1440756321
2467,0.0451566875
2468,0.1564533561
2469,0.2712342739
2470,0.07010857761
2471,-0.589772284
2472,-0.05313340575
2473,-0.02675703168
2474,0.1203447133
2475,-0.3473822773
2476,-0.749687314
2477,-0.3881063163
2478,-0.436159879
2479,0.2641156614
2480,-0.2369741648
2481,-0.2180513591
2482,-0.2914263308
2483,0.2612262666
2484,-1.166499019
2485,0.1267972589
2486,-0.1156219095
2487,0.2070812136
2488,-0.6815606952
2489,0.437536329
2490,0.3574139476
2491,0.4547353387
2492,-1.259731412
2493,-0.1761405468
2494,-0.184002623
2495,-0.0948548764
2496,0.02863368951
2497,0.07183984667
2498,0.002693022601
2499,0.03519388288
2500,0.02820348926
2501,0
2502,0.02720861137
2503,-0.01519865915
2504,-0.1361507475
2505,0.03692570701
2506,-0.09494879842
2507,0.06013770774
2508,0.1011880189
2509,0.1635002196
2510,0.1121274158
2511,0.03449898958
2512,-0.06165459007
2513,0.1343911886
2514,0.1349384487
2515,-0.1526690871
2516,0.01874997281
2517,-0.01105470303
2518,0
2519,0.1595481783
2520,-0.04116682336
2521,0.1586893052
2522,-0.08724675328
2523,0.0130382292
2524,0.05860796571
2525,-0.1996031404
2526,0.03982950002
2527,-0.1289507896
2528,0.09325447679
2529,0.09715072811
2530,0.03650543466
2531,-0.001276788302
2532,-0.09970249236
2533,-0.0008512838394
2534,-0.1085554585
2535,-0.01240912266
2536,0.0488628
2537,0.01511967275
2538,0.03696821257
2539,-0.01908600889
2540,0.03675869107
2541,0
2542,-0.02218029834
2543,0.006830220576
2544,-0.01875336096
2545,-0.0169148799
2546,0.02075259015
2547,-0.03229507804
2548,0.06090668961
2549,-0.08063492924
2550,-0.04862643778
2551,0.003287079046
2552,0.1942213178
2553,-0.0001063131858
2554,-0.06713094562
2555,0.05825498328
2556,0.1219271794
2557,0
2558,0.05452146754
2559,0.09376966953
2560,-0.3164337575
2561,-0.4226374924
2562,-0.4196630716
2563,0.1791405678
2564,-0.09176910669
2565,-0.2587922812
2566,-0.6525354385
2567,0.1364080608
2568,-0.03334580362
2569,-0.1609899551
2570,-0.1531657577
2571,0.1617505848
2572,-0.8320368528
2573,-0.1596551836
2574,-0.6777240038
2575,-0.2528836727
2576,0.3249350488
2577,-0.1622236669
2578,-0.4925033748
2579,0.3035693467
2580,-0.2603958845
2581,-0.1530516446
2582,0.48933357
2583,-0.0829384923
2584,0.121439755
2585,-0.1294505894
2586,-0.1493398994
2587,0.01482568122
2588,0.5069274306
2589,-0.2487438023
2590,0.107387878
2591,0.168947503
2592,-0.3447821736
2593,0.4626502991
2594,-0.331556052
2595,-0.1928211302
2596,-0.2338279635
2597,-0.3608247936
2598,-0.6083444953
2599,-0.465388149
2600,0.3877796829
2601,-0.8420238495
2602,-0.08558950573
2603,0.1711079031
2604,0.2680864036
2605,-0.1114651337
2606,0.07580301911
2607,0.315141499
2608,-0.3833703101
2609,0.31311813
2610,0.09438449889
2611,0.2915452123
2612,0.1466793716
2613,-0.2090408355
2614,0.1570685208
2615,0.3510291278
2616,-0.1496521682
2617,-0.7264557481
2618,0.3523892462
2619,-0.09593684971
2620,0.2154829502
2621,0.4993113875
2622,0.06428710371
2623,-1.250774264
2624,-0.3562903404
2625,0.07293691486
2626,-0.0768923834
2627,-0.5742723346
2628,0.1138796434
2629,0.09667181224
2630,-1.018236279
2631,-0.08354396373
2632,-0.7716064453
2633,-0.346740365
2634,1.353938937
2635,-0.6431788206
2636,0.2107341588
2637,-0.4058568478
2638,-0.5694642663
2639,-0.2004510015
2640,0.9614064693
2641,0.1950593889
2642,-0.2777545452
2643,-0.3340826929
2644,-0.1639098525
2645,-0.2806393802
2646,-0.2558356225
2647,-0.4646055698
2648,-0.2961669862
2649,-0.827727437
2650,-0.1153054386
2651,0.5488197207
2652,0.4697059691
2653,-1.344658017
2654,0.04004552215
2655,0.05223773047
2656,0.9363687634
2657,0.5573908091
2658,-0.8770814538
2659,0.7165219188
2660,-0.1886808723
2661,-0.05589019135
2662,-0.0802411437
2663,0.3264473081
2664,0.9877849817
2665,-0.4222632051
2666,0.260581702
2667,-0.7919372916
2668,0.4460180998
2669,0.01479655411
2670,-0.6698782444
2671,0.20264557
2672,0.4597570002
2673,0.1534884721
2674,0.1798189878
2675,0.01038199756
2676,0.2617467344
2677,-0.2518049777
2678,0.5337616205
2679,-0.803137958
2680,-0.03824936599
2681,0.4415025115
2682,-0.0005657046568
2683,0.1156129241
2684,0.123711586
2685,0.8090650439
2686,-0.6220372319
2687,-0.1595358253
2688,-0.4669241011
2689,-0.3122327626
2690,0.3788562715
2691,0.2167467624
2692,-0.2612638175
2693,-0.3385437131
2694,0.3273790777
2695,-0.002658194862
2696,0.2452827692
2697,-0.09341002256
2698,0.01020048745
2699,0.3241398036
2700,0.2794969678
2701,-0.2487198859
2702,0.1550526917
2703,0.5681269765
2704,-0.03047419898
2705,-0.1237150207
2706,0.2699274719
2707,-0.02678742446
2708,0.05505596846
2709,-0.1061657742
2710,-0.135862112
2711,-0.5716568828
2712,0.3688966334
2713,0.1054777876
2714,0.249180913
2715,-0.1074277312
2716,-0.7504163384
2717,0.4844644964
2718,0.1438782066
2719,0.02473427355
2720,-0.2903853059
2721,0.3499269783
2722,0.1689546555
2723,0.2108081132
2724,-0.04924672842
2725,-0.2403580993
2726,0.1895697713
2727,-0.1407621354
2728,0.1100126728
2729,0.6311478019
2730,-0.1867623478
2731,0.3103841245
2732,0.1944885552
2733,-0.2249753177
2734,-0.9023864865
2735,0.08822035044
2736,0.1897480041
2737,-0.02904779464
2738,0.01352554001
2739,0.08886895329
2740,-0.3392736316
2741,0.1640379578
2742,-0.02879707888
2743,-0.1085508987
2744,-0.08016014844
2745,0.07366641611
2746,-0.6896239519
2747,0.09431418777
2748,-0.6379828453
2749,0.1194099262
2750,0.1490448266
2751,0.1662238687
2752,-0.5902780294
2753,-0.115606539
2754,-0.06671477854
2755,0.1507725567
2756,-0.5865263343
2757,0.08952815086
2758,-0.2649432719
2759,-0.07219095528
2760,0.6488611698
2761,-0.2246236503
2762,0.07973178476
2763,0.03950117901
2764,-0.4772888422
2765,0.01013798919
2766,-0.6057150364
2767,-0.2706581354
2768,0.2520453334
2769,0.3228599131
2770,-0.4726324379
2771,-0.2422295809
2772,0.3178192675
2773,0.1981130689
2774,0.2901440859
2775,-0.2246376276
2776,0.2266730517
2777,0.5984554887
2778,-0.08735049516
2779,-0.2712825835
2780,-0.006072715856
2781,0.1094454303
2782,0.5023543239
2783,0.09652911872
2784,-0.5954129696
2785,0.5149427652
2786,-0.1075583622
2787,-0.1451321244
2788,-0.9434793591
2789,0.1383608729
2790,-0.149853766
2791,-0.09740200639
2792,0.1859442592
2793,0.8217970729
2794,-0.3702563345
2795,-0.429436326
2796,-0.1919095665
2797,0.1517165005
2798,0.2265016586
2799,-0.1156414151
2800,-0.07518155873
2801,0.6840509176
2802,0.2994551659
2803,-0.01646363363
2804,-0.2044466287
2805,0.1373597234
2806,0.1536034346
2807,0.1737628132
2808,0.1312614679
2809,-0.06014803797
2810,0.05487683043
2811,-0.06801234186
2812,-0.1162100136
2813,0.05226605013
2814,0.2008237094
2815,-0.3578197062
2816,-0.2212416679
2817,0.01636104658
2818,-0.2405659854
2819,0.002104260959
2820,0.1418197453
2821,-0.01788394526
2822,0.2547363937
2823,-0.3542287052
2824,-0.3080050349
2825,-0.01377158146
2826,-0.1612908691
2827,-0.2369836569
2828,-0.1292599738
2829,-0.09008011967
2830,0.1265530139
2831,0.6311190724
2832,0.312885493
2833,-0.4619441628
2834,-0.01821391471
2835,-0.001180785825
2836,-0.1531676054
2837,-0.3373945653
2838,-0.4241377413
2839,-0.5899479389
2840,0.4460701644
2841,0.106918633
2842,-0.1621118337
2843,-0.7746922374
2844,0.03065474704
2845,-0.03357619047
2846,-0.2124268264
2847,-0.01118335314
2848,0.4783302248
2849,-0.2032009959
2850,0.2172304243
2851,-0.04687551036
2852,0.3267428577
2853,0.1445092857
2854,0.00106996228
2855,0.04464591667
2856,0.07805176079
2857,-0.4385565519
2858,0.3019497097
2859,0.2154798806
2860,0.1725428551
2861,-0.1639084816
2862,-0.2449600697
2863,0.2048905492
2864,0.1022628173
2865,-0.2012684494
2866,-0.1737107933
2867,-0.4185425043
2868,0.2207071632
2869,-0.3203161061
2870,-0.1693435907
2871,-0.06112099811
2872,-0.5038335323
2873,-0.1346344948
2874,-0.4925723374
2875,0.2856886089
2876,0.0223761294
2877,-0.04359636083
2878,0.3762545586
2879,-0.06679876894
2880,0.272115469
2881,0.2920645475
2882,0.02962093242
2883,0.08556123823
2884,-0.05094162002
2885,0.08429194242
2886,-0.1611937135
2887,0.0788243562
2888,-0.04765891284
2889,-0.01615528204
2890,-0.02493114397
2891,-0.2927690446
2892,0.01731462032
2893,0.2603100836
2894,0.2727436125
2895,-0.09649598598
2896,-0.2040003538
2897,0.01950047351
2898,-0.1842527986
2899,-0.07229062915
2900,-0.2568763793
2901,-0.1609171629
2902,0.09477196634
2903,-0.2826711535
2904,0.2834773362
2905,-0.2879618108
2906,-0.09207247943
2907,-0.1735209823
2908,0.2484011203
2909,0.1187709868
2910,0.02378457971
2911,0.04183767363
2912,-0.158154428
2913,-0.2156759948
2914,-0.1578955948
2915,-0.1287440807
2916,-0.1902927756
2917,-0.2460538894
2918,0.2434433401
2919,-0.129528746
2920,-0.2562761605
2921,0.05308857933
2922,0.03324314207
2923,0.00706151966
2924,-0.06961905211
2925,-0.1385806501
2926,0.1084623709
2927,0.1053956226
2928,-0.09934287518
2929,0.2019775957
2930,0.2058283389
2931,-0.1830717325
2932,-0.199406743
2933,-0.1731106341
2934,-0.1955530047
2935,0.07566919923
2936,0.140064612
2937,-0.2189565599
2938,-0.2677728832
2939,0.1047180295
2940,0.189198941
2941,-0.2768756747
2942,-0.2300559133
2943,-0.1339718848
2944,0.03451459482
2945,-0.034525197
2946,-0.2786892354
2947,-0.3608653843
2948,0.1733399034
2949,-0.173340112
2950,0.06815214455
2951,-0.2989776134
2952,-0.1432005614
2953,-0.2807711959
2954,-0.5974465013
2955,0.0875883922
2956,0.0883326456
2957,0.2921697795
2958,-0.365472585
2959,-0.9215884805
2960,0.1458332092
2961,0.1930072159
2962,-0.5779035687
2963,-0.05985463411
2964,0.3696240187
2965,0.06951911747
2966,-0.2797625959
2967,-0.4376093149
2968,-0.1489035487
2969,-0.2195409834
2970,0.03961568698
2971,-0.063003622
2972,-0.2145626992
2973,-0.8022587895
2974,0.1981547773
2975,0.02963442355
2976,-0.7454977632
2977,-0.0302521009
2978,-0.4723386765
2979,-0.2599708736
2980,-1.167624474
2981,-0.2209057808
2982,-0.1944578141
2983,-0.2373944074
2984,0.09890760481
2985,0.2302529365
2986,0.1626893878
2987,0.2208645791
2988,-0.2476775497
2989,0.262352854
2990,-0.07045228034
2991,-0.6614693403
2992,-0.8494031429
2993,0.09161163867
2994,-0.09365633875
2995,0.1399724633
2996,-0.2329601347
2997,-0.221560657
2998,-0.04294871911
2999,-0.2656596005
3000,0.01181631256
3001,0.09740893543
3002,0.3858364224
3003,0.2317717075
3004,0.1139902249
3005,-0.3045022786
3006,0.4988999963
3007,0.2842373848
3008,-0.01675204746
3009,-0.09680787474
3010,0.48499915
3011,0.09362496436
3012,0.3311899602
3013,-0.3367977738
3014,0.05989956111
3015,-0.273529917
3016,0.07176005095
3017,-0.03556407243
3018,0.3634150624
3019,-0.02651895583
3020,0.1131502613
3021,0.3253375292
3022,0.4981783926
3023,-0.3806890845
3024,-0.4194650054
3025,0.01649311185
3026,0.03226127848
3027,-0.7337512374
3028,-0.1141170412
3029,-0.09460784495
3030,-0.09755539894
3031,0.455052644
3032,-0.2119818628
3033,-0.15139094
3034,-0.177777648
3035,0.1769332886
3036,0.475579679
3037,0.06486067176
3038,0.01669970155
3039,0.1207576543
3040,-0.06745096296
3041,0.2908444703
3042,-0.2573899925
3043,-0.1326406896
3044,-0.009198733605
3045,-0.2720592618
3046,0.4524213374
3047,-0.4965727031
3048,-0.2266516984
3049,-0.1977390796
3050,-0.1757917404
3051,-0.2036691755
3052,-0.3089543283
3053,-0.09862212837
3054,0.37927109
3055,-0.007541700266
3056,-0.002604377689
3057,0.1296135634
3058,-0.2207051963
3059,-0.1336853951
3060,-0.1150864139
3061,-0.2839183807
3062,-0.3120786846
3063,-0.6015788913
3064,-0.07488187402
3065,-0.2325559407
3066,0.6153770089
3067,-0.02315348201
3068,0.3662155569
3069,0.2340130061
3070,-0.08848321438
3071,-0.276771903
3072,-0.2033567578
3073,-0.07649511099
3074,0.061901398
3075,0.3465079963
3076,-0.3874854743
3077,-0.250964433
3078,-0.1130526662
3079,-0.2365909815
3080,0.162957564
3081,-0.2039529234
3082,0.2362595946
3083,0.3464605212
3084,-0.4463482201
3085,-0.2710122466
3086,0.0634868592
3087,0.06455316395
3088,0.2721536756
3089,-0.0184895955
3090,-0.03056293167
3091,0.1693075448
3092,-0.1188456491
3093,-0.2296366394
3094,-0.1773454994
3095,0.1298943162
3096,-0.2888902724
3097,-0.08201107383
3098,-0.04079206288
3099,0.08923540264
3100,0.04225854576
3101,0.1338524669
3102,0.3141733408
3103,0.2551485896
3104,-0.0211451482
3105,0.2257904559
3106,0.2033125162
3107,0.0345284082
3108,-0.0797386691
3109,-0.2192453146
3110,-0.2375190407
3111,0.1668938845
3112,-0.2104485929
3113,0.3001703024
3114,-0.2580724955
3115,0.2364381254
3116,-0.17376481
3117,-0.4019292593
3118,0.2684231699
3119,0.2293065041
3120,0.06231628358
3121,-0.155857414
3122,0.1127565801
3123,0.1139269322
3124,-0.2298504561
3125,-0.3530478179
3126,0.1614220142
3127,0.1374423206
3128,0.1970393956
3129,0.1790720969
3130,-0.05633179843
3131,0.1072520912
3132,-0.3102355301
3133,0.252245158
3134,-0.6447660327
3135,-0.03407900408
3136,-0.2067721337
3137,-0.04372647032
3138,0.1054791436
3139,0.03522388637
3140,-0.03439522162
3141,-0.3036144078
3142,0.1174122766
3143,0.03621994331
3144,0.4928521216
3145,-0.4315752089
3146,-0.3444767892
3147,0.4111412168
3148,0.307902962
3149,-0.4262690842
3150,0.300147891
3151,0.3145772815
3152,-0.2615702748
3153,0.1254369318
3154,-0.3815928102
3155,-0.2531195581
3156,0.7669513822
3157,0.0343824625
3158,-0.6945952177
3159,0.5840883851
3160,0.02997601964
3161,0.08164728433
3162,0.1658946574
3163,-0.4624256194
3164,-0.01485802699
3165,0.1378059685
3166,0.2356443256
3167,-0.3037809432
3168,-0.05737876892
3169,-0.03981614485
3170,0.02573564835
3171,0.03861168027
3172,-0.2497904599
3173,0.1187737882
3174,-0.4386107028
3175,-0.0002550483041
3176,-0.02846066095
3177,0.706822753
3178,0.1555976719
3179,0.2549837828
3180,0.3165949583
3181,-0.2202873677
3182,-0.1522167623
3183,0.2800350189
3184,-0.4398345947
3185,0.5406986475
3186,-0.06380283087
3187,0.147324875
3188,-0.1527571678
3189,-0.3197670281
3190,-0.3480790257
3191,-0.2775980532
3192,-0.4382721484
3193,-0.4625602961
3194,-0.162047416
3195,-0.07789138705
3196,0.1100059822
3197,0.2230774313
3198,0.005412023049
3199,-0.4435087144
3200,-0.02024479769
3201,-0.3958562016
3202,-0.8480843902
3203,-1.060117126
3204,0.1243660301
3205,-0.1132383719
3206,0.9881733656
3207,-0.05384900793
3208,0.02898018993
3209,-0.4685508907
3210,-0.144671753
3211,0.5143828392
3212,0.4055819213
3213,0.863675952
3214,0.3347149789
3215,0.8581449389
3216,-1.039984822
3217,-0.1529712379
3218,0.09205375612
3219,-1.484160662
3220,0.079604581
3221,0.06598678231
3222,-1.097735524
3223,-0.2405353785
3224,1.078052998
3225,-0.4348942637
3226,0.2875213623
3227,-1.252509952
3228,0.275444597
3229,-0.2828530371
3230,0.1575603038
3231,-0.1252705604
3232,-0.05622236803
3233,-1.258327007
3234,0.1109261587
3235,0.08371085674
3236,0.3509650826
3237,-0.3270348012
3238,0.741263926
3239,-0.2899051309
3240,-0.2839248478
3241,0.8420683146
3242,0.4090179503
3243,0.2197375447
3244,0.1800737232
3245,-0.05850169063
3246,0.8105526567
3247,0.2417699248
3248,-0.2036633641
3249,1.072289944
3250,0.2656035423
3251,0.1962173879
3252,-0.1667096615
3253,-0.1944410801
3254,-0.8541502953
3255,0.1211439446
3256,-1.344725728
3257,0.2123137861
3258,-0.1356783509
3259,0.8253680468
3260,-0.03534986824
3261,-0.2667503953
3262,-0.3988843262
3263,-0.1651820242
3264,0.4121628404
3265,-0.6695377231
3266,0.4141235948
3267,-1.159891486
3268,0.557325542
3269,-0.2753302753
3270,0.4609469473
3271,-0.3025007248
3272,-0.6734421253
3273,0.01294735633
3274,0.1814545542
3275,0.3520341814
3276,0.09471868724
3277,0.8316190243
3278,0.539075315
3279,-0.4691814482
3280,-0.4578934312
3281,0.5244281292
3282,-0.642203331
3283,-0.356238395
3284,0.7540192008
3285,0.04796048626
3286,-0.597614944
3287,-0.08241442591
3288,-0.2966606319
3289,-0.284447819
3290,-0.1838521957
3291,-0.70766294
3292,0.01885499433
3293,-0.8136020303
3294,-0.01262059249
3295,-0.2532068193
3296,0.3842177689
3297,-0.9655134678
3298,-1.271174312
3299,-0.9043860435
3300,-1.091175914
3301,0.1422933191
3302,0.2136914283
3303,0.1669907272
3304,0.1437348127
3305,-0.7953609228
3306,-0.421811372
3307,0.2698240578
3308,-0.4316008091
3309,-0.1648619026
3310,0.5320731997
3311,0.09739737213
3312,0.2908347845
3313,-0.6097146273
3314,0.8318421841
3315,0.06742561609
3316,0.3147940934
3317,-0.1139342338
3318,-0.9808543921
3319,0.09052375704
3320,0.1847746074
3321,-0.1282077283
3322,0.2379207909
3323,0.182379514
3324,-0.3505438566
3325,-1.033694267
3326,-0.8417315483
3327,-0.0440865308
3328,-0.3437111378
3329,0.420589745
3330,0.5287408233
3331,-0.2412866801
3332,0.07317146659
3333,0.05953209475
3334,0.606051743
3335,0.2142189443
3336,-0.6853168011
3337,-0.1913078576
3338,-0.5088710785
3339,-0.1218617409
3340,-0.2870680392
3341,0.2051976472
3342,0.4465026855
3343,-0.1643461436
3344,-0.8613986373
3345,-0.4385004938
3346,0.04927905649
3347,-0.2559834123
3348,0.3147944808
3349,0.1558955014
3350,0.3484220803
3351,-0.8266227245
3352,-0.3772690296
3353,-0.04455791786
3354,-0.2200389504
3355,0.4190746248
3356,0.04142007604
3357,-0.6137274504
3358,-0.4107315242
3359,-0.2226567417
3360,-0.5028178096
3361,-0.6873583794
3362,-0.8744238615
3363,-0.07848808169
3364,-0.05003432557
3365,-0.0004269974597
3366,0.7727079988
3367,-0.04182309657
3368,-0.3968363106
3369,-0.8467637897
3370,0.3002681732
3371,-0.3521008193
3372,-0.01602230221
3373,-0.1384408027
3374,0.4443290532
3375,-0.03928916901
3376,0.6362802982
3377,-0.4287218153
3378,0.6748266816
3379,0.1524141133
3380,-0.1592955589
3381,-0.1026419997
3382,0.4060582519
3383,-0.9425426126
3384,0.09443849325
3385,-0.3468984663
3386,-0.7606892586
3387,-0.6768788695
3388,-0.318413198
3389,-0.1732486039
3390,0.2275982946
3391,0.1275002062
3392,-0.1221373305
3393,-0.1518814266
3394,0.2583576143
3395,0.07959530503
3396,-0.1948432773
3397,0.04654822499
3398,-0.02707049623
3399,0.1580328047
3400,0.2386621386
3401,-0.1104924083
3402,0.6719613075
3403,0.04481904209
3404,0.5048656464
3405,0.1969580948
3406,0.02800693922
3407,-1.31957233
3408,0.3347834945
3409,0.4481264651
3410,-0.1340637207
3411,0.2858655751
3412,0.5418301821
3413,-0.1381088644
3414,0.5265260935
3415,-0.2994321585
3416,-0.3861875236
3417,-0.1687948108
3418,-0.1036718413
3419,0.6403074861
3420,0.3490310907
3421,-0.5566768646
3422,-0.01874559559
3423,-0.1899083257
3424,-0.2619867027
3425,0.1812936366
3426,0.1397093683
3427,-0.001456097933
3428,-1.240382433
3429,-0.114469856
3430,0.3144890666
3431,0.03954540566
3432,0.2747394443
3433,-0.05873287469
3434,0.0751728639
3435,-0.4802445769
3436,-0.4760610163
3437,0.1967519522
3438,-0.7247467041
3439,0.07118111104
3440,0.3354201615
3441,0.1025699899
3442,-0.4507828951
3443,0.7333629727
3444,0.214114204
3445,0.3010979593
3446,0.6749216914
3447,-0.9444846511
3448,0.4449454844
3449,0.1020809039
3450,-0.962808013
3451,0.007053663023
3452,-0.9061973095
3453,0.01162510365
3454,-0.341504246
3455,-0.1133555844
3456,-0.1193165779
3457,-0.1751289368
3458,0.412191987
3459,0.1894703805
3460,-0.4234294891
3461,0.03347628191
3462,0.1310138702
3463,-0.08993826061
3464,-0.1884664148
3465,0.2621088326
3466,0.3424108922
3467,-0.3405680358
3468,0.1538674384
3469,-0.06846021861
3470,0.1014393121
3471,-0.1489597708
3472,0.7371767759
3473,-0.006710241549
3474,-0.03529139236
3475,-0.03910502419
3476,-0.04054961354
3477,0.01016674936
3478,0.04774172232
3479,-0.3521586657
3480,-0.01834315807
3481,-0.08254874498
3482,-0.3056207597
3483,0.3582013547
3484,-0.1786709875
3485,-0.1814054847
3486,0.04278082773
3487,0.09694605321
3488,0.5646678805
3489,-0.02741932869
3490,-0.05072937533
3491,0.1743001193
3492,0.1811670512
3493,0.02790738642
3494,-0.1651336849
3495,0.06850225478
3496,0.1685979664
3497,-1.139262915
3498,0.3532373607
3499,-0.01846061461
3500,-0.1732703596
3501,-0.3021513522
3502,-0.2876853049
3503,0.5019301176
3504,0.2598006725
3505,-0.7960035801
3506,0.1872491091
3507,-0.04975682497
3508,-0.1407662779
3509,-0.2726888359
3510,0.3069586754
3511,-0.2633942366
3512,0.1163217127
3513,0.2367069423
3514,-0.3119051158
3515,-0.2325940132
3516,-0.5335015059
3517,0.2224135697
3518,0.3242315948
3519,0.1828068942
3520,-0.590680182
3521,0.3516684771
3522,0.2749762535
3523,0.2432730496
3524,0.2557509243
3525,0.02485650405
3526,-0.4894807637
3527,-0.2622081041
3528,0.0570598729
3529,-0.0358825773
3530,-0.4327479303
3531,0.04939493164
3532,0.3884266019
3533,-0.1988329589
3534,-0.00238091452
3535,0.1427137107
3536,0.4831703007
3537,-0.1329863369
3538,-0.7004637122
3539,-0.0480129458
3540,-0.4260863066
3541,0.2071385235
3542,0.3454627991
3543,-0.4627016187
3544,-0.03794217482
3545,0.4302083552
3546,-0.3078812063
3547,0.4188719392
3548,0.2169033289
3549,-0.4270315468
3550,-0.7516636848
3551,-0.107358627
3552,-1.000404954
3553,0.06064914539
3554,-0.7592107058
3555,-0.23421143
3556,0.08928649127
3557,-0.1377458125
3558,0.32661888
3559,-0.3786388636
3560,-1.119155169
3561,-1.083497524
3562,-0.1192434952
3563,-0.05793311819
3564,0.1174690276
3565,-0.3261732757
3566,-0.1401226223
3567,0.1303393096
3568,-0.5619911551
3569,-0.2631245255
3570,0.1431885511
3571,0.3419008255
3572,-0.3008681536
3573,0.1379380822
3574,0.1513527334
3575,0.1754986644
3576,0.3148211241
3577,-0.2975584269
3578,-0.189087078
3579,-0.1041167229
3580,0.03887873888
3581,0.2168130428
3582,0.03920991719
3583,0.137540251
3584,0.02429878525
3585,0.1761712432
3586,-0.3496550024
3587,0.3148996234
3588,-0.06599345803
3589,-0.1312366575
3590,-0.1387441158
3591,0.001124609029
3592,0.2649438083
3593,0.133768186
3594,0.2509800196
3595,0.3197859824
3596,-0.3868236244
3597,-0.2582890391
3598,-0.1648022532
3599,-0.5203110576
3600,-0.1171398386
3601,0.2923023999
3602,-0.7978963256
3603,-0.6937512755
3604,0.07848110795
3605,-0.2030011863
3606,-0.2095760107
3607,-0.6687517762
3608,-0.3956682682
3609,0.1347911209
3610,-0.1895197183
3611,0.4570442736
3612,-0.3632748425
3613,-0.861325562
3614,0.06240615621
3615,0.01672147214
3616,0.8795952201
3617,-0.1413736939
3618,0.295894593
3619,-0.1916105747
3620,-0.1061651707
3621,-0.1444618404
3622,-0.6637784243
3623,0.227498129
3624,0.1744851321
3625,0.3460945487
3626,0.6824406981
3627,0.06930006295
3628,0.4575276971
3629,-0.06704805046
3630,-0.01707417332
3631,-0.1965423077
3632,0.08051862568
3633,0.2045556605
3634,-0.06138203293
3635,0.2635884285
3636,0.02820800804
3637,0.08408451825
3638,0.1855371892
3639,-0.3919347823
3640,0.479683131
3641,-0.2977346182
3642,0.05856219307
3643,0.2450507134
3644,-0.1517287791
3645,-0.1121344417
3646,-1.349592805
3647,-0.4647412896
3648,0.1634538919
3649,-0.04143648967
3650,0.3783233166
3651,0.01417432912
3652,0.4312771261
3653,0.09800957888
3654,-0.5281959176
3655,0.1840798259
3656,0.3906418979
3657,0.3184540272
3658,-0.5130865574
3659,-0.3071689308
3660,0.2057867646
3661,0.09914527833
3662,-0.5796754956
3663,0.005831466056
3664,-1.012057066
3665,0.02402887493
3666,0.06892315298
3667,0.02167165093
3668,-0.7619747519
3669,-0.08078856021
3670,-1.744072556
3671,0.1758924723
3672,-0.08095224947
3673,0.5060282946
3674,-0.1158014908
3675,0.2929292619
3676,-0.8614117503
3677,0.03528815508
3678,0.2245289236
3679,0.2625917792
3680,0.6819373965
3681,0.1058128476
3682,0.1130075008
3683,0.005859807599
3684,0.02775503136
3685,-0.003485365538
3686,-0.396384865
3687,1.04441011
3688,-0.3046031892
3689,-0.5907633901
3690,0.1027462184
3691,0.1790100187
3692,-0.185247466
3693,0.2770571709
3694,-0.4159219265
3695,0.006308920681
3696,0.2273279577
3697,-0.1091687307
3698,-0.2830052078
3699,-1.15523386
3700,-0.216297403
3701,0.1126912907
3702,-0.9067495465
3703,-0.5912636518
3704,1.009978533
3705,0.08050628752
3706,-0.01184505783
3707,-0.4564355612
3708,0.265258491
3709,-0.8308883309
3710,0.1295741647
3711,0.03616607189
3712,0.06731370091
3713,0.4526422024
3714,0.02789977938
3715,0.2199777216
3716,-0.243802458
3717,-0.1352891922
3718,-0.2642677724
3719,-0.006230771542
3720,0.07548254728
3721,0.2209966928
3722,-1.331262708
3723,-0.04398836941
3724,-0.2805984914
3725,-0.9348838925
3726,0.04213256389
3727,0.4330751002
3728,-0.007922369987
3729,-0.076397039
3730,-0.09918281436
3731,0.01721951179
3732,-0.1573491096
3733,-0.3042224944
3734,0.114360936
3735,-0.0774846077
3736,0.4149768353
3737,-0.2013749927
3738,-0.2826393843
3739,0.09070245177
3740,-0.06649847329
3741,0.4285038114
3742,0.2035905272
3743,0.2790481746
3744,-0.05292507261
3745,0.3230729401
3746,0.1640176773
3747,-0.255141139
3748,-0.05161673203
3749,0.2169648111
3750,-0.0118991565
3751,-0.2729429603
3752,-0.5982681513
3753,0.1403380483
3754,0.1458294094
3755,-0.1495256871
3756,0.2808226049
3757,-0.03925070539
3758,-0.2479192615
3759,0.3618340492
3760,0.2101210207
3761,-0.4222209156
3762,0.2399048954
3763,-0.2104056627
3764,0.08738189936
3765,0.09714088589
3766,-0.1990854293
3767,0.06975784898
3768,-0.2942090631
3769,0.2527651489
3770,-0.04125882685
3771,0.1575076282
3772,0.4150448143
3773,-0.06846125424
3774,0.3609967232
3775,0.2407255024
3776,-0.4719800055
3777,-0.2055401057
3778,-0.01927482709
3779,0.2355321944
3780,-0.2914739549
3781,0.07610784471
3782,-0.3759554923
3783,-0.3276578486
3784,0.1807990223
3785,-0.09225773066
3786,-0.07284836471
3787,0.06210574508
3788,-0.08741563559
3789,-0.3858971
3790,-0.03955454379
3791,-0.5040781498
3792,-0.1145413592
3793,0.08989918232
3794,-0.1821335554
3795,-0.5523655415
3796,-0.3221278787
3797,-0.1427904516
3798,-0.1947204769
3799,-0.1234524846
3800,-0.2297381163
3801,0.2554899454
3802,0.1252936572
3803,0.120308347
3804,-0.08405498415
3805,-0.2635226548
3806,-0.1558630317
3807,0.1139036492
3808,-0.2197224349
3809,0.3511700034
3810,-0.06054395065
3811,0.1752318591
3812,-0.3175078332
3813,-0.292631954
3814,-0.2512669265
3815,-0.2493525743
3816,-0.1642513573
3817,0.1045244113
3818,0.0865020901
3819,-0.2533232272
3820,-0.586149931
3821,-0.008168575354
3822,0.1432044655
3823,0.04825174063
3824,-0.1649054736
3825,0.08136388659
3826,0.04763842002
3827,-0.4143046737
3828,0.1238393188
3829,-0.3725222647
3830,-0.04016027227
3831,0.2278269231
3832,-0.02772792801
3833,0.2061414868
3834,-0.1141228974
3835,-0.07771015912
3836,-0.5410055518
3837,0.04576864094
3838,-0.3518962264
3839,-0.06980293244
3840,-0.2329873592
3841,-0.7463225722
3842,0.1271344423
3843,-0.09604518861
3844,0.2769680619
3845,0.1369957179
3846,0.1516668946
3847,-0.2634911537
3848,0.06141810119
3849,-0.7321876884
3850,0.1180503219
3851,0.2265655845
3852,0.1314211637
3853,0.3217518032
3854,0.1612484902
3855,-0.8399790525
3856,0.2319751382
3857,-1.181724072
3858,0.2300864607
3859,-0.6447658539
3860,0.4363291562
3861,-0.2798111737
3862,0.08813209087
3863,-0.5680930614
3864,-0.3878830969
3865,0.2133197784
3866,0.2191086709
3867,0.0164670255
3868,0.4306358993
3869,0.3625817001
3870,0.1752749234
3871,-0.08091136068
3872,-0.04326979071
3873,0.4677703381
3874,0.305211097
3875,-0.216740787
3876,-0.7628535628
3877,-0.1805691719
3878,-0.01828231476
3879,0.1142012775
3880,0.1504046768
3881,-1.296350121
3882,-0.09975145012
3883,-0.4594926238
3884,0.04603231326
3885,-0.02716194093
3886,0.1526870281
3887,-0.1578647047
3888,-0.3400975466
3889,-1.579352617
3890,-0.8443662524
3891,0.2753673494
3892,-0.09101798385
3893,-0.2824895978
3894,-0.05417997763
3895,0.1642572731
3896,0.255707562
3897,-0.3294660747
3898,-1.10070765
3899,-0.2353910208
3900,0.2788351774
3901,0.07528372109
3902,-0.1193878949
3903,-0.8167247772
3904,-0.04953701794
3905,0.06342931092
3906,-0.1355217695
3907,-0.2174476683
3908,-0.1594237089
3909,0.1400258094
3910,-0.1213275939
3911,0.1012669653
3912,0.06722404808
3913,0.08472817391
3914,-0.2254828662
3915,-0.01537963562
3916,0.09653902054
3917,-0.1613860577
3918,-0.148185268
3919,-0.3030487597
3920,0.1799464822
3921,0.2230495661
3922,0.1537123471
3923,0.05667173862
3924,0.2177705169
3925,0.02265653946
3926,-0.0803764388
3927,0.1837972254
3928,0.01042799931
3929,0.2909160852
3930,0.02499525622
3931,0.045152843
3932,0.1051732227
3933,-0.1295194328
3934,-0.07939953357
3935,0.2435033172
3936,-0.2299981266
3937,-0.2835824192
3938,0.1117905006
3939,0.04225454107
3940,0.2586648762
3941,-0.1804789901
3942,0.01051025093
3943,-0.08201784641
3944,0.19981727
3945,0.1733326763
3946,0.03130786493
3947,-0.2375380099
3948,-0.1227461025
3949,0.04689668119
3950,0.300755769
3951,0.1168373078
3952,-0.03482526541
3953,0.1946658641
3954,-0.1798985749
3955,0.2369054705
3956,-0.1019962057
3957,-0.1422608346
3958,-0.0367458351
3959,0.2220565528
3960,0.2647713423
3961,-0.2521617115
3962,-0.05020526424
3963,-0.01003072225
3964,0.2296029478
3965,0.1805915385
3966,-0.01104895119
3967,-0.2695831358
3968,-0.1395546794
3969,0.0267911423
3970,0.01921818033
3971,0.256840378
3972,-0.1483608335
3973,-0.251327306
3974,0.2246170491
3975,-0.2633153796
3976,0.05572608858
3977,0.2727500498
3978,-0.2281208634
3979,0.05537729338
3980,-0.08595287055
3981,0.2347656935
3982,0.2181261033
3983,0.2757495642
3984,-0.2716375291
3985,-0.258928895
3986,0.2426028848
3987,0.02799240127
3988,-0.1205897927
3989,-0.1798778027
3990,-0.3000257313
3991,0.3006666005
3992,0.03734796122
3993,-0.2177222818
3994,0.06647161394
3995,0.3034446239
3996,-0.2734816968
3997,0.2463021129
3998,-0.01603216678
3999,-0.1861681789
4000,0.09654992819
4001,-0.2366887778
4002,0.187080428
4003,0.02585450932
4004,0.101146847
4005,-0.1834512502
4006,0.30308339
4007,-0.1742882282
4008,0.04838892072
4009,0.1125843078
4010,-0.2272088975
4011,-0.1163477153
4012,0.1769262403
4013,-0.08537470549
4014,0.2054802775
4015,-0.29668957
4016,0.1746279597
4017,0.2084668279
4018,-0.1202339903
4019,0.1309690028
4020,-0.1654519439
4021,0.05341076851
4022,-0.2992870212
4023,-0.143433094
4024,0.01534240227
4025,-0.2962418199
4026,0.1870669872
4027,0.008678626269
4028,-0.2775824964
4029,-0.04527727515
4030,0.2884601653
4031,-0.150473386
4032,-0.04604389518
4033,0.04543485865
4034,-0.1315046847
4035,-0.03184009716
4036,0.2742860019
4037,0.1618013233
4038,0.05796756223
4039,-0.2833548188
4040,-0.2142914981
4041,-0.1237972081
4042,-0.725469768
4043,-0.419654429
4044,-0.5871525407
4045,-0.8313935995
4046,-0.4276799858
4047,0.3551814258
4048,-1.286874294
4049,0.100801751
4050,-0.0172664281
4051,-0.002229837701
4052,0.8978573084
4053,-0.02819846384
4054,-0.8881040215
4055,0.1107497811
4056,0.2853065133
4057,-0.01543439645
4058,-0.07760267705
4059,-0.005320664495
4060,-0.383462131
4061,-0.5674874783
4062,-0.7879149318
4063,-0.05010833591
4064,-0.1852368414
4065,-0.5267228484
4066,-0.3466638029
4067,-0.04685970768
4068,0.2429114282
4069,-0.2260261327
4070,-0.3466393054
4071,0.2324600369
4072,-0.3784323931
4073,0.759354353
4074,0.2451221049
4075,-0.1955083758
4076,0.06605150551
4077,0.02972541749
4078,-0.3147991002
4079,-0.3959948123
4080,0.2694368958
4081,-0.1342359483
4082,0.2995170355
4083,-0.7257256508
4084,-0.02001576312
4085,-0.116433695
4086,-0.6493956447
4087,0.0634926483
4088,0.04348829389
4089,0.04913934693
4090,-0.3594491482
4091,-0.1000890806
4092,0.2072787434
4093,-0.5556024909
4094,-0.8639675379
4095,-0.1853140891
4096,-0.3179174364
4097,-0.2380750477
4098,-0.1152198613
4099,0.2264961153
4100,-0.4568116665
4101,-0.2059705257
4102,-0.2699900568
4103,-0.2678177357
4104,-0.4080875814
4105,0.1147030666
4106,-0.1042957678
4107,0.2665483952
4108,0.02003631182
4109,-0.4861011803
4110,-0.03416212648
4111,0.03009880707
4112,-0.3070511818
4113,0.1179557368
4114,-0.307549417
4115,-0.1037852019
4116,0.08708240092
4117,-0.1447836906
4118,0.08514568955
4119,0.1320394278
4120,-0.197891131
4121,-0.2470718622
4122,0.0360718593
4123,-0.1810228229
4124,0.2521410882
4125,-0.4226994812
4126,-0.2418593019
4127,-0.05651879683
4128,0.3209304214
4129,0.1446020752
4130,-0.3438770473
4131,-0.09443900734
4132,-0.4342581034
4133,0.01158748195
4134,-0.04552244395
4135,0.08161444217
4136,0.06504889578
4137,-0.2391941547
4138,0.158531487
4139,0.1019420847
4140,0.01146586984
4141,0.1983546317
4142,0.07104244828
4143,-0.1660441607
4144,-0.160757795
4145,-0.7042584419
4146,-0.1838413775
4147,-0.005389743019
4148,0.1668567955
4149,-0.08115637302
4150,0.1426459253
4151,0.3142646849
4152,0.4006281197
4153,0.0371966958
4154,0.157499373
4155,0.001206459012
4156,-0.1704634577
4157,-0.4105856121
4158,-0.6544342637
4159,0.3277312517
4160,-0.1042211577
4161,-0.5665031075
4162,0.2004738301
4163,-0.3317465484
4164,-0.6297898293
4165,0.1807045788
4166,0.1729819626
4167,-0.06096245721
4168,0.2767125368
4169,-0.2745203078
4170,0.3121682405
4171,-0.2926210463
4172,-0.02397628501
4173,-0.2045258135
4174,-0.6059805155
4175,-0.2730000615
4176,0.2543878257
4177,-0.4679852426
4178,0.4280560911
4179,-0.02549885213
4180,-0.5217160583
4181,-0.1398545355
4182,0.1494283825
4183,-0.1797477603
4184,-0.2762855291
4185,-0.04131813347
4186,-0.2050274312
4187,0.1066226065
4188,0.1672090143
4189,0.03734668344
4190,0.003964139614
4191,0.02549049817
4192,0.5631785393
4193,0.1698090583
4194,0.1032836288
4195,0.6867768168
4196,0.1072231904
4197,-0.06145929918
4198,0.6410573125
4199,-0.3245287836
4200,0.1408483237
4201,-2.403173208
4202,-0.5667333603
4203,0.2574132085
4204,-0.1833124608
4205,-0.01879259199
4206,0.1679271758
4207,-0.4206732213
4208,0.32755211
4209,-1.19385767
4210,-0.5107355714
4211,-0.2375676185
4212,-0.1004431471
4213,-0.06152392179
4214,0.4560121
4215,-0.3395005465
4216,0.07266422361
4217,-0.535528779
4218,-0.03427892178
4219,-0.7872896194
4220,0.4796977043
4221,0.404507935
4222,0.4103415608
4223,-1.290877938
4224,0.08169491589
4225,-0.07088979334
4226,0.2583584487
4227,0.138185516
4228,-0.3423414826
4229,0.07397812605
4230,0.08953107148
4231,-0.3186740279
4232,0.08713012189
4233,0.06899257749
4234,-0.08398027718
4235,-0.05372888967
4236,0.2089965492
4237,-0.250557363
4238,0.004446955398
4239,-0.2478405535
4240,-0.04334335402
4241,0.2228215635
4242,-0.005703596864
4243,0.07733996212
4244,0.07575540245
4245,-0.1824868321
4246,-0.2871821225
4247,0.3216405809
4248,-0.1740985662
4249,0.01311966777
4250,-0.06574347615
4251,-0.1243481487
4252,-0.4077125788
4253,0.2718301415
4254,0.2671713233
4255,0.02965137176
4256,0.03806518018
4257,0.006256938912
4258,0.01434086915
4259,0.1909208596
4260,-0.1494464874
4261,-0.4655512571
4262,0.06568753719
4263,-0.2859791219
4264,0.2196258903
4265,0.3588874638
4266,-0.05990061164
4267,0.2136182338
4268,-0.1736297458
4269,-0.1503349096
4270,-0.1643363535
4271,-0.3061541319
4272,-0.1782895774
4273,-0.02697104402
4274,-0.1449048072
4275,-0.2073031366
4276,-0.284349978
4277,-0.01967691444
4278,-0.4982464612
4279,0.1546652466
4280,-0.08495275676
4281,-0.005817542318
4282,0.1649135053
4283,-0.1195602119
4284,0.3846329749
4285,0.1624604911
4286,0.2705569565
4287,-0.4980815351
4288,0.1634772271
4289,0.3430359066
4290,0.08638618141
4291,0.1144993231
4292,-0.1392549723
4293,-0.2093911022
4294,0.3719630837
4295,0.1661700308
4296,-0.3183429241
4297,0.4402854443
4298,-0.2807439566
4299,0.1634471267
4300,-0.4260186851
4301,-0.01721511595
4302,0.1180425212
4303,-0.30193308
4304,0.1075472534
4305,-0.1801144034
4306,-0.1024754792
4307,-0.09358447045
4308,-0.406845659
4309,0.2102717757
4310,0.1294244826
4311,0.3814236522
4312,-0.1602085382
4313,-0.06560983509
4314,-0.002006497933
4315,-0.3982540369
4316,0.3253425956
4317,0.2189558744
4318,0.1010117084
4319,0.2182615697
4320,-0.770768106
4321,0.1173599809
4322,-0.1616958678
4323,-0.4688442647
4324,0.03272403032
4325,0.09559506178
4326,0.2867910564
4327,0.1809199154
4328,0.2726650536
4329,0.3653756976
4330,-0.2902597785
4331,0.052644182
4332,0.2885769606
4333,0.2689297497
4334,0.300765574
4335,0.01257309318
4336,0.1659025401
4337,-0.1503916532
4338,-1.046191573
4339,0.0004367892398
4340,-0.2553153932
4341,0.1125710607
4342,-0.07805398107
4343,-0.2420111448
4344,-0.1196871772
4345,-0.257294327
4346,0.1791874766
4347,-0.01756400429
4348,0.4469856918
4349,0.04353209212
4350,-0.1106725335
4351,-0.2645035684
4352,-0.2931767404
4353,0.2163933963
4354,0.0928684324
4355,0.07432475686
4356,-0.1263770908
4357,-0.1874266416
4358,0.4550176263
4359,0.1052336842
4360,-0.04913343117
4361,0.3673327565
4362,0.1844599247
4363,0.01583291031
4364,0.3385543227
4365,0.2846007943
4366,0.3327408731
4367,-0.39811638
4368,-0.2376563251
4369,0.6160707474
4370,0.2100609988
4371,-0.1499470174
4372,-0.1610755175
4373,0.2419454306
4374,0.5339258909
4375,0.06972716004
4376,-0.1508080214
4377,0.3156417012
4378,0.1841235459
4379,0.5953745842
4380,0.1644091755
4381,0.06347867846
4382,0.2014632523
4383,0.1884777695
4384,0.06943421811
4385,0.2993200421
4386,-0.4146861136
4387,-0.3284478486
4388,-0.2942277789
4389,0.08713652194
4390,0.2666329145
4391,-0.1149067283
4392,-0.1553884298
4393,-0.7015249133
4394,0.0613963306
4395,0.4894739687
4396,0.3598522544
4397,0.1786207557
4398,-0.06561636925
4399,-0.04415878281
4400,0.1196288913
4401,-0.5838775635
4402,-0.8913750052
4403,-0.2025217861
4404,-0.2083542943
4405,-0.1344134212
4406,-0.1656529903
4407,-0.4907658994
4408,0.1337715983
4409,-0.3523060381
4410,0.2666104734
4411,0.1825235486
4412,0.09881500155
4413,-0.1193001196
4414,0.1131933928
4415,0.02387906238
4416,-0.2482844442
4417,-0.8785091639
4418,0.2362480611
4419,-0.2143109143
4420,-0.09780678153
4421,-0.01890924759
4422,-0.3339133561
4423,-0.2036982924
4424,-0.08725071698
4425,0.104095906
4426,0.03401132673
4427,0.2445555031
4428,-0.1917607486
4429,-0.2297307998
4430,-0.1623264253
4431,-0.9185873866
4432,-0.4106605947
4433,0.1635141224
4434,0.02036099881
4435,-0.08275446296
4436,-0.3834195435
4437,-0.1397881061
4438,0.01395928394
4439,0.1408211589
4440,-1.12549293
4441,0.006231390871
4442,-0.3146890104
4443,-0.1021960527
4444,-0.1069816425
4445,-0.200625807
4446,0.008487386629
4447,0.3070769906
4448,-0.3871987462
4449,0.1690294892
4450,-0.1540554762
4451,-0.2070235461
4452,-0.3279011846
4453,-0.2131206989
4454,0.1332278401
4455,0.3416446149
4456,-0.2628959417
4457,-0.04638425633
4458,-0.05419770628
4459,0.2124156356
4460,-0.2166546285
4461,-0.1953852773
4462,0.0546829626
4463,-0.4053573906
4464,0.153233692
4465,0.437220186
4466,-0.05102805793
4467,0.06586166471
4468,-0.01429751795
4469,-0.2364809215
4470,0.06598692387
4471,-0.1209741905
4472,0.2984106243
4473,-0.1047243774
4474,0.3110879362
4475,-0.05605149642
4476,-0.1001252159
4477,0.1632134467
4478,-0.5289455652
4479,-0.3083865941
4480,-0.1907043457
4481,-0.1930918843
4482,-0.3482794762
4483,-0.3951646388
4484,-0.4813964963
4485,-0.2926256657
4486,-0.340642184
4487,0.1470353603
4488,-0.2496505678
4489,0.3360356688
4490,-1.083200216
4491,0.05040247366
4492,0.1630423516
4493,-0.2556528747
4494,-0.06720051169
4495,0.2663826346
4496,-0.5602411628
4497,0.3500623703
4498,0.3149073124
4499,-1.005028486
4500,0.1393819153
4501,0.1091226116
4502,0.1162114814
4503,0.2322530001
4504,-0.1551006734
4505,-0.2695217431
4506,-0.1669873446
4507,0.372728467
4508,0.1112555042
4509,-0.08410354704
4510,0.2856540978
4511,0.3110476434
4512,-0.2768028378
4513,-0.3952546716
4514,0.1604168713
4515,-0.05141873285
4516,0.06168726087
4517,0.1433069408
4518,0.0965750888
4519,0.1495051384
4520,-0.328188926
4521,-0.2795477211
4522,-0.3947716057
4523,-0.02440917678
4524,0.1388844848
4525,-0.2669991255
4526,0.009312342852
4527,-0.1736771911
4528,-0.1913963407
4529,-0.4438173473
4530,0.4210325181
4531,0.04820944741
4532,-0.05240540579
4533,0.05195119604
4534,-0.05274099484
4535,0.1514095515
4536,-0.3464124799
4537,-0.5633783937
4538,0.2644731104
4539,0.2426534146
4540,-0.1096177697
4541,0.04138303548
4542,0.1578610837
4543,0.1070027426
4544,-0.3220823109
4545,-0.2815006375
4546,-0.2697834969
4547,-0.1438714117
4548,0.1392695159
4549,-0.06285668164
4550,0.1451866776
4551,-0.2361000925
4552,0.283115685
4553,-0.2214009017
4554,-0.05886995792
4555,0.3613112271
4556,-0.2606403232
4557,0.2038043141
4558,-0.08169425279
4559,0.2567031085
4560,-0.07741773129
4561,0.06846675277
4562,-0.1662622094
4563,0.2658318877
4564,-0.2606656253
4565,-0.3000524044
4566,-0.3348415196
4567,0.188402608
4568,-0.006841851864
4569,-0.2546857297
4570,0.2501752675
4571,-0.299553901
4572,0.4186247289
4573,0.2575322092
4574,0.143618986
4575,-0.2728047967
4576,-0.4701175094
4577,0.1023543254
4578,0.1678742319
4579,-0.4437254667
4580,0.2167260647
4581,0.02756013907
4582,0.4397336841
4583,-0.3608887494
4584,0.1095405072
4585,0.2840804458
4586,-0.4791890979
4587,-0.2449274063
4588,-0.154035911
4589,0.0004883523798
4590,0.1083418131
4591,0.1470578164
4592,-0.336671859
4593,0.164616555
4594,-0.0504806228
4595,0.02560671419
4596,-0.1831295192
4597,-0.1021507308
4598,-0.1254098862
4599,-0.3044649959
4600,-0.3712978363
4601,-0.09738057852
4602,0.07141564041
4603,0.112353906
4604,0.2961907983
4605,-0.4537404776
4606,-0.2680855095
4607,-0.7942675948
4608,-0.003714429913
4609,-0.005327244755
4610,0.1175786182
4611,-0.197541073
4612,0.2065973878
4613,-0.07412946224
4614,-0.3696775436
4615,-0.1764866859
4616,0.3788460195
4617,-0.1158624515
4618,0.09615632147
4619,-0.4505536854
4620,0.821439743
4621,-0.6183201671
4622,0.26742208
4623,-0.7227494121
4624,-0.12788333
4625,0.4873242974
4626,-0.07833518833
4627,-0.3733898401
4628,0.02640415356
4629,0.1640099287
4630,1.117529154
4631,-0.7213447094
4632,-0.1149787903
4633,-0.06406342983
4634,-0.2614066601
4635,0.8825240135
4636,-0.7346957326
4637,-0.2260736823
4638,-0.2524676919
4639,-0.4012034535
4640,-0.8448653817
4641,0.08865872025
4642,-0.4433794022
4643,0.3620645702
4644,0.7588858604
4645,-0.3047213554
4646,0.9815220237
4647,0.1658039391
4648,-0.2150443196
4649,0.679674089
4650,-0.391607672
4651,-0.2601625919
4652,-0.5965227485
4653,-0.2133740187
4654,-0.8835293651
4655,-0.08991897851
4656,-0.1139687523
4657,-0.01359918714
4658,-0.1782212257
4659,-0.2073464245
4660,0.1274421364
4661,0.03856305778
4662,-0.408513397
4663,-0.2550980449
4664,0.47618258
4665,0.5753894448
4666,-1.185903788
4667,-0.2211334556
4668,0.208953023
4669,-0.07049062848
4670,-0.03963266686
4671,0.217167601
4672,0.1085724309
4673,0.1814887971
4674,-0.109318234
4675,0.3043066561
4676,-0.45626688
4677,-0.2447936088
4678,-0.6131405234
4679,-0.08795333654
4680,-0.1855691075
4681,0.02900835872
4682,-0.1283418834
4683,-0.1166443676
4684,0.07922200859
4685,-0.3367007971
4686,-0.3964113891
4687,0.07858944684
4688,1.037263632
4689,-0.2822734416
4690,0.6032714844
4691,0.5105457902
4692,-0.8042693734
4693,-0.004288504831
4694,0.6216361523
4695,-0.5946965814
4696,-0.03192258999
4697,0.1418422908
4698,0.1778657734
4699,-0.100187093
4700,-0.337313056
4701,-0.468601048
4702,0.05549067259
4703,-0.3002142012
4704,0.6408787966
4705,0.5797797441
4706,-0.2778473794
4707,-0.2122689337
4708,0.08693968505
4709,-0.2481297404
4710,-0.7918171883
4711,-0.5646573305
4712,0.3319571614
4713,0.05628584325
4714,0.3414082527
4715,0.1455747485
4716,0.5046626329
4717,-0.1550027132
4718,-0.1977937073
4719,0.2190860063
4720,-0.06388536841
4721,-0.2452768832
4722,-0.9223182797
4723,0.4472032487
4724,-0.1203363314
4725,0.192592442
4726,0.4955938756
4727,0.01494910847
4728,-0.1806133389
4729,0.3239666522
4730,0.1773918718
4731,0.1911861449
4732,-0.5638682246
4733,0.533465147
4734,0.169127658
4735,-0.02819183655
4736,0.1278645098
4737,0.1431217939
4738,-0.3140792847
4739,0.5313571692
4740,-0.3139086664
4741,-0.1311275661
4742,-0.3250822723
4743,0.2541842461
4744,0.4650347233
4745,0.08939343691
4746,-0.5330497622
4747,-0.3787412941
4748,-0.7581213713
4749,0.009856889024
4750,0.2489706278
4751,-0.6101605892
4752,0.8441879153
4753,-0.04349736124
4754,-0.5662460923
4755,0.3484605849
4756,-0.1749055535
4757,-0.1075853631
4758,0.2728376687
4759,-0.5284352303
4760,-0.09074365348
4761,0.2034132332
4762,0.2428280413
4763,0.5654233098
4764,-0.04089302942
4765,0.2530921102
4766,-0.01138430089
4767,-0.2571222484
4768,-0.7271100283
4769,0.3808981776
4770,0.1761897206
4771,0.1279790848
4772,0.2861414254
4773,-0.3156299591
4774,-0.5095796585
4775,0.17815274
4776,0.4289895892
4777,-0.3271101117
4778,-0.2717916667
4779,-0.3510923684
4780,-0.1595985889
4781,0.04884495214
4782,-0.02958616428
4783,0.2298883647
4784,0.4836518764
4785,-0.6205188036
4786,-0.8873178363
4787,0.4471219182
4788,-0.1032117903
4789,-0.0009830681374
4790,0.4670942426
4791,-0.1648596823
4792,-0.1222942173
4793,-0.1201932207
4794,-0.7354052663
4795,-0.5999575853
4796,-0.7828409672
4797,0.3749240935
4798,0.05504919589
4799,-0.5212848186
4800,0.2055708021
4801,-0.5735152364
4802,0.2479451001
4803,-0.3990874588
4804,0.3038246036
4805,-0.1785874367
4806,-0.04475649074
4807,-0.158297047
4808,-0.3709205985
4809,0.03658480197
4810,0.6286076307
4811,0.2369082421
4812,-0.6123435497
4813,0.5567983985
4814,0.31491974
4815,-0.1254345328
4816,-0.3304525316
4817,0.07104964554
4818,0.09604442865
4819,-0.7406725287
4820,0.05901394039
4821,-0.3100581169
4822,-0.1915421933
4823,-0.1196953505
4824,-0.3985855877
4825,-0.1180880144
4826,-0.2028353661
4827,-0.1990382075
4828,-0.2530786991
4829,-0.8206133246
4830,0.1272902787
4831,-0.2534191012
4832,0.1840454787
4833,-0.2088191509
4834,0.08971846104
4835,0.2993988693
4836,0.2269664854
4837,-0.5600164533
4838,-0.1199399605
4839,0.1125566438
4840,0.08029723167
4841,-0.2185217589
4842,-0.2899027467
4843,0.07412885129
4844,-0.2922750711
4845,0.1031456068
4846,-0.04740346223
4847,-0.06834032387
4848,0.04546752572
4849,-0.3115733266
4850,0.2357645035
4851,-0.10338635
4852,0.09746809304
4853,-0.1246427819
4854,-0.2029693276
4855,-0.118730709
4856,0.01780931279
4857,0.02204521745
4858,-0.1457884014
4859,-0.3169029355
4860,0.4406319857
4861,-0.2853032053
4862,-0.484195292
4863,0.2437562495
4864,0.01119337603
4865,-0.1722735912
4866,-0.114493221
4867,-0.1036651656
4868,-0.02964388207
4869,-0.01279732492
4870,-0.2395769656
4871,-0.1697580963
4872,-0.07760429382
4873,0.1321294308
4874,0.2185320109
4875,0.4015043378
4876,-0.4049010277
4877,-0.05705701932
4878,-0.111268267
4879,0.1333915591
4880,-0.3230969012
4881,0.0170959942
4882,-0.213285774
4883,-0.1194831058
4884,-0.4655665457
4885,-0.08519612998
4886,-0.007286821492
4887,-0.133625716
4888,-0.4350582659
4889,0.03446338326
4890,-0.3183790743
4891,-0.1705257595
4892,0.01241797209
4893,-0.3383747339
4894,0.04385197535
4895,-0.2272259742
4896,-0.5546056628
4897,-0.5049512982
4898,-0.2362203896
4899,0.3668691814
4900,0.02305379882
4901,-0.1782856137
4902,-0.3417657614
4903,0.01696911454
4904,-0.2823551297
4905,0.2643660903
4906,0.01255457383
4907,0.3635074794
4908,-0.3059210777
4909,-0.07946056128
4910,-0.1763370037
4911,-0.2042411715
4912,-0.2607727349
4913,-0.5585405827
4914,-0.4439334869
4915,0.3338418007
4916,0.06313576549
4917,0.08872656524
4918,-0.3557486534
4919,-0.1428251565
4920,0.2910502851
4921,0.2052413523
4922,0.1967014968
4923,-0.1133746281
4924,0.1335546672
4925,-0.2618788183
4926,-0.4881476164
4927,0.4345216155
4928,-0.0145326769
4929,-0.1777097434
4930,-0.2895942628
4931,-0.2609483302
4932,-0.1163311452
4933,-0.2047222257
4934,0.3716737926
4935,-0.2623251379
4936,0.3349330425
4937,0.005302502774
4938,-0.1460961998
4939,-0.003542121733
4940,-0.001930847997
4941,0.4539070427
4942,-0.180574134
4943,0.3913304508
4944,-0.5324003696
4945,-0.116838187
4946,0.05465583876
4947,0.08290718496
4948,-0.4426813722
4949,0.02814606763
4950,0.03026049025
4951,-0.6926371455
4952,-0.1259046495
4953,-0.03161285818
4954,0.1836118847
4955,-0.3943080604
4956,-0.4869160652
4957,0.1354400218
4958,-0.3437895775
4959,0.1604649127
4960,-0.2362750769
4961,-0.2419645488
4962,0.3236325085
4963,-0.004098770674
4964,-0.1087916568
4965,-0.0616257973
4966,0.2641315758
4967,0.1670949012
4968,-0.1374467462
4969,0.08467533439
4970,0.06220393255
4971,0.0132346265
4972,0.1779260039
4973,0.2080316693
4974,0.009923997335
4975,0.2373536974
4976,0.1175854877
4977,0.07982780784
4978,-0.2258055359
4979,-0.2431139052
4980,-0.09032062441
4981,0.0007335316041
4982,-0.1881843358
4983,-0.1155231148
4984,-0.07224460691
4985,0.1536698341
4986,-0.5396130085
4987,-0.03556190059
4988,-0.1721627116
4989,0.04595907778
4990,-0.06041837856
4991,0.03679640591
4992,-0.3607286215
4993,-0.8034452796
4994,0.366510272
4995,-0.2455334663
4996,-0.2259052545
4997,0.1967635602
4998,0.3627793193
4999,-0.03843940794
5000,-0.3126014173
5001,0.112002179
5002,-0.524723053
5003,-0.006210391875
5004,0.1991996914
5005,-0.05334087834
5006,0.351696521
5007,-0.865626514
5008,-0.1383587122
5009,0.2539128661
5010,-0.7464911938
5011,0.1673876494
5012,-0.281046778
5013,-0.008862587623
5014,0.01362938061
5015,-0.629124403
5016,-0.6344897151
5017,-0.1342676431
5018,-0.04277424142
5019,0.5017319918
5020,-0.01802511327
5021,-0.695171237
5022,0.1701645404
5023,-0.1562719047
5024,-0.9969710708
5025,-0.1898951232
5026,0.1096752509
5027,-1.406241775
5028,-0.2234767973
5029,0.233293131
5030,0.1584106833
5031,0.03636027128
5032,-0.3724780083
5033,0.3844117522
5034,-0.00869156234
5035,-0.01244332083
5036,-0.747777462
5037,-0.1697442085
5038,-0.3342497945
5039,-0.3749778569
5040,-0.6843386889
5041,0.4040611684
5042,-0.5615338087
5043,0.1889645606
5044,0.07271388918
5045,-0.1553134918
5046,0.3596547246
5047,0.2468075156
5048,0.133198753
5049,0.03427229449
5050,-0.8467798829
5051,-0.1646241248
5052,-0.6167812347
5053,-0.0352675654
5054,-0.6628977656
5055,0.1597730219
5056,0.02231976204
5057,0.2291221172
5058,-0.09244279563
5059,0.1940788329
5060,-0.3223528266
5061,0.2801673114
5062,-0.04570712522
5063,-0.2497284412
5064,-0.8765078783
5065,0.09563653171
5066,-0.07919307798
5067,-0.0851785019
5068,0.1862777621
5069,0.1653104573
5070,-0.4019882381
5071,-0.7792533636
5072,0.08761722594
5073,-0.1394754946
5074,0.06754667312
5075,0.02848798595
5076,0.2688942254
5077,0.002772898879
5078,-0.1082905754
5079,-0.5573413968
5080,0.3495070338
5081,-0.02232647315
5082,-0.1767231524
5083,0.1125369966
5084,0.1529782712
5085,-0.7611064911
5086,0.01011620462
5087,-0.1031405255
5088,-1.248968363
5089,-0.3629818857
5090,-0.3674902916
5091,-0.6777316332
5092,-0.05371112749
5093,-0.1275639236
5094,-0.2740041316
5095,0.1785099208
5096,-0.2037386745
5097,-0.04014822468
5098,0.505518198
5099,-0.0239773076
5100,0.4430854023
5101,-0.09607675672
5102,-0.1865934581
5103,0.4400701821
5104,0.2255094349
5105,0.1848595589
5106,0.1562041193
5107,0.1833273768
5108,-0.1842460334
5109,0.183129251
5110,0.4009754956
5111,-0.144063279
5112,-0.07994222641
5113,-0.6970992088
5114,-0.2917083502
5115,0.2285540849
5116,-0.06570028514
5117,0.04882085323
5118,-0.04415654019
5119,-0.3078016937
5120,0.1317768544
5121,-0.257614255
5122,0.1948139668
5123,-0.3308584094
5124,-0.1387607008
5125,-0.04495056719
5126,0.1212407723
5127,0.185207054
5128,-0.2974383235
5129,-0.2406349629
5130,-0.5151698589
5131,0.04395823926
5132,0.08590655029
5133,0.2546811998
5134,-0.0291394107
5135,-0.3290094435
5136,-0.4218504727
5137,0.007299566176
5138,0.09898480028
5139,0.1293202788
5140,0.08067724854
5141,-0.1450301856
5142,0.07378237695
5143,-0.05709118396
5144,-0.3321423233
5145,0.003673164407
5146,-0.1196891218
5147,0.06276866794
5148,-0.2138880491
5149,-0.2647871077
5150,-0.3201706111
5151,0.2142900229
5152,-0.4158941209
5153,-0.1023462638
5154,0.07881931961
5155,-0.1659466177
5156,-0.1624955535
5157,-0.192563355
5158,0.323289752
5159,-0.1577724367
5160,-0.5853995085
5161,-0.006972847506
5162,-0.5052129626
5163,0.1369445473
5164,-0.03077028133
5165,-0.2773981094
5166,0.2783457339
5167,-0.8244658113
5168,-0.6516077518
5169,-0.3155664802
5170,-0.1651451886
5171,0.2332496345
5172,0.005831701681
5173,-0.02761963941
5174,-0.1716819108
5175,0.1337924749
5176,-0.2390441895
5177,-0.3375425935
5178,-0.2330460548
5179,-0.09553927928
5180,-0.2028055489
5181,-0.2722752094
5182,-0.2459245622
5183,-0.3966498077
5184,0.1953125596
5185,0.1131836474
5186,0.002064406406
5187,0.2008492798
5188,-0.3472694457
5189,0.08332291991
5190,-0.6453695297
5191,0.2315303534
5192,0.1352313161
5193,-0.119385235
5194,-0.9041079283
5195,-0.08022370934
5196,-0.01199456491
5197,-0.3120379746
5198,0.2961790562
5199,-0.2909416556
5200,0.2706703246
5201,0.2192245722
5202,0.05948450789
5203,0.427974999
5204,-0.2303569019
5205,-0.06329804659
5206,-0.2312927097
5207,0.1848948002
5208,-0.3119331598
5209,0.0844925493
5210,0.1062983647
5211,-0.143814683
5212,0.1786195189
5213,-0.3418347836
5214,-0.3004081845
5215,0.0009981449693
5216,0.01192558929
5217,-0.4827376306
5218,-0.3070123494
5219,0.2428332418
5220,-0.2362250388
5221,0.06252932549
5222,-0.3216165006
5223,-0.2942901552
5224,-0.5473337173
5225,-0.2068814784
5226,0.2661463916
5227,-0.09736761451
5228,0.2280024439
5229,-0.2578428984
5230,-0.2385000736
5231,-0.2322493643
5232,0.2387421131
5233,0.387891382
5234,-0.4693566561
5235,0.3171635568
5236,-0.237408787
5237,-0.003301256569
5238,0.3660679758
5239,0.06530527025
5240,-0.06702148169
5241,0.4028241336
5242,0.001997482032
5243,-0.009802355431
5244,0.2547996044
5245,0.02896069922
5246,0.2202741206
5247,0.1628400832
5248,0.1733430177
5249,-0.6417041421
5250,-0.4196329117
5251,-0.4610797167
5252,-0.325445652
5253,-0.2257840633
5254,-0.6326090097
5255,0.2412661612
5256,-1.282550097
5257,-0.356872201
5258,-0.2334418744
5259,0.0961427018
5260,-0.4404978156
5261,0.02060841583
5262,0.062844567
5263,-0.3175827265
5264,0.236595273
5265,-0.2306431532
5266,-0.1062120199
5267,0.04918878153
5268,0.07817735523
5269,0.2424906939
5270,-0.2816872597
5271,-0.4173671901
5272,0.1983429343
5273,-0.03780397028
5274,0.2069116682
5275,-1.049941778
5276,0.4407987297
5277,-0.1190266237
5278,0.4199860394
5279,0.07072936743
5280,0.01029152144
5281,0.4979662895
5282,-0.4093019366
5283,0.2414324731
5284,-0.01232130453
5285,-0.205134213
5286,0.2939763963
5287,0.5095158219
5288,-0.0005606382038
5289,-1.417686701
5290,0.3223760426
5291,0.04959835857
5292,-0.2038514912
5293,0.1539032906
5294,-0.5732625723
5295,0.108577311
5296,0.2086492628
5297,0.4261018038
5298,0.05752632767
5299,0.5714917779
5300,-0.1758953035
5301,-0.01299033314
5302,0.6117525697
5303,0.2461043
5304,0.2261115015
5305,-0.7742436528
5306,-0.2312358618
5307,0.2367214262
5308,-0.01439219899
5309,-0.3636161089
5310,0.1701029837
5311,0.09861356765
5312,-0.2442764938
5313,0.01840636134
5314,0.1440714002
5315,0.2336828411
5316,-0.4374105632
5317,-0.2883134484
5318,-0.1146818399
5319,-0.2630669177
5320,0.09474378079
5321,-0.1368468553
5322,-0.4342163205
5323,0.2351403385
5324,0.1983102113
5325,0.1859032512
5326,0.1579547971
5327,-0.1953506619
5328,0.289190501
5329,0.09657673538
5330,-0.0852444768
5331,0.2929541767
5332,0.07451841235
5333,0.2517569065
5334,0.3103737235
5335,-0.07163896412
5336,-0.3959251344
5337,0.07812848687
5338,0.08161800355
5339,-0.1946041286
5340,0.09343344718
5341,-0.332460165
5342,-0.6191727519
5343,-0.3075875938
5344,0.1755241901
5345,0.1512235105
5346,-0.3562080562
5347,0.04872558638
5348,0.1739373207
5349,0.1653897911
5350,-0.3215403855
5351,-0.2038500011
5352,0.07745305449
5353,-0.4075441658
5354,0.3570631444
5355,0.3218951523
5356,0.3370954096
5357,-0.2396969199
5358,0.01604350656
5359,0.1312081963
5360,-0.2061356306
5361,0.2240191102
5362,0.2802132368
5363,0.04681860656
5364,-0.2436101288
5365,0.1960818022
5366,0.1392909437
5367,0.06578795612
5368,-0.2108641863
5369,-1.027720094
5370,-0.08772196621
5371,-0.3915682435
5372,0.1676715314
5373,0.1429091394
5374,0.1637651324
5375,-0.02903849259
5376,-0.5038325787
5377,-0.7403768301
5378,0.3918686211
5379,-0.3183664978
5380,-0.02790814452
5381,0.1413295418
5382,-0.03623118252
5383,-0.1153921783
5384,-0.00144380983
5385,0.1462738812
5386,-0.9367391467
5387,0.4891339839
5388,-0.1874111295
5389,0.02921572141
5390,0.08385190368
5391,-0.02988986485
5392,0.2474828511
5393,0.002370976843
5394,0.1940245628
5395,-1.02860105
5396,-0.5006026626
5397,-0.1555462033
5398,-0.2235149443
5399,-0.05762640387
5400,0.1731765717
5401,0.1248817146
5402,-0.1298890859
5403,-0.3686802983
5404,0.4098070562
5405,-0.1054952294
5406,0.3246065676
5407,-0.3116920888
5408,-1.352653027
5409,-0.2030024379
5410,0.201642856
5411,0.3311380148
5412,-0.4939176142
5413,-0.263997525
5414,0.1414338797
5415,0.1269790679
5416,-0.1344142705
5417,0.1945259571
5418,-0.05505513027
5419,0.1918829679
5420,-0.02289461717
5421,-0.1283383816
5422,0.07452007383
5423,0.109467797
5424,-0.0106922593
5425,0.389428705
5426,-0.8237046599
5427,0.5893861055
5428,-0.07418768853
5429,-0.1339423656
5430,0.2340475917
