#pragma once
#include <stdint.h>

static constexpr int WEIGHTS_SCALE = 1000000;
static constexpr int WEIGHTS_COUNT = 9328;

static const int32_t WEIGHTS_Q[WEIGHTS_COUNT] = {
    301759, 101791, -490090, -127218, -628105, 
    -149701, -635095, 689239, 95280, -109728, 
    -50025, -199426, -330467, -81643, -318509, 
    260262, 352360, -518324, -442950, 260097, 
    585995, -220467, -64681, -591822, -166381,
    -66646, -36698, 198257, 714294, 220592, 
    181588, 164896, -264501, 281252, 104978, 
    -263344, -235650, -49567, 623501, 139505, 
    63262, -274839, -275214, 189014, 46912, 
    -265291, -390109, 347508, -7972, -11031, 
    -125086, 242367, 69894, 751414, 222706, 
    -49291, -981242, -551570, 154205, -127580, 
    -534043, -104940, 148533, 478464, 149598, 
    -1018251, -375784, 215745, -848755, 292392, 
    -117888, 240721, 557738, 267116, 226533, 
    367019, -649701, 39480, -217368, 479655, 
    342287, 66491, 223019, 345031, -398452, 
    -105668, -348350, -1509777, -285425, -104442, 
    615621, 520909, 138342, 401737, -412199, 
    248675, 234443, -367462, 305299, -653586, 
    -29380, -398420, 410849, -1292496, -363633, 
    -708254, -1299211, -82089, -979513, -333896, 
    142653, -167565, 285396, 395611, -240151, 
    543193, -872315, 86029, 124586, 410828, 
    -852094, 653746, 205039, -224896, -239809, 
    365865, 483870, -1170581, 453384, -38609, 
    -822112, 678748, 71520, -339158, 217976, 
    -353579, -550497, 385899, 174750, 540173, 
    625963, 435392, -311873, 350162, 405367, 
    -110386, -440195, 403010, 456781, -344273, 
    -224135, -350977, -114670, 605095, -73548, 
    -422900, -234786, 587456, 732370, -631988, 
    -159614, -252462, 381902, -79397, -847252, 
    -488510, -328555, 516679, 158731, -300881, 
    156784, 710888, -165956, 169721, -219655, 
    483088, -337556, 218173, -245452, -333046, 
    -549855, -443905, -755574, 246015, 96486, 
    -52250, -318184, 88725, -235551, 34649, 
    -163981, -387981, 44144, 186455, 431042, 
    -121135, -24127, -308480, 294704, 284638, 
    228885, 644228, 11215, -525757, 131826, 
    115336, -466707, -1597905, 54432, 717114, 
    -149996, -458213, -179135, 112573, -125276, 
    166291, 75099, 58146, 264808, 36645, 
    -572843, -70110, -44207, 745045, -744592, 
    169160, -737689, 238389, 388446, 60374, 
    94940, 39822, -398812, 77352, 834415, 
    -677850, -202560, -77573, -350565, -152279, 
    -405622, -177877, 169571, -572701, 168270, 
    -109009, -130240, -629131, 151764, 29060, 
    193443, -271787, 242029, -83251, -165722, 
    -344535, 253821, 347790, 391319, -263962, 
    687135, -282925, 297941, 225794, -330820, 
    -886960, 77871, -887674, -104038, 541053, 
    -298484, -363724, -643334, 408989, -1112812, 
    -267278, 895212, -348897, -364094, -197252, 
    -360672, -309477, -208829, 709189, -463382, 
    86706, 897515, 431941, 847278, -85728, 
    -1552670, -447876, -389227, -266153, -681158, 
    427632, 146044, -597686, 533058, -432129, 
    592576, 194662, 455932, -85691, 133117, 
    -398760, -542613, 451375, 460467, -62681, 
    -264564, -259698, -11793, -356507, 658554, 
    506831, 262389, -363989, -703688, -290938, 
    -656987, 198353, 66004, -386191, 15741, 
    68156, -517479, -58325, 67473, -35829, 
    -5956, 372077, 794955, 128789, 153774, 
    -205449, -468819, 30754, 86197, -27490, 
    788750, -269032, -46340, 236252, 409730, 
    56164, -291754, -331267, 404702, -1138, 
    198850, 207359, 373550, -790037, -52380, 
    25590, 12496, -104142, -1028662, -133407, 
    274115, 17548, 359392, -634919, 393193, 
    5655, 237258, -1376082, -13630, -521658, 
    -101190, -211280, 71831, -169027, -84932, 
    580462, -1070002, -543405, -26257, -420166, 
    -185027, -300474, -380608, 428397, 381505, 
    28646, 172044, 466174, 529995, 17292, 
    264133, -16019, 104925, 120012, -35800, 
    522842, 23006, -592250, 138708, -685180, 
    -1410601, -11765, 164789, 234529, 315678, 
    373213, -108724, -261553, -200839, -5773229, 
    -202891, 75228, -63515, 14348, 127721, 
    239155, 481467, -474750, 109444, 184955, 
    -444280, -108198, -918148, 426307, 512639, 
    -125978, 57402, 29577, 229102, 139133, 
    129800, 784292, -61537, -167651, -340346, 
    470275, 388643, 315939, -284906, 34333, 
    421475, -775411, -717477, -420140, 220397, 
    73359, 230128, 298521, -134590, -270306, 
    294054, -418972, -919639, 137139, -843511, 
    -447857, 593398, 494767, 134203, 525456, 
    -125861, -948342, 373728, 33863, 301271, 
    -156020, -112602, -413143, 15991, 114315, 
    231680, 462618, 86230, 686737, 567930, 
    261205, -396334, -391809, 435207, -218277, 
    -516516, 107550, -908718, 160574, 707298, 
    -1343466, -56031, 137964, -347488, -412384, 
    43021, 15888, 121329, -45162, 310762, 
    607534, -57050, -91262, 83572, 170257, 
    1166984, -169049, -638524, 21023, 877957, 
    643198, 202738, -454887, -772205, -315120, 
    513899, 676765, 356108, -77305, -482857, 
    98374, 61842, -274618, 237327, 138837, 
    231239, -115149, -159217, 384426, 117170, 
    -6475, 363696, 332119, 123101, -569521, 
    -346773, 382194, 102433, -66627, -383161, 
    8332, 335411, -437227, 77519, -126555, 
    -461542, -362109, -374705, 259886, 88579, 
    -195786, -87133, 74393, 64834, 42108, 
    396781, 328967, 316905, 343110, 263436, 
    357730, -210580, 348613, 143606, -204023, 
    -156704, 48787, 207676, -61401, 17927, 
    -244609, 152666, -145303, -292122, -364377, 
    -56870, -571934, 459797, 300571, -430905, 
    -201789, 475316, -249885, -276841, 386518, 
    1148106, -47548, -445466, -906422, 1041811, 
    672240, -35384, -538341, -265793, -708284, 
    307464, -938828, 148945, 2049329, -624718, 
    -93381, -478622, -251677, 262993, -992948, 
    -842793, -125454, 471918, -765685, -2091012, 
    -413993, -240824, -507663, -605855, 676471, 
    -110090, 132423, 712656, -263109, 540875, 
    -198479, 645440, -94380, 143116, 542965, 
    226281, -65761, -216129, 8124, -613952, 
    557474, 16966, -214914, 792185, -296743, 
    300813, 300748, 613448, 564558, -146012, 
    1532160, -225226, -206734, 458695, -299470, 
    629379, 477168, -1143108, 319992, 650014, 
    246518, -228100, -775793, 1025375, 772696, 
    -309040, -541257, 7812, -67346, -18770, 
    -675015, -539244, 691519, -488341, 513552, 
    19634, -214931, -161170, 451471, 386197, 
    204009, 418478, -226373, -1217031, 1128039, 
    673838, -181881, -980463, 1121334, 390183, 
    -366914, -286224, -596008, 1307178, -499127, 
    653087, 127915, -345048, 1914, 512477, 
    153173, 498633, 397960, -897457, 464516, 
    -300990, 291849, 97531, 22495, -683834, 
    1079478, -1049681, 1201083, -181078, 1225659, 
    -553713, 212747, -505030, 209486, 59697, 
    61506, -195470, 254095, -75058, 140823, 
    177886, 179353, -289907, 728, 173140, 
    -24911, 314181, 1250, 33514, 6796, 
    377243, -506407, 303066, 83319, -221733, 
    335200, -170478, -433930, 292525, -4229947, 
    67786, 446162, 203011, 488755, 139682, 
    -305640, 131939, -882337, -378252, 25252, 
    713428, -79964, 64749, 95430, 244684, 
    -118852, 406365, -469777, 212095, 109656, 
    282406, -432576, -190588, -428118, 49367, 
    -115183, 203530, 263991, 270772, -406802, 
    381643, -84346, -141214, -655569, 474008, 
    -15657, -396640, 433355, 482555, -212093, 
    -435811, 49352, -94286, 373539, -1097896, 
    144616, -192410, -253924, 391681, -483297, 
    -418746, -280643, -99341, 93730, -28711, 
    128565, 110990, -456547, -443699, -124586, 
    -86450, -433616, 442608, -474164, -44767, 
    -164299, -75304, 313171, 51285, -231752, 
    307767, -9239, 423705, -125901, 66795, 
    -160819, -1279532, 109705, -573868, 130435, 
    -58883, 86948, 74125, -24806, 216374, 
    -1072571, 426689, -309690, -152878, -514954, 
    -766380, 488894, 276855, 253222, -1219909, 
    -710294, 152343, -12121, 73915, 356238, 
    -824710, -125717, 417402, -119680, 85690, 
    -477439, 119591, -224069, 29935, 624239, 
    392606, -1193709, 164788, -759239, -516106, 
    795496, -126134, 689004, -115288, 1223009, 
    -999277, 215250, 299531, 156661, 46121, 
    20459, -162748, -3161260, 183366, 66966, 
    -541615, -292137, 270749, 497270, 808041, 
    -442559, -1008645, -1201, -1014424, -2093, 
    -1594104, -84996, -243276, -85075, 592894, 
    267572, 205484, 35603, 251441, -462996, 
    -105110, 128471, -211661, 929582, -436851, 
    171245, -774410, -254432, 210611, -114054, 
    823995, 400104, -354943, 126933, -701479, 
    448264, 487463, -12662, 220953, 406502, 
    -209529, -218321, 413661, -440332, 353721, 
    -533874, -203202, 568665, 270823, -1122134, 
    -148442, 248912, -1079628, -333790, -175415, 
    642609, 22296, 94372, 172205, 365813, 
    664661, -7181347, -219021, -224793, -531687, 
    223291, -98048, 55797, -6369, 20593, 
    684345, -173951, 119064, -232677, -1543788, 
    -286160, -115355, -143681, 233784, 98996, 
    165123, 104257, 190538, -264311, -582426, 
    243748, 151211, 610480, 55979, 157426, 
    441158, -1925, 293446, -946181, -318013, 
    -141931, 444988, 144450, 375715, 37572, 
    -348825, 14466, -124017, 219021, 378177, 
    -242741, -249131, -292109, 79037, -3112577, 
    -486750, -62620, 227517, 88381, -311845, 
    132918, -96736, 54494, 339192, -119580, 
    35846, 94137, -348642, -508942, 521298, 
    -124204, -106101, -631140, 266184, 180236, 
    -474607, 241053, 146540, -77921, -444, 
    11632, 195229, 176153, 2034, 327658, 
    28818, -28619, -351359, 57832, -65527, 
    -289375, -794981, -1707793, 179981, -1041335, 
    19505, 246434, 217144, -416551, 110161, 
    170814, -81586, 281193, -26748, -915039, 
    -92849, 237839, 11912, 26577, -159138, 
    58667, 60829, 196996, -325146, -306986, 
    72024, -1139120, 238941, 84292, 265199, 
    -495984, -380693, 16812, -18566, -53305, 
    605762, 103451, -251527, 267516, 116664, 
    -85329, -346734, 130649, 184846, 301883, 
    -432574, -22386, -737974, 173725, -186685, 
    69963, 220937, 60830, 456853, 8425, 
    355740, 214059, 120347, 127298, 273054, 
    -233680, -220995, -362876, -99843, -134581, 
    291797, 68211, 177550, -180651, 305039, 
    -44934, 185289, 154179, 491851, -143243, 
    336970, 254288, -801588, -122038, -29452, 
    -125463, -55498, -240760, -780789, -59789, 
    106144, 1165881, 487598, -269471, -679580, 
    -562116, 735125, -135932, -544155, -152024, 
    -495149, -683265, 113570, -168249, -382874, 
    -1405005, -231310, 460492, 280521, -241009, 
    -376328, 552134, 392330, 72966, -318213, 
    83265, 516272, -379492, 210011, -417091, 
    -223643, 251313, 34525, 43065, 217615, 
    -319075, 315824, -13423, 507483, -390648, 
    -197956, -586179, -37526, -248753, -842341, 
    -189053, -489372, -201626, -173178, 18660, 
    847486, -280409, 392540, -315711, 341847, 
    426430, -426752, 392534, 1136708, 108956, 
    678272, 82018, -236356, -495723, 1056283, 
    -1079519, 317311, -269944, -635869, 696236, 
    630624, -421630, 208316, 596789, 337998, 
    -138412, 614467, 587413, -641861, 431552, 
    -391085, -142476, 651810, -128781, -291267, 
    134378, -40236, 363949, -704375, -906401, 
    -940195, 96989, -23777, -586705, 53193, 
    -108397, -357109, 735488, 712859, 505901, 
    -590097, -930357, 488092, 314785, -62003, 
    1040011, -1233736, 122612, -263217, -242777, 
    415083, -161883, -233911, 257166, 803102, 
    945265, -374370, -32565, 987949, 201435, 
    375605, 413128, -128088, 73173, 762690, 
    -791821, 459015, 330212, 679881, -1193079, 
    -366287, 120559, 118341, 486354, -34361, 
    -483659, 303116, 830060, 701235, 503130, 
    -416014, -207972, -787101, 641362, -155588, 
    -382722, 322626, -376544, 237469, 247459, 
    -746799, 607869, -393269, 263665, -1546660, 
    -126454, -14802, 332100, -160143, 330354, 
    -641660, 529298, -98846, 20380, 36092, 
    -802712, 160120, 1089372, 1465802, -228020, 
    -274729, -296040, 489698, -5234, 44268, 
    -155606, 165593, 505310, 28014, -584056, 
    -106706, -530178, -1412987, 533864, 529098, 
    512232, 257327, -304529, 348251, -487791, 
    178318, 834769, -427197, 877894, 170454, 
    175946, -173113, 363814, 878529, -867220, 
    158014, -66638, -1013746, 1246071, -119710, 
    251491, -304362, -31065, 849171, -540176, 
    709431, 297705, -47700, -176379, -41719, 
    -1209841, 508126, -791336, 1641248, 868328, 
    1121946, -118620, -2108493, 106338, 691238, 
    -290881, 262005, 1298361, -282008, 398874, 
    -369510, 1194270, 729912, 688332, 115196, 
    291937, 175399, -158296, 820079, -47096, 
    3424, 703665, -311313, 1016743, 1362751, 
    -829232, 161422, -2021736, -406824, 58160, 
    -247679, 328654, -338549, -841138, 285867, 
    273996, 98619, 1264133, -286301, -333145, 
    74738, 183847, 742924, 494628, 714702, 
    29752, 1077421, -955993, -421112, -189675, 
    -165889, -761028, 327680, 151500, 757335, 
    -225227, -223359, -233791, 710839, 700037, 
    98492, -231576, 128901, 842031, 970524, 
    425035, -551758, -233764, 99481, -838297, 
    -442183, -934946, -2076674, -1341678, 397381, 
    1130514, 419958, -573181, 342112, -209608, 
    447492, -66956, 285517, -512763, 717765, 
    219629, -697183, 911785, -106627, 544409, 
    1264881, -299154, 279403, -275138, 118753, 
    69062, -229677, -2313924, 26044, -211690, 
    129262, 299817, -99000, 31550, -98395, 
    267036, 242712, -127352, -258218, 170174, 
    206880, -672251, -142067, -85941, -306414, 
    -1046440, -522340, -292980, -145010, -124776, 
    -310814, -347566, -202213, 287075, 26989, 
    301935, 81572, 543115, 268137, 169773, 
    -408194, -219986, 160480, 142674, 24093, 
    -139900, 304741, 205779, 354195, 258596, 
    151368, 175189, 201007, -133224, 26566, 
    324792, -76887, -59722, -374205, -65356, 
    252003, -4323, -327658, 304439, -90897, 
    -297454, -71861, -513116, -588675, -233367, 
    96760, -317318, -380389, 124412, -121252, 
    -201858, 44648, 32793, -256748, 303695, 
    -337549, 17042, 295101, 258696, 128264, 
    79174, -25598, 201004, 252350, -545496, 
    -691590, 358816, 570497, -274206, 200624, 
    -159352, 211940, -108566, 107245, -761179, 
    187836, 797201, -170544, 492053, -615167, 
    -342337, 382984, 184776, -37774, -11369, 
    647820, -673989, 371122, -424373, -701976, 
    157960, 3046, -386168, 2282, -696278, 
    -27391, 257173, 235342, 64143, -1641180, 
    152923, -115863, 320963, -867394, -233981, 
    -256795, 360059, -1999155, 33158, -412909, 
    533927, -1122902, 393110, 558046, -729108, 
    566897, 86933, 558095, 1227641, -787339, 
    653144, 718206, -147042, 52325, 419100, 
    369203, -257747, -703233, -177437, 478871, 
    63314, 439521, 382049, -75247, -227088, 
    340481, -1077659, -2403329, 795682, 1294752, 
    -326416, -1482539, 350658, -27968, -214725, 
    -827869, 42120, -1227123, 80452, -238512, 
    -638367, 666955, -73088, -1600236, -896315, 
    -265178, 336295, 557671, -874142, 924648, 
    448409, -357020, 182812, 1668789, 773024, 
    264018, -195905, -121654, -1071710, -134488, 
    -630818, 799393, -242176, 330219, 239693, 
    -88120, 97867, 520520, 49102, -51114, 
    34048, 1120590, 160286, 485184, -74544, 
    396717, 528944, 360038, 276916, 596557, 
    123079, -1224544, 30115, 30063, -880383, 
    772319, -118529, -44724, 430474, -153578, 
    -856254, -386602, 715696, 576981, -249500, 
    498772, 84112, 256685, 23132, 342918, 
    112504, -43357, -310101, -94502, -162738, 
    98685, -202226, 112274, 512681, 361629, 
    -93306, 692167, -4373, -52039, -479921, 
    154081, 172408, -1067322, -451911, 51509, 
    422659, 478895, -537947, -447188, 509178, 
    -310876, -28853, -470596, -906860, 472718, 
    -151873, 181089, 247188, 76513, -171426, 
    429002, -2455971, 992102, -682589, -1517972, 
    356407, 204770, 607647, -491178, -293938, 
    -894422, -242048, 247728, 1306059, 262385, 
    -119323, 264513, 1152714, 666755, -832589, 
    -1038277, -525191, 174475, -551855, 691724, 
    -749060, 254861, 137643, -174195, 61390, 
    -100426, -90430, 610137, -45491, 335019, 
    -279767, -217529, -439917, 241954, 241019, 
    312031, -958405, 436240, 62331, 709742, 
    404973, 598210, 371173, -754348, -453911, 
    -1061270, 827326, 1050154, -208768, -506396, 
    32440, -1350029, -346005, 314965, 373615, 
    -457385, 143199, 538059, -313758, -344000, 
    532253, -201209, -471732, -217342, 1464828, 
    259708, -1120554, -322870, 654170, -398434, 
    508662, 1230707, -1401683, 135886, -241685, 
    -380214, 957217, -370279, 818552, 449144, 
    -59231, 168298, 1069929, 612852, 412693, 
    725982, -185441, 55317, -965433, -833020, 
    331771, -407046, -572481, 567114, -816442, 
    -1015005, 213710, 304920, 62645, 30913, 
    85610, -1081653, 52303, 69725, 530921, 
    557009, 191511, -179393, 561144, 214969, 
    217780, 284624, -1000046, -476690, 179955, 
    -1159949, -356854, -412910, 237456, -26867, 
    -191680, 340220, -246818, -298433, -117246, 
    -336035, -197536, -81251, -413507, 13246, 
    24059, 250138, -75070, -92375, 167014, 
    71566, -100549, -367819, -364170, -76994, 
    217885, -75086, 248995, 262785, -11287, 
    -38903, 22375, -223872, 154866, 14054, 
    130826, -65896, 115186, 110113, -381318, 
    -369363, -186235, -167169, 158248, -314216, 
    -127397, 374321, -356860, -62722, -403058, 
    268575, -91913, 71935, 199658, -148132, 
    -471726, 260411, 36232, -74967, 19125, 
    31976, 202087, 239890, -227759, 424730, 
    -58582, -145232, -234582, 114260, -184991, 
    452075, -244678, -445178, -2537, 101935, 
    -260489, -287497, -243237, -199541, 262146, 
    344156, 192798, -345978, 364499, 83947, 
    17537, 256344, -190153, -202581, -193532, 
    9473, -106144, -212734, 218969, -379150, 
    -307775, -182572, -462858, -293781, 216687, 
    75506, 93061, 37802, 325857, -288255, 
    -4898, -205402, 68830, 45170, 284037, 
    340794, -113632, 300083, -227760, -22803, 
    -348017, 298097, -54118, -250187, 132850, 
    140448, -113832, -124023, -251718, 62155, 
    236747, 278384, -231386, -200281, -11921, 
    861140, -1065027, -834982, 1415071, 1299576, 
    262890, -247559, -1539775, 659426, 284453, 
    -725329, -939500, -544539, -1140355, 356458, 
    4512, -1007917, 606498, 1145836, -1138848, 
    -2159761, -71667, 292037, -2293, 312352, 
    1242845, 164970, 280888, -87115, -49996, 
    547727, -1772086, -3643424, 3663600, 1804382, 
    -7159967, -1284122, -1342653, 30568, 1808566, 
    -1956561, 1606606, -521763, 1622939, 848127, 
    -304934, 1079111, -170879, -2971538, 501482, 
    2404656, 1601127, 424740, -2798764, 463511, 
    -1636886, 437472, 817328, 565623, 998050, 
    -194515, 346193, 1041017, -139217, -126609, 
    -12618354, 852585, -697033, 486196, -247584, 
    551428, -342325, -1053209, 1356364, 1564534, 
    -1006411, 502201, -2400041, -14123202, 238602, 
    669376, 677088, 542694, -1934151, 213759, 
    -320889, -316908, 1131900, -9330982, -952311, 
    157821, -53594, -2817342, -49990, 213323, 
    2272534, -1874677, 754884, 1154856, 494659, 
    918935, 1117309, 1296509, -1495481, 2232674, 
    344377, -4005600, 115595, -10010853, -126389, 
    61268, 312441, 789886, -467708, -5156395, 
    1029029, -9270408, 1379364, -1256101, -234703, 
    -1193956, 437947, 1218704, 357206, -364004, 
    -151980, -211180, -239918, 2311610, 369585, 
    -910209, -412879, -276436, 83558, -1404019, 
    -241878, -720792, -1302970, -636043, -2111752, 
    -581466, -66156, -136563, 1919281, -691721, 
    -217832, -1286669, 151438, 156440, 335125, 
    243021, 735012, 1441778, -620429, -1893729, 
    -1751360, 87074, 411673, 361954, -423927, 
    632223, 1312714, 646613, 176726, -1695475, 
    -966081, 100320, -423917, -380104, 398977, 
    1116336, 980727, 291806, 247960, 1373559, 
    614596, 1729610, 261340, -668304, -423016, 
    -1039875, -236024, 799243, -297982, -1059828, 
    -588243, 252463, -863111, 726152, 80067, 
    1260511, 514301, -156050, -8856746, 289169, 
    -1061150, -245501, -331693, 29565, 55967, 
    -1201687, 289629, 600231, -8845, 698374, 
    -2631003, -2165429, -463404, -529652, 360771, 
    845409, -2115260, 433710, 294655, 33988, 
    269236, -902926, -1079682, -540591, -38941, 
    14969, -21932, 917683, 1106776, -1639154, 
    532841, -468293, 1590, -354099, 314603, 
    503513, -500089, 1258915, -685039, -364964, 
    -219666, -2352579, -174607, 818510, 1165196, 
    -574342, -402388, -910586, 1066911, -3318519, 
    414660, -1891444, 1336086, 218496, 372243, 
    945852, 1370445, -502705, -166743, 231809, 
    421187, 552198, 1098185, 1100306, -173856, 
    1073779, 285802, -142087, -550340, -1054753, 
    -246035, -875649, -2210895, 153258, -1151755, 
    1361791, 263063, -108121, 416700, 511174, 
    -127298, 490485, -349175, -343346, 500085, 
    -253186, 644758, -2386404, -717263, -3213, 
    -1802965, -708306, -171388, 439928, 1297556, 
    34175, 124859, -1455596, 432725, 1241009, 
    -631135, -964444, -480504, 358584, 739709, 
    1258636, 10937, -856737, 1181588, -216572, 
    339573, 100044, -692840, -1027592, 268920, 
    458321, -716697, -541584, 220255, 203335, 
    181324, 801423, -309010, 1075791, 626643, 
    -308414, -8778490, -138255, -1038318, 152238, 
    -239859, 547836, -30316, -1516480, 696313, 
    424223, 64283, 897333, -2389110, -2329236, 
    -4018, -958914, 277908, 977517, -2446841, 
    115018, -197295, 149049, 13482, -523472, 
    -880094, -402428, 176729, 351267, 371463, 
    568897, 909097, -1870308, 197566, -339117, 
    246706, -577122, 98281, 676078, -321869, 
    1545929, -807186, -215082, -194167, -2601145, 
    307043, 443138, 1184349, -410175, 148924, 
    -1506751, 840731, -3378589, 383826, -1433702, 
    1608978, -326366, 488867, 1137533, 1388366, 
    119929, -1724, 387935, 617228, -13060448, 
    -8340918, -253682, -12903714, -9031624, 376715, 
    -12060463, 8464542, -8660121, -13686087, 489900, 
    -1609963, 13677521, 8669734, 13171537, 17619410, 
    9842516, 7165555, -12306322, -8149, 9565191, 
    -29019, 1245, 36955, -2474492, 568456, 
    -13571887, -8476638, 14976686, -4658931, 7133485, 
    -9123408, 12814468, -15316769, -8061066, 16420744, 
    -1168512, 7751473, 4862655, -18750462, 11993372, 
    -6816095, -6705513, -5706802, -13994501, -150734, 
    -7172544, 7892728, 13723779, -5698177, -20231867, 
    -5879571, -6292553, 15001740, -2549884, 2819447, 
    1724642, -8688822, 6926115, -3907542, 2895879, 
    148173, 12267020, 11794165, -675506, 285679, 
    366183, -142524, -194006, -236789, 293454, 
    -113419, 31718, 435649, -34945, 69912, 
    -578311, 145405, 70892, -475298, 23489, 
    -203445, 379500, 11932, -346060, -304, 
    -356260, 234997, 86301, 115621, 126696, 
    -210466, 382997, -109608, -14069, -65588, 
    405948, -1207494, -790528, 52581, -116271, 
    399184, -25660, 284992, 350207, 60907, 
    -214666, -71884, -375168, -304217, -15322, 
    -632878, 316878, -386480, 29266, -252873, 
    382105, 128994, 93944, -253155, 406544, 
    -209592, -267334, -138106, 10192, -111236, 
    283333, 421893, 93887, -978330, 875617, 
    -998799, -312112, 386545, 462578, 298864, 
    -220253, -156891, -361690, -83772, 337184, 
    -743665, -269269, 577321, 328840, -919887, 
    11645, 72802, -478521, -316994, 194699, 
    -755347, 213617, -575279, -573024, -344368, 
    42929, -190606, 315255, 88601, 469750, 
    -211202, 168410, 30481, 26211, 398087, 
    120860, -650499, -301770, -203579, 219899, 
    -477053, -2670163, -388106, -500906, 24099, 
    -337318, -266410, -280003, 259643, -935261, 
    265354, 18667, 153009, -454309, 498614, 
    660921, 639062, -1040653, -176141, -76404, 
    42193, -40687, 84272, 10915, 35428, 
    98170, 0, 26704, -72730, -205892, 
    66629, -138291, -36236, 33376, 221126, 
    67557, -37389, -144807, 156060, 141692, 
    -179449, -15642, -11055, 0, 189759, 
    -62973, 123606, -113101, -25781, 10884, 
    -253605, -68655, -103613, 29283, 79960, 
    21264, 10286, -98234, -45301, -113144, 
    -6565, 44860, -3836, 9652, -20339, 
    14938, 0, -33157, -32767, -44726, 
    -73404, -21394, -28589, -54390, -145771, 
    -46845, -17884, 192283, -130216, -187921, 
    46466, 112354, 0, 75828, 34122, 
    28343, -682698, -653203, 3671, 252213, 
    205131, -427705, 369149, -394674, -287997, 
    -153166, 807358, -1325743, 238501, -540774, 
    70231, 2590, -133268, -325831, -8620, 
    6311, -228507, -53404, 250312, -388780, 
    -636755, -211656, -997552, 347337, -123664, 
    10391, 117688, -970529, 331575, 100194, 
    398425, -265584, -137456, -715862, -1193282, 
    417477, -646426, -160738, 700074, 669325, 
    -189440, -61883, -331448, -580729, 573924, 
    -62883, 235136, -110172, 119399, -40186, 
    332846, -845501, -580296, 373462, 104128, 
    70680, 644033, -242039, -1181120, -483003, 
    -518286, 1276453, -1421378, 17035, -324641, 
    -1950560, -454866, -3451547, 1779264, 2666347, 
    -1080792, 1147169, -981368, -4803788, -390141, 
    3444010, 272798, 231226, -702699, -67791, 
    -1661925, -1652522, -2062703, -421043, -1429155, 
    -115305, 1155034, 839643, -1863379, -337701, 
    485461, 2145379, 1571086, -2815843, 1981178, 
    2271142, -34514, -1018295, 658227, 2734277, 
    -286693, 572092, -1906898, 2623532, -234021, 
    -728928, 1668627, 2550749, -19533, -10735, 
    169991, 75574, -563035, 2979391, -775296, 
    458363, 136987, -279073, 466372, -141375, 
    2782656, 2823560, 212753, -1081748, -50671, 
    365629, -89840, -302477, -430014, 291578, 
    -135112, 495786, -220480, -67332, 19268, 
    617284, -316625, 528326, 730685, -53787, 
    52640, 316750, 312449, 723533, -410034, 
    76611, -99926, 482679, 227560, 215829, 
    216793, -143588, 660509, 192999, 64637, 
    -367999, 236590, 374346, 160704, 188002, 
    66890, 159235, 22871, -36764, 525011, 
    345912, 251001, 92333, -557952, -1176413, 
    96592, 203972, -141997, 22697, -77017, 
    -148157, 148334, -90279, -77245, 79075, 
    -57264, -496730, 634504, -959931, 4220, 
    -56299, 198744, -502499, -534876, -114893, 
    233797, -541470, 252009, -178182, -447750, 
    812040, 329376, 78620, 98495, -1131832, 
    -665740, -927396, 390577, 142056, 445389, 
    152870, -51799, -46369, 172698, 374664, 
    122719, 244759, 585454, -76764, -387349, 
    311898, 636160, 654913, 85126, 96972, 
    874369, 361503, 889812, 152526, 271224, 
    -23379, -315187, 195452, 870423, -127509, 
    -438146, -771587, -345251, 319972, -50128, 
    -226848, 1221668, 441748, 69320, -404385, 
    298705, 172729, 378049, 22719, -628656, 
    276530, -163184, -45155, 197802, 333506, 
    221792, -1071564, 491077, -589957, 119361, 
    114438, 2794, 204369, -85726, -220256, 
    -181272, -120842, -218190, -219928, -80658, 
    -65334, 482938, 234728, -462473, -5591, 
    112234, -1326685, -442262, -70199, -1166656, 
    138301, 282911, -225721, -330243, -238515, 
    -151845, 187240, -192964, 498515, -399106, 
    183947, -174319, 328547, 114130, -55364, 
    -84860, -148092, -848287, 336351, 26918, 
    63422, -115581, -155678, 275857, -40931, 
    -525166, -14060, -206977, 349095, -491647, 
    -265146, -428411, -342269, -135186, -620884, 
    -67618, -60243, 125755, 633449, 102625, 
    272115, 292065, 29621, 85561, -50942, 
    84292, -161194, 78824, -47659, -16155, 
    -24931, -292769, 17315, 260310, 272744, 
    -96496, -204000, 19500, -184253, -72291, 
    -256876, -160917, 94772, -282671, 283477, 
    -287962, -92072, -173521, 248401, 118771, 
    23785, 41838, -158154, -215676, -157896, 
    -128744, -190293, -246054, 243443, -129529, 
    -256276, 53089, 33243, 7062, -69619, 
    -138581, 108462, 105396, -99343, 201978, 
    205828, -183072, -199407, -173111, -195553, 
    75669, 140065, -218957, -267773, 104718, 
    189199, -276876, -230056, -133972, 536368, 
    -516431, -644556, -409763, 460143, -369473, 
    -185523, -490672, 112789, 224053, -496530, 
    476447, -97719, 531132, -45547, -1598511, 
    -233726, 283183, -212714, 107220, 341976, 
    -245760, -281372, -169419, -244511, -408436, 
    -11090, -185780, -349787, -1361619, 82626, 
    25197, -314854, -683678, -113514, 165744, 
    191263, -77973, -337572, -250015, 247408, 
    344536, 4256, 309901, 471829, 319582, 
    127649, -470512, -931814, 342836, -192605, 
    245017, -446742, -271745, -417944, -528099, 
    25441, 154283, 456582, 269171, 308917, 
    -376730, 224822, 393903, 465520, 107250, 
    720918, 193162, 421056, -66297, 374723, 
    295589, -196537, 136598, 222552, 95516, 
    505507, 353436, 408293, -282959, -164083, 
    -85517, 94812, -719049, -46036, 114115, 
    150982, 905567, -233087, -65779, -209533, 
    317614, -111852, -475589, -54045, 145154, 
    -314232, 173321, -50047, -85490, 412991, 
    -198979, 446070, -138012, -413400, -544519, 
    -298492, -207191, -472753, 187920, -326571, 
    130924, 40099, 352101, -672738, 172196, 
    -595115, -78244, -262383, -640742, -44847, 
    -272115, 532757, 191717, 315533, 193950, 
    62245, -243179, 137707, 345192, 153699, 
    -91059, -462023, -118373, 75010, -510716, 
    -175579, -13403, 224997, 156591, -1057211, 
    -368102, 87981, 178540, -38031, 629488, 
    -112414, -43356, 17773, 369271, -3006, 
    267882, -150533, -229847, -54293, 345162, 
    -437872, -127337, -147947, 636034, -393895, 
    183007, -68417, -262117, -96057, -344559, 
    -69392, -124599, -110058, -59384, -286231, 
    223781, -357764, -637875, 267036, 424093, 
    -126338, -42766, -17782, -336364, 84463, 
    -470956, -50611, 389677, 445674, -231086, 
    -183873, -199083, 136625, -242085, -808026, 
    -234775, -142628, -424680, -194903, 222797, 
    -299292, -465403, 56924, 23538, 444590, 
    -16958, -491119, 462292, 242928, -949902, 
    264394, 188809, -485398, 118339, -357005, 
    -240584, 499987, -336906, -918560, 586203, 
    176570, -538516, 71293, -948745, -15746, 
    -103015, 218227, 67715, -81783, 16913, 
    19509, 16896, -190192, 213206, -511299, 
    219428, -46932, 500668, 154217, 163455, 
    297927, -641526, -242784, 196076, -515209, 
    555004, 305501, 173751, 102985, -663398, 
    -44581, -531462, -545979, 151122, 190308, 
    111515, 158527, 161789, -105667, -655904, 
    116027, 57437, -625160, -1449411, 489611, 
    -110366, 825432, -308026, 258070, 352702, 
    -181119, 512088, 827775, 1140304, 202016, 
    1725842, -1050937, 1360786, 186315, -1382992, 
    48091, 165841, -1253248, -904534, 1308091, 
    -185560, 255767, -1217189, 382307, 94282, 
    829862, -78722, -218287, -1081035, -175636, 
    151578, 634745, -585272, 476870, 17173, 
    -497808, 767886, 257922, -164166, -640978, 
    -279991, 829308, 687462, -9229, 1374532, 
    564571, -524055, -166710, -539510, -550923, 
    -39615, -783532, 131464, 754468, 1207797, 
    22817, -69704, -385276, 154671, 584456, 
    -965089, 318817, -896150, 108821, -744653, 
    -266779, -814291, -906674, -425714, -67214, 
    598588, 85188, 669577, 334851, -1015629, 
    -579871, 280348, 101592, 191128, 920921, 
    -101614, -1442963, -77846, 64496, -563775, 
    -215579, -849453, -71064, -1396999, 179219, 
    -251066, 409786, -1710307, -1491613, -885295, 
    -1344978, -140058, -270327, 82813, 135365, 
    -874413, 73889, 327165, -542303, -189752, 
    155916, -503149, -441044, -1332428, 1201577, 
    332718, 792820, -689657, -1694614, 371556, 
    -718954, -424520, 314670, -175971, -358583, 
    -1545220, -1155150, -131990, 4802, 397706, 
    -413879, -268374, 46436, -540292, 583153, 
    368911, -567250, 516665, -616024, -255409, 
    -107327, 123372, 121801, -409732, -689096, 
    -21712, -888159, -108504, -56366, -178075, 
    434079, -43972, -376959, -304118, -272660, 
    1191889, -226331, -1273693, -470690, -43086, 
    -476044, -631475, -1261728, -123007, 11172, 
    318520, 766233, -41898, -376656, -513747, 
    170166, -464978, 158124, -630162, 573722, 
    -239959, 365650, -250126, 633601, 327218, 
    -389224, -101224, 485773, -1254156, 25296, 
    -880224, -461071, -747677, -358989, -138021, 
    626930, -202765, -235265, -397624, 336134, 
    5623, -75013, 223641, -65347, -440067, 
    142437, -315264, 603810, -158616, 336727, 
    207286, 116865, -1569418, 412977, 347062, 
    -312413, -306708, -148307, -208876, 893871, 
    -775377, -906249, -185698, -135432, 637365, 
    250890, -451570, 48319, -225279, -292303, 
    -11099, 134709, -94868, -2164331, 189870, 
    221655, -558001, 270583, -674193, 12211, 
    -251253, -553848, 503457, -406221, -43199, 
    362543, 208202, -258835, 621198, 258850, 
    326568, 440837, -933238, 450798, 178339, 
    -1522930, -19716, -706979, 78037, -679599, 
    4669, 86163, 338327, 545955, 264385, 
    -206958, 575802, -120815, -126340, -844619, 
    51189, 766435, -320259, 329402, -281549, 
    -120823, 699938, 934801, 357163, -242406, 
    214069, -144863, 211633, 128000, -337147, 
    132556, -292743, -337380, 564033, 94702, 
    -189222, 64576, 520279, 877212, 311992, 
    -565545, 507175, 376679, 282042, -464067, 
    -188599, 574217, -1670953, 677782, -184528, 
    -298590, -134939, -583191, 701849, 786480, 
    -1357606, 448382, -344947, -157463, -170699, 
    592699, -340401, 599773, 2143, 143100, 
    231251, -691429, 515556, 851983, 275286, 
    -491476, 777682, 105072, 14972, 329602, 
    -174627, -924315, -134403, -102047, -212289, 
    -721373, 311970, 291035, -41211, 107706, 
    474751, 37602, -418771, -488988, 137588, 
    -848065, -190621, 523168, -130057, -303508, 
    479609, -332987, 330056, 21797, -352733, 
    -1146564, -283616, -1481479, -122414, -1063930, 
    -438313, -932815, -255759, 370457, -319807, 
    -1692438, -1327204, -427959, 264304, -58367, 
    -670948, -155316, -12218, -1104487, -120929, 
    199483, 382957, -386768, 579907, -283963, 
    435944, 142195, 569076, -339905, 210298, 
    511260, -281251, -1261676, 589282, 49752, 
    365449, -470886, 358648, 64064, -171955, 
    -517343, 99750, 407879, 171065, 69776, 
    338129, -194266, 194011, 17075, -94950, 
    -197613, 298615, -992826, -408909, 102489, 
    -632682, -82947, -1579704, -527993, 170678, 
    -183487, 372574, -834517, -1905897, -181630, 
    211068, 302768, -99541, 250226, -266471, 
    -1682009, -540198, -501075, 317665, -253526, 
    319545, 392254, -336490, 260301, -803135, 
    -169863, -510345, -106241, 366148, -138603, 
    314575, 121634, 351419, 140638, -258049, 
    580981, -259269, 37703, 155575, -211135, 
    -87670, -1227420, 18660, -199348, -61162, 
    -235007, 119487, 466206, -278631, -500574, 
    -101206, -46591, 257133, -543955, -677323, 
    -167866, 517474, -547609, -59549, -1763955, 
    -173828, 188602, -237441, -471327, -619, 
    -1837624, -131093, 34575, 107099, -115801, 
    -127448, -37931, 126412, -185131, -325439, 
    476688, 41917, -259869, 122455, -148332, 
    -580643, -548486, 705481, -191261, -606434, 
    -7474, 321070, -58782, 497178, -523850, 
    -77132, 328507, -736699, -247843, -1315257, 
    -518793, 79775, -1491322, -1647924, 317667, 
    226, -144821, -693472, -22533, -690672, 
    -33755, 102238, 196441, 445200, -479966, 
    -99012, -761057, -941415, -655912, -82827, 
    81039, -60401, -1001302, -411437, -334160, 
    -990521, -135741, 665027, 59854, -253219, 
    -330993, -192361, -78643, -251625, 52395, 
    362239, 298897, -925432, -327562, -190148, 
    79189, 405531, -18438, 141809, -16335, 
    259544, 2961, 5296, -76056, 248819, 
    -35094, -563466, -320360, 304400, 237844, 
    111992, 122487, -408281, -401863, 279793, 
    -8115, -513328, 48936, -611807, -541398, 
    46564, -305184, 55700, -492962, 387520, 
    -110435, 72748, 277241, -95394, 244226, 
    33667, -968779, -198636, 165238, 277656, 
    -137062, 240573, -818890, -321532, 296506, 
    -361070, 94244, 25620, -410388, -457545, 
    -346194, -374113, -371152, 113492, 144393, 
    -531093, -438576, -328000, -250829, -493867, 
    182876, 375694, 125143, 154332, -188677, 
    -610925, 288681, 275939, -58351, 311828, 
    -123652, 357289, -1058455, 234604, 41364, 
    343641, 86726, 43048, -96718, -446573, 
    269861, 159, 454922, 120069, 203146, 
    82946, 298807, -287428, -34925, 99484, 
    -132045, 418973, 158860, 201193, -286241, 
    -346893, -683354, 101538, -522372, 277758, 
    -494966, -1727878, 445160, 70816, 391667, 
    255424, 336713, -373797, 369507, -806448, 
    46356, 238707, 235157, 257251, 168422, 
    -367557, 447811, -1918688, -225537, -217867, 
    -672986, -317191, 13568, -1194842, 117709, 
    31980, 135389, 148731, 377960, 277182, 
    582527, -1018064, -61809, 432451, 432233, 
    -223198, -914424, -461460, 205263, 183490, 
    -440053, -1148890, -137462, -427532, 207017, 
    67404, 267363, 30756, -283744, -1451193, 
    -1246945, 474915, 76160, -185439, -101393, 
    -681006, 162882, -800849, -1663811, -359274, 
    291905, 148379, -682662, -1521323, -49537, 
    63429, -135522, -217448, -159424, 140026, 
    -121328, 101267, 67224, 84728, -225483, 
    -15380, 96539, -161386, -148185, -303049, 
    179946, 223050, 153712, 56672, 217771, 
    22657, -80376, 183797, 10428, 290916, 
    24995, 45153, 105173, -129519, -79400, 
    243503, -229998, -283582, 111791, 42255, 
    258665, -180479, 10510, -82018, 199817, 
    173333, 31308, -237538, -122746, 46897, 
    300756, 116837, -34825, 194666, -179899, 
    236905, -101996, -142261, -36746, 222057, 
    264771, -252162, -50205, -10031, 229603, 
    180592, -11049, -269583, -139555, 26791, 
    19218, 256840, -148361, -251327, 224617, 
    -263315, 55726, 272750, -228121, 55377, 
    -85953, 234766, 218126, 275750, -271638, 
    -258929, 242603, 27992, -120590, -179878, 
    -300026, 300667, 37348, -217722, 66472, 
    303445, -273482, 246302, -16032, -186168, 
    96550, -236689, 187080, 25855, 101147, 
    -183451, 303083, -174288, 48389, 112584, 
    -227209, -116348, 176926, -85375, 205480, 
    -296690, 174628, 208467, -120234, 130969, 
    -165452, 53411, -299287, -143433, 15342, 
    -296242, 187067, 8679, -277582, -45277, 
    288460, -150473, 29349, -598299, 69019, 
    75044, 107197, -121500, -37519, -282159, 
    36178, -315766, -541574, -373139, -705739, 
    491801, -787515, -301247, -1335963, -63938, 
    -100627, -500013, 485090, -25778, -375173, 
    -600815, 29911, 479273, -109363, 132329, 
    -465086, -305249, -463533, -557077, -380394, 
    -779803, -630919, -478001, 208768, -665195, 
    -437170, -648563, -446409, 514757, 378066, 
    -443931, -13603, 65452, 187184, -1107779, 
    -250026, -523522, -730452, -562343, -240649, 
    -358022, -588948, -603705, -466663, 261242, 
    -192429, -63718, 430591, -655027, -1239207, 
    -456857, -251600, -209432, -145773, 235460, 
    -738861, 161033, -987505, -38158, -427034, 
    72893, -67661, 357459, -92542, -700266, 
    -162083, -439137, 99808, 162226, 143773, 
    -710039, -114142, -91842, 239722, 133786, 
    46297, -338373, 4374, -255790, 271301, 
    -583795, -706450, 342002, 6566, -124212, 
    -525002, -93852, -704603, 95848, -46143, 
    -381563, 212940, -373147, 333459, 18620, 
    -87424, 81408, -422053, -28619, -129369, 
    -1270105, 29686, -193826, 295681, 184744, 
    250963, 222824, 646393, -118105, -18528, 
    355745, -292356, 75663, -290000, 303028, 
    -507628, -381121, 83483, -331507, -543796, 
    268511, 19419, 117200, 304845, -197977, 
    137994, -160615, -232934, -105782, -412495, 
    -349491, 65229, -1165253, 466319, 442451, 
    -621332, -1033824, 413787, -379191, -117795, 
    -289923, -205027, -266600, 159039, 265210, 
    -186355, -39329, 366339, -58517, 143158, 
    750161, 86500, -788039, 768263, -940549, 
    17709, -3841418, -1051443, 443821, 59474, 
    -232716, 301314, -512882, 367798, -1064295, 
    -901954, -548553, -197944, 154493, 500962, 
    -490740, -116790, -254774, -431159, -1212893, 
    617958, 256417, 307787, -1986449, 448372, 
    -108614, 366582, 240976, -123021, 66445, 
    54891, 63651, -170496, 175779, -131445, 
    -185675, -3178, -157740, -179601, -954591, 
    -85592, 193261, -286306, 241851, 36501, 
    126153, -318791, 84852, -601483, 16442, 
    -86830, -159121, -585322, 184829, 129189, 
    33123, 6557, 64032, -3900, 269960, 
    -7256, -583724, -150611, -291743, 117402, 
    453290, 61645, 186598, -588196, -288846, 
    -137352, -151879, -128055, -63682, -60393, 
    -289782, 64480, -59839, -497630, 2435, 
    -21144, -633318, 241110, -44255, 285856, 
    101897, 2503, -635085, 407495, 472820, 
    99980, 236929, -240420, -363087, 580760, 
    258438, -430867, 300065, -343684, 99208, 
    -622055, -91709, 9932, -137917, 18347, 
    -263001, -253612, 115156, -290735, 496498, 
    351544, 228564, -316469, -243580, -66639, 
    79566, 262579, 94614, 73329, 90471, 
    -1109178, 175388, -135815, -392272, 109241, 
    -115714, 388201, 209321, 168164, 491177, 
    -197188, 81367, 148685, 87869, 342961, 
    158294, 305487, -316347, -691264, -144252, 
    -452366, 120880, 12067, -115512, 243942, 
    -103727, 342159, 32422, 399851, 151009, 
    -240460, -189998, 326588, 426151, -317498, 
    99942, -390059, -281699, 352627, 622334, 
    -42834, 280413, 12789, -242471, 188450, 
    -257150, 55390, -508293, 419950, 466480, 
    149056, -811937, -433286, 289071, 732530, 
    202293, -628368, 15707, 152361, 481539, 
    -187600, -133792, 93207, 243968, 238020, 
    -79800, -297578, -84137, -125223, -163554, 
    140823, -89385, 240521, -880489, -56768, 
    129282, 214734, 339591, -756582, 7957, 
    97821, -708843, -785738, -34927, -571740, 
    296127, 76098, -432992, -109352, -340467, 
    327487, 92811, -26746, 33666, 41217, 
    -36380, -429457, -776881, 181975, -23628, 
    -86176, 7428, -422854, -58500, -228747, 
    236971, 9081, 163859, -276947, -301287, 
    -220774, -1576838, -463413, 258854, 111685, 
    -61559, -519373, -9580, -138572, 19200, 
    -1609839, 48274, -376437, -194402, 54263, 
    -378802, -228200, 564721, -470924, -230853, 
    -258963, -350544, -191192, -155739, 182203, 
    359481, -300728, 14646, 93803, 44518, 
    -53046, -325640, 68223, -426793, 302183, 
    332033, -108040, 49836, 56919, -127642, 
    65557, -230150, 454089, -490248, 424964, 
    190996, 63425, 119860, -679852, -130584, 
    101077, 114910, -648739, -256525, -347923, 
    -536612, -248475, 266811, -120102, 370680, 
    -1134647, 100190, -25400, -473128, -278685, 
    -93608, -674098, 437363, 456116, -770003, 
    225270, -202986, 9180, 281727, 138398, 
    -336442, -230035, 305494, 252285, -6529, 
    728036, 295699, -631053, -719687, 160995, 
    40414, 290814, 259427, 250003, 149966, 
    -311969, -313028, -735204, -51989, 254686, 
    -497001, 349380, -236568, -68573, -242860, 
    471667, 166627, -100839, 424621, 178723, 
    175189, -345659, -1025826, 210606, 349730, 
    173436, -339735, -409855, 150422, 343471, 
    -310741, -637099, 166428, 373876, -457111, 
    139567, -364158, 254084, -620249, -294111, 
    13957, -232661, 261772, 18650, 338515, 
    -50724, -28437, -791276, 232167, -314431, 
    98344, -491696, 248698, 51636, -454627, 
    153935, -440042, 281635, -66096, -54600, 
    -220599, -541290, -99513, 175361, -540533, 
    210589, -30520, 497302, -335753, 56260, 
    -139877, -373765, -194000, -13501, -47419, 
    83818, 270657, -836183, 301743, -677085, 
    -101395, -120746, -276360, -298072, -984038, 
    -577890, -244292, 216524, 70059, 312658, 
    -431135, -368920, -944493, 306741, 197784, 
    171148, 44984, -17477, -434608, -213561, 
    11114, 389047, -664808, -194486, -410252, 
    1458910, -308547, 538481, -1075974, -465902, 
    231296, -200257, -281242, -652677, 265697, 
    1307010, -1186087, 166298, 108448, -293164, 
    1411283, -431848, -634108, -72361, -723393, 
    -1731669, -536406, -776189, 491376, 253994, 
    -260280, 1255392, 93351, 206927, 276903, 
    -140048, -28079, -967328, 157381, -1104158, 
    -1639399, -483156, -899402, 19453, -693630, 
    -590808, 161239, -658607, 8188, 324020, 
    579564, -1295979, 144776, 147072, -522170, 
    -331559, 56079, -126123, -175704, -106753, 
    569567, -308537, -112408, -563075, -111162, 
    -333366, -459810, -301699, -31874, -928284, 
    -780181, -625795, 489412, 1521593, -583649, 
    509043, 625655, -479184, -68504, 851406, 
    -853729, -34599, 408104, 113027, -1058155, 
    -667263, -669277, 556734, -235500, 766914, 
    625758, -244766, -93176, -625200, 41251, 
    -1553251, -681448, 248284, 335564, 84354, 
    -137078, 321128, -120360, -1024116, 486395, 
    14106, 300005, -483894, 687440, 80784, 
    412696, 892164, -17869, -421491, 328376, 
    -246344, 156986, -1393269, 949469, 524630, 
    -128973, -86571, -634677, -707767, 834631, 
    162056, -83907, -482847, 54660, 465752, 
    -36393, -618247, -10869, -461771, -81032, 
    41919, -299082, 655746, -510234, -629622, 
    290424, -147627, 4761, -60924, -753925, 
    -139191, 84007, 179391, 825949, 280959, 
    -60365, -24223, -114609, -273931, -157891, 
    -43709, 30991, -502000, -661668, -123294, 
    -268212, 522700, -864612, -204554, -534344, 
    -270276, 209629, 324141, 230429, -128322, 
    -36553, -669752, 97103, 172498, 1049, 
    496645, -943308, -242565, -423593, -1334945, 
    98876, -1175110, 217278, 117643, -206555, 
    187284, -102721, 605674, -901037, 584867, 
    -209680, 80574, -1047659, 753362, 223769, 
    474003, 515529, -648018, 1306042, 917772, 
    -612870, -903553, 107791, -286453, -1521395, 
    98996, -593105, 148977, -222183, -926693, 
    24462, -296368, 710402, -532818, -536890, 
    -77385, -1407026, 174075, -688362, 516814, 
    62344, -780425, -510248, 454233, 317489, 
    -59648, -815528, -1085192, 555502, -523817, 
    97999, -136672, -387608, -506958, -268302, 
    -8465, 144808, -355378, 189582, -675764, 
    -559123, 281981, -35851, -1235917, -1039845, 
    225115, -761417, -820799, 263419, 203259, 
    130868, -381735, -152053, 25043, -168359, 
    -273702, -306734, 221120, 230349, -710783, 
    300342, -704133, -122232, -207640, -167550, 
    -419216, -132455, -710946, 129167, 26880, 
    -313478, 296197, -16644, -672608, -114637, 
    -368888, -133515, 276989, -212801, 144604, 
    -111384, -992177, -962745, -37498, 377327, 
    -45000, -952081, -486308, 246133, -214338, 
    655358, -611, 234011, -400445, -461233, 
    -462473, -258631, -530727, -485584, -330079, 
    390815, 192195, 93521, -429514, -340385, 
    112114, -122879, -38, -209095, 260967, 
    -697469, -440763, 35215, -978971, -45641, 
    -292462, 61309, -672681, -945923, -286356, 
    -214431, 641168, 10149, -367261, -584029, 
    724275, -9543, 308838, 2014491, 114997, 
    412512, -108458, 99306, 509190, -66523, 
    1284021, -575887, 202675, 243544, 118826, 
    -65211, -1211312, 526241, -1106020, 47682, 
    -193579, -180247, 81567, -101187, 215011, 
    -543480, 161950, -289809, -257056, 319195, 
    -179772, -301153, -110631, 432603, 17230, 
    443203, -134244, -284419, -120248, 117643, 
    145179, -81605, -237935, -855493, -308848, 
    261693, -1501351, -43823, -537329, 26477, 
    -260618, 99418, -631080, -746558, 135173, 
    -108875, -212642, -328388, 124012, -54826, 
    -216633, 71106, -311949, 383129, 576494, 
    49628, 337170, -1043706, -310818, -26209, 
    -371969, -29595, 152799, -11464, 203021, 
    -431958, -574752, -404821, -107378, 309157, 
    23055, -603055, -19499, -20247, -992604, 
    -151530, 77303, -1307891, -218077, 308463, 
    -89584, -92895, -111707, 204333, -208031, 
    75145, -833153, -258168, -234445, -311446, 
    -422273, 377728, -594900, 229474, -97679, 
    -106259, 194351, 562782, 73244, -33879, 
    -2191514, -78092, -961000, 115715, -1537109, 
    25972, -112732, 244213, -180471, 325058, 
    -91655, -155870, -376824, -46947, -649121, 
    57348, -814555, -29298, -130721, 67267, 
    -386482, -950068, 19381, -176438, 164502, 
    114672, -320238, -103991, 111604, -521118, 
    519119, -305411, -211270, 16339, 97301, 
    -914143, -467763, 19112, -825924, -294362, 
    -310546, -717963, -54606, -109563, -156305, 
    14338, -228318, -68281, 588479, 52050, 
    500458, -201145, -147722, 477374, 126836, 
    -19776, 165729, 213930, 68980, 195756, 
    442790, 64914, 44869, -437252, 37585, 
    323270, -142365, 106242, -116870, -206780, 
    14920, -446068, 328773, -423759, -166659, 
    -297778, 177924, 129314, -290811, -104742, 
    -499336, 22738, -63564, 335201, 84845, 
    -396814, -550558, -30923, 203856, 155151, 
    -123659, -471879, 88682, -106593, -50415, 
    -169868, -215652, -100062, -181606, -227660, 
    -174000, 134867, -526956, -223848, 159077, 
    -340271, -139444, -103122, 370736, 107315, 
    -468464, 117154, -706394, 79630, 94443, 
    -676768, 444714, -1040453, -550337, -83357, 
    -322008, 271376, 89726, 80179, -302857, 
    229204, -293396, -351301, -273687, -130998, 
    -366959, -200004, -449847, -215280, 190729, 
    245339, -160982, -9648, -126786, -390155, 
    -818110, 591464, -56988, -375076, 129060, 
    -119523, 68137, -281306, 260148, -655133, 
    -279124, 252285, 123475, 380313, 394828, 
    174822, -597236, -79384, -705175, 117532, 
    33642, -52415, 242761, -886340, -522076, 
    65935, -242038, -439346, -237372, 170521, 
    -220317, 56829, -392133, -388667, -367238, 
    -439378, 127427, 220431, 195147, -319308, 
    -198347, -118394, 326610, 570546, -578679, 
    107086, -814822, -550406, 288477, -261613, 
    -306659, 480046, -35552, 57273, 185180, 
    -128015, 347310, 241352, 221881, -794211, 
    -617215, -322414, 49728, -126763, -636925, 
    827646, -1783106, -764928, -319639, 109452, 
    -1003325, 389460, -741683, -765087, 71909, 
    54091, -586725, 48277, 186377, -483140, 
    -645573, -302536, 159695, 413145, 206912, 
    -793209, 342601, -312368, 292799, 340963, 
    -539728, -486889, -1026494, 244638, -317719, 
    115066, 699537, 146203, -247679, -1946804, 
    120847, 248533, -59808, 211104, -342381, 
    215444, 133365, 476160, 187613, 720284, 
    -512412, 118408, 347036, 102438, 399089, 
    -132050, -239980, 109842, 364789, -752709, 
    329040, 147686, -495034, -279151, 230399, 
    275516, -352898, -239733, -242570, -274900, 
    5819, -358123, -188822, 166249, 226394, 
    181005, 190486, -260281, 204284, 24829, 
    -29606, 413749, -945907, -123481, 195117, 
    -6890, -629407, -43706, -13218, -337302, 
    -159805, -435535, -594765, -301776, 84845, 
    356636, -302553, -76915, 78954, 188621, 
    -174078, -201708, 7781, -658671, 100227, 
    280800, 436226, -452784, 8291, 125671, 
    -413411, -893792, -101455, 206962, 32914, 
    39765, 137283, 193658, -426074, -2232724, 
    -267451, -291531, 306887, 169460, 268967, 
    -482223, -349899, -1377262, 101171, -56593, 
    -13580, 445018, -78180, -273105, -607881, 
    190858, -790702, 441288, -769929, -233043, 
    -102773, -491577, 460384, 100015, -358459, 
    -668691, -738169, 176749, -436285, -131523, 
    256689, -161742, -129889, -1799682, 504532, 
    -555841, 451762, -328491, -1728463, 223613, 
    -87240, 521139, -474106, -1012066, -97236, 
    165918, 136692, -41743, 216364, 45562, 
    275924, -75564, -161670, 450062, 329337, 
    346577, -789324, 788795, -65488, -198923, 
    577505, -80051, -173493, 616911, -405283, 
    183910, -120430, 344323, -22650, 666656, 
    9622, -151334, -106911, 190396, -170585, 
    -227281, 239150, -60652, 66208, 110991, 
    -100782, -304455, -128783, -119205, 195862, 
    -83581, 268056, -99615, -212516, 266202, 
    -304811, -303061, -137740, 238880, 228616, 
    290099, 172607, -149106, 127282, 45624, 
    19727, 127056, -119443, 144766, -155716, 
    -230325, -115581, 202557, -181636, 193535, 
    227428, -170811, -212391, 81585, -81372, 
    218862, 283876, 187432, -179379, 197560, 
    -258365, -12300, -196786, -107082, -208959, 
    296416, -148959, -142325, -29687, -120511, 
    -42713, -232708, -227901, -45809, 286731, 
    -76369, -369066, -69928, 232033, -18908, 
    -55698, -176220, -38134, -589049, -212348, 
    163147, -671487, 33599, -259921, -608991, 
    -300144, -385185, 257391, 155507, -451719, 
    -119907, -375896, 246791, 213548, -210890, 
    15689, -346491, 241902, 215050, -180103, 
    -129437, 206028, 274627, -178799, -505978, 
    -585755, 113368, 166080, 220416, -33678, 
    -252816, 148729, 97421, 357972, 379242, 
    -91630, -332274, 21301, -747924, -27533, 
    245248, -352594, -242088, -74621, -72016, 
    26414, -155149, 303958, 51559, 154672, 
    -415600, -32724, -240531, -852897, -4885, 
    -36976, 145593, 420538, 972876, 426323, 
    -250724, -260958, -577944, -265015, -83820, 
    -429722, 631569, -3972, -490211, -1097716, 
    894890, -1008587, -936997, -96875, -66526, 
    -266723, 375517, -337668, 264868, 161969, 
    490180, 207481, -706433, 231470, -107675, 
    -223641, -124333, 275272, -78614, -425314, 
    -141439, 451282, -632758, -117417, -1349707, 
    -460456, 111589, -336764, 192123, 63383, 
    -897167, -372920, -849066, -96983, -364593, 
    -501462, 470592, -197067, -554077, -1546481, 
    245288, -355448, -329176, 223787, -121352, 
    -295164, -97592, 420993, -306510, 272813, 
    -512838, 87290, -329738, -208826, -527477, 
    398089, 332921, -17785, 96987, 106291, 
    460695, 38972, -154296, -734091, 109490, 
    -241068, -396169, -1015872, 427429, 629980, 
    290259, -250894, -71179, -165217, 425050, 
    -267966, 1391, -37630, -1075, -219571, 
    36405, 261459, 63938, 144542, 351719, 
    253284, 255950, 411370, 139586, -271479, 
    165369, -315136, 334092, -353488, -43613, 
    103731, -145349, -32041, -267715, -537826, 
    -305802, -296170, -1258957, 190374, -23422, 
    -612095, -128655, 231940, -406772, -421703, 
    170907, -178917, -264991, -103042, 434575, 
    -167790, 39210, -159715, -267818, 89600, 
    -307391, -4632, 334924, 197759, -165174, 
    329229, -646116, 382517, 211428, 154498, 
    68056, 8521, 24037, -287359, 135487, 
    -952883, -28822, 201830, -265912, 103628, 
    -133896, -26146, -167696, -425995, -188238, 
    -5737, -160060, -653850, -282959, -401906, 
    -124073, 59588, -201212, 282886, 123273, 
    108699, -18250, -396608, -364087, -243366, 
    132105, -627810, 237201, 18745, -86626, 
    353088, 157283, 59888, -401874, -145519, 
    -288863, 91339, 134107, -98104, -407090, 
    -185116, -667122, -528721, 390335, -173818, 
    228658, -85287, -179393, -203393, -568138, 
    205362, -16449, 270113, -279072, -479972, 
    264571, 387078, -414307, 251866, 78858, 
    29859, -501814, -269575, -285849, 56545, 
    37600, -252561, -816917, -33996, 119498, 
    14886, -42981, 71243, 139067, 216483, 
    189307, 278219, -573206, -328391, -382213, 
    51191, -198499, 156935, -172721, 90993, 
    9859, 6974, 156903, -26050, -1019212, 
    134923, 34026, -59148, -121089, 84625, 
    334553, -170691, 545131, 246555, -43836, 
    -7540, 311493, 64484, -229129, -3902, 
    253483, -251307, 244848, 52149, -328020, 
    -6626, -36492, 45088, 84888, -1268388, 
    -32934, -14845, -151054, -107644, 279373, 
    237112, -222006, 104539, 450235, -284342, 
    -466432, 37295, 247027, 19464, -255108, 
    -25276, -9367, 421512, 104420, 239448, 
    443268, -437430, 500955, -442861, -399764, 
    125179, 18909, 357805, -486697, -158466, 
    -5351, -187027, -196609, 151783, 82446, 
    119252, -318544, -843265, 110717, 437681, 
    181659, 453867, -52988, -640062, 519729, 
    358614, -1592489, -23142, 430309, 81575, 
    -105602, -316206, -690658, -771533, -907820, 
    465481, 129398, -305278, 70826, -984187, 
    -575437, -85382, 864985, -90562, -714851, 
    -652044, -1324968, -122172, -875433, 603614, 
    242041, 428651, -74317, -768580, 186275, 
    -1121165, 451759, 329560, -82808, -96166, 
    -1218502, 127677, -928076, 180543, -562991, 
    -581405, 52037, 130546, 408959, 33990, 
    -467545, -80055, -327931, 658941, -1483853, 
    228469, 364386, 100183, -382528, -587042, 
    66409, 223942, -918220, -186714, 760992, 
    -585313, -467022, 209156, 1196434, 200675, 
    -207249, 272129, 116101, -358588, 298138, 
    85650, -483546, 15892, 135810, 49345, 
    -493996, -116641, -361264, 28707, -178363, 
    322231, -280245, -146648, -313360, 248892, 
    95639, 810836, -37853, -1037570, 122077, 
    45492, -1404998, -313424, -118485, -383024, 
    517468, -7282, 279719, -304534, 93010, 
    -70825, -281060, -165024, 79659, -111140, 
    -554273, -36742, -314015, -159782, -404970, 
    162059, -88341, -59980, 681379, -502217, 
    329628, -31783, 320535, -112882, -418868, 
    -148484, 437204, -153363, -151707, -359757, 
    -250231, -720189, -126959, -162896, -241788, 
    -201334, -82510, -165376, -179683, -400078, 
    -8719, -86202, 199146, -110841, 208338, 
    -12261, 492157, -142295, -184307, 332469, 
    -665138, 299401, -111747, 154468, -1453510, 
    121840, 282616, -478721, 163582, -550020, 
    -856400, -861781, 82571, -243634, -481677, 
    -447109, 109478, -348850, -194777, 72284, 
    -67771, 171037, 155592, 343651, -196169, 
    161036, 205782, 101666, -354446, -855367, 
    43838, 212672, -5986, 146284, 3209, 
    -232707, -703229, -195684, -147697, -102037, 
    -27095, 6560, -52860, -618511, 197634, 
    -122480, -9231, -57185, 213627, -31110, 
    108656, 150750, -113540, 497328, 145421, 
    545661, -372982, -301555, -117679, 390202, 
    91197, 623794, 6552, -365979, -364301, 
    -618853, 141443, -507942, 631440, 45346, 
    -593782, -668715, 205042, -450952, -1127006, 
    50307, 267963, -475151, -37804, 111701, 
    -380016, -170431, -229099, 474842, -548053, 
    -378487, 358019, -681720, -932900, -102965, 
    47842, -269522, -98177, -13104, 247047, 
    -112405, -119913, -37987, -277605, -284243, 
    307311, 516909, -64114, -211136, 378003, 
    136337, 160014, -215214, 250597, -598901, 
    74151, 7127, -1147206, 423424, -193941, 
    35485, -619639, -483544, -95863, 455289, 
    1272361, 277343, 230055, -103754, -255928, 
    -311511, 154217, -466428, 583728, -225083, 
    -558338, 836040, -343314, 339328, -608803, 
    1025997, 478095, 50459, 237278, -214059, 
    -287224, -211041, -529441, 255143, -742455, 
    220490, 38096, -529447, -1033459, -53722, 
    -220246, -199982, -313914, -452262, -482347, 
    -87779, -862255, 152384, 26474, 279529, 
    635063, 243504, 166317, -30463, -403598, 
    681596, 412724, -106576, 924116, -1428621, 
    541310, -161254, 420266, -571425, 74148, 
    6316, -388565, -898990, -233620, -65055, 
    -439016, 484109, 212270, -1213802, 569135, 
    -760545, -273337, 356880, 118993, 192068, 
    72855, -656850, 264960, -866032, 268239, 
    -200789, 189608, -593793, -447965, -137797, 
    60652, -306640, -774903, -790462, -244059, 
    117829, -640168, -300059, -79112, 13042, 
    -78712, -238270, 3866, 460494, 389324, 
    -1485323, 204024, -124285, -1539886, -137370, 
    -180874, 310391, -202398, -80773, 49892, 
    51967, 389643, -35325, -250604, -199019, 
    -552871, -21862, 327838, 139100, -477795, 
    -276233, -224922, -651509, 124620, -119380, 
    -847701, -572858, 156025, 58744, -632899, 
    -1702390, -441059, 498704, 250872, -50908, 
    69223, 47937, -141826, -167004, -6664, 
    379762, -68876, -934039, -134270, 277112, 
    -88303, 102298, -141499, 93519, -84125, 
    -311672, 206588, 50520, -104853, 922636, 
    542321, 119319, -351593, -313441, 344027, 
    -21619, 143258, -208772, -210355, -606244, 
    145088, 199127, -712494, 436980, -159022, 
    377322, -525374, -996240, -62756, -402328, 
    -217895, -475177, -652015, 897219, 188895, 
    -135663, 173720, 241173, -321031, -198706, 
    -85638, 77942, -563656, -141457, -49386, 
    -300594, 143201, 292750, -127786, 20357, 
    174589, -953951, -844222, -415173, 148609, 
    102380, -185886, 167510, -172577, -276114, 
    -47763, -83166, 7133, -250458, -66325, 
    -269859, 326329, -346536, -1456, 271300, 
    -503656, -326556, -208637, -61472, -648867, 
    440657, 273867, -46600, -286024, -473987, 
    514929, 62872, -159172, 60059, -211190, 
    145161, -264850, 282177, 442678, -73189, 
    -310207, -193649, 646410, -490320, 248053, 
    -333289, 366701, -57330, 390204, -290591, 
    160185, 548647, -392731, -158815, 348676, 
    -100523, 471374, -139267, -426272, -403927, 
    88728, -1033286, -122222, 267613, -1237405, 
    404925, 1534285, 167937, -450474, -358992, 
    -324121, 621875, -472705, -374993, -583615, 
    -224058, -97588, 755284, -200580, -130215, 
    -1840265, 175596, -234759, -820099, 196336, 
    -689121, 45575, -681486, 219536, -829877, 
    -472786, -282819, 152254, -146891, -507561, 
    24249, 200172, -1659697, -697175, -308242, 
    65900, -701716, -321086, -386600, 366457, 
    363311, -227888, -152020, 251891, -14039, 
    -218957, -362431, -46929, -194634, -349143, 
    -604768, -214605, 15854, -129729, -963693, 
    -481824, -332797, 426239, 468691, -319556, 
    343222, -500506, 656097, -401697, -275697, 
    -16425, 289430, -218705, -17094, 29340, 
    -1350, -263514, -223943, 191191, -55337, 
    -159063, 178478, -131180, 58997, -238984, 
    165497, -37122, -123132, -106148, 212808, 
    270890, 187516, -66531, -99910, 59394, 
    -174470, 13195, 39941, 147996, 147277, 
    -90175, -145886, -56040, 236577, -43807, 
    132887, 282008, -150926, 49032, 67412, 
    -184812, 75728, -48425, -217576, -118392, 
    -86677, -107575, -78524, -250314, 190081, 
    -26127, -236097, 236376, 177378, -215649, 
    -243458, 572, 251849, 72261, 48120, 
    6251, -62495, -72986, -94348, 277656, 
    306477, 133312, -399595, 119120, -536979, 
    80601, 684182, 145536, -555551, -70980, 
    -185726, -354085, 319573, 391026, 41924, 
    182174, 396688, -298070, 377791, -467941, 
    -383928, -191208, -453447, -523974, -334449, 
    -39711, -319102, 476779, 3770, -32238, 
    552692, 89517, 153842, 158583, 352058, 
    69641, -229301, -48422, 38519, 23831, 
    86295, -120493, -218972, -916119, -608372, 
    -34286, 101140, -321421, -76228, -598627, 
    -65483, -246055, 149272, -77828, 519657, 
    -934088, -475198, -94385, 97842, -21886, 
    59921, -919156, -667213, 196270, -18669, 
    -172178, 187458, 326210, 124604, -118583, 
    64105, 11828, -58094, -351489, 401262, 
    -618104, -132029, 557034, -334954, -467059, 
    -297921, -970703, -377718, -294362, -280175, 
    -444901, 642912, 119212, 179335, 381054, 
    -647080, 723193, 185892, 85768, -478473, 
    511478, 388201, -550995, -97955, -231388, 
    -506786, 251464, -129427, 162627, 37829, 
    272979, -126994, -594663, -1424838, -18972, 
    82364, -2107003, -91554, -65210, -9165, 
    -278653, -1076324, -605989, 246014, 508046, 
    -1825154, -94439, -911942, -681243, -125689, 
    250783, -90259, -121358, 27897, -32999, 
    52191, -68301, 2610, -59826, 157518, 
    36986, -81812, 9485, -25282, -35106, 
    61411, 193668, -73456, 12527, 68087, 
    121984, 18223, 13130, -85583, 39661, 
    93250, -162029, -151328, -297703, -3131, 
    109494, -37004, 80377, 17851, -6058, 
    154572, -140767, 48634, -43859, -175597, 
    139627, -192431, 137513, -11436, 52122, 
    -13528, -9246, 202741, 41421, -8784, 
    -85952, 78050, -188047, 83770, -51028, 
    -85575, -26854, -162022, -84136, 200362, 
    175406, 162401, -106953, 21192, 30840, 
    -403907, 38596, -344211, -327968, 625559, 
    -422432, -282507, -431066, -140096, 142796, 
    -214560, -898889, 27641, -544846, 46945, 
    221312, -609183, -795771, 2340790, -641270, 
    -420614, -843566, 203583, -34372, -57551, 
    -480714, -342649, -576033, -429981, -610513, 
    70402, 52610, -165148, 493036, -288502, 
    -472125, 493373, -135565, -574771, 505656, 
    -278542, -263973, -47226, 698742, -16419, 
    118505, 217260, -598068, 654045, 525276, 
    -1262450, -225885, 1284922, -830636, -978314, 
    1036869, 84919, -312829, -550012, -1870118, 
    -552476, 1897157, 82405, -18521, -224109, 
    297232, -41100, 11275, 109807, 26434, 
    303433, 388492, -6727, -372881, 17700, 
    585693, -59941, 271440, -213666, 260641, 
    -49805, 295105, -1578928, 182462, 368112, 
    -106488, -127119, 344662, -1400700, -547560, 
    95334, 407523, -1145005, 696622, -175925, 
    -135606, -719431, -236690, -651861, -792729, 
    -424601, -38833, 287859, -10475, -465505, 
    -10112, -746512, -120583, -151385, -257435, 
    1517, 130735, -235098, -97591, -84095, 
    -158552, -226702, -815717, -944756, -111389, 
    58637, 192977, -123866, -144817, -225141, 
    -293616, -89481, -145668, -340388, 274129, 
    473162, 637967, -696559, 63279, 129132, 
    -218121, 500890, -292810, -285380, 276438, 
    -245622, 33209, -143378, 49654, 170351, 
    268459, -1085926, 152352, 65142, -266931, 
    -248464, 455100, -218688, -887623, -138571, 
    455655, -505019, 194333, -353484, 15592, 
    -354019, -574566, -691024, -448942, -579950, 
    -201428, 987898, -14952, -651297, -565171, 
    -7734, -277842, -157254, -106641, -430192, 
    970845, -2538, 137020, -423045, 151513, 
    -1509744, -447508, -796275, 635431, 285773, 
    -736771, 151420, 557913, 155653, -646967, 
    -96173, -83514, -867877, -417010, 1160662, 
    1301434, -138152, 387740, -981734, -977869, 
    1036485, -298307, -350131, 33749, -574939, 
    -556312, -91644, -1125260, -865759, -348933, 
    -779674, -72967, -586130, -25955, -556282, 
    -811562, -1430978, 866, -93171, -922650, 
    -383690, -1053166, -712657, -588599, -95439, 
    1730049, 169298, 5953, 224128, -271047, 
    -122479, 64979, 40536, 790850, 277178, 
    8497, 566287, -373476, 99298, -272799, 
    18775, -436828, 755871, -67219, 380380, 
    49664, -27129, -202190, 252834, -17428, 
    -66100, 736012, -12228, 265432, 337704, 
    270043, -1500053, -1458847, 875126, 557441, 
    373772, 440188, -697670, -632915, 1163555, 
    -293412, 225609, -1604439, -333944, -280532, 
    -67668, -1164889, 103801, 387657, -1846774, 
    -91571, 401569, 414263, 648529, -627391, 
    -1234488, 184187, 290545, -560103, -373136, 
    511041, -293484, -217338, -186145, 1194128, 
    -419287, -943781, 149819, -418259, -175456, 
    -312795, -1178856, -67315, -168810, 786218, 
    261793, 192777, 12723, -363692, 90794, 
    25963, -588347, 273008, 539163, 583464, 
    1549431, -272358, 399014, -1102897, -1035044, 
    575339, 329061, 848443, 276194, 281444, 
    1624967, 610117, -112866, 306480, 48506, 
    241101, -1271083, 1083474, -1113903, 859881, 
    -539820, -614264, 737345, 560345, -1979376, 
    -505771, 979581, -1588502, 160516, -869444, 
    299254, -773284, -846570, -1115648, -324508, 
    83842, -9336, 483926, -361033, -1495670, 
    -3021551, 1105741, -187490, -2540806, 166121, 
    240218, 121143, 68555, 171613, -1226339, 
    105801, 46237, -321790, -1981351, -150509, 
    -804415, 170421, -231488, 235071, 322645, 
    -156488, -99127, -99781, -223761, -176571, 
    -20405, -1228970, -66389, -652701, -210006, 
    -856345, -207789, -135606, -102909, 796939, 
    362473, -3840, 181061, -279383, -446831, 
    -781274, 159328, 466728, 322046, -677737, 
    127848, 96450, 182254, 226291, -1397881, 
    190888, 2087, -2422841, 267228, 562690, 
    -822329, -1178752, 220028, -244493, -162423, 
    -107929, -6473, -190884, 1364496, 18159, 
    121855, -701006, -381546, 1553877, 1234916, 
    -1292805, 887575, -2038299, 143345, 1221061, 
    -704971, -209173, -739541, -184536, -77949, 
    -790831, -1418307, -244985, -811213, -849773, 
    -710628, -1121632, -1287903, -1263414, -1163149, 
    -232265, -1005811, -775639, -1003165, -211859, 
    -1620922, -128097, -29289, -592019, -2939822, 
    1184645, 1076830, 393744, 561165, -468402, 
    -837174, 1037395, -61489, 129330, -863016, 
    -369209, -188545, -46549, -1030393, 301469, 
    154757, 110881, -629499, 462108, 513942, 
    837584, -1223690, -1227556, -157165, 125759, 
    -1242095, -657148, 602718, -203156, -225749, 
    342184, -803022, -942435, -327049, -1676648, 
    -113016, 852237, 1007244, -1374389, -439835, 
    -268130, -378205, 1007648, 1384627, 721044, 
    809332, 139240, 559244, -1398275, -347184, 
    1278772, -942348, -1150334, 426914, -56143, 
    -551904, -461745, 694837, -99628, 1242165, 
    1267597, -1669822, -547437, 1043963, -942285, 
    -703174, 135783, -350387, 702475, 265812, 
    -623872, -1308580, -486516, 930098, 84918, 
    -187805, -325091, 656129, 5687, 134098, 
    -868455, 375789, 348833, -3032586, -1895658, 
    1006581, -718434, 201848, 8598, 819993, 
    738068, -2080523, 63146, 38340, -388918, 
    -678950, -1218488, -1137259, -273670, -404641, 
    -1342729, -211723, -1413154, 110018, 528279, 
    137467, -75067, -114007, 154916, -1221305, 
    110983, 64174, 95905, 99435, 331898, 
    264462, 18029, -637153, -1774067, -314033, 
    -133005, 111377, -1171681, 407323, -46262, 
    -104783, -1311770, 195347, 621582, 738001, 
    -411175, 150901, -1397790, -209888, 435309, 
    275161, -176061, -467239, 93474, -162411, 
    13838, -890882, -529078, -161696, 1573048, 
    -246030, 39566, -269576, -793676, -1277945, 
    -14560, -291122, -985244, 47686, -317077, 
    -164674, -89776, 8250, -1891363, 583689, 
    -1487802, -1063600, -516837, -1044037, 1689989, 
    871095, -1144922, 209652, 76897, 861275, 
    219949, 253975, 401092, 1301380, 429200, 
    416786, 385609, 522890, -271076, -555841, 
    -1108704, 1402844, 1395102, -167919, -193120, 
    1158392, -192547, -254710, 310351, 165708, 
    -406412, -681100, -278586, -471359, 449108, 
    -227097, -359445, -138243, -732499, 375442, 
    -35415, -939990, 50708, -439404, 13009, 
    -8151, -364361, -422904, 276135, -722468, 
    -1165993, 634827, 1193494, -473973, -75092, 
    -280485, -189082, -112315, -220287, -1252929, 
    149400, -22069, -3976, 38940, -5881, 
    106081, -499475, 5528, 147452, -158509, 
    -42752, 951498, 257585, 49707, -263678, 
    -154367, -799183, 181381, -717460, -554918, 
    633145, 30502, -533430, -713168, -180618, 
    -260237, -100606, 299592, 149237, -75513, 
    221623, -522062, -386599, -431782, -303669, 
    -1909039, -159776, -240126, -65064, -315166, 
    271126, -1134169, -141033, -154835, -463231, 
    -1090602, -213348, -699559, -24461, 273829, 
    -198497, 106147, -1157038, 202443, 686042, 
    -160746, 278006, 225972, -954966, -1918264, 
    -787868, 189691, -718257, 1022720, -204958, 
    -93017, -492096, -1554000, -289785, 3005, 
    -449422, -281181, -61054, -354591, -318184, 
    119388, -637443, -830158, -669405, -829058, 
    -215473, -58256, -528004, -504196, 2054777, 
    -243013, -1016437, -140105, -138766, -195461, 
    -580182, -773503, -9701, -590024, -241496, 
    -1539246, -605787, -895521, 162197, -595333, 
    -944309, -515790, 347913, -167242, -1019351, 
    263602, -788238, -887183, -464257, -450620, 
    509669, 595987, -89390, -615657, 152032, 
    -916697, -1570593, 106201, -635233, -279395, 
    -946508, -192055, 1622568, -568473, -394100, 
    -18828, 485927, -768618, 479869, -506602, 
    -1059295, -658600, 357991, 409749, 94796, 
    -39453, -101556, -479230, 131346, -309240, 
    -426306, -301717, -78346, -216455, -370896, 
    153159, -111518, 481360, -683135, 73008, 
    445585, -109097, -598991, -152913, 373538, 
    460073, 302530, 42994, -346515, 711798, 
    338917, -98739, 47772, -59227, 240051, 
    -224384, -258669, -1968, -253460, 37469, 
    -92833, 207299, 3300, -278612, -266540, 
    7781, -303199, -83275, -276336, 272174, 
    -33783, 228587, -2154, 223966, -280933, 
    -264941, -158016, 189349, 245109, 238178, 
    -125424, 205486, 197750, 9595, 181893, 
    217052, -706743, -802284, -351036, 48048, 
    466255, 441351, -1070895, 910975, 87598, 
    -314998, -23762, 111444, 761995, 350899, 
    -98365, 168072, -1894198, -828853, 416708, 
    -1258023, -1205282, 842, 101313, -395329, 
    -417481, 478395, -289665, 542222, -475999, 
    77174, 227434, -1836330, 27709, -153633, 
    -539685, -100984, 243289, -232291, -3438, 
    -192952, -487520, -1438628, -20912, -312694, 
    -40078, 118362, 18424, 49445, -24628, 
    -26884, -1283041, 95133, -794013, -428473, 
    91421, -317186, -836547, -501988, 349444, 
    -1302817, 23345, 154640, -404834, -345587, 
    571262, 43675, -420051, -123144, -801925, 
    541874, 1443765, -204844, 59587, -114739, 
    182486, 482943, 431401, -697043, -188170, 
    494264, 250436, 794169, -556177, -741852, 
    -1195442, 23919, -963176, -347895, -821952, 
    216287, -176854, -834159, 12757, 113250, 
    -338083, 59509, 555240, 558930, 196708, 
    111115, -760861, -27065, 577991, -161374, 
    -648623, 225365, -125685, -111261, -208033, 
    -329124, 98520, -470326, 550863, 128607, 
    -311394, 293393, 704317, -134812, -441652, 
    -335781, -533673, -12695, 6139, -1194575, 
    -33948, -86662, 117189, 203773, -1288954, 
    -1453855, 40951, -1051244, -1074714, -119137, 
    -1313936, 192317, -754494, -439016, 260086, 
    -86171, 153576, -1064970, 61752, 100648, 
    585607, -217122, 8936, -180173, -310680, 
    -397172, 104326, -1397044, -635421, -955468, 
    -161500, 106116, 108136, 177581, 1462172, 
    284981, -472054, 63963, -47807, -384862, 
    -710762, 1686480, -988313, 505385, -446406, 
    -487931, 927008, 401930, 604439, -553764, 
    742592, -576087, -152615, -889768, 686823, 
    -967765, -856548, -1152090, -985116, -719628, 
    369878, 948880, -940019, -786939, 1374656, 
    691669, 584413, -94011, -291888, -807915, 
    471388, -193152, 484868, 285436, -202602, 
    -34327, -261428, -369470, 191787, 160926, 
    -181935, 506221, 146892, 64947, -1888626, 
    316110, -18116, 525749, 886374, 359535, 
    371277, -829973, 78475, 259013, 144474, 
    326051, 193563, 201989, -983421, -1660647, 
    1046441, 643502, 198484, 1086563, -1144977, 
    -1252634, 824447, -376095, -79805, -1195980, 
    -488947, -591352, -730340, -455715, -416609, 
    -272845, 178008, 168387, -890031, 639024, 
    1129231, -633076, 148594, -840736, -444706, 
    -601924, -253565, -94069, -618970, -665891, 
    614673, 745366, -1320153, -1437484, -310414, 
    -1071761, 2297082, 626971, -1611745, 335157, 
    687419, -623558, -328733, 708156, 620745, 
    1622210, -1095, 321553, -996778, -343078, 
    557779, -405306, -1325114, 784237, -812231, 
    -1600171, -424753, 608214, -119809, -281884, 
    737783, 392416, 98928, 1260128, -582367, 
    -611474, -237691, -157668, 251992, 467493, 
    -729809, 619173, 239512, 43143, 87454, 
    -73204, 267028, 633119, -12592, -674512, 
    233671, -30722, -587647, -613950, -903726, 
    -28036, 606200, -420179, -475198, 285985, 
    635012, -912700, 139906, 212463, -376652, 
    -245526, 465387, 322175, 198305, 583542, 
    -338337, -555302, 54694, 117885, -26134, 
    133105, 67540, -259577, 48092, 129320, 
    36332, -164331, 497856, -103196, -301968, 
    114877, 319462, -88901, -326371, 41929, 
    140660, -58215, -142640, -350198, 19968, 
    89245, -124349, -491363, 419731, 327194, 
    -438580, -43864, -732610, -1043836, 498358, 
    -116296, -640125, -1436660, -307404, -560563, 
    79380, -989652, -480696, 306641, -602510, 
    -9495, 891245, -578838, -558693, -288315, 
    -1205258, -632168, -911084, -232471, 72673, 
    1296702, -303601, -324000, -63411, -690496, 
    538032, 348158, 530258, 327863, -1010185, 
    -63625, 639484, 346247, 277706, 461624, 
    101046, 247935, 170932, -1596520, 193518, 
    315211, -530358, 31392, 248448, 501637, 
    1251620, -314383, -626213, -216450, -200024, 
    163476, 173098, 119153, 125821, 190191, 
    1274842, 1899127, -524718, -544418, -313911, 
    224859, -1423896, 1575123, -148158, 752631, 
    82617, 1199753, 487501, 1384604, 617307, 
    -1123287, 253490, -810244, 1361448, 160094, 
    736379, 983364, -1320789, -1385648, 37728, 
    142296, -575488, 630571, 599012, -481781, 
    814730, 508939, 283250, 584549, -905677, 
    -464949, 626381, -776803, -180739, -2001503, 
    -1361169, 639429, 22911, -714028, 789851, 
    732984, -260063, -69046, -111150, -1688202, 
    -856920, -905816, -1584356, 473534, 1010383, 
    50062, -464192, -286796, -341122, -475679, 
    -210742, -1734679, 708688, 714666, -32914, 
    -404837, -1262618, -1066163, -378375, -876004, 
    -277282, 1079, -1298412, 105472, 246839, 
    79334, 33819, -91494, 94223, -44650, 
    111502, -1099072, 186520, -115841, -276964, 
    362388, -1317968, 133370, 474705, -745718, 
    269406, -11052, -367797, -1161403, -70020, 
    114500, -592494, -215007, 420334, 243250, 
    75304, 268580, -134918, -602955, 489174, 
    -154978, -539456, 61538, -253376, -635105, 
    -264581, -247682, -352852, 30639, -130975, 
    6758, -203493, -522913, -150336, -286190, 
    -826902, -206283, -135804, -230708, -435468, 
    -235430, -281862, -203045, 131489, 795384, 
    -238089, -361215, 190145, 70185, 675324, 
    155599, -307703, 29402, -472096, 307518, 
    -87308, -1125094, -14057, 579021, 218194, 
    173038, -875098, 109539, -438145, 134010, 
    381839, 406352, 596373, -619736, -308933, 
    282985, 306307, -181929, 119398, 8829, 
    285996, 232307, 923571, 848771, 75707, 
    750170, -467744, -227262, 1129905, -332234, 
    224785, -363407, 272936, -122172, 193075, 
    -734246, 167050, 433480, 237917, -141749, 
    -222702, -28482, -408053, -116296, -25844, 
    490118, -316458, -291115, 50404, -258138, 
    -102598, -167854, -316823, -51883, 818847, 
    739978, 341919, 441630, -300793, 264816, 
    628536, 153082, -118269, -129168, -337602, 
    -7508, -200986, -276014, -321288, -396937, 
    394945, -722000, -1839278, 190028, 424347, 
    -792351, -279540, -563022, -185676, -778555, 
    -470876, -2332015, -195675, -270701, 500202, 
    524678, -587583, -569772, 189663, -668373, 
    1321878, 549664, -686395, -465767, 434105, 
    449365, 155391, 294617, 387085, 1170954, 
    358445, 248979, -2387437, 90027, 246147, 
    583750, -148805, 743679, 414619, -1259297, 
    -283448, 561786, -138628, -558553, 322212, 
    209904, 541005, 1431377, -631020, -606231, 
    -605221, -199394, -2284940, 856431, -579749, 
    -191993, 957466, -277471, 298059, 757278, 
    726623, -2083033, 73742, -1959577, -1591546, 
    -321114, 471858, 467778, -432965, -2085938, 
    527431, -497944, -263587, 315254, -66022, 
    -548943, 723298, 615164, -866506, -634736, 
    -415302, -93869, 685335, -194839, -223473, 
    -183709, -277043, 326060, -162587, 382774, 
    337157, -1989466, -378774, 147069, -169858, 
    -1650414, -930072, -241652, -1146489, 756822, 
    1733543, 157504, -90141, -67856, -443418, 
    61019, -470965, -1160599, 273963, 266736, 
    -585068, -303495, -275570, 211634, -85963, 
    8062, -818055, -60770, -356668, 81563, 
    156098, -392014, 121996, 297305, -205600, 
    -370282, -178652, -808792, 2311944, -748089, 
    -387297, -140215, -272807, -482240, 602224, 
    -564122, -687416, 37648, -177341, -460413, 
    217155, 212932, 99891, -3407034, -68588, 
    162196, -52337, -69883, -31530, -925442, 
    22923, -409366, -52500, 235568, 51507, 
    -530030, -393383, 193661, -199264, 98554, 
    -715960, 214634, 174333, 61846, 30644, 
    164568, -1220485, -191108, 56407, 339627, 
    384633, 554218, -32178, -11748, 94223, 
    337030, 136970, 37531, -478844, 478296, 
    -130138, -500664, -80157, 900796, -127414, 
    -273528, -550842, -544346, 288291, 277929, 
    -280595, -678772, 962030, -377291, -498600, 
    -292125, -469038, 431202, 70140, -307617, 
    -152981, 369726, -86185, -254311, 152338, 
    -457234, -319421, -16427, 238314, 400541, 
    265638, -79817, 250004, -438786, 331254, 
    -196037, -187863, 123195, -210473, 406923, 
    -45808, 190438, -91858, 68178, -377379, 
    68722, 490930, -239665, 295649, 168094, 
    96385, -145769, -126640, 146604, -149394, 
    653009, -177169, -88385, -936, 1768221, 
    -1288797, -1074775, -1754505, -724901, 565773, 
    -1956871, -1038520, -963528, -222405, -1263036, 
    53648, -973141, 262165, 696551, 328688, 
    -49301, -1583210, 352589, -1665973, 7474, 
    -1433722, 958940, -986259, -1477927, -626828, 
    864498, -679465, -587679, 425654, 191818, 
    -93205, -1316782, -74358, -919878, -88392, 
    -268781, -992888, -137061, -842192, 157510, 
    -484868, -156486, -90656, 234717, 48098, 
    -325988, -614827, -1490477, 1223533, -155818, 
    -359899, 132034, 243870, -750354, 557295, 
    198531, -297471, -210703, 38398, -1094430, 
    -38260, -35509, 117996, 197576, -289349, 
    -187640, -408048, -126149, 440628, -41683, 
    -50118, 353140, 179021, 212594, -55998, 
    -6639, 325865, 93497, -68760, 356272, 
    151831, 62006, 267823, -295428, -827938, 
    215636, -436189, -708806, 176316, 146961, 
    -291956, 280953, -9293, -122428, -409714, 
    -1163204, 20956, -117875, 65780, 148868, 
    -270556, -608772, 18836, -299391, 1324790, 
    -228500, -94866, 421010, 74413, -234221, 
    -117589, 95598, -1679717, -407711, 729935, 
    447416, 929492, -146579, -1304453, -191708, 
    -819639, 62933, -275350, 1021082, 3433, 
    50000, -604669, -239446, -576086, -630205, 
    -534104, -509495, -400449, -417725, -565662, 
    646279, 140159, 39685, -550256, -653898, 
    276810, -259948, -117769, -1170899, 855608, 
    -1151695, -1315939, -713602, -585543, -361602, 
    118427, -97201, -469844, -896605, -769665, 
    -1843799, -417208, -664855, -82641, -255785, 
    -1876282, -1501348, -99580, -531458, -781615, 
    -227037, -2211619, 330859, -1173561, -297917, 
    -91406, 246367, 293274, -760099, 122119, 
    -7376, 187229, -113877, -7606, 263892, 
    -188288, -534974, 7479, -1131945, -1272063, 
    -741593, 111480, -224751, -95548, -158917, 
    66118, 110232, 486976, 552463, -98909, 
    660063, -1237880, -227113, 340098, -52171, 
    -520303, -134672, 36858, -26276, -274237, 
    -620229, -483442, -679053, 1254069, -143864, 
    -1011882, -397522, 947108, -377252, -777834, 
    283499, -715364, -319932, 111857, -1367766, 
    -7012, 127173, 1204167, 1652572, -984012, 
    -586488, -302339, -801747, 515226, 1064132, 
    -787545, 610478, -564072, -1445406, 583999, 
    713673, 468283, 466400, 532495, 317353, 
    -1033127, 413329, 299162, -1086094, -1153214, 
    776089, -574710, -250610, 78089, 819441, 
    -272077, -1882547, 391359, 259286, -1024546, 
    781833, -4114, 152013, 115152, -261493, 
    -1568592, 658083, -59960, -833989, -225223, 
    769136, -60564, -2529945, 188160, -1280819, 
    139765, -543688, -1907014, -388021, -1712126, 
    816850, -723375, 1023921, -746843, 597274, 
    124743, 311042, 335960, -1232074, 442588, 
    187603, -932312, -248784, -398853, -373366, 
    1069167, -185847, 96445, -96340, -799067, 
    59172, 920639, -354652, 965495, -27112, 
    862126, 359623, 947327, 1249824, -1493604, 
    -690986, 1603801, 1423855, 73298, -399947, 
    304951, -480575, -501597, -398339, -169873, 
    2227465, -1560509, 895423, -135691, -86485, 
    287450, 220443, 27205, 126170, 3956, 
    -63987, 278822, 175555, -307174, -104630, 
    -72034, -152780, -126064, 13045, -135520, 
    -100232, 298835, -99576, -217941, -153389, 
    -20070, -95518, -312172, 276396, 12916, 
    -35314, -226157, -258642, -47305, -36465, 
    228157, -528462, -3030, 1874504, -1320066, 
    88998, -51618, 2387, 714681, -7866, 
    -503644, -175918, -229759, -37575, 202035, 
    -339272, -497722, -51096, 722, 245008, 
    2546383, -300362, -115801, 392, -194266, 
    -684, -267459, 391310, -23989, 7124, 
    -32075, 122956, 1142737, 4728399, 11740, 
    -19455, -931030, 77812, 84976, -118, 
    48991, 11447, 29121, -114883, -40008, 
    -13871, -15480, 142458, -468491, 4246109, 
    -3177, -31649, 462132, -17379, -24014, 
    -172, -7622, -3665, 3447, 5665, 
    19905, 33584, -24917, -9747, -48447, 
    -101677, -4488, -290648, 139684, -32997, 
    61041, -433, 80557, -17894, 107226, 
    13525, 135553, 924353, -639861, 182280, 
    -243917, 2654047, -10310, 9573, 184091, 
    -14895, -84189, -53, -33377, -10509, 
    -76609, -37669, -42839, -74291, -38382, 
    -71163, 2568724, 264405, -614, -98526, 
    150223, 106320, 30479, -484, 56077, 
    276, 46067, -145621, -16440, 97455, 
    307893, -894510, -616155, 303092, 1521, 
    1004044, -1031239, -421340, -138213, -1197, 
    -191239, 3291, 1277566, 556646, -623260, 
    102931, -142693, -93681, -649285, 4733986, 
    -5854, 71124, 448419, -68556, -51147, 
    -199, -44006, -6574, -26249, 133219, 
    28595, 16648, 63024, -145480, 44234, 
    -42156, -609, 263702, -100215, 10722, 
    -270909, -782, -105259, 4354, -143510, 
    -17544, -149767, 334839, 761334, -27482, 
    -129492, -253678, 12493234, -209483, -222604, 
    -203251, -762729, 1975, -119760, -5736, 
    99641, 209209, -775274, -392885, 249045, 
    -571028, -924071, -128760, -1963, -396773, 
    -546959, 1624615, -9117, 1109, 96414, 
    -3364, -229240, 870519, 171210, -100167, 
    180398, -532186, 18857, -344256, -124, 
    252482, -474296, 35484, 198860, 2852, 
    -513281, -5799, 173515, -62205, 374523, 
    -37596, -37220, -17295, 148553, 300224, 
    -568, 1012080, -252731, 17388, -113477, 
    -1694, -80455, -254, -638462, -29089, 
    2206801, -74153, 15570, -319269, -65110, 
    -118812, -3887, -535236, 237938, -42721, 
    428062, 487, 193970, -13460, 236022, 
    45729, 277806, -556605, 442259, 161937, 
    2355628, -423302, -1597, 227350, -240084, 
    -31459, -14851, 797, -119540, -6595, 
    -90730, -106323, -82656, -172556, -330102, 
    842910, 21023, -77985, 2658, 468123, 
    -253347, 15667, 366622, -22, -180734, 
    680, -131353, -9898, -167434, -718240, 
    19832, 164359, 49706, -75808, -912, 
    -45311, 14422, -57558, -105325, -307, 
    16517, -8427, -32207, 28187, -8016, 
    -51068, -708120, 1624046, -6923, -17389, 
    -604, -35293, 12425, -2875, 39164, 
    157, 10865, -5355, 13423, -242, 
    15780, -78347, 4115281, -26017, 504624, 
    291705, 8855, -204978, -74088, 149537, 
    101071, -183, 79755, 10139, 71563, 
    -308739, -22446, 59785, 104748, -385400, 
    -161814, 126851, 1011, 781453, -341302, 
    326035, -82154, -1846, -259772, 320, 
    -157025, -281968, -270170, 223499, -635218, 
    2199006, -28044, -51102, 93, -297978, 
    134474, 212, 1111801, -127, 17103, 
    7822, 111279, -10601, 97769, 835961, 
    -125350, -22059, 22873, 55353, 1527, 
    205314, -94184, 4903, -482919, 312, 
    -22065, 1055, -63931, 840, -72231, 
    3889844, 34530, -107684, 1340886, -36599, 
    -183, -174715, -840121, -786792, -47097, 
    -69, 27404, 353, -360763, 1241362, 
    166744, 136827, 12117, 231849, 23303, 
    -5432, -1300, 136438, -26758, -3445, 
    -52006, -536, -13326, 7705241, -99101, 
    -7397, -107092, 18357, -13173, -58325, 
    -2197282, 1904507, -1058, 129495, -450642, 
    -67992, -50055, 2117, -54905, -722, 
    -112465, -79, -80470, -112200, 4671, 
    -47345, -596684, -271925, -28815, -357655, 
    342544, -172394, -310760, -4723, 133795, 
    -36444, -67358, 281849, 190075, 6020, 
    -81880, -156600, 1271930, -63013, -2594, 
    267816, 1023876, 737296, -40138, 102, 
    -56637, -2307, 370091, -986754, -101141, 
    -66337, 146838, -468553, -140815, -129543, 
    -4066, 71234, 20541, -48390, -47800, 
    7910202, -30922, -6992, -37914, 85477, 
    -2361, -10928, -31309, 94134, 104643, 
    -68376, -419, -438570, 195704, -206486, 
    23385, 1197, 141540, 1154, 75332, 
    175950, 141773, -91694, 162986, 5337067, 
    -170460, -36434, 1450, -1262065, 662294, 
    -41804, -234789, -354, 490144, 6108, 
    517162, 72480, 416595, 361602, -170465, 
    332575, 95268, 437655, 754, 563491, 
    32192, 503, 609398, -2297, 234429, 
    582, -500252, 4515, -622096, 152243, 
    -374942, -324492, -12276, 111054, 2408, 
    -31301, 2736, 12502, 48662, -144, 
    19507, 6441, 42438, 8266, 27590, 
    -15079, 1270, 40753
};
