idx,weight
0,0.3190098107
1,0.08451795578
2,-0.4470055997
3,-0.1471109986
4,-0.5816144347
5,-0.1497014165
6,-0.3187142909
7,0.5992693305
8,0.07131131738
9,-0.06873100251
10,-0.04415547103
11,-0.05364576355
12,-0.3079587221
13,-0.1155754998
14,-0.4046420157
15,0.1688485444
16,0.4088943005
17,-0.555750072
18,-0.224394545
19,0.2105971277
20,0.5608693957
21,-0.2204670161
22,-0.06468106806
23,-0.5918172598
24,-0.1190979481
25,-0.07541864365
26,0.03033937141
27,0.2811999023
28,0.6817075014
29,0.2725445032
30,0.1867021471
31,0.21176368
32,-0.2968629301
33,0.3177003264
34,0.1010843217
35,-0.286914289
36,-0.1653924733
37,-0.02850010432
38,0.6001600623
39,0.1165949702
40,0.08686235547
41,-0.3148276806
42,-0.4171688557
43,0.2245615125
44,0.03028007783
45,-0.2652914226
46,-0.345851928
47,0.3308269382
48,-0.1344057769
49,0.0006942226319
50,0.01541196462
51,0.2071375549
52,0.08422250301
53,0.7005101442
54,0.1176864654
55,-0.1278078556
56,-0.9261918068
57,-0.4822456241
58,0.2136536539
59,0.02242330648
60,-0.4344928563
61,-0.1049400568
62,0.1840367466
63,0.4546078444
64,0.2476271987
65,-1.00602591
66,-0.3887222111
67,0.1229682118
68,-0.8327942491
69,0.2923918962
70,-0.2651808858
71,0.2786568105
72,0.4616656005
73,0.1965146065
74,0.2736478448
75,0.2830905318
76,-0.6175668836
77,0.06773945689
78,-0.2308377922
79,0.5445291996
80,0.2835853696
81,0.1340726912
82,0.1871605068
83,0.2348880619
84,-0.4395364821
85,-0.1056677848
86,-0.3483496606
87,-1.375699997
88,-0.2495922893
89,-0.1527199447
90,0.4957439005
91,0.3915317357
92,0.08989390731
93,0.3250924051
94,-0.2810632586
95,0.3184507787
96,0.2394454628
97,-0.2280166745
98,0.1785224676
99,-0.5763111115
100,-0.09701277316
101,-0.4557777941
102,0.3109218478
103,-1.17716217
104,-0.3639016449
105,-0.7125940323
106,-1.127297997
107,-0.03221417964
108,-0.9751418233
109,-0.3338962197
110,0.1892458946
111,-0.1308449209
112,0.2939891219
113,0.4009053111
114,-0.2508544326
115,0.5388673544
116,-0.7931790948
117,0.224569276
118,0.00194532657
119,0.4944750369
120,-0.7039780617
121,0.7239083052
122,0.2808802426
123,-0.2986086607
124,-0.163685441
125,0.3658650219
126,0.3901027143
127,-1.146562457
128,0.4083744287
129,-0.04789570346
130,-0.7467051148
131,0.6454507709
132,-0.01596777141
133,-0.3391583562
134,0.2358822972
135,-0.3122743368
136,-0.4410060346
137,0.3450839221
138,0.2074027359
139,0.452308774
140,0.4385327101
141,0.4270039797
142,-0.4564522803
143,0.3247475326
144,0.3449680209
145,-0.1512893438
146,-0.3012142181
147,0.4457458556
148,0.4379606247
149,-0.3442734778
150,-0.2241352946
151,-0.1293476224
152,-0.2587785721
153,0.4823668301
154,-0.006242141593
155,-0.374966383
156,-0.09475506842
157,0.4422526658
158,0.5423963666
159,-0.3828850389
160,-0.3327254653
161,-0.279633373
162,0.3154594898
163,-0.08018290997
164,-0.7450012565
165,-0.4178108275
166,-0.3003427386
167,0.4340102673
168,0.1904317439
169,-0.1911532432
170,0.1057273299
171,0.5736938119
172,-0.1839345545
173,0.1697207391
174,-0.2232435197
175,0.5236082673
176,-0.4521216154
177,0.2068810761
178,-0.2546147704
179,-0.2026259601
180,-0.5334830284
181,-0.1366307288
182,-0.7618094683
183,0.2870683968
184,0.2009889185
185,-0.005665042903
186,-0.07494864613
187,0.05607968196
188,-0.1445666999
189,0.03464906663
190,-0.1740541756
191,-0.5081207156
192,0.03991176188
193,0.2393969893
194,0.4096555412
195,-0.180303961
196,0.01442000829
197,-0.308480233
198,0.3482826054
199,0.3408535421
200,0.2142382115
201,0.6165729761
202,0.00938782841
203,-0.4516938329
204,0.1489810497
205,0.06889777631
206,-0.5574775338
207,-1.368092299
208,-0.01489975862
209,0.5781441927
210,-0.03940943629
211,-0.257171303
212,-0.1675216705
213,0.1125732958
214,-0.1252761185
215,0.0619933717
216,-0.02653821185
217,0.07069955021
218,0.2491863817
219,0.151246503
220,-0.4730248153
221,-0.03690185398
222,-0.04374925047
223,0.6912611723
224,-0.6155768037
225,0.1941740066
226,-0.6726326942
227,0.2828891277
228,0.3977305293
229,0.1655580252
230,0.106808044
231,-0.02670351602
232,-0.2523345649
233,0.04450088367
234,0.7725741863
235,-0.6295606494
236,-0.198559761
237,-0.0775725916
238,-0.2678826749
239,-0.1827994287
240,-0.3105572462
241,-0.1611233801
242,0.06113592163
243,-0.393583566
244,0.2408412397
245,0.1122822389
246,0.002604444046
247,-0.4447245598
248,0.06086084992
249,0.05630907789
250,0.3598564267
251,-0.2585923672
252,0.3509105146
253,-0.08325138688
254,-0.2717607021
255,-0.2740833759
256,0.324303925
257,0.1941158473
258,0.2332435995
259,-0.145719409
260,0.4877747893
261,-0.2829245925
262,0.1391182393
263,-0.02018556371
264,-0.6440436244
265,-0.4077862501
266,0.1554608196
267,-0.5225195885
268,-0.2401322871
269,0.5653072596
270,-0.1732713282
271,-0.1164232567
272,-0.06122824177
273,-0.3286256492
274,-0.1760883629
275,-0.5880001783
276,0.6890159249
277,-0.3488974571
278,-0.3640939891
279,0.4797053933
280,-0.4797945321
281,-0.5361109376
282,-0.0001828174718
283,0.3597184122
284,-0.4449257255
285,0.1675148457
286,0.7045894861
287,0.02255262993
288,0.7797139883
289,-0.07476788014
290,-1.438565969
291,-0.401686579
292,-0.0545911938
293,-0.1499391943
294,-0.7500705719
295,0.3840925395
296,0.3334275782
297,-0.1243729442
298,0.03625410795
299,-0.5483122468
300,0.5423527956
301,0.194662109
302,0.5657377839
303,0.1740004718
304,0.1926523447
305,-0.477917105
306,-0.9546993971
307,0.6404582262
308,0.368579179
309,-0.08058782667
310,-0.06929288805
311,-0.5552411079
312,-0.3091736138
313,-0.2083904892
314,0.3055075109
315,0.4053281248
316,0.2576283813
317,-0.3639885783
318,-0.7159132957
319,-0.5923051834
320,-0.363686502
321,0.3121415079
322,0.04094504192
323,-0.2878887951
324,-0.001814885298
325,0.06815570593
326,0.2334975749
327,-0.1620916426
328,0.07310516387
329,-0.3786242604
330,0.1038062647
331,0.5795250535
332,0.7650837898
333,0.1373424232
334,0.06778966635
335,-0.1800685525
336,-0.5573176742
337,0.218230769
338,-0.003831109963
339,0.107340239
340,0.4272871315
341,-0.2690321505
342,-0.0463398546
343,0.2333636582
344,0.2944138646
345,0.06661430001
346,-0.4133134186
347,-0.3213804066
348,0.3532843292
349,0.002792595187
350,0.2232958078
351,0.1810177267
352,0.3799215257
353,-0.6449819803
354,-0.08613480628
355,0.06710736454
356,0.1886805296
357,-0.1171080023
358,-0.927385509
359,-0.09760124981
360,0.1169487834
361,-0.00883796066
362,0.4333127141
363,-0.4245818555
364,0.4168538153
365,0.00565502001
366,0.145783022
367,-0.2817364931
368,-0.1241297722
369,-0.5045464635
370,-0.2175557166
371,-0.2200659513
372,-0.3537054658
373,-0.3873361647
374,-0.2818049788
375,0.520880878
376,-0.7834529877
377,-0.8529726863
378,0.1473244876
379,-0.2302378118
380,-0.2799732387
381,-0.3004740477
382,-0.1794387996
383,0.4307970107
384,0.4983618259
385,-0.1849966198
386,0.1517391503
387,0.5189566016
388,0.4181026518
389,0.01729180291
390,-0.003677225439
391,-0.1852581501
392,-0.06117582321
393,0.1039214432
394,0.04262928292
395,0.4153348804
396,-0.01957627013
397,-0.3906009495
398,0.04680933803
399,-0.5619215369
400,-0.7255726457
401,0.2139606178
402,-0.006272661965
403,-0.03202711418
404,0.1468405873
405,0.373213172
406,-0.1087239981
407,-0.6701135635
408,-0.0340780206
409,-3.304023743
410,-0.2530635893
411,0.2488243729
412,-0.134764865
413,-0.1164652184
414,0.09648425877
415,0.09839382768
416,0.4540719092
417,-0.5773922801
418,-0.2307839096
419,0.2259560227
420,-0.4228450656
421,-0.2297669947
422,-0.9994463325
423,0.4571379423
424,0.4982364178
425,-0.0462985523
426,0.153899923
427,0.06594511122
428,0.1224369258
429,0.1391327232
430,0.4511493444
431,0.9095191956
432,-0.008190756664
433,-0.2450651824
434,-0.7777374387
435,0.3215614259
436,0.2969473004
437,-0.004069467541
438,-0.1698929965
439,-0.1224170774
440,0.4000088871
441,-0.1910401732
442,-0.2939581871
443,-0.5679365993
444,0.20633775
445,0.07335858047
446,0.1135203689
447,0.2137477845
448,-0.4965855777
449,-0.1443318874
450,-0.07887274772
451,-0.3274101019
452,-0.3569607437
453,0.1371392608
454,-0.5660748482
455,-0.2046790123
456,0.5366334319
457,0.3416356742
458,-0.05153229833
459,0.4708799422
460,-0.02926879749
461,-1.037616372
462,0.5406179428
463,-0.03001249582
464,0.4113486707
465,-0.143101722
466,-0.2164960057
467,-0.2508826256
468,-0.1878073066
469,0.1143147945
470,0.2316803932
471,0.3824958205
472,0.2464736849
473,0.447837472
474,0.4107905328
475,0.07772133499
476,-0.3710666299
477,-0.1666786224
478,0.2117584348
479,-0.0811573416
480,-0.7074790001
481,-0.02281536534
482,-0.9313450456
483,0.2833457589
484,0.6527498364
485,-0.9087320566
486,-0.04575874656
487,0.1252874136
488,-0.2899013758
489,-0.3717421591
490,0.04028644785
491,0.002261195332
492,0.2205969542
493,-0.04516223818
494,0.1446139812
495,0.5723593235
496,-0.1384773701
497,-0.1607290953
498,0.37798509
499,0.06270260364
500,1.219510198
501,0.003531006631
502,-0.7234421968
503,0.05190669373
504,0.7912999988
505,0.4881402254
506,0.002363935113
507,-0.5601735115
508,-0.6963301897
509,-0.3151195645
510,0.3845535219
511,0.4144368768
512,0.4308734238
513,-0.1695052236
514,-0.5267115831
515,0.1466254294
516,-0.004366757348
517,-0.2746182084
518,0.3381659389
519,0.08709133416
520,0.2368772775
521,-0.06674135476
522,-0.1493554413
523,0.3279446363
524,0.1158594713
525,-0.03652461246
526,0.4406990111
527,0.322365582
528,0.1653571129
529,-0.5175958276
530,-0.267247051
531,0.3318234682
532,0.1146012172
533,-0.06662700325
534,-0.3831607699
535,0.03149928525
536,0.4130028188
537,-0.5627569556
538,0.02484274656
539,-0.1549018919
540,-0.3034505248
541,-0.3487749696
542,-0.4089696705
543,0.249041453
544,0.02161276713
545,-0.2580106258
546,-0.094230555
547,0.08649943769
548,0.01274066139
549,0.05592626706
550,0.4100622237
551,0.2745978534
552,0.3043601811
553,0.3119137287
554,0.1874083132
555,0.3554065824
556,-0.2496274859
557,0.3486127257
558,0.1667030156
559,-0.2047413141
560,-0.4193077683
561,0.09871215373
562,0.2952779531
563,-0.0942511186
564,-0.1568403691
565,-0.1895912886
566,0.1049327701
567,-0.1832494885
568,-0.3292541504
569,-0.2692998052
570,0.03480426222
571,-0.5382031798
572,0.4101029038
573,0.3005708456
574,-0.4036762118
575,-0.1998572052
576,0.5497015119
577,-0.1362164021
578,-0.264036715
579,0.3924614787
580,1.058612943
581,-0.04754821584
582,-0.2969568074
583,-0.9525316954
584,0.8318171501
585,0.7762674689
586,-0.03538360819
587,-0.4657232165
588,-0.002428344451
589,0.09808403999
590,0.2378510386
591,-0.3103397787
592,0.1981725395
593,1.889119387
594,0.06387741119
595,0.6383180022
596,-0.4323840439
597,-0.2516773939
598,0.2629929781
599,-0.8056173325
600,-1.053485751
601,-0.2484149933
602,0.4078968167
603,-1.145285249
604,-1.748032093
605,-0.269672364
606,-0.9214125872
607,-0.2413250208
608,-0.4504687488
609,0.5829681158
610,0.03783445805
611,0.2460226417
612,0.6317906976
613,-0.04832154885
614,0.4777134359
615,0.05674690753
616,0.111272946
617,-0.05766441673
618,0.3460081518
619,0.2736025155
620,0.8372556567
621,-0.06576112658
622,-0.5051596165
623,-0.3251247704
624,0.3517484069
625,0.5522012115
626,-0.1836077124
627,-0.3261039257
628,1.048439026
629,-0.1161815673
630,0.9430521727
631,0.3888138831
632,0.001034888905
633,0.9334695935
634,-0.6599371433
635,1.182346821
636,-0.2162140161
637,-0.2067340314
638,0.4852527976
639,-0.4463111162
640,0.9650540948
641,0.477168113
642,-0.9607321024
643,0.368275702
644,0.6677278876
645,0.2465178818
646,-0.169978261
647,-0.8913863897
648,0.8466536403
649,1.036284804
650,-0.3090403676
651,-0.4555579722
652,0.2190651
653,0.4778648615
654,-0.1270989925
655,-0.2552441657
656,-0.3991447687
657,0.7131590247
658,-0.1579331309
659,0.7807959914
660,-0.04291064292
661,-0.2149309516
662,-0.1611700803
663,0.9742231965
664,-0.1568919867
665,0.00467722863
666,0.1000991166
667,-0.5353280306
668,-1.216544867
669,1.019801736
670,0.03124011494
671,0.2094491124
672,-0.7301971912
673,0.8894741535
674,0.4038646817
675,-0.03826419264
676,-0.3275200725
677,-0.4079667926
678,0.8907855153
679,-0.1780768633
680,0.2321953475
681,0.2043015212
682,-0.103734754
683,-0.1798977107
684,0.9423917532
685,0.1531731337
686,0.3500206172
687,0.02702671848
688,-0.1383130401
689,0.526776135
690,-0.2175825089
691,0.1515882462
692,0.08761031926
693,0.222311914
694,-0.2499665022
695,1.000930071
696,-1.347618103
697,1.248716116
698,-0.7217627168
699,0.951086998
700,-0.4505729973
701,0.2127465904
702,-0.5726935267
703,0.3417603672
704,0.1780160367
705,-0.04687758535
706,-0.2442609221
707,0.1758099198
708,-0.1934587508
709,0.1408230215
710,0.2682497799
711,0.2040622979
712,-0.4475560486
713,0.04483468086
714,0.08094719052
715,-0.01880110428
716,0.1727897078
717,0.05508367345
718,0.1801702529
719,-0.04043753073
720,0.3442766964
721,-0.27325055
722,0.3887776136
723,0.07361153513
724,-0.1102192104
725,0.3351996839
726,-0.1704775691
727,-0.3279560208
728,0.367978543
729,-3.122480631
730,-0.09245987236
731,0.4244443178
732,0.2765474319
733,0.4988867342
734,0.1033523157
735,-0.3238301575
736,0.06500091404
737,-0.695499599
738,-0.1558866799
739,0.05930319428
740,0.6458297968
741,-0.1353895664
742,0.1881220937
743,0.1148177236
744,0.3214945197
745,-0.1680780202
746,0.4406341612
747,-0.4525483549
748,0.07092520595
749,0.1096560434
750,0.2895409763
751,-0.3980377614
752,-0.4815392196
753,-0.3899975121
754,0.03450399637
755,-0.05547763407
756,-0.05608480051
757,0.3734427392
758,0.10963808
759,-0.3808790147
760,0.2736237645
761,0.07022158802
762,-0.2399059385
763,-0.6754214764
764,0.5487000942
765,-0.01565698907
766,-0.3653989434
767,0.3870302737
768,0.7295383811
769,-0.04897009209
770,-0.5237126946
771,-0.1932952702
772,-0.1500395834
773,0.3735390902
774,-0.2938877344
775,0.04686245322
776,-0.1805620492
777,-0.57579422
778,0.3536475003
779,-0.3169163167
780,-0.2566772699
781,-0.1060291454
782,-0.1485990882
783,0.05702065304
784,0.002426719293
785,0.2318762392
786,0.01951044798
787,-0.2551386952
788,-0.288074404
789,-0.1245863959
790,-0.08645048738
791,-0.3272218704
792,0.4457702339
793,-0.4650228024
794,-0.2411186099
795,-0.1141792461
796,-0.1624005437
797,0.2817262113
798,0.08915440738
799,-0.2995347083
800,0.3139843643
801,0.08762354404
802,0.4768940508
803,-0.1138918102
804,0.08738037199
805,-0.2073459625
806,-0.7446356416
807,0.2004719079
808,-0.6491669416
809,0.1678934097
810,0.04067455977
811,0.2457284182
812,0.08849284053
813,-0.02480616793
814,0.1346570551
815,-0.2919567525
816,0.2170843035
817,-0.2746293545
818,-0.293587029
819,-0.3692552745
820,-1.363003016
821,0.3535128832
822,0.2144089341
823,0.2825600505
824,-0.9494645
825,-0.9752616882
826,0.3092848957
827,0.07455598563
828,-0.06636102498
829,0.3562379479
830,-0.6317135096
831,-0.137622878
832,0.4711320996
833,-0.3013471961
834,-0.05208825693
835,-0.3878165781
836,-0.1100858971
837,-0.2240693122
838,-0.124949269
839,0.3196951747
840,-0.2402511537
841,-0.8456996083
842,0.1681741327
843,-0.576156497
844,-0.6070293784
845,0.6471595764
846,0.05884671211
847,0.9606832862
848,0.2392691821
849,0.438831836
850,-0.06153071672
851,-0.1884714663
852,0.3581523001
853,0.1566607505
854,0.04612093791
855,0.4146141112
856,-0.1684163511
857,-1.732471824
858,0.3120386004
859,-0.05098634586
860,-0.5372958183
861,-0.308003217
862,0.3832454383
863,0.2310308367
864,0.7358003855
865,-0.4011556506
866,-0.8954664469
867,-0.03317476064
868,-0.7281560302
869,0.0728373155
870,-1.500418663
871,-0.1002546251
872,-0.02828716673
873,0.06016771495
874,0.1517860293
875,0.1739952713
876,0.1362969726
877,0.03560264409
878,0.09273413569
879,-0.4211366475
880,0.02322451584
881,0.1642736048
882,-0.7098735571
883,1.015636086
884,-0.1542123258
885,0.0002765488462
886,-0.4193246663
887,-0.9484953284
888,-0.08063718677
889,-0.030068269
890,0.3086080253
891,0.1783476174
892,-0.2284310013
893,0.1269329786
894,-0.9365685582
895,0.03617490083
896,0.5772274733
897,-0.2648518682
898,0.2111616433
899,0.3777271807
900,-0.23628667
901,-0.2183213532
902,0.1603075862
903,-0.5570583344
904,0.1526457369
905,-0.5093793273
906,-0.124771893
907,0.4965372384
908,0.1334924549
909,-0.5049734116
910,-0.1725262105
911,0.08945305645
912,-0.5809818506
913,-0.1230766326
914,-0.3045105338
915,0.3293926716
916,-0.1124880165
917,0.09437188506
918,0.1722045988
919,-0.1216753647
920,0.8154354095
921,-4.667671204
922,-0.3101811707
923,-0.0114196986
924,-0.601380527
925,0.0956576094
926,-0.1502117366
927,-0.07603409886
928,-0.0428298004
929,-0.2364338338
930,0.3096575141
931,-0.07791613787
932,0.09456888586
933,-0.2632729113
934,-1.868525386
935,-0.1851187497
936,-0.1085021421
937,-0.07807464898
938,0.2533474267
939,0.1439466625
940,0.1270068884
941,0.1042565554
942,0.4584406018
943,-0.2758409083
944,-0.5078944564
945,0.2271008939
946,-0.3151412308
947,0.445548594
948,-0.1774148643
949,-0.2553163767
950,0.4740923047
951,-0.06953698397
952,0.3327797949
953,-0.4943503737
954,0.1362067461
955,-0.1675613523
956,0.3819351494
957,0.1444495469
958,0.2924571633
959,-0.03697980195
960,-0.3434089422
961,0.009247489274
962,-0.2943098247
963,0.01166340336
964,0.3695836663
965,-0.2427412868
966,-1.012810826
967,-0.1249498874
968,0.09480620921
969,-2.604179859
970,0.02391392179
971,-0.2057496458
972,0.004303296562
973,-0.05686251447
974,-0.3757814765
975,0.1851114482
976,-0.04188489169
977,0.0391982682
978,0.1978339106
979,-0.1484579593
980,-0.03845859692
981,0.09413738549
982,-0.348641634
983,-0.2503506839
984,0.3943824768
985,-0.0668335706
986,0.06408194453
987,-0.6685194969
988,0.4072124064
989,0.04937273636
990,-0.2721800804
991,0.1904065758
992,0.08893547952
993,0.01821653172
994,-0.03196789697
995,0.02381351776
996,0.3054762483
997,0.1329528838
998,0.2343127728
999,0.3015284538
1000,0.06265822053
1001,-0.1180669889
1002,-0.04755121842
1003,0.02824159339
1004,-0.08628297597
1005,-0.2893747985
1006,-0.7701179981
1007,-1.172718048
1008,0.05666068196
1009,-0.8089852929
1010,-0.1056003198
1011,0.2492662817
1012,0.2148414701
1013,-0.06210215017
1014,0.3387973309
1015,0.005984578282
1016,-0.3714679182
1017,0.4585787356
1018,-0.1602929384
1019,-1.029103279
1020,0.02730814181
1021,0.2378394604
1022,0.04430629313
1023,0.05719733983
1024,-0.2159069479
1025,0.05597710237
1026,0.212370649
1027,0.200842455
1028,-0.3837747574
1029,-0.306986481
1030,0.3146592081
1031,-1.148109794
1032,0.1094147488
1033,0.09724383801
1034,0.1506425887
1035,-0.7683697939
1036,-0.3376516998
1037,-0.04192376882
1038,-0.0150490785
1039,-0.06312138587
1040,0.5118968487
1041,0.1849513799
1042,-0.1504345387
1043,0.3847958148
1044,0.1493123323
1045,-0.08532853425
1046,-0.3467344344
1047,0.1734887958
1048,0.2182504833
1049,0.4705632031
1050,-0.4691434801
1051,0.01840629429
1052,-0.8237355351
1053,0.2324534357
1054,-0.160346508
1055,0.03080956638
1056,0.2065113783
1057,0.1236057431
1058,0.3971771002
1059,-0.03066513874
1060,0.3800024986
1061,0.1325387359
1062,0.0380679965
1063,0.0552435033
1064,0.2818955481
1065,-0.2662776113
1066,-0.1472812593
1067,-0.3556772172
1068,-0.2112947702
1069,-0.1345810145
1070,0.21618931
1071,0.06063361466
1072,-0.105870001
1073,-0.146021992
1074,0.2763618529
1075,-0.1590589285
1076,0.02001984045
1077,0.1306974292
1078,0.449722141
1079,-0.2330377996
1080,0.2598111033
1081,-0.001830532681
1082,-0.6449589133
1083,-0.105888851
1084,-0.1146971583
1085,-0.1254627705
1086,-0.1089481115
1087,-0.2499382496
1088,0.3294416964
1089,-0.3247724771
1090,0.01101087406
1091,1.100278616
1092,0.5499426723
1093,-0.2694711089
1094,-1.330713868
1095,-0.6221461296
1096,0.07482915372
1097,0.1869648397
1098,-0.3133409023
1099,-0.4704939127
1100,-0.8711835742
1101,-0.6051098108
1102,0.1431341767
1103,0.05767180398
1104,0.01780986972
1105,-0.9974370003
1106,0.1867313385
1107,0.5484403372
1108,-0.0417926386
1109,-0.2410092801
1110,-0.3763279915
1111,0.5724433064
1112,0.6146805882
1113,-0.01913716644
1114,-0.3187749684
1115,0.09643862396
1116,0.3460166752
1117,-0.5817818046
1118,0.4406985939
1119,-0.4135395885
1120,-0.244095847
1121,0.232711345
1122,-0.01452260744
1123,0.175209105
1124,0.5700750351
1125,-0.06386140734
1126,0.1563362032
1127,0.1720003635
1128,0.3570404947
1129,-0.2778553665
1130,-0.6176366806
1131,-0.5575584173
1132,0.1471972466
1133,-0.2487525344
1134,-0.4177634716
1135,0.8470941186
1136,-0.7510858178
1137,-0.13374798
1138,-0.3354624212
1139,-0.02636954747
1140,0.760451138
1141,0.1019778401
1142,0.3077835739
1143,-0.4786990583
1144,0.9621160626
1145,0.3489304781
1146,-0.3557036221
1147,0.2332159281
1148,1.246458888
1149,0.1089557484
1150,0.7076346874
1151,0.01979124919
1152,-0.5323671699
1153,-0.4742388427
1154,0.5591878891
1155,-0.878249824
1156,0.5646324754
1157,-0.2699439228
1158,0.3091416061
1159,0.2840084434
1160,-0.1965745687
1161,0.263273716
1162,0.005319168326
1163,0.4520463347
1164,0.3969013691
1165,-0.3577957153
1166,0.9787692428
1167,0.4319446981
1168,-0.2727163732
1169,0.2694650888
1170,-0.4179154336
1171,-0.05122527853
1172,0.5563493967
1173,-0.1287809759
1174,-0.2912669182
1175,0.1097048149
1176,-0.1387843788
1177,-0.1968086064
1178,-0.4882051349
1179,-1.070072532
1180,-0.03810891882
1181,-0.2493185401
1182,0.4561127722
1183,-0.3697704971
1184,0.2487603277
1185,-0.1083966717
1186,-0.301228106
1187,0.5061975121
1188,0.6078622341
1189,0.9296610355
1190,-0.4645292461
1191,-0.2026109844
1192,0.4302497804
1193,0.05554154143
1194,-0.0967150256
1195,0.9123636484
1196,-1.088415146
1197,0.1226124689
1198,-0.5978214741
1199,-0.3394677937
1200,0.7667627335
1201,-0.1618825048
1202,-0.7754687667
1203,0.01141746528
1204,0.3632503152
1205,0.7756718397
1206,0.3463386595
1207,0.3916864693
1208,0.8729878068
1209,0.1673491746
1210,0.1594147682
1211,0.2750244737
1212,0.2248146385
1213,0.07317280769
1214,0.5342686176
1215,0.7361890674
1216,0.9409301877
1217,0.2296368778
1218,0.3122386336
1219,-0.2628158331
1220,-0.6016033888
1221,0.1205588207
1222,0.0771503821
1223,0.8377707601
1224,-0.09204600751
1225,0.3752194345
1226,0.05692755058
1227,1.025687575
1228,1.166141629
1229,0.300221175
1230,-1.102812767
1231,-0.2079721093
1232,-0.3785685003
1233,1.034799695
1234,0.1987313181
1235,-0.2965367138
1236,-0.2749653161
1237,-0.3765441775
1238,0.2374692857
1239,0.107317701
1240,-1.04946804
1241,0.6332349777
1242,0.08760620654
1243,0.1851173788
1244,-1.020979285
1245,1.305166006
1246,0.629727602
1247,0.2937757969
1248,-0.5466760993
1249,0.3303538561
1250,-0.6463943124
1251,0.6306656003
1252,-0.2506754398
1253,0.5179509521
1254,0.3280842602
1255,-0.8914336562
1256,0.8124021292
1257,0.4442887008
1258,0.667932868
1259,-0.5526630878
1260,-0.6879434586
1261,-0.2960398197
1262,0.2473144084
1263,-0.1019241214
1264,0.3495588303
1265,-0.1556064636
1266,-0.2114918232
1267,0.5231414437
1268,-0.07738434523
1269,0.3319269419
1270,-0.4606535435
1271,-0.3395985663
1272,-1.53924644
1273,0.4997791946
1274,0.7276883125
1275,0.3741280735
1276,0.7947220802
1277,-0.3045285046
1278,-0.6205153465
1279,-0.07108274102
1280,0.3645007014
1281,0.5726457834
1282,0.5323916674
1283,0.7888778448
1284,-0.1544418186
1285,0.1759457439
1286,-0.1049865931
1287,0.07500442117
1288,0.5130499601
1289,-0.8819723129
1290,-0.03474613652
1291,-0.995783627
1292,-1.780356646
1293,1.282311559
1294,-0.3863071799
1295,0.242489472
1296,0.04263311252
1297,-0.3611194491
1298,1.137441754
1299,-0.5184234977
1300,-0.09361542761
1301,0.2977046072
1302,-0.047700461
1303,-0.6000713706
1304,0.3923207819
1305,-0.8302068114
1306,0.4603701532
1307,0.06131678075
1308,1.325886488
1309,0.6000496745
1310,0.5919865966
1311,-0.03488044441
1312,-1.351942658
1313,0.5269506574
1314,0.8102995753
1315,-0.1984333098
1316,0.1564533412
1317,0.9151290655
1318,-0.733453095
1319,0.2104663402
1320,-0.6513231993
1321,1.253491163
1322,0.6038739681
1323,0.867877841
1324,-0.0608378686
1325,0.2919369936
1326,-0.1348870248
1327,0.04510740191
1328,0.6141021252
1329,-0.1271722615
1330,-0.2092888802
1331,0.2603418827
1332,-0.117232956
1333,1.01191783
1334,0.8300913572
1335,-0.7507422566
1336,0.5035861135
1337,-0.3004582822
1338,-0.447106421
1339,-0.554951489
1340,0.368904084
1341,0.3286535442
1342,-0.1198666319
1343,-0.2085365802
1344,0.04702506959
1345,-0.1658023
1346,0.2878955305
1347,1.09454906
1348,-0.05323192477
1349,-0.3331451416
1350,-0.08906376362
1351,0.2732961476
1352,0.316801101
1353,0.8272511959
1354,0.6621792912
1355,0.2671654224
1356,0.5306861997
1357,-1.207889199
1358,-1.02299583
1359,-0.4572917521
1360,0.1831163615
1361,-0.7872992158
1362,0.08013968915
1363,0.0305039417
1364,0.29456532
1365,-0.2252271771
1366,-0.2233585268
1367,-0.2124990821
1368,0.5342521071
1369,0.04117238894
1370,0.326903969
1371,0.219843477
1372,-0.2859385312
1373,0.38717857
1374,1.082273602
1375,0.6775722504
1376,-0.7564630508
1377,-0.725995183
1378,0.08727277815
1379,-0.3128830791
1380,-0.5920431018
1381,-0.4593321979
1382,-1.840838194
1383,-0.6587900519
1384,1.267528296
1385,1.145751119
1386,-0.2870007753
1387,-0.6709473133
1388,0.1999850869
1389,-0.2096076757
1390,0.563855648
1391,-0.1637050956
1392,0.9251762629
1393,-0.5761421919
1394,0.8261140585
1395,0.4485757947
1396,-0.7979227304
1397,0.5062136054
1398,-0.3993588686
1399,0.3415229321
1400,0.5596914291
1401,0.2260730118
1402,0.3109970093
1403,-0.2078540176
1404,0.3572909534
1405,0.06906215101
1406,-0.1831839234
1407,-0.3257084191
1408,0.08145380765
1409,-0.2679869533
1410,0.1439515948
1411,0.2891568244
1412,0.04250749573
1413,0.0315499641
1414,0.01103792433
1415,0.2195791304
1416,0.2759662569
1417,-0.1257951856
1418,-0.2562341094
1419,0.2245695293
1420,0.2233342528
1421,-0.7194084525
1422,-0.1931551397
1423,-0.04050749913
1424,-0.2602272034
1425,-0.8587785959
1426,-0.3229757845
1427,-0.293738693
1428,-0.1451767534
1429,-0.1247760057
1430,-0.310813725
1431,-0.2889278233
1432,-0.2514674366
1433,0.2867277563
1434,0.0272297617
1435,0.35163638
1436,0.2304332107
1437,0.4727395773
1438,0.3179726303
1439,0.2572180629
1440,-0.3678599894
1441,-0.285230428
1442,0.1775999367
1443,0.1502129734
1444,-0.009361629374
1445,-0.1056187227
1446,0.3023644388
1447,0.1640924662
1448,0.3800365329
1449,0.2567985952
1450,0.1504139602
1451,0.2369652838
1452,0.2205949128
1453,-0.1332235485
1454,0.003885907819
1455,0.3497453332
1456,-0.09336413443
1457,-0.00922273472
1458,-0.3040944338
1459,-0.119378455
1460,0.3360528648
1461,0.04190851748
1462,-0.334680438
1463,0.2361787558
1464,-0.0296555534
1465,-0.1973264962
1466,0.07823639363
1467,-0.340898931
1468,-0.5223840475
1469,-0.2333666682
1470,0.1782197505
1471,-0.2528049052
1472,-0.07408698648
1473,0.2247913927
1474,-0.002973611467
1475,-0.2945135832
1476,-0.07439411432
1477,0.03279250488
1478,-0.4205999374
1479,0.3191335499
1480,-0.09850051254
1481,-0.0004371448013
1482,0.09598799795
1483,0.07165472955
1484,0.2005616575
1485,0.1409539729
1486,0.1058204547
1487,0.1149799451
1488,0.3117451668
1489,-0.5511491299
1490,-0.6961830258
1491,0.3936788142
1492,0.5267060995
1493,-0.2742057145
1494,0.2006244212
1495,-0.1073196456
1496,0.2203917354
1497,-0.09258934855
1498,0.1592667699
1499,-0.8058720827
1500,0.1570568532
1501,0.7371351719
1502,0.08194782585
1503,0.3501173258
1504,-0.5517188907
1505,-0.05578615516
1506,0.3591105342
1507,0.1125717536
1508,0.05635583773
1509,0.02361340448
1510,0.6059802771
1511,-0.8786449432
1512,0.2372772843
1513,-0.5103926063
1514,-0.6991835237
1515,0.07254007459
1516,0.06360733509
1517,-0.3861683607
1518,-0.02417356707
1519,-0.6482136846
1520,0.01881156117
1521,0.2605480552
1522,0.109615244
1523,0.07705996186
1524,-1.850676179
1525,0.2078644335
1526,-0.09865519404
1527,0.4010632038
1528,-1.008981109
1529,-0.2171792984
1530,-0.3085657656
1531,0.4096727073
1532,-1.800617576
1533,0.03315843269
1534,-0.5301018953
1535,0.495365113
1536,-1.024778843
1537,1.64087522
1538,0.3504240513
1539,-0.9369815588
1540,-0.3427844346
1541,0.08693323284
1542,0.7262701392
1543,0.8594515324
1544,-0.2964725494
1545,-0.04467139021
1546,0.8553035855
1547,0.4162627459
1548,0.2005034238
1549,-0.1906673312
1550,0.1524311602
1551,-0.1470976025
1552,0.04334745184
1553,0.1568855643
1554,0.1532816738
1555,-0.4645782709
1556,0.04104944691
1557,0.3820486367
1558,-0.07524688542
1559,-0.4201221764
1560,-0.0318682082
1561,-1.109648943
1562,-2.191437483
1563,0.9187824726
1564,1.008571506
1565,-0.3303965032
1566,-0.675532341
1567,0.5056784749
1568,-0.3464715183
1569,-0.1141569316
1570,-0.8455481529
1571,0.2222916484
1572,-0.2317739725
1573,0.3725519478
1574,0.0455538854
1575,-0.2452647388
1576,0.6818674803
1577,-0.147233665
1578,-0.6619155407
1579,-0.4256367385
1580,0.3634752929
1581,0.3362951875
1582,0.3163638413
1583,-0.6832132339
1584,0.7874783874
1585,0.1221494675
1586,-0.01435798313
1587,-0.4536723793
1588,0.9505064487
1589,1.11428988
1590,0.3010657132
1591,-0.5891343951
1592,0.6610784531
1593,-1.180640817
1594,0.6843472719
1595,-0.9486958981
1596,0.03934625164
1597,-0.2421761751
1598,0.7937465906
1599,0.804207325
1600,-0.1014415696
1601,-0.6498584747
1602,0.0836886242
1603,0.2683728933
1604,-0.3117264807
1605,0.03404785693
1606,0.2030463517
1607,0.492109865
1608,0.6692126393
1609,0.1196431518
1610,0.1327227503
1611,0.323669523
1612,0.2177402824
1613,0.1529090554
1614,0.3165184259
1615,0.508089304
1616,-0.9999622703
1617,0.3571026325
1618,-0.03862767667
1619,-0.3470609188
1620,0.4961695671
1621,-0.1185287386
1622,-0.04472372308
1623,0.412381649
1624,0.6062451601
1625,-0.5971054435
1626,-0.7862949371
1627,0.03865202889
1628,0.3859147429
1629,0.06752969325
1630,0.2971069813
1631,0.05329180509
1632,0.2329998761
1633,0.04119105637
1634,0.2517876029
1635,0.100985162
1636,0.08004356176
1637,-0.1457134336
1638,-0.6760360599
1639,0.05420208722
1640,-0.07572224736
1641,0.2455674857
1642,0.1208799183
1643,0.2370600253
1644,0.364759624
1645,-0.09330607951
1646,0.53765589
1647,0.4171483517
1648,-0.337411195
1649,-0.1768400967
1650,0.6538995504
1651,0.2350818515
1652,-1.33139348
1653,-1.047237396
1654,-0.2993378043
1655,0.3615234196
1656,-0.253780961
1657,-0.6032444835
1658,-0.3998886645
1659,0.3598299325
1660,-0.3831680715
1661,-0.0288529098
1662,-0.5162718296
1663,-0.789429009
1664,0.6649912
1665,-0.4872339666
1666,-0.03128159419
1667,0.6382481456
1668,0.113928102
1669,-0.1714259237
1670,-0.158999905
1671,-1.504873991
1672,0.31291008
1673,-0.4191908836
1674,-1.370812535
1675,0.5845185518
1676,-0.3361404538
1677,0.5318434834
1678,-0.4274445772
1679,-0.1533009857
1680,-1.176107287
1681,-0.1206311509
1682,0.0003296261129
1683,0.5528957844
1684,0.1774635762
1685,-0.1193229929
1686,0.2645125091
1687,0.8262280822
1688,0.6720982194
1689,-0.763189137
1690,-0.7500399947
1691,-0.2241413444
1692,-0.106140025
1693,-0.1785048991
1694,0.1286367625
1695,-0.6841053963
1696,0.3983642757
1697,0.09830264747
1698,0.1812464148
1699,0.330916971
1700,-0.1513558179
1701,0.007859413512
1702,0.5525724292
1703,-0.1142483652
1704,0.2308544517
1705,-0.03238592297
1706,-0.8933423162
1707,-0.3428358436
1708,-0.07027750462
1709,0.2410190254
1710,0.4713999331
1711,-1.767532229
1712,0.7124828696
1713,0.2546850741
1714,0.6679159403
1715,0.5057590604
1716,0.3440239131
1717,0.02643332258
1718,-0.6786227226
1719,-0.5096786022
1720,-0.6249334216
1721,0.6719315648
1722,0.4032999873
1723,-0.08672172576
1724,-0.6460975409
1725,0.03243981302
1726,-1.30900383
1727,-0.1919282526
1728,-0.02542875521
1729,-0.07712925225
1730,-0.7022317648
1731,-0.1305961758
1732,0.1870413274
1733,-0.3137577772
1734,0.1053944528
1735,0.248904705
1736,-0.3905673027
1737,-0.3284427524
1738,-0.217341885
1739,1.253102779
1740,0.139093563
1741,-1.657550335
1742,-0.518604815
1743,0.6268476248
1744,-0.2346389443
1745,-0.1155366004
1746,0.8048366308
1747,-0.5856358409
1748,-0.003015872557
1749,-0.2416845411
1750,-0.3802139759
1751,0.7611007094
1752,-0.2971791029
1753,0.282703042
1754,0.1564992517
1755,0.006404496729
1756,0.2392112017
1757,0.737877667
1758,0.8509079218
1759,0.2463285178
1760,0.7292800546
1761,0.2070610672
1762,0.4190285504
1763,-0.8274552226
1764,-0.5673713684
1765,0.5656144619
1766,-0.1903887391
1767,-0.8249605298
1768,0.2041796893
1769,-0.3487970829
1770,0.04137128592
1771,0.0009448240744
1772,0.1750745475
1773,0.06264502555
1774,0.3332573175
1775,-0.0767577067
1776,-0.5701497793
1777,0.02943906188
1778,0.1194919273
1779,0.7540872097
1780,-0.3387012482
1781,0.3904209435
1782,-0.7963457108
1783,0.6742773056
1784,-0.2754475176
1785,-0.03285688534
1786,0.3992772698
1787,-0.9453228712
1788,-0.3903900385
1789,0.1799545586
1790,-0.9279584289
1791,-0.3905471563
1792,-0.3265995681
1793,0.2318481356
1794,0.01726184972
1795,-0.2074468881
1796,0.3174849749
1797,-0.2468177676
1798,-0.1770121008
1799,-0.1498749256
1800,-0.2850402892
1801,-0.2170620859
1802,-0.02213782258
1803,-0.3605817258
1804,0.04637433961
1805,-0.02209296077
1806,0.2909296155
1807,-0.06386561692
1808,-0.06403011084
1809,0.1369674951
1810,0.09744478017
1811,-0.115286909
1812,-0.3356789649
1813,-0.3641699255
1814,-0.07699352503
1815,0.1789244562
1816,-0.09529367089
1817,0.2600549161
1818,0.3179062903
1819,0.04114864022
1820,0.02188069001
1821,0.03906582668
1822,-0.1419703662
1823,0.1467816532
1824,0.05912072957
1825,0.1537749469
1826,-0.04699212685
1827,0.1266059577
1828,0.07912145555
1829,-0.3925039172
1830,-0.3425963521
1831,-0.2274082601
1832,-0.1613275409
1833,0.1482135952
1834,-0.3323646784
1835,-0.1254542023
1836,0.3999311924
1837,-0.356860131
1838,-0.04360544309
1839,-0.3880653381
1840,0.2938314676
1841,-0.07093374431
1842,0.06914694607
1843,0.2016893625
1844,-0.07045219839
1845,-0.4124100506
1846,0.2497979552
1847,0.0628477931
1848,-0.02065521479
1849,0.0730561763
1850,0.06876457483
1851,0.2601423264
1852,0.2340007722
1853,-0.2277593762
1854,0.379286617
1855,-0.02747167647
1856,-0.05892093852
1857,-0.2401905507
1858,0.1583886296
1859,-0.2007576674
1860,0.4293403029
1861,-0.2446778715
1862,-0.3237559497
1863,-0.03516461328
1864,0.1529285014
1865,-0.2800160944
1866,-0.2283838987
1867,-0.190312326
1868,-0.1664119661
1869,0.2159940898
1870,0.3849476576
1871,0.2040024102
1872,-0.3176336288
1873,0.3344522417
1874,0.1098260954
1875,0.002798863919
1876,0.2884850204
1877,-0.1901534498
1878,-0.2025810629
1879,-0.232491985
1880,-0.01073404774
1881,-0.09508358687
1882,-0.157614857
1883,0.2714063525
1884,-0.3183673024
1885,-0.2910839021
1886,-0.1006694511
1887,-0.4709421396
1888,-0.2487139404
1889,0.2396359742
1890,0.09440992773
1891,0.1044807881
1892,0.006811065134
1893,0.3146703243
1894,-0.261488378
1895,-0.04607211798
1896,-0.1995600462
1897,0.05879536271
1898,0.02701927908
1899,0.2859837115
1900,0.3664041758
1901,-0.1136315018
1902,0.3192003071
1903,-0.2127681971
1904,0.002454657108
1905,-0.3270392418
1906,0.2953102887
1907,-0.05208769068
1908,-0.1725055873
1909,0.1921652108
1910,0.1298352629
1911,-0.08721601963
1912,-0.06971030682
1913,-0.1977853179
1914,0.098943986
1915,0.2948021889
1916,0.2724948525
1917,-0.2313863486
1918,-0.2457249165
1919,0.01918969303
1920,0.9139488935
1921,-1.243567944
1922,-0.4869033992
1923,0.8942455649
1924,0.9045492411
1925,0.262889713
1926,-0.6711680889
1927,-0.9795366526
1928,1.031372309
1929,0.3649995029
1930,-0.686557889
1931,-1.089982748
1932,-0.6195177436
1933,-0.7882816792
1934,0.4758659899
1935,0.09438631684
1936,-1.050946116
1937,0.6374440193
1938,0.8616830111
1939,-0.3691629469
1940,-1.218492627
1941,-0.07166743279
1942,0.2920366228
1943,-0.1494122893
1944,0.2698714435
1945,1.046684265
1946,0.1562085003
1947,0.1380717456
1948,0.1386879534
1949,-0.1221075207
1950,0.5558755398
1951,-1.502793312
1952,-2.152815819
1953,2.850790977
1954,1.453935623
1955,-4.856890678
1956,-1.154777765
1957,-1.162106037
1958,0.1477645338
1959,1.367227316
1960,-1.315110683
1961,1.404709697
1962,-0.5649162531
1963,1.407096982
1964,-0.1196542084
1965,-0.3049340248
1966,0.6763610244
1967,-0.07863917202
1968,-1.276319146
1969,0.2090968639
1970,1.369860172
1971,1.343458295
1972,0.1916074008
1973,-2.369110584
1974,0.2347148508
1975,-0.7998496294
1976,0.5640873313
1977,0.4660851359
1978,0.8015280962
1979,0.9025333524
1980,-0.2362540513
1981,0.346193254
1982,1.124693632
1983,0.06151671708
1984,0.09667416662
1985,-8.737927437
1986,0.8336529136
1987,-0.150930047
1988,0.3425298631
1989,-0.2475835532
1990,0.1474108696
1991,0.07086581737
1992,0.5213263035
1993,0.8599670529
1994,1.477353454
1995,-0.1522985846
1996,0.2957968414
1997,-1.142428637
1998,-7.065587521
1999,0.2832035422
2000,0.5335960984
2001,0.7827920914
2002,0.5699996352
2003,0.2044927925
2004,0.1371713132
2005,-0.3208886087
2006,-0.3169076741
2007,0.7736862302
2008,-1.510758162
2009,-0.7134850025
2010,0.2892611325
2011,-0.07852295041
2012,-0.3899064958
2013,-0.1173767075
2014,0.1682865024
2015,1.41910851
2016,-1.94009912
2017,0.5576474071
2018,1.149189472
2019,-0.2234850079
2020,0.4594444335
2021,0.8215901852
2022,1.151198983
2023,-0.9020841122
2024,0.6925755739
2025,-0.04530656338
2026,-2.752030373
2027,0.1845648885
2028,-5.480223179
2029,-0.1263885349
2030,-0.2313779145
2031,0.07840234786
2032,-0.6069785953
2033,-0.3177973628
2034,-0.5895569921
2035,0.4266561568
2036,-6.602919579
2037,0.6786535978
2038,0.09807469696
2039,-0.1918083727
2040,-0.9044363499
2041,0.5756298304
2042,1.013776064
2043,0.06767830253
2044,-0.2776380777
2045,-0.1519801766
2046,-0.01691372693
2047,-0.4965017736
2048,1.666593552
2049,-0.285081774
2050,-0.7004479766
2051,-0.08979976177
2052,-0.08437748998
2053,0.08355816454
2054,-1.316496968
2055,-0.4754030108
2056,0.2125055045
2057,-0.8650929332
2058,-0.5051882267
2059,-1.768673301
2060,-0.2490072399
2061,-0.5483909249
2062,-0.1710798293
2063,1.594840884
2064,-0.5167482495
2065,0.06002337486
2066,-1.357187629
2067,0.4156125486
2068,0.1242902279
2069,0.3351246119
2070,0.2430212498
2071,0.6087872982
2072,1.205952048
2073,-0.992202282
2074,-1.095646381
2075,-1.718049288
2076,-0.2623071074
2077,0.8090394139
2078,0.8292232156
2079,-0.7372791767
2080,0.3465510011
2081,1.27696836
2082,0.4575467706
2083,-0.1674913764
2084,-1.082676768
2085,-1.042919517
2086,0.03077559359
2087,-0.2160691321
2088,-0.4401527047
2089,0.4727308452
2090,0.6597204208
2091,1.018844724
2092,0.4658525586
2093,0.2479601204
2094,1.35380733
2095,0.1463916004
2096,0.9257864952
2097,0.1195909232
2098,-0.6744619012
2099,-0.2211370319
2100,-1.148152232
2101,-0.7751336098
2102,0.215954408
2103,-0.09221141785
2104,-1.146346092
2105,-0.9111731648
2106,0.01695372909
2107,-0.6356105208
2108,0.2380620688
2109,0.08006658405
2110,0.6970125437
2111,0.3393805325
2112,0.02677686885
2113,-6.801165104
2114,0.3129096329
2115,-0.7432855964
2116,-0.1311993897
2117,-0.3316934705
2118,-0.1477720141
2119,0.1114299372
2120,-0.588013649
2121,0.3530987203
2122,0.6767520905
2123,0.1249162629
2124,0.561583221
2125,-1.982223392
2126,-1.558029652
2127,-0.5369497538
2128,-0.6442875266
2129,0.4189057052
2130,0.7003844976
2131,-0.6428543329
2132,0.2009347528
2133,0.2946552336
2134,0.0339884758
2135,0.1760962605
2136,-0.7526031137
2137,-1.131095529
2138,-0.2271867394
2139,-0.2185842544
2140,-0.2418447882
2141,0.009892658331
2142,0.946829915
2143,1.042925596
2144,-1.160504818
2145,0.4530214071
2146,-0.4230036139
2147,-0.1436342597
2148,-0.2507275045
2149,0.2591784298
2150,0.4945853353
2151,-0.3324554265
2152,1.070196867
2153,-0.5752130747
2154,-0.2088608146
2155,-0.3130656183
2156,-1.87904048
2157,-0.1746073961
2158,0.6684644818
2159,0.6850892305
2160,-0.167524606
2161,-0.3988034129
2162,-0.7846960425
2163,1.038358927
2164,-2.247500181
2165,0.269053936
2166,-1.503986597
2167,1.144994617
2168,0.3425402939
2169,0.07423550636
2170,0.9245485067
2171,1.185678005
2172,-0.6799692512
2173,-0.1667427719
2174,0.2445776463
2175,0.5030049086
2176,0.07480807602
2177,0.2474396974
2178,1.001492977
2179,-0.3583118021
2180,0.995895803
2181,0.2858020067
2182,-0.123192966
2183,-0.4213095009
2184,-0.1309833229
2185,0.009364951402
2186,-0.9578479528
2187,-1.906662464
2188,0.5594588518
2189,-1.397915244
2190,0.3636018634
2191,0.1893020123
2192,-0.1573954523
2193,0.7725480795
2194,0.06781884283
2195,0.2328596413
2196,0.4923285842
2197,-0.3491745293
2198,-0.3433457613
2199,0.302644223
2200,-0.4170513451
2201,0.2566010356
2202,-1.106730938
2203,-0.9472084045
2204,-0.2190022767
2205,-1.155046582
2206,-0.1959769428
2207,0.04138290882
2208,0.1879931539
2209,0.9738765359
2210,-0.350818485
2211,0.1799903512
2212,-0.7600695491
2213,-0.006083406974
2214,0.779363811
2215,-0.5715629458
2216,-0.5473744869
2217,-0.2977134883
2218,-0.03890483454
2219,0.6717284918
2220,0.3007373214
2221,0.01093668025
2222,-0.1925056428
2223,0.9409142137
2224,-0.0630819574
2225,0.1313767284
2226,-0.02163202316
2227,-0.3283647895
2228,-1.287234187
2229,-0.05170308426
2230,0.3084664643
2231,-0.5683165789
2232,-0.7476825118
2233,-0.07046997547
2234,-0.09611360729
2235,0.3635907173
2236,0.2546488345
2237,-0.3090103865
2238,0.5657712817
2239,0.3349126875
2240,-0.1255881637
2241,-6.722914219
2242,-0.1145149246
2243,-0.7204552293
2244,0.2665391266
2245,-0.239858523
2246,0.3704966605
2247,0.02514869906
2248,-0.9028073549
2249,0.7597817779
2250,0.5007407069
2251,0.1980445385
2252,0.7605426908
2253,-1.740331531
2254,-1.721835136
2255,-0.0775680691
2256,-1.073550582
2257,0.3360431492
2258,0.8324934244
2259,-0.9744420052
2260,-0.1177586243
2261,-0.1972954273
2262,0.1490492374
2263,-0.07965733856
2264,-0.3731482625
2265,-0.9315062761
2266,-0.08902413398
2267,-0.002915370744
2268,0.09445535392
2269,0.4032893479
2270,0.5980436802
2271,0.8452449441
2272,-1.39165318
2273,0.1177491248
2274,-0.2938272357
2275,0.1014841571
2276,-0.4737467766
2277,0.04285655916
2278,0.6671503782
2279,-0.1542357206
2280,1.357212305
2281,-0.697358489
2282,-0.05898077786
2283,-0.287566036
2284,-2.127610207
2285,0.3070428967
2286,0.2930872142
2287,0.7042424679
2288,-0.003358637914
2289,0.1525091678
2290,-1.380855203
2291,0.8121741414
2292,-2.307571411
2293,0.238219887
2294,-1.046247005
2295,1.417887092
2296,-0.2023209035
2297,0.1908583045
2298,1.116230965
2299,1.203598857
2300,-0.0573326163
2301,-0.001724121161
2302,0.4007030725
2303,0.6990470886
2304,-12.44162464
2305,-6.122052193
2306,-2.719456673
2307,-9.580210686
2308,-6.970290661
2309,0.376714915
2310,-8.088145256
2311,6.325838089
2312,-8.948307991
2313,-10.7767086
2314,0.5083864927
2315,-0.1485302299
2316,11.42616558
2317,5.852523804
2318,11.65248489
2319,12.43539524
2320,8.514643669
2321,5.288340569
2322,-9.782407761
2323,-2.479827166
2324,5.894264698
2325,-0.02901924029
2326,0.001245485619
2327,0.2284063697
2328,-1.816385984
2329,-0.09625912458
2330,-8.552924156
2331,-8.593196869
2332,12.45019817
2333,-3.120970249
2334,8.371976852
2335,-5.282487392
2336,9.994700432
2337,-11.1423502
2338,-6.252717495
2339,9.148544312
2340,-1.223306775
2341,6.199551582
2342,6.447030544
2343,-10.92878532
2344,9.318432808
2345,-6.528386593
2346,-4.571413517
2347,-7.487350464
2348,-7.367299557
2349,-0.150734365
2350,-4.383027077
2351,5.46877861
2352,8.190725327
2353,-3.889284611
2354,-15.04408932
2355,-6.545989037
2356,-5.190038204
2357,14.17578888
2358,-1.53356719
2359,3.280695915
2360,-0.224472478
2361,-7.586951733
2362,3.797183037
2363,-2.16940999
2364,1.139878392
2365,0.1481731385
2366,10.13382149
2367,9.365844727
2368,-0.5908454657
2369,0.3147250414
2370,0.3201184273
2371,-0.2630917132
2372,-0.08323546499
2373,-0.2367888391
2374,0.2740284801
2375,-0.0285253562
2376,0.001651184983
2377,0.4093359411
2378,-0.1485592127
2379,0.09977538884
2380,-0.6421005726
2381,0.1631416231
2382,0.1143700704
2383,-0.4130750597
2384,0.06012037396
2385,-0.3266186416
2386,0.3959282339
2387,0.06823448092
2388,-0.1559673399
2389,-0.0003044506593
2390,-0.3562595546
2391,0.2022984326
2392,0.1039276794
2393,0.1824717522
2394,0.1076047793
2395,-0.1370532811
2396,0.3675751686
2397,-0.145416975
2398,-0.02061619423
2399,-0.05616103113
2400,0.4629176259
2401,-0.9749664664
2402,-0.7787399292
2403,-0.07213941962
2404,-0.1806707084
2405,0.3404831886
2406,-0.04625316337
2407,0.4100698829
2408,0.3565641046
2409,0.176952675
2410,-0.1083343253
2411,-0.1216969192
2412,-0.3779584765
2413,-0.3042171001
2414,-0.01061344892
2415,-0.5623746514
2416,0.2067174464
2417,-0.365957737
2418,0.03704442084
2419,-0.2245564014
2420,0.4355873764
2421,0.1968625188
2422,0.1481889933
2423,-0.1950622052
2424,0.3417944312
2425,-0.1428900659
2426,-0.2609668076
2427,-0.1887929589
2428,0.002282302361
2429,-0.1112356558
2430,0.3318998814
2431,0.3324347734
2432,-0.00368055026
2433,-0.5451923013
2434,0.7087686658
2435,-0.846775949
2436,-0.05040977895
2437,0.386544615
2438,0.3145254552
2439,0.2596747875
2440,-0.137148425
2441,-0.0007997087669
2442,-0.5973768234
2443,-0.1854252964
2444,0.3650790751
2445,-0.6734842658
2446,-0.3350410461
2447,0.4239702821
2448,0.268425405
2449,-1.089123368
2450,-0.05487919599
2451,0.1169210821
2452,-0.3425042629
2453,-0.3169941604
2454,0.1946988106
2455,-0.514934063
2456,0.2146529108
2457,-0.6835492253
2458,-0.6265166998
2459,-0.4457378685
2460,-0.09056225419
2461,-0.2404268384
2462,0.2012125403
2463,0.0417582877
2464,0.3901986182
2465,-0.2717838585
2466,0.2014900297
2467,0.08375181258
2468,0.1356159598
2469,0.4129678905
2470,0.1227868199
2471,-0.5669129491
2472,-0.1184010804
2473,-0.1337938905
2474,0.1789183766
2475,-0.5328102708
2476,-1.31786716
2477,-0.3881063163
2478,-0.5011469722
2479,0.1230248883
2480,-0.3063334525
2481,-0.2813034356
2482,-0.3540794849
2483,0.3622029126
2484,-1.06099689
2485,0.149071753
2486,0.06735301018
2487,0.169107765
2488,-0.5194472075
2489,0.4915858507
2490,0.3261133134
2491,0.4472341835
2492,-0.9808261991
2493,-0.1761405468
2494,-0.1267510802
2495,-0.09939528257
2496,0.0318002291
2497,0.07584341615
2498,0.01856146753
2499,0.04188767821
2500,0.06429995596
2501,0
2502,0.01702912711
2503,-0.0812349394
2504,-0.1312563866
2505,0.06004196033
2506,-0.08698345721
2507,0.0140978219
2508,0.07134643197
2509,0.1732404977
2510,0.08689624071
2511,-0.004058632068
2512,-0.09602101892
2513,0.134735316
2514,0.1353335232
2515,-0.1572462916
2516,0.003296465147
2517,-0.01105470303
2518,0
2519,0.1671212763
2520,-0.03904235363
2521,0.1454207301
2522,-0.08166888356
2523,-0.0212694779
2524,0.05617866665
2525,-0.2160538137
2526,-0.004700654652
2527,-0.1139072776
2528,0.08705750853
2529,0.101704739
2530,0.03719345108
2531,0.02677139454
2532,-0.118625924
2533,-0.04227488115
2534,-0.1064523086
2535,-0.03721604124
2536,0.04905263335
2537,0.01090694778
2538,0.00468005985
2539,-0.03454759717
2540,0.03672097996
2541,0
2542,-0.0365999043
2543,0.006520332769
2544,-0.01975014806
2545,-0.03827000782
2546,0.005171846133
2547,-0.0334674269
2548,0.02661593631
2549,-0.09542123228
2550,-0.07838005573
2551,0.01273717731
2552,0.1778026372
2553,-0.07114039361
2554,-0.1386429369
2555,0.08516412973
2556,0.1064663902
2557,0
2558,0.02761697397
2559,0.07816800475
2560,-0.152595371
2561,-0.2713222802
2562,-0.3280062675
2563,0.02033356018
2564,0.1815402061
2565,-0.2131619453
2566,-0.645685792
2567,0.2860405445
2568,-0.5506773591
2569,-0.4836493433
2570,-0.1531657577
2571,0.4479208589
2572,-0.723434329
2573,-0.07092594355
2574,-1.008242965
2575,-0.1301187724
2576,0.2566947341
2577,-0.3608954251
2578,-0.04569978639
2579,0.1579703242
2580,0.1023786664
2581,-0.1530509442
2582,0.1702225208
2583,0.08631256223
2584,0.03548061103
2585,0.02267457359
2586,-0.1587931514
2587,-0.4128713012
2588,0.4013935924
2589,-0.2582269609
2590,-0.09222695976
2591,0.2133827209
2592,-0.7381769419
2593,0.5790160894
2594,-0.141060859
2595,-0.1684224308
2596,-0.3602656722
2597,-0.1116951331
2598,-0.5859335065
2599,-0.8252963424
2600,0.2907388508
2601,-0.9417586327
2602,-0.1012447104
2603,0.2491310388
2604,0.2849272788
2605,-0.09663937986
2606,0.2631931007
2607,0.3596757054
2608,-0.4317599833
2609,0.5224886537
2610,0.02957417257
2611,0.2484126687
2612,0.1466793716
2613,-0.2181419283
2614,0.1491753012
2615,0.4370236993
2616,-0.5801095963
2617,-0.9184596539
2618,0.4737007916
2619,0.1447615027
2620,0.145649001
2621,0.5428359509
2622,0.06357838959
2623,-1.268366814
2624,-0.07219536602
2625,-0.01865912229
2626,0.2492208481
2627,-1.158666611
2628,-0.080234088
2629,0.1968212575
2630,-1.356067896
2631,-0.1834167093
2632,-1.821076632
2633,0.2747662961
2634,1.781120896
2635,-0.5457300544
2636,0.5440311432
2637,-0.796515584
2638,-1.160883904
2639,-0.2515905499
2640,2.493134022
2641,0.1761600822
2642,0.1742267013
2643,-0.8067494035
2644,0.02150364779
2645,-0.2806393802
2646,-1.280895472
2647,-2.129976511
2648,-0.3286702335
2649,-0.9417399764
2650,-0.1153054386
2651,0.9285191298
2652,0.4502375126
2653,-1.450212598
2654,-0.1348054558
2655,0.2446792871
2656,1.302327156
2657,0.9572528601
2658,-1.455759048
2659,1.125616074
2660,1.226950169
2661,-0.07589505613
2662,-0.3935942948
2663,0.175938651
2664,1.556637645
2665,-0.2458073646
2666,0.2244605422
2667,-0.9914958477
2668,1.185628414
2669,0.1462149322
2670,-0.4755190611
2671,0.8222539425
2672,1.221263409
2673,0.2359559238
2674,0.06876108795
2675,-0.02650815062
2676,0.2617467344
2677,-0.2706049085
2678,1.450614572
2679,-0.9532995224
2680,0.4413089752
2681,-0.1858059168
2682,-0.07251898199
2683,0.2658663392
2684,0.1467449665
2685,1.633711219
2686,1.391508579
2687,-0.08776144683
2688,-0.9200171828
2689,-0.1120742783
2690,0.3061905801
2691,-0.0031572429
2692,-0.1636470556
2693,-0.3665942252
2694,0.3821246922
2695,-0.08751839399
2696,0.528164506
2697,-0.1828335822
2698,-0.1116253287
2699,-0.07545399666
2700,0.4635411799
2701,0.08165629208
2702,0.3205138743
2703,0.7070439458
2704,-0.1412958205
2705,-0.1634601355
2706,0.304457128
2707,0.1774439365
2708,0.1835291982
2709,-0.1061657742
2710,-0.005815123674
2711,-0.3931462765
2712,0.4960484207
2713,0.1871415228
2714,0.2444196194
2715,0.1405881494
2716,-0.2508082688
2717,0.5477546453
2718,0.1177829355
2719,0.005447176285
2720,-0.4042646289
2721,0.1755154282
2722,0.2062858045
2723,0.1884654015
2724,0.09052271396
2725,-0.1367056519
2726,0.1778052449
2727,-0.01842526346
2728,0.0005066251615
2729,0.3897592723
2730,-0.09809281677
2731,0.1621085703
2732,0.04605379328
2733,-0.3303924203
2734,-0.6428474188
2735,0.09805195779
2736,0.1652589291
2737,-0.0422860235
2738,-0.1196218356
2739,0.3832870126
2740,-0.3591562808
2741,0.1420314759
2742,-0.009613678791
2743,-0.09227114916
2744,0.1638626009
2745,-0.2324984521
2746,-0.999856174
2747,0.4901362956
2748,-0.9086254835
2749,0.05267926306
2750,0.06732459366
2751,0.2871490121
2752,-0.5432358384
2753,-0.4023959041
2754,-0.1243996173
2755,0.385068655
2756,-0.2219537348
2757,0.03829298913
2758,-0.3835755289
2759,-0.6306602955
2760,0.6751340032
2761,0.5563642979
2762,0.07973178476
2763,-0.08626288176
2764,-0.8166304827
2765,-0.4358336031
2766,-0.401965946
2767,0.6029398441
2768,0.3525964916
2769,0.4630780816
2770,-0.2350194603
2771,-0.09017191082
2772,0.04133693874
2773,0.1981132329
2774,0.4898880422
2775,0.113427788
2776,0.3436073363
2777,0.7414516807
2778,-0.05559052527
2779,-0.3265415132
2780,0.1097643748
2781,0.7253425121
2782,0.8060201406
2783,0.0357173644
2784,-0.1144024506
2785,0.6586000323
2786,0.3726713955
2787,0.3614004552
2788,-0.2967445552
2789,0.4092844129
2790,-0.2137163877
2791,-0.04683747888
2792,0.008729147725
2793,0.9440157413
2794,-0.2377655804
2795,-0.5194513202
2796,-0.4376472533
2797,0.09383723885
2798,0.2168549597
2799,0.150589332
2800,-0.5048720837
2801,1.121051311
2802,0.4269364476
2803,0.1354805529
2804,-0.2211788744
2805,0.1409787685
2806,0.213710174
2807,0.07969230413
2808,-0.02656266838
2809,-0.5832537413
2810,0.1240715757
2811,-0.1354563832
2812,-0.2540863752
2813,0.1723381579
2814,0.1168502122
2815,-0.3775280416
2816,-0.6383663416
2817,0.2201024443
2818,-0.2371155769
2819,0.03253851831
2820,0.104663074
2821,0.01582897082
2822,0.131145075
2823,-0.2105295211
2824,-0.2838912308
2825,-0.03762615472
2826,-0.1929154396
2827,-0.3513822258
2828,-0.1271117032
2829,-0.01463451609
2830,0.1147603542
2831,0.5506878495
2832,0.2964172363
2833,-0.3369719982
2834,-0.04349339381
2835,0.0759415701
2836,-0.6513716578
2837,-0.337394774
2838,-0.3691796064
2839,-0.7071944475
2840,0.3108066916
2841,0.1879013181
2842,-0.1755012125
2843,-0.6627613902
2844,0.04688703641
2845,-0.0928304866
2846,-0.002633260563
2847,-0.1184882224
2848,0.5020470619
2849,-0.1975143403
2850,0.1546237171
2851,0.02829406783
2852,0.2697013915
2853,0.3850854635
2854,-0.1319433153
2855,0.100582771
2856,0.03872829303
2857,-0.6268536448
2858,0.3687021434
2859,0.1483323276
2860,0.1064537987
2861,-0.2508608997
2862,-0.3062367141
2863,0.3111249208
2864,0.002878324129
2865,-0.210193038
2866,0.03096520901
2867,-0.2784351707
2868,0.1949573904
2869,-0.3188415766
2870,-0.2467707545
2871,-0.2432766557
2872,-0.2603416145
2873,-0.0558296144
2874,-0.5684825182
2875,0.1801925302
2876,-0.137304157
2877,-0.04629243538
2878,0.3600847125
2879,0.01063137501
2880,0.272115469
2881,0.2920645475
2882,0.02962093242
2883,0.08556123823
2884,-0.05094162002
2885,0.08429194242
2886,-0.1611937135
2887,0.0788243562
2888,-0.04765891284
2889,-0.01615528204
2890,-0.02493114397
2891,-0.2927690446
2892,0.01731462032
2893,0.2603100836
2894,0.2727436125
2895,-0.09649598598
2896,-0.2040003538
2897,0.01950047351
2898,-0.1842527986
2899,-0.07229062915
2900,-0.2568763793
2901,-0.1609171629
2902,0.09477196634
2903,-0.2826711535
2904,0.2834773362
2905,-0.2879618108
2906,-0.09207247943
2907,-0.1735209823
2908,0.2484011203
2909,0.1187709868
2910,0.02378457971
2911,0.04183767363
2912,-0.158154428
2913,-0.2156759948
2914,-0.1578955948
2915,-0.1287440807
2916,-0.1902927756
2917,-0.2460538894
2918,0.2434433401
2919,-0.129528746
2920,-0.2562761605
2921,0.05308857933
2922,0.03324314207
2923,0.00706151966
2924,-0.06961905211
2925,-0.1385806501
2926,0.1084623709
2927,0.1053956226
2928,-0.09934287518
2929,0.2019775957
2930,0.2058283389
2931,-0.1830717325
2932,-0.199406743
2933,-0.1731106341
2934,-0.1955530047
2935,0.07566919923
2936,0.140064612
2937,-0.2189565599
2938,-0.2677728832
2939,0.1047180295
2940,0.189198941
2941,-0.2768756747
2942,-0.2300559133
2943,-0.1339718848
2944,0.2067285329
2945,-0.3457339108
2946,-0.4489767253
2947,-0.2729110122
2948,0.2138200104
2949,-0.2174943238
2950,-0.2098239809
2951,-0.401565969
2952,0.1740177721
2953,-0.404230684
2954,-0.5774206519
2955,0.3459066153
2956,0.02204622887
2957,0.2571667731
2958,-0.1660742909
2959,-0.884128809
2960,0.3425804377
2961,0.07960633934
2962,-0.3249688148
2963,-0.06987570971
2964,0.4078673422
2965,0.06952343881
2966,-0.2669799626
2967,-0.5525835752
2968,-0.2461408228
2969,-0.1086078063
2970,0.03550522774
2971,0.0647296682
2972,-0.1819072962
2973,-0.7505096793
2974,-0.06087477878
2975,0.06282740086
2976,-0.7665991783
2977,-0.06180756539
2978,-0.3954364955
2979,-0.1025260612
2980,-0.8845338225
2981,-0.2670842111
2982,-0.395463258
2983,-0.08792564273
2984,0.1530091017
2985,0.2221809924
2986,-0.1541599631
2987,0.427264899
2988,-0.2569616437
2989,0.3590885997
2990,-0.3889293671
2991,-0.6746678352
2992,-0.6695860028
2993,0.08333580196
2994,-0.2400703877
2995,0.05065284297
2996,-0.2884565294
2997,-0.2405078262
2998,-0.2140259892
2999,-0.4587445259
3000,-0.1284369975
3001,0.04404645413
3002,0.337770313
3003,0.3495251536
3004,0.1146755442
3005,0.0231112726
3006,0.2288755029
3007,0.3364552557
3008,0.4673652649
3009,-0.3245542645
3010,0.5770812631
3011,0.108973816
3012,0.1976305097
3013,-0.2743709385
3014,0.09921839833
3015,0.2887615561
3016,0.2186632007
3017,0.02459666878
3018,0.291267097
3019,0.02455015853
3020,0.1836003363
3021,0.1657759398
3022,0.4937357306
3023,-0.5068754554
3024,-0.4169124961
3025,0.09326697886
3026,0.03191000223
3027,-0.956025362
3028,0.06737078726
3029,-0.09460857511
3030,-0.06507306546
3031,0.6718121767
3032,-0.3110218942
3033,-0.1003445238
3034,-0.177777648
3035,0.2452692837
3036,-0.03643710166
3037,0.02919919789
3038,0.01266802102
3039,0.1206028312
3040,-0.1190174296
3041,0.3521694541
3042,-0.135604009
3043,-0.1199272275
3044,0.2404777408
3045,-0.5466125011
3046,0.6280580163
3047,-0.3628580868
3048,-0.2533624172
3049,-0.1794236302
3050,-0.1350439191
3051,-0.07542756945
3052,-0.3858867288
3053,-0.1159507856
3054,0.2401962727
3055,0.1483853906
3056,-0.02767293155
3057,0.1790951341
3058,-0.6625302434
3059,-0.04280318692
3060,-0.1150864139
3061,-0.2834684551
3062,-0.3099377751
3063,-0.6172156334
3064,-0.1146248952
3065,-0.2570312619
3066,0.667499125
3067,0.1527320445
3068,0.4311075211
3069,0.2251357585
3070,-0.05980255082
3071,-0.390827775
3072,-0.2422192097
3073,-0.2755970955
3074,0.0909846127
3075,0.3043670952
3076,-0.5635020733
3077,-0.3627210557
3078,0.1281551272
3079,-0.3819305897
3080,0.06603252888
3081,-0.05290044472
3082,0.3131119907
3083,0.2839421332
3084,-0.7564514279
3085,-0.3845624328
3086,-0.177405566
3087,0.02589073777
3088,0.1297216564
3089,0.05113505945
3090,0.02631679736
3091,0.2310446799
3092,0.2244822532
3093,-0.2296374589
3094,-0.0980399549
3095,0.3489038944
3096,-0.03926742449
3097,-0.4127124846
3098,-0.06012235954
3099,0.1837542057
3100,-0.07472870499
3101,-0.2304956168
3102,-0.020584343
3103,0.4496788979
3104,0.176373288
3105,0.1606024951
3106,0.109266758
3107,-0.09706163406
3108,-0.05382675305
3109,-0.03214708716
3110,-0.2574922442
3111,-0.03083548322
3112,-0.1074671745
3113,0.005034061149
3114,-0.3016656339
3115,0.3506247997
3116,-0.03315098211
3117,-0.3657155931
3118,0.3470667601
3119,0.3437958062
3120,0.04752538353
3121,-0.3178569674
3122,0.1982248574
3123,0.02477070689
3124,-0.247275129
3125,-0.3505839705
3126,0.04842199385
3127,0.4876686037
3128,0.395626843
3129,0.1654535234
3130,0.05183363706
3131,0.2555840611
3132,0.007920412347
3133,0.1713757068
3134,-0.8823968768
3135,-0.06843933463
3136,-0.09168156236
3137,-0.1027814001
3138,0.07145377994
3139,0.1908297688
3140,-0.1210159436
3141,-0.3731987178
3142,0.1186370403
3143,0.0919566676
3144,0.6341099739
3145,-0.2142446637
3146,-0.4498968124
3147,0.2852384448
3148,0.2191360742
3149,-0.7823842764
3150,0.2550494969
3151,0.289311558
3152,-0.3309483826
3153,-0.04016463086
3154,-0.5338069797
3155,-0.5780547261
3156,0.3958306909
3157,0.0343824625
3158,-0.9057102799
3159,0.4748891592
3160,0.1200654656
3161,-0.07382834703
3162,0.155491665
3163,-0.5577125549
3164,-0.1429531276
3165,0.03617122397
3166,0.2088885754
3167,-0.2149330527
3168,-0.07127283514
3169,-0.06759746373
3170,0.07388083637
3171,0.03334545344
3172,-0.1640197635
3173,0.1974970102
3174,-0.3812820911
3175,0.03854210302
3176,-0.03000739776
3177,0.6412709355
3178,0.124851346
3179,0.2252962887
3180,0.3371955752
3181,-0.4723191559
3182,-0.2469488233
3183,0.2235193849
3184,-0.5321549177
3185,0.5961772799
3186,0.01347247604
3187,0.2130807936
3188,-0.1527571678
3189,-0.3550242484
3190,-0.1961687654
3191,-0.3315345347
3192,-0.5502038598
3193,-0.1915622503
3194,-0.1126341298
3195,-0.05020593479
3196,-0.1364319175
3197,0.2266585529
3198,-0.1176904812
3199,-0.6564478278
3200,0.3412734866
3201,-0.3550664783
3202,-0.6205325127
3203,-1.006388545
3204,0.5298407078
3205,-0.1132383719
3206,1.039244771
3207,-0.4595480263
3208,0.2586757243
3209,0.0769566223
3210,-0.144671753
3211,0.7370058298
3212,0.7464809418
3213,1.088130593
3214,0.006640315987
3215,1.132452011
3216,-1.086548686
3217,0.2590320706
3218,0.09359378368
3219,-1.637278438
3220,0.079604581
3221,0.06598678231
3222,-1.068070054
3223,-0.1450321525
3224,1.106970191
3225,-0.1324536055
3226,0.276948899
3227,-1.498539925
3228,0.008927712217
3229,-0.1832661629
3230,0.4548840821
3231,-0.1452330798
3232,-0.0230825711
3233,-1.52931571
3234,0.3454113007
3235,0.05414620414
3236,0.8284020424
3237,-0.5316755176
3238,0.4070429206
3239,-0.5139363408
3240,-0.1972031295
3241,0.858207643
3242,0.6356960535
3243,-0.1401154101
3244,-0.2017332315
3245,-0.06890750676
3246,0.930388689
3247,0.4467399716
3248,-0.2106335312
3249,1.319890618
3250,0.01234361902
3251,0.07606184483
3252,-0.1667096615
3253,-0.2050271481
3254,-0.8015761375
3255,-0.1273085922
3256,-1.40742135
3257,0.2123137861
3258,0.5337907076
3259,0.98511374
3260,0.2603929937
3261,0.128466934
3262,-0.7435718179
3263,-0.1442327499
3264,0.3922479451
3265,-0.6162757277
3266,0.3235814273
3267,-1.001710296
3268,0.5144281387
3269,-0.2708830833
3270,0.3017514646
3271,-0.8263244629
3272,-0.5411042571
3273,-0.5692647099
3274,-0.1480085701
3275,0.6851175427
3276,-0.08350245655
3277,0.7529418468
3278,0.4278944433
3279,-0.6113623381
3280,-0.7402079701
3281,0.343331784
3282,-0.5203719735
3283,0.009641198441
3284,0.9139342308
3285,0.04796051234
3286,-1.134936571
3287,-0.2005511075
3288,-0.07421800494
3289,-0.8495657444
3290,-0.1838521957
3291,-0.9703072309
3292,-0.000702283578
3293,-0.7258139849
3294,0.2496077865
3295,-0.3203443885
3296,0.1439169496
3297,-0.913020134
3298,-1.801641703
3299,-1.090629578
3300,-1.018910408
3301,-0.4790728092
3302,0.5548975468
3303,0.2275952101
3304,0.06333432347
3305,-0.9792872071
3306,-0.3917692602
3307,0.4129020274
3308,-0.3597566187
3309,-0.1048774496
3310,0.4403976798
3311,-0.9750977159
3312,-0.4893738925
3313,-1.094600558
3314,0.8744137287
3315,0.154489845
3316,0.2657262385
3317,-0.09940057993
3318,-0.8476747274
3319,0.02546063997
3320,-0.2335700095
3321,-0.6571751833
3322,0.1527367979
3323,0.00274430681
3324,-0.399401933
3325,-1.291416168
3326,-1.114237428
3327,-0.5521512032
3328,-0.03799477592
3329,0.7438543439
3330,0.4229853749
3331,-0.2175807804
3332,0.08767217398
3333,-0.01721452177
3334,0.3980914354
3335,0.649672389
3336,-0.9061647058
3337,-0.04523364455
3338,-0.5013679862
3339,-0.3829244077
3340,-0.2960679829
3341,0.1561890841
3342,0.2023141831
3343,-0.07195214927
3344,-0.6491186619
3345,-0.3623710871
3346,-0.3271650672
3347,-0.2566179633
3348,0.02481558546
3349,0.1558954269
3350,0.4118686914
3351,-0.3168623447
3352,-0.09951336682
3353,-0.2327440828
3354,-0.2289030999
3355,1.060025573
3356,0.1480564624
3357,-1.096799254
3358,-0.8432891965
3359,0.05920872092
3360,-0.7752705216
3361,-0.8642459512
3362,-1.057719231
3363,0.01152007654
3364,0.0690786019
3365,0.3765392303
3366,0.7732089758
3367,-0.04634718224
3368,0.2289826423
3369,-1.059827328
3370,0.002348349662
3371,-0.598919034
3372,0.05316163972
3373,-0.2634670436
3374,0.1557751
3375,-0.1712935567
3376,0.5533428192
3377,-0.06978860497
3378,0.4901628196
3379,0.2093688548
3380,-0.1592955589
3381,-0.1171023548
3382,0.496386379
3383,-1.23146081
3384,0.4547068477
3385,-0.2992723882
3386,-0.4614439607
3387,-1.057330847
3388,-0.4832424819
3389,-0.008713486604
3390,0.6129094362
3391,-0.01177276205
3392,0.5758287311
3393,0.06779383868
3394,0.2180965394
3395,-0.07944943011
3396,-0.4962607026
3397,0.05147373676
3398,-0.02364172041
3399,0.1003443897
3400,0.1106473729
3401,-0.1707680523
3402,0.6026287675
3403,0.06659811735
3404,0.4129235148
3405,0.1294273585
3406,0.2778779268
3407,-1.433687449
3408,0.4194669724
3409,0.326095283
3410,-0.1532873362
3411,0.01943368465
3412,-0.09559379518
3413,-0.1381088644
3414,0.7435141206
3415,-0.6476620436
3416,-0.5213057995
3417,-0.1367605925
3418,-0.1036718413
3419,0.7079229355
3420,0.2172503173
3421,-0.5613415837
3422,0.09807287157
3423,-0.2135137767
3424,-0.2691341937
3425,0.1138600484
3426,0.1467941403
3427,-0.08095750213
3428,-1.824741602
3429,-0.635707736
3430,0.2551074922
3431,-0.6183287501
3432,0.2150647938
3433,0.0119607877
3434,0.03437849134
3435,-0.3917293847
3436,-0.6078826785
3437,0.2397135347
3438,-0.6239235401
3439,-0.04468088225
3440,0.3970094025
3441,0.2878697515
3442,-0.3409146965
3443,0.7303703427
3444,0.178447634
3445,0.2805909216
3446,0.6907442808
3447,-0.9822840095
3448,0.5020873547
3449,0.2492464036
3450,-0.8794089556
3451,-0.01898980886
3452,-0.4829165637
3453,0.06742759049
3454,-0.594378531
3455,-0.08039364964
3456,-0.230565384
3457,0.050746575
3458,0.5274487138
3459,0.1636946797
3460,-0.3651761115
3461,0.07252865285
3462,0.1793005764
3463,0.005367477424
3464,-0.2707352042
3465,0.2151479125
3466,0.4268366098
3467,-0.3506770432
3468,0.1899322569
3469,-0.1481076032
3470,-0.1328712851
3471,0.4898893535
3472,0.7966353893
3473,0.06612027436
3474,0.2196660191
3475,0.1325162798
3476,-0.1725933403
3477,0.010166022
3478,0.05857136846
3479,-0.6122441292
3480,0.22731933
3481,-0.1155253202
3482,-0.3056207597
3483,0.3636381924
3484,-0.1965219676
3485,0.02990346961
3486,0.08490584046
3487,0.1832372546
3488,0.6899985075
3489,0.015217104
3490,-0.4773951471
3491,0.2768471837
3492,0.0633995682
3493,0.03954178467
3494,-0.08353868872
3495,-0.1750294417
3496,0.2759871483
3497,-1.18335712
3498,0.4703710079
3499,0.01334818173
3500,-0.0412142612
3501,-0.3039982319
3502,-0.3667051196
3503,0.5816842914
3504,0.4348174036
3505,-0.88355124
3506,0.1231098101
3507,-0.08990207314
3508,-0.1340675354
3509,-0.2708546817
3510,0.41820544
3511,-0.03766300902
3512,0.2177039236
3513,0.2534033656
3514,-0.3404558599
3515,-0.02270150743
3516,-0.5946840048
3517,0.3188914955
3518,0.5771116614
3519,0.1221429855
3520,-0.8135418892
3521,0.3416499197
3522,0.2438875586
3523,0.07055488229
3524,0.1967763603
3525,-0.01488001551
3526,-0.6297352314
3527,-0.1094506234
3528,0.04994423315
3529,0.0738280192
3530,-0.4190350771
3531,0.2109525502
3532,0.3982269466
3533,-0.03457130119
3534,-0.0081631504
3535,0.1375504434
3536,0.3396794796
3537,-0.3431284726
3538,-1.030991197
3539,0.255166024
3540,-0.7995386124
3541,0.2177261263
3542,0.377322346
3543,-0.2569509745
3544,0.3153836727
3545,0.5655919313
3546,-0.3303014934
3547,0.3966912627
3548,-0.105777815
3549,-0.3886400461
3550,-0.8001698852
3551,-0.159316048
3552,-1.304706812
3553,0.04338175803
3554,-0.9511843324
3555,-0.3833663762
3556,0.00784662459
3557,-0.2623644471
3558,0.3769983947
3559,-0.5859462619
3560,-1.716425657
3561,-1.13559401
3562,-0.332378
3563,0.08005139232
3564,0.0202550143
3565,-0.3652005494
3566,-0.162726596
3567,0.1424544305
3568,-0.689545989
3569,-0.2265218049
3570,0.2160271108
3571,0.2361852378
3572,-0.3008681536
3573,0.155127272
3574,-0.07390399277
3575,0.1517173946
3576,0.1306862086
3577,0.2133041322
3578,0.006838296074
3579,0.1176701337
3580,0.3339856267
3581,0.04164383188
3582,-0.8244264126
3583,0.3244419396
3584,-0.1818845123
3585,0.1195241734
3586,-0.441174984
3587,0.329226017
3588,-0.3116002381
3589,-0.1263029128
3590,-0.2260426432
3591,0.1457704753
3592,0.4091279507
3593,-0.0399460718
3594,0.2037306577
3595,0.2108392268
3596,-0.5516071916
3597,-0.05142777413
3598,-0.1498544663
3599,-0.2381869853
3600,-0.1497731358
3601,0.331538558
3602,-0.798371017
3603,-0.2560180128
3604,-0.2562511265
3605,-0.2030011863
3606,-0.2071490586
3607,-1.208544135
3608,0.2548622787
3609,0.2910751402
3610,-0.1714214385
3611,0.5221225619
3612,-0.4693380296
3613,-1.346750855
3614,-0.09693431854
3615,0.155626893
3616,0.5685427189
3617,-0.2289729416
3618,0.4834083021
3619,-0.1824145019
3620,-1.723038673
3621,-0.7907440066
3622,-0.5245423317
3623,0.2833528817
3624,-0.1450486183
3625,0.30843696
3626,0.3774445951
3627,-0.03444273025
3628,0.333668828
3629,-0.1984217316
3630,-0.1043424606
3631,-0.3685592413
3632,-0.0384484008
3633,0.2646377683
3634,-0.1417237669
3635,0.2650202215
3636,0.02820800804
3637,0.09642991424
3638,0.09895790368
3639,-0.2684471011
3640,0.4981071353
3641,-0.1082507893
3642,0.1843734086
3643,0.09755102545
3644,-0.05048944429
3645,-0.1915378571
3646,-1.017262459
3647,-0.2402879447
3648,-0.2896841466
3649,-0.03040219098
3650,-0.06564427912
3651,0.0832998082
3652,0.4404199421
3653,0.1260701865
3654,-0.5058805346
3655,-0.1292138547
3656,0.3410136402
3657,0.3427597284
3658,-0.5636277795
3659,-0.2963509262
3660,-0.0657171756
3661,0.2576714158
3662,-0.4706088603
3663,-0.1357427686
3664,-1.707340002
3665,-0.2654004097
3666,-0.005114706233
3667,-0.06236572191
3668,-0.4834811687
3669,-0.08078856021
3670,-1.885270357
3671,0.06735291332
3672,-0.09088905901
3673,0.2008388191
3674,-0.1158014908
3675,0.1875879169
3676,-0.2927038968
3677,0.05241585523
3678,0.1849376112
3679,-0.07635681331
3680,0.4508908391
3681,0.2240724117
3682,-0.08332650363
3683,0.06261134893
3684,-0.2272437662
3685,-0.237696141
3686,-0.2456390858
3687,0.8469374776
3688,-0.2333597839
3689,-0.6663439274
3690,-0.02250493318
3691,0.2646714151
3692,-0.2699236274
3693,0.3244640827
3694,-0.07915332168
3695,-0.0734981522
3696,0.4018911719
3697,-0.5400378704
3698,-0.1806923747
3699,-1.237345815
3700,-0.2086599767
3701,0.08965264261
3702,-0.9788148999
3703,-1.179411411
3704,1.022304535
3705,0.323295325
3706,-0.2657495737
3707,-0.5910967588
3708,0.2904810309
3709,-0.9683842659
3710,0.1427508593
3711,-0.1008603647
3712,0.139150992
3713,0.4162177145
3714,-0.07090779394
3715,0.003218024038
3716,-0.2798783779
3717,-0.2079074085
3718,-0.318770498
3719,0.04595158994
3720,-0.08353021741
3721,0.1832267642
3722,-0.9859822392
3723,-0.2854018807
3724,-0.104320474
3725,-0.9711490273
3726,-0.07269580662
3727,0.438513279
3728,-0.07675988972
3729,-0.2359344959
3730,-0.09509492666
3731,-0.0589783676
3732,-0.1066375226
3733,-0.3042224944
3734,0.1486960202
3735,0.06667473167
3736,0.4354275465
3737,-0.6100550294
3738,-0.2903707623
3739,-0.0862172693
3740,0.09701472521
3741,0.4361491203
3742,0.05490967631
3743,0.2700428069
3744,0.02049526013
3745,0.1325009018
3746,0.1628392935
3747,-0.1944685429
3748,-0.1368266642
3749,0.298579812
3750,-0.08531094342
3751,-0.3470996022
3752,-0.4067080617
3753,0.2417010814
3754,0.1626005918
3755,-0.07990507036
3756,0.2414277792
3757,-0.1110614464
3758,-0.2531802356
3759,0.2424693555
3760,0.1750950515
3761,-0.4622882009
3762,0.2176019996
3763,-0.2753333747
3764,0.05723248795
3765,0.07564412057
3766,-0.1987466067
3767,0.05392768607
3768,-0.569904983
3769,0.1343347579
3770,-0.005757696461
3771,0.08372985572
3772,0.3690209091
3773,-0.09136349708
3774,0.356939137
3775,0.1324898154
3776,-0.5472559929
3777,-0.3008572757
3778,0.09252935648
3779,0.1644247621
3780,-0.4545321167
3781,0.02881181613
3782,-0.4093856812
3783,-0.6118333936
3784,0.184738785
3785,-0.3140909672
3786,-0.05149355903
3787,-0.0146736959
3788,-0.1619352996
3789,-0.4026364386
3790,0.04331605881
3791,-0.2901043892
3792,-0.2123164833
3793,0.05898778886
3794,-0.1274232864
3795,-0.4156538546
3796,-1.119255424
3797,-0.1321971416
3798,-0.1417468488
3799,-0.1953088492
3800,-0.04223039001
3801,0.4063768983
3802,0.1459940374
3803,0.24570553
3804,-0.07054621726
3805,-0.2631908357
3806,0.03944243863
3807,0.157507956
3808,-0.2069825828
3809,0.2363901287
3810,0.04342265427
3811,0.2007961422
3812,-0.2937130332
3813,-0.1361684203
3814,-0.2017291784
3815,-0.1985291094
3816,-0.2280035764
3817,0.1090656519
3818,0.1616330445
3819,-0.1575392932
3820,-0.4055987
3821,-0.02157841064
3822,0.1917381287
3823,-0.01982113719
3824,0.06078933179
3825,0.1484328508
3826,0.08224458992
3827,-0.5307593942
3828,0.08186654001
3829,-0.3865075707
3830,-0.1342442483
3831,0.1974546462
3832,0.09145417809
3833,0.2698337436
3834,-0.2402163148
3835,-0.170956701
3836,-0.4800475538
3837,-0.02194553427
3838,-0.2981657982
3839,0.04170118645
3840,-0.6346966028
3841,-1.055826783
3842,0.3516086638
3843,-0.02912122197
3844,0.2184987962
3845,0.1506911814
3846,0.1404435337
3847,-0.5895513296
3848,0.3182065189
3849,-0.2540860474
3850,0.04738104716
3851,0.1967392266
3852,0.09851917624
3853,0.3440438211
3854,0.3670218587
3855,-0.7496317625
3856,0.1712435782
3857,-1.031567097
3858,-0.4485549033
3859,-0.4611531496
3860,-0.1756099015
3861,-0.2798115313
3862,0.1422649473
3863,-1.094581962
3864,-0.2085454166
3865,0.2281486541
3866,0.2096077055
3867,0.2516945004
3868,0.3722908199
3869,0.3799185753
3870,0.1955394298
3871,-0.6610606313
3872,-0.07452258468
3873,0.3282241821
3874,0.3012993634
3875,-0.2884094119
3876,-0.936436832
3877,-0.5322740674
3878,0.07375951856
3879,0.2331317812
3880,-0.02910928987
3881,-1.331936479
3882,0.08872178197
3883,-0.4137786627
3884,-0.0413062498
3885,-0.007065395359
3886,0.0645288378
3887,-0.05566067249
3888,-0.31886518
3889,-1.42699182
3890,-0.9622398019
3891,0.2522500455
3892,-0.1499568075
3893,-0.2812886238
3894,-0.1112231463
3895,0.04662073404
3896,0.3990000784
3897,-0.4079738557
3898,-1.016953826
3899,-0.2956356406
3900,0.2211033702
3901,0.02297119983
3902,0.009133504704
3903,-0.8863554597
3904,-0.04953701794
3905,0.06342931092
3906,-0.1355217695
3907,-0.2174476683
3908,-0.1594237089
3909,0.1400258094
3910,-0.1213275939
3911,0.1012669653
3912,0.06722404808
3913,0.08472817391
3914,-0.2254828662
3915,-0.01537963562
3916,0.09653902054
3917,-0.1613860577
3918,-0.148185268
3919,-0.3030487597
3920,0.1799464822
3921,0.2230495661
3922,0.1537123471
3923,0.05667173862
3924,0.2177705169
3925,0.02265653946
3926,-0.0803764388
3927,0.1837972254
3928,0.01042799931
3929,0.2909160852
3930,0.02499525622
3931,0.045152843
3932,0.1051732227
3933,-0.1295194328
3934,-0.07939953357
3935,0.2435033172
3936,-0.2299981266
3937,-0.2835824192
3938,0.1117905006
3939,0.04225454107
3940,0.2586648762
3941,-0.1804789901
3942,0.01051025093
3943,-0.08201784641
3944,0.19981727
3945,0.1733326763
3946,0.03130786493
3947,-0.2375380099
3948,-0.1227461025
3949,0.04689668119
3950,0.300755769
3951,0.1168373078
3952,-0.03482526541
3953,0.1946658641
3954,-0.1798985749
3955,0.2369054705
3956,-0.1019962057
3957,-0.1422608346
3958,-0.0367458351
3959,0.2220565528
3960,0.2647713423
3961,-0.2521617115
3962,-0.05020526424
3963,-0.01003072225
3964,0.2296029478
3965,0.1805915385
3966,-0.01104895119
3967,-0.2695831358
3968,-0.1395546794
3969,0.0267911423
3970,0.01921818033
3971,0.256840378
3972,-0.1483608335
3973,-0.251327306
3974,0.2246170491
3975,-0.2633153796
3976,0.05572608858
3977,0.2727500498
3978,-0.2281208634
3979,0.05537729338
3980,-0.08595287055
3981,0.2347656935
3982,0.2181261033
3983,0.2757495642
3984,-0.2716375291
3985,-0.258928895
3986,0.2426028848
3987,0.02799240127
3988,-0.1205897927
3989,-0.1798778027
3990,-0.3000257313
3991,0.3006666005
3992,0.03734796122
3993,-0.2177222818
3994,0.06647161394
3995,0.3034446239
3996,-0.2734816968
3997,0.2463021129
3998,-0.01603216678
3999,-0.1861681789
4000,0.09654992819
4001,-0.2366887778
4002,0.187080428
4003,0.02585450932
4004,0.101146847
4005,-0.1834512502
4006,0.30308339
4007,-0.1742882282
4008,0.04838892072
4009,0.1125843078
4010,-0.2272088975
4011,-0.1163477153
4012,0.1769262403
4013,-0.08537470549
4014,0.2054802775
4015,-0.29668957
4016,0.1746279597
4017,0.2084668279
4018,-0.1202339903
4019,0.1309690028
4020,-0.1654519439
4021,0.05341076851
4022,-0.2992870212
4023,-0.143433094
4024,0.01534240227
4025,-0.2962418199
4026,0.1870669872
4027,0.008678626269
4028,-0.2775824964
4029,-0.04527727515
4030,0.2884601653
4031,-0.150473386
4032,-0.1170465574
4033,-0.2464651018
4034,-0.2755344808
4035,0.1348380297
4036,0.2312355936
4037,0.1618013233
4038,-0.5176916122
4039,-0.2833548188
4040,-0.4300637245
4041,-0.2083371282
4042,-0.4480673373
4043,-0.6413835287
4044,-0.8248348832
4045,0.2971989512
4046,-0.6742968559
4047,-0.2978679836
4048,-1.432639956
4049,0.121220015
4050,-0.1552148312
4051,-0.08199496567
4052,0.6895191669
4053,-0.02819846384
4054,-0.4322445393
4055,-0.2826974392
4056,-0.08763483912
4057,0.2399395853
4058,-0.07760267705
4059,0.5284444094
4060,-0.5547153354
4061,-0.5150491595
4062,-0.8225437403
4063,-0.1585771143
4064,-0.3663266897
4065,-0.9587025046
4066,-0.3461614549
4067,-0.2394684702
4068,0.2832196653
4069,-0.0372842662
4070,-0.5471028686
4071,-0.1130883694
4072,-0.2196212858
4073,0.3645137548
4074,0.3972096145
4075,-0.2023733854
4076,-0.1527877152
4077,0.03645116091
4078,0.1889889687
4079,-0.4961498976
4080,-0.0006737457588
4081,-0.1370664537
4082,-0.3420976996
4083,-0.7795235515
4084,-0.05286291614
4085,-0.1338318884
4086,-0.6249809861
4087,-0.7628931999
4088,-0.018828189
4089,0.1903672963
4090,-0.3940760493
4091,-0.2470476627
4092,0.5957980752
4093,-0.8389104605
4094,-1.351916075
4095,-0.3638786674
4096,-0.3048258126
4097,-0.2480808645
4098,-0.166292876
4099,0.002256361768
4100,-0.6702385545
4101,-0.2449658066
4102,-0.6608807445
4103,-0.3292371333
4104,-0.3012559414
4105,0.1187375933
4106,0.2264092714
4107,0.316375345
4108,0.02542816103
4109,-0.5628852844
4110,0.02976803668
4111,-0.2054069787
4112,-0.4156753421
4113,0.142708078
4114,-0.3409778476
4115,-0.3025405705
4116,0.08683829755
4117,-0.1342373639
4118,0.1945692152
4119,0.1605728865
4120,-0.2064298242
4121,-0.2756656408
4122,0.0360718593
4123,-0.173055768
4124,0.3153452277
4125,-0.7906814218
4126,-0.3641732335
4127,0.03059601039
4128,0.1706637591
4129,0.157034725
4130,-0.2346260995
4131,-0.1193722934
4132,-0.7073888779
4133,0.1112526506
4134,-0.1423965394
4135,-0.04329572618
4136,0.1002641991
4137,-0.2415866405
4138,0.08999013156
4139,0.08337061107
4140,-0.02361809276
4141,0.1730750352
4142,-0.002009708202
4143,-0.2059313953
4144,-0.1088802814
4145,-0.6906737089
4146,-0.0268669147
4147,0.0428606309
4148,0.1321016401
4149,-0.07810545713
4150,0.07077210397
4151,0.3629844487
4152,0.4167714715
4153,0.02096065693
4154,-0.001505182241
4155,0.05583805218
4156,-0.1960234344
4157,-0.4038371146
4158,-0.4442949891
4159,0.4176413417
4160,0.198597014
4161,-0.4661193788
4162,0.07966236025
4163,-0.429412365
4164,-0.7888900042
4165,0.1599424481
4166,0.2088009119
4167,-0.03004327603
4168,0.2418852299
4169,-0.3203601241
4170,0.2723886669
4171,-0.3689935803
4172,-0.1134372354
4173,-0.3094165325
4174,-0.4562465549
4175,-0.3723709285
4176,0.1890583038
4177,-0.7151351571
4178,0.4032226801
4179,0.4778039455
4180,-0.5489497185
4181,-0.1292668581
4182,0.2061561793
4183,-0.08544471115
4184,-0.1950175762
4185,0.01984033734
4186,-0.2050274312
4187,0.04115277529
4188,0.08496934921
4189,0.1352591366
4190,-0.2081518769
4191,0.0007898819167
4192,0.4700619578
4193,0.07663483918
4194,0.1763904244
4195,0.7403942943
4196,0.0007024326478
4197,-0.5487765074
4198,0.616786778
4199,-0.7605965734
4200,0.1325319558
4201,-2.95842576
4202,-0.6931911707
4203,0.2634927034
4204,-0.1417352259
4205,-0.2100960016
4206,0.05626296625
4207,-0.4583063126
4208,0.3002877235
4209,-0.872518301
4210,-0.7767958045
4211,-0.2913407981
4212,-0.1499721855
4213,-0.06849811226
4214,0.4807638228
4215,-0.3068363369
4216,-0.02339834161
4217,-0.6440441012
4218,-0.06426557153
4219,-0.9053708315
4220,0.6090590358
4221,0.3493494093
4222,0.3353068531
4223,-1.52458775
4224,0.4007264972
4225,-0.2159680426
4226,0.1583647132
4227,0.2826518714
4228,-0.3983802199
4229,0.09603785723
4230,0.1680090725
4231,0.1039771885
4232,-0.01682877727
4233,-0.0224585738
4234,-0.1446691453
4235,-0.1100369096
4236,-0.04772090539
4237,-0.1574275494
4238,-0.03816744313
4239,-0.4863374233
4240,-0.03956015036
4241,0.1434292346
4242,-0.09884465486
4243,0.008915980347
4244,-0.1370011419
4245,-0.1930709481
4246,-0.4303505719
4247,0.2366634756
4248,-0.5002134442
4249,0.06956086308
4250,-0.07629460096
4251,-0.1801743954
4252,-0.3939280808
4253,0.2770710289
4254,0.1842024177
4255,0.04036743939
4256,0.05542980507
4257,0.1693549156
4258,-0.02245926671
4259,0.2058489919
4260,-0.04779033363
4261,-0.937333107
4262,0.1546812654
4263,-0.3056549132
4264,0.2204706073
4265,0.4480723143
4266,0.02911743149
4267,0.2777630985
4268,-0.2505139709
4269,-0.2318065017
4270,-0.04011679441
4271,-0.1873923093
4272,-0.2455258518
4273,-0.149186492
4274,-0.001522212173
4275,-0.372179091
4276,-0.284349978
4277,-0.01319631375
4278,-0.4271919131
4279,0.3303215504
4280,-0.0689227432
4281,-0.3052660227
4282,0.2322419882
4283,0.1033522636
4284,0.4763694406
4285,0.1231601611
4286,0.09950790554
4287,-0.7127204537
4288,0.3241299391
4289,0.1965558678
4290,0.1150347218
4291,0.1922785044
4292,-0.06761838496
4293,-0.292712599
4294,0.4955893457
4295,0.2642515004
4296,-0.403873086
4297,0.4227139652
4298,-0.3939858079
4299,0.133394435
4300,-0.4271176159
4301,-0.05843557045
4302,-0.07138264179
4303,-0.06940793246
4304,0.07013294101
4305,-0.151418075
4306,-0.2071800381
4307,-0.03891976178
4308,0.3092236221
4309,0.2102716714
4310,0.3218033016
4311,0.2923900485
4312,-0.1689486802
4313,-0.2569789588
4314,-0.01705284975
4315,-0.2457289249
4316,0.2516680062
4317,0.0060768025
4318,0.08399330825
4319,0.1495732963
4320,-1.015241742
4321,0.1038971171
4322,-0.1506857574
4323,-0.4825166464
4324,-0.06634096801
4325,-0.2171984315
4326,0.4426881969
4327,0.3173731863
4328,0.3231836557
4329,0.477683723
4330,-0.19213745
4331,0.01197806653
4332,0.2400380671
4333,0.2756920457
4334,0.314638257
4335,0.07797761261
4336,0.1890684664
4337,-0.3286713958
4338,-0.5751794577
4339,-0.0171633549
4340,-0.2553153932
4341,0.106391497
4342,-0.05887275189
4343,-0.21192123
4344,0.0358729139
4345,0.02172987536
4346,0.1954707056
4347,0.05927103385
4348,0.4167834222
4349,0.08294500411
4350,-0.1415821612
4351,-0.1678979248
4352,0.1848470569
4353,0.1530527174
4354,0.1473201513
4355,0.07920274138
4356,-0.4148210883
4357,-0.2048056871
4358,0.2150639147
4359,0.2089075446
4360,-0.05700415373
4361,0.3098685741
4362,0.2387338728
4363,0.1016273871
4364,0.3527187109
4365,0.3270926476
4366,0.261377275
4367,-0.5157417655
4368,-0.1111655086
4369,0.6322159767
4370,0.2278211266
4371,-0.3367116749
4372,-0.1222004145
4373,0.2419454306
4374,0.5072103143
4375,0.3262042403
4376,-0.5388592482
4377,0.2986166179
4378,0.1841235459
4379,0.5191788673
4380,-0.1889967471
4381,0.02710037678
4382,-0.0211390052
4383,0.2991506457
4384,-0.008531483822
4385,0.2087643296
4386,-0.3049912453
4387,-0.3522405624
4388,-0.06018352509
4389,-0.5236782432
4390,0.1586540192
4391,-0.06917174906
4392,-0.01679384708
4393,-0.6786589026
4394,0.1178795248
4395,0.2839510441
4396,0.2092591226
4397,0.2309896648
4398,-0.3642459512
4399,-0.1040671393
4400,0.1250736266
4401,-0.6779440641
4402,-0.6826353073
4403,-0.02624361962
4404,-0.2083542943
4405,-0.1013310626
4406,-0.1387230158
4407,-0.2988546193
4408,0.01032843255
4409,-0.3846922219
4410,0.3814203739
4411,0.233620733
4412,0.06636358798
4413,-0.1182177365
4414,0.1368944943
4415,0.08474224061
4416,-0.324070394
4417,-0.8303068876
4418,0.2154999524
4419,-0.067527771
4420,-0.2044052929
4421,-0.06446450204
4422,-0.4307951033
4423,-0.2539840639
4424,-0.3192029595
4425,0.05851004273
4426,0.04360237718
4427,0.2816817462
4428,-0.4878385067
4429,-0.2855137885
4430,-0.05926436931
4431,-1.324770212
4432,-0.4485967755
4433,0.2708485425
4434,-0.2227292359
4435,0.02831512503
4436,-0.338920027
4437,-0.1397889853
4438,-0.04308950156
4439,0.1063457727
4440,-1.284329891
4441,0.07684975117
4442,-0.3224146068
4443,-0.04228093103
4444,-0.180740878
4445,-0.2396235913
4446,-0.1764540374
4447,0.4065282643
4448,-0.3390535414
4449,0.08630980551
4450,-0.2760682106
4451,-0.3007104695
4452,-0.1914366037
4453,-0.1965444535
4454,0.2041306496
4455,0.3524620831
4456,-0.3121659458
4457,-0.06421466917
4458,0.0161852818
4459,0.1384632289
4460,-0.0230921451
4461,-0.2554772496
4462,0.1648997366
4463,-0.3668608069
4464,0.324244231
4465,0.3706491888
4466,0.150477007
4467,-0.01110564172
4468,-0.07214992493
4469,-0.2371973693
4470,0.08796340227
4471,-0.1931693405
4472,0.3632202446
4473,-0.1471728534
4474,0.3550849557
4475,0.1373976916
4476,-0.02064013854
4477,0.1031028852
4478,-0.7615586519
4479,-0.222230196
4480,-0.2891596556
4481,-0.03016278334
4482,-0.3577224016
4483,-0.3874484003
4484,-0.4618386328
4485,-0.4396782517
4486,-0.1881294698
4487,0.3274782002
4488,-0.1342730224
4489,0.4107277691
4490,-1.241583586
4491,0.09120478481
4492,0.0952071771
4493,-0.3407966793
4494,-0.08685652912
4495,0.1543393433
4496,-0.5722746253
4497,0.2356443405
4498,0.1932764351
4499,-0.9372622967
4500,0.09197205305
4501,0.1091217026
4502,-0.02776138857
4503,0.1156590506
4504,-0.1779641509
4505,-0.3938387036
4506,-0.1761795878
4507,0.3551525176
4508,0.05076410621
4509,-0.0832330063
4510,0.4326496422
4511,0.2920631766
4512,-0.6941666603
4513,-0.5694234371
4514,0.3009216785
4515,-0.01628788374
4516,0.2114649266
4517,0.2715144753
4518,0.1082605049
4519,0.1043626294
4520,-0.3049811423
4521,-0.2657948434
4522,-0.3381696641
4523,-0.1026799157
4524,0.2413581312
4525,-0.3243224919
4526,0.1386671066
4527,-0.01640216447
4528,-0.07906708121
4529,-0.4563408494
4530,0.4791056216
4531,0.1003277153
4532,-0.1091068089
4533,0.04457438737
4534,-0.02348653972
4535,0.1436963528
4536,-0.3434643149
4537,-0.8406971097
4538,0.3599781394
4539,0.250744611
4540,-0.2137838602
4541,0.04621918499
4542,0.1097422168
4543,0.1385568678
4544,0.5608628392
4545,-0.443664223
4546,-0.3918358982
4547,-0.1116234586
4548,0.1428814381
4549,-0.2088872492
4550,0.1345587671
4551,-0.2175048739
4552,0.4357621074
4553,-0.3022429347
4554,-0.1822647154
4555,0.2014718503
4556,-0.3638344407
4557,0.2361699939
4558,-0.08969691396
4559,0.4685222805
4560,-0.1862457842
4561,0.04221835732
4562,-0.4303889275
4563,0.2389881164
4564,-0.3244071007
4565,-0.3000530303
4566,-0.4240050912
4567,0.4292463064
4568,0.0795673728
4569,-0.5091378689
4570,0.2363353968
4571,-0.4152210355
4572,0.2824108899
4573,0.1320522577
4574,0.09331522137
4575,-0.2483882606
4576,-0.5410522819
4577,-0.03631157801
4578,0.1283103377
4579,-0.582662344
4580,0.2664435804
4581,0.02821128815
4582,0.4059512019
4583,-0.332928896
4584,0.08596201986
4585,0.1128343567
4586,-0.5030429959
4587,-0.2114263922
4588,-0.1932097226
4589,-0.0703857094
4590,0.05705771595
4591,0.1081803367
4592,-0.686029315
4593,0.1986744255
4594,-0.7521144748
4595,-0.1147327945
4596,-0.1831295192
4597,-0.1025015637
4598,-0.1476656049
4599,-0.3871853352
4600,-0.4337201118
4601,-0.05487818643
4602,0.193105787
4603,-0.006831707899
4604,0.3725958765
4605,-0.4084884524
4606,-0.4075533748
4607,-0.8602374792
4608,0.2455997169
4609,-0.006127215922
4610,-0.1722274125
4611,-0.7291609049
4612,0.3773257136
4613,-0.07412946224
4614,-0.5517807007
4615,0.02474828251
4616,0.2405315936
4617,-0.380892545
4618,0.09615632147
4619,-0.6413313746
4620,1.305685043
4621,-0.3914728761
4622,0.3960254788
4623,-0.8971790075
4624,-0.4533841014
4625,0.6695100069
4626,-0.09661472589
4627,-0.2946985364
4628,0.09386749566
4629,0.1640099287
4630,1.43343246
4631,-0.7867093682
4632,-0.1464441717
4633,0.08058783412
4634,-0.2614066601
4635,0.8891164064
4636,-0.5350031853
4637,0.1998983175
4638,0.07957249135
4639,-0.3237376511
4640,-1.112862468
4641,-0.2505886555
4642,0.3594525158
4643,0.1042884365
4644,0.03906522691
4645,-0.6728128195
4646,0.8490011692
4647,0.1362452954
4648,-0.1754955947
4649,0.8135982752
4650,-0.1599503309
4651,-0.296852231
4652,-0.7848189473
4653,-0.180986017
4654,-0.459787637
4655,-0.2853332758
4656,-0.291624099
4657,0.09620654583
4658,0.2773320675
4659,-0.257607609
4660,0.1125729755
4661,0.02782249078
4662,-0.427544564
4663,-0.3395983279
4664,0.3505894244
4665,0.6847703457
4666,-1.373236656
4667,0.1513039023
4668,0.1544583738
4669,-0.0358597599
4670,0.1010040864
4671,0.3082337677
4672,0.3109754026
4673,0.1253455728
4674,0.1847373098
4675,0.3837502599
4676,-0.4040456414
4677,-0.1895772368
4678,-0.8138196468
4679,-0.1931635737
4680,-0.2041344643
4681,0.3063993454
4682,-0.1946923733
4683,-0.003565574065
4684,-0.7041233778
4685,-0.5226461291
4686,-0.6814175844
4687,-0.02581368014
4688,1.355527639
4689,-0.2669175565
4690,0.7184095979
4691,0.6928050518
4692,-0.4426882565
4693,-0.004288504831
4694,0.7868286967
4695,-1.368855476
4696,-0.07487334311
4697,0.3296801448
4698,0.1627230942
4699,-1.124443531
4700,-0.4320944846
4701,-0.4840287566
4702,0.3288603723
4703,-0.3597703874
4704,0.6596931815
4705,0.4784480929
4706,-0.01558972523
4707,-0.2849220932
4708,-0.2039250284
4709,-0.06296335161
4710,-1.130353212
4711,-0.7375211716
4712,0.5779104829
4713,0.03949192911
4714,0.3321445882
4715,0.08551365882
4716,0.4258266389
4717,-0.08970639855
4718,-0.8098251224
4719,0.1831693649
4720,-0.1342475116
4721,-0.2230893821
4722,-0.9146389961
4723,0.6216334701
4724,-0.09854587168
4725,0.2025506943
4726,0.8264668584
4727,-0.1505284011
4728,0.03930507973
4729,0.7108134627
4730,-0.007745312061
4731,0.06535055488
4732,-0.9769949913
4733,0.7573779225
4734,0.4793246984
4735,0.07924311608
4736,0.09551497549
4737,-0.2303356826
4738,-0.2189733088
4739,0.4442609251
4740,-0.12131273
4741,-0.2038923949
4742,-0.5590100884
4743,0.249399215
4744,0.1831593066
4745,-0.1007107273
4746,-0.5560211539
4747,-0.1634024978
4748,-0.293920517
4749,-0.1199149936
4750,0.3181830347
4751,-0.6121115088
4752,0.8300502896
4753,-0.3625588715
4754,-0.4025902152
4755,0.4117362797
4756,-0.08792214096
4757,-0.1181676909
4758,0.1802727282
4759,-0.66953969
4760,0.01439151634
4761,0.09213845432
4762,0.2316622436
4763,0.7958080769
4764,0.03970192373
4765,-0.07792726159
4766,-0.1085279286
4767,-0.1963759214
4768,-0.670137763
4769,0.2248703837
4770,0.1838092655
4771,0.06308025122
4772,-0.2059190124
4773,-0.6344354153
4774,-0.4087386131
4775,0.4341007471
4776,0.6563237309
4777,-0.7641345859
4778,-0.3631678522
4779,-0.5878566504
4780,-0.2733860314
4781,0.06364437938
4782,0.1827653944
4783,0.06180178002
4784,0.2929622233
4785,-0.3508405983
4786,-0.646668911
4787,0.3304676414
4788,-0.1140067801
4789,-0.0006496887654
4790,0.5701922774
4791,0.0924583897
4792,-0.140111506
4793,-0.4961906374
4794,-0.6072026491
4795,-0.3542859554
4796,-0.7115613222
4797,0.3905707896
4798,0.1587766856
4799,-0.49662292
4800,0.12809892
4801,-0.2447504848
4802,0.3719733357
4803,-0.7429924607
4804,0.3595621288
4805,-0.1705941111
4806,0.1028047949
4807,-0.6680604815
4808,0.1085969359
4809,-0.190943256
4810,0.6309970021
4811,0.3693767786
4812,-0.5665293932
4813,0.7858527899
4814,0.4140248001
4815,-0.4215540588
4816,-0.6082789898
4817,0.06223013997
4818,0.1952617317
4819,-1.148943186
4820,0.05606647208
4821,-0.3100582361
4822,-0.04255615547
4823,0.01979340985
4824,-0.6942052841
4825,-0.03565408289
4826,-0.2344835699
4827,-0.0246180445
4828,-0.1228898838
4829,-0.5251870751
4830,0.08817396313
4831,-0.6055217385
4832,0.09256623685
4833,-0.4325180948
4834,0.1836017817
4835,0.2026610523
4836,-0.07280839235
4837,-0.8131018877
4838,0.1188725755
4839,-0.06852354109
4840,0.09233956039
4841,-0.5411279798
4842,-0.4550060034
4843,0.2297717929
4844,-0.2812841535
4845,0.08818848431
4846,-0.224651292
4847,-0.2196760178
4848,-0.2097352445
4849,-0.02526591346
4850,-0.1834135056
4851,-0.2499448359
4852,0.07112716883
4853,-0.1188174635
4854,-0.3842447698
4855,-0.2921234667
4856,0.03602724522
4857,0.09822425246
4858,-0.3709603548
4859,-0.3584907651
4860,0.2850828469
4861,-0.5473220944
4862,-0.7105492353
4863,0.2759698331
4864,-0.1743842661
4865,-0.005053977482
4866,-0.3057669103
4867,0.01232403703
4868,-0.0332765542
4869,-0.04338377714
4870,-0.1416165382
4871,-0.5501820445
4872,-0.1518155485
4873,0.02698614076
4874,-0.116402559
4875,0.196386978
4876,-0.4663502276
4877,-0.3799791336
4878,-0.2229788154
4879,-0.04145534709
4880,-0.1490013897
4881,-0.0598962009
4882,-0.6935092807
4883,0.1857661307
4884,-0.01557464711
4885,-0.08519612998
4886,0.2141024917
4887,-0.198933363
4888,-0.1015462428
4889,0.02629994042
4890,-0.3350710571
4891,-0.3002368212
4892,0.2736765742
4893,-0.4523946047
4894,-0.03844981641
4895,-0.1689816713
4896,-0.6545103788
4897,-0.5213336349
4898,0.06515488774
4899,0.397279948
4900,0.115569897
4901,-0.7964891195
4902,-0.6888827682
4903,-0.09173977375
4904,0.00584099628
4905,0.4545867741
4906,-0.2289827466
4907,0.3644626141
4908,-0.4209192991
4909,-0.08879136294
4910,-0.6218069792
4911,-0.5952607989
4912,-0.4308452904
4913,-0.7768407464
4914,-0.9793121219
4915,0.4098042548
4916,0.08518628031
4917,0.1013478264
4918,-0.3964005411
4919,-0.1988209188
4920,0.2860582471
4921,0.1031748727
4922,-0.04494465515
4923,-0.3614864051
4924,0.2171254754
4925,-0.1867084652
4926,-0.8335952163
4927,0.312063098
4928,-0.6036147475
4929,0.4097570479
4930,-0.3116683364
4931,-0.2083797902
4932,-0.1614362448
4933,-0.2554531395
4934,0.08475609869
4935,-0.2192678154
4936,0.5820584297
4937,-0.2500035763
4938,-0.1407943368
4939,-0.5168693066
4940,0.6856941581
4941,0.6966794133
4942,0.2378441244
4943,1.594694972
4944,-0.5350241661
4945,0.4169055521
4946,0.04982726648
4947,-0.4787774682
4948,-0.2055183649
4949,0.02814606763
4950,1.009822607
4951,-0.4622979462
4952,0.2215318382
4953,0.15264979
4954,0.1692294776
4955,0.02048729919
4956,-0.9192282557
4957,0.6482868195
4958,-0.4910564125
4959,-0.06297362596
4960,-0.1654171944
4961,-0.1905343682
4962,0.4698169231
4963,-0.02410320379
4964,-0.0118379537
4965,-0.3935180604
4966,0.2880204916
4967,-0.04885541648
4968,-0.2063952088
4969,0.493317157
4970,0.0383630842
4971,-0.3466732502
4972,-0.02353911661
4973,0.1794338673
4974,0.3655543625
4975,0.4747729003
4976,-0.04103554785
4977,-1.053563356
4978,-0.1900282353
4979,-0.4048401415
4980,-0.1206645742
4981,0.0008930972544
4982,-0.1253140718
4983,-0.3286335766
4984,-0.3034584224
4985,0.09940680861
4986,-1.159815073
4987,0.01084119175
4988,-0.713847518
4989,0.03993146867
4990,-0.3086481392
4991,0.3926516175
4992,-0.8152942061
4993,-0.9248957038
4994,0.2291952819
4995,-0.2460556626
4996,-0.2792702615
4997,0.1205495819
4998,0.4646493793
4999,-0.1278285235
5000,-0.1500202864
5001,0.2225578278
5002,-0.5092835426
5003,0.2263190448
5004,0.3833394945
5005,0.101333566
5006,0.2631166875
5007,-0.9277850389
5008,-0.1500395387
5009,0.273173064
5010,-0.2607676983
5011,0.09397507459
5012,-0.3360639811
5013,-0.008862587623
5014,0.04169600084
5015,-0.4208585322
5016,-0.683847487
5017,-0.361366868
5018,-0.05707487836
5019,0.4382041395
5020,0.04760699719
5021,-0.6030797958
5022,0.07591638714
5023,-0.06226810813
5024,-1.139733911
5025,-0.289224267
5026,0.1243857518
5027,-1.683436394
5028,-0.2217213213
5029,0.3513388038
5030,0.07377734035
5031,0.1746747643
5032,-0.4278175831
5033,0.309545666
5034,-0.1537758112
5035,0.07939182967
5036,-0.6074385047
5037,-0.06974930316
5038,-0.302028507
5039,-0.2936502695
5040,-0.5845581293
5041,0.356064111
5042,-0.7942659855
5043,0.2751803398
5044,0.05975883827
5045,-0.1370585412
5046,0.358041048
5047,0.2125445008
5048,0.07769887894
5049,0.1204067022
5050,-1.044962287
5051,-0.08235703409
5052,-0.8006495237
5053,0.04198763892
5054,-0.8716310263
5055,-0.005408962723
5056,-0.1363381147
5057,0.03593018278
5058,-0.03723717481
5059,0.3267147243
5060,-0.04042764381
5061,0.1845570952
5062,-0.2148011178
5063,-0.1894998252
5064,-0.7050018311
5065,0.08786904812
5066,-0.2273988128
5067,-0.07062261552
5068,-0.06827871501
5069,0.1214500144
5070,-0.3802716434
5071,-0.9956069589
5072,0.1013411731
5073,-0.08321592212
5074,0.05940235034
5075,0.03208764642
5076,0.1989919245
5077,0.002772923093
5078,0.02309178375
5079,-0.4414932132
5080,0.3442984521
5081,-0.07104343921
5082,-0.1680494249
5083,0.3487872481
5084,0.1275507212
5085,-0.9352873564
5086,-0.1873273253
5087,-0.05711429194
5088,-1.424292445
5089,-0.3595676124
5090,-0.2880428135
5091,-0.6005148292
5092,-0.05039661378
5093,-0.02057734691
5094,-0.2844541967
5095,0.1319172531
5096,-0.1083833426
5097,-0.032859914
5098,0.5020309687
5099,-0.1133144572
5100,0.608538568
5101,-0.06776271015
5102,-0.1077288166
5103,0.4931414425
5104,0.2440650612
5105,0.2197930366
5106,-0.03360069916
5107,0.1631461829
5108,-0.250713706
5109,0.1752029657
5110,0.4368828237
5111,-0.1807292253
5112,0.08774526417
5113,-0.567840755
5114,0.01820854656
5115,0.3090038896
5116,-0.09729719162
5117,0.0421840325
5118,-0.07795760036
5119,-0.2057663649
5120,0.03928756714
5121,-0.4134180844
5122,0.1974475831
5123,-0.4324466586
5124,-0.06277050823
5125,-0.1389994323
5126,0.06072740629
5127,0.1521473378
5128,-0.2728068233
5129,-0.3476328254
5130,-0.4307535291
5131,0.05310208723
5132,0.0753845498
5133,0.3199555576
5134,0.03692989424
5135,-0.3589807153
5136,-0.479937464
5137,0.02561580576
5138,-0.0188133698
5139,0.1346301287
5140,-0.1172022671
5141,-0.1450302303
5142,0.1046858281
5143,-0.033770293
5144,-0.2530664802
5145,-0.02342675999
5146,-0.1326410621
5147,0.04583970457
5148,-0.1281673759
5149,-0.2448527813
5150,-0.1931828409
5151,0.2484008968
5152,-0.3155790269
5153,-0.2834854722
5154,0.1624644548
5155,-0.2650125325
5156,-0.1643320769
5157,-0.1134812534
5158,0.3635907173
5159,-0.08505120873
5160,-0.44719401
5161,0.04805770144
5162,-0.6072583795
5163,0.08771707118
5164,0.002593019512
5165,-0.3306756914
5166,0.2510928214
5167,-0.8678259254
5168,-0.6012058258
5169,-0.2149410546
5170,-0.2582054436
5171,0.201413393
5172,-0.03910385817
5173,-0.03294832259
5174,-0.2811636627
5175,0.1635282636
5176,-0.3381964564
5177,-0.2594687343
5178,-0.3211599886
5179,-0.1443210989
5180,-0.3646037281
5181,-0.2585654855
5182,-0.2774927616
5183,-0.213214606
5184,0.1599349231
5185,0.4460878968
5186,-0.06706217676
5187,0.2301272154
5188,-0.1593011916
5189,-0.0326141715
5190,-0.6063269973
5191,0.4661765397
5192,0.01731419377
5193,-0.1805980653
5194,0.02334962413
5195,-0.1819117665
5196,0.08140450716
5197,-0.5933755636
5198,0.3510625958
5199,-0.5739297271
5200,0.1667508781
5201,0.2249017805
5202,0.003436121158
5203,0.3172961771
5204,-0.04732947052
5205,-0.06329874694
5206,-0.1873434484
5207,0.05452232435
5208,-0.6681706905
5209,0.5012275577
5210,0.06431950629
5211,-0.2496533841
5212,0.1043929085
5213,-0.49963817
5214,-0.215581134
5215,-0.03350127488
5216,-0.3347058296
5217,-0.1028315052
5218,-0.2516622841
5219,0.2099637985
5220,-0.2865952849
5221,0.2386832982
5222,-0.4074164331
5223,-0.2634469271
5224,-0.4335871637
5225,-0.1389012039
5226,0.312497586
5227,0.02624076232
5228,0.2609979808
5229,-0.2347964495
5230,-0.4498820305
5231,-0.07844502479
5232,0.2976527512
5233,0.6946004629
5234,-0.5145798326
5235,0.3582391441
5236,-0.2672985494
5237,-0.005551574752
5238,0.3121520281
5239,-0.1240986586
5240,-0.04428132996
5241,0.003300340148
5242,0.04543400928
5243,0.1120113507
5244,0.2396638989
5245,-0.0513554737
5246,0.1223293692
5247,0.1876004636
5248,0.07865308225
5249,-0.5683484674
5250,-0.614826858
5251,-0.418946892
5252,-0.1023228094
5253,-0.1443289071
5254,-0.4176420569
5255,0.6798132658
5256,-1.174401999
5257,-0.2778467536
5258,-0.2440232784
5259,0.1119998321
5260,-0.5813590884
5261,-0.2398182303
5262,-0.09865984321
5263,-0.4774504304
5264,0.05093086511
5265,-0.2964842916
5266,-0.2833780944
5267,0.1500953138
5268,0.3185105622
5269,0.2424899787
5270,-0.4785401225
5271,-0.2196818441
5272,0.1071956903
5273,0.6037740707
5274,0.2069116682
5275,-0.996666193
5276,0.5514163375
5277,0.009789062664
5278,0.3662350178
5279,-0.007019851357
5280,-0.2031442523
5281,0.5439761281
5282,-0.7002261281
5283,0.132413879
5284,0.06590925157
5285,0.01081745513
5286,0.1829942167
5287,0.3264489174
5288,0.08175510913
5289,-1.828827381
5290,0.3624057472
5291,0.2245188057
5292,-0.4064795971
5293,0.1663730592
5294,-0.3765817285
5295,0.0214092955
5296,0.08437149972
5297,0.6624660492
5298,-0.2380520999
5299,0.5530509949
5300,-0.1758953035
5301,-0.002174351364
5302,0.6179770231
5303,0.09055360407
5304,0.3906033635
5305,-0.07565781474
5306,-0.1037653089
5307,0.1902815104
5308,-0.04687846452
5309,-0.7044261098
5310,0.01765495911
5311,0.1005973294
5312,-0.7144786716
5313,0.2527915239
5314,0.1760972142
5315,0.279227972
5316,-0.4899889231
5317,-0.3115208149
5318,-0.0695021227
5319,-0.3447166979
5320,-0.05164343491
5321,-0.1894850135
5322,-0.2891682088
5323,0.1952133179
5324,0.3957630694
5325,0.2971764803
5326,0.1204830036
5327,-0.09292694181
5328,0.2933249176
5329,0.1393116266
5330,-0.07243493944
5331,0.35317415
5332,-0.08914150298
5333,0.2517568767
5334,0.1846310198
5335,-0.1799123287
5336,-0.5401598811
5337,-0.02353248186
5338,0.07122537494
5339,-0.3593375385
5340,0.03217761219
5341,-0.4522102475
5342,-0.6052654982
5343,-0.3386226296
5344,-0.06187620386
5345,0.2323848456
5346,-0.3436038792
5347,0.02855586819
5348,0.1611401886
5349,0.08320395648
5350,-0.1835765243
5351,-0.2403689027
5352,0.0399328582
5353,-0.7843307853
5354,0.09057432413
5355,0.2672633529
5356,0.4029023051
5357,-0.3127861917
5358,-0.09145430475
5359,0.2026208937
5360,-0.276710391
5361,-0.4401760399
5362,0.3021822274
5363,0.2320031822
5364,-0.3022880852
5365,0.2050296664
5366,0.1299674064
5367,0.03581353649
5368,-0.6728715301
5369,-1.798863888
5370,-0.1167943552
5371,-0.3171023428
5372,0.2921130657
5373,0.1371076405
5374,0.2706032693
5375,-0.3838863969
5376,-0.5733875036
5377,-1.290783286
5378,0.2974463999
5379,-0.277475208
5380,-0.1622554362
5381,0.1964580417
5382,-0.07679396123
5383,-0.2716503739
5384,-0.3438947201
5385,0.2220421582
5386,-0.7590661645
5387,0.5758312941
5388,-0.6293359995
5389,-0.0727988407
5390,-0.01011791732
5391,-0.08127582073
5392,0.3123915792
5393,0.001323610777
5394,0.04333312809
5395,-0.7941513658
5396,-0.6901321411
5397,-0.1555469185
5398,-0.4112686217
5399,-0.1418056488
5400,0.09388817847
5401,0.05158605427
5402,-0.1298890859
5403,-1.237863064
5404,0.4266428053
5405,-0.1471795142
5406,0.3310678303
5407,-0.41775769
5408,-1.337936997
5409,-0.08100564033
5410,0.03898875043
5411,0.4202826023
5412,-0.3887912333
5413,-0.6386922002
5414,0.04317972437
5415,0.129311949
5416,0.06461613625
5417,0.02561937459
5418,0.08673299104
5419,0.1674563289
5420,0.2193965167
5421,-0.2035040408
5422,0.04199719429
5423,0.246988833
5424,0.1344210953
5425,0.6952735186
5426,-0.6726332307
5427,0.7469984889
5428,-0.1096741259
5429,-0.1484615058
5430,0.3409986198
5431,0.01584441215
5432,-0.3151995838
5433,0.5208867788
5434,-0.3428110778
5435,0.2229245007
5436,0.01978973858
5437,0.2696498036
5438,-0.08301585168
5439,0.5523210168
